Epoch: 4-3, Loss: 0.03577960282564163, Lr: 0.001 , 
 ,Threshold: 
[-0.0177008006721735, 0.005030111875385046, 0.004086402710527182, 0.00068860367173329, 0.016102613881230354, -0.007333289831876755, 0.009428554214537144, 0.005842589773237705, -0.003713474841788411, -0.004403058905154467, -0.004495264030992985, -0.007821505889296532, -0.013767767697572708, 0.014458182267844677, 0.005342518445104361, 0.004604322835803032, 0.008064725436270237, 0.013571341522037983, 0.015177703462541103, 0.019889546558260918, -0.005075374152511358, 0.015651309862732887, -0.006228676997125149, 0.0057311514392495155, 0.0022041050251573324, -0.003148346208035946, 0.012687724083662033, 0.011183666996657848, 0.02008713409304619, 0.0028420810122042894, -0.0039872596971690655, 0.0018514924449846148, 0.008351881057024002, 0.0011295145377516747, -0.0003537265001796186, 0.005729506723582745, 0.008882351219654083, 0.0034248842857778072, -0.006815855856984854, -0.0024376586079597473, 0.010900120250880718, -0.012463986873626709, -0.008808874525129795, 0.0076597873121500015, -0.016114491969347, -0.001628013327717781, -0.010341009125113487, 0.0027010077610611916, 0.0019059822661802173, -0.019613757729530334, 0.00970284454524517, 0.003071306273341179, 0.024123379960656166, 0.016118068248033524, 0.027970528230071068, 0.01637720689177513, 0.0348740816116333, 0.05200475454330444, 0.06753946095705032, 0.09207199513912201, 0.1024801954627037, 0.0860857293009758, 0.10693970322608948, 0.11221490800380707, 0.13296794891357422, 0.13466204702854156, 0.13570091128349304, 0.14426638185977936, 0.14313969016075134, 0.14171549677848816, 0.17474780976772308, 0.17889951169490814, 0.1744491308927536, 0.20886315405368805, 0.1969701647758484, 0.2026383876800537, 0.21259592473506927, 0.20299366116523743, 0.18782338500022888, 0.15172357857227325] 
 , Step size: 
 [0.002271149307489395, -0.008205006830394268, -0.009215901605784893, -0.012108314782381058, 0.009005121886730194, 0.00950267631560564, 0.01566835679113865, 0.0032513036858290434, -0.007193312048912048, 0.013052919879555702, -0.013428854756057262, 0.0004610212636180222, 0.0007016470772214234, 0.012795542366802692, 0.023741642013192177, 0.007905120961368084, -0.006593044847249985, 0.008249189704656601, -0.02448711171746254, -0.01674409955739975, -0.00312934722751379, -0.016345113515853882, -0.010340793989598751, 0.007056455127894878, 0.0026760089676827192, -0.015279455110430717, -0.004839802160859108, 0.014741913415491581, -0.003027817467227578, -0.00805465504527092, -0.012303979136049747, -0.001642207964323461, -0.008468137122690678, 0.003720842069014907, -0.022296670824289322, 0.010484699159860611, 0.01950201205909252, -0.009280221536755562, -0.0057434565387666225, 0.0036475409287959337, -0.0058631268329918385, 0.014315394684672356, -0.006504155229777098, 0.014418995939195156, -0.009276739321649075, 0.00820829626172781, 0.017264481633901596, 0.008977895602583885, -0.0019812099635601044, 0.0010215045185759664, 4.6965240471763536e-05, -0.005876367911696434, -0.005419454537332058, -0.01902320235967636, -0.04410973936319351, -0.020126111805438995, -0.04037809371948242, -0.056484974920749664, -0.06616570055484772, -0.09074132144451141, -0.10016600042581558, -0.08679772168397903, -0.09737969189882278, -0.13249218463897705, -0.1337161660194397, -0.12403621524572372, -0.14126397669315338, -0.1326187700033188, -0.14900857210159302, -0.16910822689533234, -0.17685699462890625, -0.20456784963607788, -0.20369119942188263, -0.2018558382987976, -0.2075616717338562, -0.2319079339504242, -0.21562114357948303, -0.2221253514289856, -0.18632280826568604, -0.1747293919324875]