Epoch: 3-3, Loss: 0.040954094380140305, Lr: 0.001 , 
 ,Threshold: 
[-0.01770077273249626, 0.005030142609030008, 0.0040864343754947186, 0.0006886401679366827, 0.01610264927148819, -0.007333236280828714, 0.009428623132407665, 0.00584267545491457, -0.0037133677396923304, -0.004402927588671446, -0.004495092201977968, -0.007821295410394669, -0.01376750785857439, 0.014458507299423218, 0.005342913791537285, 0.004604810383170843, 0.00806532334536314, 0.013572041876614094, 0.015178557485342026, 0.01989053376019001, -0.005073712673038244, 0.015653450042009354, -0.006225938443094492, 0.005734594073146582, 0.002208435209468007, -0.0031428616493940353, 0.012694602832198143, 0.011192228645086288, 0.020098095759749413, 0.002855720929801464, -0.0039701615460217, 0.0018729737494140863, 0.008378901518881321, 0.0011630899971351027, -0.00031142120133154094, 0.005784756503999233, 0.008950875140726566, 0.003511234186589718, -0.00671142665669322, -0.0023115230724215508, 0.011052096262574196, -0.012246153317391872, -0.008540789596736431, 0.007975508458912373, -0.015750186517834663, -0.0012319977395236492, -0.009953967295587063, 0.0030116834677755833, 0.001986197428777814, -0.020017258822917938, 0.0083182817324996, 1.6133039025589824e-05, 0.018368666991591454, 0.006726853083819151, 0.013978269882500172, -0.0019849869422614574, 0.01118654478341341, 0.02396439202129841, 0.035915300250053406, 0.05762600153684616, 0.06577011942863464, 0.04746855050325394, 0.06634942442178726, 0.06967399269342422, 0.08843141794204712, 0.08790042996406555, 0.08615152537822723, 0.09152249246835709, 0.08713383972644806, 0.08225759118795395, 0.11201559007167816, 0.11325063556432724, 0.10692663490772247, 0.1400332748889923, 0.1280551701784134, 0.13430577516555786, 0.14739911258220673, 0.1426221877336502, 0.13524214923381805, 0.10913955420255661] 
 , Step size: 
 [0.0022711155470460653, -0.008205033838748932, -0.009215930476784706, -0.012108349241316319, 0.009005078114569187, 0.009502623230218887, 0.015668289735913277, 0.0032512203324586153, -0.00719341728836298, 0.01305279042571783, -0.013429020531475544, 0.000460814539110288, 0.000701391079928726, 0.012795223854482174, 0.02374124899506569, 0.007904636673629284, -0.006593639496713877, 0.008248492144048214, -0.024487974122166634, -0.01674509234726429, -0.00313102500513196, -0.016347281634807587, -0.010343569330871105, 0.007052980363368988, 0.002671646885573864, -0.015284988097846508, -0.004846748895943165, 0.01473329123109579, -0.003038892289623618, -0.008068441413342953, -0.012321249581873417, -0.0016638775123283267, -0.00849544070661068, 0.0036870057228952646, -0.02233944833278656, 0.010429050773382187, 0.01943323202431202, -0.009367093443870544, -0.005848332308232784, 0.0035211166832596064, -0.006016022991389036, 0.014098023995757103, -0.006772018037736416, 0.01410391554236412, -0.009640092961490154, 0.007813645526766777, 0.016880057752132416, 0.008666676469147205, -0.0020633903332054615, 0.0014221349265426397, 0.0014191085938364267, -0.0028221742250025272, 0.000366262043826282, -0.009537268429994583, -0.029897581785917282, -0.0015023353043943644, -0.01638782024383545, -0.027999302372336388, -0.03394569456577301, -0.055522020906209946, -0.06255389004945755, -0.047253210097551346, -0.05574294179677963, -0.08871452510356903, -0.08776329457759857, -0.07574093341827393, -0.0899956002831459, -0.0780201330780983, -0.09087980538606644, -0.1072186753153801, -0.11133605241775513, -0.13580657541751862, -0.13280771672725677, -0.12935541570186615, -0.1346302628517151, -0.15910910069942474, -0.1454325169324875, -0.15623672306537628, -0.12785376608371735, -0.12655143439769745]