Epoch: 6-37, Loss: 0.00033057850669138134, Lr: 0.001 , 
 ,Threshold: 
[-0.01770508848130703, 0.005026180762797594, 0.004082112573087215, 0.00068371940869838, 0.01609714888036251, -0.007339647971093655, 0.009420943446457386, 0.005833510775119066, -0.003724141977727413, -0.004415140021592379, -0.00450909323990345, -0.007836068980395794, -0.013781844638288021, 0.014447087422013283, 0.00533946231007576, 0.004617912229150534, 0.008109982125461102, 0.013671688735485077, 0.015377294272184372, 0.020245324820280075, -0.0052716671489179134, 0.015402015298604965, -0.006574968807399273, 0.005294690374284983, 0.0016509626293554902, -0.003853157162666321, 0.011797484010457993, 0.010075096972286701, 0.01865672878921032, 0.001053510350175202, -0.006235321518033743, -0.0009846908506006002, 0.004807204939424992, -0.0032329470850527287, -0.0057668546214699745, -0.0013929104898124933, 0.000319115788443014, -0.0068340967409312725, -0.0186110008507967, -0.01591096632182598, -0.004424083046615124, -0.02662426047027111, -0.024535441771149635, -0.00855393148958683, -0.03237204626202583, -0.01733306795358658, -0.021775897592306137, -0.00808007176965475, -0.0040463670156896114, -0.019269132986664772, 0.020582688972353935, 0.0342743881046772, 0.08191599696874619, 0.08333383500576019, 0.11125344038009644, 0.111386738717556, 0.1393185704946518, 0.16488176584243774, 0.18167978525161743, 0.21666546165943146, 0.22767119109630585, 0.22458502650260925, 0.2668209671974182, 0.2771986126899719, 0.305494099855423, 0.3114854097366333, 0.31589728593826294, 0.32622745633125305, 0.3268149197101593, 0.3261440098285675, 0.3594846725463867, 0.36323022842407227, 0.3554303050041199, 0.38589033484458923, 0.36671021580696106, 0.3650733232498169, 0.35615652799606323, 0.33245721459388733, 0.34250664710998535, 0.2953381836414337] 
 , Step size: 
 [0.0022749295458197594, -0.00820087268948555, -0.009211383759975433, -0.01210319809615612, 0.009010839276015759, 0.009509255178272724, 0.015676187351346016, 0.0032606038730591536, -0.007182421162724495, 0.013065183535218239, -0.013414799235761166, 0.00047577047371305525, 0.0007158955559134483, 0.012806874699890614, 0.023744920268654823, 0.007892012596130371, -0.006637897342443466, 0.008148632012307644, -0.024688782170414925, -0.017107808962464333, -0.0029310877434909344, -0.016092287376523018, -0.009990165010094643, 0.007497195154428482, 0.0032333005219697952, -0.014568931423127651, -0.003940692637115717, 0.015858374536037445, -0.001583734410814941, -0.006248383317142725, -0.010035444982349873, 0.0012147236848250031, -0.004895070567727089, 0.008109575137495995, -0.016845420002937317, 0.01764218509197235, 0.02807784453034401, 0.0009961721953004599, 0.006063284818083048, 0.017117302864789963, 0.009468499571084976, 0.028516050428152084, 0.009243487380445004, 0.03067627176642418, 0.007046271115541458, 0.024011021479964256, 0.028914663940668106, 0.019937846809625626, 0.004152845591306686, 0.0009125618962571025, -0.010771104134619236, -0.03751212731003761, -0.0642116367816925, -0.08735587447881699, -0.128514364361763, -0.11676633358001709, -0.14595717191696167, -0.1702864021062851, -0.18114128708839417, -0.21623340249061584, -0.22633324563503265, -0.2272908240556717, -0.26118963956832886, -0.30143895745277405, -0.3103575110435486, -0.3051246404647827, -0.32577407360076904, -0.3189019560813904, -0.33696651458740234, -0.3577653765678406, -0.36576390266418457, -0.3929707407951355, -0.38919883966445923, -0.3838950991630554, -0.3834628760814667, -0.4015748202800751, -0.36924633383750916, -0.3647013008594513, -0.36003485321998596, -0.3499037027359009]