Epoch: 0-3, Loss: 0.05319025740027428, Lr: 0.001 , 
 ,Threshold: 
[-0.01770072430372238, 0.0050302003510296345, 0.004086495842784643, 0.0006887117633596063, 0.016102712601423264, -0.007333132438361645, 0.009428751654922962, 0.005842840299010277, -0.003713161451742053, -0.0044026742689311504, -0.0044947718270123005, -0.007820896804332733, -0.013767021708190441, 0.014459102414548397, 0.005343626253306866, 0.004605668596923351, 0.008066336624324322, 0.013573173433542252, 0.015179834328591824, 0.019891830161213875, -0.005070473533123732, 0.01565762422978878, -0.006220651790499687, 0.00574122928082943, 0.0022167761344462633, -0.0031323046423494816, 0.01270783506333828, 0.011208644136786461, 0.02011912129819393, 0.002881870372220874, -0.003937406465411186, 0.0019140562508255243, 0.00843067280948162, 0.0012272926978766918, -0.0002301198401255533, 0.005889090709388256, 0.009080619551241398, 0.003675666404888034, -0.006511169485747814, -0.002067327732220292, 0.011352644301950932, -0.011829867027699947, -0.00801874976605177, 0.008609907701611519, -0.014981353655457497, -0.0003233488241676241, -0.008909795433282852, 0.004181209485977888, 0.003207441186532378, -0.01891379803419113, 0.009013747796416283, -0.00024096925335470587, 0.016248628497123718, 0.0016903866780921817, 0.00435386598110199, -0.01564408838748932, -0.011208406649529934, -0.00818630587309599, -0.005759247113019228, 0.007296539377421141, 0.009008154273033142, -0.015893274918198586, -0.0016165249980986118, -0.0019300435669720173, 0.013912638649344444, 0.009864965453743935, 0.004266770556569099, 0.001953643513843417, -0.006728662643581629, -0.01662380062043667, 0.007394344545900822, 0.0017252431716769934, -0.011583974584937096, 0.014696656726300716, -0.0034954024013131857, -0.0014892031904309988, 0.010296528227627277, 0.006818066351115704, 0.004562929272651672, -0.013771231286227703] 
 , Step size: 
 [0.0022710529156029224, -0.008205077610909939, -0.009215977974236012, -0.01210840605199337, 0.009005000814795494, 0.009502526372671127, 0.01566818542778492, 0.003251059679314494, -0.007193620316684246, 0.013052539899945259, -0.013429339975118637, 0.00046042510075494647, 0.0007009143591858447, 0.01279462967067957, 0.02374054677784443, 0.00790378637611866, -0.006594647187739611, 0.008247364312410355, -0.024489250034093857, -0.01674639619886875, -0.003134294180199504, -0.016351519152522087, -0.01034892350435257, 0.007046290207654238, 0.0026632463559508324, -0.015295633114874363, -0.004860118497163057, 0.014716755598783493, -0.003060142509639263, -0.008094871416687965, -0.01235434040427208, -0.0017053228802978992, -0.008547755889594555, 0.003622304182499647, -0.02242165058851242, 0.01032393891364336, 0.019302986562252045, -0.00953251589089632, -0.006049492862075567, 0.003276311093941331, -0.006318339146673679, 0.01368237379938364, -0.00729365274310112, 0.013470632024109364, -0.010407140478491783, 0.006908049341291189, 0.015843937173485756, 0.00750280125066638, -0.0032811653800308704, 0.0003283543628640473, 0.0007212315686047077, -0.002560849068686366, 0.002500124042853713, -0.004452078137546778, -0.02015298791229725, 0.012303072959184647, 0.006043019704520702, 0.0042434935458004475, 0.007962441071867943, -0.004690445959568024, -0.005044783931225538, 0.01685609295964241, 0.01308431290090084, -0.016030041500926018, -0.011974942870438099, 0.0036539030261337757, -0.006594466511160135, 0.013081674464046955, 0.004757579881697893, -0.006260801572352648, -0.004212233703583479, -0.021371090784668922, -0.011149631813168526, -0.0004367314395494759, 0.0008511376800015569, -0.018789594992995262, -0.0033274665474891663, -0.014950146898627281, 0.008611026220023632, 0.002138412557542324]