Epoch: 7-3, Loss: 0.004227170720696449, Lr: 0.001 , 
 ,Threshold: 
[-0.0006601903005503118, -0.022991018369793892, -0.020822327584028244, -0.008080198429524899, 0.0035381424240767956, -0.005497491918504238, -0.022337613627314568, -0.026666926220059395, 0.0031853171531111, 0.02314067631959915, 0.0013826698996126652, 0.0278241615742445, 0.05940297245979309, 0.07340946793556213, 0.10094556212425232, 0.14688549935817719, 0.1590508073568344, 0.16886653006076813, 0.18878485262393951, 0.20822367072105408, 0.23901315033435822, 0.21918082237243652, 0.2365012913942337, 0.254839152097702, 0.2677326500415802, 0.26735201478004456, 0.3026559054851532, 0.3041977286338806, 0.31500864028930664, 0.32546377182006836, 0.3495912551879883, 0.349446564912796, 0.3618422746658325, 0.3722117245197296, 0.3974066376686096, 0.3821694850921631, 0.35356539487838745, 0.34702563285827637, 0.3195931315422058, 0.30965355038642883] 
 , Step size: 
 [0.03408566862344742, 0.013167884200811386, -0.0012233477318659425, 0.01750011369585991, 0.015939973294734955, -0.00951735395938158, 0.004800019320100546, -0.006408362183719873, -0.001214460702612996, -0.014703965745866299, -0.029947742819786072, -0.03192208334803581, -0.057240426540374756, -0.09241629391908646, -0.09784077852964401, -0.1539204865694046, -0.1462395191192627, -0.16344526410102844, -0.18556611239910126, -0.20467805862426758, -0.21875561773777008, -0.22183121740818024, -0.27954912185668945, -0.2525581121444702, -0.2893967032432556, -0.29275399446487427, -0.2995617091655731, -0.31331172585487366, -0.32708725333213806, -0.33353403210639954, -0.35652774572372437, -0.3600791394710541, -0.3633469045162201, -0.3667752146720886, -0.38653653860092163, -0.38147246837615967, -0.38300448656082153, -0.3689359128475189, -0.37021297216415405, -0.35668739676475525]