Epoch: 1-3, Loss: 0.049595512449741364, Lr: 0.001 , 
 ,Threshold: 
[0.010120362043380737, -0.010169904679059982, -0.008414736948907375, 0.002351608360186219, 0.013703047297894955, 0.005458686500787735, -0.016058355569839478, -0.02559615485370159, -8.746899402467534e-05, 0.0132733304053545, -0.02065245620906353, -0.012015718035399914, -0.002192980609834194, -0.009849559515714645, -0.006579161621630192, 0.011131025850772858, 0.003817071206867695, -0.0017105360748246312, 0.004520894959568977, 0.0102122463285923, 0.02199579030275345, -0.0025198757648468018, 0.0009905422339215875, 0.012315237894654274, 0.01058432087302208, 0.0005931242485530674, 0.024106206372380257, 0.017244912683963776, 0.018576620146632195, 0.019537992775440216, 0.03371468558907509, 0.02404542826116085, 0.028897924348711967, 0.033881016075611115, 0.05372292175889015, 0.04388349503278732, 0.030696216970682144, 0.053738128393888474, 0.03740882873535156, 0.03337816148996353] 
 , Step size: 
 [0.024121301248669624, -0.00031991078867577016, -0.015087870880961418, 0.005339979659765959, 0.004430155735462904, -0.021610060706734657, -0.0021908844355493784, -0.007878636941313744, 0.0018910643411800265, -0.004787190817296505, -0.007740655913949013, 0.008170060813426971, 0.004862545523792505, -0.008282678201794624, 0.010630274191498756, -0.016817964613437653, 0.010193688794970512, 0.00868983194231987, 0.001555357244797051, -0.003279337426647544, 0.0032175390515476465, 0.004710642620921135, -0.03810524195432663, -0.0028501017950475216, -0.02463165670633316, -0.018086625263094902, -0.01285614725202322, -0.01803881675004959, -0.022034453228116035, -0.018618645146489143, -0.031086796894669533, -0.024463489651679993, -0.01917107030749321, -0.0159494299441576, -0.029107477515935898, -0.026959367096424103, -0.040289923548698425, -0.051771748811006546, -0.058432988822460175, -0.03706756979227066]