Epoch: 2-3, Loss: 0.04097673296928406, Lr: 0.001 , 
 ,Threshold: 
[0.009893975220620632, -0.010351402685046196, -0.008607929572463036, 0.0021373266354203224, 0.013453423045575619, 0.005155864171683788, -0.016408929601311684, -0.026005921885371208, -0.0005573051166720688, 0.012753373011946678, -0.021179234609007835, -0.012468814849853516, -0.0024158358573913574, -0.00955374725162983, -0.005351622588932514, 0.013910189270973206, 0.008425654843449593, 0.005659203045070171, 0.014954295009374619, 0.02347303368151188, 0.03747175633907318, 0.01436795573681593, 0.019400838762521744, 0.03200201690196991, 0.031112566590309143, 0.022262249141931534, 0.04657672345638275, 0.040809281170368195, 0.04345403611660004, 0.046020593494176865, 0.062125563621520996, 0.05542542040348053, 0.06284735351800919, 0.0706249326467514, 0.0933857336640358, 0.08614564687013626, 0.07438229769468307, 0.09776118397712708, 0.08047160506248474, 0.07423236221075058] 
 , Step size: 
 [0.024322083219885826, -0.0001478111371397972, -0.014905771240592003, 0.005542667582631111, 0.004668569657951593, -0.021317314356565475, -0.0018516748677939177, -0.0074812727980315685, 0.002349084010347724, -0.004276943393051624, -0.007226851303130388, 0.00861027929931879, 0.005077463574707508, -0.0085831917822361, 0.00940343551337719, -0.019599854946136475, 0.005552920047193766, 0.0013043840881437063, -0.00891054980456829, -0.016630779951810837, -0.012411308474838734, -0.012356828898191452, -0.056763432919979095, -0.022818563506007195, -0.045491449534893036, -0.040114037692546844, -0.035737164318561554, -0.042058639228343964, -0.04742565378546715, -0.04567306861281395, -0.060188177973032, -0.05659906193614006, -0.05398556590080261, -0.05370013043284416, -0.06999371945858002, -0.07057497650384903, -0.0855020135641098, -0.09746521711349487, -0.10326561331748962, -0.07972092926502228]