Epoch: 3-3, Loss: 0.04214409738779068, Lr: 0.001 , 
 ,Threshold: 
[0.009633854031562805, -0.010561148636043072, -0.00883262138813734, 0.0018874048255383968, 0.01316064316779375, 0.004804239142686129, -0.016809115186333656, -0.026462359353899956, -0.0010569696314632893, 0.01224984135478735, -0.021612245589494705, -0.01267340686172247, -0.002032961929216981, -0.008067465387284756, -0.002081649610772729, 0.02001412771642208, 0.018140340223908424, 0.01935604214668274, 0.032591454684734344, 0.0443282425403595, 0.06083536148071289, 0.03960718587040901, 0.04612871631979942, 0.059945765882730484, 0.060142483562231064, 0.052476879209280014, 0.07796401530504227, 0.07373743504285812, 0.07817574590444565, 0.08283430337905884, 0.10146960616111755, 0.09787622839212418, 0.10816995054483414, 0.11877821385860443, 0.1442161649465561, 0.1384933739900589, 0.12678201496601105, 0.148634135723114, 0.12764503061771393, 0.11587022244930267] 
 , Step size: 
 [0.024552637711167336, 5.0049937271978706e-05, -0.014694922603666782, 0.00577818276360631, 0.004947361536324024, -0.020978247746825218, -0.0014656506245955825, -0.007040062919259071, 0.0028345040045678616, -0.0037855766713619232, -0.0068100448697805405, 0.008801381103694439, 0.004691467620432377, -0.010067285038530827, 0.006145085208117962, -0.025723719969391823, -0.004242587368935347, -0.01249160710722208, -0.026727834716439247, -0.037786487489938736, -0.03618060052394867, -0.03805986046791077, -0.08407340943813324, -0.051397740840911865, -0.07525576651096344, -0.07112464308738708, -0.06803564727306366, -0.0760020986199379, -0.0832933560013771, -0.08376925438642502, -0.10104390233755112, -0.1007024273276329, -0.10118686407804489, -0.10401102900505066, -0.12334763258695602, -0.12574118375778198, -0.14107345044612885, -0.1517770141363144, -0.15405800938606262, -0.12491725385189056]