Epoch: 5-3, Loss: 0.020371509715914726, Lr: 0.001 , 
 ,Threshold: 
[-0.008052180521190166, -0.0019267868483439088, 0.005195151548832655, 0.00523793650791049, -0.007020368240773678, 0.005398403853178024, -0.011236067861318588, -0.006632467266172171, 0.005494801327586174, 0.01611131615936756, 0.004146423190832138, 0.010202681645751, -0.002391850808635354, -0.007703105919063091, -0.004227830097079277, -0.001774784759618342, -0.003136730520054698, 0.009166424162685871, 0.0025611671153455973, -0.0010131236631423235, -0.0021900434512645006, -0.004872709047049284, -0.0005665841163136065, 0.0029805677477270365, 0.005198770668357611, 0.021072546020150185, 0.016534937545657158, 0.002031093230471015, -0.0024362923577427864, 0.0024081505835056305, 0.005358181893825531, -0.0008243611082434654, -0.02050742134451866, -0.008102869614958763, -0.004182587377727032, -0.0011240860912948847, -0.008684896863996983, -0.003687019692733884, 0.022219106554985046, 0.005977161694318056, -0.004256966523826122, -0.013680167496204376, -0.011590974405407906, 0.0014833405148237944, -0.006191921886056662, -0.00833836104720831, 0.007025441620498896, -0.005974514875560999, 0.005026143975555897, -0.003136631567031145, -0.007807143498212099, -0.0073586152866482735, 0.01608455553650856, 0.03406726196408272, 0.043689243495464325, 0.0664065033197403, 0.08444726467132568, 0.12228643149137497, 0.12575405836105347, 0.15149745345115662, 0.1386607438325882, 0.18821251392364502, 0.17127875983715057, 0.18368332087993622, 0.20630338788032532, 0.1963154673576355, 0.20593295991420746, 0.21867311000823975, 0.24069590866565704, 0.23857539892196655, 0.2650948166847229, 0.27781713008880615, 0.28446444869041443, 0.2844092547893524, 0.2831469476222992, 0.3010497987270355, 0.3086838126182556, 0.28051814436912537, 0.2282574623823166, 0.22254891693592072] 
 , Step size: 
 [0.005021608434617519, 0.012772463262081146, 0.0010276390239596367, -0.01695925183594227, -0.024323130026459694, -0.009194445796310902, -0.021895963698625565, -0.0038448472041636705, -0.005861691664904356, -0.025079041719436646, -0.007801954168826342, -0.017046283930540085, -0.020455358549952507, 0.0004843164933845401, -0.004143381025642157, -0.008641153573989868, -0.027430010959506035, -0.020193446427583694, -0.007864728569984436, -0.01354723609983921, -0.006485245190560818, -0.009600135497748852, -0.0030776436906307936, -0.009074135683476925, 0.0005624658078886569, -0.00037867625360377133, 0.005201173946261406, 0.01618613675236702, -0.004085521213710308, 0.007536446209996939, 0.015826042741537094, -0.0012917744461447, -0.006625473033636808, -0.00237718946300447, 0.00899932999163866, 0.011770165525376797, -0.009355544112622738, 0.0011287840316072106, 0.005780850537121296, -0.012333078309893608, 0.01365392841398716, -0.008106891997158527, 0.004299956373870373, -0.00861099362373352, -0.0001415143779013306, -0.0041536595672369, -0.005373179912567139, -0.02088838815689087, 0.0014393568271771073, 0.0035615942906588316, -0.014106950722634792, 0.005690224003046751, -0.012290078215301037, -0.03453876078128815, -0.053024981170892715, -0.061178501695394516, -0.09842903167009354, -0.12163962423801422, -0.11081790179014206, -0.1454370766878128, -0.15382006764411926, -0.1686403453350067, -0.18161773681640625, -0.1944027841091156, -0.17549826204776764, -0.21369989216327667, -0.2320629060268402, -0.22406773269176483, -0.24013274908065796, -0.26180166006088257, -0.26556187868118286, -0.2622457444667816, -0.28657621145248413, -0.3309469521045685, -0.2853139340877533, -0.3089669942855835, -0.3109930455684662, -0.3039465844631195, -0.286089152097702, -0.23942428827285767]