Epoch: 9-3, Loss: 0.004892281722277403, Lr: 0.001 , 
 ,Threshold: 
[-0.008065655827522278, -0.001940014073625207, 0.005180041771382093, 0.005220166873186827, -0.007040448486804962, 0.005374473053961992, -0.011265100911259651, -0.006667585112154484, 0.005451074801385403, 0.016055820509791374, 0.00407926831394434, 0.010117794387042522, -0.002497134730219841, -0.007831926457583904, -0.004389585927128792, -0.0019766076002269983, -0.0033904220908880234, 0.008851566351950169, 0.002158180810511112, -0.0015202745562419295, -0.0028261072002351284, -0.005669749341905117, -0.0015591306146234274, 0.0017361249774694443, 0.0036471530329436064, 0.019124960526823997, 0.014141606166958809, -0.0014223265461623669, -0.0068781026639044285, -0.0031676047947257757, -0.001624748227186501, -0.009602541103959084, -0.031128956004977226, -0.021015586331486702, -0.01947377808392048, -0.018922077491879463, -0.0289648175239563, -0.025923097506165504, -0.0016207501757889986, -0.018573753535747528, -0.026715056970715523, -0.037075214087963104, -0.0343819335103035, -0.02180350013077259, -0.026930544525384903, -0.026048900559544563, -0.006872410885989666, -0.014494980685412884, 0.006684174761176109, 0.010848240926861763, 0.022463949397206306, 0.043952956795692444, 0.08260440081357956, 0.11032126098871231, 0.12539702653884888, 0.14593270421028137, 0.15403227508068085, 0.18296268582344055, 0.17588140070438385, 0.20255210995674133, 0.17419585585594177, 0.22259993851184845, 0.2272839993238449, 0.24527089297771454, 0.27640703320503235, 0.27516117691993713, 0.2905890643596649, 0.3043273091316223, 0.3269844651222229, 0.3252047002315521, 0.3511202037334442, 0.36243635416030884, 0.3683300316333771, 0.3678325414657593, 0.35962656140327454, 0.3736085593700409, 0.3731100559234619, 0.3357546031475067, 0.3131211996078491, 0.3265674114227295] 
 , Step size: 
 [0.005033442750573158, 0.01278651226311922, 0.0010437289020046592, -0.016940437257289886, -0.024301908910274506, -0.009169351309537888, -0.02186569757759571, -0.003808526322245598, -0.0058166589587926865, -0.025021789595484734, -0.007732906378805637, -0.016959015280008316, -0.020347315818071365, 0.000615638738963753, -0.003979147877544165, -0.008436586707830429, -0.02717231959104538, -0.01987283118069172, -0.007454967591911554, -0.013032081536948681, -0.005840737838298082, -0.008793991059064865, -0.002075860043987632, -0.007817606441676617, 0.0021269316785037518, 0.0015888458583503962, 0.007618384901434183, 0.0196547694504261, 0.0003679824585560709, 0.013112986460328102, 0.022788433358073235, 0.007454088423401117, 0.003927541896700859, 0.010435013100504875, 0.024143749848008156, 0.02937503717839718, 0.010714865289628506, 0.023133153095841408, 0.029401050880551338, 0.011997326277196407, 0.03602774441242218, 0.015195836313068867, 0.02704571560025215, 0.01461365818977356, 0.020631104707717896, 0.013674491085112095, 0.00866124127060175, -0.01220317929983139, -6.787398888263851e-06, -0.010220833122730255, -0.044506579637527466, -0.046184174716472626, -0.07963073253631592, -0.11132888495922089, -0.13501879572868347, -0.14041417837142944, -0.16621950268745422, -0.17979849874973297, -0.15826699137687683, -0.19413748383522034, -0.187235027551651, -0.20297406613826752, -0.2395387440919876, -0.258958637714386, -0.24857647716999054, -0.29522019624710083, -0.3193318843841553, -0.31194666028022766, -0.3281365931034088, -0.34989750385284424, -0.3529253900051117, -0.34826698899269104, -0.37187421321868896, -0.41552111506462097, -0.36392563581466675, -0.3840077519416809, -0.37887319922447205, -0.3642909526824951, -0.3796602785587311, -0.3657550513744354]