Epoch: 6-25, Loss: 0.0, Lr: 0.001 , 
 ,Threshold: 
[-0.008054999634623528, -0.001928376848809421, 0.005193675868213177, 0.005236300174146891, -0.007022237405180931, 0.005396090913563967, -0.011238956823945045, -0.0066360426135361195, 0.005490264389663935, 0.016105473041534424, 0.004139280412346125, 0.010193634778261185, -0.002403083024546504, -0.007716899737715721, -0.004245114047080278, -0.0017962635029107332, -0.0031635682098567486, 0.009133638814091682, 0.0025134682655334473, -0.0010739810531958938, -0.0022666470613330603, -0.00497064646333456, -0.0006915811100043356, 0.00281923939473927, 0.004992346279323101, 0.020803509280085564, 0.016201134771108627, 0.0015305625274777412, -0.003105056006461382, 0.0015336741926148534, 0.004214304964989424, -0.002328955102711916, -0.022377287968993187, -0.010475157760083675, -0.007110896985977888, -0.00466845603659749, -0.012861455790698528, -0.008376761339604855, 0.017151400446891785, 0.0008656057761982083, -0.013123954646289349, -0.023511776700615883, -0.02219432219862938, -0.00989148486405611, -0.018011992797255516, -0.020511656999588013, -0.005278731696307659, -0.01759941317141056, -0.0031647328287363052, -0.00850966852158308, -0.008809971623122692, 0.0008126023458316922, 0.03628614917397499, 0.07012026011943817, 0.0882219672203064, 0.11996279656887054, 0.14253661036491394, 0.18229582905769348, 0.18259483575820923, 0.2120693325996399, 0.2027023732662201, 0.2686921954154968, 0.2648145258426666, 0.28106924891471863, 0.3065167963504791, 0.300508052110672, 0.3118261992931366, 0.3231508433818817, 0.34274712204933167, 0.3378364145755768, 0.3609299957752228, 0.36985185742378235, 0.37312084436416626, 0.37043297290802, 0.3624737858772278, 0.3753722310066223, 0.37431132793426514, 0.3364414572715759, 0.3126264214515686, 0.3088934123516083] 
 , Step size: 
 [0.005024183541536331, 0.012773945927619934, 0.001028944388963282, -0.016957800835371017, -0.024321449920535088, -0.009192315861582756, -0.021893253549933434, -0.003841447876766324, -0.0058573163114488125, -0.025073319673538208, -0.007794912904500961, -0.017037292942404747, -0.020444132387638092, 0.0004980795783922076, -0.004126132000237703, -0.00861969031393528, -0.02740306593477726, -0.020160367712378502, -0.007816527038812637, -0.013485731557011604, -0.006407939363270998, -0.009501355700194836, -0.0029517742805182934, -0.00891149789094925, 0.000770457845646888, -0.00010705567547120154, 0.005538437981158495, 0.01668919064104557, -0.0034142849035561085, 0.008412301540374756, 0.01696893759071827, 0.00021157541777938604, -0.00476006930693984, -1.2269796570762992e-05, 0.01191710028797388, 0.015300811268389225, -0.005188975483179092, 0.0058133481070399284, 0.01085327286273241, -0.00721124280244112, 0.022534441202878952, 0.0017257060389965773, 0.01490437239408493, 0.0027564179617911577, 0.011694434098899364, 0.008040817454457283, 0.006939710583537817, -0.00924063753336668, 0.009686619974672794, 0.009020949713885784, -0.013022644445300102, -0.002340872073546052, -0.032440051436424255, -0.07100750505924225, -0.09878893196582794, -0.1162957102060318, -0.1575520932674408, -0.18229930102825165, -0.16807962954044342, -0.20648540556430817, -0.21876037120819092, -0.25136035680770874, -0.2782789468765259, -0.2948701083660126, -0.27850431203842163, -0.32056984305381775, -0.34061411023139954, -0.33113688230514526, -0.3444805443286896, -0.36311236023902893, -0.36324480175971985, -0.3561244010925293, -0.37691566348075867, -0.41818180680274963, -0.36692047119140625, -0.38586676120758057, -0.3801644742488861, -0.3650621175765991, -0.3791360855102539, -0.3452047109603882]