Epoch: 0-3, Loss: 41.8685417175293, Lr: 0.001 , 
 ,Threshold: 
[0.0019349020440131426, 0.004236324690282345, 0.0017193944659084082, -0.000905984197743237, 0.0022827251814305782, 0.006126072723418474, -0.012029173783957958, -0.01407661847770214, -0.02159322425723076, -0.0007314823451451957, -0.005343521945178509, 0.0004386845394037664, 0.0028725960291922092, 0.004340006038546562, -0.014256750233471394, -0.022363251075148582, -0.010865208692848682, -0.0006919130682945251, -0.0029464676044881344, 0.007481045089662075, -0.004303051624447107, 0.016703179106116295, 0.01739325374364853, -0.005328652914613485, -0.004778056405484676, -0.017632843926548958, -0.011320529505610466, 0.0051467688754200935, -0.012429838068783283, -0.013236567378044128, 0.00898185558617115, 0.0010386111680418253, -0.01056575682014227, -0.0015164127107709646, -0.009079734794795513, -0.012165338732302189, -0.008493824861943722, -0.003384722163900733, -0.009965918026864529, -0.002232614206150174, -0.004358554258942604, 0.011531233787536621, 0.004186921287328005, 0.0064372168853878975, -0.0004782695905305445, -0.0017369986744597554, -0.010389570146799088, -0.021593429148197174, -0.014977307058870792, 0.002616441808640957, 0.004682526923716068, -0.015468725003302097, -0.005525266285985708, 0.005635028705000877, -0.008798221126198769, -0.014716601930558681, -4.7159206587821245e-05, -0.013349599204957485, -0.009530322626233101, 0.003449487267062068, -0.0052966647781431675, 0.00553886080160737, 0.009156281128525734, -0.003508716356009245, -0.008985877968370914, -0.006823730189353228, 0.018155617639422417, 0.016501087695360184, -0.002161120530217886, -0.011520639061927795, -0.0027772593311965466, -0.0007572064059786499, 0.010087541304528713, 0.025222022086381912, -0.004033343866467476, -0.003213645424693823, -0.01425551064312458, -0.002089946996420622, -6.697134813293815e-05, 0.008188728243112564] 
 , Step size: 
 [-0.00858242716640234, 0.0003510148380883038, -0.003327800426632166, -0.002047997899353504, -0.015919405966997147, -0.013870298862457275, -0.008805026300251484, -0.00720756221562624, -0.005615228321403265, -0.015008502639830112, 0.004340528044849634, 0.006439063232392073, -0.008735721930861473, -0.0018076521810144186, -0.01600571908056736, -0.007231868803501129, -0.009510494768619537, 0.005441504064947367, -0.0014135476667433977, 0.00919336173683405, 0.002399125136435032, 0.0019201687537133694, -0.006957763805985451, -0.003462334629148245, -0.010725602507591248, -0.008426155894994736, 0.007627383340150118, -0.004587644245475531, -0.011993580497801304, -0.01088450662791729, 0.017488975077867508, -0.006234012544155121, -0.0019207969307899475, 0.0010271109640598297, -0.024177901446819305, -0.010010994970798492, 0.011801833286881447, -0.0033085993491113186, 0.00015319540398195386, 0.015074566006660461, -0.01651911996304989, 0.008083627559244633, 0.01878693886101246, -0.015720875933766365, 0.003738321829587221, 0.014750666916370392, -0.01313558779656887, -0.000384128768928349, 0.016245095059275627, 0.015480848029255867, -0.004257675260305405, -0.001301991636864841, 0.0009752205805853009, 0.005571410991251469, -0.0013616085052490234, -0.01028793677687645, 0.006157339084893465, -0.00584688363596797, 0.004932508338242769, -0.008345083333551884, -0.0031050294637680054, -0.003011743538081646, -0.015390497632324696, -0.0036359892692416906, -0.00466690119355917, -0.00028560421196743846, -0.014259503223001957, 0.0027655232697725296, 0.00813066866248846, 0.010243676602840424, 0.004650281276553869, 0.0016685777809470892, -0.03741708770394325, 0.004803134594112635, -0.013052638620138168, -0.0064048608765006065, 0.0024656844325363636, -0.024911614134907722, -0.014477676711976528, 0.007153976708650589]