Epoch: 0-3, Loss: 83.87549591064453, Lr: 0.001 , 
 ,Threshold: 
[-0.011634244583547115, 0.0010308485943824053, 0.0053706481121480465, -0.01386205479502678, -0.004277652595192194, 0.00192867626901716, -0.0058657522313296795, 0.0022438194137066603, -0.019526049494743347, -0.0007820607861503959, -0.01234080083668232, -0.013187270611524582, -0.0038527948781847954, 0.007906394079327583, 0.00903224851936102, 0.0008559034904465079, -0.018126988783478737, 0.002349609974771738, -0.0036335131153464317, 0.00108595029450953, -0.011991873383522034, -0.004871932324022055, 0.0017815030878409743, -0.0069962842389941216, -0.007777698338031769, 0.007547423243522644, 0.0028458372689783573, -0.002219840884208679, -0.018856976181268692, 0.0041952189058065414, -0.00916640367358923, -0.009501688182353973, -0.0007358785951510072, 0.004847150761634111, -0.005539062898606062, -0.016830289736390114, 0.0043083797208964825, -0.012293546460568905, -6.740447133779526e-05, -0.011448651552200317, -0.004414265975356102, 0.002771756611764431, -0.00228576990775764, -0.009053826332092285, -0.0059737260453403, 0.0027928738854825497, -0.0011044981656596065, -0.01588774099946022, 0.02060895785689354, -0.0012946922797709703, -0.003972739912569523, 0.00043219153303653, -0.009294387884438038, -0.004797892179340124, 0.00589348329231143, 0.006380122154951096, -0.006628653034567833, 0.010151369497179985, -0.0017983600264415145, -0.01505141332745552, 0.010528607293963432, -0.011396580375730991, -0.019797999411821365, -0.0015869002090767026, -0.01572572998702526, -0.014233275316655636, 0.01046721450984478, -0.0053300801664590836, -0.013360201381146908, -0.01583443395793438, -0.016468875110149384, -0.0008766367100179195, -0.012202594429254532, -0.022601118311285973, 0.0002703653881326318, -0.037307076156139374, 0.009897067211568356, 0.0023861113004386425, 0.004177876748144627, -0.009788181632757187, 0.008800704963505268, 0.02050154097378254, 0.0012297681532800198, -0.003145224414765835, 0.003590821288526058, -0.022717656567692757, -0.01964246667921543, -0.013590947724878788, -0.01653539575636387, -0.012687675654888153, 0.003672519000247121, 0.00892023928463459, -0.016854463145136833, -0.012305736541748047, -0.0030535031110048294, 0.015304924920201302, -0.011082842946052551, -0.00848999060690403, -0.01831001043319702, 0.0049634287133812904, -0.009802423417568207, 0.005787904839962721, -0.018601419404149055, -0.018829042091965675, -0.005506474990397692, -0.02811763808131218, 0.007907409220933914, -0.0027726038824766874, -0.020125484094023705, -0.00603483198210597, 0.0147814666852355, 0.0033806604333221912, -0.02034888043999672, 0.0014970811316743493, -0.01528722234070301, 0.009598745964467525, -0.010480944067239761, 0.0108772162348032, 0.0004729887004941702, 0.009068954735994339, -0.0034651849418878555, -0.0066927052102983, 0.015171894803643227, 0.005773751065135002, -0.006241996772587299, 0.0027621323242783546, -0.0010861613554880023, -0.010591956786811352, -0.011954464949667454, -0.00813475251197815, 0.008613727055490017, 0.010488147847354412, -0.010613395832479, -0.006651791278272867, -0.012681128457188606, 0.01081982534378767, 0.001589041668921709, 0.0035620650742202997, -0.0069381739012897015, -0.0017498487140983343, 0.004299635533243418, -0.014413787983357906, -0.006705855019390583, -0.028473788872361183, -0.0019133859314024448, -0.005687389988452196, 0.008029253222048283, 0.019211214035749435, -0.009285497479140759, 0.003185901790857315, -0.007847066037356853, -0.013899412006139755, -0.012895626947283745, -0.00883860606700182, 0.0031803022138774395, 0.0140989413484931, -0.009930108673870564, 0.00010682514403015375, 0.004039499908685684, 0.0014441267121583223, 0.0102470014244318, 0.007517106831073761, 0.004804936237633228, -0.007846887223422527, 0.00889523047953844, -0.0025874089915305376, 0.011128636077046394, -0.00935432780534029, -0.004920876584947109, -0.0005920439725741744, -0.0013628167798742652, -0.00501672551035881, -0.0010154908522963524, -0.00712794903665781, 0.0057200537994503975, -0.007388608064502478, 0.012641922570765018, 0.010477585718035698, -0.004645542707294226, -0.013096733018755913, 3.1675444915890694e-05, -0.0020075677894055843, -0.0055744703859090805, -0.005668193101882935, -0.007194635458290577, -0.022997843101620674, -0.006143409758806229, 0.010686719790101051, 0.020011965185403824, -0.019976044073700905, -0.014530917629599571, -0.006000507157295942, -0.001150093856267631, 0.009952687658369541, 0.016866954043507576, -0.003185377223417163, 0.00497908191755414, -0.0023739393800497055, 0.007352408953011036, -0.017220770940184593, -0.014728687703609467, -0.008751156739890575, -0.016540206968784332, -0.0012163779465481639, 0.0003271925961598754, -0.00431047473102808, 0.01910591498017311, -0.03578949719667435, -0.007595749571919441, -0.0076560527086257935, -0.019701482728123665, 0.009078158996999264, 0.013650859706103802, -0.018468761816620827, -0.0030530737712979317, -0.0011218744330108166, -0.006068026646971703, 0.01142379641532898, 0.0004588800948113203, 0.009073863737285137, -0.0010489965789020061, -0.011459078639745712, 0.007209178060293198, -0.0018588453531265259, -0.013793449848890305, -0.008410504087805748, 0.005513121373951435, 0.020756497979164124, -0.017642056569457054, -0.016766635701060295, -0.017037689685821533, -0.0014043889241293073, -0.012242981232702732, -0.01780642755329609, -0.007092155981808901, -0.0018267742125317454, 0.018423806875944138, -0.005114756524562836, -0.014436045661568642, -0.009457587264478207, 0.01147402822971344, -0.024186722934246063, -0.000777195324189961, 0.005317140836268663, -0.028895117342472076, -0.008884597569704056, -0.010401076637208462, 0.018711848184466362, -0.0035963631235063076, 0.000654969597235322, -0.0015263963723555207, -0.026865938678383827, 0.015620197169482708, -0.009550793096423149, -0.01615062914788723, -0.012797947973012924, -0.009015742689371109, -0.006385460030287504, -0.014897957444190979, 0.020590906962752342, 0.0031656043138355017, -0.005521551705896854, 0.003071696264669299, 0.009688635356724262, -0.0005178328137844801, -0.011432911269366741, -0.01542557030916214, 0.005693141371011734, -0.011439950205385685, -0.002433452755212784, -0.0025098517071455717, -0.0022520022466778755, 0.0013640467077493668, 0.006995564326643944, -0.0038076378405094147, 0.014064340852200985, -0.00584038533270359, 0.001949078170582652, -0.009351998567581177, 0.009836968034505844, 0.005569221451878548, 0.010115798562765121, 0.008587357588112354, -0.006766326725482941, 0.007094335742294788, 0.0025396766141057014, 0.006936384364962578, 0.004134392365813255, 0.012381551787257195, 0.0024163478519767523, 0.021910596638917923, 0.013185882940888405, 0.020824743434786797, -0.0010499058989807963, 0.0018888681661337614, -0.003841403406113386, 0.025754518806934357, -0.012329498305916786, 0.014168852008879185, 0.017460038885474205, -0.009958497248589993, -0.012490241788327694, 0.011034360155463219, 0.017795251682400703, 0.0008168325293809175, 0.007138956803828478, -0.004824722185730934, 0.0020118143875151873, -0.008731800131499767, 0.03003622218966484, 0.013166891410946846, -0.00022935110609978437, 0.00850136298686266, 0.013147100806236267, 0.006291663274168968, 0.001069949590601027, 0.0097852423787117, 0.011491745710372925, -0.014187611639499664, -0.004913728218525648] 
 , Step size: 
 [0.004822931252419949, 0.002013519871979952, -0.016001010313630104, -0.018828602507710457, 0.014848283492028713, -0.004512794781476259, -0.015536267310380936, 0.0036612325347959995, -0.008726423606276512, 0.0032693289685994387, 0.006629189010709524, -0.011144756339490414, -0.0031113983131945133, -0.001735915895551443, -7.166480645537376e-05, 0.00012881984002888203, 0.007405553944408894, 0.0006801631534472108, 0.0016210597241297364, 0.024974821135401726, -0.0162642914801836, -0.0036661983467638493, 0.01468050666153431, -0.011341148987412453, -0.014198869466781616, -0.0015514639671891928, -0.012749997898936272, -0.01998158171772957, 0.002041521482169628, -0.00591500336304307, 0.00649328762665391, 0.008007105439901352, -0.0011617084965109825, -0.0054938895627856255, -0.00990498811006546, 0.01093757152557373, 0.009268677793443203, -0.008312534540891647, -0.010159404017031193, -0.0022185686975717545, -0.0009646413964219391, -0.02145082876086235, 0.015101962722837925, -0.00029554509092122316, -0.0029851184226572514, 0.0010655837832018733, -0.00028998253401368856, -0.010124899446964264, -0.007772134616971016, -0.01116065215319395, -0.02592429146170616, -0.002930362243205309, -0.01354304514825344, -0.016945432871580124, -0.010314621962606907, -0.022852737456560135, 0.006645120680332184, -0.011263169348239899, -0.011061668395996094, -0.018367702141404152, -0.007224473170936108, -0.009622305631637573, -0.001060952665284276, 0.004838109016418457, -0.013683319091796875, -0.0035711016971617937, -0.008373098447918892, -0.01597025990486145, 0.0034170630387961864, -0.012946794740855694, 0.01736941747367382, 0.007453023921698332, -0.006584594026207924, -0.004109331872314215, 2.3009837605059147e-05, 0.0024943805765360594, 0.004938766825944185, 0.016650184988975525, -0.003294656053185463, -0.017543548718094826, 0.0002855728380382061, -0.005012596026062965, 0.00563162611797452, -0.008044883608818054, -0.025802750140428543, -0.0056344978511333466, -0.007498367689549923, 0.008620071224868298, 0.008574114181101322, -0.002982114674523473, 0.008698168210685253, -0.015087566338479519, -0.012630325742065907, -0.0018206778913736343, 0.0023963458370417356, -0.004122050944715738, -0.006584214512258768, 0.001632919767871499, 0.004953630734235048, 0.004172284156084061, 0.006840378046035767, 0.001512474613264203, 0.0028465166687965393, -0.00453902967274189, 0.011016441509127617, 0.013014580123126507, -0.005810250993818045, -0.011148043908178806, 0.004190885461866856, 0.0026573478244245052, 0.0015089762164279819, 0.0212917011231184, -0.0028410591185092926, 0.01374866720288992, -0.001376494881696999, 0.000182080315425992, -0.0009689284488558769, 0.0027883066795766354, -0.006409887690097094, -0.0032861786894500256, 0.004418511409312487, 0.01614728569984436, 0.009027063846588135, 0.012643692083656788, -0.0013358519645407796, 0.0004080114886164665, -0.005362200550734997, -0.013511630706489086, -0.002676761243492365, -0.004943083506077528, 0.004363794345408678, -0.008370116353034973, 0.007733754813671112, -0.0041189552284777164, -0.0013194461353123188, 0.003574030939489603, 0.007763031404465437, 0.0071631926111876965, 0.015800805762410164, 0.0007306987536139786, 0.007042869459837675, -0.00684215547516942, -0.00969726126641035, 0.009543309919536114, 0.012108719907701015, 0.010236606001853943, 0.005064582917839289, -0.0038475862238556147, 0.0032542473636567593, -0.0004113104077987373, 0.016790345311164856, -0.0031986027024686337, 0.0012265241239219904, 0.010636615566909313, 0.0001029000268317759, -0.01327364332973957, 0.011978045105934143, 0.017012465745210648, 0.004092478659003973, -0.0034207645803689957, -0.0036645405925810337, -0.0077710761688649654, 0.009144658222794533, -0.004461843986064196, 0.006072893273085356, -0.007572126109153032, -0.006935128476470709, -0.006502424832433462, 0.007602567784488201, -0.011024907231330872, -0.01687309704720974, 0.005915036424994469, 0.005059626419097185, -0.00580001063644886, -0.00779421953484416, -0.00504109263420105, -0.0014246527571231127, -0.0035579316318035126, 0.00211111968383193, -0.00981991272419691, 0.0006576953455805779, 0.005808298941701651, -0.008029066026210785, 0.007182098925113678, -0.0020638504065573215, 0.007820315659046173, -0.0031321316491812468, -0.018943438306450844, 0.008992626331746578, -0.008146697655320168, 0.00040313979843631387, 0.012244302779436111, -0.006883374415338039, -0.006311746779829264, -0.016119446605443954, -0.0327572263777256, 0.005522380117326975, 0.013840414583683014, 0.006307291332632303, -0.0037185894325375557, 0.006716266740113497, 0.0038021516520529985, 0.017882222309708595, 0.005269313231110573, -0.004999320954084396, -0.00559151591733098, -0.005929640494287014, -0.012531464919447899, -0.0022806685883551836, -0.0089540034532547, -0.003957446664571762, -0.01341492310166359, 0.010906652547419071, 0.005388079676777124, -0.007187742739915848, 0.009937774389982224, -0.02408556453883648, -0.005972678307443857, -0.002619236707687378, 0.023917874321341515, 0.010293529368937016, 0.01568535901606083, 0.023640960454940796, -0.0047933124005794525, -0.002688185079023242, 0.001053663669154048, 0.009224988520145416, 0.004135774914175272, -0.01789378561079502, -0.006387077271938324, -0.006682363338768482, 0.0010244563454762101, -0.0026156259700655937, -0.009493349120020866, -0.0016251583583652973, 0.0027754087932407856, -0.0028014194685965776, -0.007330132182687521, -0.00540141761302948, -0.0045465705916285515, -0.0017571081407368183, 0.002609232207760215, 0.007341044954955578, -0.0007565525593236089, -0.006344079039990902, -0.0152401989325881, 0.007958767004311085, 0.0067967744544148445, -0.02392341010272503, -0.00527923833578825, -0.003884736681357026, 0.0016821586759760976, 0.007188314571976662, -0.01706681214272976, 0.008229020051658154, -0.00025210261810570955, 0.006012564525008202, -0.013629190623760223, -0.018490122631192207, -0.011220631189644337, 0.0005090564955025911, -0.0054917908273637295, -0.012943705543875694, -0.0073194727301597595, -0.008305994793772697, -0.0074557713232934475, -0.002625112421810627, 0.008735683746635914, 0.001478708814829588, -0.01072416827082634, 0.014261171221733093, 0.0006482721655629575, 0.0005764112574979663, 0.00020077591761946678, 0.0032384791411459446, -0.016987230628728867, 0.0017407162813469768, -0.014101903885602951, -0.010136129334568977, 0.0022278388496488333, 0.002575388178229332, 0.010119892656803131, 0.014186297543346882, 0.003388743381947279, -0.005687754135578871, -0.017468759790062904, 0.0032569062896072865, 0.009834632277488708, 0.010242178104817867, -0.007885618135333061, -0.002594372723251581, 0.0010339468717575073, -0.01041786652058363, -0.022689154371619225, -0.013737501576542854, 0.004529217723757029, 0.001633351668715477, 0.00019341090228408575, -0.011976020410656929, -0.007396194618195295, -0.0010008788667619228, -0.019653242081403732, -0.0005304518854245543, 0.012354356236755848, -0.020138144493103027, -0.004609623458236456, -0.008289020508527756, -0.00821793731302023, 0.0038484479300677776, -0.011552602984011173, -0.0032899361103773117, -0.013744667172431946, 0.013536602258682251, 0.007989106699824333, -0.010447247885167599, 0.00936674140393734, -0.007017095573246479, 0.002270432421937585, 0.0035592783242464066, 0.0020738663151860237]