Epoch: 5-3, Loss: 2.708714246749878, Lr: 0.001 , 
 ,Threshold: 
[-0.23906993865966797, -0.2252112776041031, -0.2213185578584671, -0.2402588278055191, -0.22991855442523956, -0.22440631687641144, -0.23240786790847778, -0.22419355809688568, -0.24581708014011383, -0.22668717801570892, -0.23795445263385773, -0.2390691637992859, -0.23003621399402618, -0.21850034594535828, -0.21748588979244232, -0.22580087184906006, -0.2449270337820053, -0.2244236320257187, -0.23033979535102844, -0.22560490667819977, -0.23866787552833557, -0.23150475323200226, -0.22476767003536224, -0.2333555966615677, -0.23375563323497772, -0.21806110441684723, -0.22250325977802277, -0.22749201953411102, -0.24417904019355774, -0.22122898697853088, -0.23470166325569153, -0.23527081310749054, -0.2267473042011261, -0.22130584716796875, -0.2317647933959961, -0.24298937618732452, -0.2217639535665512, -0.23852047324180603, -0.22640222311019897, -0.23788532614707947, -0.23088648915290833, -0.2237500697374344, -0.22883571684360504, -0.23565326631069183, -0.2327117770910263, -0.22414061427116394, -0.22812983393669128, -0.24296993017196655, -0.20656397938728333, -0.2285127192735672, -0.23126688599586487, -0.2269701063632965, -0.23682573437690735, -0.23243401944637299, -0.22190842032432556, -0.2215162068605423, -0.2345360368490219, -0.21777530014514923, -0.2297566533088684, -0.24303847551345825, -0.21747541427612305, -0.2394314706325531, -0.2478315383195877, -0.22962842881679535, -0.24372965097427368, -0.24220718443393707, -0.21747153997421265, -0.23322024941444397, -0.2411818951368332, -0.2435806542634964, -0.24416176974773407, -0.22849556803703308, -0.23974484205245972, -0.25008657574653625, -0.2271333932876587, -0.2646206319332123, -0.21729080379009247, -0.22469928860664368, -0.22276760637760162, -0.23660370707511902, -0.21787279844284058, -0.2059929072856903, -0.22503329813480377, -0.22908878326416016, -0.2222113311290741, -0.24845553934574127, -0.24530763924121857, -0.23914720118045807, -0.24196532368659973, -0.2380034476518631, -0.22150032222270966, -0.21604494750499725, -0.2415609210729599, -0.23663723468780518, -0.2270050197839737, -0.2081233412027359, -0.234292671084404, -0.2314995378255844, -0.24102872610092163, -0.21749620139598846, -0.23185990750789642, -0.21622513234615326, -0.24056652188301086, -0.2407061904668808, -0.22728237509727478, -0.24970434606075287, -0.21346931159496307, -0.224161297082901, -0.24138426780700684, -0.2270248979330063, -0.20605257153511047, -0.21742811799049377, -0.24110834300518036, -0.21939022839069366, -0.23625266551971436, -0.21142593026161194, -0.2315494418144226, -0.21021266281604767, -0.22071561217308044, -0.2120845913887024, -0.2246076464653015, -0.2278134971857071, -0.20582100749015808, -0.21497006714344025, -0.22663606703281403, -0.21778258681297302, -0.22202779352664948, -0.23168206214904785, -0.2332182079553604, -0.22952179610729218, -0.212905153632164, -0.2112223207950592, -0.2324451357126236, -0.2286333292722702, -0.2348732054233551, -0.21165986359119415, -0.2210828810930252, -0.21929946541786194, -0.23000995814800262, -0.22503803670406342, -0.2192271202802658, -0.2382236123085022, -0.23083004355430603, -0.2532552182674408, -0.2265089601278305, -0.23048217594623566, -0.21689100563526154, -0.20581036806106567, -0.23444713652133942, -0.2220928966999054, -0.2333226054906845, -0.23928514122962952, -0.2384539246559143, -0.23473738133907318, -0.2230379730463028, -0.21240592002868652, -0.23657238483428955, -0.22666233777999878, -0.22269625961780548, -0.22518524527549744, -0.21645356714725494, -0.21921592950820923, -0.22189845144748688, -0.23451848328113556, -0.217905655503273, -0.22950373589992523, -0.21585603058338165, -0.23642827570438385, -0.23203501105308533, -0.22772414982318878, -0.22862906754016876, -0.23247778415679932, -0.22872331738471985, -0.235218808054924, -0.2228071093559265, -0.23629626631736755, -0.21668902039527893, -0.21931198239326477, -0.23447254300117493, -0.2429780662059784, -0.2299319952726364, -0.23207588493824005, -0.23570026457309723, -0.23588305711746216, -0.23749452829360962, -0.25295957922935486, -0.23651939630508423, -0.21979555487632751, -0.21054789423942566, -0.2506586015224457, -0.24535806477069855, -0.23694244027137756, -0.23223596811294556, -0.22120524942874908, -0.21433496475219727, -0.2344217151403427, -0.22627870738506317, -0.23347832262516022, -0.22388501465320587, -0.24850380420684814, -0.24600271880626678, -0.24005703628063202, -0.2468721568584442, -0.23234796524047852, -0.230824276804924, -0.23554904758930206, -0.2121879905462265, -0.26697221398353577, -0.23891451954841614, -0.238949254155159, -0.2509392499923706, -0.22210633754730225, -0.21755021810531616, -0.24963587522506714, -0.23435355722904205, -0.23254287242889404, -0.2375769019126892, -0.220051571726799, -0.2311110645532608, -0.22253923118114471, -0.2327597290277481, -0.24286167323589325, -0.22467263042926788, -0.23386548459529877, -0.24580897390842438, -0.24045421183109283, -0.22657041251659393, -0.21134202182292938, -0.24975259602069855, -0.24890226125717163, -0.2492140531539917, -0.2335779219865799, -0.2443891316652298, -0.24991749227046967, -0.23915360867977142, -0.2338334172964096, -0.21354074776172638, -0.23706135153770447, -0.246321439743042, -0.24126113951206207, -0.2202090620994568, -0.2553715705871582, -0.2320324331521988, -0.2256738245487213, -0.25961533188819885, -0.2394779473543167, -0.24061980843544006, -0.21107043325901031, -0.23289214074611664, -0.22805815935134888, -0.22960157692432404, -0.25316256284713745, -0.2106790989637375, -0.23478494584560394, -0.2394207864999771, -0.234907329082489, -0.22929887473583221, -0.22451765835285187, -0.23050503432750702, -0.19202187657356262, -0.20580343902111053, -0.21025945246219635, -0.19681128859519958, -0.18459652364253998, -0.18843606114387512, -0.19210755825042725, -0.1876687854528427, -0.15756098926067352, -0.16465440392494202, -0.14504796266555786, -0.13343816995620728, -0.12088717520236969, -0.10415913164615631, -0.08458056300878525, -0.08031153678894043, -0.046447377651929855, -0.04812943562865257, -0.02011832781136036, -0.008386877365410328, 0.03803587704896927, 0.06643599271774292, 0.11084131896495819, 0.15863975882530212, 0.2004726529121399, 0.27382969856262207, 0.324371874332428, 0.3803800940513611, 0.42179059982299805, 0.44405728578567505, 0.43147268891334534, 0.44384390115737915, 0.4268091022968292, 0.426149845123291, 0.3965063691139221, 0.3916935622692108, 0.37807148694992065, 0.39971694350242615, 0.35374653339385986, 0.3722711503505707, 0.3675854802131653, 0.33192071318626404, 0.32178208231925964, 0.33661821484565735, 0.33011510968208313, 0.30992987751960754, 0.26503708958625793, 0.24537168443202972, 0.2523399889469147, 0.23827555775642395, 0.27984723448753357, 0.2624175548553467, 0.24880534410476685, 0.2306930124759674, 0.2410719096660614, 0.23813281953334808, 0.23391272127628326, 0.24644754827022552, 0.2504761815071106, 0.2256547510623932, 0.2384578287601471] 
 , Step size: 
 [-0.21727249026298523, -0.2216080129146576, -0.23864538967609406, -0.24174778163433075, -0.21046182513237, -0.22743797302246094, -0.23711593449115753, -0.21795156598091125, -0.23072627186775208, -0.22040648758411407, -0.21895731985569, -0.2353396862745285, -0.22504577040672302, -0.22163766622543335, -0.2185717523097992, -0.21733999252319336, -0.2089880108833313, -0.21561028063297272, -0.21487194299697876, -0.19143539667129517, -0.23269017040729523, -0.22028528153896332, -0.20248575508594513, -0.22980846464633942, -0.2352735698223114, -0.22555454075336456, -0.23848679661750793, -0.24587272107601166, -0.2228011041879654, -0.2285965532064438, -0.21400561928749084, -0.20939114689826965, -0.21517017483711243, -0.21733076870441437, -0.21976974606513977, -0.19889390468597412, -0.1978233903646469, -0.21382540464401245, -0.21440793573856354, -0.20497742295265198, -0.2033315747976303, -0.22391925752162933, -0.1881062090396881, -0.20346784591674805, -0.2037564516067505, -0.1945037990808487, -0.1941150724887848, -0.2030988484621048, -0.19835607707500458, -0.2010757476091385, -0.2150084376335144, -0.19083234667778015, -0.19981421530246735, -0.20205853879451752, -0.19356799125671387, -0.20545390248298645, -0.17672166228294373, -0.19536592066287994, -0.19564266502857208, -0.20334742963314056, -0.19264492392539978, -0.19468651711940765, -0.1865159124135971, -0.18046943843364716, -0.19968226552009583, -0.18998849391937256, -0.19506745040416718, -0.2031334489583969, -0.1847834438085556, -0.20226047933101654, -0.1727156937122345, -0.18353044986724854, -0.19843241572380066, -0.1965668648481369, -0.19277219474315643, -0.1909692883491516, -0.1893702745437622, -0.17856161296367645, -0.19967253506183624, -0.214580699801445, -0.19676710665225983, -0.20140668749809265, -0.1882288157939911, -0.19609954953193665, -0.2095295637845993, -0.18872758746147156, -0.18941974639892578, -0.17231149971485138, -0.17021755874156952, -0.18016678094863892, -0.16622424125671387, -0.18661309778690338, -0.17838230729103088, -0.15959212183952332, -0.1486673355102539, -0.14462734758853912, -0.144490584731102, -0.13264626264572144, -0.12307858467102051, -0.11586790531873703, -0.1009143739938736, -0.10271129012107849, -0.09881680458784103, -0.10320591181516647, -0.08468899875879288, -0.08192028850317001, -0.092386394739151, -0.0934748724102974, -0.07261732220649719, -0.06730585545301437, -0.06308391690254211, -0.03957320377230644, -0.058309782296419144, -0.03681774437427521, -0.04656851664185524, -0.038898009806871414, -0.035494040697813034, -0.025755586102604866, -0.030138714239001274, -0.01998056471347809, -0.008256401866674423, 0.008531699888408184, 0.007465211674571037, 0.016602059826254845, 0.003021890763193369, 0.005799116101115942, 0.00024031107022892684, -0.006057444028556347, 0.006901977583765984, 0.006848612800240517, 0.017771529033780098, 0.006385857705026865, 0.023288555443286896, 0.012614831328392029, 0.017117630690336227, 0.024383090436458588, 0.028940090909600258, 0.028240956366062164, 0.03842742741107941, 0.025096910074353218, 0.033705245703458786, 0.018985332921147346, 0.01591954194009304, 0.032902393490076065, 0.04122669994831085, 0.042104873806238174, 0.04027539864182472, 0.03533076494932175, 0.043497081845998764, 0.042746320366859436, 0.06000228971242905, 0.03935026377439499, 0.04375129193067551, 0.05121014639735222, 0.037269677966833115, 0.02273099683225155, 0.046969275921583176, 0.05031087249517441, 0.03729202598333359, 0.030443357303738594, 0.028950516134500504, 0.0241767056286335, 0.04068375006318092, 0.027060702443122864, 0.03684360533952713, 0.022484466433525085, 0.022421889007091522, 0.02184586599469185, 0.03453276306390762, 0.013969652354717255, 0.005868550855666399, 0.02792965993285179, 0.02621188387274742, 0.014584416523575783, 0.010509936138987541, 0.010509548708796501, 0.01280637364834547, 0.01021337416023016, 0.015352948568761349, 0.002944310661405325, 0.013164729811251163, 0.018149634823203087, 0.0037169659044593573, 0.01787857711315155, 0.007626926526427269, 0.014917056076228619, 0.001768970163539052, -0.016548896208405495, 0.008428283967077732, -0.009922552853822708, -0.0028804969042539597, 0.006177039351314306, -0.01572316326200962, -0.01711975783109665, -0.028214886784553528, -0.045606013387441635, -0.007661538664251566, -0.0015932441456243396, -0.009119017980992794, -0.01981591060757637, -0.010097477585077286, -0.014946287497878075, -0.005569390021264553, -0.01796381175518036, -0.030362555757164955, -0.03176594525575638, -0.0327141247689724, -0.04558964818716049, -0.03312387689948082, -0.04238361865282059, -0.040435031056404114, -0.05320293828845024, -0.03143514320254326, -0.03917799890041351, -0.05510501563549042, -0.04062701389193535, -0.07744438201189041, -0.06101097911596298, -0.05776405334472656, -0.03219585865736008, -0.04609991982579231, -0.04328589886426926, -0.03496837243437767, -0.06481938809156418, -0.06329496949911118, -0.060057274997234344, -0.05228612199425697, -0.05834706127643585, -0.08132685720920563, -0.07083502411842346, -0.07212887704372406, -0.06601924449205399, -0.07182205468416214, -0.08123307675123215, -0.07633860409259796, -0.07467175275087357, -0.08252309262752533, -0.08905921131372452, -0.08960364013910294, -0.09115685522556305, -0.09130578488111496, -0.09591174870729446, -0.09045866131782532, -0.10290667414665222, -0.11192869395017624, -0.12530186772346497, -0.1070428267121315, -0.11373560130596161, -0.15034502744674683, -0.13807128369808197, -0.14302527904510498, -0.1583968847990036, -0.14824238419532776, -0.1781432181596756, -0.17051704227924347, -0.18753474950790405, -0.19002962112426758, -0.22122648358345032, -0.23847295343875885, -0.24341142177581787, -0.24443726241588593, -0.26189643144607544, -0.2792646884918213, -0.2866012752056122, -0.3005189895629883, -0.3123938739299774, -0.32380983233451843, -0.32143455743789673, -0.3399614989757538, -0.36188727617263794, -0.34724971652030945, -0.36979877948760986, -0.3781683146953583, -0.3869186043739319, -0.39140015840530396, -0.41791969537734985, -0.4050210118293762, -0.425367146730423, -0.4251246750354767, -0.41577786207199097, -0.41778528690338135, -0.41233760118484497, -0.40996384620666504, -0.4220409691333771, -0.43218860030174255, -0.44476816058158875, -0.4246491491794586, -0.4180198609828949, -0.41663503646850586, -0.4329453706741333, -0.42508530616760254, -0.4181135594844818, -0.4258691072463989, -0.4343927800655365, -0.42134952545166016, -0.3984311521053314, -0.3962903916835785, -0.3921656608581543, -0.39862358570098877, -0.38780584931373596, -0.3753551244735718, -0.3878120481967926, -0.36150509119033813, -0.3374706506729126, -0.3671168088912964, -0.29959139227867126, -0.2944149672985077, -0.29405295848846436, -0.2784762680530548, -0.29624244570732117, -0.2872726321220398, -0.29737579822540283, -0.24085159599781036, -0.2519438862800598, -0.2743525505065918, -0.25604701042175293, -0.2763163447380066, -0.2698294222354889, -0.2703949213027954, -0.27540022134780884]