Epoch: 3-3, Loss: 0.039609625935554504, Lr: 0.001 , 
 ,Threshold: 
[-0.010407893918454647, 0.012151828035712242, -0.017262514680624008, 0.03614770993590355, -0.0028848701622337103, -0.009217692539095879, -0.006354996468871832, -0.010911107063293457, -0.011744360439479351, -0.008013208396732807, -0.012646819464862347, -0.011976486071944237, -0.0026905247941613197, -0.0022280134726315737, 0.008345423266291618, 0.029346344992518425, 0.018517430871725082, 0.01121484860777855, 0.04477407783269882, 0.05145133659243584, 0.043640103191137314, 0.06417222321033478, 0.059349045157432556, 0.06593562662601471, 0.06437905132770538, 0.0636952742934227, 0.06086044758558273, 0.07848256081342697, 0.09335941821336746, 0.0795261561870575, 0.09592649340629578, 0.08789181709289551, 0.08063060790300369, 0.12190457433462143, 0.11732537299394608, 0.13379515707492828, 0.14314594864845276, 0.12959861755371094, 0.12081091105937958, 0.1235559806227684] 
 , Step size: 
 [0.012555649504065514, 0.000990534434095025, 0.017183205112814903, -0.010326402261853218, 0.0021880685817450285, -6.962653424125165e-05, -0.022772571071982384, 0.003902430646121502, 0.0005498569807969034, -0.0018157105660066009, 0.012446812354028225, -0.004785879515111446, 0.006632307078689337, -0.011367784813046455, 0.0010111560113728046, 0.0008656004210934043, -0.010555730201303959, -0.026426872238516808, -0.04694114625453949, -0.0438784658908844, -0.03663836792111397, -0.0782979354262352, -0.05311737209558487, -0.07683948427438736, -0.05173298344016075, -0.06798466295003891, -0.10856722295284271, -0.07256178557872772, -0.08097734302282333, -0.07901687175035477, -0.09431683272123337, -0.093584343791008, -0.10984334349632263, -0.12693674862384796, -0.12887778878211975, -0.13336001336574554, -0.1418069750070572, -0.1429218202829361, -0.13066907227039337, -0.12200117856264114]