Epoch: 8-3, Loss: 0.00420875009149313, Lr: 0.001 , 
 ,Threshold: 
[-0.010825565084815025, 0.015447652898728848, -0.009494242258369923, 0.04822967201471329, 0.013710909523069859, 0.014837374910712242, 0.025748925283551216, 0.021465320140123367, 0.02472074329853058, 0.031222544610500336, 0.03328496590256691, 0.04761392995715141, 0.07994972169399261, 0.10619936883449554, 0.1338992714881897, 0.17273610830307007, 0.17184272408485413, 0.17016586661338806, 0.2045561671257019, 0.20806483924388885, 0.19759729504585266, 0.23174409568309784, 0.2299497425556183, 0.24552743136882782, 0.254391074180603, 0.26488223671913147, 0.27493271231651306, 0.29838472604751587, 0.32045990228652954, 0.3123791515827179, 0.3362851142883301, 0.3322506844997406, 0.32860425114631653, 0.37318700551986694, 0.36467987298965454, 0.37308403849601746, 0.3657936453819275, 0.3314337432384491, 0.3303804397583008, 0.3238908350467682] 
 , Step size: 
 [0.013472463935613632, 0.0016886508092284203, 0.011267522349953651, -0.022251734510064125, -0.01452787034213543, -0.024622339755296707, -0.0557996965944767, -0.029165521264076233, -0.03651664778590202, -0.04157940298318863, -0.0338212251663208, -0.06488693505525589, -0.0769524946808815, -0.12151111662387848, -0.12608936429023743, -0.1438487470149994, -0.1650632619857788, -0.18595799803733826, -0.20731322467327118, -0.20122472941875458, -0.19235648214817047, -0.24954423308372498, -0.2279379516839981, -0.26156723499298096, -0.24714933335781097, -0.274718314409256, -0.32854676246643066, -0.29839012026786804, -0.3140159845352173, -0.31783246994018555, -0.34107545018196106, -0.3449307978153229, -0.3656451404094696, -0.3867669999599457, -0.3863368332386017, -0.38472533226013184, -0.3795056939125061, -0.3638908863067627, -0.3660242557525635, -0.362112432718277]