Epoch: 9-3, Loss: 0.004108574707061052, Lr: 0.001 , 
 ,Threshold: 
[-0.009941226802766323, 0.013575899414718151, -0.011968160048127174, 0.04598044976592064, 0.011937255971133709, 0.015376739203929901, 0.02957184612751007, 0.025053763762116432, 0.02964729070663452, 0.03696877881884575, 0.03879772871732712, 0.05209805443882942, 0.08731462061405182, 0.11503217369318008, 0.14183665812015533, 0.17755037546157837, 0.17306207120418549, 0.16736574470996857, 0.19836731255054474, 0.19965720176696777, 0.1837548315525055, 0.21535171568393707, 0.21465222537517548, 0.23347163200378418, 0.24378973245620728, 0.2579384446144104, 0.2709448039531708, 0.29610055685043335, 0.31920623779296875, 0.3105837404727936, 0.3343067467212677, 0.3300558030605316, 0.3268193304538727, 0.37225770950317383, 0.3638446629047394, 0.372478723526001, 0.36529451608657837, 0.33111950755119324, 0.3302688002586365, 0.3239804208278656] 
 , Step size: 
 [0.012689677998423576, 0.0036624532658606768, 0.014121126383543015, -0.01973329298198223, -0.01240366231650114, -0.024936936795711517, -0.05961256101727486, -0.032805103808641434, -0.041522879153490067, -0.04742482304573059, -0.039405107498168945, -0.06948130577802658, -0.08456004410982132, -0.13070382177829742, -0.13417580723762512, -0.14830279350280762, -0.16562063992023468, -0.18243469297885895, -0.20037679374217987, -0.19235679507255554, -0.17833276093006134, -0.23316942155361176, -0.21296294033527374, -0.24997542798519135, -0.23712052404880524, -0.26817360520362854, -0.32486218214035034, -0.2964700162410736, -0.3130403459072113, -0.31625235080718994, -0.33917251229286194, -0.342707097530365, -0.36379513144493103, -0.38582417368888855, -0.38547438383102417, -0.3840940594673157, -0.3789689242839813, -0.36353999376296997, -0.3659008741378784, -0.36221861839294434]