Epoch: 2-3, Loss: 0.04341420531272888, Lr: 0.001 , 
 ,Threshold: 
[-0.010109060443937778, 0.012396153062582016, -0.01701590046286583, 0.03644181415438652, -0.00256032170727849, -0.00883497204631567, -0.005899770651012659, -0.0103947464376688, -0.011179699562489986, -0.007445264142006636, -0.012171879410743713, -0.01179144624620676, -0.003140689805150032, -0.0038965363055467606, 0.004683999344706535, 0.02270631492137909, 0.008400061167776585, -0.002632610499858856, 0.02728043682873249, 0.03119179792702198, 0.021164678037166595, 0.04001253843307495, 0.033569831401109695, 0.03902247175574303, 0.035868626087903976, 0.03414306789636612, 0.029986504465341568, 0.04615320265293121, 0.0593646839261055, 0.043172113597393036, 0.05723322927951813, 0.04629707708954811, 0.03613180294632912, 0.07448063790798187, 0.06772425770759583, 0.0827903002500534, 0.09194315969944, 0.07981272786855698, 0.07438640296459198, 0.08186251670122147] 
 , Step size: 
 [0.012292992323637009, 0.0007585049606859684, 0.01695256121456623, -0.010606491006910801, 0.0018786872969940305, -0.00043656345224007964, -0.023213868960738182, 0.0034020645543932915, 1.348889099972439e-06, -0.0023682445753365755, 0.011988521553575993, -0.004961310885846615, 0.007087943144142628, -0.009698562324047089, 0.004681950900703669, 0.007539430633187294, -0.0003614329034462571, -0.012461427599191666, -0.029198123142123222, -0.023258604109287262, -0.013766048476099968, -0.053628794848918915, -0.026791486889123917, -0.04929664731025696, -0.022559689357876778, -0.03767924755811691, -0.07678341865539551, -0.039254654198884964, -0.045857422053813934, -0.04145844280719757, -0.05417667329311371, -0.050371989607810974, -0.06345308572053909, -0.07720852643251419, -0.0766989067196846, -0.07946668565273285, -0.0874185636639595, -0.08969210088253021, -0.08064257353544235, -0.07680459320545197]