Epoch: 1-3, Loss: 0.05525989830493927, Lr: 0.001 , 
 ,Threshold: 
[-0.00990342441946268, 0.012568273581564426, -0.016839701682329178, 0.03665492683649063, -0.002321691485121846, -0.00854840874671936, -0.005549694877117872, -0.009991821832954884, -0.0107153644785285, -0.006932316347956657, -0.011648125946521759, -0.01133430004119873, -0.002906657289713621, -0.004155375994741917, 0.0034712504129856825, 0.01985643059015274, 0.0032769078388810158, -0.010551277548074722, 0.01626749522984028, 0.017487576231360435, 0.0051397159695625305, 0.022101234644651413, 0.014343797229230404, 0.018868230283260345, 0.01476849615573883, 0.012196464464068413, 0.007283008191734552, 0.022397181019186974, 0.0346137136220932, 0.016430512070655823, 0.02881964109838009, 0.01566987670958042, 0.0030047667678445578, 0.038602810353040695, 0.029095875099301338, 0.04170879349112511, 0.04908091947436333, 0.036207906901836395, 0.0315476693212986, 0.04093131050467491] 
 , Step size: 
 [0.012112443335354328, 0.0005952399806119502, 0.016787396743893623, -0.010809960775077343, 0.001650323043577373, -0.0007124299881979823, -0.023554641753435135, 0.0030097023118287325, -0.00045197459985502064, -0.0028704653959721327, 0.011477435939013958, -0.005408900324255228, 0.0068624201230704784, -0.009434315375983715, 0.005903315264731646, 0.010402272455394268, 0.004786027129739523, -0.0045187100768089294, -0.018094796687364578, -0.00938823539763689, 0.002442573895677924, -0.03545979782938957, -0.007284644525498152, -0.02881455048918724, -0.0011301648337394, -0.015363171696662903, -0.05363539978861809, -0.015041867271065712, -0.02058391086757183, -0.014188083820044994, -0.02512187324464321, -0.019044462591409683, -0.029512396082282066, -0.040274474769830704, -0.036898139864206314, -0.03704439103603363, -0.04305006191134453, -0.04444213956594467, -0.03604196384549141, -0.03409409895539284]