Epoch: 6-3, Loss: 0.012199326418340206, Lr: 0.001 , 
 ,Threshold: 
[-0.007374206092208624, 0.015276237390935421, -0.014906710013747215, 0.037641022354364395, -0.002900221850723028, -0.010263452306389809, -0.00831175409257412, -0.012169349938631058, -0.012235218659043312, -0.005911576561629772, -0.004544941708445549, 0.007642763666808605, 0.03552919626235962, 0.0629551038146019, 0.09656078368425369, 0.13961340487003326, 0.14867961406707764, 0.1591617465019226, 0.20849555730819702, 0.22580012679100037, 0.22636666893959045, 0.2566656470298767, 0.2592516243457794, 0.2740003168582916, 0.27943721413612366, 0.28618088364601135, 0.29169538617134094, 0.31376874446868896, 0.334305077791214, 0.3245386779308319, 0.34529954195022583, 0.3389125466346741, 0.3326948583126068, 0.37504109740257263, 0.3652239739894867, 0.37273576855659485, 0.36493128538131714, 0.3296787440776825, 0.3173125982284546, 0.25843164324760437] 
 , Step size: 
 [0.009840646758675575, -0.002946963533759117, 0.013951863162219524, -0.012796405702829361, 0.0012498819269239902, 5.196913843974471e-05, -0.02167259342968464, 0.00448216637596488, 0.000490903272293508, -0.0043600876815617085, 0.00405932916328311, -0.024677591398358345, -0.032098520547151566, -0.07779563963413239, -0.08900818228721619, -0.11165942251682281, -0.1440248191356659, -0.17770782113075256, -0.21468447148799896, -0.22251562774181366, -0.22370025515556335, -0.27562588453292847, -0.257885605096817, -0.29011228680610657, -0.2720158100128174, -0.2960078716278076, -0.34539419412612915, -0.31412190198898315, -0.3285069167613983, -0.33088672161102295, -0.3509490489959717, -0.3523857593536377, -0.37034040689468384, -0.38893675804138184, -0.3870593309402466, -0.3844636082649231, -0.378658652305603, -0.36200934648513794, -0.3517816364765167, -0.282832533121109]