Epoch: 4-3, Loss: 0.03409697115421295, Lr: 0.001 , 
 ,Threshold: 
[-0.010752415284514427, 0.01188613660633564, -0.017521165311336517, 0.03585096448659897, -0.0031979759223759174, -0.009564359672367573, -0.006726221647113562, -0.011250120587646961, -0.011970614083111286, -0.007957839407026768, -0.012029693461954594, -0.010228393599390984, 0.0009635133319534361, 0.004477359354496002, 0.019219249486923218, 0.04551035538315773, 0.03997297212481499, 0.03766476735472679, 0.07556727528572083, 0.08541684597730637, 0.0802561491727829, 0.10309803485870361, 0.10009883344173431, 0.10846686363220215, 0.10920450091362, 0.11027375608682632, 0.10985501110553741, 0.12949450314044952, 0.14684675633907318, 0.1357613056898117, 0.15496359765529633, 0.14964143931865692, 0.14489948749542236, 0.18853920698165894, 0.18471817672252655, 0.20087836682796478, 0.208186075091362, 0.1898152232170105, 0.1732417494058609, 0.16625365614891052] 
 , Step size: 
 [0.012859560549259186, 0.0012416595127433538, 0.017421768978238106, -0.010047703050076962, 0.0024811439216136932, 0.0002564837923273444, -0.02242022380232811, 0.0042202952317893505, 0.0007567674038000405, -0.0018872895743697882, 0.01181963924318552, -0.006525656208395958, 0.002997111063450575, -0.018067078664898872, -0.009910202585160732, -0.015462963841855526, -0.0323234386742115, -0.05333545431494713, -0.07845020294189453, -0.07874725013971329, -0.07424862682819366, -0.11842995136976242, -0.09514225274324417, -0.12080121785402298, -0.09803982079029083, -0.11623264104127884, -0.15949778258800507, -0.1256333440542221, -0.13673540949821472, -0.13763485848903656, -0.15601931512355804, -0.15818782150745392, -0.17726312577724457, -0.19712063670158386, -0.20019342005252838, -0.20483292639255524, -0.21177563071250916, -0.20865851640701294, -0.18897762894630432, -0.1701771467924118]