Epoch: 5-3, Loss: 0.022444341331720352, Lr: 0.001 , 
 ,Threshold: 
[-0.011824076063930988, 0.010914530605077744, -0.018645664677023888, 0.03439948335289955, -0.004950439557433128, -0.011584308929741383, -0.008962023071944714, -0.013573398813605309, -0.013910345733165741, -0.008781877346336842, -0.010867118835449219, -0.005058993585407734, 0.012466995045542717, 0.025507796555757523, 0.048804350197315216, 0.08285687863826752, 0.08406331390142441, 0.08738943189382553, 0.12977775931358337, 0.1429796665906906, 0.14085939526557922, 0.16705113649368286, 0.16691112518310547, 0.1785748302936554, 0.18271538615226746, 0.18757587671279907, 0.19129246473312378, 0.2137269377708435, 0.2343701720237732, 0.22583560645580292, 0.2476065307855606, 0.2435329705476761, 0.23974646627902985, 0.2843044102191925, 0.278781920671463, 0.2918650507926941, 0.29328423738479614, 0.2651929557323456, 0.23523256182670593, 0.20972204208374023] 
 , Step size: 
 [0.013820560649037361, 0.0020892214961349964, 0.018419140949845314, -0.008709398098289967, 0.004130118526518345, 0.0021779227536171675, -0.020271241664886475, 0.006455257534980774, 0.002622065367177129, -0.0011196787236258388, 0.010625791735947132, -0.011687768623232841, -0.00854234118014574, -0.03932243213057518, -0.03997505456209183, -0.05348968505859375, -0.0772402435541153, -0.10397802293300629, -0.133785679936409, -0.13754184544086456, -0.1361028552055359, -0.18386566638946533, -0.16349416971206665, -0.192643404006958, -0.1733115315437317, -0.1954939067363739, -0.24318426847457886, -0.21222424507141113, -0.22680121660232544, -0.23038485646247864, -0.2515612244606018, -0.2552066445350647, -0.27553102374076843, -0.2965967357158661, -0.2985137104988098, -0.30080538988113403, -0.30291083455085754, -0.2915600836277008, -0.2597634196281433, -0.2216918021440506]