Epoch: 0-3, Loss: 0.05645468458533287, Lr: 0.001 , 
 ,Threshold: 
[-0.009689440950751305, 0.01274571381509304, -0.016658330336213112, 0.03687463700771332, -0.0020748234819620848, -0.008250735700130463, -0.00518408790230751, -0.009566491469740868, -0.010218311101198196, -0.0063705043867230415, -0.011043612845242023, -0.010749922133982182, -0.002462546108290553, -0.004048184026032686, 0.0029004127718508244, 0.018096020445227623, -0.00016815120761748403, -0.016160815954208374, 0.00821677129715681, 0.0072560179978609085, -0.007058790884912014, 0.008203714154660702, -0.0008597517153248191, 0.002720114542171359, -0.002428731182590127, -0.005760727915912867, -0.011419401504099369, 0.0027859611436724663, 0.014059027656912804, -0.005572272930294275, 0.005314008332788944, -0.009576166979968548, -0.024671807885169983, 0.008304446935653687, -0.004218088462948799, 0.005544551648199558, 0.010578219778835773, -0.0037847040221095085, -0.008769314736127853, 0.0007950762519612908] 
 , Step size: 
 [0.011924302205443382, 0.0004275779356248677, 0.01661827601492405, -0.011018846184015274, 0.0014148479094728827, -0.000998309231363237, -0.02390996925532818, 0.0025958723854273558, -0.0009371216292493045, -0.0034207189455628395, 0.010886816307902336, -0.005982027854770422, 0.0064290412701666355, -0.009533747099339962, 0.006484661251306534, 0.012172956950962543, 0.008243378251791, 0.0010849670507013798, -0.01003208477050066, 0.000888112117536366, 0.014674368314445019, -0.021501805633306503, 0.007980474270880222, -0.012592455372214317, 0.016126712784171104, 0.002663565566763282, -0.03483062982559204, 0.004664483014494181, 8.704449282959104e-05, 0.007910634391009808, -0.0014808948617428541, 0.006326890550553799, -0.0017005450790748, -0.009717918001115322, -0.003331479150801897, -0.0005885591963306069, -0.0042183008044958115, -0.004101981874555349, 0.004655078984797001, 0.006437818054109812]