Epoch: 7-3, Loss: 0.005016169045120478, Lr: 0.001 , 
 ,Threshold: 
[-0.005310701206326485, 0.023654324933886528, -0.0009808902395889163, 0.05689925327897072, 0.01997479796409607, 0.01763763651251793, 0.02448864094913006, 0.01981009542942047, 0.022011704742908478, 0.027784889563918114, 0.029446586966514587, 0.043908484280109406, 0.07211379706859589, 0.09570322930812836, 0.12780793011188507, 0.16774103045463562, 0.1748908907175064, 0.17795297503471375, 0.2190062701702118, 0.23132020235061646, 0.22642922401428223, 0.26038244366645813, 0.26005974411964417, 0.2755497992038727, 0.28243449330329895, 0.29104259610176086, 0.297774076461792, 0.3197628855705261, 0.34013310074806213, 0.33011487126350403, 0.35097306966781616, 0.3444070816040039, 0.33792823553085327, 0.3798500895500183, 0.36965635418891907, 0.37668976187705994, 0.368264764547348, 0.3326553702354431, 0.3306158781051636, 0.3158610463142395] 
 , Step size: 
 [0.008087489753961563, -0.007130773272365332, 0.0019582428503781557, -0.031512659043073654, -0.021565984934568405, -0.027959000319242477, -0.054780907928943634, -0.027713246643543243, -0.033950142562389374, -0.03823138773441315, -0.03007073700428009, -0.06115460395812988, -0.06891341507434845, -0.11060763895511627, -0.11996269971132278, -0.1392154097557068, -0.16907648742198944, -0.1947742998600006, -0.22277724742889404, -0.225489541888237, -0.2219362109899521, -0.27841684222221375, -0.2578773498535156, -0.29121339321136475, -0.2747904360294342, -0.3007761836051941, -0.3514769375324249, -0.3201161324977875, -0.33430609107017517, -0.33643487095832825, -0.35664311051368713, -0.35794466733932495, -0.3756735026836395, -0.3938252031803131, -0.39159899950027466, -0.3885544240474701, -0.3821876645088196, -0.3652594983577728, -0.36628788709640503, -0.35251110792160034]