Epoch: 6-37, Loss: 0.0005780744832009077, Lr: 0.001 , 
 ,Threshold: 
[-0.0004335024568717927, 0.02861652709543705, 0.003792325733229518, 0.06127083674073219, 0.023349696770310402, 0.019688522443175316, 0.024865474551916122, 0.020359190180897713, 0.0228133387863636, 0.02922923117876053, 0.030754756182432175, 0.04522010684013367, 0.07237916439771652, 0.09498879313468933, 0.12895792722702026, 0.1696869283914566, 0.17748518288135529, 0.18190842866897583, 0.22374780476093292, 0.23799040913581848, 0.23369581997394562, 0.2631934881210327, 0.2641560137271881, 0.27988848090171814, 0.28645259141921997, 0.29446905851364136, 0.30067622661590576, 0.32252734899520874, 0.3426264226436615, 0.33237332105636597, 0.35282763838768005, 0.34583258628845215, 0.33891746401786804, 0.38054364919662476, 0.3701496422290802, 0.37703514099121094, 0.3684910237789154, 0.33274945616722107, 0.33047717809677124, 0.3087388575077057] 
 , Step size: 
 [0.003358120797201991, -0.012488319538533688, -0.003140462562441826, -0.03612630069255829, -0.025187307968735695, -0.03019055724143982, -0.05525437742471695, -0.0283413827419281, -0.034830398857593536, -0.03975379467010498, -0.031461652368307114, -0.06253014504909515, -0.06922486424446106, -0.10990101099014282, -0.12128147482872009, -0.1414448320865631, -0.17202940583229065, -0.19905094802379608, -0.2277594655752182, -0.23238301277160645, -0.2293270230293274, -0.2811043858528137, -0.26178231835365295, -0.2954541742801666, -0.2786768078804016, -0.3041466474533081, -0.35440340638160706, -0.32296958565711975, -0.3369426131248474, -0.33886995911598206, -0.35865750908851624, -0.3595065474510193, -0.37675410509109497, -0.3945671617984772, -0.392124742269516, -0.3889238238334656, -0.38243526220321655, -0.36536648869514465, -0.3661375641822815, -0.34399253129959106]