Epoch: 13-3, Loss: 0.019204027950763702, Lr: 0.001 , 
 ,Threshold: 
[-0.21050506830215454, -0.1860724538564682, -0.21463993191719055, -0.21765941381454468, -0.2077091932296753, -0.2086161971092224, -0.20064644515514374, -0.21059367060661316, -0.2151632010936737, -0.20953412353992462, -0.19181981682777405, -0.21752066910266876, -0.21548302471637726, -0.20527662336826324, -0.19438567757606506, -0.19332031905651093, -0.18216510117053986, -0.17324627935886383, -0.16635915637016296, -0.12349700182676315, -0.09968405216932297, -0.05507741868495941, -0.02484898455440998, 0.049965664744377136, 0.12201781570911407, 0.2163194864988327, 0.2854207456111908, 0.36437639594078064, 0.3911047875881195, 0.382841557264328, 0.3756352961063385, 0.353132039308548, 0.3335639238357544, 0.3063066601753235, 0.3089410066604614, 0.3175254762172699, 0.3032108247280121, 0.3124537169933319, 0.2955070734024048, 0.27123603224754333] 
 , Step size: 
 [-0.2057848423719406, -0.19479884207248688, -0.21876570582389832, -0.23459598422050476, -0.20850922167301178, -0.20604915916919708, -0.21573857963085175, -0.21209575235843658, -0.20688417553901672, -0.22392700612545013, -0.21372851729393005, -0.23638588190078735, -0.24163860082626343, -0.254789799451828, -0.28074243664741516, -0.3036184012889862, -0.3202194571495056, -0.3570759892463684, -0.4035320281982422, -0.4339984953403473, -0.4221992790699005, -0.44938892126083374, -0.46276170015335083, -0.44589072465896606, -0.44741952419281006, -0.4665537476539612, -0.45133861899375916, -0.42941296100616455, -0.4385848045349121, -0.41414573788642883, -0.4011741280555725, -0.3862309157848358, -0.36591729521751404, -0.35159897804260254, -0.347567081451416, -0.34238916635513306, -0.3488050699234009, -0.34393179416656494, -0.3467491865158081, -0.3327396810054779]