Epoch: 20-3, Loss: 0.006043469067662954, Lr: 0.001 , 
 ,Threshold: 
[-0.21049845218658447, -0.18606604635715485, -0.21463359892368317, -0.2176530510187149, -0.20770306885242462, -0.20861029624938965, -0.20064079761505127, -0.21058838069438934, -0.21515843272209167, -0.20953013002872467, -0.1918170154094696, -0.21751944720745087, -0.21548298001289368, -0.20527926087379456, -0.1943918913602829, -0.19333094358444214, -0.1821814328432083, -0.17326989769935608, -0.1663915365934372, -0.12353942543268204, -0.09973518550395966, -0.05513640120625496, -0.024913379922509193, 0.0498993843793869, 0.12195321917533875, 0.2162587195634842, 0.2853679060935974, 0.36433133482933044, 0.3910660445690155, 0.3828079402446747, 0.37560829520225525, 0.3531103730201721, 0.33354651927948, 0.30629265308380127, 0.30893006920814514, 0.3175169825553894, 0.303204208612442, 0.31244897842407227, 0.296627938747406, 0.27835023403167725] 
 , Step size: 
 [-0.20577877759933472, -0.19479255378246307, -0.21875907480716705, -0.23458929359912872, -0.20850174129009247, -0.20604071021080017, -0.2157289683818817, -0.2120843082666397, -0.2068699449300766, -0.22390858829021454, -0.21370358765125275, -0.23635272681713104, -0.2415950745344162, -0.2547333836555481, -0.28067225217819214, -0.30353468656539917, -0.3201241195201874, -0.3569736182689667, -0.40342628955841064, -0.4338935613632202, -0.4221021234989166, -0.44930005073547363, -0.4626799523830414, -0.44581520557403564, -0.447348952293396, -0.4664878845214844, -0.4512805938720703, -0.4293624460697174, -0.43854039907455444, -0.41410645842552185, -0.40114161372184753, -0.3862040638923645, -0.36589497327804565, -0.3515804409980774, -0.347552090883255, -0.34237706661224365, -0.3487952947616577, -0.34392431378364563, -0.34844091534614563, -0.3435874283313751]