Epoch: 6-3, Loss: 0.7879915237426758, Lr: 0.001 , 
 ,Threshold: 
[-0.2103728950023651, -0.18594707548618317, -0.21451684832572937, -0.2175361067056656, -0.20759014785289764, -0.20850157737731934, -0.2005370408296585, -0.21049143373966217, -0.21507106721401215, -0.20945653319358826, -0.19176307320594788, -0.21749109029769897, -0.21549038589000702, -0.20533528923988342, -0.19451187551021576, -0.1935362070798874, -0.18249905109405518, -0.17372873425483704, -0.16701848804950714, -0.12434691935777664, -0.10071103274822235, -0.05626123026013374, -0.026142654940485954, 0.04863329976797104, 0.12071849405765533, 0.2150956094264984, 0.2843562960624695, 0.363466739654541, 0.39032480120658875, 0.38217055797576904, 0.3750947117805481, 0.3526962101459503, 0.333213746547699, 0.3060280978679657, 0.3086274564266205, 0.30788305401802063, 0.28775641322135925, 0.28878137469291687, 0.2653854191303253, 0.24110139906406403] 
 , Step size: 
 [-0.2056703418493271, -0.19467298686504364, -0.21863186359405518, -0.23446105420589447, -0.20835861563682556, -0.20587792992591858, -0.21554090082645416, -0.21186134219169617, -0.20659536123275757, -0.22355400025844574, -0.21322306990623474, -0.23571239411830902, -0.2407546192407608, -0.2536512315273285, -0.2793222963809967, -0.3019230365753174, -0.3182918131351471, -0.3550000488758087, -0.4013919234275818, -0.43189406394958496, -0.42025551199913025, -0.4476054012775421, -0.4611239433288574, -0.44437748193740845, -0.4460107386112213, -0.46523168683052063, -0.45017167925834656, -0.42839762568473816, -0.4376929700374603, -0.41335809230804443, -0.4005209505558014, -0.38569176197052, -0.3654704988002777, -0.35123157501220703, -0.3471391201019287, -0.32885855436325073, -0.32653599977493286, -0.30909425020217896, -0.3017466366291046, -0.2873084247112274]