Epoch: 7-3, Loss: 0.3154289722442627, Lr: 0.001 , 
 ,Threshold: 
[-0.21044696867465973, -0.1860177367925644, -0.21458618342876434, -0.21760548651218414, -0.20765726268291473, -0.20856618881225586, -0.20059865713119507, -0.2105492204427719, -0.21512311697006226, -0.20950043201446533, -0.19179539382457733, -0.2175081968307495, -0.2154865264892578, -0.2053028643131256, -0.19444161653518677, -0.19341565668582916, -0.18231217563152313, -0.17345862090587616, -0.16664943099021912, -0.12386900931596756, -0.10013245046138763, -0.0555940680205822, -0.025413421913981438, 0.04938448593020439, 0.12145118415355682, 0.2157851606607437, 0.2849575877189636, 0.3639804720878601, 0.39076536893844604, 0.3825492262840271, 0.37540027499198914, 0.35294246673583984, 0.3334115445613861, 0.306185781955719, 0.30884575843811035, 0.31713730096817017, 0.2989080250263214, 0.29924142360687256, 0.2751012146472931, 0.25023648142814636] 
 , Step size: 
 [-0.20573490858078003, -0.19474318623542786, -0.21870653331279755, -0.23453636467456818, -0.20844225585460663, -0.20597310364246368, -0.21565081179141998, -0.2119918167591095, -0.20675630867481232, -0.22376178205013275, -0.2135048359632492, -0.23608796298503876, -0.24124811589717865, -0.25428739190101624, -0.2801162600517273, -0.3028717339038849, -0.31937098503112793, -0.35616302490234375, -0.4025900065898895, -0.43307608366012573, -0.4213501513004303, -0.4486102759838104, -0.46204686164855957, -0.44523006677627563, -0.4468047022819519, -0.4659760892391205, -0.4508306086063385, -0.42897120118141174, -0.43819659948349, -0.41380229592323303, -0.4008898138999939, -0.38599643111228943, -0.36572304368019104, -0.3514394462108612, -0.3474370241165161, -0.34184199571609497, -0.3425815999507904, -0.3244374990463257, -0.3161640167236328, -0.30092713236808777]