Epoch: 12-3, Loss: 0.02740662172436714, Lr: 0.001 , 
 ,Threshold: 
[-0.21050304174423218, -0.1860704869031906, -0.21463799476623535, -0.21765746176242828, -0.20770739018917084, -0.20861443877220154, -0.20064477622509003, -0.2105921059846878, -0.2151617854833603, -0.2095329463481903, -0.191818967461586, -0.21752022206783295, -0.2154831737279892, -0.20527760684490204, -0.19438767433166504, -0.19332368671894073, -0.18217027187347412, -0.17325375974178314, -0.16636933386325836, -0.1235099658370018, -0.09969966858625412, -0.055095382034778595, -0.024868624284863472, 0.04994544759392738, 0.1219981238245964, 0.2163008749485016, 0.28540483117103577, 0.3643626570701599, 0.39109310507774353, 0.3828314244747162, 0.37562718987464905, 0.3531254827976227, 0.3335585594177246, 0.3063023090362549, 0.3089376389980316, 0.3175228238105774, 0.3032087981700897, 0.3124520480632782, 0.2945408821105957, 0.2694433331489563] 
 , Step size: 
 [-0.20578309893608093, -0.1947968751192093, -0.2187635451555252, -0.23459379374980927, -0.208506777882576, -0.20604641735553741, -0.21573543548583984, -0.21209204196929932, -0.2068796157836914, -0.22392114996910095, -0.21372057497501373, -0.2363753318786621, -0.24162481725215912, -0.2547720670700073, -0.28072044253349304, -0.3035919964313507, -0.32018962502479553, -0.3570438027381897, -0.40349897742271423, -0.43396613001823425, -0.42216962575912476, -0.4493619203567505, -0.4627370536327362, -0.44586771726608276, -0.44739800691604614, -0.46653369069099426, -0.4513210356235504, -0.42939767241477966, -0.43857142329216003, -0.41413381695747375, -0.4011642336845398, -0.38622286915779114, -0.3659106492996216, -0.351593554019928, -0.3475625813007355, -0.34238553047180176, -0.3488021194934845, -0.3439294695854187, -0.3452920913696289, -0.3300066888332367]