Epoch: 18-3, Loss: 0.006618089973926544, Lr: 0.001 , 
 ,Threshold: 
[-0.21050362288951874, -0.18607090413570404, -0.21463842689990997, -0.2176578789949417, -0.2077077329158783, -0.20861473679542542, -0.2006450593471527, -0.2105923593044281, -0.2151620090007782, -0.20953314006328583, -0.19181911647319794, -0.21752044558525085, -0.2154829055070877, -0.20527714490890503, -0.19438697397708893, -0.19332264363765717, -0.18216866254806519, -0.1732514649629593, -0.1663663238286972, -0.12350692600011826, -0.09969603270292282, -0.0550912544131279, -0.02486407943069935, 0.04995013773441315, 0.12200271338224411, 0.21630530059337616, 0.2854084372520447, 0.36436596512794495, 0.3910958766937256, 0.38283368945121765, 0.37562891840934753, 0.3531269133090973, 0.3335598409175873, 0.30630338191986084, 0.3089384436607361, 0.3175235092639923, 0.30320921540260315, 0.3124527037143707, 0.29677814245224, 0.27702125906944275] 
 , Step size: 
 [-0.20578335225582123, -0.19479750096797943, -0.2187643051147461, -0.23459456861019135, -0.20850758254528046, -0.20604738593101501, -0.21573658287525177, -0.21209338307380676, -0.2068811058998108, -0.2239229381084442, -0.21372300386428833, -0.23637863993644714, -0.2416289895772934, -0.25477713346481323, -0.280726820230484, -0.30359965562820435, -0.3201979100704193, -0.3570530116558075, -0.4035082161426544, -0.4339742064476013, -0.42217639088630676, -0.44936808943748474, -0.4627425968647003, -0.4458731412887573, -0.4474028944969177, -0.46653833985328674, -0.451324999332428, -0.4294012188911438, -0.4385744035243988, -0.4141366481781006, -0.4011663794517517, -0.38622450828552246, -0.36591213941574097, -0.35159459710121155, -0.34756365418434143, -0.342386394739151, -0.34880274534225464, -0.3439300060272217, -0.3486686944961548, -0.34156304597854614]