Epoch: 9-3, Loss: 0.03348090127110481, Lr: 0.001 , 
 ,Threshold: 
[-0.21048656105995178, -0.18605510890483856, -0.21462294459342957, -0.21764236688613892, -0.20769281685352325, -0.20860043168067932, -0.20063133537769318, -0.21057961881160736, -0.2151506096124649, -0.20952355861663818, -0.19181227684020996, -0.2175169140100479, -0.215484157204628, -0.20528510212898254, -0.19440363347530365, -0.19335095584392548, -0.18221217393875122, -0.17331431806087494, -0.16645196080207825, -0.12361516803503036, -0.09982647746801376, -0.05524148419499397, -0.025028178468346596, 0.0497811883687973, 0.12183800339698792, 0.21614989638328552, 0.28527402877807617, 0.36425092816352844, 0.3909972608089447, 0.3827489912509918, 0.3755609393119812, 0.35307201743125916, 0.33351558446884155, 0.30626824498176575, 0.3089108169078827, 0.3175019323825836, 0.303192675113678, 0.3098706603050232, 0.2863359749317169, 0.2609241008758545] 
 , Step size: 
 [-0.20576901733875275, -0.19478096067905426, -0.21874664723873138, -0.23457670211791992, -0.20848749577999115, -0.20602457225322723, -0.21571020781993866, -0.21206222474575043, -0.20684294402599335, -0.22387386858463287, -0.21365661919116974, -0.23629026114940643, -0.24151332676410675, -0.2546289265155792, -0.28054189682006836, -0.3033794164657593, -0.3199481964111328, -0.35678422451019287, -0.4032309949398041, -0.43370509147644043, -0.42192965745925903, -0.4491416811943054, -0.4625348746776581, -0.4456808865070343, -0.44722437858581543, -0.4663704037666321, -0.451177716255188, -0.4292730689048767, -0.43846189975738525, -0.41403689980506897, -0.40108388662338257, -0.38615667819976807, -0.3658558428287506, -0.35154837369918823, -0.3475257456302643, -0.3423559069633484, -0.34877854585647583, -0.34010058641433716, -0.33296850323677063, -0.3170551359653473]