Epoch: 25-3, Loss: 0.005888205487281084, Lr: 0.001 , 
 ,Threshold: 
[-0.21047024428844452, -0.18603917956352234, -0.21460725367069244, -0.21762658655643463, -0.20767754316329956, -0.20858588814735413, -0.2006174921989441, -0.21056653559207916, -0.21513867378234863, -0.20951338112354279, -0.19180482625961304, -0.2175130695104599, -0.215483620762825, -0.20529167354106903, -0.1944187730550766, -0.19337688386440277, -0.18225225806236267, -0.17337223887443542, -0.1665317267179489, -0.12372034043073654, -0.09995315968990326, -0.05538766086101532, -0.025187872350215912, 0.049616798758506775, 0.12167765945196152, 0.21599890291690826, 0.28514209389686584, 0.36413857340812683, 0.39090073108673096, 0.3826654553413391, 0.3754936754703522, 0.3530183732509613, 0.333472341299057, 0.30623340606689453, 0.30888381600379944, 0.3174806833267212, 0.3031761050224304, 0.31242725253105164, 0.2958584129810333, 0.28025391697883606] 
 , Step size: 
 [-0.20575407147407532, -0.19476552307605743, -0.2187304049730301, -0.2345605343580246, -0.2084696739912033, -0.20600412786006927, -0.2156868278980255, -0.21203427016735077, -0.2068084478378296, -0.22382913529872894, -0.21359576284885406, -0.2362089604139328, -0.24140651524066925, -0.2544904053211212, -0.28036943078041077, -0.3031734824180603, -0.3197134733200073, -0.3565314710140228, -0.40297043323516846, -0.43344518542289734, -0.4216890037059784, -0.4489210247993469, -0.4623316526412964, -0.4454937279224396, -0.4470495581626892, -0.46620655059814453, -0.4510330855846405, -0.4291470944881439, -0.4383510649204254, -0.41393887996673584, -0.4010031819343567, -0.38608992099761963, -0.3658001124858856, -0.35150253772735596, -0.3474885821342468, -0.3423258066177368, -0.348754346370697, -0.3438921570777893, -0.34727150201797485, -0.34647688269615173]