Epoch: 8-3, Loss: 0.13650617003440857, Lr: 0.001 , 
 ,Threshold: 
[-0.21047376096248627, -0.18604303896427155, -0.21461108326911926, -0.21763044595718384, -0.20768123865127563, -0.2085893601179123, -0.20062080025672913, -0.21056976914405823, -0.21514172852039337, -0.20951610803604126, -0.1918068826198578, -0.21751417219638824, -0.21548497676849365, -0.2052910029888153, -0.19441619515419006, -0.1933722198009491, -0.1822449117898941, -0.17336155474185944, -0.16651658713817596, -0.12369763106107712, -0.09992583096027374, -0.05535596236586571, -0.02515324391424656, 0.049652405083179474, 0.12171247601509094, 0.2160315215587616, 0.2851715087890625, 0.36416324973106384, 0.3909221589565277, 0.38268426060676575, 0.3755088448524475, 0.3530299961566925, 0.33348187804222107, 0.30624157190322876, 0.308889776468277, 0.3174854516983032, 0.3029070794582367, 0.30605965852737427, 0.2816011905670166, 0.25635820627212524] 
 , Step size: 
 [-0.20575788617134094, -0.1947685331106186, -0.21873345971107483, -0.23456346988677979, -0.20847256481647491, -0.20600759983062744, -0.21569062769412994, -0.21203897893428802, -0.20681439340114594, -0.22383694350719452, -0.21360671520233154, -0.23622386157512665, -0.24142636358737946, -0.2545170187950134, -0.2804025113582611, -0.30321332812309265, -0.3197593688964844, -0.35658109188079834, -0.4030214548110962, -0.43350061774253845, -0.4217414855957031, -0.44896912574768066, -0.4623764157295227, -0.44553452730178833, -0.4470880627632141, -0.4662424921989441, -0.4510652422904968, -0.4291752278804779, -0.43837589025497437, -0.41396084427833557, -0.4010210335254669, -0.3861047029495239, -0.3658127784729004, -0.3515131175518036, -0.3474971055984497, -0.3423326313495636, -0.34836438298225403, -0.3344745635986328, -0.3258720636367798, -0.31014466285705566]