Epoch: 11-3, Loss: 0.008000096306204796, Lr: 0.001 , 
 ,Threshold: 
[-0.21049782633781433, -0.186065673828125, -0.2146332859992981, -0.21765273809432983, -0.20770281553268433, -0.20861002802848816, -0.20064054429531097, -0.21058818697929382, -0.21515828371047974, -0.20952998101711273, -0.19181686639785767, -0.21751922369003296, -0.21548351645469666, -0.20528002083301544, -0.19439272582530975, -0.19333240389823914, -0.1821836233139038, -0.1732729822397232, -0.16639560461044312, -0.12354334443807602, -0.09973987191915512, -0.05514172464609146, -0.024919239804148674, 0.0498933382332325, 0.12194735556840897, 0.21625304222106934, 0.2853633761405945, 0.3643273115158081, 0.39106276631355286, 0.38280531764030457, 0.3756061792373657, 0.3531084656715393, 0.33354490995407104, 0.3062916100025177, 0.3089291751384735, 0.3175162076950073, 0.3032037615776062, 0.3124244809150696, 0.2927570939064026, 0.26728618144989014] 
 , Step size: 
 [-0.20577865839004517, -0.19479183852672577, -0.218758225440979, -0.2345884144306183, -0.20850065350532532, -0.20603950321674347, -0.21572738885879517, -0.21208252012729645, -0.20686794817447662, -0.22390606999397278, -0.21370019018650055, -0.2363482415676117, -0.24158941209316254, -0.2547263503074646, -0.28066369891166687, -0.3035244941711426, -0.32011300325393677, -0.35696136951446533, -0.403413861989975, -0.43388330936431885, -0.4220934212207794, -0.4492921531200409, -0.4626729488372803, -0.4458085298538208, -0.44734299182891846, -0.4664819538593292, -0.45127567648887634, -0.42935818433761597, -0.43853670358657837, -0.41410312056541443, -0.4011387228965759, -0.3862018585205078, -0.3658931851387024, -0.3515791594982147, -0.3475508987903595, -0.342376172542572, -0.3487947881221771, -0.3438882827758789, -0.34260907769203186, -0.32672086358070374]