Epoch: 21-3, Loss: 0.00538612948730588, Lr: 0.001 , 
 ,Threshold: 
[-0.21049410104751587, -0.18606193363666534, -0.21462956070899963, -0.21764901280403137, -0.20769914984703064, -0.2086065411567688, -0.20063728094100952, -0.21058502793312073, -0.21515542268753052, -0.20952759683132172, -0.19181518256664276, -0.21751846373081207, -0.21548299491405487, -0.2052811235189438, -0.1943960040807724, -0.19333793222904205, -0.18219222128391266, -0.17328543961048126, -0.1664128303527832, -0.12356691807508469, -0.09976829588413239, -0.055174581706523895, -0.024955084547400475, 0.049856457859277725, 0.12191136926412582, 0.21621927618980408, 0.2853336036205292, 0.3643020689487457, 0.39104095101356506, 0.38278627395629883, 0.375590980052948, 0.3530963361263275, 0.33353522419929504, 0.3062835931777954, 0.30892306566238403, 0.3175114691257477, 0.30320003628730774, 0.3124457001686096, 0.2965087592601776, 0.2788776457309723] 
 , Step size: 
 [-0.2057749629020691, -0.1947883665561676, -0.2187546342611313, -0.23458483815193176, -0.2084968090057373, -0.2060350924730301, -0.21572242677211761, -0.21207666397094727, -0.2068605273962021, -0.22389639914035797, -0.21368718147277832, -0.23633073270320892, -0.24156630039215088, -0.2546962797641754, -0.28062596917152405, -0.3034796118736267, -0.32006150484085083, -0.3569062650203705, -0.40335679054260254, -0.43382537364959717, -0.42203930020332336, -0.4492424428462982, -0.46262696385383606, -0.4457663297653198, -0.44730356335639954, -0.4664451479911804, -0.45124292373657227, -0.42932969331741333, -0.43851158022880554, -0.4140808880329132, -0.4011205732822418, -0.38618677854537964, -0.36588045954704285, -0.3515685796737671, -0.34754234552383423, -0.3423691987991333, -0.3487890660762787, -0.3439194858074188, -0.348259836435318, -0.34438979625701904]