Epoch: 22-3, Loss: 0.005946551915258169, Lr: 0.001 , 
 ,Threshold: 
[-0.21048949658870697, -0.18605753779411316, -0.21462522447109222, -0.21764464676380157, -0.20769502222537994, -0.20860256254673004, -0.2006334811449051, -0.2105814814567566, -0.21515218913555145, -0.20952479541301727, -0.19181309640407562, -0.21751731634140015, -0.21548300981521606, -0.2052832394838333, -0.1944003701210022, -0.19334545731544495, -0.18220382928848267, -0.17330226302146912, -0.1664358675479889, -0.1235966682434082, -0.0998041033744812, -0.05521587282419205, -0.02500019781291485, 0.04981003701686859, 0.12186607718467712, 0.21617662906646729, 0.28529641032218933, 0.36427041888237, 0.3910136818885803, 0.3827627897262573, 0.3755720555782318, 0.35308125615119934, 0.33352306485176086, 0.306273877620697, 0.3089156448841095, 0.31750550866127014, 0.3031952977180481, 0.31244203448295593, 0.2963510751724243, 0.2792966961860657] 
 , Step size: 
 [-0.20577092468738556, -0.19478394091129303, -0.21874992549419403, -0.23458008468151093, -0.2084915041923523, -0.2060290426015854, -0.2157154679298401, -0.2120683640241623, -0.20685037970542908, -0.2238832712173462, -0.21366937458515167, -0.2363070696592331, -0.24153532087802887, -0.25465625524520874, -0.2805761992931366, -0.30342039465904236, -0.3199940323829651, -0.3568335771560669, -0.4032818675041199, -0.43375149369239807, -0.4219714105129242, -0.4491802752017975, -0.4625696539878845, -0.4457135796546936, -0.44725438952445984, -0.46639880537986755, -0.45120227336883545, -0.4292941689491272, -0.43848055601119995, -0.4140532314777374, -0.4010979235172272, -0.3861680030822754, -0.3658648133277893, -0.35155585408210754, -0.3475320339202881, -0.3423609137535095, -0.34878236055374146, -0.34391412138938904, -0.3480202257633209, -0.3450261652469635]