Epoch: 29-3, Loss: 0.005623470526188612, Lr: 0.001 , 
 ,Threshold: 
[-0.21042536199092865, -0.18599621951580048, -0.21456515789031982, -0.21758437156677246, -0.20763668417930603, -0.20854663848876953, -0.2005799561738968, -0.2105313539505005, -0.21510694921016693, -0.20948658883571625, -0.19178521633148193, -0.21750269830226898, -0.21548548340797424, -0.20531149208545685, -0.19446152448654175, -0.19345015287399292, -0.18236583471298218, -0.17353621125221252, -0.166755810379982, -0.124009869992733, -0.10030311346054077, -0.0557909794151783, -0.025628574192523956, 0.04916297644376755, 0.12123502790927887, 0.21558228135108948, 0.28477951884269714, 0.3638286888599396, 0.3906353712081909, 0.382437139749527, 0.37530961632728577, 0.3528697192668915, 0.3333530128002167, 0.30613887310028076, 0.3088093400001526, 0.3174222707748413, 0.3031308948993683, 0.31239256262779236, 0.2952764332294464, 0.2810068726539612] 
 , Step size: 
 [-0.20571476221084595, -0.19472342729568481, -0.2186855524778366, -0.23451536893844604, -0.2084195762872696, -0.20594733953475952, -0.21562111377716064, -0.21195603907108307, -0.2067117840051651, -0.22370387613773346, -0.2134256362915039, -0.23598144948482513, -0.24110724031925201, -0.2541041672229767, -0.279887318611145, -0.30259716510772705, -0.31905803084373474, -0.3558256924152374, -0.40224266052246094, -0.43272820115089417, -0.42102622985839844, -0.4483133852481842, -0.46177372336387634, -0.44497814774513245, -0.44656962156295776, -0.4657561182975769, -0.45063522458076477, -0.4288009703159332, -0.43804726004600525, -0.4136703908443451, -0.40078097581863403, -0.3859063982963562, -0.3656477928161621, -0.35137760639190674, -0.34738674759864807, -0.3422437906265259, -0.3486888110637665, -0.34384068846702576, -0.34638163447380066, -0.3476105034351349]