Epoch: 3-3, Loss: 29.584754943847656, Lr: 0.001 , 
 ,Threshold: 
[-0.16059757769107819, -0.13684812188148499, -0.1654626876115799, -0.168616384267807, -0.15883536636829376, -0.15958942472934723, -0.15164515376091003, -0.1618579626083374, -0.1669032722711563, -0.16203875839710236, -0.14537282288074493, -0.17238979041576385, -0.17214345932006836, -0.16465814411640167, -0.15772584080696106, -0.16228951513767242, -0.15930281579494476, -0.1615658551454544, -0.1692243367433548, -0.14535322785377502, -0.1475294530391693, -0.13525022566318512, -0.1429111659526825, -0.11083614081144333, -0.07944220304489136, -0.0079531604424119, 0.06532029807567596, 0.16202887892723083, 0.20752422511577606, 0.21641236543655396, 0.2246652990579605, 0.21685461699962616, 0.21136319637298584, 0.19365566968917847, 0.19940641522407532, 0.20695263147354126, 0.19627037644386292, 0.2054968923330307, 0.1891137957572937, 0.16973254084587097] 
 , Step size: 
 [-0.15796299278736115, -0.14583346247673035, -0.16932165622711182, -0.18462151288986206, -0.15750053524971008, -0.1551906019449234, -0.16431687772274017, -0.15936239063739777, -0.15172886848449707, -0.164494127035141, -0.14734061062335968, -0.1615487039089203, -0.15635211765766144, -0.1552201509475708, -0.16274850070476532, -0.16394318640232086, -0.1562151461839676, -0.17013129591941833, -0.19828380644321442, -0.21595345437526703, -0.195219025015831, -0.21833987534046173, -0.2315891534090042, -0.21767762303352356, -0.22395272552967072, -0.24914167821407318, -0.24167996644973755, -0.22893139719963074, -0.24845384061336517, -0.23495738208293915, -0.2328289896249771, -0.22943246364593506, -0.22110840678215027, -0.21410731971263885, -0.20940741896629333, -0.19802463054656982, -0.20618286728858948, -0.19831615686416626, -0.1995699107646942, -0.1913200467824936]