Epoch: 10-3, Loss: 0.015943167731165886, Lr: 0.001 , 
 ,Threshold: 
[-0.21049387753009796, -0.18606199324131012, -0.214629665017128, -0.21764911711215973, -0.20769929885864258, -0.20860670506954193, -0.20063729584217072, -0.21058522164821625, -0.21515564620494843, -0.20952774584293365, -0.19181525707244873, -0.21751850843429565, -0.21548373997211456, -0.2052817940711975, -0.19439654052257538, -0.19333887100219727, -0.18219362199306488, -0.17328740656375885, -0.1664152443408966, -0.12356838583946228, -0.09977009147405624, -0.0551765076816082, -0.024957221001386642, 0.04985423758625984, 0.1219092309474945, 0.2162170559167862, 0.28533220291137695, 0.3643006980419159, 0.3910398781299591, 0.38278570771217346, 0.375590443611145, 0.3530958592891693, 0.33353474736213684, 0.30628350377082825, 0.308922678232193, 0.31751129031181335, 0.30319997668266296, 0.31150490045547485, 0.2899928092956543, 0.26452115178108215] 
 , Step size: 
 [-0.20577533543109894, -0.19478805363178253, -0.21875421702861786, -0.23458434641361237, -0.2084960788488388, -0.20603430271148682, -0.21572136878967285, -0.21207548677921295, -0.20685923099517822, -0.2238948494195938, -0.21368500590324402, -0.23632802069187164, -0.2415628880262375, -0.2546924352645874, -0.2806212306022644, -0.30347397923469543, -0.32005545496940613, -0.356899619102478, -0.4033500850200653, -0.4338212013244629, -0.42203637957572937, -0.4492396414279938, -0.46262478828430176, -0.4457640051841736, -0.4473016858100891, -0.46644309163093567, -0.4512416422367096, -0.4293285310268402, -0.43851059675216675, -0.41408008337020874, -0.401119589805603, -0.3861861228942871, -0.3658801317214966, -0.35156840085983276, -0.34754207730293274, -0.342369019985199, -0.34878915548324585, -0.3425235450267792, -0.3384574055671692, -0.3225148916244507]