Epoch: 4-3, Loss: 4.832229137420654, Lr: 0.001 , 
 ,Threshold: 
[-0.19523921608924866, -0.1710876077413559, -0.19972217082977295, -0.2028292566537857, -0.19298428297042847, -0.19391389191150665, -0.18605776131153107, -0.19624103605747223, -0.20116469264030457, -0.19607242941856384, -0.17916487157344818, -0.20597010850906372, -0.2055491805076599, -0.1977004110813141, -0.19009336829185486, -0.1936110258102417, -0.18887443840503693, -0.188515767455101, -0.192581906914711, -0.16371096670627594, -0.1581602841615677, -0.13439343869686127, -0.12488363683223724, -0.06674934178590775, -0.0024348259903490543, 0.09301453083753586, 0.1690881997346878, 0.25809141993522644, 0.295233815908432, 0.2969507873058319, 0.2993597984313965, 0.28629788756370544, 0.2755177319049835, 0.2528998851776123, 0.2540867328643799, 0.25719770789146423, 0.24262750148773193, 0.2481117844581604, 0.22813838720321655, 0.20572617650032043] 
 , Step size: 
 [-0.19177782535552979, -0.18040159344673157, -0.2041473537683487, -0.21971608698368073, -0.19314968585968018, -0.1904735416173935, -0.19954080879688263, -0.19475673139095306, -0.1877385675907135, -0.2018074095249176, -0.18656475841999054, -0.20244616270065308, -0.1985299438238144, -0.1994907706975937, -0.21068036556243896, -0.21716375648975372, -0.21733467280864716, -0.24077863991260529, -0.2781650722026825, -0.3035065233707428, -0.28927308320999146, -0.31653422117233276, -0.3319743573665619, -0.3185020685195923, -0.32398995757102966, -0.3473377823829651, -0.3371194899082184, -0.32125842571258545, -0.3374105393886566, -0.3203984797000885, -0.3150619566440582, -0.30827128887176514, -0.29589933156967163, -0.28472983837127686, -0.2758449614048004, -0.25999805331230164, -0.2640111744403839, -0.25197654962539673, -0.2490329146385193, -0.23719894886016846]