Epoch: 5-3, Loss: 1.0209425687789917, Lr: 0.001 , 
 ,Threshold: 
[-0.20928940176963806, -0.18489401042461395, -0.2134760320186615, -0.21650691330432892, -0.20657622814178467, -0.20750075578689575, -0.1995643973350525, -0.20956072211265564, -0.21420207619667053, -0.2086784988641739, -0.19111885130405426, -0.2170327603816986, -0.21529695391654968, -0.20549999177455902, -0.1951511949300766, -0.1948065161705017, -0.18460634350776672, -0.17688536643981934, -0.17144662141799927, -0.1302986890077591, -0.1084335446357727, -0.06558502465486526, -0.03654281049966812, 0.037805527448654175, 0.11012047529220581, 0.2050848752260208, 0.2751559317111969, 0.35547375679016113, 0.38345450162887573, 0.37625908851623535, 0.3700914680957794, 0.34860673546791077, 0.3298986256122589, 0.30181655287742615, 0.29609453678131104, 0.29025158286094666, 0.27191615104675293, 0.27434632182121277, 0.2519369125366211, 0.2282266467809677] 
 , Step size: 
 [-0.204708531498909, -0.19366711378097534, -0.2175905704498291, -0.23338015377521515, -0.20721188187599182, -0.20466509461402893, -0.21419255435466766, -0.21030256152153015, -0.20471617579460144, -0.22116519510746002, -0.2099989354610443, -0.2313562035560608, -0.23491279780864716, -0.2460116147994995, -0.2696974277496338, -0.29034483432769775, -0.3050515353679657, -0.34070488810539246, -0.3866078555583954, -0.417030394077301, -0.4056597650051117, -0.43362700939178467, -0.44805940985679626, -0.4322364926338196, -0.4347163736820221, -0.45464202761650085, -0.440273642539978, -0.41956520080566406, -0.4299231171607971, -0.4065050780773163, -0.3945382237434387, -0.3806629180908203, -0.36126425862312317, -0.3457031846046448, -0.33012840151786804, -0.30410507321357727, -0.3038283586502075, -0.2881099581718445, -0.2820717692375183, -0.2684781849384308]