Epoch: 19-3, Loss: 0.006575431674718857, Lr: 0.001 , 
 ,Threshold: 
[-0.21050098538398743, -0.18606843054294586, -0.2146359533071518, -0.21765542030334473, -0.20770537853240967, -0.20861248672008514, -0.2006428986787796, -0.21059034764766693, -0.21516019105911255, -0.20953159034252167, -0.19181805849075317, -0.21751989424228668, -0.21548298001289368, -0.20527824759483337, -0.19438950717449188, -0.1933269053697586, -0.1821751594543457, -0.17326080799102783, -0.1663791388273239, -0.1235235407948494, -0.09971606731414795, -0.055114321410655975, -0.024889271706342697, 0.04992421716451645, 0.12197741121053696, 0.21628150343894958, 0.2853878438472748, 0.364348441362381, 0.391080766916275, 0.38282057642936707, 0.3756183981895447, 0.3531184494495392, 0.3335530459880829, 0.3062979578971863, 0.30893418192863464, 0.3175201714038849, 0.3032066226005554, 0.3124507963657379, 0.29674088954925537, 0.277765154838562] 
 , Step size: 
 [-0.20578104257583618, -0.19479499757289886, -0.21876168251037598, -0.23459191620349884, -0.20850461721420288, -0.20604398846626282, -0.21573267877101898, -0.21208873391151428, -0.20687539875507355, -0.22391560673713684, -0.21371306478977203, -0.23636546730995178, -0.24161162972450256, -0.25475478172302246, -0.2806989550590515, -0.30356651544570923, -0.3201602101325989, -0.35701248049736023, -0.4034663736820221, -0.4339328706264496, -0.4221384823322296, -0.4493333697319031, -0.4627107083797455, -0.44584357738494873, -0.44737544655799866, -0.46651262044906616, -0.4513024091720581, -0.42938151955604553, -0.43855714797973633, -0.4141213595867157, -0.4011538028717041, -0.38621407747268677, -0.36590340733528137, -0.3515874147415161, -0.34755778312683105, -0.34238168597221375, -0.3487989902496338, -0.3439270555973053, -0.3486120402812958, -0.34269681572914124]