Epoch: 23-3, Loss: 0.006153667811304331, Lr: 0.001 , 
 ,Threshold: 
[-0.21048510074615479, -0.18605336546897888, -0.21462112665176392, -0.21764051914215088, -0.2076910436153412, -0.2085987776517868, -0.20062986016273499, -0.2105780839920044, -0.21514908969402313, -0.20952221751213074, -0.19181126356124878, -0.2175164371728897, -0.21548312902450562, -0.20528513193130493, -0.19440457224845886, -0.1933525949716568, -0.18221482634544373, -0.17331814765930176, -0.16645760834217072, -0.1236247718334198, -0.09983794391155243, -0.05525487661361694, -0.025042813271284103, 0.04976614564657211, 0.12182330340147018, 0.21613630652427673, 0.28526145219802856, 0.3642405569553375, 0.3909880518913269, 0.38274070620536804, 0.37555432319641113, 0.3530670702457428, 0.333511620759964, 0.306264728307724, 0.3089084029197693, 0.3174998164176941, 0.3031909465789795, 0.3124387264251709, 0.29620087146759033, 0.2796865999698639] 
 , Step size: 
 [-0.20576712489128113, -0.19477976858615875, -0.21874547004699707, -0.23457562923431396, -0.20848648250102997, -0.20602339506149292, -0.2157089114189148, -0.2120606154203415, -0.20684081315994263, -0.22387099266052246, -0.2136526256799698, -0.23628480732440948, -0.24150598049163818, -0.2546185255050659, -0.28052932024002075, -0.3033643066883087, -0.3199303448200226, -0.35676488280296326, -0.40321114659309387, -0.4336819350719452, -0.4219071567058563, -0.4491214454174042, -0.46251559257507324, -0.44566380977630615, -0.4472077190876007, -0.4663551449775696, -0.45116379857063293, -0.429260790348053, -0.43845120072364807, -0.41402730345726013, -0.40107646584510803, -0.3861503303050995, -0.365850031375885, -0.35154375433921814, -0.34752216935157776, -0.342352956533432, -0.3487759530544281, -0.3439091145992279, -0.3477920591831207, -0.3456178605556488]