Epoch: 27-3, Loss: 0.005385656375437975, Lr: 0.001 , 
 ,Threshold: 
[-0.2104509174823761, -0.18602082133293152, -0.21458932757377625, -0.21760860085487366, -0.2076600044965744, -0.20856906473636627, -0.2006014585494995, -0.210551455616951, -0.21512514352798462, -0.2095019370317459, -0.1917964518070221, -0.21750867366790771, -0.21548444032669067, -0.20530027151107788, -0.1944371610879898, -0.19340844452381134, -0.1823011338710785, -0.17344258725643158, -0.16662809252738953, -0.1238446906208992, -0.10010313242673874, -0.055560480803251266, -0.0253767017275095, 0.049422379583120346, 0.1214880421757698, 0.2158200889825821, 0.28498679399490356, 0.3640058934688568, 0.3907870054244995, 0.38256752490997314, 0.3754148483276367, 0.3529546856880188, 0.3334212601184845, 0.3061929941177368, 0.3088519275188446, 0.31745555996894836, 0.3031567931175232, 0.3124125003814697, 0.2955480217933655, 0.2806706130504608] 
 , Step size: 
 [-0.20573720335960388, -0.19474735856056213, -0.2187109887599945, -0.23454101383686066, -0.20844799280166626, -0.20597949624061584, -0.21565835177898407, -0.21200042963027954, -0.20676672458648682, -0.2237750142812729, -0.21352221071720123, -0.2361108362674713, -0.24127764999866486, -0.25432416796684265, -0.2801620066165924, -0.3029257357120514, -0.31943193078041077, -0.35622841119766235, -0.40265747904777527, -0.43313705921173096, -0.42140477895736694, -0.4486604332923889, -0.4620925784111023, -0.4452728033065796, -0.4468439817428589, -0.4660132825374603, -0.45086273550987244, -0.4289989173412323, -0.4382210373878479, -0.413823664188385, -0.40090811252593994, -0.3860112726688385, -0.3657347857952118, -0.35144901275634766, -0.34744495153427124, -0.3422907292842865, -0.34872615337371826, -0.34387004375457764, -0.3467980921268463, -0.3471052348613739]