Epoch: 24-3, Loss: 0.004931471776217222, Lr: 0.001 , 
 ,Threshold: 
[-0.2104787528514862, -0.1860472559928894, -0.21461519598960876, -0.21763455867767334, -0.20768527686595917, -0.2085932195186615, -0.20062457025051117, -0.21057310700416565, -0.21514460444450378, -0.2095184326171875, -0.19180849194526672, -0.2175149917602539, -0.21548326313495636, -0.2052878737449646, -0.19441057741641998, -0.19336287677288055, -0.18223074078559875, -0.17334109544754028, -0.1664891541004181, -0.123665452003479, -0.09988700598478317, -0.055311426520347595, -0.02510458044707775, 0.04970255866646767, 0.12176129221916199, 0.2160777598619461, 0.2852104902267456, 0.36419689655303955, 0.3909507989883423, 0.38270866870880127, 0.3755285143852234, 0.3530462980270386, 0.3334948420524597, 0.30625128746032715, 0.3088979125022888, 0.3174916207790375, 0.3031846284866333, 0.3124338388442993, 0.29601985216140747, 0.2799864411354065] 
 , Step size: 
 [-0.20576149225234985, -0.1947735995054245, -0.21873903274536133, -0.23456917703151703, -0.20847931504249573, -0.20601516962051392, -0.2156994640827179, -0.21204937994480133, -0.20682695508003235, -0.22385312616825104, -0.2136283665895462, -0.23625245690345764, -0.2414635866880417, -0.2545638978481293, -0.28046122193336487, -0.3032829463481903, -0.3198379874229431, -0.35666540265083313, -0.40310871601104736, -0.43358105421066284, -0.4218142628669739, -0.4490359425544739, -0.4624372720718384, -0.4455913305282593, -0.4471403658390045, -0.46629196405410767, -0.45110800862312317, -0.4292122423648834, -0.43840843439102173, -0.4139896333217621, -0.40104520320892334, -0.38612455129623413, -0.36582887172698975, -0.3515261709690094, -0.3475078344345093, -0.3423413932323456, -0.3487667143344879, -0.3439018428325653, -0.34751707315444946, -0.34607237577438354]