Epoch: 2-3, Loss: 0.04902069270610809, Lr: 0.001 , 
 ,Threshold: 
[-0.0026725493371486664, 0.010371636599302292, 0.0034195221960544586, 0.008603755384683609, 0.004361862316727638, 0.004764480050653219, 0.01719985529780388, 0.014506811276078224, 0.002010666998103261, -0.005874661263078451, 0.007612932939082384, 0.012549069710075855, -0.016723977401852608, 0.004546016454696655, 0.012219570577144623, 0.019490160048007965, 0.011436824686825275, -0.006663179490715265, 0.007700280286371708, 0.011837732046842575, 0.016455208882689476, 0.025374216958880424, 0.02732083387672901, 0.04242785647511482, 0.03972746431827545, 0.051949091255664825, 0.05951712653040886, 0.062655508518219, 0.05258927121758461, 0.06689289957284927, 0.07237914949655533, 0.0649363100528717, 0.07234574854373932, 0.07557831704616547, 0.08481434732675552, 0.08498556166887283, 0.08930227160453796, 0.0722551941871643, 0.08549560606479645, 0.08917603641748428] 
 , Step size: 
 [0.02982952445745468, 0.02196439355611801, -0.012071086093783379, -0.007310276851058006, -0.0009435877436771989, -0.002964393701404333, 0.0025425793137401342, 0.012846198864281178, 0.010402986779808998, 0.004825117066502571, 0.0062074074521660805, -0.012555251829326153, 0.0038243047893047333, 0.01853685826063156, -0.005312187597155571, -0.009362787008285522, 0.02190423011779785, -0.010427760891616344, -0.011616096831858158, -0.04054003953933716, -0.03785008564591408, -0.03608023002743721, -0.038554757833480835, -0.033287353813648224, -0.023173043504357338, -0.053646400570869446, -0.04223635420203209, -0.0477428063750267, -0.05360943078994751, -0.06188809871673584, -0.04846397042274475, -0.05208578333258629, -0.07051096111536026, -0.07298668473958969, -0.07630748301744461, -0.07254602015018463, -0.08792388439178467, -0.10298491269350052, -0.0976826474070549, -0.0827891081571579]