Epoch: 9-3, Loss: 0.0022725514136254787, Lr: 0.001 , 
 ,Threshold: 
[-0.011504207737743855, -0.0020276017021387815, -0.010143455117940903, -0.0053599122911691666, -0.013540090061724186, -0.017226414754986763, -0.00171341048553586, 0.000655714888125658, -0.0026704755146056414, 0.004197318572551012, 0.04050305858254433, 0.07726255059242249, 0.06315823644399643, 0.10510043799877167, 0.14340420067310333, 0.16912296414375305, 0.17022806406021118, 0.15774211287498474, 0.1679084599018097, 0.17706379294395447, 0.1784118115901947, 0.18710638582706451, 0.19228456914424896, 0.2150212526321411, 0.2254636287689209, 0.2616841495037079, 0.28437381982803345, 0.3008662462234497, 0.30027100443840027, 0.3257073760032654, 0.33895179629325867, 0.3406905233860016, 0.3587876856327057, 0.3676401376724243, 0.37831249833106995, 0.3708890676498413, 0.3609042763710022, 0.318186491727829, 0.3246064782142639, 0.32409536838531494] 
 , Step size: 
 [0.038448501378297806, 0.03463050723075867, 0.0020825073588639498, 0.007167953997850418, 0.01728697307407856, 0.019308485090732574, 0.02164524793624878, 0.026842104271054268, 0.015214769169688225, -0.005190514959394932, -0.027074411511421204, -0.07898082584142685, -0.07771250605583191, -0.08352599292993546, -0.1386037915945053, -0.16153845191001892, -0.13788056373596191, -0.17488281428813934, -0.17166432738304138, -0.20648451149463654, -0.20123590528964996, -0.200043722987175, -0.20663025975227356, -0.2098882645368576, -0.2139488309621811, -0.26978349685668945, -0.2739679515361786, -0.2929336726665497, -0.30802762508392334, -0.32764312624931335, -0.3220798075199127, -0.3354734778404236, -0.36570918560028076, -0.37512117624282837, -0.3815266191959381, -0.3727395534515381, -0.377004474401474, -0.3707166910171509, -0.3645640015602112, -0.35913193225860596]