Epoch: 8-3, Loss: 0.003818099619820714, Lr: 0.001 , 
 ,Threshold: 
[-0.013201666064560413, -0.0028348302002996206, -0.010728869587182999, -0.006150655914098024, -0.014188534580171108, -0.01703573763370514, -0.0008987410692498088, 0.0018046913901343942, -0.0020589553751051426, 0.003319942159578204, 0.03730790317058563, 0.07092058658599854, 0.05879451334476471, 0.10007022321224213, 0.13660740852355957, 0.1650840938091278, 0.16765888035297394, 0.15909859538078308, 0.17336103320121765, 0.18542759120464325, 0.1905234307050705, 0.2039843052625656, 0.21495722234249115, 0.2402447909116745, 0.24798330664634705, 0.27837681770324707, 0.2960224747657776, 0.30940043926239014, 0.3087161183357239, 0.3325279653072357, 0.3467135727405548, 0.3478487730026245, 0.36426475644111633, 0.3719390034675598, 0.38153260946273804, 0.37349793314933777, 0.3627586364746094, 0.3192642331123352, 0.3250123858451843, 0.3241516053676605] 
 , Step size: 
 [0.03999703750014305, 0.03523971885442734, 0.002374355448409915, 0.007677288725972176, 0.017717409878969193, 0.018943436443805695, 0.02069910429418087, 0.025585006922483444, 0.014516987837851048, -0.004355953074991703, -0.02380150556564331, -0.07228387892246246, -0.07314861565828323, -0.078312449157238, -0.13165558874607086, -0.15774117410182953, -0.1356804072856903, -0.17676372826099396, -0.17766475677490234, -0.21532383561134338, -0.21363148093223572, -0.217068612575531, -0.2293996959924698, -0.23507121205329895, -0.2362174242734909, -0.28612032532691956, -0.2850998044013977, -0.3009658753871918, -0.3162216246128082, -0.334318608045578, -0.32998859882354736, -0.3429093062877655, -0.3713933527469635, -0.3795868754386902, -0.3848694860935211, -0.37548866868019104, -0.37900102138519287, -0.37192514538764954, -0.36501970887184143, -0.35920199751853943]