Epoch: 7-3, Loss: 0.005232195369899273, Lr: 0.001 , 
 ,Threshold: 
[-0.0060186260379850864, 0.004409556742757559, -0.00493969302624464, -0.0019413826521486044, -0.009877510368824005, -0.011918067000806332, 0.0028318429831415415, 0.0039186966605484486, -0.0016662029083818197, 0.0007083137170411646, 0.030244389548897743, 0.058773964643478394, 0.04798133298754692, 0.0890195220708847, 0.12513303756713867, 0.15804028511047363, 0.16383671760559082, 0.1610066294670105, 0.1799367368221283, 0.19539719820022583, 0.20553897321224213, 0.22218893468379974, 0.23593240976333618, 0.2575863301753998, 0.2698448598384857, 0.29979050159454346, 0.31531134247779846, 0.3267442584037781, 0.32412469387054443, 0.3466584384441376, 0.3583835959434509, 0.3572412133216858, 0.37143561244010925, 0.3772210478782654, 0.38553115725517273, 0.37646976113319397, 0.3648098409175873, 0.3203536570072174, 0.3253377079963684, 0.3195129334926605] 
 , Step size: 
 [0.03319181129336357, 0.026751449331641197, -0.004604378715157509, 0.002575647085905075, 0.012821000069379807, 0.01336929202079773, 0.016601653769612312, 0.023187167942523956, 0.013906831853091717, -0.0018813714850693941, -0.01669362746179104, -0.05973750352859497, -0.06213634833693504, -0.06717762351036072, -0.12028226256370544, -0.1512579619884491, -0.1327306181192398, -0.1796165555715561, -0.18529199063777924, -0.22624452412128448, -0.22937166690826416, -0.23588508367538452, -0.25104156136512756, -0.25267624855041504, -0.2583601176738739, -0.3078669607639313, -0.3047202527523041, -0.3188287317752838, -0.33231091499328613, -0.34922999143600464, -0.34243419766426086, -0.3529796898365021, -0.37901559472084045, -0.3851621747016907, -0.38906577229499817, -0.37864330410957336, -0.3812219798564911, -0.3731516897678375, -0.36538758873939514, -0.35366055369377136]