Epoch: 1-3, Loss: 0.0460284985601902, Lr: 0.001 , 
 ,Threshold: 
[-0.002458435483276844, 0.010548511520028114, 0.0036092372611165047, 0.008817716501653194, 0.004607024602591991, 0.005056973081082106, 0.01754746213555336, 0.014908603392541409, 0.002465907484292984, -0.0053894976153969765, 0.008080996572971344, 0.012914239428937435, -0.0164566058665514, 0.004322378430515528, 0.011090770363807678, 0.016949443146586418, 0.006965232081711292, -0.014201103709638119, -0.003316586371511221, -0.002643551677465439, -0.0007349261431954801, 0.005992083810269833, 0.006299876142293215, 0.020197276026010513, 0.016486389562487602, 0.027749396860599518, 0.0342898815870285, 0.03618872910737991, 0.024612609297037125, 0.03719041123986244, 0.039685238152742386, 0.029663778841495514, 0.034713320434093475, 0.03554363548755646, 0.042702384293079376, 0.041391920298337936, 0.045024383813142776, 0.028169026598334312, 0.04253853112459183, 0.04824892058968544] 
 , Step size: 
 [0.02964315190911293, 0.021795693784952164, -0.012251138687133789, -0.007514424156397581, -0.0011790110729634762, -0.003247446846216917, 0.002203409792855382, 0.012452944181859493, 0.00995705183595419, 0.0043496605940163136, 0.005747643765062094, -0.012913459911942482, 0.003570962930098176, 0.01876511238515377, -0.004183044191449881, -0.006796316709369421, 0.026412121951580048, -0.002892910735681653, -0.0005936853704042733, -0.025976773351430893, -0.02050357684493065, -0.016491927206516266, -0.01728588528931141, -0.01076452899724245, 0.0003858287527691573, -0.029055245220661163, -0.016575828194618225, -0.020785635337233543, -0.025089338421821594, -0.03154032677412033, -0.015089960768818855, -0.016036484390497208, -0.03192146494984627, -0.03184572607278824, -0.03293445706367493, -0.027557041496038437, -0.04208969324827194, -0.05720038712024689, -0.05294620618224144, -0.040071867406368256]