Epoch: 6-3, Loss: 0.006925084162503481, Lr: 0.001 , 
 ,Threshold: 
[-0.006738589610904455, 0.006064756773412228, -0.001633073203265667, 0.0031298676040023565, -0.001248151296749711, -0.00021036123507656157, 0.013582049869000912, 0.012932822108268738, 0.004617748782038689, 0.0034884708002209663, 0.028013093397021294, 0.04949384555220604, 0.040275122970342636, 0.0833149403333664, 0.1154063493013382, 0.14785024523735046, 0.16122765839099884, 0.16206958889961243, 0.19119080901145935, 0.20819254219532013, 0.22316507995128632, 0.24002043902873993, 0.24909763038158417, 0.2739675045013428, 0.2787870466709137, 0.30030006170272827, 0.315388560295105, 0.32575008273124695, 0.322944313287735, 0.3447608947753906, 0.35619935393333435, 0.3547223210334778, 0.3685630261898041, 0.374324232339859, 0.3827044665813446, 0.3738858103752136, 0.36253923177719116, 0.3184569180011749, 0.31966087222099304, 0.266971617937088] 
 , Step size: 
 [0.03361676260828972, 0.02560405619442463, -0.007563691586256027, -0.002301905769854784, 0.00426148995757103, 0.0016283751465380192, 0.005802154075354338, 0.01410546712577343, 0.00753956101834774, -0.004730707034468651, -0.014419681392610073, -0.05013341084122658, -0.054285917431116104, -0.06150999665260315, -0.11055225133895874, -0.14116176962852478, -0.13100431859493256, -0.18193116784095764, -0.19822943210601807, -0.24069412052631378, -0.2487880140542984, -0.25519660115242004, -0.2650662362575531, -0.27009454369544983, -0.2678396701812744, -0.30813002586364746, -0.30464619398117065, -0.31771066784858704, -0.33115354180336, -0.347377210855484, -0.3403025269508362, -0.3504830598831177, -0.3761237859725952, -0.38222289085388184, -0.3861827254295349, -0.3759727478027344, -0.37882694602012634, -0.3710789084434509, -0.35910332202911377, -0.2903333902359009]