Epoch: 5-3, Loss: 0.022746887058019638, Lr: 0.001 , 
 ,Threshold: 
[-0.00394820049405098, 0.009438867680728436, 0.0024558959994465113, 0.007559805642813444, 0.0032205521129071712, 0.0035942906979471445, 0.016193367540836334, 0.013992363587021828, 0.002429493935778737, -0.003101273672655225, 0.01479312777519226, 0.026867995038628578, 0.006452793721109629, 0.04154006764292717, 0.0657016783952713, 0.08919893950223923, 0.09636013954877853, 0.0933137834072113, 0.12004758417606354, 0.13449780642986298, 0.14701628684997559, 0.1626008152961731, 0.17041195929050446, 0.19096702337265015, 0.1934344619512558, 0.21225513517856598, 0.225657120347023, 0.23540888726711273, 0.2323760986328125, 0.2543923258781433, 0.26738476753234863, 0.2674667239189148, 0.2823420763015747, 0.29038044810295105, 0.3018135726451874, 0.2988440692424774, 0.295461505651474, 0.26116687059402466, 0.2485257387161255, 0.2169959992170334] 
 , Step size: 
 [0.03095412626862526, 0.02280726470053196, -0.011219721287488937, -0.006381378974765539, 8.215466368710622e-05, -0.0019074458396062255, 0.0034378052223473787, 0.013244805857539177, 0.009871825575828552, 0.0019647940061986446, -0.001042510150000453, -0.027060993015766144, -0.019619328901171684, -0.0186769999563694, -0.059387169778347015, -0.08028179407119751, -0.06442949920892715, -0.11205358058214188, -0.1260164976119995, -0.16579031944274902, -0.17134667932987213, -0.17650990188121796, -0.18509183824062347, -0.18552479147911072, -0.18074336647987366, -0.21832914650440216, -0.2130625694990158, -0.2255512773990631, -0.2388227880001068, -0.255399227142334, -0.2499079406261444, -0.2616705894470215, -0.2885019779205322, -0.29681622982025146, -0.30360326170921326, -0.2983992099761963, -0.30811795592308044, -0.30847638845443726, -0.27904215455055237, -0.22783516347408295]