Epoch: 6-32, Loss: 0.0005354182794690132, Lr: 0.001 , 
 ,Threshold: 
[-0.0016497974283993244, 0.008920853026211262, -0.000932709954213351, 0.0015414577210322022, -0.006383944768458605, -0.008597156964242458, 0.0054088677279651165, 0.00560169480741024, -0.0010498075280338526, 8.733122376725078e-05, 0.02742026187479496, 0.053506311029195786, 0.043729763478040695, 0.08607184886932373, 0.12091847509145737, 0.15587179362773895, 0.16348277032375336, 0.16231924295425415, 0.18409524857997894, 0.19983619451522827, 0.2124912440776825, 0.22997891902923584, 0.24273499846458435, 0.2651073634624481, 0.27597349882125854, 0.30404654145240784, 0.31912243366241455, 0.32979726791381836, 0.326835572719574, 0.3487309515476227, 0.3599841892719269, 0.3584139943122864, 0.37223437428474426, 0.377773255109787, 0.3859100937843323, 0.3767502009868622, 0.3649911880493164, 0.32043689489364624, 0.32519739866256714, 0.3092708885669708] 
 , Step size: 
 [0.029028017073869705, 0.02174236625432968, -0.009061012417078018, -0.0012374517973512411, 0.009101659059524536, 0.009865822270512581, 0.013879877515137196, 0.0213882178068161, 0.01319378986954689, -0.0013341313460841775, -0.013891859911382198, -0.05438178405165672, -0.05788072198629379, -0.06431015580892563, -0.11620303243398666, -0.1494104564189911, -0.13282500207424164, -0.18135537207126617, -0.18997351825237274, -0.231146901845932, -0.23675933480262756, -0.24402977526187897, -0.2580994963645935, -0.2604459822177887, -0.26464635133743286, -0.3121289312839508, -0.3085983395576477, -0.3219579756259918, -0.3351515531539917, -0.3514249920845032, -0.34414440393447876, -0.35423773527145386, -0.37986430525779724, -0.3857443332672119, -0.3894631266593933, -0.37894123792648315, -0.38141918182373047, -0.3732469081878662, -0.3652331233024597, -0.3414190709590912]