Epoch: 3-3, Loss: 0.04040093347430229, Lr: 0.001 , 
 ,Threshold: 
[-0.0029777975287288427, 0.010129064321517944, 0.003163510002195835, 0.00831872969865799, 0.004041241016238928, 0.0043886941857635975, 0.0167660154402256, 0.014028620906174183, 0.0015153115382418036, -0.006320978980511427, 0.007345954421907663, 0.012692887336015701, -0.016001030802726746, 0.006688965950161219, 0.01666169986128807, 0.027031229808926582, 0.023230507969856262, 0.009890949353575706, 0.028698233887553215, 0.03666030243039131, 0.04397378861904144, 0.05489034950733185, 0.05831179395318031, 0.07470181584358215, 0.07314006239175797, 0.08657662570476532, 0.09545460343360901, 0.10022005438804626, 0.09212245047092438, 0.10865198820829391, 0.11680350452661514, 0.11205296963453293, 0.1220594197511673, 0.12754417955875397, 0.13846063613891602, 0.13918735086917877, 0.14290520548820496, 0.12359366565942764, 0.1328294724225998, 0.13095857203006744] 
 , Step size: 
 [0.030095985159277916, 0.022194426506757736, -0.01183074526488781, -0.007041447795927525, -0.0006392248906195164, -0.0026046200655400753, 0.0029615601524710655, 0.013309075497090816, 0.01088213361799717, 0.005255538038909435, 0.006461034528911114, -0.01271402183920145, 0.0030765151605010033, 0.016394078731536865, -0.00975887756794691, -0.016983577981591225, 0.010003824718296528, -0.02708963118493557, -0.0328080989420414, -0.06571093201637268, -0.06583482027053833, -0.06614816188812256, -0.07017485052347183, -0.06626886129379272, -0.05735313147306442, -0.08917703479528427, -0.07916230708360672, -0.08639908581972122, -0.09434008598327637, -0.1050199419260025, -0.09435947984457016, -0.10085654258728027, -0.12219681590795517, -0.1272224485874176, -0.13254910707473755, -0.1296588033437729, -0.14477212727069855, -0.15786169469356537, -0.14867039024829865, -0.12810441851615906]