Epoch: 4-3, Loss: 0.03178577870130539, Lr: 0.001 , 
 ,Threshold: 
[-0.0033510716166347265, 0.009842426516115665, 0.0028640786185860634, 0.007990239188075066, 0.003678923239931464, 0.003987936303019524, 0.01635083183646202, 0.013652659021317959, 0.001273991190828383, -0.006195174530148506, 0.008236125111579895, 0.014972980134189129, -0.011991094797849655, 0.014115639962255955, 0.02888009138405323, 0.044497933238744736, 0.04592084884643555, 0.03759713098406792, 0.06025491654872894, 0.07127479463815689, 0.08078806847333908, 0.09348178654909134, 0.09856269508600235, 0.11652415990829468, 0.11650021374225616, 0.1318407952785492, 0.14247073233127594, 0.14930786192417145, 0.14362891018390656, 0.16295017302036285, 0.1739787608385086, 0.172263965010643, 0.1853930801153183, 0.1932026445865631, 0.20563805103302002, 0.2062700092792511, 0.20840461552143097, 0.18445618450641632, 0.18582679331302643, 0.173721581697464] 
 , Step size: 
 [0.030422747135162354, 0.022464409470558167, -0.011552765034139156, -0.0067352415062487125, -0.00029939934029243886, -0.002226118231192231, 0.0033553254324942827, 0.013662445358932018, 0.011100399307906628, 0.005110543221235275, 0.0055572642013430595, -0.01502272579818964, -0.0009737773216329515, 0.008966932073235512, -0.022046174854040146, -0.034705907106399536, -0.013022531755268574, -0.0552215538918972, -0.0649467185139656, -0.1010979562997818, -0.10354696959257126, -0.1057429388165474, -0.11152534186840057, -0.10930091142654419, -0.10200648009777069, -0.13594309985637665, -0.1278194636106491, -0.13728971779346466, -0.14780865609645844, -0.16152119636535645, -0.1539098173379898, -0.16367746889591217, -0.1885107457637787, -0.1962267905473709, -0.2035062462091446, -0.20104500651359558, -0.21519574522972107, -0.22430694103240967, -0.20757853984832764, -0.17641596496105194]