Epoch: 0-3, Loss: 39.52560043334961, Lr: 0.001 , 
 ,Threshold: 
[0.0005324142402969301, 0.0022312949877232313, -0.012097327969968319, 0.0024047233164310455, 0.004591051023453474, -0.012559263966977596, -0.022344909608364105, 0.014183465391397476, -0.016698334366083145, -8.787214756011963e-05, -0.019251985475420952, -0.009904586710035801, 0.0009924741461873055, 0.007031953427940607, -0.01934554986655712, 0.004431425128132105, 0.003231612965464592, 0.008680768311023712, -0.0109791848808527, -0.007471336517482996, 0.01091078482568264, -0.007222654297947884, -0.009038357064127922, 0.009270061738789082, 0.016584031283855438, 0.006506731268018484, 0.0020456830970942974, 0.010621669702231884, -0.0024856056552380323, 0.01538009475916624, -0.0021623040083795786, 0.0002346280962228775, 0.00926889106631279, -0.0023028317373245955, 0.007253703661262989, 0.004210089799016714, 0.0007340877782553434, 0.006363856606185436, -1.5145284123718739e-05, 0.0029456038028001785] 
 , Step size: 
 [-0.0033300439827144146, -0.000531459751073271, -0.004907938651740551, -0.013015358708798885, 0.015537171624600887, -0.0037369481287896633, -0.0061783622950315475, -0.007755211088806391, -0.00021990644745528698, 0.0007846420048736036, -0.018913784995675087, 0.01429253350943327, -0.008716356009244919, -0.003651018487289548, -0.0028271707706153393, -0.006628893315792084, 0.01626891829073429, -0.004717020783573389, 0.0025537554174661636, 0.012281407602131367, -0.011652575805783272, 0.006921808235347271, -0.01214650273323059, 0.006584249436855316, -0.00010525347897782922, -0.01097104512155056, 0.010089414194226265, -0.01740439608693123, -0.0017022239044308662, 0.002746792044490576, 0.0038262619636952877, -0.01314909290522337, 0.00353254284709692, 0.0005191342788748443, 0.0022926004603505135, 0.005722425878047943, -0.007546490989625454, 0.01764601282775402, -0.017897728830575943, -0.003291182918474078]