Epoch: 5-3, Loss: 2.572291374206543, Lr: 0.001 , 
 ,Threshold: 
[-0.19875377416610718, -0.19601280987262726, -0.21083004772663116, -0.19613540172576904, -0.19434453547000885, -0.21194881200790405, -0.22201423346996307, -0.18527236580848694, -0.21582913398742676, -0.19835536181926727, -0.21735839545726776, -0.20759913325309753, -0.19531190395355225, -0.18657614290714264, -0.20883063971996307, -0.17913579940795898, -0.17125260829925537, -0.15366630256175995, -0.15717798471450806, -0.13222934305667877, -0.08613341301679611, -0.06622825562953949, -0.020261555910110474, 0.060761708766222, 0.1458430290222168, 0.22339355945587158, 0.30424919724464417, 0.369346022605896, 0.3804198205471039, 0.3944316804409027, 0.36166509985923767, 0.3457995653152466, 0.33539479970932007, 0.3076096177101135, 0.30171945691108704, 0.27755603194236755, 0.2623707354068756, 0.2520124912261963, 0.2375679463148117, 0.23075945675373077] 
 , Step size: 
 [-0.1985381841659546, -0.19754895567893982, -0.20220480859279633, -0.21068473160266876, -0.1827935129404068, -0.2010420858860016, -0.2047014981508255, -0.20683906972408295, -0.20086446404457092, -0.20484957098960876, -0.22960688173770905, -0.20002663135528564, -0.23076437413692474, -0.2402774691581726, -0.2599182426929474, -0.2885605990886688, -0.29943013191223145, -0.3554718792438507, -0.3827231526374817, -0.4004973769187927, -0.44342902302742004, -0.43871384859085083, -0.464447945356369, -0.4478570818901062, -0.4513915479183197, -0.45594194531440735, -0.42671439051628113, -0.44487693905830383, -0.41812777519226074, -0.4016093909740448, -0.3874279856681824, -0.39047902822494507, -0.3579726815223694, -0.34776586294174194, -0.332507461309433, -0.3068721890449524, -0.30825161933898926, -0.26531195640563965, -0.29206761717796326, -0.26646873354911804]