Epoch: 2-3, Loss: 22.887556076049805, Lr: 0.001 , 
 ,Threshold: 
[-0.10316593199968338, -0.10147024691104889, -0.11620213091373444, -0.10172036290168762, -0.09996643662452698, -0.11723429709672928, -0.12723079323768616, -0.09076892584562302, -0.12175749242305756, -0.10505810379981995, -0.12470386922359467, -0.11566050350666046, -0.10482019186019897, -0.0986788421869278, -0.12486544996500015, -0.1008368507027626, -0.10144411027431488, -0.09515499323606491, -0.11395495384931564, -0.1096707433462143, -0.09005238115787506, -0.10601036250591278, -0.10437975078821182, -0.07958727329969406, -0.05980987474322319, -0.044621843844652176, 0.0014949673786759377, 0.07280633598566055, 0.10526684671640396, 0.14216117560863495, 0.1305077075958252, 0.13373281061649323, 0.14158760011196136, 0.12826941907405853, 0.13586220145225525, 0.13074056804180145, 0.12503130733966827, 0.1285381019115448, 0.11970168352127075, 0.11978965997695923] 
 , Step size: 
 [-0.10597079992294312, -0.10311371833086014, -0.10714498907327652, -0.1148383617401123, -0.08574210107326508, -0.1046249270439148, -0.10739925503730774, -0.10816895216703415, -0.09989666938781738, -0.09941691905260086, -0.1184983029961586, -0.08367317169904709, -0.10611558705568314, -0.10152821242809296, -0.1016630232334137, -0.10675081610679626, -0.08706613630056381, -0.11305327713489532, -0.11216527223587036, -0.10865827649831772, -0.13651956617832184, -0.12213129550218582, -0.14419804513454437, -0.12801961600780487, -0.13609765470027924, -0.14781023561954498, -0.12731830775737762, -0.15512774884700775, -0.13966450095176697, -0.13544610142707825, -0.13467854261398315, -0.1513122320175171, -0.13358566164970398, -0.13523638248443604, -0.1319023072719574, -0.12673474848270416, -0.13803870975971222, -0.11087912321090698, -0.1440771222114563, -0.1266077756881714]