Epoch: 4-3, Loss: 8.608288764953613, Lr: 0.001 , 
 ,Threshold: 
[-0.18496835231781006, -0.1824805736541748, -0.19734837114810944, -0.18272599577903748, -0.18102878332138062, -0.19866426289081573, -0.20881813764572144, -0.17225591838359833, -0.2030935287475586, -0.18606829643249512, -0.20570522546768188, -0.19688792526721954, -0.1859763115644455, -0.1792774796485901, -0.20442518591880798, -0.17879313230514526, -0.17668527364730835, -0.16657604277133942, -0.18000854551792145, -0.16823065280914307, -0.13794556260108948, -0.13751789927482605, -0.11145003139972687, -0.04774041101336479, 0.028206489980220795, 0.10574029386043549, 0.19277437031269073, 0.26698222756385803, 0.28786933422088623, 0.31197094917297363, 0.2890772819519043, 0.2822766602039337, 0.2806001305580139, 0.25833839178085327, 0.25760236382484436, 0.24459855258464813, 0.23201704025268555, 0.22688022255897522, 0.2128181755542755, 0.2071499228477478] 
 , Step size: 
 [-0.18634679913520813, -0.1850772351026535, -0.18961985409259796, -0.19795557856559753, -0.1697065681219101, -0.18779025971889496, -0.19097551703453064, -0.19230547547340393, -0.18492379784584045, -0.1865241974592209, -0.2073953002691269, -0.17215432226657867, -0.1952560842037201, -0.19391492009162903, -0.19992803037166595, -0.21344438195228577, -0.20761214196681976, -0.25003764033317566, -0.2672640383243561, -0.2792046070098877, -0.3193129897117615, -0.313887357711792, -0.3407551348209381, -0.32675111293792725, -0.3341335356235504, -0.3430587649345398, -0.31851017475128174, -0.34191906452178955, -0.3213840425014496, -0.3118487000465393, -0.30538734793663025, -0.31602945923805237, -0.2914920151233673, -0.28582489490509033, -0.27506616711616516, -0.26217445731163025, -0.2665235698223114, -0.2298879325389862, -0.25738823413848877, -0.23337653279304504]