Epoch: 17-3, Loss: 0.005658225156366825, Lr: 0.001 , 
 ,Threshold: 
[-0.24603070318698883, -0.22148200869560242, -0.23475179076194763, -0.24555541574954987, -0.22261382639408112, -0.22965608537197113, -0.24592755734920502, -0.2321098893880844, -0.22362884879112244, -0.22618526220321655, -0.22950613498687744, -0.24359843134880066, -0.24221204221248627, -0.2302045226097107, -0.23811638355255127, -0.22867657244205475, -0.2302807867527008, -0.22443771362304688, -0.24345959722995758, -0.23572233319282532, -0.23324128985404968, -0.2380674183368683, -0.23885184526443481, -0.238167867064476, -0.21516302227973938, -0.22700123488903046, -0.23445966839790344, -0.22266922891139984, -0.2417566031217575, -0.25204744935035706, -0.22913292050361633, -0.23287451267242432, -0.22889739274978638, -0.23166678845882416, -0.21644607186317444, -0.2402399480342865, -0.24538975954055786, -0.2304353415966034, -0.24328500032424927, -0.225477397441864, -0.2119676023721695, -0.23079511523246765, -0.23437529802322388, -0.2584438920021057, -0.24469013512134552, -0.23425909876823425, -0.2332010567188263, -0.2511740028858185, -0.22030149400234222, -0.21876800060272217, -0.23092257976531982, -0.2337510883808136, -0.2474565953016281, -0.25080540776252747, -0.2506742775440216, -0.24170556664466858, -0.22797001898288727, -0.24429598450660706, -0.23108813166618347, -0.22582164406776428, -0.22792576253414154, -0.2388039529323578, -0.24344632029533386, -0.2287689596414566, -0.22577036917209625, -0.24236665666103363, -0.23192550241947174, -0.22561970353126526, -0.24449238181114197, -0.21907803416252136, -0.23488201200962067, -0.2639901041984558, -0.2182626724243164, -0.2339930385351181, -0.2374071180820465, -0.21983079612255096, -0.2489837408065796, -0.23075564205646515, -0.22955524921417236, -0.22163239121437073, -0.2280949056148529, -0.21182750165462494, -0.2246951460838318, -0.25559404492378235, -0.24040132761001587, -0.2567024827003479, -0.23334449529647827, -0.2203223556280136, -0.21938298642635345, -0.22337906062602997, -0.23639914393424988, -0.22647134959697723, -0.2295672744512558, -0.2342028170824051, -0.22788214683532715, -0.21400222182273865, -0.2243967354297638, -0.22688384354114532, -0.22941558063030243, -0.23853789269924164, -0.22538384795188904, -0.2352066934108734, -0.2360444813966751, -0.233053520321846, -0.21810917556285858, -0.23245592415332794, -0.2338113933801651, -0.2391587644815445, -0.2369411140680313, -0.23548905551433563, -0.24369007349014282, -0.2368355244398117, -0.22513265907764435, -0.23831906914710999, -0.21772336959838867, -0.207787424325943, -0.22817209362983704, -0.22474777698516846, -0.2293292135000229, -0.25040191411972046, -0.21789097785949707, -0.21809105575084686, -0.22901928424835205, -0.21870778501033783, -0.22859269380569458, -0.2410828024148941, -0.23198629915714264, -0.22551091015338898, -0.2102551907300949, -0.23209339380264282, -0.24025557935237885, -0.2252037674188614, -0.2363588660955429, -0.22246265411376953, -0.22164715826511383, -0.22885848581790924, -0.21765318512916565, -0.23757468163967133, -0.23695988953113556, -0.22553780674934387, -0.2293577939271927, -0.22115248441696167, -0.22568561136722565, -0.2248421460390091, -0.23562082648277283, -0.23449276387691498, -0.23344670236110687, -0.22371339797973633, -0.2450401932001114, -0.21737323701381683, -0.22191143035888672, -0.23023253679275513, -0.2250075489282608, -0.22656375169754028, -0.2346920520067215, -0.22073034942150116, -0.21374090015888214, -0.23256851732730865, -0.2292603701353073, -0.23527732491493225, -0.23986046016216278, -0.2326425313949585, -0.21239513158798218, -0.23081283271312714, -0.24913433194160461, -0.2331661432981491, -0.23036567866802216, -0.23015327751636505, -0.234981968998909, -0.2405938059091568, -0.22954073548316956, -0.23660941421985626, -0.23750750720500946, -0.2226841151714325, -0.21917076408863068, -0.22886095941066742, -0.2376742660999298, -0.23526917397975922, -0.23473678529262543, -0.22378136217594147, -0.22763384878635406, -0.2322177290916443, -0.21770785748958588, -0.23570126295089722, -0.23531317710876465, -0.23076066374778748, -0.24333877861499786, -0.24022087454795837, -0.24820289015769958, -0.23463551700115204, -0.2233506739139557, -0.22104279696941376, -0.240062415599823, -0.23457109928131104, -0.2261110246181488, -0.2128976434469223, -0.23168304562568665, -0.22870051860809326, -0.23820696771144867, -0.24841688573360443, -0.2340744286775589, -0.22562836110591888, -0.22859786450862885, -0.24919340014457703, -0.23312725126743317, -0.2459135502576828, -0.22477884590625763, -0.2258095145225525, -0.24266721308231354, -0.2349027842283249, -0.2437467724084854, -0.2436942160129547, -0.2362452745437622, -0.2381405532360077, -0.21940173208713531, -0.23644056916236877, -0.25603654980659485, -0.23680256307125092, -0.2474498599767685, -0.24901995062828064, -0.22329413890838623, -0.24250280857086182, -0.24299801886081696, -0.2548578679561615, -0.22268876433372498, -0.22551456093788147, -0.23258431255817413, -0.2321181297302246, -0.24153517186641693, -0.23898279666900635, -0.2367173433303833, -0.21567443013191223, -0.2309170514345169, -0.22744177281856537, -0.24620817601680756, -0.23431448638439178, -0.23017917573451996, -0.2388918399810791, -0.23386451601982117, -0.2486039102077484, -0.23959988355636597, -0.2498486489057541, -0.22845686972141266, -0.25216975808143616, -0.24088212847709656, -0.23712040483951569, -0.23962220549583435, -0.21326479315757751, -0.24032166600227356, -0.2318565398454666, -0.22688840329647064, -0.21959157288074493, -0.2240418940782547, -0.22351683676242828, -0.2357451170682907, -0.22418588399887085, -0.2251545488834381, -0.23440755903720856, -0.22046397626399994, -0.20822784304618835, -0.2040456384420395, -0.21734142303466797, -0.18414464592933655, -0.18685753643512726, -0.18628090620040894, -0.1836630403995514, -0.1452261358499527, -0.15905052423477173, -0.1484975814819336, -0.1445745825767517, -0.12499436736106873, -0.1006387397646904, -0.08299853652715683, -0.0967683345079422, -0.0640142485499382, -0.04548652097582817, -0.03400687873363495, -0.01774965040385723, -0.002672532107681036, 0.039897989481687546, 0.04312232509255409, 0.10056941956281662, 0.13402150571346283, 0.19977861642837524, 0.24742621183395386, 0.323446661233902, 0.3591049313545227, 0.41089752316474915, 0.44514715671539307, 0.4278460144996643, 0.43683961033821106, 0.4240405559539795, 0.41177618503570557, 0.3897066116333008, 0.4141102433204651, 0.3738596737384796, 0.37583857774734497, 0.36984363198280334, 0.3477186858654022, 0.3501768410205841, 0.3502802550792694, 0.3322910964488983, 0.3271160423755646, 0.29969966411590576, 0.318392276763916, 0.3190469443798065, 0.3137592077255249, 0.28089970350265503, 0.2543855905532837, 0.2820204496383667, 0.2794182300567627, 0.2962912917137146, 0.28302082419395447, 0.29745084047317505, 0.27927616238594055, 0.27990755438804626, 0.3054344654083252, 0.3071962296962738, 0.2923155426979065, 0.2914397120475769] 
 , Step size: 
 [-0.2325991839170456, -0.23409250378608704, -0.23517130315303802, -0.23833245038986206, -0.24120597541332245, -0.2164636254310608, -0.20817692577838898, -0.23810237646102905, -0.22490990161895752, -0.22248433530330658, -0.21740271151065826, -0.2308744490146637, -0.24733540415763855, -0.23010839521884918, -0.21616309881210327, -0.23079995810985565, -0.22839874029159546, -0.23181383311748505, -0.204567551612854, -0.23467759788036346, -0.2166602909564972, -0.21777811646461487, -0.2188429981470108, -0.23682864010334015, -0.23011749982833862, -0.231337770819664, -0.24563346803188324, -0.2463652342557907, -0.22980228066444397, -0.22180819511413574, -0.21176263689994812, -0.23309990763664246, -0.23641689121723175, -0.21601009368896484, -0.20880067348480225, -0.2083449363708496, -0.21571405231952667, -0.205089271068573, -0.20886479318141937, -0.2144521027803421, -0.2325824350118637, -0.21197913587093353, -0.21022245287895203, -0.22122660279273987, -0.21257516741752625, -0.22316767275333405, -0.2152968794107437, -0.22091376781463623, -0.21422341465950012, -0.19613340497016907, -0.18980225920677185, -0.20395584404468536, -0.2061590850353241, -0.18412746489048004, -0.20509888231754303, -0.19219616055488586, -0.19178257882595062, -0.18426264822483063, -0.1851710081100464, -0.18632058799266815, -0.1892179250717163, -0.17935508489608765, -0.1800454705953598, -0.17623543739318848, -0.19616465270519257, -0.17277827858924866, -0.19272194802761078, -0.1684088259935379, -0.18009735643863678, -0.1808125227689743, -0.18043439090251923, -0.18762736022472382, -0.20118923485279083, -0.17554283142089844, -0.19620667397975922, -0.18973270058631897, -0.1623574048280716, -0.1854161024093628, -0.1935349404811859, -0.20224629342556, -0.20217415690422058, -0.2044181227684021, -0.21845512092113495, -0.2082369476556778, -0.1913081556558609, -0.20706264674663544, -0.1895783692598343, -0.18386265635490417, -0.20439966022968292, -0.1737394630908966, -0.1803145706653595, -0.17699499428272247, -0.14585240185260773, -0.15419244766235352, -0.15104426443576813, -0.13586555421352386, -0.13822343945503235, -0.11353444308042526, -0.12924076616764069, -0.11207640171051025, -0.12854455411434174, -0.10342496633529663, -0.11582919955253601, -0.0987304151058197, -0.1134839728474617, -0.10887347161769867, -0.08871831744909286, -0.09149635583162308, -0.0919923260807991, -0.08227291703224182, -0.058584440499544144, -0.06350448727607727, -0.0525004006922245, -0.0442039854824543, -0.04095854610204697, -0.03003263659775257, -0.04019913449883461, -0.009685649536550045, -0.009765495546162128, -0.02066780813038349, -0.017745142802596092, -0.03187311440706253, -0.004854640923440456, 0.009028579108417034, 0.011115982197225094, 0.009878048673272133, 0.02978106588125229, 0.014721279963850975, 0.007658407092094421, 0.02068137191236019, 0.030779335647821426, 0.024272121489048004, 0.010501418262720108, 0.01347610168159008, 0.02384238690137863, 0.02583901956677437, 0.030644692480564117, 0.05012761428952217, 0.02895134501159191, 0.0323549285531044, 0.03803230822086334, 0.04560571536421776, 0.03256504610180855, 0.030813248828053474, 0.04400045424699783, 0.04867177829146385, 0.054006610065698624, 0.056070808321237564, 0.05824654549360275, 0.034804824739694595, 0.04515416920185089, 0.05765695497393608, 0.051550306379795074, 0.05684454366564751, 0.0450308695435524, 0.03118181973695755, 0.04877551645040512, 0.04102344810962677, 0.03916294872760773, 0.03129609674215317, 0.045841559767723083, 0.04295715317130089, 0.03966895863413811, 0.03891848027706146, 0.016503987833857536, 0.024422015994787216, 0.026516107842326164, 0.045536335557699203, 0.013787948526442051, 0.027625350281596184, 0.026669014245271683, 0.007440301589667797, 0.02116992510855198, 0.026379000395536423, 0.01738426648080349, -0.009640488773584366, 0.01817462407052517, 0.009358478710055351, 0.021818215027451515, 0.0034689647145569324, -0.02801421470940113, 0.001502203638665378, -0.01284442562609911, -0.035443585366010666, -0.006515058223158121, 0.00823238119482994, -0.040839068591594696, -0.02977348491549492, -0.02533886209130287, -0.016873294487595558, -0.012661932967603207, -0.011388260871171951, -0.01211409829556942, -0.003960618283599615, -0.013424964621663094, -0.025864070281386375, -0.04504874721169472, -0.03798019140958786, -0.023733248934149742, -0.03021000511944294, -0.011582672595977783, -0.043447814881801605, -0.043629348278045654, -0.043528832495212555, -0.03881983086466789, -0.039353836327791214, -0.03858059644699097, -0.03401002287864685, -0.03596843034029007, -0.06147957965731621, -0.045574404299259186, -0.040334902703762054, -0.035146526992321014, -0.046936359256505966, -0.049989063292741776, -0.033383093774318695, -0.04399378225207329, -0.06668903678655624, -0.06389487534761429, -0.0753287523984909, -0.057325318455696106, -0.06404802948236465, -0.0629696473479271, -0.08321063220500946, -0.07503746449947357, -0.07611879706382751, -0.060871727764606476, -0.060157399624586105, -0.06303983181715012, -0.08350755274295807, -0.07324237376451492, -0.06892101466655731, -0.07580354064702988, -0.09063629806041718, -0.08059599250555038, -0.07512389123439789, -0.086919866502285, -0.0756334736943245, -0.08686015009880066, -0.09263986349105835, -0.10225732624530792, -0.09199477732181549, -0.1106310561299324, -0.10385444015264511, -0.12038901448249817, -0.11713229864835739, -0.12578584253787994, -0.14169074594974518, -0.15426738560199738, -0.1277647614479065, -0.13767771422863007, -0.1664653718471527, -0.19701418280601501, -0.1932677924633026, -0.19682668149471283, -0.20566770434379578, -0.21710434556007385, -0.23371560871601105, -0.24693746864795685, -0.2641749382019043, -0.2535800635814667, -0.2922140657901764, -0.3037942051887512, -0.291799932718277, -0.31994473934173584, -0.33328375220298767, -0.3345419466495514, -0.3484227657318115, -0.35523954033851624, -0.3904721438884735, -0.37386390566825867, -0.3775225877761841, -0.4131985902786255, -0.4221917688846588, -0.3974560499191284, -0.4009426534175873, -0.4035196304321289, -0.40602555871009827, -0.42608943581581116, -0.4221542179584503, -0.4384430944919586, -0.41757917404174805, -0.4356869161128998, -0.43461233377456665, -0.43490171432495117, -0.4452841877937317, -0.4255882799625397, -0.42822304368019104, -0.4389778971672058, -0.4160727858543396, -0.40994882583618164, -0.4175701141357422, -0.4186680018901825, -0.40219390392303467, -0.4181497097015381, -0.404400497674942, -0.39213651418685913, -0.4106559157371521, -0.37972989678382874, -0.3977598249912262, -0.37896817922592163, -0.3785213828086853, -0.3646378219127655, -0.35816147923469543, -0.35270044207572937, -0.3499455153942108, -0.34931832551956177, -0.3295806646347046, -0.3452664911746979, -0.3210142254829407, -0.3621716797351837, -0.3645516335964203, -0.35948649048805237, -0.3450593948364258, -0.34225043654441833, -0.3659636080265045, -0.36815863847732544, -0.35594436526298523, -0.3558417558670044, -0.3536628484725952]