Epoch: 2-3, Loss: 28.974964141845703, Lr: 0.001 , 
 ,Threshold: 
[-0.13686951994895935, -0.11336158215999603, -0.1265675574541092, -0.13753655552864075, -0.11511429399251938, -0.12173651903867722, -0.13776984810829163, -0.12397067248821259, -0.11560265719890594, -0.11846582591533661, -0.12205473333597183, -0.1359281986951828, -0.13416610658168793, -0.12185956537723541, -0.12963032722473145, -0.12017461657524109, -0.12175268679857254, -0.115924172103405, -0.13504554331302643, -0.12735004723072052, -0.1249258816242218, -0.12974846363067627, -0.1305118054151535, -0.1299130618572235, -0.10711881518363953, -0.11922905594110489, -0.12687821686267853, -0.11522087454795837, -0.13430646061897278, -0.14448758959770203, -0.1214652881026268, -0.12509854137897491, -0.12090964615345001, -0.12354765832424164, -0.10819905996322632, -0.13192018866539001, -0.13702437281608582, -0.12197590619325638, -0.13472582399845123, -0.1169174313545227, -0.10343769937753677, -0.12225370109081268, -0.12580519914627075, -0.14986883103847504, -0.1361616849899292, -0.12567579746246338, -0.12459411472082138, -0.14256161451339722, -0.11167989671230316, -0.11006586253643036, -0.12210910022258759, -0.12483057379722595, -0.13845382630825043, -0.1416715681552887, -0.1414555311203003, -0.13241341710090637, -0.11857621371746063, -0.13481806218624115, -0.12153046578168869, -0.11615055799484253, -0.11812078952789307, -0.12896372377872467, -0.13357023894786835, -0.11884557455778122, -0.11578799784183502, -0.13231651484966278, -0.12183987349271774, -0.11553694307804108, -0.1344163715839386, -0.10906125605106354, -0.12492980808019638, -0.15409435331821442, -0.10843875259160995, -0.12423823773860931, -0.1277264803647995, -0.11022483557462692, -0.1395522654056549, -0.1213492676615715, -0.1202186793088913, -0.11239252239465714, -0.11896473914384842, -0.10283374041318893, -0.11586122959852219, -0.14682398736476898, -0.13172581791877747, -0.1480841189622879, -0.1248084008693695, -0.1118851900100708, -0.11107012629508972, -0.11520291864871979, -0.12835870683193207, -0.11861852556467056, -0.12181935459375381, -0.1266998052597046, -0.12066039443016052, -0.10715322196483612, -0.11770987510681152, -0.12024892866611481, -0.12290775030851364, -0.13206300139427185, -0.11912525445222855, -0.12902842462062836, -0.12997764348983765, -0.1270608901977539, -0.1122187003493309, -0.12662546336650848, -0.12806172668933868, -0.13351276516914368, -0.1314271241426468, -0.13007651269435883, -0.13837192952632904, -0.1318182349205017, -0.12041417509317398, -0.13372765481472015, -0.1132175624370575, -0.10338559001684189, -0.12381591647863388, -0.12036380171775818, -0.12494927644729614, -0.1460380107164383, -0.11358126252889633, -0.11372239142656326, -0.12465093284845352, -0.11432494223117828, -0.12423817813396454, -0.13677260279655457, -0.12773974239826202, -0.12138017266988754, -0.10612792521715164, -0.12786780297756195, -0.13584543764591217, -0.12067461013793945, -0.13166967034339905, -0.11754870414733887, -0.11655110865831375, -0.12356916815042496, -0.11220528185367584, -0.13189886510372162, -0.13113528490066528, -0.11946401745080948, -0.12308844178915024, -0.11462343484163284, -0.11905425786972046, -0.11814690381288528, -0.12894797325134277, -0.12788784503936768, -0.12682393193244934, -0.11713987588882446, -0.13841450214385986, -0.1110965684056282, -0.11580000072717667, -0.1240663081407547, -0.11884986609220505, -0.1204083263874054, -0.1286529004573822, -0.11479029804468155, -0.10773289203643799, -0.12641438841819763, -0.12292670458555222, -0.1287865787744522, -0.1332205981016159, -0.12582439184188843, -0.10539529472589493, -0.12367470562458038, -0.1418614536523819, -0.12581633031368256, -0.12292763590812683, -0.1226365938782692, -0.12738820910453796, -0.1328701227903366, -0.12177062779664993, -0.12869331240653992, -0.12942945957183838, -0.11442361772060394, -0.11069303750991821, -0.1201181411743164, -0.12866322696208954, -0.12593644857406616, -0.1250319480895996, -0.11368556320667267, -0.11739959567785263, -0.1218489557504654, -0.10717593133449554, -0.12503691017627716, -0.1246076226234436, -0.12013154476881027, -0.13257597386837006, -0.1294209510087967, -0.1373239904642105, -0.12365755438804626, -0.11218088120222092, -0.10979577898979187, -0.12874123454093933, -0.12322421371936798, -0.1147129163146019, -0.10144370049238205, -0.12022296339273453, -0.11713184416294098, -0.12652814388275146, -0.1366235762834549, -0.12213106453418732, -0.113491952419281, -0.11623428761959076, -0.13663946092128754, -0.12033794820308685, -0.13299338519573212, -0.11169488728046417, -0.11276780813932419, -0.1296829879283905, -0.12196726351976395, -0.13083352148532867, -0.13080009818077087, -0.12333102524280548, -0.12518532574176788, -0.10645241290330887, -0.12347345054149628, -0.14310424029827118, -0.12369642406702042, -0.13430529832839966, -0.13585633039474487, -0.11009015887975693, -0.12924563884735107, -0.12966717779636383, -0.14144578576087952, -0.10915730893611908, -0.11187990009784698, -0.11892686784267426, -0.11844822764396667, -0.12780900299549103, -0.1251973956823349, -0.1228664442896843, -0.10175323486328125, -0.11698943376541138, -0.11353271454572678, -0.13232837617397308, -0.12046211957931519, -0.11636818945407867, -0.12512992322444916, -0.12015415728092194, -0.13500668108463287, -0.12613272666931152, -0.13663697242736816, -0.11540151387453079, -0.13935652375221252, -0.12830965220928192, -0.12483487278223038, -0.12766523659229279, -0.101692333817482, -0.12936939299106598, -0.12160566449165344, -0.11743678152561188, -0.11107252538204193, -0.116635262966156, -0.11749338358640671, -0.13144029676914215, -0.12181176990270615, -0.1251126527786255, -0.1371372491121292, -0.12631459534168243, -0.1177520900964737, -0.11802487075328827, -0.13629761338233948, -0.10881546139717102, -0.1185200959444046, -0.12511096894741058, -0.1308228075504303, -0.10159417986869812, -0.1254272609949112, -0.12574616074562073, -0.13292431831359863, -0.1254318505525589, -0.1137068048119545, -0.10839660465717316, -0.13461041450500488, -0.11523019522428513, -0.11060892045497894, -0.11396508663892746, -0.1139739379286766, -0.11655842512845993, -0.09430471807718277, -0.11447291821241379, -0.08615172654390335, -0.0871293768286705, -0.05928884074091911, -0.044705167412757874, 0.013263171538710594, 0.0458635613322258, 0.10257318615913391, 0.14430226385593414, 0.1351551115512848, 0.1523609757423401, 0.14753840863704681, 0.14285600185394287, 0.12801645696163177, 0.15935806930065155, 0.126006618142128, 0.1349053680896759, 0.13562020659446716, 0.12024039030075073, 0.1294589340686798, 0.13639864325523376, 0.12519964575767517, 0.1277341991662979, 0.1124291941523552, 0.13516107201576233, 0.14065441489219666, 0.13574157655239105, 0.13489580154418945, 0.10531727969646454, 0.12824909389019012, 0.11806103587150574, 0.13046902418136597, 0.11615259200334549, 0.1315535604953766, 0.11078296601772308, 0.10766758024692535, 0.12906798720359802, 0.12813669443130493, 0.11191107332706451, 0.10784213989973068] 
 , Step size: 
 [-0.12575410306453705, -0.12542274594306946, -0.12621991336345673, -0.1287986785173416, -0.12969709932804108, -0.10598564147949219, -0.09860554337501526, -0.12840428948402405, -0.11464093625545502, -0.11054479330778122, -0.10349556803703308, -0.11753599345684052, -0.1361883580684662, -0.12106085568666458, -0.10825048387050629, -0.1231929138302803, -0.12107963114976883, -0.12444163113832474, -0.09642762690782547, -0.12614457309246063, -0.10753940045833588, -0.10846808552742004, -0.10956709086894989, -0.1267615258693695, -0.11819847673177719, -0.11682414263486862, -0.12898148596286774, -0.12800957262516022, -0.11106856912374496, -0.10404783487319946, -0.09533895552158356, -0.11840426176786423, -0.12453547865152359, -0.10609985888004303, -0.10084584355354309, -0.1016538217663765, -0.11027519404888153, -0.10089071840047836, -0.10580609738826752, -0.11137185245752335, -0.12939578294754028, -0.10876238346099854, -0.10732907801866531, -0.11807055026292801, -0.10900505632162094, -0.12072982639074326, -0.11351121217012405, -0.11975391209125519, -0.11369442939758301, -0.0965789258480072, -0.09183037281036377, -0.10769876837730408, -0.11120092123746872, -0.09125830233097076, -0.11334269493818283, -0.10116619616746902, -0.10191891342401505, -0.09542962908744812, -0.09713596850633621, -0.09963318705558777, -0.10435862839221954, -0.09470929205417633, -0.09558204561471939, -0.09213856607675552, -0.1127210259437561, -0.09022235870361328, -0.11052187532186508, -0.08598515391349792, -0.09737186133861542, -0.0973149985074997, -0.09612411260604858, -0.10262081027030945, -0.11536141484975815, -0.0887005552649498, -0.10847021639347076, -0.10119502991437912, -0.07086775451898575, -0.09420562535524368, -0.10156779736280441, -0.1092153936624527, -0.10814862698316574, -0.10942031443119049, -0.12280374020338058, -0.11228731274604797, -0.09528033435344696, -0.11076686531305313, -0.09290779381990433, -0.08701474964618683, -0.10722744464874268, -0.07684610038995743, -0.08344848453998566, -0.08093586564064026, -0.04928053170442581, -0.05782324820756912, -0.05571071058511734, -0.044417139142751694, -0.04804879054427147, -0.02345571666955948, -0.03837449848651886, -0.020128479227423668, -0.036518607288599014, -0.011514058336615562, -0.02459213137626648, -0.007250039838254452, -0.022074053063988686, -0.017942912876605988, 0.0010142885148525238, -0.0036605456843972206, -0.0073355864733457565, 0.0007453322759829462, 0.025386163964867592, 0.016300415620207787, 0.02343805693089962, 0.029603056609630585, 0.030240017920732498, 0.03844087943434715, 0.027959708124399185, 0.05814728885889053, 0.05755752697587013, 0.04517258331179619, 0.04450494796037674, 0.02699858322739601, 0.05009233579039574, 0.06293583661317825, 0.0640234723687172, 0.06144600734114647, 0.07905865460634232, 0.059885624796152115, 0.051996175199747086, 0.06403174251317978, 0.07301507890224457, 0.0649968683719635, 0.048847440630197525, 0.048155587166547775, 0.056227464228868484, 0.055402569472789764, 0.0570221021771431, 0.07224112004041672, 0.04485880583524704, 0.04360894858837128, 0.04759380593895912, 0.05302717164158821, 0.0388275645673275, 0.03626642003655434, 0.048728033900260925, 0.0526602566242218, 0.057530228048563004, 0.059312980622053146, 0.06260233372449875, 0.038839347660541534, 0.049007464200258255, 0.06170070543885231, 0.05588659271597862, 0.060515936464071274, 0.04883177950978279, 0.03351398929953575, 0.05071623995900154, 0.04233305901288986, 0.03934521600604057, 0.03059573844075203, 0.04451306164264679, 0.04073147848248482, 0.036760516464710236, 0.035332296043634415, 0.012061189860105515, 0.019615598022937775, 0.020788395777344704, 0.03995301201939583, 0.008583512157201767, 0.021373244002461433, 0.019711771979928017, -0.000974734837654978, 0.012063483707606792, 0.016765376552939415, 0.007146899122744799, -0.021273881196975708, 0.006066422443836927, -0.0031521811615675688, 0.008031029254198074, -0.010775752365589142, -0.04146476462483406, -0.010776981711387634, -0.024520371109247208, -0.0463872067630291, -0.017259899526834488, -0.0026175761595368385, -0.05101948603987694, -0.04011434689164162, -0.03610262647271156, -0.02834116667509079, -0.025814471766352654, -0.02501700446009636, -0.026204854249954224, -0.01738365925848484, -0.026284676045179367, -0.03798188641667366, -0.056698355823755264, -0.04982493445277214, -0.03578256070613861, -0.0422893650829792, -0.02370557375252247, -0.05570236220955849, -0.056077975779771805, -0.05567997321486473, -0.0505283921957016, -0.05037383362650871, -0.048712875694036484, -0.04319681599736214, -0.0438665971159935, -0.06863567233085632, -0.0524136908352375, -0.04690435156226158, -0.04187862575054169, -0.054067037999629974, -0.05704127252101898, -0.04000566527247429, -0.045966070145368576, -0.07104936987161636, -0.06692023575305939, -0.07659006863832474, -0.056995753198862076, -0.06320635974407196, -0.06166522577404976, -0.08135747909545898, -0.07267670333385468, -0.07340177893638611, -0.05774352699518204, -0.05642664432525635, -0.05902985855937004, -0.07915057986974716, -0.06848209351301193, -0.06364217400550842, -0.07016407698392868, -0.08451288938522339, -0.0737130269408226, -0.06740078330039978, -0.07809299975633621, -0.06547645479440689, -0.07518494874238968, -0.07895303517580032, -0.08632268756628036, -0.07303234934806824, -0.08862870186567307, -0.07801975309848785, -0.09110049158334732, -0.08382472395896912, -0.08824539929628372, -0.09991814941167831, -0.10661564767360687, -0.07399546355009079, -0.07735493034124374, -0.09880103170871735, -0.12106311321258545, -0.10781191289424896, -0.10076942294836044, -0.0992429181933403, -0.09927580505609512, -0.10383410006761551, -0.10597699135541916, -0.11176112294197083, -0.08916741609573364, -0.11705047637224197, -0.11822741478681564, -0.09217221289873123, -0.11508896946907043, -0.11963248252868652, -0.11282787472009659, -0.11795752495527267, -0.11646381765604019, -0.14425700902938843, -0.12038074433803558, -0.11761564016342163, -0.14748595654964447, -0.15112361311912537, -0.12168527394533157, -0.1213262677192688, -0.12057825922966003, -0.12041448056697845, -0.13874192535877228, -0.13291911780834198, -0.1479204297065735, -0.1260693073272705, -0.14344538748264313, -0.14181937277317047, -0.1416824460029602, -0.15175490081310272, -0.13199417293071747, -0.13513967394828796, -0.1472487598657608, -0.12659046053886414, -0.12340772897005081, -0.1346491426229477, -0.13963013887405396, -0.12718220055103302, -0.14725984632968903, -0.1381646692752838, -0.13065406680107117, -0.15405681729316711, -0.1282964050769806, -0.15147361159324646, -0.1382627934217453, -0.14350789785385132, -0.13556407392024994, -0.1381404995918274, -0.13623075187206268, -0.13811515271663666, -0.13458694517612457, -0.12789694964885712, -0.14086924493312836, -0.11169751733541489, -0.14666135609149933, -0.14437542855739594, -0.13709656894207, -0.12270032614469528, -0.11574691534042358, -0.13715992867946625, -0.13533759117126465, -0.12035156041383743, -0.11833484470844269, -0.11363644152879715]