Epoch: 4-3, Loss: 18.997440338134766, Lr: 0.001 , 
 ,Threshold: 
[-0.2400604784488678, -0.2156006544828415, -0.22886410355567932, -0.23968493938446045, -0.21677234768867493, -0.22378771007061005, -0.24004799127578735, -0.22623156011104584, -0.21775418519973755, -0.2203235924243927, -0.22366613149642944, -0.2377619743347168, -0.23635761439800262, -0.22432592511177063, -0.23221926391124725, -0.2227746844291687, -0.22437350451946259, -0.21852783858776093, -0.23754894733428955, -0.22980991005897522, -0.22733280062675476, -0.2321608066558838, -0.23295101523399353, -0.23227424919605255, -0.209278404712677, -0.22112862765789032, -0.2285991609096527, -0.21682119369506836, -0.2359165996313095, -0.2462117224931717, -0.22330337762832642, -0.22705155611038208, -0.22307154536247253, -0.22583545744419098, -0.21060502529144287, -0.23439089953899384, -0.23953217267990112, -0.2245664745569229, -0.2374013364315033, -0.21958023309707642, -0.2060708999633789, -0.22489771246910095, -0.22847820818424225, -0.252546101808548, -0.2387908697128296, -0.22835253179073334, -0.22728997468948364, -0.24526214599609375, -0.21438710391521454, -0.2128482162952423, -0.22499743103981018, -0.22782082855701447, -0.24152091145515442, -0.24486348032951355, -0.24472859501838684, -0.23575454950332642, -0.22201436758041382, -0.23833586275577545, -0.22512097656726837, -0.21984760463237762, -0.22194094955921173, -0.23281005024909973, -0.23744797706604004, -0.22276663780212402, -0.21976347267627716, -0.2363547682762146, -0.2259080708026886, -0.21959726512432098, -0.23846343159675598, -0.21304507553577423, -0.22884654998779297, -0.25795063376426697, -0.21221788227558136, -0.227946937084198, -0.23135992884635925, -0.2137846052646637, -0.24294151365756989, -0.22471193969249725, -0.2235129177570343, -0.21559400856494904, -0.2220620959997177, -0.20580120384693146, -0.21867583692073822, -0.24957776069641113, -0.23438915610313416, -0.2506929636001587, -0.22733865678310394, -0.21432165801525116, -0.21338792145252228, -0.2173900008201599, -0.2304164171218872, -0.22049716114997864, -0.22359929978847504, -0.22824621200561523, -0.22193902730941772, -0.20807738602161407, -0.2184804528951645, -0.2209705263376236, -0.223508819937706, -0.2326338142156601, -0.21949106454849243, -0.22931928932666779, -0.23016434907913208, -0.227178692817688, -0.21224160492420197, -0.2265937328338623, -0.2279563695192337, -0.23331300914287567, -0.23110732436180115, -0.22966453433036804, -0.23786380887031555, -0.23103190958499908, -0.21934545040130615, -0.23254111409187317, -0.2119542956352234, -0.20202726125717163, -0.22241535782814026, -0.21899303793907166, -0.22357751429080963, -0.24465526640415192, -0.2121526300907135, -0.2123570293188095, -0.2232951819896698, -0.21298706531524658, -0.22287602722644806, -0.23537218570709229, -0.22628411650657654, -0.21982179582118988, -0.20456887781620026, -0.22640682756900787, -0.23456771671772003, -0.219517782330513, -0.2306758314371109, -0.2167830467224121, -0.21596884727478027, -0.22318394482135773, -0.21198534965515137, -0.23191413283348083, -0.23132041096687317, -0.2199099063873291, -0.22372964024543762, -0.21552355587482452, -0.22005991637706757, -0.2192220389842987, -0.23000892996788025, -0.22889328002929688, -0.22785767912864685, -0.21814106404781342, -0.23948073387145996, -0.21185708045959473, -0.2164265662431717, -0.2247563749551773, -0.21954892575740814, -0.22111445665359497, -0.22925500571727753, -0.21531453728675842, -0.2083272635936737, -0.22715210914611816, -0.2238430380821228, -0.2298591583967209, -0.2344420850276947, -0.22722579538822174, -0.20698140561580658, -0.22540123760700226, -0.24372228980064392, -0.22775514423847198, -0.22494924068450928, -0.22472605109214783, -0.22954292595386505, -0.23514682054519653, -0.22409148514270782, -0.23115505278110504, -0.23204055428504944, -0.21720121800899506, -0.21367095410823822, -0.22334040701389313, -0.23212404549121857, -0.22968053817749023, -0.2291075438261032, -0.21810320019721985, -0.22191549837589264, -0.22647690773010254, -0.21196116507053375, -0.229941725730896, -0.22954730689525604, -0.2249922901391983, -0.2375609427690506, -0.2344440519809723, -0.24242623150348663, -0.22886213660240173, -0.2175847291946411, -0.21528540551662445, -0.23431822657585144, -0.22883860766887665, -0.22039182484149933, -0.20717141032218933, -0.2259538471698761, -0.22296777367591858, -0.23246647417545319, -0.24266763031482697, -0.22831480205059052, -0.2198554277420044, -0.22281154990196228, -0.24339331686496735, -0.2273106724023819, -0.24007990956306458, -0.21892407536506653, -0.21993863582611084, -0.23678481578826904, -0.22901056706905365, -0.23785313963890076, -0.23779979348182678, -0.2303517460823059, -0.23224899172782898, -0.2135070115327835, -0.23053884506225586, -0.2501057982444763, -0.2308712750673294, -0.24150288105010986, -0.2430545687675476, -0.21731078624725342, -0.23651917278766632, -0.23701605200767517, -0.24887993931770325, -0.2167118489742279, -0.2195248305797577, -0.22658389806747437, -0.22611911594867706, -0.2355385273694992, -0.23299242556095123, -0.23073527216911316, -0.20970329642295837, -0.22496367990970612, -0.22151511907577515, -0.24031278491020203, -0.22845660150051117, -0.22436538338661194, -0.23313194513320923, -0.22816810011863708, -0.24298374354839325, -0.23407027125358582, -0.24443155527114868, -0.22316668927669525, -0.2470361888408661, -0.23593297600746155, -0.23239462077617645, -0.23515966534614563, -0.2091105431318283, -0.23653535544872284, -0.22852823138237, -0.22410400211811066, -0.21743477880954742, -0.2226053774356842, -0.22294385731220245, -0.23619945347309113, -0.22584660351276398, -0.22822435200214386, -0.23910477757453918, -0.22705091536045074, -0.21698066592216492, -0.21536852419376373, -0.23149728775024414, -0.20149864256381989, -0.20785407721996307, -0.21126535534858704, -0.21286503970623016, -0.17891691625118256, -0.19729003310203552, -0.19125153124332428, -0.1914612054824829, -0.17581020295619965, -0.15489128232002258, -0.13993863761425018, -0.15579664707183838, -0.12465307861566544, -0.10719321668148041, -0.09637361019849777, -0.0804101973772049, -0.06532319635152817, -0.022585894912481308, -0.019045447930693626, 0.03883754462003708, 0.07276836782693863, 0.13905921578407288, 0.1873043328523636, 0.2639789581298828, 0.300358384847641, 0.3530772924423218, 0.3885478377342224, 0.3728562891483307, 0.38372930884361267, 0.3729303181171417, 0.3626343309879303, 0.34238895773887634, 0.3686371147632599, 0.33028551936149597, 0.33424103260040283, 0.33014005422592163, 0.3098076283931732, 0.31407713890075684, 0.3160587251186371, 0.2999575734138489, 0.2956075966358185, 0.26708370447158813, 0.2869607210159302, 0.28916800022125244, 0.2755562663078308, 0.23964805901050568, 0.2060808539390564, 0.22645223140716553, 0.2184511423110962, 0.2304663211107254, 0.2120693325996399, 0.22126314043998718, 0.19600293040275574, 0.19528260827064514, 0.21818386018276215, 0.21752123534679413, 0.19938522577285767, 0.197368323802948] 
 , Step size: 
 [-0.22682000696659088, -0.22814902663230896, -0.22920556366443634, -0.23229843378067017, -0.23505058884620667, -0.21036139130592346, -0.2021154910326004, -0.23202402889728546, -0.21880494058132172, -0.2163032740354538, -0.21107551455497742, -0.2244752049446106, -0.24101600050926208, -0.22393928468227386, -0.2101268768310547, -0.22480256855487823, -0.22244267165660858, -0.22588030993938446, -0.19864121079444885, -0.22876200079917908, -0.21070827543735504, -0.21179838478565216, -0.2128063142299652, -0.2307206243276596, -0.22392836213111877, -0.22503632307052612, -0.2392025887966156, -0.23978817462921143, -0.2231072336435318, -0.21503910422325134, -0.2049052119255066, -0.22615356743335724, -0.22949393093585968, -0.2091425508260727, -0.20205333828926086, -0.2017012983560562, -0.20919682085514069, -0.19871054589748383, -0.20266717672348022, -0.20843258500099182, -0.22657108306884766, -0.20596647262573242, -0.20419679582118988, -0.21519321203231812, -0.20656736195087433, -0.21728143095970154, -0.20949245989322662, -0.21514417231082916, -0.2085115611553192, -0.19049322605133057, -0.184237539768219, -0.1984729766845703, -0.2007647007703781, -0.17884421348571777, -0.19987237453460693, -0.18703800439834595, -0.18668819963932037, -0.1792367398738861, -0.1802370846271515, -0.18148097395896912, -0.1845388561487198, -0.17480121552944183, -0.17554298043251038, -0.171777606010437, -0.19176623225212097, -0.16845346987247467, -0.18846632540225983, -0.1642151027917862, -0.17597970366477966, -0.17674562335014343, -0.17640981078147888, -0.18366584181785583, -0.19731010496616364, -0.17168518900871277, -0.1923753023147583, -0.18590861558914185, -0.15847815573215485, -0.18159134685993195, -0.1897171586751938, -0.19840127229690552, -0.19829174876213074, -0.20050354301929474, -0.21452856063842773, -0.20430612564086914, -0.18738093972206116, -0.20313091576099396, -0.18563857674598694, -0.17991390824317932, -0.2004431039094925, -0.16979826986789703, -0.1763775497674942, -0.17308738827705383, -0.14191307127475739, -0.15025845170021057, -0.14713816344738007, -0.1320740282535553, -0.13446126878261566, -0.10977690666913986, -0.12544496357440948, -0.1082359030842781, -0.12468238919973373, -0.09954552352428436, -0.11194676160812378, -0.0948164165019989, -0.10954106599092484, -0.10491681843996048, -0.08476419746875763, -0.08755998313426971, -0.08810940384864807, -0.0784044936299324, -0.054758019745349884, -0.059733450412750244, -0.04885449260473251, -0.04060564190149307, -0.03740984946489334, -0.026553476229310036, -0.03671533986926079, -0.006174958776682615, -0.006242246832698584, -0.01715841516852379, -0.014329886063933372, -0.028530217707157135, -0.0015789439203217626, 0.012308396399021149, 0.01438422966748476, 0.01313343271613121, 0.03298688679933548, 0.017795147374272346, 0.01072334498167038, 0.023751985281705856, 0.03389161080121994, 0.027397213503718376, 0.013634778559207916, 0.016584843397140503, 0.02696274407207966, 0.028971998021006584, 0.033770859241485596, 0.053249720484018326, 0.0319787971675396, 0.0353519544005394, 0.041024088859558105, 0.04855433851480484, 0.035506464540958405, 0.033817097544670105, 0.04706118628382683, 0.05177406594157219, 0.05721327289938927, 0.05942920222878456, 0.06194176897406578, 0.038637425750494, 0.04918796196579933, 0.06182534992694855, 0.055888205766677856, 0.061177048832178116, 0.04928244277834892, 0.035399917513132095, 0.053033191710710526, 0.04529844596982002, 0.043441105633974075, 0.03560422360897064, 0.0502050444483757, 0.04736581817269325, 0.04412560537457466, 0.043415699154138565, 0.021040311083197594, 0.028964579105377197, 0.03094031848013401, 0.04986037313938141, 0.017930181697010994, 0.031658221036195755, 0.030618973076343536, 0.011282269842922688, 0.024963604286313057, 0.03009096346795559, 0.021025599911808968, -0.006162357050925493, 0.021497951820492744, 0.01244190614670515, 0.024579904973506927, 0.005826153326779604, -0.025968847796320915, 0.003395401407033205, -0.010955163277685642, -0.03364274278283119, -0.004756282549351454, 0.010034982115030289, -0.039138395339250565, -0.02806888148188591, -0.023639734834432602, -0.015183182433247566, -0.010996565222740173, -0.00966276228427887, -0.01030644215643406, -0.0020202563609927893, -0.011349482461810112, -0.02383621223270893, -0.04305063933134079, -0.03598032146692276, -0.021765779703855515, -0.028277667239308357, -0.009693697094917297, -0.041628822684288025, -0.04188473895192146, -0.04185022786259651, -0.037236690521240234, -0.03787011653184891, -0.03722795471549034, -0.03277154639363289, -0.034791577607393265, -0.06037984788417816, -0.044491954147815704, -0.03927098959684372, -0.03410673141479492, -0.04593407362699509, -0.04900769889354706, -0.03243383765220642, -0.04290849715471268, -0.06578154116868973, -0.06304562836885452, -0.07455334812402725, -0.05662831664085388, -0.06331580877304077, -0.06217575818300247, -0.08232896029949188, -0.07408573478460312, -0.07522919774055481, -0.06004781275987625, -0.05929120257496834, -0.062124840915203094, -0.08251054584980011, -0.07214020192623138, -0.06768760085105896, -0.07440889626741409, -0.08901601284742355, -0.0786827802658081, -0.07286977022886276, -0.08426153659820557, -0.07247650623321533, -0.08313576877117157, -0.08821901679039001, -0.09703408181667328, -0.0857701376080513, -0.1033497154712677, -0.09522413462400436, -0.11035450547933578, -0.10535253584384918, -0.11212457716464996, -0.12612664699554443, -0.1360279768705368, -0.10629713535308838, -0.1126684918999672, -0.13764537870883942, -0.16414426267147064, -0.15590800344944, -0.15473876893520355, -0.15925833582878113, -0.16647645831108093, -0.17921791970729828, -0.18937991559505463, -0.20401151478290558, -0.19125986099243164, -0.2284122258424759, -0.23886288702487946, -0.22572599351406097, -0.25366532802581787, -0.2667269706726074, -0.2677696645259857, -0.2815096378326416, -0.28828808665275574, -0.3235703408718109, -0.30706945061683655, -0.31089305877685547, -0.34677672386169434, -0.3560136556625366, -0.33154526352882385, -0.33534374833106995, -0.3382147252559662, -0.34103015065193176, -0.36142826080322266, -0.35778823494911194, -0.37439602613449097, -0.35386815667152405, -0.3723212480545044, -0.3716082274913788, -0.3723224401473999, -0.38319098949432373, -0.36407670378685, -0.3675406277179718, -0.37952280044555664, -0.35829681158065796, -0.3540862500667572, -0.3637544512748718, -0.36681827902793884, -0.3521236777305603, -0.3697896897792816, -0.35786959528923035, -0.34740519523620605, -0.367624968290329, -0.3383016586303711, -0.35786575078964233, -0.3407351076602936, -0.34195250272750854, -0.32838544249534607, -0.3186110556125641, -0.3142358958721161, -0.31301987171173096, -0.3005039095878601, -0.25500112771987915, -0.26340290904045105, -0.2314758151769638, -0.26835954189300537, -0.26557815074920654, -0.2536699175834656, -0.2320123016834259, -0.22017186880111694, -0.243805930018425, -0.24358274042606354, -0.22886638343334198, -0.22478671371936798, -0.22217248380184174]