Epoch: 1-3, Loss: 225.45965576171875, Lr: 0.001 , 
 ,Threshold: 
[-0.07463178783655167, -0.05130789801478386, -0.06442141532897949, -0.07540854811668396, -0.05315402150154114, -0.059642206877470016, -0.07564137130975723, -0.0618249736726284, -0.053457364439964294, -0.056489188224077225, -0.06012185290455818, -0.0738530382514, -0.07199233025312424, -0.05961710587143898, -0.06738121807575226, -0.05792160704731941, -0.059460535645484924, -0.05369769036769867, -0.07288365066051483, -0.06512681394815445, -0.06266867369413376, -0.06748425960540771, -0.06823860853910446, -0.0677252858877182, -0.04508702829480171, -0.05735139176249504, -0.06503074616193771, -0.0532638281583786, -0.07225919514894485, -0.0823865532875061, -0.059306591749191284, -0.06288085132837296, -0.058648958802223206, -0.061234671622514725, -0.0458337627351284, -0.0695631206035614, -0.07469387352466583, -0.05961683765053749, -0.07239458709955215, -0.05461221933364868, -0.04115718603134155, -0.059963420033454895, -0.06353818625211716, -0.08763986080884933, -0.07400434464216232, -0.06342435628175735, -0.06230824440717697, -0.08020555227994919, -0.04926992952823639, -0.04765678569674492, -0.05970313772559166, -0.06239506974816322, -0.07599011808633804, -0.07913918048143387, -0.07890386879444122, -0.0698334202170372, -0.055995892733335495, -0.0722091868519783, -0.058888837695121765, -0.05345330387353897, -0.055369459092617035, -0.06623508036136627, -0.07087099552154541, -0.05618332326412201, -0.053181082010269165, -0.06973595172166824, -0.05930432677268982, -0.053014207631349564, -0.0719015896320343, -0.046593230217695236, -0.06248743459582329, -0.09167126566171646, -0.046040140092372894, -0.061852212995290756, -0.06535692512989044, -0.04788370802998543, -0.07721282541751862, -0.05903441831469536, -0.05793742835521698, -0.0501653328537941, -0.05680945888161659, -0.04078323021531105, -0.05394821986556053, -0.08494974672794342, -0.06991661339998245, -0.08629334717988968, -0.06304509192705154, -0.05016156658530235, -0.04939066991209984, -0.05358106642961502, -0.06683278828859329, -0.05723022297024727, -0.060509491711854935, -0.06557010114192963, -0.05972864478826523, -0.04650077968835831, -0.05710124969482422, -0.05966924503445625, -0.06236081197857857, -0.07164930552244186, -0.058734994381666183, -0.06863150000572205, -0.06957352161407471, -0.06661098450422287, -0.051714103668928146, -0.06609079986810684, -0.06749005615711212, -0.07288976013660431, -0.07074245810508728, -0.06933001428842545, -0.07761532813310623, -0.0709051787853241, -0.05936979502439499, -0.07254516333341599, -0.051917608827352524, -0.04201450198888779, -0.06236569583415985, -0.05878830328583717, -0.06321213394403458, -0.084088996052742, -0.051366426050662994, -0.05130137875676155, -0.06221108138561249, -0.051875147968530655, -0.06179237365722656, -0.07435421645641327, -0.06539756059646606, -0.059150051325559616, -0.04386526346206665, -0.06557253748178482, -0.07346717268228531, -0.05819584056735039, -0.06912033259868622, -0.054932478815317154, -0.05393689125776291, -0.06092377379536629, -0.04951655492186546, -0.06925001740455627, -0.06847026199102402, -0.05674344673752785, -0.06030751019716263, -0.05182282254099846, -0.05620793253183365, -0.055311329662799835, -0.06620966643095016, -0.06529287993907928, -0.06421209126710892, -0.05447450652718544, -0.07552836090326309, -0.048293739557266235, -0.053060196340084076, -0.06126636639237404, -0.056005604565143585, -0.05748062580823898, -0.06569003313779831, -0.0517408587038517, -0.04466717317700386, -0.06334685534238815, -0.05987323820590973, -0.06567472219467163, -0.0700954794883728, -0.06266216188669205, -0.04217565804719925, -0.06041007861495018, -0.07850916683673859, -0.06243303045630455, -0.059548504650592804, -0.05926615744829178, -0.06402335315942764, -0.06951272487640381, -0.05834803730249405, -0.06525779515504837, -0.0660419836640358, -0.051106177270412445, -0.04745092615485191, -0.05691586434841156, -0.06542401760816574, -0.06263463944196701, -0.061682749539613724, -0.05028689652681351, -0.05405426770448685, -0.0585896335542202, -0.044000670313835144, -0.06190667301416397, -0.06147626042366028, -0.05701536685228348, -0.0694044753909111, -0.06625058501958847, -0.07416557520627975, -0.06051536649465561, -0.04905853047966957, -0.04666237533092499, -0.06560766696929932, -0.060089580714702606, -0.05157116428017616, -0.03827770799398422, -0.05701415613293648, -0.05392559617757797, -0.06332738697528839, -0.07342643290758133, -0.058938685804605484, -0.050302211195230484, -0.05305684730410576, -0.07347846031188965, -0.057203687727451324, -0.06978699564933777, -0.048400089144706726, -0.049476321786642075, -0.06638102978467941, -0.05864930525422096, -0.06752505153417587, -0.0675012618303299, -0.06004481017589569, -0.061913903802633286, -0.043184246867895126, -0.06020914390683174, -0.07972116023302078, -0.06035367771983147, -0.07091902941465378, -0.0724223181605339, -0.04662945494055748, -0.06577936559915543, -0.06619715690612793, -0.07797244936227798, -0.04570556432008743, -0.04852856695652008, -0.055624641478061676, -0.055206943303346634, -0.06464370340108871, -0.06208869069814682, -0.05980710685253143, -0.03875351324677467, -0.05398540943861008, -0.05052352324128151, -0.06930813193321228, -0.05742486193776131, -0.05330545827746391, -0.062034957110881805, -0.05701747536659241, -0.07185651361942291, -0.06296538561582565, -0.07347671687602997, -0.05216879025101662, -0.07610031962394714, -0.06498825550079346, -0.06145224720239639, -0.06421082466840744, -0.03815430402755737, -0.06583504378795624, -0.058087874203920364, -0.05390845611691475, -0.04754212498664856, -0.05311091989278793, -0.05399724096059799, -0.06801323592662811, -0.05836289003491402, -0.06170426309108734, -0.07384567707777023, -0.06303241848945618, -0.054548583924770355, -0.0548848994076252, -0.07325101643800735, -0.04587423428893089, -0.056103769689798355, -0.06257851421833038, -0.06855269521474838, -0.039662186056375504, -0.06376376748085022, -0.06434103101491928, -0.07182756811380386, -0.06472403556108475, -0.053471889346838, -0.04866645112633705, -0.07546503096818924, -0.056840937584638596, -0.05317101627588272, -0.05775434896349907, -0.059351515024900436, -0.06403088569641113, -0.0444246344268322, -0.06825467199087143, -0.04536115750670433, -0.054616499692201614, -0.04026690125465393, -0.04751530662178993, -0.01961549185216427, -0.01611957512795925, 0.026028862223029137, 0.06427120417356491, 0.055373869836330414, 0.07379546761512756, 0.07030820846557617, 0.06690950691699982, 0.05323971435427666, 0.08564858138561249, 0.05327253043651581, 0.06307388097047806, 0.06456995755434036, 0.04980238154530525, 0.05980851501226425, 0.0674085021018982, 0.05684418976306915, 0.06000060960650444, 0.0453052781522274, 0.06861955672502518, 0.07469189167022705, 0.07035261392593384, 0.07007308304309845, 0.041007742285728455, 0.06476332247257233, 0.05492090433835983, 0.06786976754665375, 0.05409085378050804, 0.07002736628055573, 0.04998456686735153, 0.047313421964645386, 0.06917057186365128, 0.06876996904611588, 0.05332115665078163, 0.04958087205886841] 
 , Step size: 
 [-0.06402475386857986, -0.06344515830278397, -0.06439381092786789, -0.06700920313596725, -0.0673382431268692, -0.0441039614379406, -0.036930833011865616, -0.06687814742326736, -0.053152430802583694, -0.04819910228252411, -0.04072806239128113, -0.05557439103722572, -0.07498960196971893, -0.06044715270400047, -0.04778531566262245, -0.06290905177593231, -0.06111773103475571, -0.06403427571058273, -0.03551904112100601, -0.06572718918323517, -0.047424860298633575, -0.048402201384305954, -0.04959842190146446, -0.06610378623008728, -0.056218843907117844, -0.053417354822158813, -0.06516052782535553, -0.06544448435306549, -0.049698539078235626, -0.04343835636973381, -0.03592826426029205, -0.06043926253914833, -0.06734892725944519, -0.049785029143095016, -0.045647379010915756, -0.04674823582172394, -0.055713165551424026, -0.04660442844033241, -0.05086301639676094, -0.05598562955856323, -0.07369568198919296, -0.052930429577827454, -0.050866756588220596, -0.060748882591724396, -0.05101749673485756, -0.06468581408262253, -0.0583796389400959, -0.06611832976341248, -0.061094772070646286, -0.04372354969382286, -0.03866102546453476, -0.05482104793190956, -0.0587913915514946, -0.039839841425418854, -0.06193584203720093, -0.049840427935123444, -0.050229452550411224, -0.04381472244858742, -0.04563489928841591, -0.048630814999341965, -0.053969260305166245, -0.04382861778140068, -0.0440962128341198, -0.03995911404490471, -0.05969151481986046, -0.036834511905908585, -0.056530602276325226, -0.031787969172000885, -0.04304976388812065, -0.042469728738069534, -0.04101794213056564, -0.0473535917699337, -0.05990665778517723, -0.03309303894639015, -0.05269617587327957, -0.04512003809213638, -0.014844329096376896, -0.03796772286295891, -0.0450163371860981, -0.052118778228759766, -0.05042528361082077, -0.05103152617812157, -0.06410258263349533, -0.053664542734622955, -0.03708450868725777, -0.05286538600921631, -0.03549708053469658, -0.03041444905102253, -0.05178133770823479, -0.023284532129764557, -0.03072476014494896, -0.03005349263548851, 0.001582396449521184, -0.00825489778071642, -0.008508015424013138, -0.0020018895156681538, -0.007936741225421429, 0.016132045537233353, 0.0004620839608833194, 0.02019004337489605, 0.0015089738881215453, 0.025004399940371513, 0.009656467474997044, 0.025385132059454918, 0.008307846263051033, 0.010785270482301712, 0.027452580630779266, 0.019895870238542557, 0.012617773376405239, 0.018092572689056396, 0.04057985916733742, 0.025523826479911804, 0.02687990851700306, 0.028857799246907234, 0.02606174349784851, 0.03162149339914322, 0.019291508942842484, 0.04762410745024681, 0.04467807710170746, 0.02930106222629547, 0.025355180725455284, 0.0066740019246935844, 0.029022278264164925, 0.0410323441028595, 0.04137621074914932, 0.03797656670212746, 0.05551595240831375, 0.036971382796764374, 0.028603654354810715, 0.040659233927726746, 0.049425140023231506, 0.040891170501708984, 0.02457977645099163, 0.024195322766900063, 0.03276250511407852, 0.03211358189582825, 0.0337500125169754, 0.049491528421640396, 0.021861225366592407, 0.020253529772162437, 0.02448922209441662, 0.0310802198946476, 0.01742594502866268, 0.015120822004973888, 0.02797985076904297, 0.032754089683294296, 0.037753187119960785, 0.03861776739358902, 0.03991787135601044, 0.015143531374633312, 0.02479281648993492, 0.037239618599414825, 0.030787913128733635, 0.03420385718345642, 0.02157972753047943, 0.004949960857629776, 0.022308196872472763, 0.014654886908829212, 0.012662352994084358, 0.004036239348351955, 0.018714841455221176, 0.015875674784183502, 0.01309277769178152, 0.012427978217601776, -0.010865061543881893, -0.00281009403988719, -0.0009765558643266559, 0.019185492768883705, -0.010652418248355389, 0.0026289664674550295, 0.0006314007332548499, -0.019891096279025078, -0.005702468100935221, 0.0005629272782243788, -0.007249925285577774, -0.0343451164662838, -0.005807159468531609, -0.013728088699281216, -0.0010949112474918365, -0.018003223463892937, -0.04705630615353584, -0.014147333800792694, -0.025853579863905907, -0.04622577130794525, -0.016747554764151573, -0.001731409807689488, -0.04982514679431915, -0.0386284776031971, -0.03416192904114723, -0.02583533152937889, -0.02259737253189087, -0.02143416367471218, -0.022122355177998543, -0.012773560360074043, -0.021113988012075424, -0.032361630350351334, -0.05109270662069321, -0.0435899943113327, -0.028853578492999077, -0.03454706445336342, -0.014914066530764103, -0.045659564435482025, -0.04455200582742691, -0.04262952134013176, -0.035784196108579636, -0.03519997000694275, -0.033314213156700134, -0.027501586824655533, -0.027728578075766563, -0.052383504807949066, -0.035947807133197784, -0.030212413519620895, -0.024912627413868904, -0.036794956773519516, -0.03956185653805733, -0.022413019090890884, -0.02232835255563259, -0.05140549689531326, -0.047030478715896606, -0.056552402675151825, -0.0364537350833416, -0.04206954315304756, -0.03984277322888374, -0.058808572590351105, -0.04909539595246315, -0.04831922799348831, -0.03192848712205887, -0.029734088107943535, -0.03125857189297676, -0.05041034147143364, -0.038771070539951324, -0.0328160785138607, -0.039036404341459274, -0.053179699927568436, -0.042179547250270844, -0.035649094730615616, -0.04613348841667175, -0.03328472003340721, -0.04276861622929573, -0.046172745525836945, -0.05317191034555435, -0.03948359191417694, -0.05479787662625313, -0.04367737099528313, -0.05653611198067665, -0.04905827343463898, -0.05353611707687378, -0.0657191053032875, -0.07197082787752151, -0.03882504627108574, -0.04165555164217949, -0.06254807859659195, -0.08428449928760529, -0.07046975940465927, -0.06272230297327042, -0.06088554859161377, -0.06019541621208191, -0.06353970617055893, -0.06496036052703857, -0.06957809627056122, -0.04588892310857773, -0.07249832153320312, -0.07239368557929993, -0.04191344603896141, -0.06617923080921173, -0.06874996423721313, -0.05981075391173363, -0.0630374327301979, -0.059903427958488464, -0.08599720150232315, -0.060239728540182114, -0.05561560392379761, -0.08378370106220245, -0.08571264147758484, -0.0545712411403656, -0.05260566622018814, -0.05031279847025871, -0.04873973876237869, -0.06585117429494858, -0.05910753458738327, -0.07332068681716919, -0.050902076065540314, -0.06784165650606155, -0.06586914509534836, -0.06547369807958603, -0.07533100992441177, -0.05527346581220627, -0.0580868199467659, -0.06990060955286026, -0.049115438014268875, -0.045926082879304886, -0.05725349858403206, -0.06242591515183449, -0.050236914306879044, -0.07063907384872437, -0.06194312497973442, -0.05484806373715401, -0.07866512984037399, -0.053243495523929596, -0.0769469141960144, -0.0642118826508522, -0.06995247304439545, -0.062513567507267, -0.06561300158500671, -0.06420845538377762, -0.06663427501916885, -0.06365966796875, -0.05752115324139595, -0.07101455330848694, -0.04264426976442337, -0.07795163989067078, -0.07621046900749207, -0.06948909908533096, -0.05563866347074509, -0.04944516345858574, -0.07132071256637573, -0.0699644610285759, -0.05554758012294769, -0.05435578525066376, -0.05000568553805351]