Epoch: 4-3, Loss: 10.700261116027832, Lr: 0.001 , 
 ,Threshold: 
[-0.18269215524196625, -0.18513454496860504, -0.20441465079784393, -0.1913127899169922, -0.20688755810260773, -0.20850668847560883, -0.20393341779708862, -0.18068860471248627, -0.1900661289691925, -0.21314117312431335, -0.22319024801254272, -0.21507173776626587, -0.19352811574935913, -0.19513408839702606, -0.20224179327487946, -0.17832642793655396, -0.2010740339756012, -0.18299825489521027, -0.16847652196884155, -0.17057618498802185, -0.1855342835187912, -0.1502290964126587, -0.09714777767658234, -0.08390822261571884, -0.01939300075173378, 0.08274782449007034, 0.18743881583213806, 0.2595254182815552, 0.294008731842041, 0.29542744159698486, 0.2743755280971527, 0.2728370726108551, 0.2558899223804474, 0.25367337465286255, 0.23776459693908691, 0.23035746812820435, 0.2366296797990799, 0.23290380835533142, 0.21902936697006226, 0.2040882259607315] 
 , Step size: 
 [-0.18375620245933533, -0.19659820199012756, -0.19353705644607544, -0.1971581131219864, -0.20984897017478943, -0.19767910242080688, -0.1968035250902176, -0.20165656507015228, -0.1945175975561142, -0.19779981672763824, -0.1991526335477829, -0.19911378622055054, -0.19539901614189148, -0.21184155344963074, -0.2091289758682251, -0.2260260134935379, -0.24126361310482025, -0.23603050410747528, -0.2567319869995117, -0.27403056621551514, -0.28887516260147095, -0.3064021170139313, -0.33057963848114014, -0.3125256299972534, -0.3150593042373657, -0.3257233798503876, -0.31843453645706177, -0.3017555773258209, -0.3044375479221344, -0.3117140531539917, -0.31177881360054016, -0.29702308773994446, -0.29247891902923584, -0.266573429107666, -0.2797154188156128, -0.24939458072185516, -0.2638131380081177, -0.253307580947876, -0.22932368516921997, -0.2163761705160141]