Epoch: 2-3, Loss: 17.243520736694336, Lr: 0.001 , 
 ,Threshold: 
[-0.09889069199562073, -0.1022539734840393, -0.12167195230722427, -0.10872059315443039, -0.12432724237442017, -0.12565341591835022, -0.12098691612482071, -0.09772919863462448, -0.1073184385895729, -0.13076815009117126, -0.1408553570508957, -0.13259482383728027, -0.11108178645372391, -0.11308471113443375, -0.12098562717437744, -0.09839168190956116, -0.12323583662509918, -0.1083582416176796, -0.09834027290344238, -0.10659579187631607, -0.13088099658489227, -0.1097458004951477, -0.07820587605237961, -0.1008790135383606, -0.0933041051030159, -0.06106112152338028, 0.0010419730097055435, 0.07312799245119095, 0.1203639805316925, 0.1346988081932068, 0.12461420893669128, 0.13218504190444946, 0.12383728474378586, 0.12952673435211182, 0.12068923562765121, 0.12040383368730545, 0.13279041647911072, 0.1351069062948227, 0.12764747440814972, 0.11787556111812592] 
 , Step size: 
 [-0.102009117603302, -0.1132267490029335, -0.109241783618927, -0.11208780854940414, -0.12400148063898087, -0.11234498769044876, -0.11125890165567398, -0.1159358099102974, -0.10777772217988968, -0.10900304466485977, -0.10912413150072098, -0.10851243138313293, -0.10430028289556503, -0.11847083270549774, -0.11110444366931915, -0.12070443481206894, -0.12472239136695862, -0.10526753962039948, -0.11061651259660721, -0.11433351039886475, -0.11654585599899292, -0.1251785308122635, -0.144446462392807, -0.12448102980852127, -0.12770545482635498, -0.1405547857284546, -0.13696834444999695, -0.12438681721687317, -0.13156276941299438, -0.1442824900150299, -0.15009580552577972, -0.14084327220916748, -0.14246191084384918, -0.12297927588224411, -0.142462357878685, -0.119098000228405, -0.13967595994472504, -0.13572989404201508, -0.1189851388335228, -0.1118583232164383]