Epoch: 11-3, Loss: 0.07346633821725845, Lr: 0.001 , 
 ,Threshold: 
[-0.20053021609783173, -0.2026149332523346, -0.22179226577281952, -0.20860737562179565, -0.22405143082141876, -0.22563974559307098, -0.22096091508865356, -0.19748277962207794, -0.20649383962154388, -0.2290048450231552, -0.2382257878780365, -0.22888852655887604, -0.20560680329799652, -0.2047792673110962, -0.20840205252170563, -0.17976917326450348, -0.19617027044296265, -0.1693589687347412, -0.14334550499916077, -0.13031531870365143, -0.1261756420135498, -0.06827189773321152, 0.008426390588283539, 0.042767345905303955, 0.11922448873519897, 0.22172455489635468, 0.31914761662483215, 0.3799702227115631, 0.40211546421051025, 0.39177319407463074, 0.3594261705875397, 0.34714290499687195, 0.3200661838054657, 0.3156440258026123, 0.2950184941291809, 0.3004169464111328, 0.3007603585720062, 0.3005174696445465, 0.29264113306999207, 0.27461567521095276] 
 , Step size: 
 [-0.20006322860717773, -0.21340613067150116, -0.21064281463623047, -0.21452610194683075, -0.22773905098438263, -0.21585020422935486, -0.2155434638261795, -0.22150999307632446, -0.21624736487865448, -0.22262030839920044, -0.22880278527736664, -0.23620809614658356, -0.24240921437740326, -0.27185097336769104, -0.2855856716632843, -0.3201257288455963, -0.3534165024757385, -0.36337903141975403, -0.3948954939842224, -0.41874194145202637, -0.4370420575141907, -0.45512643456459045, -0.4776746928691864, -0.4559405446052551, -0.4537642300128937, -0.45902585983276367, -0.44617363810539246, -0.422900527715683, -0.41782164573669434, -0.41683971881866455, -0.4080393612384796, -0.38423091173171997, -0.3705326318740845, -0.34495872259140015, -0.3545631468296051, -0.34670236706733704, -0.3541276156902313, -0.3501344919204712, -0.33674201369285583, -0.3193591833114624]