Epoch: 6-3, Loss: 0.3930946886539459, Lr: 0.001 , 
 ,Threshold: 
[-0.20050667226314545, -0.20259283483028412, -0.2217704802751541, -0.20858557522296906, -0.2240304946899414, -0.22561965882778168, -0.22094176709651947, -0.1974649727344513, -0.20647791028022766, -0.22899173200130463, -0.23821640014648438, -0.22888422012329102, -0.20560933649539948, -0.20479094982147217, -0.20842605829238892, -0.17980892956256866, -0.19622991979122162, -0.16944453120231628, -0.14346303045749664, -0.130466029047966, -0.12635640799999237, -0.0684802308678627, 0.008198522962629795, 0.04253067821264267, 0.11899206787347794, 0.2215043604373932, 0.3189561069011688, 0.379806250333786, 0.4019755721092224, 0.391652911901474, 0.3593297302722931, 0.3470654785633087, 0.3200044333934784, 0.31559276580810547, 0.2949570119380951, 0.2835869789123535, 0.28648412227630615, 0.2787953317165375, 0.25995826721191406, 0.2438535988330841] 
 , Step size: 
 [-0.20004284381866455, -0.21338333189487457, -0.21061860024929047, -0.2145015299320221, -0.22771140933036804, -0.21581880748271942, -0.21550707519054413, -0.22146694362163544, -0.21619395911693573, -0.22255077958106995, -0.22871091961860657, -0.23608475923538208, -0.24224688112735748, -0.2716420888900757, -0.2853248119354248, -0.3198164403438568, -0.3530670404434204, -0.3630037009716034, -0.39450836181640625, -0.41836535930633545, -0.4366942346096039, -0.454806387424469, -0.47738033533096313, -0.4556692838668823, -0.45351171493530273, -0.45878854393959045, -0.4459649324417114, -0.42271894216537476, -0.417662113904953, -0.4166980981826782, -0.4079224467277527, -0.3841344714164734, -0.37045300006866455, -0.3448905944824219, -0.35447824001312256, -0.3227733373641968, -0.33329707384109497, -0.31788259744644165, -0.28756487369537354, -0.2727380096912384]