Epoch: 3-3, Loss: 11.928388595581055, Lr: 0.001 , 
 ,Threshold: 
[-0.1442408412694931, -0.14722394943237305, -0.1665899008512497, -0.15355683863162994, -0.16920208930969238, -0.17065660655498505, -0.16599927842617035, -0.1427678018808365, -0.15230712294578552, -0.1756010800600052, -0.18577668070793152, -0.17776432633399963, -0.15636864304542542, -0.15827199816703796, -0.16593997180461884, -0.1429544985294342, -0.16716475784778595, -0.1512938141822815, -0.13990437984466553, -0.14642873406410217, -0.1679660975933075, -0.14266569912433624, -0.10462001711130142, -0.11570649594068527, -0.08639709651470184, -0.01679728366434574, 0.08010181784629822, 0.15976166725158691, 0.20371875166893005, 0.21326173841953278, 0.19879548251628876, 0.20288066565990448, 0.19113947451114655, 0.19370374083518982, 0.18202826380729675, 0.17906315624713898, 0.18883544206619263, 0.18856492638587952, 0.178550586104393, 0.16621267795562744] 
 , Step size: 
 [-0.14662517607212067, -0.15853185951709747, -0.15498101711273193, -0.15822003781795502, -0.17037460207939148, -0.15849177539348602, -0.15768484771251678, -0.16237054765224457, -0.15446962416172028, -0.1565573662519455, -0.1567605435848236, -0.15543851256370544, -0.15055407583713531, -0.16524410247802734, -0.15930840373039246, -0.17123675346374512, -0.1790495067834854, -0.16479076445102692, -0.17610324919223785, -0.1850789487361908, -0.19284558296203613, -0.2055261731147766, -0.22724950313568115, -0.20851163566112518, -0.21183918416500092, -0.2243148386478424, -0.22002100944519043, -0.20661534368991852, -0.21295477449893951, -0.2241426557302475, -0.22800323367118835, -0.21697208285331726, -0.21642889082431793, -0.19463267922401428, -0.21175558865070343, -0.18600618839263916, -0.20411820709705353, -0.19754372537136078, -0.178118035197258, -0.16825513541698456]