Epoch: 0-3, Loss: 73.95684051513672, Lr: 0.001 , 
 ,Threshold: 
[0.03028988651931286, -0.019678127020597458, -0.008997165597975254, 0.007480422034859657, -0.0002295742742717266, -0.009577217511832714, 0.008678723126649857, -0.006457583047449589, -0.015200961381196976, -0.013023057021200657, 0.000543429225217551, -0.012013671919703484, -0.02862335741519928, 0.01779993437230587, -0.0076947021298110485, -0.012118988670408726, -0.003244201885536313, -0.013647040352225304, 0.0035913416650146246, -0.004650070331990719, -0.01148409117013216, 0.010837523266673088, 0.007714160718023777, -0.0018438296392560005, -0.014468689449131489, -0.010869437828660011, -0.0002652614493854344, -0.020681098103523254, -0.009737118147313595, -0.0029468026477843523, 0.011869312264025211, -0.004305007867515087, 0.006954745389521122, -0.013722567819058895, 0.0013653254136443138, -0.003218727884814143, -0.012456575408577919, -0.012944551184773445, -0.0015503366012126207, -0.000698771036695689, -0.006720838602632284, -0.0014338772743940353, 0.006856015417724848, -0.0031430553644895554, -0.01511477492749691, -0.015517029911279678, -0.0009793335339054465, -0.004361143801361322, -0.004494079388678074, 0.00709058903157711, -0.016462417319417, 0.002959694480523467, -0.005314883776009083, -0.013552378863096237, -0.00017581030260771513, -0.007268576882779598, -0.0018652742728590965, -0.003884504549205303, -0.012377975508570671, -0.01281595230102539, 0.0031527704559266567, -0.008318565785884857, -0.016718776896595955, 0.008759080432355404, 0.013297121040523052, 0.007861809805035591, -0.018022289499640465, -0.01281261071562767, -0.01371051836758852, -0.004907749593257904, -0.008128384128212929, -0.01789548061788082, 0.01713288389146328, 0.0022734852973371744, -0.010572906583547592, -0.005110687576234341, 0.011618325486779213, -0.0012664581881836057, 0.019862007349729538, -0.002174749504774809, -0.018992049619555473, -0.0020882971584796906, 0.004027166403830051, -0.018381746485829353, -0.002882721833884716, -0.008854859508574009, 0.0143034802749753, 0.002152814995497465, -0.01589428074657917, -0.001721315085887909, 0.001914283144287765, 0.0045640370808541775, 0.017628172412514687, -0.01645084097981453, 0.008145024068653584, -0.01287107914686203, 0.0025202271062880754, -0.003999829757958651, -0.005586039740592241, -0.0023280498571693897, -0.004892419558018446, -0.012825685553252697, 0.008265184238553047, -0.008478973060846329, -0.004415147006511688, 0.006857715547084808, -0.0012758030788972974, 0.0035956711508333683, 0.016444658860564232, 0.011755147017538548, 0.0011332447174936533, 0.0017383239464834332, -0.012624287977814674, -0.0038900915533304214, 0.004219412337988615, -0.010201930068433285, -0.01967952586710453, 0.00193278887309134, -0.006046540569514036, -0.006530484184622765, -0.017133764922618866, -0.005705539137125015, -0.009511996991932392, 0.011504396796226501, 0.007035018410533667, 0.0008518653339706361, -0.010610603727400303, -0.015115275047719479, -0.0058589475229382515, -0.03525569289922714, -0.0049672434106469154, -0.005017105024307966, -0.00968853384256363, -0.006682342384010553, 0.005011328496038914, 0.0028898026794195175, 0.007748335134238005, 0.008220511488616467, -0.008042044937610626, -0.007834293879568577, 0.013170324265956879, -0.014641796238720417, 0.015517745167016983, 0.005517999641597271, 0.010376021265983582, 0.010225735604763031, 0.0003875017282553017, -0.004383960738778114, 0.00319542083889246, 0.0009638331248424947, 0.003982041031122208, 0.0150194326415658, -0.0067968666553497314, 0.0057353731244802475, 0.010252009145915508, -0.007155129685997963, -0.004603191278874874, 0.0019001202890649438, 0.015646666288375854, 0.007555230055004358] 
 , Step size: 
 [-0.003959955181926489, -0.006727201864123344, -0.016082394868135452, -0.015414985828101635, -0.006913174409419298, -0.002734742360189557, -0.013945898041129112, -0.0038004769012331963, -0.01587367057800293, 0.0006282520480453968, 0.008498183451592922, 0.009321209043264389, -0.0008241258910857141, -0.00015629694098606706, -0.012990860268473625, -0.007772860117256641, -0.023557335138320923, -0.009567699395120144, 0.023472461849451065, 0.004066105466336012, 0.0016345090698450804, -0.01188337616622448, -0.009816969744861126, 0.0008556304965168238, -0.015326210297644138, -0.01835620403289795, -0.018033036962151527, -0.0012189270928502083, 0.0003763433778658509, 0.0005085283191874623, -0.006030573975294828, -0.0007045603706501424, -0.004007191397249699, -0.0022675483487546444, -0.0002361529623158276, -0.0004944157553836703, 0.0017832000739872456, 0.005712304264307022, 0.010545285418629646, 0.012837428599596024, -0.027366427704691887, 0.009719442576169968, -0.007962177507579327, -0.007428928278386593, -0.015078471973538399, 0.0024884450249373913, -0.00440172478556633, 0.0038877897895872593, -0.0071382904425263405, -0.008809318765997887, -0.0157337486743927, 0.0008545378805138171, 0.005042593460530043, 0.005561687983572483, -0.014803382568061352, -0.015175266191363335, -0.00484081357717514, -0.004004552029073238, -0.008706634864211082, 0.00705262366682291, -0.022825853899121284, 0.007741479203104973, -0.010651414282619953, -0.006730852648615837, -0.004837436135858297, -0.000814633269328624, 0.005915433168411255, 0.003446535672992468, 0.015568377450108528, -0.005237937439233065, 0.012832751497626305, -0.0024883609730750322, 0.006268035154789686, 0.0031130509451031685, 0.007139958906918764, 0.000407679530326277, 0.006609857548028231, -0.011174802668392658, -0.014121484942734241, -0.004975215066224337, 0.005489577539265156, -6.241313531063497e-05, 0.005311638116836548, -0.005171936936676502, -0.010395127348601818, 0.010137085802853107, -0.00800594687461853, -0.011301303282380104, 0.0028783620800822973, -0.00011266465298831463, 0.013185089454054832, -0.007532792631536722, 0.006328693591058254, 0.015729017555713654, -0.005239071790128946, -0.005609031766653061, 0.005595014430582523, -0.013137315399944782, -0.0057260217145085335, 0.007272162474691868, 0.005648431368172169, -0.0052328514866530895, -0.007563731167465448, -0.002131260232999921, 0.0004219113034196198, 0.0014685497153550386, 0.006184486672282219, -0.010374097153544426, -0.003421602537855506, -0.007749577984213829, 0.0044316439889371395, 0.00012805909500457346, -0.006392877548933029, -0.013915960676968098, -0.015604594722390175, -0.011937935836613178, -0.01475899014621973, 0.010434289462864399, 0.004029469098895788, -0.0005971784703433514, -0.009056495502591133, -0.0016726786270737648, -0.002630594652146101, -0.01902030035853386, 0.0016550958389416337, 0.008637064136564732, -0.005238187965005636, 0.001669083721935749, 0.004825825337320566, -0.004269126802682877, -0.010590031743049622, 0.021115507930517197, -0.016018230468034744, 0.005257562734186649, 0.013522434048354626, 0.0027335830964148045, 0.0066942451521754265, -0.015750659629702568, -0.011455884203314781, -0.011479808017611504, -0.015936702489852905, 0.00011737336171790957, -0.011673065833747387, -0.0015665943501517177, -0.00036970333894714713, 0.004283851012587547, 0.0005197869031690061, -0.0020598815754055977, -0.001955958316102624, -0.0007203288841992617, 0.0007611548062413931, -0.01268367562443018, 0.00505482405424118, -0.00040614698082208633, -0.018199896439909935, -0.011486402712762356, -0.008016044273972511, -0.014112544246017933, -0.022912349551916122, -0.003466431051492691]