Epoch: 1-3, Loss: 68.4456787109375, Lr: 0.001 , 
 ,Threshold: 
[-0.02971074730157852, -0.07960004359483719, -0.06910313665866852, -0.052387531846761703, -0.060381803661584854, -0.06974727660417557, -0.05136433243751526, -0.06634144484996796, -0.07511608302593231, -0.07307945936918259, -0.059584420174360275, -0.07215027511119843, -0.08877784013748169, -0.042352329939603806, -0.06784986704587936, -0.07225016504526138, -0.06294453889131546, -0.07333580404520035, -0.05603238195180893, -0.06432299315929413, -0.07124969363212585, -0.04901238530874252, -0.052207037806510925, -0.06180504709482193, -0.07445701211690903, -0.07090899348258972, -0.06033103168010712, -0.08078403770923615, -0.0698925107717514, -0.06313320249319077, -0.04833154380321503, -0.06452342122793198, -0.053308889269828796, -0.0740886777639389, -0.059205636382102966, -0.06394302845001221, -0.07345230132341385, -0.07441319525241852, -0.06288421154022217, -0.06183743104338646, -0.06761066615581512, -0.062178708612918854, -0.05365531146526337, -0.06334550678730011, -0.0748208612203598, -0.07449827343225479, -0.05984661728143692, -0.06315828114748001, -0.06321516633033752, -0.05150386691093445, -0.07511036843061447, -0.05574077367782593, -0.06407523900270462, -0.07235731929540634, -0.0590493269264698, -0.06622282415628433, -0.06085086986422539, -0.06290411949157715, -0.07143763452768326, -0.07193242758512497, -0.056064847856760025, -0.0675908625125885, -0.07606364041566849, -0.05062723904848099, -0.04608718305826187, -0.05157839506864548, -0.07747340947389603, -0.07228504866361618, -0.0731918215751648, -0.06439800560474396, -0.06763748079538345, -0.07743541151285172, -0.042419787496328354, -0.05728963017463684, -0.07015049457550049, -0.06470909714698792, -0.048001401126384735, -0.060903150588274, -0.039774537086486816, -0.061818111687898636, -0.07863851636648178, -0.06174927577376366, -0.055640798062086105, -0.07805667072534561, -0.0625651478767395, -0.0685548260807991, -0.045418478548526764, -0.057594262063503265, -0.07567485421895981, -0.061548683792352676, -0.05793927609920502, -0.05534040927886963, -0.04231971502304077, -0.07642221450805664, -0.05186412110924721, -0.07294174283742905, -0.057613372802734375, -0.06416315585374832, -0.06577274948358536, -0.06252612173557281, -0.06509996950626373, -0.07304239273071289, -0.0519680418074131, -0.06875331699848175, -0.06474535167217255, -0.05352260172367096, -0.06170688942074776, -0.05688578635454178, -0.04407019540667534, -0.048816170543432236, -0.05951188877224922, -0.05903461575508118, -0.07355616241693497, -0.06476470082998276, -0.05654510483145714, -0.07086925208568573, -0.08023259043693542, -0.05849999561905861, -0.06636445969343185, -0.06673108041286469, -0.07729458063840866, -0.06584900617599487, -0.06966966390609741, -0.04861043021082878, -0.0514880046248436, -0.055449627339839935, -0.06367509067058563, -0.06324306130409241, -0.04660838097333908, -0.0657447800040245, -0.02178962342441082, -0.0057214489206671715, 0.004674820229411125, 0.02015790529549122, 0.04142550006508827, 0.046134624630212784, 0.05563528090715408, 0.059307124465703964, 0.045229148119688034, 0.047039106488227844, 0.06925361603498459, 0.04233088716864586, 0.0731842890381813, 0.06389712542295456, 0.06935424357652664, 0.06967086344957352, 0.06023884564638138, 0.055869605392217636, 0.06381656229496002, 0.06192559748888016, 0.0652456060051918, 0.07652291655540466, 0.05487668886780739, 0.0676148384809494, 0.07246651500463486, 0.055331483483314514, 0.05814624950289726, 0.06488184630870819, 0.0788390189409256, 0.07093183696269989] 
 , Step size: 
 [-0.06168018653988838, -0.06428735703229904, -0.07291068881750107, -0.07260909676551819, -0.0629763975739479, -0.05829832702875137, -0.06981633603572845, -0.06017494201660156, -0.07203420996665955, -0.054417021572589874, -0.045871421694755554, -0.04493270069360733, -0.054773930460214615, -0.053885318338871, -0.06633784621953964, -0.06099105626344681, -0.0797080472111702, -0.0661313384771347, -0.03380079194903374, -0.05275842174887657, -0.05459444969892502, -0.06697281450033188, -0.06337836384773254, -0.051532354205846786, -0.06680569797754288, -0.06847670674324036, -0.06725437194108963, -0.04983427748084068, -0.04739609360694885, -0.046492740511894226, -0.053132232278585434, -0.04802311956882477, -0.05110545456409454, -0.048349905759096146, -0.044086288660764694, -0.04332088679075241, -0.03903795778751373, -0.03177398815751076, -0.028241561725735664, -0.027729446068406105, -0.06997961550951004, -0.03473977372050285, -0.05436098575592041, -0.05597955361008644, -0.06629806756973267, -0.04820157587528229, -0.0542527511715889, -0.045429788529872894, -0.05594966188073158, -0.05344798415899277, -0.05906093493103981, -0.041228458285331726, -0.035420339554548264, -0.03373510390520096, -0.05171965807676315, -0.048328496515750885, -0.03498518466949463, -0.031366705894470215, -0.03390767425298691, -0.014528038911521435, -0.040412548929452896, -0.006719985511153936, -0.019952410832047462, -0.010542351752519608, -0.0010660161497071385, 0.006484230514615774, 0.01523100771009922, 0.015757758170366287, 0.03130403161048889, 0.01467842236161232, 0.035360660403966904, 0.022164350375533104, 0.03238723427057266, 0.030582401901483536, 0.03603719547390938, 0.03090936318039894, 0.038398005068302155, 0.020373227074742317, 0.017913224175572395, 0.027617892250418663, 0.037957821041345596, 0.0321236178278923, 0.03580193966627121, 0.025520367547869682, 0.02043326385319233, 0.04137416556477547, 0.023888563737273216, 0.02160019800066948, 0.03703448921442032, 0.035564880818128586, 0.05021365359425545, 0.031182320788502693, 0.045796580612659454, 0.05459728464484215, 0.031267642974853516, 0.028316598385572433, 0.0354006364941597, 0.017249820753932, 0.025470193475484848, 0.039117831736803055, 0.03806718438863754, 0.027630023658275604, 0.02531501092016697, 0.030629698187112808, 0.03271160274744034, 0.0324687696993351, 0.03545474261045456, 0.016182871535420418, 0.01931096985936165, 0.010899015702307224, 0.017722073942422867, 0.00781817827373743, -0.004559495951980352, -0.016814913600683212, -0.024449778720736504, -0.026876477524638176, -0.03575087711215019, -0.016131818294525146, -0.02727191522717476, -0.03564857691526413, -0.04691512510180473, -0.04153374955058098, -0.04357858747243881, -0.06033005192875862, -0.0423797070980072, -0.038080114871263504, -0.054303452372550964, -0.04955139383673668, -0.04820400848984718, -0.05856086686253548, -0.06589760631322861, -0.03508353233337402, -0.07287794351577759, -0.052443236112594604, -0.04493613913655281, -0.056379541754722595, -0.052908122539520264, -0.07573218643665314, -0.07166002690792084, -0.07186425477266312, -0.07648910582065582, -0.06054708734154701, -0.07244457304477692, -0.06260000169277191, -0.06166091933846474, -0.057217612862586975, -0.06119299307465553, -0.0640314370393753, -0.06418994069099426, -0.06321975588798523, -0.061986763030290604, -0.0756366103887558, -0.058049529790878296, -0.06369950622320175, -0.08181183785200119, -0.07537122070789337, -0.07216081023216248, -0.07848886400461197, -0.08750250190496445, -0.06824558228254318]