Epoch: 0-3, Loss: 0.05076932907104492, Lr: 0.001 , 
 ,Threshold: 
[0.010213539004325867, -0.004591264296323061, -0.015348061919212341, 0.011226008646190166, 0.001551896333694458, 0.011302907019853592, 0.021390393376350403, -0.008089294657111168, -0.019068090245127678, 0.010518754832446575, -0.008820529095828533, -0.00585658336058259, 0.010892967693507671, 0.007962643168866634, -0.021362727507948875, 0.006833635736256838, -0.0119228046387434, -0.008500448428094387, 0.014937645755708218, 0.0026382773648947477, 0.010634948499500751, 0.01831374503672123, -0.011039395816624165, -0.008248713798820972, 0.013770056888461113, 0.013217910192906857, 0.0008382739033550024, 0.01156005822122097, -0.0013489625416696072, -0.00896103959530592, -0.00014440022641792893, -0.012319110333919525, -0.008698547258973122, -0.013964928686618805, 0.008834362030029297, -0.0008786658872850239, -0.0028180452063679695, -0.01005857065320015, 0.008049254305660725, 0.013231775723397732] 
 , Step size: 
 [0.013263043947517872, 0.0042011933401227, 0.006949595175683498, 0.0009014025563374162, 0.0013313483214005828, 0.010197014547884464, -0.004828126635402441, 0.00648121815174818, -0.009037164971232414, 0.013626695610582829, 0.011906721629202366, 0.007497043814510107, 0.0053213220089674, 0.004822333808988333, 0.003246507840231061, -0.0026778741739690304, -0.012618093751370907, 0.00046563343494199216, -0.011912871152162552, 0.00627813208848238, 0.002294631442055106, 0.010118259117007256, -0.00643411697819829, 0.0007159963133744895, -0.005181761458516121, -0.0013256157981231809, 0.007413906045258045, 0.01345148216933012, -0.015959329903125763, 0.006233800668269396, -0.007985075935721397, -0.009506873786449432, 0.01582399196922779, 3.852415829896927e-05, -0.016145657747983932, -0.041466936469078064, -0.001640241825953126, 0.005555216688662767, -0.0013489890843629837, 0.002710494212806225]