Epoch: 4-3, Loss: 0.03522191941738129, Lr: 0.001 , 
 ,Threshold: 
[0.009141329675912857, -0.005437706131488085, -0.01623184233903885, 0.010213928297162056, 0.0003941860341001302, 0.009958225302398205, 0.019822940230369568, -0.009810932911932468, -0.020841114223003387, 0.008997674100100994, -0.009528584778308868, -0.004729568492621183, 0.01558767631649971, 0.018569566309452057, -0.0024755853228271008, 0.03785627335309982, 0.031773995608091354, 0.04828832671046257, 0.08480364829301834, 0.08388965576887131, 0.10088599473237991, 0.11560225486755371, 0.0944967269897461, 0.102266825735569, 0.12914390861988068, 0.13393141329288483, 0.12967902421951294, 0.14620734751224518, 0.14033639430999756, 0.14504459500312805, 0.16293682157993317, 0.1602708250284195, 0.1739397943019867, 0.1781272441148758, 0.20902185142040253, 0.20383957028388977, 0.2004968523979187, 0.18545149266719818, 0.19168516993522644, 0.1788429170846939] 
 , Step size: 
 [0.01422332227230072, 0.004996269941329956, 0.0077721839770674706, 0.0018532010726630688, 0.002427229192107916, 0.01147984154522419, -0.003314729779958725, 0.008139146491885185, -0.007326561026275158, 0.01509130746126175, 0.012561519630253315, 0.0063535235822200775, 0.0006289537413977087, -0.005835921037942171, -0.015690162777900696, -0.03385436162352562, -0.05679737403988838, -0.05705241858959198, -0.08297790586948395, -0.07645715773105621, -0.08968815952539444, -0.08915101736783981, -0.11411182582378387, -0.11218928545713425, -0.12334467470645905, -0.1251405030488968, -0.12469562143087387, -0.12490038573741913, -0.16196446120738983, -0.15231195092201233, -0.17639416456222534, -0.18802277743816376, -0.17320822179317474, -0.19936580955982208, -0.2247278094291687, -0.2555234134197235, -0.21512769162654877, -0.20120403170585632, -0.1966208964586258, -0.17406676709651947]