Epoch: 6-28, Loss: 0.0003354493819642812, Lr: 0.001 , 
 ,Threshold: 
[0.0016877554589882493, -0.013846672140061855, -0.02596542239189148, -0.0003923739423044026, -0.011299136094748974, -0.0014541188720613718, 0.009612640365958214, -0.01605951599776745, -0.024793852120637894, 0.010759443044662476, 0.0010066952090710402, 0.020070360973477364, 0.0616116039454937, 0.08130188286304474, 0.07732325792312622, 0.1308920830488205, 0.13190101087093353, 0.1510220170021057, 0.1938789337873459, 0.1930902600288391, 0.2209739238023758, 0.24449533224105835, 0.2412339597940445, 0.2608643174171448, 0.29584962129592896, 0.31101757287979126, 0.30864277482032776, 0.32772159576416016, 0.3239501714706421, 0.3280750811100006, 0.34597012400627136, 0.3417125344276428, 0.3513050675392151, 0.3523244857788086, 0.3803185224533081, 0.3692825138568878, 0.34805870056152344, 0.33994632959365845, 0.34281763434410095, 0.3141428232192993] 
 , Step size: 
 [0.02163243293762207, 0.011744584888219833, 0.016255125403404236, 0.011448480188846588, 0.013325194828212261, 0.022274544462561607, 0.0063558304682374, 0.013988376595079899, -0.003674491075798869, 0.013092202134430408, 0.0018857321701943874, -0.018599895760416985, -0.0459517166018486, -0.0692915990948677, -0.09629148989915848, -0.12758882343769073, -0.15761330723762512, -0.16034699976444244, -0.1926010698080063, -0.18679405748844147, -0.21131926774978638, -0.21994701027870178, -0.26389366388320923, -0.2748652398586273, -0.2943752706050873, -0.30731868743896484, -0.3083917796611786, -0.31114813685417175, -0.35022181272506714, -0.3400542140007019, -0.36413687467575073, -0.3744170069694519, -0.3561244308948517, -0.37957972288131714, -0.40231791138648987, -0.42794710397720337, -0.37221434712409973, -0.3682607114315033, -0.36601731181144714, -0.3377264440059662]