Epoch: 8-3, Loss: 0.00658668577671051, Lr: 0.001 , 
 ,Threshold: 
[-0.012820600531995296, -0.027506113052368164, -0.037674080580472946, -0.010317620821297169, -0.019755888730287552, -0.009838863275945187, 0.0012605201918631792, -0.021209098398685455, -0.027459628880023956, 0.010780826210975647, 0.005660596303641796, 0.03254169970750809, 0.08168129622936249, 0.09791478514671326, 0.09575730562210083, 0.14665059745311737, 0.14061935245990753, 0.15102936327457428, 0.1931871622800827, 0.18966275453567505, 0.21305283904075623, 0.22543305158615112, 0.22265572845935822, 0.2510732412338257, 0.2755959630012512, 0.29781028628349304, 0.2962417006492615, 0.3180176317691803, 0.3161727488040924, 0.32080474495887756, 0.3403404951095581, 0.33716171979904175, 0.34768223762512207, 0.34983739256858826, 0.3788566589355469, 0.36845654249191284, 0.3473595380783081, 0.3398478627204895, 0.3433624804019928, 0.33480778336524963] 
 , Step size: 
 [0.03526921197772026, 0.026969412341713905, 0.02925865910947323, 0.02231052704155445, 0.022412214428186417, 0.031122328713536263, 0.015052685514092445, 0.019459668546915054, -0.0007274949457496405, 0.01327543891966343, -0.002641611034050584, -0.031215034425258636, -0.06661631166934967, -0.08614861965179443, -0.11456558853387833, -0.14284661412239075, -0.16542641818523407, -0.1591852605342865, -0.190877303481102, -0.18246127665042877, -0.20248840749263763, -0.19951455295085907, -0.24471515417099, -0.265507310628891, -0.2744176983833313, -0.29459649324417114, -0.29624634981155396, -0.3014795780181885, -0.3423902988433838, -0.3325115144252777, -0.3582565486431122, -0.36961615085601807, -0.35224437713623047, -0.3769165277481079, -0.4007776975631714, -0.42708903551101685, -0.3714635372161865, -0.3681553304195404, -0.3665979504585266, -0.36178842186927795]