Epoch: 4-3, Loss: 6.469271183013916, Lr: 0.001 , 
 ,Threshold: 
[-0.21427083015441895, -0.2156641185283661, -0.20304206013679504, -0.2330869883298874, -0.2141949087381363, -0.21912288665771484, -0.22808711230754852, -0.2240874320268631, -0.21751722693443298, -0.21691377460956573, -0.20871448516845703, -0.22336727380752563, -0.21480154991149902, -0.21673841774463654, -0.211778461933136, -0.22182141244411469, -0.22022958099842072, -0.22033032774925232, -0.2196601927280426, -0.2190510630607605, -0.2396491914987564, -0.2214156687259674, -0.21811681985855103, -0.2230081856250763, -0.21456404030323029, -0.22215062379837036, -0.22244001924991608, -0.22635670006275177, -0.21952751278877258, -0.21304678916931152, -0.23096083104610443, -0.21432889997959137, -0.20656152069568634, -0.21744288504123688, -0.21571703255176544, -0.22935637831687927, -0.22515635192394257, -0.20924578607082367, -0.21464604139328003, -0.21196457743644714, -0.21773475408554077, -0.22723141312599182, -0.20585396885871887, -0.21595677733421326, -0.2150283008813858, -0.22178958356380463, -0.22708258032798767, -0.20448505878448486, -0.22515933215618134, -0.22206826508045197, -0.2205456793308258, -0.22362099587917328, -0.2197997272014618, -0.21870847046375275, -0.2384365200996399, -0.2481398582458496, -0.20804060995578766, -0.22779642045497894, -0.2522531747817993, -0.2216620296239853, -0.22255437076091766, -0.2243119776248932, -0.22731441259384155, -0.22215209901332855, -0.21509911119937897, -0.2060420960187912, -0.21116234362125397, -0.22003017365932465, -0.23047186434268951, -0.2141301929950714, -0.22151856124401093, -0.20632842183113098, -0.2123437225818634, -0.21285168826580048, -0.21094022691249847, -0.23044660687446594, -0.2215721309185028, -0.23130840063095093, -0.23560833930969238, -0.23790477216243744, -0.20938937366008759, -0.2339830845594406, -0.23086676001548767, -0.24899305403232574, -0.21423158049583435, -0.2274966537952423, -0.2327282428741455, -0.22718769311904907, -0.2271013706922531, -0.21138174831867218, -0.20792677998542786, -0.22434690594673157, -0.21270333230495453, -0.2139098197221756, -0.21165286004543304, -0.20667627453804016, -0.2262302041053772, -0.22892600297927856, -0.22696001827716827, -0.2302006036043167, -0.22321203351020813, -0.2088509500026703, -0.2123459428548813, -0.22430260479450226, -0.23263725638389587, -0.19903618097305298, -0.20389890670776367, -0.2221011370420456, -0.23324324190616608, -0.20606629550457, -0.23563222587108612, -0.22892600297927856, -0.23255060613155365, -0.23714815080165863, -0.21858720481395721, -0.1990562081336975, -0.22055408358573914, -0.20389842987060547, -0.222083181142807, -0.22847698628902435, -0.22072704136371613, -0.21849611401557922, -0.21751031279563904, -0.2281743288040161, -0.22476765513420105, -0.2205124944448471, -0.21971596777439117, -0.21561388671398163, -0.2092469334602356, -0.22830244898796082, -0.19973552227020264, -0.21400481462478638, -0.21771779656410217, -0.1920376718044281, -0.2210569828748703, -0.22427473962306976, -0.2181359827518463, -0.20469854772090912, -0.2013947069644928, -0.21640917658805847, -0.2137688547372818, -0.21810388565063477, -0.2210935801267624, -0.2203356921672821, -0.24734915792942047, -0.21871232986450195, -0.2251330465078354, -0.2154737114906311, -0.23281365633010864, -0.19765062630176544, -0.22482973337173462, -0.21024231612682343, -0.2214740812778473, -0.22082732617855072, -0.2091592699289322, -0.22349995374679565, -0.19402630627155304, -0.22141453623771667, -0.23143605887889862, -0.21642930805683136, -0.21652905642986298, -0.21781311929225922, -0.2117071896791458, -0.20438705384731293, -0.21796320378780365, -0.20838379859924316, -0.2401132881641388, -0.20447993278503418, -0.22061094641685486, -0.2187018245458603, -0.22245211899280548, -0.21505649387836456, -0.22334620356559753, -0.21808798611164093, -0.2156609743833542, -0.2178727388381958, -0.21440556645393372, -0.21821652352809906, -0.23370224237442017, -0.23212121427059174, -0.21923241019248962, -0.2279776632785797, -0.23379075527191162, -0.23684900999069214, -0.22919906675815582, -0.22303089499473572, -0.23069988191127777, -0.21771973371505737, -0.213505357503891, -0.21569682657718658, -0.21659159660339355, -0.22902490198612213, -0.21186798810958862, -0.23643182218074799, -0.21901875734329224, -0.20767439901828766, -0.22234632074832916, -0.22422997653484344, -0.22775837779045105, -0.22839795053005219, -0.21893218159675598, -0.2211374193429947, -0.22412732243537903, -0.23424871265888214, -0.21646545827388763, -0.23285335302352905, -0.2211088240146637, -0.2202109396457672, -0.2306656688451767, -0.21378958225250244, -0.22027133405208588, -0.2212013602256775, -0.22475293278694153, -0.24010848999023438, -0.2417888194322586, -0.2326701432466507, -0.23387570679187775, -0.24304771423339844, -0.21410420536994934, -0.21620437502861023, -0.22412005066871643, -0.22015857696533203, -0.22895364463329315, -0.22084711492061615, -0.21876360476016998, -0.23450368642807007, -0.22467873990535736, -0.22404225170612335, -0.22280794382095337, -0.21956048905849457, -0.23306326568126678, -0.2118416130542755, -0.2112736999988556, -0.22758685052394867, -0.2227313071489334, -0.23684333264827728, -0.2038220316171646, -0.20510271191596985, -0.23029275238513947, -0.22074581682682037, -0.22349616885185242, -0.2356826812028885, -0.22686249017715454, -0.2286749929189682, -0.23252221941947937, -0.23495259881019592, -0.23579983413219452, -0.23578891158103943, -0.23127377033233643, -0.23637214303016663, -0.21617650985717773, -0.2239726036787033, -0.21438565850257874, -0.2196282148361206, -0.21860024333000183, -0.22909022867679596, -0.23006363213062286, -0.21809469163417816, -0.22701945900917053, -0.22977600991725922, -0.21703246235847473, -0.21722470223903656, -0.21063077449798584, -0.2125505954027176, -0.20762017369270325, -0.20603811740875244, -0.1837848424911499, -0.18079836666584015, -0.17775185406208038, -0.16539393365383148, -0.16571582853794098, -0.1417149156332016, -0.13986708223819733, -0.11966760456562042, -0.12027831375598907, -0.08935751765966415, -0.07942678779363632, -0.06503211706876755, -0.03616567701101303, -0.02164875529706478, 0.008473577909171581, 0.032311178743839264, 0.0973021388053894, 0.14236143231391907, 0.20920829474925995, 0.2901689112186432, 0.34170544147491455, 0.38750919699668884, 0.37287580966949463, 0.39214026927948, 0.36852777004241943, 0.364963173866272, 0.3650943338871002, 0.3630527853965759, 0.3628450930118561, 0.36563175916671753, 0.3631400167942047, 0.34019529819488525, 0.332665354013443, 0.3346123695373535, 0.31456664204597473, 0.3190777897834778, 0.29798561334609985, 0.29754722118377686, 0.3160080909729004, 0.203062042593956, 0.19204960763454437, 0.1817738115787506, 0.20902147889137268, 0.190586656332016, 0.2017192840576172, 0.21827983856201172, 0.21412643790245056, 0.2087998390197754, 0.20170694589614868, 0.21502408385276794, 0.21109768748283386, 0.211260586977005, 0.20644167065620422, 0.2017422467470169] 
 , Step size: 
 [-0.2230851799249649, -0.21800391376018524, -0.22765569388866425, -0.2044641375541687, -0.21751198172569275, -0.22291891276836395, -0.22501061856746674, -0.2181617170572281, -0.23020336031913757, -0.21795909106731415, -0.21261298656463623, -0.2151189148426056, -0.22053572535514832, -0.22610968351364136, -0.2252151221036911, -0.2164050042629242, -0.22043564915657043, -0.2133270800113678, -0.19287587702274323, -0.22687821090221405, -0.20591261982917786, -0.21071335673332214, -0.21619004011154175, -0.21787627041339874, -0.21974250674247742, -0.22706086933612823, -0.22279080748558044, -0.21524812281131744, -0.21630747616291046, -0.22909341752529144, -0.21321424841880798, -0.21535593271255493, -0.19707025587558746, -0.20241932570934296, -0.19583739340305328, -0.220719113945961, -0.20534253120422363, -0.2062806785106659, -0.19635984301567078, -0.20208819210529327, -0.2039276659488678, -0.21687878668308258, -0.2152666300535202, -0.20167745649814606, -0.1979767084121704, -0.18294069170951843, -0.19110555946826935, -0.17866767942905426, -0.188390851020813, -0.17959073185920715, -0.18670430779457092, -0.184141144156456, -0.19192510843276978, -0.1751958131790161, -0.18936963379383087, -0.1804833561182022, -0.17388850450515747, -0.1975618153810501, -0.19410374760627747, -0.19732163846492767, -0.1624547839164734, -0.18231068551540375, -0.162922665476799, -0.17924411594867706, -0.17361129820346832, -0.15332715213298798, -0.16790221631526947, -0.17086002230644226, -0.17454102635383606, -0.16538545489311218, -0.1769353151321411, -0.15492355823516846, -0.17575021088123322, -0.18467113375663757, -0.16695299744606018, -0.16570071876049042, -0.17084111273288727, -0.17900951206684113, -0.1929067224264145, -0.18151584267616272, -0.1592053771018982, -0.16961590945720673, -0.1771380603313446, -0.17553307116031647, -0.16686896979808807, -0.15567547082901, -0.17579486966133118, -0.16023077070713043, -0.1730017513036728, -0.13948434591293335, -0.14701005816459656, -0.15881632268428802, -0.1462961584329605, -0.12917576730251312, -0.12780699133872986, -0.12126382440328598, -0.1087835505604744, -0.1274024397134781, -0.10622622072696686, -0.08876968175172806, -0.11689429730176926, -0.10160591453313828, -0.08277729898691177, -0.10113906860351562, -0.0859382152557373, -0.08770275115966797, -0.07047966867685318, -0.06970043480396271, -0.07187839597463608, -0.06239168718457222, -0.06668557226657867, -0.039900027215480804, -0.05557497218251228, -0.03219009190797806, -0.04442804306745529, -0.034612275660037994, -0.015692666172981262, -0.00912073440849781, -0.030360311269760132, -0.0048458511009812355, -0.00682681193575263, -0.005472521763294935, 0.002330151852220297, 0.0022994556929916143, 0.01162964291870594, 0.005819279700517654, 0.022715061902999878, 0.013817807659506798, 0.023437881842255592, 0.023459123447537422, 0.0395834781229496, 0.03444646671414375, 0.031025776639580727, 0.035665206611156464, 0.022602180019021034, 0.04378586634993553, 0.04800433665513992, 0.057768337428569794, 0.047540709376335144, 0.057205680757761, 0.06668496131896973, 0.05734968185424805, 0.047601595520973206, 0.06661102920770645, 0.06015227735042572, 0.06184824928641319, 0.04729579761624336, 0.044011034071445465, 0.057145923376083374, 0.037269461899995804, 0.03326839581131935, 0.05109128728508949, 0.0511823445558548, 0.03707994148135185, 0.03833609074354172, 0.047187577933073044, 0.04523123800754547, 0.054054293781518936, 0.03719087317585945, 0.059377849102020264, 0.04616110399365425, 0.05205254629254341, 0.02241947315633297, 0.046554084867239, 0.0331864170730114, 0.02720593474805355, 0.03609239682555199, 0.024853592738509178, 0.032337527722120285, 0.04288828745484352, 0.01700621284544468, 0.026313191279768944, 0.03736395761370659, 0.008884700015187263, 0.01548778172582388, 0.017769936472177505, 0.011686456389725208, 0.04375047981739044, -0.0009536315337754786, 0.0033470981288701296, 0.015237601473927498, 0.019949443638324738, 0.028118669986724854, 0.01216675341129303, 0.00665189977735281, 0.014633220620453358, 0.019701339304447174, 0.016047025099396706, 0.008059047162532806, 0.0013373751426115632, -0.015802767127752304, 0.0092267831787467, 0.019968386739492416, -0.006192909087985754, -0.00782740954309702, -0.00794657040387392, -0.004206181038171053, -0.00046077778097242117, -0.01315272320061922, -0.028305454179644585, -0.001200950937345624, -0.012509734369814396, -0.009501480497419834, -0.018912743777036667, -0.04474557563662529, -0.03351544961333275, -0.01575256697833538, -0.026569457724690437, -0.028267955407500267, -0.04369184002280235, -0.01840093359351158, -0.048723138868808746, -0.049332838505506516, -0.037980373948812485, -0.051542729139328, -0.03780440613627434, -0.05295199155807495, -0.06003008782863617, -0.047253645956516266, -0.050409749150276184, -0.06112780421972275, -0.057021163403987885, -0.038218848407268524, -0.056095778942108154, -0.04142676293849945, -0.05859602987766266, -0.0518525056540966, -0.07051371037960052, -0.04803942143917084, -0.07103163003921509, -0.07875706255435944, -0.06400009989738464, -0.07549107819795609, -0.06990967690944672, -0.07298155128955841, -0.0872708261013031, -0.07686420530080795, -0.06958163529634476, -0.08754100650548935, -0.08946914970874786, -0.08859474956989288, -0.08164676278829575, -0.0952310636639595, -0.0972612053155899, -0.09608565270900726, -0.09190824627876282, -0.11868847906589508, -0.10558412224054337, -0.09560046344995499, -0.10802329331636429, -0.0820745900273323, -0.11836297065019608, -0.09745794534683228, -0.09228476136922836, -0.11853766441345215, -0.129472017288208, -0.13903601467609406, -0.1484595090150833, -0.1435181051492691, -0.1652611494064331, -0.18472103774547577, -0.17755375802516937, -0.1894111931324005, -0.22455883026123047, -0.2294158935546875, -0.24133926630020142, -0.22309665381908417, -0.2558569610118866, -0.2657914161682129, -0.2606404721736908, -0.29690760374069214, -0.2931111752986908, -0.3110145330429077, -0.3347698748111725, -0.3267161548137665, -0.3416995704174042, -0.35761600732803345, -0.3504728078842163, -0.36659228801727295, -0.3604043424129486, -0.37028005719184875, -0.3662683367729187, -0.3720532953739166, -0.3599478602409363, -0.38055846095085144, -0.3903700113296509, -0.38224655389785767, -0.3921810984611511, -0.3772416114807129, -0.3755042850971222, -0.38529255986213684, -0.37971413135528564, -0.40406155586242676, -0.39336156845092773, -0.38470566272735596, -0.3765089213848114, -0.3708513081073761, -0.37102827429771423, -0.3626656234264374, -0.38316163420677185, -0.35309815406799316, -0.3677137792110443, -0.33160513639450073, -0.3470345735549927, -0.33649128675460815, -0.2369154542684555, -0.2220875322818756, -0.22959066927433014, -0.22299067676067352, -0.24482236802577972, -0.2576790153980255, -0.22119446098804474, -0.2277330905199051, -0.21911805868148804, -0.23495736718177795, -0.21852944791316986, -0.21935096383094788, -0.23238912224769592, -0.2267790287733078, -0.22967985272407532]