Epoch: 0-3, Loss: 523.206298828125, Lr: 0.001 , 
 ,Threshold: 
[0.005496998317539692, 0.00307713495567441, 0.015489951707422733, -0.014615006744861603, 0.0037967644166201353, -0.0006777014350518584, -0.009483518078923225, -0.005713292863219976, 0.0007666677702218294, 0.0008662885520607233, 0.009257749654352665, -0.005011315457522869, 0.003889759536832571, 0.002035470213741064, 0.006906220689415932, -0.0030690403655171394, -0.0014315906446427107, -0.0017482169205322862, -0.0011726338416337967, -0.00045460870023816824, -0.020903771743178368, -0.002408004831522703, 0.0009656947804614902, -0.004058284685015678, 0.00409367261454463, -0.00392124243080616, -0.004377853590995073, -0.008182451128959656, -0.0012157962191849947, 0.0054533109068870544, -0.012353325262665749, 0.004427248612046242, 0.01228971965610981, 0.0014360960340127349, 0.003047601319849491, -0.010687139816582203, -0.006741581484675407, 0.00918925367295742, 0.003830889007076621, 0.006408522836863995, 0.0005689910030923784, -0.009117771871387959, 0.011915029026567936, 0.001951316138729453, 0.003203636733815074, -0.0034412317909300327, -0.008637888357043266, 0.014056168496608734, -0.006504456512629986, -0.003271681722253561, -0.0015493527753278613, -0.004454560577869415, -0.00048622279427945614, 0.000699508236721158, -0.01890355907380581, -0.02844936214387417, 0.011876273900270462, -0.007596866227686405, -0.0317138135433197, -0.0006640588981099427, -0.0013512038858607411, -0.003142785746604204, -0.006167548708617687, -0.0010294131934642792, 0.005998436361551285, 0.01502027828246355, 0.009829257614910603, 0.0008512939675711095, -0.009733314625918865, 0.00651222700253129, -0.0009403879521414638, 0.014168118126690388, 0.008048869669437408, 0.00747431255877018, 0.009340750053524971, -0.010195476934313774, -0.0013428347883746028, -0.011112801730632782, -0.015448900870978832, -0.0177919864654541, 0.01066428143531084, -0.013994771055877209, -0.010949157178401947, -0.02915361151099205, 0.005495367106050253, -0.007859982550144196, -0.013224032707512379, -0.007869868539273739, -0.00797317549586296, 0.0075135137885808945, 0.01068776473402977, -0.006061721593141556, 0.0051347860135138035, 0.0035007037222385406, 0.0051374295726418495, 0.009914608672261238, -0.009688022546470165, -0.012531519867479801, -0.010638795793056488, -0.013846048153936863, -0.007126913871616125, 0.0070473505184054375, 0.003510435111820698, -0.008456704206764698, -0.01680775359272957, 0.01674790307879448, 0.011818516999483109, -0.006326221860945225, -0.017423570156097412, 0.009681418538093567, -0.019899997860193253, -0.013098292984068394, -0.016826199367642403, -0.021435143426060677, -0.0029874432366341352, 0.01644636131823063, -0.005196745507419109, 0.011527212336659431, -0.0066652437672019005, -0.01294670905917883, -0.005096020642668009, -0.0027751224115490913, -0.0016916717868298292, -0.012666338123381138, -0.009598886594176292, -0.005894097499549389, -0.005063881166279316, -0.0009705550037324429, 0.005427057389169931, -0.013677014037966728, 0.014804000034928322, 0.0003505130298435688, -0.003568905172869563, 0.0218023881316185, -0.007293935865163803, -0.010700867511332035, -0.00484768021851778, 0.008160808123648167, 0.011550470255315304, -0.0033513542730361223, -0.0005502283456735313, -0.004769681021571159, -0.0076573132537305355, -0.006807477213442326, -0.031238701194524765, -0.00438995286822319, -0.010778374038636684, -0.001002791803330183, -0.01831812784075737, 0.016784727573394775, -0.010291132144629955, 0.00431701447814703, -0.006744554731994867, -0.0059038265608251095, 0.005864541511982679, -0.00838605035096407, 0.02117508091032505, -0.006132613867521286, -0.016222303733229637, -0.0011747614480555058, -0.001176551217213273, -0.0024083300959318876, 0.003759416751563549, 0.011070194654166698, -0.0025468268431723118, 0.006912145297974348, -0.02295556850731373, 0.011202850379049778, -0.004959434270858765, -0.0030738268978893757, -0.006863151211291552, 0.0005976705579087138, -0.007604531478136778, -0.0022537067998200655, 0.00037271203473210335, -0.0015848302282392979, 0.002069774316623807, 0.0005954442312940955, -0.016235927119851112, -0.014224283397197723, -0.0007384500931948423, -0.008753752335906029, -0.015174983069300652, -0.01741999201476574, -0.009527466259896755, -0.0031691640615463257, -0.010714652016758919, 0.002428683452308178, 0.00677851727232337, 0.004648266825824976, 0.003729109652340412, -0.008690940216183662, 0.008489851839840412, -0.016059257090091705, 0.0014440445229411125, 0.0129350945353508, -0.0016986591508612037, -0.003529456676915288, -0.007022164762020111, -0.007590433582663536, 0.001975951250642538, -0.00011248933151364326, -0.002890115138143301, -0.012785033322870731, 0.005257923621684313, -0.010936545208096504, 0.0010274138767272234, 0.002149011939764023, -0.008111689239740372, 0.008769643492996693, 0.0024247984401881695, 0.0016177669167518616, -0.0019356244010850787, -0.01777276024222374, -0.0189251359552145, -0.009702109731733799, -0.010852924548089504, -0.02007586881518364, 0.008869620971381664, 0.00676141818985343, -0.00112605607137084, 0.002867054892703891, -0.005922452546656132, 0.0022573701571673155, 0.004361497238278389, -0.011341517791152, -0.0014676493592560291, -0.0007894843001849949, 0.0004863752983510494, 0.00378805142827332, -0.00960240326821804, 0.011770002543926239, 0.012432083487510681, -0.0037132473662495613, 0.0013628178276121616, -0.012471242807805538, 0.020908571779727936, 0.0199859831482172, -0.004741469398140907, 0.00537652475759387, 0.0033227792009711266, -0.009916167706251144, -0.0003292494802735746, -0.002243775175884366, -0.006192151457071304, -0.008756647817790508, -0.009760864078998566, -0.009782502427697182, -0.005288955755531788, -0.010398460552096367, 0.009789779782295227, 0.0019920198246836662, 0.011569877155125141, 0.005694465711712837, 0.005916158203035593, -0.005533901508897543, -0.007602118421345949, 0.003063279204070568, -0.007425746880471706, -0.012019172310829163, -0.0014814757741987705, -0.004435746464878321, -0.0011096833040937781, -0.01171191968023777, -0.010958738625049591, -0.012963471002876759, 0.003878052346408367, -0.000576745776925236, -0.005989513359963894, -0.0033863645512610674, -0.0141667565330863, -0.001616808818653226, -0.01189899817109108, -0.004123255144804716, -0.018171366304159164, -0.0015302421525120735, -0.006758827716112137, -0.009665794670581818, -0.0005194412660785019, -0.009709152393043041, -0.007671283558011055, -0.019037729129195213, 0.0016819469165056944, -0.009982896968722343, -0.007683894596993923, 0.007583206053823233, 0.0007734881364740431, 0.013196504674851894, -0.011328386142849922, 0.008514820598065853, -0.010791931301355362, -0.00885528139770031, -0.0029222494922578335, 0.000977950170636177, 0.006716796662658453, 0.015229672193527222, 0.018520338460803032, 0.001349510159343481, -0.00031428795773535967, 0.007424011826515198, -0.006537268403917551, 0.0037176923360675573, -0.008068230003118515, -0.0032645980827510357, 0.02004941552877426, -0.00215868535451591, -0.01065837498754263, -0.02125777117908001, 0.005684015806764364, -0.013733749277889729, -0.0029430340509861708, 0.014394029974937439, 0.01030714251101017, 0.006702776066958904, -0.0008275678846985102, 0.012697597965598106, 0.008713231422007084, 0.008587891235947609, 0.0037362324073910713, -0.0011412260355427861] 
 , Step size: 
 [-0.008588925004005432, -0.0022914758883416653, -0.01144206803292036, 0.011829381808638573, 0.00023675640113651752, -0.006738197058439255, -0.009744935669004917, -0.0022932507563382387, -0.014100626111030579, 0.0007073393207974732, 0.00554673234000802, 0.0007643591379746795, -0.007100439630448818, -0.013796781189739704, -0.012850983999669552, -0.004681483842432499, -0.00924848485738039, -0.0008760083583183587, 0.0198940671980381, -0.0146917924284935, 0.005362973548471928, -0.0014459439553320408, -0.007993549108505249, -0.009012176655232906, -0.009172581136226654, -0.013662378303706646, -0.00816691480576992, -0.002040041610598564, -0.0051360600627958775, -0.02085147611796856, -0.0073200613260269165, -0.011878203600645065, 0.00456935353577137, -0.0017765793018043041, 0.004776358138769865, -0.020014196634292603, -0.003810057882219553, -0.004454572685062885, 0.005105987656861544, 0.0006097740842960775, 0.0010827294318005443, -0.010023850947618484, -0.013453629799187183, -0.004774361848831177, -0.006393312476575375, 0.007037542760372162, -0.0023185948375612497, 0.008541356772184372, -0.0017595235258340836, 0.006279642228037119, -0.002913382835686207, -0.0023490400053560734, -0.011239170096814632, 0.005152687896043062, -0.009145677089691162, 9.847059845924377e-05, 0.006872271653264761, -0.017979562282562256, -0.0172291062772274, -0.026621252298355103, 0.004554376937448978, -0.014843650162220001, 0.004854917526245117, -0.011184163391590118, -0.0054166316986083984, 0.015020383521914482, 0.0011683593038469553, -0.000559296749997884, -0.0026943902485072613, 0.007562757935374975, -0.003455239348113537, 0.019273674115538597, -0.0004638902610167861, -0.008936363272368908, 0.008868330158293247, 0.01014294195920229, 0.004805905278772116, -0.0034808169584721327, -0.017635101452469826, -0.006504954304546118, 0.015404765494167805, 0.004273697268217802, -0.004391863010823727, -0.0049255588091909885, 0.00021696678595617414, 0.009833244606852531, -0.01229007262736559, 0.00020546920131891966, -0.014811146073043346, 0.015215844847261906, 0.0017230138182640076, -0.014302747324109077, -0.007986157201230526, 0.0020895805209875107, -0.007172861602157354, -0.003920459654182196, 0.008104680106043816, -0.014056342653930187, 0.0052366419695317745, 0.024448979645967484, -0.010986569337546825, 0.0007163792615756392, 0.016690386459231377, -0.005420431960374117, 0.0043898518197238445, -0.005616545677185059, 0.0050959400832653046, 0.003124851267784834, -0.002771895844489336, 0.0009143479401245713, -0.0059159970842301846, 0.025968637317419052, 0.0002033066120930016, 0.02007855288684368, -0.0013554147444665432, 0.0012743931729346514, 0.01342132780700922, 0.015494871884584427, -0.011820239014923573, 0.01157497800886631, 0.006993645802140236, 0.005769298877567053, 0.01115336176007986, 0.0070841554552316666, 0.01233309879899025, 0.002732601948082447, 0.014632822945713997, -0.0005786276306025684, 0.002639186102896929, -0.0025979741476476192, 0.006080360617488623, -0.006065070629119873, -0.01396892685443163, -0.010907787829637527, -0.023721931502223015, -0.0012396641541272402, 0.00471153762191534, 0.015543832443654537, 0.0029598765540868044, 0.010402951389551163, 0.018895616754889488, 0.008720611222088337, -0.001702374778687954, 0.01613405905663967, 0.01707475073635578, 0.013098419643938541, -0.0017294858116656542, -0.006684636231511831, 0.006642824970185757, -0.012001306749880314, -0.01590927317738533, 0.0015723278047516942, 0.002296506194397807, -0.010938186198472977, -0.009205134585499763, 0.0008365659159608185, 0.0006033134995959699, 0.011953435838222504, -0.00333804520778358, 0.019401060417294502, 0.006547135766595602, 0.013138520531356335, -0.014691834338009357, 0.01302342303097248, 0.002115777228027582, -0.0019918279722332954, 0.007272735703736544, -0.004137236159294844, 0.005172543227672577, 0.01748521625995636, -0.006178058218210936, 0.00370620796456933, 0.01595781370997429, -0.01096305437386036, -0.0018539944430813193, 0.0016340648289769888, -0.00300401309505105, 0.036219943314790726, -0.010735471732914448, -0.004224245902150869, 0.00948043167591095, 0.015475930646061897, 0.022870652377605438, 0.007593147456645966, 0.001467130146920681, 0.008906439878046513, 0.014251337386667728, 0.010913960635662079, 0.003976916894316673, -0.0017384565435349941, -0.01754460670053959, 0.009429672732949257, 0.022300535812973976, -0.001742504071444273, -0.0018345059361308813, -0.0010530659928917885, 0.004786709323525429, 0.010763781145215034, -6.67429412715137e-06, -0.013846331275999546, 0.014726342633366585, 0.004871337674558163, 0.009047389961779118, 0.001367989694699645, -0.022405419498682022, -0.008194010704755783, 0.013106545433402061, 0.006159387994557619, 0.006229083985090256, -0.006719579454511404, 0.020401401445269585, -0.008331477642059326, -0.007491328287869692, 0.006683705374598503, -0.006667725741863251, 0.00853468757122755, -0.0058196671307086945, -0.01101308036595583, 0.0032140298280864954, 0.0007457906613126397, -0.009446385316550732, -0.004913502838462591, 0.017350276932120323, -0.0019474575528874993, 0.014225184917449951, -0.0013864559587091208, 0.00695763947442174, -0.009800831787288189, 0.014829744584858418, -0.005793256685137749, -0.011378028430044651, 0.005537696182727814, -0.00393180176615715, 0.0037116585299372673, 0.003043060190975666, -0.008396260440349579, 0.005357738118618727, 0.017133332788944244, 0.0034432963002473116, 0.0035325372591614723, 0.0026284772902727127, 0.016736380755901337, -5.58607280254364e-06, -0.0004919671337120235, 0.0021794941276311874, 0.008344989269971848, -0.0163225419819355, -0.002464035991579294, 0.008091269060969353, -0.0039793262258172035, 0.022008728235960007, -0.014728054404258728, 0.004993281327188015, 0.014865010976791382, -0.005555807612836361, -0.009742913767695427, -0.012077786959707737, -0.013535693287849426, -8.780742064118385e-05, -0.013257508166134357, -0.0237773098051548, -0.007149471901357174, -0.009890599176287651, 0.00937169510871172, 0.01746818982064724, 0.0019258311949670315, 0.01825675554573536, -0.002671416848897934, -0.0004616674850694835, 0.016910512000322342, -0.007994159124791622, 0.006989491172134876, -0.0008235180284827948, -0.014803263358771801, 0.0026163600850850344, -0.004295908845961094, -0.012717001140117645, 0.0010711753275245428, -0.009612894617021084, 0.0014446622226387262, -0.004327839240431786, 0.003167255548760295, 0.00031900336034595966, 0.015007362700998783, -0.0034678257070481777, -0.011301890015602112, -0.0013942939694970846, -0.009955460205674171, 0.005767324939370155, 0.007629041559994221, -0.0028722044080495834, 0.0013517308980226517, -0.02499726042151451, -0.01689358800649643, -0.011226666159927845, -0.006136440206319094, -0.004012622404843569, -0.008020131848752499, -0.003753427881747484, -0.02851158380508423, -0.0032316367141902447, -0.022408390417695045, 0.005943615455180407, -0.013748002238571644, -0.007488942705094814, -0.003855566494166851, 0.0072167133912444115, -0.00036613986594602466, 0.006317912135273218, -0.014812341891229153, -0.027447987347841263, 0.008082118816673756, 0.0012821295531466603, 0.00790391769260168, -0.007547355722635984, 0.008685775101184845, 0.007905609905719757, -0.004793480969965458, 0.0009476717095822096, -0.0016603395342826843]