Epoch: 5-3, Loss: 4.578007221221924, Lr: 0.001 , 
 ,Threshold: 
[-0.21822002530097961, -0.219563290476799, -0.2069365382194519, -0.23697121441364288, -0.21806181967258453, -0.22300352156162262, -0.23197758197784424, -0.2279745489358902, -0.2214028388261795, -0.22078992426395416, -0.2125813215970993, -0.22723227739334106, -0.21868222951889038, -0.22063352167606354, -0.2156815230846405, -0.22572898864746094, -0.224140927195549, -0.22424465417861938, -0.22357533872127533, -0.22296471893787384, -0.24356187880039215, -0.22532667219638824, -0.2220253050327301, -0.22691336274147034, -0.21846160292625427, -0.22603905200958252, -0.22632211446762085, -0.23023241758346558, -0.2233944535255432, -0.21690669655799866, -0.2348175048828125, -0.21818427741527557, -0.21041986346244812, -0.2213069051504135, -0.21958845853805542, -0.23323433101177216, -0.22903938591480255, -0.21313431859016418, -0.21854060888290405, -0.21586233377456665, -0.22163839638233185, -0.23113638162612915, -0.20975938439369202, -0.219867542386055, -0.2189437747001648, -0.22570772469043732, -0.23100194334983826, -0.2084050327539444, -0.2290843427181244, -0.2259976863861084, -0.22447919845581055, -0.2275559902191162, -0.22374072670936584, -0.22265227138996124, -0.24238285422325134, -0.2520902156829834, -0.21199698746204376, -0.2317582368850708, -0.2562199831008911, -0.2256350964307785, -0.2265317291021347, -0.2282920926809311, -0.2312968373298645, -0.22613728046417236, -0.219086155295372, -0.21003127098083496, -0.21515397727489471, -0.22402483224868774, -0.2344672679901123, -0.21812765300273895, -0.22551730275154114, -0.21032743155956268, -0.2163430005311966, -0.2168511301279068, -0.2149396389722824, -0.23444612324237823, -0.22557169198989868, -0.23530785739421844, -0.23960787057876587, -0.24190501868724823, -0.21338753402233124, -0.23797880113124847, -0.23486021161079407, -0.25298407673835754, -0.2182193398475647, -0.2314816415309906, -0.23670895397663116, -0.23116327822208405, -0.2310715913772583, -0.21534569561481476, -0.21188299357891083, -0.22829654812812805, -0.21664494276046753, -0.21784259378910065, -0.2155742198228836, -0.2105921506881714, -0.2301478087902069, -0.23283658921718597, -0.23086778819561005, -0.2341122329235077, -0.22711215913295746, -0.2127457708120346, -0.21623718738555908, -0.22818969190120697, -0.23651912808418274, -0.20291036367416382, -0.20776651799678802, -0.22596508264541626, -0.23710255324840546, -0.20991858839988708, -0.23948141932487488, -0.23278066515922546, -0.23639227449893951, -0.24098803102970123, -0.22241325676441193, -0.20287300646305084, -0.22436100244522095, -0.20769883692264557, -0.22587604820728302, -0.23226940631866455, -0.22451825439929962, -0.2222854495048523, -0.2212977111339569, -0.2319559007883072, -0.22854101657867432, -0.22427435219287872, -0.22346989810466766, -0.21935643255710602, -0.21297816932201385, -0.2320256382226944, -0.20344625413417816, -0.21770289540290833, -0.22140511870384216, -0.19571353495121002, -0.22473125159740448, -0.2279464602470398, -0.2218032032251358, -0.20835833251476288, -0.20505012571811676, -0.22005948424339294, -0.21741849184036255, -0.22175109386444092, -0.2247396856546402, -0.22397783398628235, -0.25105270743370056, -0.2223641723394394, -0.22877894341945648, -0.2191145122051239, -0.23645107448101044, -0.20128244161605835, -0.22845447063446045, -0.21386238932609558, -0.22509723901748657, -0.22445300221443176, -0.2127864956855774, -0.22713099420070648, -0.1976616084575653, -0.22505468130111694, -0.23507794737815857, -0.22006632387638092, -0.22016336023807526, -0.22144462168216705, -0.21533945202827454, -0.20802588760852814, -0.2216067612171173, -0.21203173696994781, -0.24378472566604614, -0.20813539624214172, -0.2242729663848877, -0.22236944735050201, -0.22611987590789795, -0.21872307360172272, -0.22701457142829895, -0.2217569351196289, -0.219341441988945, -0.22156530618667603, -0.2181021273136139, -0.22193673253059387, -0.23741157352924347, -0.2358342409133911, -0.22295519709587097, -0.23171216249465942, -0.237528458237648, -0.24060097336769104, -0.23295730352401733, -0.22679270803928375, -0.23446518182754517, -0.2214905023574829, -0.2172829806804657, -0.21948140859603882, -0.22037990391254425, -0.23281998932361603, -0.21567107737064362, -0.2402419000864029, -0.2228381633758545, -0.21149922907352448, -0.22617708146572113, -0.22806623578071594, -0.23159849643707275, -0.2322424352169037, -0.22278568148612976, -0.22499839961528778, -0.22799649834632874, -0.23812711238861084, -0.22035478055477142, -0.23675423860549927, -0.2250225991010666, -0.22414009273052216, -0.23460187017917633, -0.21773116290569305, -0.2242199331521988, -0.22515785694122314, -0.22871702909469604, -0.24407552182674408, -0.24576938152313232, -0.23666200041770935, -0.23787738382816315, -0.24706050753593445, -0.21812927722930908, -0.22023966908454895, -0.2281568944454193, -0.22419634461402893, -0.2329966276884079, -0.22488954663276672, -0.22281114757061005, -0.23855707049369812, -0.22873905301094055, -0.22810903191566467, -0.22687523066997528, -0.22362831234931946, -0.23713096976280212, -0.2159082293510437, -0.21533121168613434, -0.231632262468338, -0.2267622947692871, -0.2408573031425476, -0.20781521499156952, -0.20906932651996613, -0.23422594368457794, -0.22463925182819366, -0.22734251618385315, -0.23945572972297668, -0.23056551814079285, -0.2322860211133957, -0.23602290451526642, -0.23832188546657562, -0.23901765048503876, -0.23882034420967102, -0.2340802103281021, -0.23891550302505493, -0.21839439868927002, -0.2258182317018509, -0.21577464044094086, -0.22046369314193726, -0.2187947928905487, -0.22853374481201172, -0.2286267727613449, -0.21562452614307404, -0.22331830859184265, -0.22465574741363525, -0.2102815955877304, -0.20854699611663818, -0.19973725080490112, -0.19937559962272644, -0.1917252540588379, -0.18703791499137878, -0.1613239049911499, -0.15486310422420502, -0.14830204844474792, -0.1324630081653595, -0.12971366941928864, -0.10299137979745865, -0.09898854792118073, -0.07726354151964188, -0.07684163749217987, -0.04536553472280502, -0.03519462049007416, -0.02083672024309635, 0.007776534650474787, 0.02198074571788311, 0.051687534898519516, 0.07502276450395584, 0.13946039974689484, 0.18392512202262878, 0.2501683235168457, 0.33053088188171387, 0.38136228919029236, 0.42629337310791016, 0.4105250835418701, 0.4283210039138794, 0.403049111366272, 0.3977423310279846, 0.3962942063808441, 0.392659455537796, 0.391069620847702, 0.3926179111003876, 0.38887113332748413, 0.36469733715057373, 0.35593870282173157, 0.35670095682144165, 0.3354845643043518, 0.33878251910209656, 0.31875109672546387, 0.3166927695274353, 0.33378392457962036, 0.20256377756595612, 0.19380085170269012, 0.18579566478729248, 0.21534526348114014, 0.1992362141609192, 0.21274550259113312, 0.23186764121055603, 0.23017309606075287, 0.2273939698934555, 0.22263014316558838, 0.2383948713541031, 0.2369168996810913, 0.2394721806049347, 0.23701971769332886, 0.2346964031457901] 
 , Step size: 
 [-0.22690413892269135, -0.22191564738750458, -0.23159806430339813, -0.20844723284244537, -0.22157041728496552, -0.22695855796337128, -0.22901257872581482, -0.22217954695224762, -0.23423698544502258, -0.22205209732055664, -0.21678227186203003, -0.21932952105998993, -0.22466778755187988, -0.2301434427499771, -0.22918465733528137, -0.22033677995204926, -0.22433683276176453, -0.217201828956604, -0.19674067199230194, -0.23075714707374573, -0.20980483293533325, -0.21462325751781464, -0.22012335062026978, -0.22184215486049652, -0.22377684712409973, -0.23118072748184204, -0.22698281705379486, -0.21952016651630402, -0.2206897884607315, -0.23357848823070526, -0.21775883436203003, -0.21993663907051086, -0.20162679255008698, -0.20691055059432983, -0.20022974908351898, -0.22502580285072327, -0.20956960320472717, -0.2104417234659195, -0.2004377394914627, -0.2061140537261963, -0.20787207782268524, -0.22078576683998108, -0.21910786628723145, -0.20541894435882568, -0.2016388326883316, -0.18656226992607117, -0.19470711052417755, -0.18224698305130005, -0.19189967215061188, -0.18304425477981567, -0.19009393453598022, -0.1874900460243225, -0.19518835842609406, -0.17841768264770508, -0.19256135821342468, -0.18362991511821747, -0.17696943879127502, -0.20057453215122223, -0.19705873727798462, -0.20019088685512543, -0.1652572751045227, -0.18507793545722961, -0.16565997898578644, -0.18194739520549774, -0.17628781497478485, -0.1559707075357437, -0.1705130934715271, -0.17343497276306152, -0.17711138725280762, -0.1679335981607437, -0.17946438491344452, -0.15744449198246002, -0.1782648116350174, -0.18717463314533234, -0.16944700479507446, -0.1681855171918869, -0.17331525683403015, -0.1814730018377304, -0.19535335898399353, -0.18393422663211823, -0.16163158416748047, -0.172054722905159, -0.17958125472068787, -0.17797333002090454, -0.1693018227815628, -0.15811415016651154, -0.17824923992156982, -0.16269738972187042, -0.17549166083335876, -0.14199413359165192, -0.1495279222726822, -0.1613435596227646, -0.14881445467472076, -0.1316749006509781, -0.1302368938922882, -0.12369903922080994, -0.11120055615901947, -0.12984320521354675, -0.10867678374052048, -0.09121691435575485, -0.11936695873737335, -0.10409589856863022, -0.08527959883213043, -0.10364799946546555, -0.08844204992055893, -0.09017618000507355, -0.07292332500219345, -0.07215145975351334, -0.07432270050048828, -0.0648035779595375, -0.06910157948732376, -0.04236483573913574, -0.05801405385136604, -0.03460424393415451, -0.04682064801454544, -0.03696567565202713, -0.017985885962843895, -0.011374383233487606, -0.032556865364313126, -0.007063891272991896, -0.009060925804078579, -0.007719417568296194, 0.00010067835683003068, 8.068208262557164e-05, 0.00944039598107338, 0.0037155800964683294, 0.02062620036303997, 0.011768576689064503, 0.021431773900985718, 0.021456945687532425, 0.03760906681418419, 0.03249319642782211, 0.02908630669116974, 0.03374921903014183, 0.020701676607131958, 0.041907861828804016, 0.046169355511665344, 0.056008633226156235, 0.04580558463931084, 0.05548376590013504, 0.06497170776128769, 0.0556575171649456, 0.04590834304690361, 0.06491977721452713, 0.05787133798003197, 0.06004016473889351, 0.045498497784137726, 0.042214784771203995, 0.055341169238090515, 0.03547147661447525, 0.03141658380627632, 0.04922688752412796, 0.049292225390672684, 0.03516864776611328, 0.036407507956027985, 0.04523869603872299, 0.04326202720403671, 0.052051179111003876, 0.03515961021184921, 0.05730258673429489, 0.04407969489693642, 0.049975909292697906, 0.020326513797044754, 0.044462915509939194, 0.031110957264900208, 0.025172879919409752, 0.033853448927402496, 0.022838303819298744, 0.03034965880215168, 0.04092345014214516, 0.015027530491352081, 0.02433806098997593, 0.03540335223078728, 0.006955401040613651, 0.013585224747657776, 0.01592276431620121, 0.009813230484724045, 0.04161699488759041, -0.0029214199166744947, 0.001357809640467167, 0.013292279094457626, 0.01808447763323784, 0.026273686438798904, 0.01044665090739727, 0.0050340150482952595, 0.01311053242534399, 0.01824776828289032, 0.014645721763372421, 0.006714960094541311, 6.653434684267268e-05, -0.01705939508974552, 0.007997018285095692, 0.018772348761558533, -0.00735302921384573, -0.008921779692173004, -0.008992335759103298, -0.005238637328147888, -0.001491068978793919, -0.014183130115270615, -0.029324280098080635, -0.0021726598497480154, -0.01344672404229641, -0.010398208163678646, -0.019778365269303322, -0.04557183384895325, -0.03430458903312683, -0.016505729407072067, -0.027272887527942657, -0.028961563482880592, -0.044387299567461014, -0.01908089406788349, -0.04938328638672829, -0.04996686428785324, -0.03860205411911011, -0.05210955813527107, -0.038317520171403885, -0.05339726805686951, -0.060424722731113434, -0.04758699610829353, -0.05067771300673485, -0.0613909587264061, -0.057283349335193634, -0.03847402334213257, -0.05634190887212753, -0.04166199266910553, -0.0588204562664032, -0.05206190422177315, -0.07070718705654144, -0.04826635867357254, -0.07129697501659393, -0.07906637340784073, -0.06436490267515182, -0.07594650238752365, -0.07048216462135315, -0.07368873059749603, -0.08813736587762833, -0.07791900634765625, -0.07089156657457352, -0.08915363997220993, -0.09142614901065826, -0.09094465523958206, -0.08459367603063583, -0.09869850426912308, -0.10143588483333588, -0.10109402984380722, -0.09787379950284958, -0.1256890445947647, -0.11390282213687897, -0.10543704032897949, -0.11954175680875778, -0.09554991126060486, -0.13386572897434235, -0.11519592255353928, -0.11288783699274063, -0.1422370970249176, -0.15649981796741486, -0.16942942142486572, -0.1821640282869339, -0.18045595288276672, -0.2049693763256073, -0.22682632505893707, -0.22180241346359253, -0.23530499637126923, -0.2733457386493683, -0.27892178297042847, -0.2909199893474579, -0.27270546555519104, -0.3055461645126343, -0.3154488801956177, -0.31015709042549133, -0.3461991250514984, -0.3421865701675415, -0.3598083555698395, -0.38323888182640076, -0.37479642033576965, -0.3893681764602661, -0.4049161672592163, -0.39737746119499207, -0.4130847752094269, -0.4065413177013397, -0.4160613715648651, -0.41165444254875183, -0.41702550649642944, -0.4044572412967682, -0.42458951473236084, -0.4339059293270111, -0.4251282513141632, -0.434174120426178, -0.41799482703208923, -0.41463109850883484, -0.42254015803337097, -0.41502857208251953, -0.43768933415412903, -0.4252842664718628, -0.41520434617996216, -0.40578871965408325, -0.3989209532737732, -0.39792710542678833, -0.38841718435287476, -0.4078221321105957, -0.37664875388145447, -0.3901544213294983, -0.35577985644340515, -0.3695787489414215, -0.35765862464904785, -0.24564285576343536, -0.23257289826869965, -0.24145223200321198, -0.23653773963451385, -0.2603956460952759, -0.27558577060699463, -0.2419034093618393, -0.25106868147850037, -0.24539196491241455, -0.2638228237628937, -0.2503145933151245, -0.2540280818939209, -0.26992538571357727, -0.26725339889526367, -0.27306827902793884]