Epoch: 3-3, Loss: 66.20008850097656, Lr: 0.001 , 
 ,Threshold: 
[-0.19694365561008453, -0.18204253911972046, -0.20422768592834473, -0.20312274992465973, -0.1829630732536316, -0.1764538586139679, -0.18786494433879852, -0.19827191531658173, -0.18206076323986053, -0.1988517940044403, -0.1795198917388916, -0.1785077601671219, -0.1936369240283966, -0.19653423130512238, -0.1962786465883255, -0.19026969373226166, -0.18081068992614746, -0.18395771086215973, -0.184160977602005, -0.1990058273077011, -0.1773175746202469, -0.1877797245979309, -0.18796901404857635, -0.19012635946273804, -0.17566831409931183, -0.20553457736968994, -0.19174842536449432, -0.1849825531244278, -0.19863666594028473, -0.17846274375915527, -0.19512858986854553, -0.1793220192193985, -0.18386487662792206, -0.17624932527542114, -0.20531128346920013, -0.16405585408210754, -0.1949802190065384, -0.18355537950992584, -0.1860983818769455, -0.18554098904132843, -0.1899438053369522, -0.18042704463005066, -0.2028423696756363, -0.19274656474590302, -0.17706452310085297, -0.1798592507839203, -0.18365463614463806, -0.18407663702964783, -0.1703919917345047, -0.21138671040534973, -0.18517407774925232, -0.20623847842216492, -0.18255916237831116, -0.169942244887352, -0.18267038464546204, -0.19837304949760437, -0.21081553399562836, -0.1994078904390335, -0.18524429202079773, -0.19721710681915283, -0.20955173671245575, -0.17586885392665863, -0.188566192984581, -0.1706668883562088, -0.1963159590959549, -0.18010929226875305, -0.21896356344223022, -0.17951184511184692, -0.19816483557224274, -0.18966872990131378, -0.18153363466262817, -0.21208517253398895, -0.19113853573799133, -0.19342659413814545, -0.17461319267749786, -0.17937509715557098, -0.19851790368556976, -0.18759125471115112, -0.19417805969715118, -0.17445218563079834, -0.18976010382175446, -0.16883288323879242, -0.18047359585762024, -0.1792670339345932, -0.18249107897281647, -0.20201894640922546, -0.19746564328670502, -0.1852407306432724, -0.20332522690296173, -0.18285083770751953, -0.19185680150985718, -0.19741939008235931, -0.18534716963768005, -0.1755548119544983, -0.18656879663467407, -0.2010861039161682, -0.1941148340702057, -0.19641102850437164, -0.1871897578239441, -0.19302920997142792, -0.18605564534664154, -0.17791131138801575, -0.19602160155773163, -0.18676848709583282, -0.1823253184556961, -0.18518099188804626, -0.1668710857629776, -0.18572600185871124, -0.177001953125, -0.1780671328306198, -0.17730258405208588, -0.1820732057094574, -0.18374472856521606, -0.21796715259552002, -0.17964893579483032, -0.179531529545784, -0.20065833628177643, -0.19577941298484802, -0.1733107715845108, -0.18995177745819092, -0.1882072240114212, -0.18557007610797882, -0.17774726450443268, -0.19507594406604767, -0.17650331556797028, -0.20463792979717255, -0.17565293610095978, -0.18143530189990997, -0.17346127331256866, -0.17986451089382172, -0.18299143016338348, -0.18495775759220123, -0.18781544268131256, -0.1920921504497528, -0.18351155519485474, -0.2007969170808792, -0.17857907712459564, -0.196530282497406, -0.17929919064044952, -0.18285083770751953, -0.19971443712711334, -0.19704407453536987, -0.18108397722244263, -0.19222931563854218, -0.19415777921676636, -0.19590803980827332, -0.19188444316387177, -0.1995880901813507, -0.1928226202726364, -0.19231346249580383, -0.19036653637886047, -0.18524228036403656, -0.182663232088089, -0.17628122866153717, -0.17980487644672394, -0.16831013560295105, -0.1831115037202835, -0.18868008255958557, -0.19738347828388214, -0.1843022108078003, -0.18475252389907837, -0.19172152876853943, -0.1900722086429596, -0.1733073741197586, -0.1981949359178543, -0.1953958421945572, -0.1935836225748062, -0.19858260452747345, -0.1877455860376358, -0.1872745305299759, -0.1982206255197525, -0.19349727034568787, -0.19897820055484772, -0.1926984190940857, -0.20286759734153748, -0.17539988458156586, -0.19468075037002563, -0.18475604057312012, -0.18863250315189362, -0.19270706176757812, -0.1942673772573471, -0.19191744923591614, -0.20631782710552216, -0.18920882046222687, -0.17419196665287018, -0.18747998774051666, -0.1970061957836151, -0.2196430116891861, -0.18705949187278748, -0.20854122936725616, -0.1935143917798996, -0.17941053211688995, -0.1962788850069046, -0.20346634089946747, -0.19416609406471252, -0.21744182705879211, -0.19097083806991577, -0.2013511210680008, -0.19535034894943237, -0.1969202607870102, -0.19633594155311584, -0.1867147833108902, -0.17841371893882751, -0.21195808053016663, -0.17735299468040466, -0.1813306361436844, -0.1894223988056183, -0.20951128005981445, -0.19734297692775726, -0.16967977583408356, -0.2023410052061081, -0.19346009194850922, -0.20765922963619232, -0.2038954496383667, -0.19035610556602478, -0.19680729508399963, -0.20338889956474304, -0.193796768784523, -0.1997433602809906, -0.19067732989788055, -0.19126196205615997, -0.18734072148799896, -0.20065325498580933, -0.1903568059206009, -0.17746655642986298, -0.2027924358844757, -0.1983952671289444, -0.19245125353336334, -0.20063799619674683, -0.20612525939941406, -0.2101825624704361, -0.2047244906425476, -0.18586702644824982, -0.19199210405349731, -0.18083877861499786, -0.19484677910804749, -0.18565508723258972, -0.18361754715442657, -0.1988695114850998, -0.21088650822639465, -0.18958210945129395, -0.19793517887592316, -0.20618383586406708, -0.1899861842393875, -0.18116728961467743, -0.18040840327739716, -0.20782971382141113, -0.18958254158496857, -0.1750810146331787, -0.19607481360435486, -0.19492070376873016, -0.1962261199951172, -0.1866736114025116, -0.19374585151672363, -0.20055538415908813, -0.1910439282655716, -0.19107256829738617, -0.18222491443157196, -0.18946820497512817, -0.19826455414295197, -0.20925264060497284, -0.1968431919813156, -0.1660754233598709, -0.18481586873531342, -0.16964344680309296, -0.19156907498836517, -0.1898438185453415, -0.19379247725009918, -0.1884785145521164, -0.1874116063117981, -0.17779672145843506, -0.1908027082681656, -0.15756407380104065, -0.18800395727157593, -0.1690446436405182, -0.17118073999881744, -0.16943961381912231, -0.17601846158504486, -0.16211695969104767, -0.1437109261751175, -0.1228138878941536, -0.09743141382932663, -0.06485600769519806, -0.023972323164343834, 0.04268106818199158, 0.08569253236055374, 0.1632731854915619, 0.21841110289096832, 0.22181059420108795, 0.2278992235660553, 0.23470406234264374, 0.22297045588493347, 0.2146361619234085, 0.22236785292625427, 0.20468343794345856, 0.21398130059242249, 0.2181086242198944, 0.21630042791366577, 0.18526636064052582, 0.20067216455936432, 0.21441641449928284, 0.20337820053100586, 0.20014813542366028, 0.1825455129146576, 0.19639284908771515, 0.20612908899784088, 0.18700440227985382, 0.2093658596277237, 0.17865301668643951, 0.18031369149684906, 0.19785761833190918, 0.20285004377365112, 0.18274810910224915, 0.1612384170293808, 0.18070778250694275, 0.16206535696983337, 0.15899166464805603, 0.17069531977176666, 0.17271073162555695, 0.17536887526512146] 
 , Step size: 
 [-0.1953650265932083, -0.1934526413679123, -0.2131132185459137, -0.19971753656864166, -0.2008385807275772, -0.19529595971107483, -0.1822880208492279, -0.18039417266845703, -0.1822415590286255, -0.2000589519739151, -0.18989980220794678, -0.17542065680027008, -0.18312428891658783, -0.1714763194322586, -0.19123035669326782, -0.18197448551654816, -0.17946256697177887, -0.19976387917995453, -0.18084809184074402, -0.18451805412769318, -0.17817606031894684, -0.1970498263835907, -0.1874029040336609, -0.1790992021560669, -0.18575158715248108, -0.19951722025871277, -0.1948857456445694, -0.18971289694309235, -0.19544212520122528, -0.17104972898960114, -0.17992864549160004, -0.16339850425720215, -0.15379658341407776, -0.17694996297359467, -0.1552211493253708, -0.17490509152412415, -0.1697009950876236, -0.16002978384494781, -0.15821610391139984, -0.17259569466114044, -0.16800840198993683, -0.17795614898204803, -0.16850706934928894, -0.1673278659582138, -0.165630042552948, -0.1682273894548416, -0.16432395577430725, -0.1578192561864853, -0.17022031545639038, -0.14793266355991364, -0.1500018835067749, -0.17545312643051147, -0.15621216595172882, -0.14493721723556519, -0.14350037276744843, -0.14090155065059662, -0.15166963636875153, -0.15329328179359436, -0.16774079203605652, -0.14585146307945251, -0.16793859004974365, -0.15476283431053162, -0.14071720838546753, -0.1511126160621643, -0.16659604012966156, -0.17189930379390717, -0.16655109822750092, -0.15578266978263855, -0.16141122579574585, -0.1812717169523239, -0.14614152908325195, -0.16468457877635956, -0.17656120657920837, -0.16906219720840454, -0.15189720690250397, -0.18416468799114227, -0.1588200479745865, -0.1724698692560196, -0.16418471932411194, -0.16054286062717438, -0.14391998946666718, -0.1736505925655365, -0.15747223794460297, -0.14651639759540558, -0.15931926667690277, -0.15072950720787048, -0.13503794372081757, -0.15777651965618134, -0.13630428910255432, -0.14959897100925446, -0.13092483580112457, -0.1401851922273636, -0.1284097135066986, -0.11175790429115295, -0.1316426545381546, -0.12146670371294022, -0.11822091788053513, -0.10710126906633377, -0.11080434918403625, -0.10502932965755463, -0.09614650160074234, -0.07005777955055237, -0.07349782437086105, -0.0696539431810379, -0.062055494636297226, -0.0559394396841526, -0.058747053146362305, -0.031947117298841476, -0.03973221778869629, -0.04292818903923035, -0.01992032118141651, -0.02152712270617485, -0.03958873078227043, -0.03081883117556572, -0.009632304310798645, -0.00849098153412342, 0.003079140791669488, 0.006000051274895668, 0.03395294025540352, 0.031545501202344894, 0.03200574964284897, 0.0275269728153944, 0.020309066399931908, 0.015791023150086403, 0.00942955631762743, 0.019712291657924652, 0.0404961071908474, 0.03269847854971886, 0.022490013390779495, 0.04389436915516853, 0.05925441160798073, 0.05011085048317909, 0.06305335462093353, 0.05153542384505272, 0.03955643251538277, 0.055630773305892944, 0.06778647005558014, 0.06671728938817978, 0.059311121702194214, 0.07649362087249756, 0.057946398854255676, 0.08138348907232285, 0.0713869109749794, 0.08452346920967102, 0.07508080452680588, 0.07774403691291809, 0.05506199598312378, 0.06504587084054947, 0.053980156779289246, 0.048256199806928635, 0.0650465190410614, 0.049349214881658554, 0.042850665748119354, 0.06725504994392395, 0.06331978738307953, 0.04307159408926964, 0.04678166285157204, 0.043984442949295044, 0.03217979520559311, 0.04803760349750519, 0.04191559925675392, 0.05355939269065857, 0.05407280847430229, 0.04462743550539017, 0.04676667973399162, 0.046901457011699677, 0.039105355739593506, 0.04682594910264015, 0.02751453034579754, 0.04085439816117287, 0.025412706658244133, 0.028821630403399467, 0.01548127830028534, 0.03762754425406456, 0.0455755852162838, 0.016826743260025978, 0.052092086523771286, 0.025307584553956985, 0.02541254088282585, 0.015287707559764385, 0.02444089576601982, 0.021673353388905525, 0.020101172849535942, 0.009130333550274372, 0.016631601378321648, 0.030855927616357803, 0.006026280112564564, 0.006541482172906399, 0.007378087844699621, -0.007653620559722185, 0.004462506156414747, -0.016715751960873604, -0.0224513728171587, -0.015542262233793736, 0.0015018442645668983, -0.04609277844429016, -0.018530618399381638, -0.029840588569641113, -0.0166914202272892, -0.044963687658309937, -0.041166454553604126, -0.015020221471786499, -0.0389583520591259, -0.05498264357447624, -0.0520135760307312, -0.023327145725488663, -0.04451018199324608, -0.05291393771767616, -0.060014594346284866, -0.04116230830550194, -0.05757879093289375, -0.06322231143712997, -0.04750542715191841, -0.05549883469939232, -0.06614609807729721, -0.0716351792216301, -0.05635860189795494, -0.05270460993051529, -0.04162253066897392, -0.030152345076203346, -0.050225693732500076, -0.07581233233213425, -0.08870505541563034, -0.06263364106416702, -0.05693928152322769, -0.07954913377761841, -0.061256278306245804, -0.0571688748896122, -0.06553510576486588, -0.059138037264347076, -0.06924837827682495, -0.06561671197414398, -0.08006858080625534, -0.0863741785287857, -0.09935688227415085, -0.07897388190031052, -0.08460753411054611, -0.08906976133584976, -0.08775319159030914, -0.08764093369245529, -0.08295051008462906, -0.11571823805570602, -0.08542366325855255, -0.0993051752448082, -0.08694253861904144, -0.0987124964594841, -0.1149795725941658, -0.10841988772153854, -0.10744442790746689, -0.09516521543264389, -0.11647272855043411, -0.1085326075553894, -0.10459098219871521, -0.09840919077396393, -0.10670667141675949, -0.0973636582493782, -0.11890092492103577, -0.12510451674461365, -0.11489257961511612, -0.1416756510734558, -0.13100562989711761, -0.13276727497577667, -0.14001083374023438, -0.15749961137771606, -0.1519915759563446, -0.16290020942687988, -0.16292265057563782, -0.17622613906860352, -0.18117506802082062, -0.19366160035133362, -0.17043256759643555, -0.20263125002384186, -0.19471007585525513, -0.19785600900650024, -0.1927441507577896, -0.1925479918718338, -0.2201036959886551, -0.20995213091373444, -0.21272626519203186, -0.22133885324001312, -0.2130381315946579, -0.21690495312213898, -0.2269035279750824, -0.2241230309009552, -0.21643458306789398, -0.23894090950489044, -0.20773616433143616, -0.23307645320892334, -0.2244880199432373, -0.23450404405593872, -0.22449183464050293, -0.2394302785396576, -0.2067536562681198, -0.24189525842666626, -0.23150427639484406, -0.22987306118011475, -0.24794109165668488, -0.23900346457958221, -0.23827199637889862, -0.21435865759849548, -0.2187095731496811, -0.2185819298028946, -0.2216896265745163, -0.2107694000005722, -0.19285321235656738, -0.20645658671855927, -0.19494500756263733, -0.2147902399301529, -0.2060849815607071, -0.2029469758272171, -0.20026062428951263, -0.21813072264194489, -0.1964786797761917, -0.17461934685707092, -0.18079093098640442, -0.18676841259002686, -0.19883885979652405, -0.18669851124286652, -0.1991717517375946, -0.18319927155971527]