Epoch: 4-3, Loss: 4.7598724365234375, Lr: 0.001 , 
 ,Threshold: 
[-0.23728641867637634, -0.22200997173786163, -0.24421824514865875, -0.2430773228406906, -0.2227085381746292, -0.21634982526302338, -0.2278190553188324, -0.23822364211082458, -0.22199159860610962, -0.23869046568870544, -0.21919453144073486, -0.21821533143520355, -0.2334815114736557, -0.23652227222919464, -0.2363474816083908, -0.23037105798721313, -0.22094957530498505, -0.22411255538463593, -0.22430700063705444, -0.23914146423339844, -0.2174256294965744, -0.22787807881832123, -0.22807765007019043, -0.2302009016275406, -0.21566638350486755, -0.24545611441135406, -0.23154625296592712, -0.224651500582695, -0.23823502659797668, -0.21803097426891327, -0.23470275104045868, -0.21892505884170532, -0.2235357016324997, -0.21600677073001862, -0.2451459914445877, -0.20396336913108826, -0.23494286835193634, -0.22356918454170227, -0.22615984082221985, -0.22562481462955475, -0.23004435002803802, -0.22054943442344666, -0.24296878278255463, -0.2328759878873825, -0.2171923965215683, -0.21999591588974, -0.22381073236465454, -0.22423817217350006, -0.2105693817138672, -0.25161534547805786, -0.22543904185295105, -0.24653896689414978, -0.2229079306125641, -0.2103143334388733, -0.22308428585529327, -0.23883593082427979, -0.2513519525527954, -0.24000179767608643, -0.22586590051651, -0.23786920309066772, -0.2502463161945343, -0.21659940481185913, -0.22932657599449158, -0.211442768573761, -0.23710644245147705, -0.2209327667951584, -0.2597922086715698, -0.22035028040409088, -0.2390090376138687, -0.23051781952381134, -0.2223818451166153, -0.252916544675827, -0.23194725811481476, -0.23421864211559296, -0.2153502106666565, -0.22007153928279877, -0.2391630858182907, -0.22821259498596191, -0.23477114737033844, -0.21501533687114716, -0.23030227422714233, -0.2093493789434433, -0.2209605574607849, -0.2197156846523285, -0.22289638221263885, -0.24239571392536163, -0.23780548572540283, -0.22553299367427826, -0.24358084797859192, -0.22306010127067566, -0.23202764987945557, -0.23755565285682678, -0.2254420518875122, -0.21559956669807434, -0.22655433416366577, -0.24102430045604706, -0.23400233685970306, -0.23624129593372345, -0.22694842517375946, -0.23273016512393951, -0.22568242251873016, -0.21743538975715637, -0.23549394309520721, -0.22617681324481964, -0.22165802121162415, -0.22443540394306183, -0.2060249000787735, -0.22483108937740326, -0.21599213778972626, -0.21698762476444244, -0.21614763140678406, -0.22084394097328186, -0.222438246011734, -0.25680047273635864, -0.2182341068983078, -0.21804368495941162, -0.23915071785449982, -0.23416101932525635, -0.2115877866744995, -0.2282194048166275, -0.22646017372608185, -0.22382153570652008, -0.21599766612052917, -0.23329608142375946, -0.21468007564544678, -0.24274931848049164, -0.21366344392299652, -0.21940456330776215, -0.21142643690109253, -0.21784432232379913, -0.22093133628368378, -0.22283777594566345, -0.22560209035873413, -0.22981317341327667, -0.22115078568458557, -0.23842528462409973, -0.2161989063024521, -0.23415037989616394, -0.21691158413887024, -0.22043326497077942, -0.23727615177631378, -0.234577938914299, -0.21859149634838104, -0.22976338863372803, -0.23176932334899902, -0.2335609793663025, -0.22955214977264404, -0.2373288869857788, -0.23066523671150208, -0.23030422627925873, -0.22839394211769104, -0.22333358228206635, -0.22081486880779266, -0.21446986496448517, -0.21802380681037903, -0.20661382377147675, -0.22146093845367432, -0.22708670794963837, -0.23585808277130127, -0.22282809019088745, -0.2233787477016449, -0.23042930662631989, -0.22884869575500488, -0.212151899933815, -0.23707589507102966, -0.23433040082454681, -0.23257003724575043, -0.23758693039417267, -0.22674822807312012, -0.2263137847185135, -0.23728327453136444, -0.23259711265563965, -0.23809047043323517, -0.23180805146694183, -0.24215368926525116, -0.2146373689174652, -0.2340913712978363, -0.22413843870162964, -0.22805474698543549, -0.23229168355464935, -0.23405836522579193, -0.23177854716777802, -0.24624799191951752, -0.22920261323451996, -0.21420860290527344, -0.22755646705627441, -0.23712444305419922, -0.2600698173046112, -0.22743919491767883, -0.24904286861419678, -0.23413769900798798, -0.22018565237522125, -0.23712222278118134, -0.24436147511005402, -0.23509664833545685, -0.25837594270706177, -0.23193566501140594, -0.24234139919281006, -0.23643149435520172, -0.238082155585289, -0.23758825659751892, -0.22803664207458496, -0.21986056864261627, -0.2535549998283386, -0.21919672191143036, -0.22326862812042236, -0.2314722239971161, -0.2517033517360687, -0.23971085250377655, -0.21223776042461395, -0.24492906033992767, -0.23606038093566895, -0.2500632405281067, -0.24644771218299866, -0.23291507363319397, -0.2393048256635666, -0.24587155878543854, -0.23626402020454407, -0.24222518503665924, -0.2330789417028427, -0.23371705412864685, -0.22981540858745575, -0.2431454062461853, -0.2328830361366272, -0.22000649571418762, -0.2453540861606598, -0.24097752571105957, -0.2350589781999588, -0.24326840043067932, -0.2487741857767105, -0.25290295481681824, -0.24753673374652863, -0.22879664599895477, -0.23502463102340698, -0.22398892045021057, -0.23801231384277344, -0.22884181141853333, -0.2268085479736328, -0.24207821488380432, -0.2538709342479706, -0.2327612042427063, -0.24110490083694458, -0.2492506206035614, -0.2330874651670456, -0.2242356240749359, -0.22337284684181213, -0.25065454840660095, -0.23223719000816345, -0.2175021469593048, -0.23818348348140717, -0.2367279976606369, -0.23763488233089447, -0.22759774327278137, -0.23411493003368378, -0.24027055501937866, -0.22993148863315582, -0.22905467450618744, -0.2191079705953598, -0.22502940893173218, -0.23228588700294495, -0.24138222634792328, -0.22679206728935242, -0.1934397667646408, -0.20918014645576477, -0.19041098654270172, -0.20819620788097382, -0.20176208019256592, -0.2003202736377716, -0.18880979716777802, -0.18075580894947052, -0.16293060779571533, -0.1671103686094284, -0.12398097664117813, -0.14374281466007233, -0.11301916837692261, -0.10270437598228455, -0.08819705247879028, -0.08137807995080948, -0.05276412144303322, -0.019339922815561295, 0.01748562976717949, 0.05830623582005501, 0.10413439571857452, 0.15387240052223206, 0.22360846400260925, 0.26529166102409363, 0.33933496475219727, 0.39024022221565247, 0.3892810642719269, 0.39104852080345154, 0.39353689551353455, 0.37763574719429016, 0.36505141854286194, 0.36854568123817444, 0.3466678261756897, 0.35172584652900696, 0.35158443450927734, 0.3454422652721405, 0.31002548336982727, 0.3208693563938141, 0.33010363578796387, 0.31448981165885925, 0.306861013174057, 0.23140999674797058, 0.24517452716827393, 0.2561240792274475, 0.23615847527980804, 0.25969797372817993, 0.2269953042268753, 0.22892643511295319, 0.24673490226268768, 0.25168001651763916, 0.21633055806159973, 0.18676462769508362, 0.20872057974338531, 0.1926824003458023, 0.19184859097003937, 0.2054995596408844, 0.2091713696718216, 0.2130882441997528] 
 , Step size: 
 [-0.23461690545082092, -0.2333505004644394, -0.25307559967041016, -0.23981313407421112, -0.2416633516550064, -0.23578380048274994, -0.22248777747154236, -0.2206040620803833, -0.22258490324020386, -0.2408982664346695, -0.23173923790454865, -0.21733175218105316, -0.22432568669319153, -0.2117367386817932, -0.23088835179805756, -0.22133542597293854, -0.2185247540473938, -0.23868104815483093, -0.21981434524059296, -0.22355076670646667, -0.21740485727787018, -0.2363591194152832, -0.22663290798664093, -0.2186182141304016, -0.2259032279253006, -0.24038511514663696, -0.23690848052501678, -0.23314562439918518, -0.23978722095489502, -0.21585135161876678, -0.2247837334871292, -0.20800088346004486, -0.197655588388443, -0.21966123580932617, -0.19690342247486115, -0.21563424170017242, -0.20970192551612854, -0.19937650859355927, -0.1968497335910797, -0.21076209843158722, -0.20589324831962585, -0.21556435525417328, -0.20605486631393433, -0.2046501636505127, -0.20280618965625763, -0.20527370274066925, -0.20112118124961853, -0.19445312023162842, -0.20646774768829346, -0.1836119294166565, -0.18502536416053772, -0.20977447926998138, -0.18967686593532562, -0.17787447571754456, -0.17588743567466736, -0.17261119186878204, -0.18232262134552002, -0.18314501643180847, -0.197275772690773, -0.1750965416431427, -0.19674009084701538, -0.18313145637512207, -0.16881878674030304, -0.1790921837091446, -0.19443203508853912, -0.19929562509059906, -0.19392327964305878, -0.18308693170547485, -0.18870091438293457, -0.20851781964302063, -0.1734103411436081, -0.1921956092119217, -0.20434077084064484, -0.19704875349998474, -0.18061162531375885, -0.21339422464370728, -0.1887229084968567, -0.20261096954345703, -0.19463828206062317, -0.19129887223243713, -0.17484629154205322, -0.20475895702838898, -0.1888105869293213, -0.17808671295642853, -0.1910276561975479, -0.182671919465065, -0.16723598539829254, -0.19017475843429565, -0.16907376050949097, -0.18277941644191742, -0.16440291702747345, -0.17394942045211792, -0.1624564379453659, -0.14601336419582367, -0.16608667373657227, -0.15601950883865356, -0.1529025137424469, -0.14208844304084778, -0.14587996900081635, -0.1403079777956009, -0.13129772245883942, -0.10445333272218704, -0.10783698409795761, -0.10420887172222137, -0.09664490073919296, -0.09033919125795364, -0.09256905317306519, -0.06567095965147018, -0.07295732200145721, -0.07570291310548782, -0.05225922912359238, -0.05335846170783043, -0.07069803029298782, -0.06183837354183197, -0.03963861241936684, -0.038072388619184494, -0.026253778487443924, -0.02252993918955326, 0.00649645458906889, 0.00391848711296916, 0.004242566879838705, -0.00034532565041445196, -0.0077144247479736805, -0.012498774565756321, -0.018985528498888016, -0.00870686024427414, 0.012564519420266151, 0.00476317061111331, -0.005495619028806686, 0.015836896374821663, 0.030719660222530365, 0.021149298176169395, 0.03391113132238388, 0.02230226993560791, 0.010401164181530476, 0.026438497006893158, 0.0386827290058136, 0.03740209341049194, 0.030029121786355972, 0.047625597566366196, 0.02949538081884384, 0.05369309335947037, 0.045162465423345566, 0.06005040928721428, 0.05206883326172829, 0.056114550679922104, 0.03523264080286026, 0.045866817235946655, 0.03574073687195778, 0.03196441009640694, 0.049233973026275635, 0.034202009439468384, 0.028447933495044708, 0.05372670665383339, 0.05074291303753853, 0.031219888478517532, 0.035224415361881256, 0.03277988359332085, 0.02126176469027996, 0.03714732453227043, 0.031360138207674026, 0.043282654136419296, 0.04411660507321358, 0.03482578322291374, 0.03704046085476875, 0.037446923553943634, 0.03006308153271675, 0.0379977785050869, 0.018781406804919243, 0.03244775906205177, 0.016983915120363235, 0.02049526944756508, 0.007315089460462332, 0.029723957180976868, 0.037702687084674835, 0.009660693816840649, 0.04519950971007347, 0.01913694106042385, 0.019881272688508034, 0.011288580484688282, 0.02231382578611374, 0.02015789784491062, 0.01923419162631035, 0.008990392088890076, 0.01641511172056198, 0.0307414960116148, 0.0059988596476614475, 0.007152814418077469, 0.008528931997716427, -0.005963942967355251, 0.006934284698218107, -0.013150421902537346, -0.018502989783883095, -0.011064409278333187, 0.006021916400641203, -0.04180687293410301, -0.014585059136152267, -0.026474768295884132, -0.01322872843593359, -0.04117727652192116, -0.03693558648228645, -0.01062087994068861, -0.03382809832692146, -0.04890495538711548, -0.04430218040943146, -0.015030965209007263, -0.035750217735767365, -0.04353879764676094, -0.04989292845129967, -0.030213650315999985, -0.04667504131793976, -0.05250317230820656, -0.03650250285863876, -0.04530498757958412, -0.05607954412698746, -0.06222308427095413, -0.04713542386889458, -0.043591368943452835, -0.03267478942871094, -0.021150236949324608, -0.04160814732313156, -0.06723778694868088, -0.08021556586027145, -0.054031986743211746, -0.04840286821126938, -0.07103841751813889, -0.052770767360925674, -0.04872138053178787, -0.05722024664282799, -0.05101877823472023, -0.06098189204931259, -0.05715833231806755, -0.07135534286499023, -0.07748542726039886, -0.09035231173038483, -0.0701914131641388, -0.07607215642929077, -0.08092068135738373, -0.07994024455547333, -0.0794132798910141, -0.07544607669115067, -0.10857266932725906, -0.0787312313914299, -0.09316661208868027, -0.08140690624713898, -0.09451750665903091, -0.11254046112298965, -0.10802382975816727, -0.10942776501178741, -0.10007475316524506, -0.12438444793224335, -0.12022753059864044, -0.12064347416162491, -0.11914455145597458, -0.13268817961215973, -0.12998151779174805, -0.15774382650852203, -0.1714080274105072, -0.1694517433643341, -0.20454087853431702, -0.20316728949546814, -0.21341778337955475, -0.2291557490825653, -0.2547660171985626, -0.2572561800479889, -0.27554911375045776, -0.28198859095573425, -0.3008802831172943, -0.310611754655838, -0.32829299569129944, -0.3099075257778168, -0.34603044390678406, -0.3415220081806183, -0.34867751598358154, -0.345210462808609, -0.34690943360328674, -0.3758465051651001, -0.36723896861076355, -0.37023651599884033, -0.3792676329612732, -0.37158358097076416, -0.3758808970451355, -0.3863491415977478, -0.38408035039901733, -0.376848965883255, -0.39968588948249817, -0.3686812222003937, -0.39386484026908875, -0.384793758392334, -0.3939127027988434, -0.3825884461402893, -0.39590901136398315, -0.36123552918434143, -0.39418551325798035, -0.3813110589981079, -0.3770124614238739, -0.39214271306991577, -0.38002488017082214, -0.3759768605232239, -0.34856006503105164, -0.34933578968048096, -0.3453652858734131, -0.3447195589542389, -0.2727099359035492, -0.25455838441848755, -0.26917722821235657, -0.2567138969898224, -0.27761033177375793, -0.2668088972568512, -0.2638629674911499, -0.26137641072273254, -0.27912643551826477, -0.23993632197380066, -0.20930159091949463, -0.21767789125442505, -0.22631224989891052, -0.2407269924879074, -0.2307596057653427, -0.24508698284626007, -0.23060919344425201]