Epoch: 2-3, Loss: 76.7845230102539, Lr: 0.001 , 
 ,Threshold: 
[-0.13997690379619598, -0.1253587156534195, -0.1474737823009491, -0.14645379781723022, -0.1265265792608261, -0.11978404968976974, -0.13112659752368927, -0.14153411984443665, -0.12536950409412384, -0.14224857091903687, -0.12305615097284317, -0.12187324464321136, -0.1368449181318283, -0.139667347073555, -0.13940350711345673, -0.13339844346046448, -0.12393386662006378, -0.1270759552717209, -0.12729620933532715, -0.14215081930160522, -0.12046872824430466, -0.13086311519145966, -0.1310507208108902, -0.1332380175590515, -0.11885962635278702, -0.14883194863796234, -0.13521401584148407, -0.1285364180803299, -0.14217235147953033, -0.12191377580165863, -0.13848447799682617, -0.12258632481098175, -0.12705963850021362, -0.11939737945795059, -0.14838925004005432, -0.10707390308380127, -0.1380186527967453, -0.1265985369682312, -0.12913347780704498, -0.12858520448207855, -0.13302142918109894, -0.12353556603193283, -0.14593082666397095, -0.13586783409118652, -0.1201709508895874, -0.12293888628482819, -0.12669779360294342, -0.12707765400409698, -0.11334732919931412, -0.15428730845451355, -0.12796856462955475, -0.14890974760055542, -0.12514376640319824, -0.11249466985464096, -0.12521886825561523, -0.14093884825706482, -0.15339800715446472, -0.14198002219200134, -0.12778984010219574, -0.1397271305322647, -0.15201643109321594, -0.1182907298207283, -0.13099049031734467, -0.1130756214261055, -0.1387067586183548, -0.12248469889163971, -0.16136501729488373, -0.12194686383008957, -0.14064639806747437, -0.13217946887016296, -0.12409773468971252, -0.1547064632177353, -0.1338266283273697, -0.13619866967201233, -0.11742629110813141, -0.12221325933933258, -0.14138008654117584, -0.13047394156455994, -0.13708844780921936, -0.11739548295736313, -0.13273033499717712, -0.11184238642454147, -0.1235160380601883, -0.12235286086797714, -0.12563326954841614, -0.1451919674873352, -0.14068862795829773, -0.1285342276096344, -0.14666247367858887, -0.12624746561050415, -0.13531279563903809, -0.14092768728733063, -0.128914937376976, -0.11920229345560074, -0.13031260669231415, -0.14490942656993866, -0.13802070915699005, -0.14040111005306244, -0.1312938779592514, -0.13722357153892517, -0.13037247955799103, -0.12240319699048996, -0.1405927538871765, -0.13143271207809448, -0.12710309028625488, -0.13006839156150818, -0.11190112680196762, -0.1308029294013977, -0.1222263053059578, -0.12335064262151718, -0.12264502793550491, -0.12744514644145966, -0.12913504242897034, -0.16330544650554657, -0.125189870595932, -0.12515319883823395, -0.1464167684316635, -0.14152966439723969, -0.11914681643247604, -0.13568828999996185, -0.13380765914916992, -0.1310667097568512, -0.12314043939113617, -0.14039303362369537, -0.12173411250114441, -0.149791419506073, -0.12071365863084793, -0.12644188106060028, -0.11838740855455399, -0.12466102093458176, -0.12772086262702942, -0.1296129673719406, -0.1323920637369156, -0.13645504415035248, -0.1277838796377182, -0.14499974250793457, -0.12271198630332947, -0.14058609306812286, -0.12326821684837341, -0.12681423127651215, -0.14365249872207642, -0.14096930623054504, -0.12498002499341965, -0.1361067295074463, -0.1379249542951584, -0.1395316869020462, -0.1354040950536728, -0.14283864200115204, -0.1358492374420166, -0.1352122575044632, -0.13310427963733673, -0.12785884737968445, -0.12521736323833466, -0.11888642609119415, -0.1224474087357521, -0.1108681857585907, -0.1256619691848755, -0.13120296597480774, -0.13985700905323029, -0.126711905002594, -0.12706643342971802, -0.133972629904747, -0.13219843804836273, -0.11530672758817673, -0.1401744931936264, -0.1373256891965866, -0.1354081630706787, -0.14038249850273132, -0.12956051528453827, -0.12908825278282166, -0.1400139182806015, -0.13526692986488342, -0.14078955352306366, -0.13452674448490143, -0.1444743424654007, -0.11705407500267029, -0.13610444962978363, -0.12617415189743042, -0.12990501523017883, -0.1339040845632553, -0.13540494441986084, -0.13300909101963043, -0.14736054837703705, -0.13011589646339417, -0.11501382291316986, -0.12834401428699493, -0.13786354660987854, -0.16045072674751282, -0.12787634134292603, -0.1493149697780609, -0.13430054485797882, -0.12018483877182007, -0.13699504733085632, -0.1440693736076355, -0.134700208902359, -0.15790633857250214, -0.13141658902168274, -0.14177870750427246, -0.13576874136924744, -0.13737915456295013, -0.13683463633060455, -0.12725137174129486, -0.11892317235469818, -0.1524151712656021, -0.11774937808513641, -0.12166277319192886, -0.12968246638774872, -0.14966291189193726, -0.1373755782842636, -0.10959796607494354, -0.14224278926849365, -0.13334621489048004, -0.14801473915576935, -0.14381445944309235, -0.13025006651878357, -0.13666850328445435, -0.1432160586118698, -0.13358332216739655, -0.1396195888519287, -0.1306411325931549, -0.13113796710968018, -0.12723147869110107, -0.140573650598526, -0.1303054839372635, -0.11744607239961624, -0.14281108975410461, -0.13842737674713135, -0.13249756395816803, -0.14070111513137817, -0.14620713889598846, -0.1502600461244583, -0.1448078602552414, -0.12595930695533752, -0.13212716579437256, -0.12103696167469025, -0.1350170522928238, -0.12579073011875153, -0.12373322993516922, -0.13895916938781738, -0.15144111216068268, -0.12978415191173553, -0.13815999031066895, -0.14661630988121033, -0.13031674921512604, -0.12150681018829346, -0.12076728045940399, -0.14822472631931305, -0.13002538681030273, -0.11564899235963821, -0.13681785762310028, -0.1356210857629776, -0.13700653612613678, -0.12755842506885529, -0.13466137647628784, -0.1414976567029953, -0.13208669424057007, -0.13211587071418762, -0.12332668900489807, -0.13065622746944427, -0.1395554095506668, -0.150740385055542, -0.13847406208515167, -0.10792521387338638, -0.12685616314411163, -0.11197332292795181, -0.1341887265443802, -0.13280631601810455, -0.13715778291225433, -0.13233615458011627, -0.13198262453079224, -0.12319625169038773, -0.13717404007911682, -0.10515086352825165, -0.1373593807220459, -0.11998937278985977, -0.12449700385332108, -0.12574318051338196, -0.13669779896736145, -0.12804089486598969, -0.11730826646089554, -0.10725687444210052, -0.09766518324613571, -0.08749338239431381, -0.07519938051700592, -0.03648494929075241, -0.009545487351715565, 0.06379702687263489, 0.12067167460918427, 0.127299964427948, 0.13667736947536469, 0.14643119275569916, 0.1372358649969101, 0.13089099526405334, 0.140840545296669, 0.12497218698263168, 0.13595308363437653, 0.14163975417613983, 0.14128170907497406, 0.11161255091428757, 0.12835611402988434, 0.1433333158493042, 0.13349466025829315, 0.13141778111457825, 0.11593186855316162, 0.13103175163269043, 0.14142060279846191, 0.12363004684448242, 0.14649808406829834, 0.11714702099561691, 0.11962396651506424, 0.13795676827430725, 0.1438465118408203, 0.12639692425727844, 0.11156146973371506, 0.1299617886543274, 0.11103281378746033, 0.10792418569326401, 0.11996664106845856, 0.12244374305009842, 0.12575507164001465] 
 , Step size: 
 [-0.1388271003961563, -0.1363765150308609, -0.15603235363960266, -0.14236991107463837, -0.14260227978229523, -0.137691468000412, -0.12496630847454071, -0.12306571751832962, -0.12466879934072495, -0.1419818252325058, -0.13084696233272552, -0.11711820960044861, -0.12583240866661072, -0.1147429421544075, -0.13464029133319855, -0.12541308999061584, -0.12294057011604309, -0.14327417314052582, -0.12423167377710342, -0.12780117988586426, -0.121394582092762, -0.14081628620624542, -0.13119646906852722, -0.12263825535774231, -0.1286390870809555, -0.14137592911720276, -0.1350673884153366, -0.12874920666217804, -0.13456352055072784, -0.11122991889715195, -0.12134522944688797, -0.10611739009618759, -0.09750470519065857, -0.12150289863348007, -0.10073836147785187, -0.1212870180606842, -0.11578191816806793, -0.10598985850811005, -0.10439486056566238, -0.11893454194068909, -0.11396864056587219, -0.12338721752166748, -0.1142222061753273, -0.1129126250743866, -0.11170051991939545, -0.1146819218993187, -0.11124670505523682, -0.10552144795656204, -0.11890827864408493, -0.09701619297266006, -0.10080430656671524, -0.12821757793426514, -0.11037924885749817, -0.09967628121376038, -0.09815146774053574, -0.09514108300209045, -0.10547060519456863, -0.10706845670938492, -0.12175527215003967, -0.10012564063072205, -0.12263262271881104, -0.1100008487701416, -0.09572099149227142, -0.10615701228380203, -0.12179917842149734, -0.12732286751270294, -0.12153118848800659, -0.11019881069660187, -0.11507908999919891, -0.1345468908548355, -0.09865552186965942, -0.11645067483186722, -0.12756875157356262, -0.11895701289176941, -0.10128036886453629, -0.13329274952411652, -0.10771973431110382, -0.12122418731451035, -0.11266201734542847, -0.108713299036026, -0.09188085049390793, -0.1213223785161972, -0.10497395694255829, -0.09393961727619171, -0.10680457204580307, -0.09805748611688614, -0.08210420608520508, -0.1046958714723587, -0.08281100541353226, -0.09563558548688889, -0.0764840841293335, -0.08528430014848709, -0.07313193380832672, -0.05616801604628563, -0.07582064718008041, -0.06550315767526627, -0.06213924661278725, -0.050686970353126526, -0.05446438491344452, -0.04846988990902901, -0.04007215052843094, -0.015837909653782845, -0.019613103941082954, -0.01566699706017971, -0.008362549357116222, -0.003164323978126049, -0.007807209622114897, 0.01811566762626171, 0.008429758250713348, 0.0033599031157791615, 0.024407019838690758, 0.020428834483027458, -0.0004519584181252867, 0.010639764368534088, 0.02709793485701084, 0.026924587786197662, 0.03928975760936737, 0.03854627162218094, 0.06387089192867279, 0.06040394306182861, 0.059326447546482086, 0.053699806332588196, 0.04541792348027229, 0.03965926915407181, 0.03153182566165924, 0.03943761810660362, 0.05670996382832527, 0.04745343700051308, 0.03635774925351143, 0.056778836995363235, 0.07095164060592651, 0.06020066887140274, 0.07082553952932358, 0.05576913803815842, 0.04112853482365608, 0.055886127054691315, 0.06678365916013718, 0.06472005695104599, 0.056115370243787766, 0.07221166789531708, 0.052348341792821884, 0.07434123754501343, 0.06295812875032425, 0.07530426979064941, 0.06443976610898972, 0.06551752984523773, 0.04179026186466217, 0.04992435500025749, 0.038153667002916336, 0.03170076385140419, 0.04745430499315262, 0.03148555010557175, 0.024656929075717926, 0.049654800444841385, 0.04662865772843361, 0.02653847075998783, 0.0305657796561718, 0.027949761599302292, 0.016251876950263977, 0.032245099544525146, 0.02626500464975834, 0.038086071610450745, 0.03807530552148819, 0.028552871197462082, 0.03085380047559738, 0.030934611335396767, 0.022648204118013382, 0.030125923454761505, 0.011216933839023113, 0.024571767076849937, 0.00922598596662283, 0.012805730104446411, 0.00013764426694251597, 0.022411048412322998, 0.029493680223822594, 0.000679215241689235, 0.03512575849890709, 0.008098018355667591, 0.007106961216777563, -0.0033082012087106705, 0.005963710602372885, 0.003428397700190544, 0.0023441442754119635, -0.009355578571557999, -0.0019092793809249997, 0.013332052156329155, -0.01103154942393303, -0.0085800401866436, -0.008051104843616486, -0.022199340164661407, -0.00907081924378872, -0.029396098107099533, -0.03480982780456543, -0.0286472849547863, -0.01132621243596077, -0.0584825798869133, -0.02997513860464096, -0.04011576622724533, -0.02569686248898506, -0.052818235009908676, -0.047852277755737305, -0.020453039556741714, -0.043733149766922, -0.059256456792354584, -0.055756695568561554, -0.026930078864097595, -0.04782341793179512, -0.056002404540777206, -0.06285601109266281, -0.043699461966753006, -0.059849511831998825, -0.06532245874404907, -0.04758002981543541, -0.057123858481645584, -0.06781720370054245, -0.07349193096160889, -0.05850377306342125, -0.05530869588255882, -0.04309283196926117, -0.03199242427945137, -0.05170944705605507, -0.07696473598480225, -0.08936509490013123, -0.06281348317861557, -0.05659930780529976, -0.07859939336776733, -0.05993266403675079, -0.055401064455509186, -0.06322188675403595, -0.05625513941049576, -0.06583067029714584, -0.06146858260035515, -0.07506873458623886, -0.08025574684143066, -0.09186076372861862, -0.07111737877130508, -0.07645822316408157, -0.0805901363492012, -0.07897678017616272, -0.07697977870702744, -0.0728454738855362, -0.10499423742294312, -0.07309886813163757, -0.08690296858549118, -0.07396125048398972, -0.0850580707192421, -0.10046803951263428, -0.09305433183908463, -0.09061522781848907, -0.0761798620223999, -0.09738368541002274, -0.08811420202255249, -0.08262773603200912, -0.07562145590782166, -0.0830148458480835, -0.07196889817714691, -0.09277850389480591, -0.09757206588983536, -0.08557683974504471, -0.11047983914613724, -0.09732698649168015, -0.09674875438213348, -0.1012241542339325, -0.11625877767801285, -0.10786868631839752, -0.1160731092095375, -0.11346353590488434, -0.12432511895895004, -0.12709952890872955, -0.13613209128379822, -0.10951311886310577, -0.13856235146522522, -0.12748822569847107, -0.12581418454647064, -0.11949899792671204, -0.1168941929936409, -0.14242318272590637, -0.1291951686143875, -0.13147340714931488, -0.1388963758945465, -0.12970764935016632, -0.13298752903938293, -0.14229780435562134, -0.13893485069274902, -0.13072116672992706, -0.1526728719472885, -0.12086831033229828, -0.1458108276128769, -0.13704052567481995, -0.147122323513031, -0.1373130977153778, -0.15259867906570435, -0.12020078301429749, -0.15603101253509521, -0.14631564915180206, -0.1454339623451233, -0.16434098780155182, -0.1562850922346115, -0.15645968914031982, -0.13346728682518005, -0.13876137137413025, -0.1396283507347107, -0.14372508227825165, -0.1348404735326767, -0.1180850937962532, -0.13229408860206604, -0.12214075773954391, -0.1424776017665863, -0.13519306480884552, -0.13288931548595428, -0.13102680444717407, -0.1498667299747467, -0.13109862804412842, -0.11639880388975143, -0.12154458463191986, -0.12727616727352142, -0.1393396258354187, -0.12757608294487, -0.14057813584804535, -0.12534695863723755]