Epoch: 22-3, Loss: 0.005440946668386459, Lr: 0.001 , 
 ,Threshold: 
[-0.2206583470106125, -0.21736660599708557, -0.20962874591350555, -0.21454568207263947, -0.22259464859962463, -0.21702097356319427, -0.20886003971099854, -0.23528866469860077, -0.19880768656730652, -0.22000733017921448, -0.21602527797222137, -0.22253920137882233, -0.22486066818237305, -0.20171216130256653, -0.2142379879951477, -0.18547353148460388, -0.19962896406650543, -0.1672099530696869, -0.1675812005996704, -0.14501260221004486, -0.12195664644241333, -0.07791593670845032, -0.03022562339901924, 0.026946892961859703, 0.13653583824634552, 0.1969147026538849, 0.29897260665893555, 0.3595927655696869, 0.3727223575115204, 0.3943246304988861, 0.376851886510849, 0.35232698917388916, 0.32707878947257996, 0.32119327783584595, 0.3100143074989319, 0.2858404219150543, 0.29485344886779785, 0.2999827265739441, 0.2849982678890228, 0.2783994674682617] 
 , Step size: 
 [-0.2304830104112625, -0.20567017793655396, -0.22175945341587067, -0.2273351103067398, -0.21104922890663147, -0.2206583321094513, -0.2092464715242386, -0.2144147902727127, -0.23034138977527618, -0.23181802034378052, -0.2113792598247528, -0.24177275598049164, -0.2505052983760834, -0.2538852393627167, -0.2797713875770569, -0.3005516529083252, -0.32974496483802795, -0.3666455149650574, -0.4064479470252991, -0.44656670093536377, -0.45413821935653687, -0.44907382130622864, -0.4703751802444458, -0.46171310544013977, -0.4459523558616638, -0.45553216338157654, -0.43577396869659424, -0.42049455642700195, -0.4235258996486664, -0.41213729977607727, -0.4351855218410492, -0.3812958598136902, -0.37972646951675415, -0.34227627515792847, -0.3470695912837982, -0.3590545058250427, -0.353181391954422, -0.34714481234550476, -0.35220134258270264, -0.34804224967956543]