Epoch: 25-3, Loss: 0.0047507393173873425, Lr: 0.001 , 
 ,Threshold: 
[-0.22065278887748718, -0.21736139059066772, -0.20962363481521606, -0.2145405411720276, -0.22258973121643066, -0.2170162796974182, -0.20885556936264038, -0.23528452217578888, -0.19880402088165283, -0.22000430524349213, -0.21602316200733185, -0.22253826260566711, -0.22486092150211334, -0.20171476900577545, -0.21424360573291779, -0.1854831427335739, -0.19964371621608734, -0.16723109781742096, -0.16760995984077454, -0.14504921436309814, -0.1220002993941307, -0.07796664535999298, -0.030281705781817436, 0.026888124644756317, 0.1364777684211731, 0.19685931503772736, 0.2989248037338257, 0.35955214500427246, 0.37268760800361633, 0.3942951560020447, 0.37682825326919556, 0.3523082137107849, 0.32706382870674133, 0.32118165493011475, 0.3100053071975708, 0.28583353757858276, 0.29484811425209045, 0.2994738221168518, 0.2849868834018707, 0.2790243923664093] 
 , Step size: 
 [-0.2304781824350357, -0.20566485822200775, -0.22175370156764984, -0.2273293137550354, -0.21104273200035095, -0.22065086662769318, -0.20923778414726257, -0.21440452337265015, -0.23032864928245544, -0.2318013608455658, -0.2113569676876068, -0.2417430281639099, -0.25046631693840027, -0.25383493304252625, -0.2797083854675293, -0.30047622323036194, -0.3296583294868469, -0.3665517568588257, -0.4063504934310913, -0.44647103548049927, -0.45405009388923645, -0.4489927291870117, -0.47030070424079895, -0.46164441108703613, -0.4458884596824646, -0.4554722011089325, -0.4357214868068695, -0.4204491376876831, -0.4234861731529236, -0.41210225224494934, -0.43515655398368835, -0.3812723457813263, -0.3797069489955902, -0.34226053953170776, -0.34705692529678345, -0.3590443730354309, -0.35317355394363403, -0.34637725353240967, -0.3521791398525238, -0.34901151061058044]