Epoch: 16-3, Loss: 0.005535563919693232, Lr: 0.001 , 
 ,Threshold: 
[-0.22066384553909302, -0.21737179160118103, -0.20963384211063385, -0.21455077826976776, -0.22259953618049622, -0.21702566742897034, -0.2088644951581955, -0.23529277741909027, -0.1988113522529602, -0.22001032531261444, -0.21602728962898254, -0.22253988683223724, -0.22486059367656708, -0.20170967280864716, -0.2142324298620224, -0.18546397984027863, -0.19961421191692352, -0.1671888381242752, -0.16755227744579315, -0.14497579634189606, -0.12191245704889297, -0.07786465436220169, -0.03016885556280613, 0.027006369084119797, 0.13659459352493286, 0.196970596909523, 0.299020379781723, 0.35963374376296997, 0.3727571666240692, 0.3943541646003723, 0.376875638961792, 0.35234585404396057, 0.3270936608314514, 0.32120481133461, 0.3100231885910034, 0.2858473062515259, 0.2948586046695709, 0.300661563873291, 0.2842015027999878, 0.2760199010372162] 
 , Step size: 
 [-0.23048783838748932, -0.20567548274993896, -0.22176513075828552, -0.22734083235263824, -0.2110556960105896, -0.22066575288772583, -0.20925508439540863, -0.21442508697509766, -0.23035413026809692, -0.23183470964431763, -0.21140161156654358, -0.2418026179075241, -0.2505442202091217, -0.2539358139038086, -0.2798348665237427, -0.3006278872489929, -0.3298324942588806, -0.36674052476882935, -0.4065462052822113, -0.44666343927383423, -0.45422735810279846, -0.44915539026260376, -0.4704504609107971, -0.4617824852466583, -0.4460166096687317, -0.45559248328208923, -0.4358264207839966, -0.4205401539802551, -0.4235657751560211, -0.4121723771095276, -0.4352145493030548, -0.3813195526599884, -0.37974584102630615, -0.34229186177253723, -0.34708213806152344, -0.3590644896030426, -0.35318925976753235, -0.34816768765449524, -0.3509843349456787, -0.34433940052986145]