Epoch: 23-3, Loss: 0.005652190186083317, Lr: 0.001 , 
 ,Threshold: 
[-0.22065676748752594, -0.2173651158809662, -0.20962728559970856, -0.21454420685768127, -0.2225932627916336, -0.21701964735984802, -0.20885875821113586, -0.23528750240802765, -0.19880665838718414, -0.22000645101070404, -0.21602468192577362, -0.22253894805908203, -0.22486069798469543, -0.20171290636062622, -0.21423961222171783, -0.18547634780406952, -0.19963327050209045, -0.16721612215042114, -0.16758957505226135, -0.14502327144145966, -0.12196935713291168, -0.07793068885803223, -0.030241943895816803, 0.026929790154099464, 0.1365189105272293, 0.19689850509166718, 0.2989586889743805, 0.359580934047699, 0.37271225452423096, 0.39431601762771606, 0.3768450915813446, 0.3523215651512146, 0.32707443833351135, 0.3211899399757385, 0.31001171469688416, 0.28583842515945435, 0.2948519289493561, 0.2998071312904358, 0.28501394391059875, 0.278642863035202] 
 , Step size: 
 [-0.23048162460327148, -0.205668643116951, -0.22175778448581696, -0.2273334413766861, -0.21104736626148224, -0.220656156539917, -0.20924392342567444, -0.21441181004047394, -0.2303376942873001, -0.23181314766407013, -0.21137279272079468, -0.241764098405838, -0.25049394369125366, -0.25387051701545715, -0.27975305914878845, -0.30052971839904785, -0.3297197222709656, -0.36661818623542786, -0.4064195454120636, -0.4465387463569641, -0.45411258935928345, -0.4490501880645752, -0.47035354375839233, -0.46169313788414, -0.44593381881713867, -0.4555147588253021, -0.4357587397098541, -0.42048123478889465, -0.42351436614990234, -0.4121271073818207, -0.43517711758613586, -0.38128912448883057, -0.3797207474708557, -0.34227168560028076, -0.34706592559814453, -0.3590516149997711, -0.3531791567802429, -0.3468802869319916, -0.35222432017326355, -0.348420113325119]