Epoch: 0-3, Loss: 38.14412307739258, Lr: 0.001 , 
 ,Threshold: 
[-0.008706808090209961, -0.006153242662549019, 0.002275322563946247, -0.0026023464743047953, -0.010302525945007801, -0.004350416827946901, 0.004070287570357323, -0.022292902693152428, 0.013288646005094051, -0.008986152708530426, -0.005634692031890154, -0.01288999617099762, -0.016805559396743774, 0.003636474721133709, -0.013054957613348961, 0.009733847342431545, -0.013478751294314861, 0.006436431780457497, -0.009852028451859951, -0.007821417413651943, -0.011974183842539787, -0.004861752036958933, -0.003562163794413209, -0.0058425539173185825, 0.027513865381479263, -0.0030542146414518356, -0.001555803930386901, -0.010024775750935078, -0.014622166752815247, 0.017368029803037643, 0.015964871272444725, 0.009895200841128826, 0.0026674815453588963, 0.004579560365527868, 0.007601496763527393, -0.007164095062762499, 0.0021986374631524086, 0.0039383890107274055, -0.004368895199149847, -0.001360573573037982] 
 , Step size: 
 [-0.017109764739871025, 0.009809838607907295, -0.0061947135254740715, -0.011427590623497963, 0.005888489540666342, -0.004650208633393049, 0.007155079860240221, 0.002148216124624014, -0.010472615249454975, -0.006380461156368256, 0.02003212459385395, -0.00270605506375432, -0.0018890741048380733, 0.00917356088757515, 0.0031223201658576727, 0.006003763061016798, 0.008636708371341228, 0.005290166940540075, -0.005244584754109383, -0.021220069378614426, -0.010170906782150269, 0.005530703347176313, -0.012219170108437538, -0.005328378174453974, 0.004914721008390188, -0.012647172436118126, -0.0020182046573609114, 0.004610897973179817, -0.007433723658323288, -0.0077948784455657005, -0.04334282875061035, -0.00420318404212594, -0.01745552569627762, 0.01775747537612915, 0.0006384158041328192, -0.01857534795999527, -0.006989475805312395, 0.010909298434853554, -0.000554965459741652, -0.007745868526399136]