Epoch: 20-3, Loss: 0.005619633011519909, Lr: 0.001 , 
 ,Threshold: 
[-0.22066143155097961, -0.21736951172351837, -0.20963160693645477, -0.21454854309558868, -0.2225973904132843, -0.21702361106872559, -0.2088625580072403, -0.23529097437858582, -0.19880972802639008, -0.220008984208107, -0.2160263955593109, -0.22253963351249695, -0.22486059367656708, -0.2017107754945755, -0.21423488855361938, -0.18546827137470245, -0.1996208131313324, -0.1671982854604721, -0.167565256357193, -0.1449924260377884, -0.12193243205547333, -0.07788782566785812, -0.030194567516446114, 0.02697942964732647, 0.13656799495220184, 0.19694527983665466, 0.2989988923072815, 0.35961538553237915, 0.3727414906024933, 0.3943409323692322, 0.376865029335022, 0.35233739018440247, 0.32708707451820374, 0.3211997151374817, 0.310019314289093, 0.28584420680999756, 0.29485630989074707, 0.30033788084983826, 0.28492552042007446, 0.27782052755355835] 
 , Step size: 
 [-0.2304857224225998, -0.20567315816879272, -0.22176262736320496, -0.22733831405639648, -0.2110528200864792, -0.2206624448299408, -0.20925119519233704, -0.21442045271396637, -0.2303483933210373, -0.23182718455791473, -0.21139156818389893, -0.2417890876531601, -0.25052666664123535, -0.2539130747318268, -0.2798061668872833, -0.30059346556663513, -0.32979294657707214, -0.3666975200176239, -0.4065018892288208, -0.4466196596622467, -0.45418718457221985, -0.4491184651851654, -0.470416396856308, -0.46175122261047363, -0.44598767161369324, -0.4555652141571045, -0.4358028769493103, -0.42051973938941956, -0.42354780435562134, -0.4121566116809845, -0.4352015256881714, -0.38130897283554077, -0.37973716855049133, -0.3422848880290985, -0.34707656502723694, -0.3590601086616516, -0.3531858026981354, -0.3476797938346863, -0.35209211707115173, -0.3471428453922272]