Epoch: 27-3, Loss: 0.005087577272206545, Lr: 0.001 , 
 ,Threshold: 
[-0.22064901888370514, -0.2173578292131424, -0.2096201628446579, -0.21453706920146942, -0.22258636355400085, -0.21701310575008392, -0.20885252952575684, -0.23528172075748444, -0.19880154728889465, -0.22000230848789215, -0.21602174639701843, -0.22253766655921936, -0.22486115992069244, -0.20171648263931274, -0.21424739062786102, -0.18548960983753204, -0.19965362548828125, -0.16724534332752228, -0.1676294058561325, -0.14507389068603516, -0.12202984094619751, -0.07800094783306122, -0.03031962364912033, 0.026848390698432922, 0.1364385187625885, 0.1968219131231308, 0.29889270663261414, 0.3595248758792877, 0.37266427278518677, 0.39427533745765686, 0.3768123984336853, 0.35229548811912537, 0.3270537257194519, 0.32117366790771484, 0.3099992275238037, 0.28582894802093506, 0.2948446273803711, 0.29920437932014465, 0.2849317789077759, 0.27932262420654297] 
 , Step size: 
 [-0.23047493398189545, -0.20566128194332123, -0.22174981236457825, -0.22732537984848022, -0.2110382467508316, -0.22064583003520966, -0.20923195779323578, -0.2143976092338562, -0.23032011091709137, -0.2317901849746704, -0.2113419622182846, -0.24172301590442657, -0.25044023990631104, -0.2538010776042938, -0.27966567873954773, -0.300425261259079, -0.3295997381210327, -0.3664882183074951, -0.4062846004962921, -0.44640636444091797, -0.4539904296398163, -0.4489379823207855, -0.47025027871131897, -0.4615980386734009, -0.4458453059196472, -0.4554316997528076, -0.4356860816478729, -0.42041870951652527, -0.42345935106277466, -0.4120787978172302, -0.43513697385787964, -0.3812565207481384, -0.379693865776062, -0.34224990010261536, -0.3470483124256134, -0.3590375781059265, -0.3531681001186371, -0.34596922993659973, -0.35209086537361145, -0.3494727611541748]