Epoch: 3-3, Loss: 73.8634262084961, Lr: 0.001 , 
 ,Threshold: 
[-0.16505643725395203, -0.16244596242904663, -0.15468385815620422, -0.15966814756393433, -0.16775384545326233, -0.16210877895355225, -0.1539011001586914, -0.18049469590187073, -0.14464710652828217, -0.16663281619548798, -0.16363392770290375, -0.17142082750797272, -0.17544040083885193, -0.15492090582847595, -0.1713651567697525, -0.14819690585136414, -0.17038707435131073, -0.1488862931728363, -0.1634933054447174, -0.15917418897151947, -0.1602659672498703, -0.14814436435699463, -0.13884732127189636, -0.12681734561920166, -0.06543399393558502, -0.04015170782804489, 0.05723192170262337, 0.1349063217639923, 0.16883879899978638, 0.21071264147758484, 0.2104717493057251, 0.2028081715106964, 0.1928153783082962, 0.19153815507888794, 0.1913062185049057, 0.17308467626571655, 0.1789076328277588, 0.17697319388389587, 0.16475562751293182, 0.16393700242042542] 
 , Step size: 
 [-0.17541532218456268, -0.14916743338108063, -0.16470539569854736, -0.16970618069171906, -0.15254810452461243, -0.1620018482208252, -0.15025056898593903, -0.1543191522359848, -0.1673397421836853, -0.16441430151462555, -0.13759826123714447, -0.1594402939081192, -0.15805375576019287, -0.14733698964118958, -0.15462909638881683, -0.15356306731700897, -0.1563834846019745, -0.16776061058044434, -0.1864786297082901, -0.21098484098911285, -0.20767679810523987, -0.19662652909755707, -0.21685287356376648, -0.21084962785243988, -0.20015905797481537, -0.216647207736969, -0.20516398549079895, -0.19968165457248688, -0.21350133419036865, -0.21416518092155457, -0.2492249757051468, -0.2087835967540741, -0.2200835794210434, -0.1825183629989624, -0.1970105767250061, -0.21312645077705383, -0.1982254683971405, -0.17667879164218903, -0.18411117792129517, -0.18723687529563904]