Epoch: 6-3, Loss: 0.00949244573712349, Lr: 0.001 , 
 ,Threshold: 
[-0.008052152581512928, -0.0019264474976807833, 0.0051956335082650185, 0.005238529294729233, -0.007019693963229656, 0.005399186629801989, -0.011235138401389122, -0.00663136038929224, 0.0054961615242064, 0.016113024204969406, 0.004148478154093027, 0.01020528469234705, -0.002388604683801532, -0.007699124980717897, -0.004222790710628033, -0.0017684296471998096, -0.0031286494340747595, 0.009176650084555149, 0.002573257777839899, -0.0009978623129427433, -0.002170993248000741, -0.004848808981478214, -0.000536818231921643, 0.003017949406057596, 0.005244522821158171, 0.021129904314875603, 0.016615435481071472, 0.0021155844442546368, -0.0023309639655053616, 0.002535579726099968, 0.005511353258043528, -0.0006392079521901906, -0.020287195220589638, -0.00784251932054758, -0.0038816274609416723, -0.0007744015892967582, -0.00827357079833746, -0.003198192222043872, 0.022838044911623, 0.006780155934393406, -0.00490883132442832, -0.014886034652590752, -0.013397120870649815, -0.0011102549033239484, -0.009530444629490376, -0.012372838333249092, 0.002490532584488392, -0.010239056311547756, 0.003465852700173855, -0.002428774256259203, -0.0031523359939455986, 0.005783114582300186, 0.0417599193751812, 0.07808521389961243, 0.09440924972295761, 0.12504640221595764, 0.14725123345851898, 0.18770959973335266, 0.1900293081998825, 0.22022314369678497, 0.2109130322933197, 0.2652301490306854, 0.256138414144516, 0.2706170380115509, 0.2953345775604248, 0.28807005286216736, 0.29911747574806213, 0.31164291501045227, 0.3329012989997864, 0.3294127881526947, 0.3538086712360382, 0.36379173398017883, 0.3679627776145935, 0.366032212972641, 0.3586786091327667, 0.3721809387207031, 0.3717558979988098, 0.3345218002796173, 0.3058795630931854, 0.2719668745994568] 
 , Step size: 
 [0.005021610297262669, 0.012772046960890293, 0.0010270563652738929, -0.016959955915808678, -0.024323919788002968, -0.00919534731656313, -0.021897008642554283, -0.003846070496365428, -0.005863170605152845, -0.025080883875489235, -0.007804146967828274, -0.017049044370651245, -0.02045876532793045, 0.0004801786853931844, -0.004148576874285936, -0.0086476756259799, -0.027438310906291008, -0.02020394802093506, -0.007877110503613949, -0.013562830165028572, -0.006504642311483622, -0.009624408558011055, -0.003107781056314707, -0.00911199115216732, 0.0005161972367204726, -0.000436789239756763, 0.005119691137224436, 0.01610100455582142, -0.004191544372588396, 0.007408497855067253, 0.01567269302904606, -0.0014771335991099477, -0.0068451715633273125, -0.0026370161212980747, 0.008699811063706875, 0.01142260991036892, -0.009765427559614182, 0.0006417771801352501, 0.005161812528967857, -0.01313879806548357, 0.014313341118395329, -0.00690111517906189, 0.006105764303356409, -0.006026259157806635, 0.0032047033309936523, -0.00010947979899356142, -0.0008353431476280093, -0.01660345494747162, 0.0030531862284988165, 0.00293738953769207, -0.018693367019295692, -0.0073421611450612545, -0.03804238513112068, -0.0791899785399437, -0.10486002266407013, -0.12105420231819153, -0.1621130257844925, -0.18769648671150208, -0.17555098235607147, -0.2148667722940445, -0.22710737586021423, -0.24696579575538635, -0.26821622252464294, -0.2830326557159424, -0.2662028670310974, -0.30714380741119385, -0.3269500434398651, -0.3187643885612488, -0.3339727818965912, -0.354195237159729, -0.3557654321193695, -0.34977513551712036, -0.3715466260910034, -0.41367101669311523, -0.3629702627658844, -0.3825353682041168, -0.37745022773742676, -0.36295172572135925, -0.3719773590564728, -0.30115649104118347]