Epoch: 1-3, Loss: 0.04592523351311684, Lr: 0.001 , 
 ,Threshold: 
[-0.008051996119320393, -0.001926653552800417, 0.005195286124944687, 0.005238093435764313, -0.007020182907581329, 0.005398631561547518, -0.011235787533223629, -0.006632119417190552, 0.005495242774486542, 0.01611187681555748, 0.004147117957472801, 0.010203562676906586, -0.0023907492868602276, -0.007701728027313948, -0.0042260936461389065, -0.0017726114019751549, -0.003133992664515972, 0.009169843047857285, 0.002565531525760889, -0.001007604063488543, -0.0021830357145518064, -0.004863881040364504, -0.0005555266980081797, 0.0029945513233542442, 0.005216385703533888, 0.021095016971230507, 0.01656341552734375, 0.0020687112119048834, -0.0023874707985669374, 0.0024701273068785667, 0.005437146406620741, -0.0007223134743981063, -0.020377635955810547, -0.007936140522360802, -0.0039710719138383865, -0.0008542542927898467, -0.008338007144629955, -0.0032500005327165127, 0.022780807688832283, 0.006692318711429834, -0.003323196666315198, -0.012499682605266571, -0.010154995135962963, 0.003235908690840006, -0.004188093822449446, -0.0061439163982868195, 0.009213767014443874, -0.004148781765252352, 0.006472201552242041, -0.00329186231829226, -0.011598465032875538, -0.017331574112176895, -0.004382612183690071, -0.0011276379227638245, -0.007245993707329035, -0.0014688113005831838, -0.0012360920663923025, 0.019528843462467194, 0.008891064673662186, 0.02098149061203003, -0.0025645738933235407, 0.03761913999915123, 0.012835577130317688, 0.017598386853933334, 0.031993795186281204, 0.013530522584915161, 0.014318862929940224, 0.018472770228981972, 0.030794788151979446, 0.018567359074950218, 0.03475150838494301, 0.03790859505534172, 0.0348229855298996, 0.025745365768671036, 0.024317555129528046, 0.041959479451179504, 0.05732965096831322, 0.04757966473698616, 0.021942298859357834, 0.05349988862872124] 
 , Step size: 
 [0.005021438468247652, 0.012772348709404469, 0.0010275153908878565, -0.016959374770522118, -0.02432328276336193, -0.009194654412567616, -0.021896222606301308, -0.0038451836444437504, -0.005862120538949966, -0.02507958561182022, -0.0078026424162089825, -0.017047163099050522, -0.020456461235880852, 0.00048293638974428177, -0.004145117476582527, -0.008643328212201595, -0.027432767674326897, -0.020196905359625816, -0.007869142107665539, -0.01355282124131918, -0.006492319516837597, -0.009609034284949303, -0.003088786033913493, -0.0090882433578372, 0.0005447143921628594, -0.00040138783515430987, 0.005172382574528456, 0.01614830642938614, -0.004134550224989653, 0.0074743242003023624, 0.015747087076306343, -0.0013938131742179394, -0.006754848640412092, -0.002543312730267644, 0.008788962848484516, 0.011502232402563095, -0.009700569324195385, 0.0006939716404303908, 0.0052193705923855305, -0.013050876557826996, 0.012720432132482529, -0.009286078624427319, 0.0028690870385617018, -0.010363481007516384, -0.002142973942682147, -0.0063461544923484325, -0.007565016858279705, -0.022711824625730515, 6.04576325713424e-06, 0.0037294416688382626, -0.010322936810553074, 0.015593641437590122, 0.008005477488040924, 0.0006940698949620128, -0.0017278838204219937, 0.007348698563873768, -0.011576483026146889, -0.016962403431534767, 0.00828874483704567, -0.012227403931319714, -0.0096761304885149, -0.014609363861382008, -0.01950405165553093, -0.024317791685461998, 0.002999688033014536, -0.026281585916876793, -0.035302069038152695, -0.018371403217315674, -0.024113209918141365, -0.03505735471844673, -0.027755778282880783, -0.0142097482457757, -0.027820264920592308, -0.06193145364522934, -0.014769183471798897, -0.03637717291712761, -0.04406740143895149, -0.05283491313457489, -0.05937402322888374, -0.05138479173183441]