Epoch: 2-3, Loss: 0.04381631687283516, Lr: 0.001 , 
 ,Threshold: 
[-0.008052022196352482, -0.0019266767194494605, 0.00519526144489646, 0.005238062236458063, -0.007020219229161739, 0.0053985887207090855, -0.011235840618610382, -0.0066321841441094875, 0.005495160818099976, 0.016111772507429123, 0.004146990831941366, 0.010203399695456028, -0.0023909525480121374, -0.0077019790187478065, -0.004226413089782, -0.001773010822944343, -0.003134498605504632, 0.009169208817183971, 0.0025647408328950405, -0.0010086012771353126, -0.0021842927671968937, -0.00486546428874135, -0.0005575051181949675, 0.0029920521192252636, 0.005213255528360605, 0.021091025322675705, 0.016558412462472916, 0.0020622548181563616, -0.0023957788944244385, 0.002459691371768713, 0.005424006842076778, -0.0007390760001726449, -0.020398646593093872, -0.007962710224092007, -0.004004199057817459, -0.0008957463433034718, -0.00839037075638771, -0.0033147097565233707, 0.0226991456001997, 0.006590067874640226, -0.0034531448036432266, -0.012662938795983791, -0.010353864170610905, 0.002988393185660243, -0.004482582211494446, -0.006494149100035429, 0.008802718482911587, -0.004620478954166174, 0.005940284114331007, -0.004008074291050434, -0.012360962107777596, -0.01810551807284355, -0.004884965717792511, -0.001075394218787551, -0.006077283062040806, 0.0015900820726528764, 0.004570221994072199, 0.02867845818400383, 0.021232690662145615, 0.03666691854596138, 0.01579536683857441, 0.05809371918439865, 0.03469262644648552, 0.04055536165833473, 0.05628717318177223, 0.03865344822406769, 0.04053720086812973, 0.045999109745025635, 0.059661779552698135, 0.04912949353456497, 0.06739608198404312, 0.072891965508461, 0.07228469103574753, 0.06569354236125946, 0.06627247482538223, 0.08532088994979858, 0.10138493776321411, 0.09144289046525955, 0.06476255506277084, 0.09442777186632156] 
 , Step size: 
 [0.005021464079618454, 0.012772368267178535, 0.0010275393724441528, -0.016959354281425476, -0.024323254823684692, -0.009194616228342056, -0.021896174177527428, -0.00384512054733932, -0.005862039513885975, -0.025079481303691864, -0.0078025152906775475, -0.01704699732363224, -0.020456254482269287, 0.0004831901751458645, -0.004144797567278147, -0.00864292774349451, -0.027432259172201157, -0.02019626460969448, -0.007868340238928795, -0.013551808893680573, -0.006491050124168396, -0.009607438929378986, -0.003086791140958667, -0.009085720404982567, 0.000547870818991214, -0.00039735744940117, 0.005177448038011789, 0.016154805198311806, -0.004126203712075949, 0.0074847908690571785, 0.015760229900479317, -0.001377047155983746, -0.006733899470418692, -0.0025168282445520163, 0.008821913972496986, 0.011543447151780128, -0.009648457169532776, 0.0007583709666505456, 0.005301028490066528, -0.0129482327029109, 0.012850302271544933, -0.00912296399474144, 0.0030672824941575527, -0.010115829296410084, -0.001848650281317532, -0.005996045656502247, -0.007152673788368702, -0.022237742319703102, 0.0005400899681262672, 0.004446769133210182, -0.009558700025081635, 0.016363145783543587, 0.008514256216585636, 0.0006544103962369263, -0.0028819984290748835, 0.004311447963118553, -0.017374500632286072, -0.026188310235738754, -0.0041746711358428, -0.028077909722924232, -0.028224440291523933, -0.03533393517136574, -0.041640397161245346, -0.04758624732494354, -0.02162495069205761, -0.05178172141313553, -0.061953671276569366, -0.04636877775192261, -0.05353190377354622, -0.06624872237443924, -0.06113410368561745, -0.050012506544589996, -0.06625080108642578, -0.10305224359035492, -0.0579681321978569, -0.08119285106658936, -0.0897197276353836, -0.09840907156467438, -0.10400573909282684, -0.09410185366868973]