Epoch: 3-3, Loss: 0.042024604976177216, Lr: 0.001 , 
 ,Threshold: 
[-0.008052052929997444, -0.001926700584590435, 0.005195235833525658, 0.005238032899796963, -0.007020253688097, 0.005398544482886791, -0.01123589277267456, -0.006632250268012285, 0.005495076533406973, 0.016111670061945915, 0.004146859049797058, 0.010203231126070023, -0.002391160698607564, -0.007702237460762262, -0.004226740915328264, -0.0017734222346916795, -0.00313501781783998, 0.009168555960059166, 0.0025639256928116083, -0.0010096316691488028, -0.0021855931263417006, -0.00486710062250495, -0.0005595518159680068, 0.0029894679319113493, 0.005210020579397678, 0.021086912602186203, 0.016553223133087158, 0.0020555309019982815, -0.0024044313468039036, 0.0024488228373229504, 0.005410326179116964, -0.0007565162377431989, -0.020420532673597336, -0.007990371435880661, -0.004038634710013866, -0.0009387694299221039, -0.008444482460618019, -0.003381280694156885, 0.022615665569901466, 0.0064862677827477455, -0.0035863800439983606, -0.012828277423977852, -0.010552437976002693, 0.0027462716680020094, -0.004762656521052122, -0.006813402753323317, 0.008452489040791988, -0.004984517581760883, 0.005467723589390516, -0.004472123458981514, -0.012676081620156765, -0.018155192956328392, -0.004049801267683506, 0.0012319623492658138, -0.001414004829712212, 0.009593515656888485, 0.01682567596435547, 0.045357704162597656, 0.041831906884908676, 0.06075097620487213, 0.042517367750406265, 0.08683646470308304, 0.06492771208286285, 0.07218153029680252, 0.08947884291410446, 0.07328631728887558, 0.07689202576875687, 0.08425980061292648, 0.10008574277162552, 0.0920143648982048, 0.1129675954580307, 0.12122587859630585, 0.12327639013528824, 0.11901073157787323, 0.12069710344076157, 0.14014899730682373, 0.15533702075481415, 0.14296503365039825, 0.11216972023248672, 0.13636179268360138] 
 , Step size: 
 [0.005021491087973118, 0.012772387824952602, 0.001027563470415771, -0.016959335654973984, -0.024323228746652603, -0.00919457245618105, -0.02189612202346325, -0.0038450555875897408, -0.005861957091838121, -0.025079378858208656, -0.007802383508533239, -0.01704683154821396, -0.020456042140722275, 0.00048345126560889184, -0.0041444688104093075, -0.008642515167593956, -0.027431730180978775, -0.020195599645376205, -0.007867512293159962, -0.013550764881074429, -0.006489736493676901, -0.009605786763131618, -0.0030847282614558935, -0.009083113633096218, 0.0005511331255547702, -0.00039319752249866724, 0.005182692781090736, 0.016161566600203514, -0.004117512609809637, 0.007495688274502754, 0.015773912891745567, -0.001359605579636991, -0.006712071597576141, -0.002489260397851467, 0.008856168016791344, 0.011586182750761509, -0.009594611823558807, 0.0008246118668466806, 0.0053844936192035675, -0.01284406054764986, 0.012983405962586403, -0.008957816287875175, 0.0032651261426508427, -0.009873599745333195, -0.001568900654092431, -0.0056770918890833855, -0.006801528390496969, -0.02187252603471279, 0.0010132759343832731, 0.004909951705485582, -0.009242784231901169, 0.016412725672125816, 0.0077041941694915295, -0.0016189614543691278, -0.0075154718942940235, -0.00367365893907845, -0.02968604303896427, -0.043102964758872986, -0.02510838583111763, -0.05261079967021942, -0.055463921278715134, -0.06471424549818039, -0.07258328050374985, -0.08000640571117401, -0.0556674562394619, -0.08738220483064651, -0.09940575808286667, -0.08582179993391037, -0.09532114863395691, -0.11066826432943344, -0.10843532532453537, -0.10023840516805649, -0.11939062178134918, -0.1588335931301117, -0.11503563821315765, -0.13898296654224396, -0.14689002931118011, -0.153395876288414, -0.15507683157920837, -0.13955417275428772]