Epoch: 0-3, Loss: 0.05452842637896538, Lr: 0.001 , 
 ,Threshold: 
[-0.008051973767578602, -0.00192663399502635, 0.005195305682718754, 0.005238117650151253, -0.007020154502242804, 0.0053986660204827785, -0.011235745623707771, -0.006632066797465086, 0.005495309364050627, 0.016111958771944046, 0.004147219471633434, 0.010203693062067032, -0.002390588168054819, -0.007701528258621693, -0.004225844517350197, -0.0017723020864650607, -0.0031336075626313686, 0.009170313365757465, 0.0025661748368293047, -0.0010067920666188002, -0.0021820117253810167, -0.004862595349550247, -0.0005539195262826979, 0.0029965785797685385, 0.005218923091888428, 0.021098243072628975, 0.016567455604672432, 0.002073924755677581, -0.0023807724937796593, 0.0024785322602838278, 0.005447716917842627, -0.0007088441634550691, -0.020360823720693588, -0.007914918474853039, -0.0039446596056222916, -0.000821235531475395, -0.00829643290489912, -0.0031987889669835567, 0.022845178842544556, 0.006772666238248348, -0.0032206664327532053, -0.012371172197163105, -0.009998667053878307, 0.003430258948355913, -0.003957164473831654, -0.005869415123015642, 0.009536294266581535, -0.003775572869926691, 0.00689335074275732, -0.0026988463941961527, -0.010940087959170341, -0.016645168885588646, -0.0037697504740208387, -0.0007556478958576918, -0.007433394901454449, -0.002737870207056403, -0.004226468503475189, 0.014232304878532887, 0.0014683682238683105, 0.010845939628779888, -0.014805151149630547, 0.023286247625947, -0.002939704805612564, 0.0005699789035134017, 0.014036032371222973, -0.005434813443571329, -0.005620138719677925, -0.002422074554488063, 0.008650943636894226, -0.004973871633410454, 0.009596849791705608, 0.010912518016994, 0.005606677383184433, -0.005842327605932951, -0.00952441431581974, 0.006046995520591736, 0.01970178447663784, 0.008756423369050026, -0.01769052818417549, 0.013344526290893555] 
 , Step size: 
 [0.005021417047828436, 0.0127723328769207, 0.001027495483867824, -0.016959387809038162, -0.024323299527168274, -0.009194687008857727, -0.021896257996559143, -0.0038452348671853542, -0.0058621871285140514, -0.025079665705561638, -0.0078027439303696156, -0.01704729162156582, -0.020456623286008835, 0.0004827353113796562, -0.004145368933677673, -0.008643639273941517, -0.027433153241872787, -0.020197385922074318, -0.00786979217082262, -0.013553641736507416, -0.006493355147540569, -0.009610331617295742, -0.003090406535193324, -0.00909028947353363, 0.0005421561654657125, -0.0004046491230838001, 0.005168295931071043, 0.016143061220645905, -0.004141278564929962, 0.007465896662324667, 0.015736516565084457, -0.001407284871675074, -0.0067716133780777454, -0.0025644712150096893, 0.008762684650719166, 0.011469429358839989, -0.009741941466927528, 0.0006429991335608065, 0.005154995247721672, -0.013131536543369293, 0.012617957778275013, -0.009414494037628174, 0.00271326070651412, -0.010557967238128185, -0.002373838797211647, -0.00662066088989377, -0.007888696156442165, -0.0230871494859457, -0.00041706301271915436, 0.003135017352178693, -0.010983097366988659, 0.014910152181982994, 0.0073904371820390224, 0.0003165178350172937, -0.0015467990888282657, 0.008604791015386581, -0.008602667599916458, -0.011645541526377201, 0.015745628625154495, -0.0020573013462126255, 0.0025966812390834093, -0.00022023741621524096, -0.0036610905081033707, -0.007213947828859091, 0.021036161109805107, -0.007226373068988323, -0.01525148842483759, 0.0026422280352562666, -0.0018209365662187338, -0.011346050538122654, -0.0023967414163053036, 0.013003157451748848, 0.0016543972305953503, -0.030014092102646828, 0.019354840740561485, -0.00010321754962205887, -0.006044765468686819, -0.013614563271403313, -0.019342506304383278, -0.010835221037268639]