Epoch: 3-3, Loss: 138.22462463378906, Lr: 0.001 , 
 ,Threshold: 
[-0.1717272847890854, -0.1754455268383026, -0.1852596402168274, -0.19615653157234192, -0.1785750687122345, -0.16473743319511414, -0.19199760258197784, -0.1792585700750351, -0.17476141452789307, -0.17968681454658508, -0.17255641520023346, -0.1810351312160492, -0.1921701729297638, -0.18732069432735443, -0.18280741572380066, -0.1881641298532486, -0.18436932563781738, -0.181299090385437, -0.17737387120723724, -0.18892942368984222, -0.18300946056842804, -0.1757057160139084, -0.169241800904274, -0.19064217805862427, -0.1735212802886963, -0.17472034692764282, -0.17647334933280945, -0.17862452566623688, -0.17215847969055176, -0.17145253717899323, -0.1627959907054901, -0.16277556121349335, -0.19202370941638947, -0.16935759782791138, -0.16486893594264984, -0.18036621809005737, -0.18421173095703125, -0.19485510885715485, -0.17720547318458557, -0.17067685723304749, -0.17446686327457428, -0.18536925315856934, -0.1932031661272049, -0.17340245842933655, -0.19018243253231049, -0.1754542887210846, -0.18744820356369019, -0.18995143473148346, -0.19198738038539886, -0.1663053333759308, -0.1851629912853241, -0.15597505867481232, -0.16853731870651245, -0.1813986450433731, -0.1728503406047821, -0.18475598096847534, -0.1921573281288147, -0.16998416185379028, -0.1787991225719452, -0.17325082421302795, -0.1841893047094345, -0.1834680587053299, -0.16899380087852478, -0.20742347836494446, -0.1829824000597, -0.1709606945514679, -0.1654832810163498, -0.17257565259933472, -0.1838957667350769, -0.1810789555311203, -0.205605611205101, -0.1861877292394638, -0.17497439682483673, -0.1685844510793686, -0.18840056657791138, -0.18225781619548798, -0.18458880484104156, -0.19784222543239594, -0.17195801436901093, -0.16740162670612335, -0.18298283219337463, -0.17283153533935547, -0.18180689215660095, -0.1761540323495865, -0.18632543087005615, -0.1666208654642105, -0.18946044147014618, -0.1920958161354065, -0.19162596762180328, -0.184076726436615, -0.17702588438987732, -0.20683854818344116, -0.17137685418128967, -0.18810874223709106, -0.15718598663806915, -0.15981042385101318, -0.16212227940559387, -0.1864735335111618, -0.18447870016098022, -0.183354452252388, -0.18154650926589966, -0.17723572254180908, -0.1599762886762619, -0.16698119044303894, -0.18943774700164795, -0.1593942642211914, -0.17219917476177216, -0.16921815276145935, -0.17584429681301117, -0.17050951719284058, -0.1752162128686905, -0.15928249061107635, -0.18695399165153503, -0.18189676105976105, -0.17456203699111938, -0.1636461615562439, -0.19460304081439972, -0.16121841967105865, -0.16267088055610657, -0.18099793791770935, -0.17309369146823883, -0.1879144012928009, -0.19716960191726685, -0.182699516415596, -0.1757761687040329, -0.17190200090408325, -0.16974228620529175, -0.19447216391563416, -0.18299870193004608, -0.18279840052127838, -0.18687370419502258, -0.18030746281147003, -0.1804594248533249, -0.18254558742046356, -0.18111677467823029, -0.1696489006280899, -0.18467536568641663, -0.1990048885345459, -0.1654416024684906, -0.18334327638149261, -0.18505585193634033, -0.16702058911323547, -0.19451023638248444, -0.16616469621658325, -0.1867656260728836, -0.17601613700389862, -0.1777985394001007, -0.18628200888633728, -0.16779248416423798, -0.19175384938716888, -0.162257581949234, -0.16822576522827148, -0.20089803636074066, -0.17163558304309845, -0.19038963317871094, -0.18982093036174774, -0.16943608224391937, -0.1799124926328659, -0.17384621500968933, -0.19961576163768768, -0.18913564085960388, -0.17645351588726044, -0.17775379121303558, -0.17712673544883728, -0.18047836422920227, -0.18650177121162415, -0.17645283043384552, -0.1625785380601883, -0.192936971783638, -0.17217451333999634, -0.20232506096363068, -0.1936064511537552, -0.17095047235488892, -0.20481175184249878, -0.18903937935829163, -0.17288769781589508, -0.2039068192243576, -0.19218605756759644, -0.18039384484291077, -0.18665209412574768, -0.1744268834590912, -0.18927213549613953, -0.18190661072731018, -0.1899743527173996, -0.19142639636993408, -0.18980689346790314, -0.18509557843208313, -0.19298119843006134, -0.1771719604730606, -0.1802169531583786, -0.20427297055721283, -0.16438090801239014, -0.18567445874214172, -0.1759490817785263, -0.19455018639564514, -0.1592736691236496, -0.16639363765716553, -0.19189299643039703, -0.19696910679340363, -0.1826476901769638, -0.19756731390953064, -0.17246289551258087, -0.17859143018722534, -0.18908429145812988, -0.18924924731254578, -0.18736609816551208, -0.19614778459072113, -0.2007499635219574, -0.18300651013851166, -0.1836363822221756, -0.19834868609905243, -0.1932860016822815, -0.19373667240142822, -0.18329022824764252, -0.21329349279403687, -0.18833938241004944, -0.19090710580348969, -0.18118003010749817, -0.20385456085205078, -0.1870538741350174, -0.1937897950410843, -0.20426619052886963, -0.18806922435760498, -0.18769298493862152, -0.1808808296918869, -0.17974290251731873, -0.17217540740966797, -0.1826917827129364, -0.18513353168964386, -0.19583868980407715, -0.19101886451244354, -0.20143932104110718, -0.18050037324428558, -0.17208197712898254, -0.20464210212230682, -0.18440206348896027, -0.1955031305551529, -0.18362492322921753, -0.1789427250623703, -0.20508407056331635, -0.18929140269756317, -0.1804521679878235, -0.18509717285633087, -0.185821533203125, -0.18822318315505981, -0.1916169822216034, -0.18912091851234436, -0.18367281556129456, -0.2030574232339859, -0.17454282939434052, -0.18752312660217285, -0.1915769875049591, -0.192674919962883, -0.17921730875968933, -0.20498652756214142, -0.17499348521232605, -0.19791710376739502, -0.1790039986371994, -0.19432641565799713, -0.1970357894897461, -0.19103164970874786, -0.19610169529914856, -0.18166695535182953, -0.18756945431232452, -0.18608294427394867, -0.18915565311908722, -0.18205061554908752, -0.18562152981758118, -0.1969538927078247, -0.18210560083389282, -0.16949042677879333, -0.1819290667772293, -0.18810343742370605, -0.18379510939121246, -0.17977690696716309, -0.18123866617679596, -0.17296434938907623, -0.17186465859413147, -0.1579190343618393, -0.15759217739105225, -0.13518008589744568, -0.11567919701337814, -0.09725643694400787, -0.01691282168030739, 0.024776415899395943, 0.10243817418813705, 0.15892033278942108, 0.1969427913427353, 0.20776236057281494, 0.21627379953861237, 0.21557408571243286, 0.20864778757095337, 0.2106924057006836, 0.20388051867485046, 0.20628581941127777, 0.20933811366558075, 0.1887088567018509, 0.2046496421098709, 0.20446984469890594, 0.18114031851291656, 0.16970351338386536, 0.19622421264648438, 0.17797453701496124, 0.19317874312400818, 0.17915292084217072, 0.1969660073518753, 0.19685007631778717, 0.18372242152690887, 0.16338448226451874, 0.1816655993461609, 0.16717733442783356, 0.16556373238563538, 0.17606310546398163, 0.15821312367916107, 0.17627988755702972, 0.16355636715888977, 0.14843158423900604, 0.1595306545495987, 0.150938481092453, 0.17459432780742645] 
 , Step size: 
 [-0.1764504462480545, -0.18237976729869843, -0.18180157244205475, -0.19073425233364105, -0.19208939373493195, -0.17961056530475616, -0.16819998621940613, -0.1877700239419937, -0.17081698775291443, -0.1745428740978241, -0.18222345411777496, -0.17089839279651642, -0.18171390891075134, -0.16371220350265503, -0.1664961278438568, -0.16310784220695496, -0.16550801694393158, -0.17166128754615784, -0.16649504005908966, -0.1797751486301422, -0.17107950150966644, -0.15998336672782898, -0.16871272027492523, -0.16777677834033966, -0.16543325781822205, -0.16473791003227234, -0.18732823431491852, -0.17712660133838654, -0.16856339573860168, -0.16917386651039124, -0.16686034202575684, -0.14593595266342163, -0.17184261977672577, -0.17369508743286133, -0.17684698104858398, -0.13219965994358063, -0.17550307512283325, -0.15737414360046387, -0.17310261726379395, -0.1760190725326538, -0.160282701253891, -0.15936334431171417, -0.15832246840000153, -0.179862380027771, -0.16573864221572876, -0.165702685713768, -0.154806986451149, -0.1464577168226242, -0.15818262100219727, -0.15749378502368927, -0.17112378776073456, -0.12306669354438782, -0.1403404325246811, -0.14210981130599976, -0.12975731492042542, -0.15185438096523285, -0.13322752714157104, -0.14738169312477112, -0.14131927490234375, -0.14898984134197235, -0.16262765228748322, -0.12860964238643646, -0.16798506677150726, -0.1444222331047058, -0.14243410527706146, -0.14320752024650574, -0.14542196691036224, -0.13206471502780914, -0.15804804861545563, -0.16898640990257263, -0.15278176963329315, -0.13670845329761505, -0.16116897761821747, -0.1440776288509369, -0.15018771588802338, -0.1645442098379135, -0.15903231501579285, -0.15840046107769012, -0.13379712402820587, -0.16803257167339325, -0.1507272571325302, -0.15179240703582764, -0.12841986119747162, -0.15093447268009186, -0.13527412712574005, -0.1437031626701355, -0.11583060771226883, -0.11777298897504807, -0.1417197287082672, -0.1307498961687088, -0.12115183472633362, -0.13004031777381897, -0.11582943797111511, -0.11865955591201782, -0.10475997626781464, -0.08139020204544067, -0.07641315460205078, -0.08864022046327591, -0.06892868131399155, -0.07036132365465164, -0.06635814905166626, -0.04186370223760605, -0.05524200573563576, -0.047982603311538696, -0.03313930332660675, -0.0384688638150692, -0.024110328406095505, -0.010844660922884941, -0.01874271221458912, -0.006129495799541473, -0.02880624309182167, -0.008715691976249218, -0.002263878006488085, 0.00925525650382042, 0.004439508076757193, 0.01031704992055893, 0.011385297402739525, 0.030418746173381805, 0.017389018088579178, 0.009885245002806187, 0.018872104585170746, 0.015294067561626434, 0.03135717660188675, 0.04478941112756729, 0.05594516545534134, 0.03104992024600506, 0.0550483800470829, 0.033707451075315475, 0.05489513278007507, 0.04253515973687172, 0.0534793920814991, 0.04663055017590523, 0.059707920998334885, 0.05522942543029785, 0.05817046016454697, 0.06320276856422424, 0.06595969200134277, 0.05897387117147446, 0.07638093084096909, 0.06284553557634354, 0.05368376150727272, 0.046790961176157, 0.07630946487188339, 0.07752098143100739, 0.08103515952825546, 0.0681147649884224, 0.04396282136440277, 0.05337848514318466, 0.08441365510225296, 0.050577450543642044, 0.05857231095433235, 0.05965286120772362, 0.048593927174806595, 0.017801523208618164, 0.06213722005486488, 0.045960769057273865, 0.052517250180244446, 0.034477658569812775, 0.01658044010400772, 0.044424328953027725, 0.026766661554574966, 0.03770780190825462, 0.0022113914601504803, 0.03507886454463005, 0.024456476792693138, 0.020219190046191216, 0.04096859320998192, 0.03029848262667656, 0.02753058262169361, 0.029665101319551468, 0.009890175424516201, 0.025271842256188393, 0.03648896515369415, 0.02953341044485569, 0.03594305366277695, 0.023043079301714897, 0.02725907228887081, 0.029234949499368668, 0.011987019330263138, -0.014639784581959248, 0.009622015990316868, -0.012317650951445103, -0.008048688992857933, -0.0059276907704770565, 0.007998029701411724, -0.009688613936305046, 0.01843503676354885, -0.004432602319866419, -0.008365609683096409, 0.0032807246316224337, -0.012653741985559464, -0.03216228261590004, -0.012865720316767693, -0.010990138165652752, -0.02373960241675377, -0.0470859594643116, -0.032200537621974945, -0.03659731149673462, -0.03184507414698601, -0.022246479988098145, -0.038652434945106506, -0.04870118945837021, -0.043986957520246506, -0.02232913300395012, -0.03530823811888695, -0.03967772424221039, -0.037961192429065704, -0.003288435749709606, -0.03191469982266426, -0.006700396537780762, -0.035509198904037476, -0.031457990407943726, -0.02704174444079399, -0.04029525816440582, -0.039642177522182465, -0.04607067257165909, -0.04928401857614517, -0.023716339841485023, -0.0457427017390728, -0.052166230976581573, -0.0393461249768734, -0.04996787756681442, -0.07137715816497803, -0.07617546617984772, -0.07044583559036255, -0.07576160132884979, -0.07241848856210709, -0.07439447939395905, -0.06146954372525215, -0.0666598528623581, -0.06434573978185654, -0.07432811707258224, -0.07109246402978897, -0.07903789728879929, -0.08442303538322449, -0.057133663445711136, -0.0730087012052536, -0.08029500395059586, -0.0514843687415123, -0.07055309414863586, -0.06466276198625565, -0.07338952273130417, -0.09159322082996368, -0.07100598514080048, -0.07478200644254684, -0.08856914192438126, -0.07449674606323242, -0.08414313942193985, -0.1025843620300293, -0.09422867745161057, -0.08456691354513168, -0.09881889820098877, -0.08795173466205597, -0.09687712043523788, -0.10532823204994202, -0.09679930657148361, -0.10792774707078934, -0.09342169016599655, -0.09611337631940842, -0.11648516356945038, -0.10993729531764984, -0.10173647105693817, -0.10280932486057281, -0.115418940782547, -0.12326968461275101, -0.15470458567142487, -0.1394021064043045, -0.15417596697807312, -0.14562390744686127, -0.15805017948150635, -0.16389255225658417, -0.1530342549085617, -0.17455777525901794, -0.17272011935710907, -0.17610980570316315, -0.18885459005832672, -0.1836313009262085, -0.1860257238149643, -0.18747955560684204, -0.2106979638338089, -0.2125065177679062, -0.2182498276233673, -0.20653818547725677, -0.20761074125766754, -0.22323748469352722, -0.21385277807712555, -0.2193438857793808, -0.2247057855129242, -0.21954745054244995, -0.21006129682064056, -0.22494424879550934, -0.2212952822446823, -0.1911516934633255, -0.22579056024551392, -0.2257104516029358, -0.20521464943885803, -0.2265581488609314, -0.20800980925559998, -0.2191764861345291, -0.20733752846717834, -0.21737529337406158, -0.20197807252407074, -0.20828312635421753, -0.2047361433506012, -0.20244434475898743, -0.20330274105072021, -0.20717084407806396, -0.20510627329349518, -0.2053934633731842, -0.20657506585121155, -0.19755610823631287, -0.2052086889743805, -0.19364887475967407, -0.1822279542684555, -0.1785494089126587, -0.19050726294517517, -0.15865135192871094, -0.1748419553041458, -0.17009392380714417, -0.15681809186935425]