Epoch: 2-3, Loss: 58.28792190551758, Lr: 0.001 , 
 ,Threshold: 
[-0.11424289643764496, -0.11829392611980438, -0.12816625833511353, -0.13915114104747772, -0.12181022763252258, -0.10772819817066193, -0.1349559724330902, -0.12227525562047958, -0.11778861284255981, -0.1228252574801445, -0.11578159034252167, -0.12413340061903, -0.13510024547576904, -0.1301722675561905, -0.12564659118652344, -0.13102532923221588, -0.12719395756721497, -0.12412366271018982, -0.12024098634719849, -0.13182365894317627, -0.12593874335289001, -0.11858228594064713, -0.112125925719738, -0.13356778025627136, -0.11652730405330658, -0.11786153167486191, -0.11977134644985199, -0.12191354483366013, -0.11539307236671448, -0.1146080270409584, -0.10581183433532715, -0.10567103326320648, -0.13487209379673004, -0.1121448203921318, -0.10762644559144974, -0.12313852459192276, -0.1270182579755783, -0.13766059279441833, -0.12004286795854568, -0.1135290190577507, -0.1173381432890892, -0.1282389760017395, -0.1360812485218048, -0.11631423979997635, -0.13302983343601227, -0.1182699203491211, -0.13024882972240448, -0.13274304568767548, -0.13473504781723022, -0.1090291291475296, -0.1278211623430252, -0.09854593127965927, -0.11109285056591034, -0.12393474578857422, -0.11539075523614883, -0.12727418541908264, -0.13464169204235077, -0.11242051422595978, -0.12117403745651245, -0.11558826267719269, -0.12649087607860565, -0.1257551610469818, -0.11126584559679031, -0.14968420565128326, -0.12521982192993164, -0.11321571469306946, -0.10777828097343445, -0.1148919016122818, -0.12626045942306519, -0.1234997883439064, -0.14808231592178345, -0.12870220839977264, -0.11753519624471664, -0.11118631064891815, -0.13104383647441864, -0.12492133677005768, -0.12727370858192444, -0.1405561864376068, -0.11470977216959, -0.11019940674304962, -0.12583398818969727, -0.11572634428739548, -0.12472376227378845, -0.11910165101289749, -0.12930864095687866, -0.1096530556678772, -0.1325158178806305, -0.13520832359790802, -0.1347855180501938, -0.12728819251060486, -0.12032479047775269, -0.15023861825466156, -0.1149102970957756, -0.1318242996931076, -0.10109613090753555, -0.10385547578334808, -0.10626202076673508, -0.1306915134191513, -0.12878240644931793, -0.12776091694831848, -0.12606865167617798, -0.12190347909927368, -0.10479962080717087, -0.11188548803329468, -0.13435108959674835, -0.10452890396118164, -0.11735647916793823, -0.11439035832881927, -0.12103505432605743, -0.11574467271566391, -0.12050716578960419, -0.10461261123418808, -0.13228639960289001, -0.1272452473640442, -0.11992610991001129, -0.10897213965654373, -0.13985860347747803, -0.10639075934886932, -0.10780773311853409, -0.12616099417209625, -0.11830726265907288, -0.13320913910865784, -0.1423266977071762, -0.12788911163806915, -0.12093076854944229, -0.11702976375818253, -0.11482889950275421, -0.13946570456027985, -0.12787799537181854, -0.12755092978477478, -0.1315176784992218, -0.12480614334344864, -0.12483597546815872, -0.12678289413452148, -0.12510648369789124, -0.11332376301288605, -0.12819543480873108, -0.1423346847295761, -0.10858914256095886, -0.1263316422700882, -0.12793375551700592, -0.109829381108284, -0.13721975684165955, -0.10902352631092072, -0.12961916625499725, -0.11894972622394562, -0.12080954760313034, -0.1292138546705246, -0.11067663133144379, -0.13458935916423798, -0.10502532124519348, -0.11094065010547638, -0.1435617357492447, -0.11423815041780472, -0.1326080560684204, -0.13223165273666382, -0.11175672709941864, -0.12219782918691635, -0.11612387746572495, -0.14151941239833832, -0.131259486079216, -0.11855072528123856, -0.11977367848157883, -0.1190435066819191, -0.12230182439088821, -0.12821044027805328, -0.11803682148456573, -0.104011170566082, -0.13427874445915222, -0.11339523643255234, -0.14344805479049683, -0.13472622632980347, -0.11207719892263412, -0.145818293094635, -0.13016542792320251, -0.11403002589941025, -0.14496764540672302, -0.1332312524318695, -0.12140864133834839, -0.12764480710029602, -0.11534211039543152, -0.13010729849338531, -0.12270080298185349, -0.13076651096343994, -0.13224193453788757, -0.1306287795305252, -0.1259835660457611, -0.13394875824451447, -0.11821936815977097, -0.12129991501569748, -0.14540980756282806, -0.10557709634304047, -0.12685520946979523, -0.11713635176420212, -0.1356932669878006, -0.10031052678823471, -0.10732937604188919, -0.13281449675559998, -0.13786987960338593, -0.12352484464645386, -0.1384136825799942, -0.1132526695728302, -0.1193816065788269, -0.12991932034492493, -0.13003967702388763, -0.1281771957874298, -0.13696962594985962, -0.14183275401592255, -0.12385652214288712, -0.12452895939350128, -0.1392650008201599, -0.13422274589538574, -0.1346880942583084, -0.12424272298812866, -0.15465401113033295, -0.12935195863246918, -0.13187451660633087, -0.1221209168434143, -0.14475959539413452, -0.12791165709495544, -0.1346079409122467, -0.14500565826892853, -0.12873156368732452, -0.128306582570076, -0.12149211019277573, -0.12035883218050003, -0.11280424892902374, -0.12338237464427948, -0.1258990615606308, -0.1367059350013733, -0.1319892406463623, -0.14239391684532166, -0.12143190950155258, -0.11298907548189163, -0.14552047848701477, -0.12523125112056732, -0.13629138469696045, -0.12434902787208557, -0.11970291286706924, -0.14652477204799652, -0.13020138442516327, -0.12138118594884872, -0.12604761123657227, -0.12680655717849731, -0.1292472928762436, -0.13268207013607025, -0.13013949990272522, -0.12463036924600601, -0.143960103392601, -0.11536718159914017, -0.1283256858587265, -0.13234670460224152, -0.1333976686000824, -0.11987542361021042, -0.14561663568019867, -0.11558176577091217, -0.1385732740163803, -0.11973970383405685, -0.1358177214860916, -0.13812647759914398, -0.1322835236787796, -0.13786177337169647, -0.1234222799539566, -0.1296265423297882, -0.12849515676498413, -0.13189050555229187, -0.1250993013381958, -0.12902002036571503, -0.14112205803394318, -0.12652932107448578, -0.11454946547746658, -0.12812036275863647, -0.1351858675479889, -0.13222913444042206, -0.12990732491016388, -0.1335020363330841, -0.12797307968139648, -0.13052304089069366, -0.12159384787082672, -0.1281735748052597, -0.11587005108594894, -0.11066117882728577, -0.1139322817325592, -0.06296630948781967, -0.051250919699668884, 0.007123524323105812, 0.05859082564711571, 0.09841472655534744, 0.11288199573755264, 0.12501852214336395, 0.12746933102607727, 0.12330064922571182, 0.12771420180797577, 0.1230395957827568, 0.12734128534793854, 0.13212743401527405, 0.11306989938020706, 0.1304808408021927, 0.131680428981781, 0.1096840500831604, 0.09954151511192322, 0.12731127440929413, 0.11025527864694595, 0.12661541998386383, 0.11373142153024673, 0.13264289498329163, 0.1335994005203247, 0.12155371904373169, 0.10246897488832474, 0.12163827568292618, 0.10873779654502869, 0.1079992949962616, 0.11945902556180954, 0.10492263734340668, 0.12314361333847046, 0.11098040640354156, 0.10114408284425735, 0.11121667176485062, 0.10244154185056686, 0.12608768045902252] 
 , Step size: 
 [-0.12052585929632187, -0.12602593004703522, -0.12527500092983246, -0.13400262594223022, -0.13454647362232208, -0.12283453345298767, -0.1116352528333664, -0.13101962208747864, -0.11404982209205627, -0.11721166968345642, -0.12424201518297195, -0.1134902685880661, -0.12541508674621582, -0.10805658996105194, -0.11104512959718704, -0.10762524604797363, -0.11036933213472366, -0.11661434918642044, -0.11118368059396744, -0.12426039576530457, -0.1152246743440628, -0.104548379778862, -0.11320239305496216, -0.11191073805093765, -0.10892593860626221, -0.10703764855861664, -0.12826111912727356, -0.11789704114198685, -0.10983727872371674, -0.11154051125049591, -0.11116126924753189, -0.092057004570961, -0.11890330165624619, -0.12187501788139343, -0.1256425827741623, -0.0808132216334343, -0.12398694455623627, -0.10603715479373932, -0.12171553820371628, -0.12427734583616257, -0.10814035683870316, -0.10709264874458313, -0.1059763953089714, -0.12757785618305206, -0.11425977200269699, -0.11472305655479431, -0.10420656204223633, -0.0961037427186966, -0.10857865959405899, -0.10862170904874802, -0.12365742027759552, -0.07707859575748444, -0.09447319805622101, -0.09626051038503647, -0.08350862562656403, -0.10573117434978485, -0.08735521882772446, -0.10196409374475479, -0.09651502966880798, -0.10462597012519836, -0.11862221360206604, -0.08451060205698013, -0.12383004277944565, -0.10013944655656815, -0.09822534769773483, -0.09868299961090088, -0.10023834556341171, -0.08656051754951477, -0.11189712584018707, -0.1220925971865654, -0.10515258461236954, -0.0886642187833786, -0.11263071745634079, -0.09509068727493286, -0.10072773694992065, -0.1149078980088234, -0.10919394344091415, -0.10825160890817642, -0.08328118175268173, -0.11713247001171112, -0.09951566159725189, -0.10083246976137161, -0.07730814069509506, -0.09962902218103409, -0.08372393995523453, -0.09189898520708084, -0.06395353376865387, -0.06616692990064621, -0.0900130569934845, -0.07911170274019241, -0.06909901648759842, -0.07775913178920746, -0.06360454112291336, -0.06717108935117722, -0.05473880097270012, -0.0328855887055397, -0.02838769182562828, -0.04011615365743637, -0.020176101475954056, -0.021385597065091133, -0.017882151529192924, 0.005226315464824438, -0.010624605230987072, -0.004079022444784641, 0.011609043926000595, 0.0020035163033753633, 0.015540276654064655, 0.02831852063536644, 0.019744517281651497, 0.03153756260871887, 0.007750034797936678, 0.026908747851848602, 0.032502759248018265, 0.04285980388522148, 0.03609565272927284, 0.04014793038368225, 0.03953418508172035, 0.05612172186374664, 0.04061022400856018, 0.03081318736076355, 0.03625203296542168, 0.029116801917552948, 0.04918515682220459, 0.05792486295104027, 0.06798946112394333, 0.042171910405159, 0.06505034863948822, 0.042767755687236786, 0.06272072345018387, 0.048838697373867035, 0.05875211954116821, 0.050494588911533356, 0.061777759343385696, 0.055665820837020874, 0.05612386390566826, 0.05814861133694649, 0.05892716720700264, 0.0498560406267643, 0.06529600918292999, 0.04994363337755203, 0.039231348782777786, 0.030763842165470123, 0.060150425881147385, 0.061099823564291, 0.06439731270074844, 0.05157927796244621, 0.02795443683862686, 0.03703037649393082, 0.06824597716331482, 0.03479337319731712, 0.0433686263859272, 0.04557224363088608, 0.034142959862947464, 0.0029250707011669874, 0.04565837234258652, 0.030404476448893547, 0.0366736501455307, 0.018885856494307518, 0.0014879116788506508, 0.027784287929534912, 0.011070411652326584, 0.022186314687132835, -0.013186737895011902, 0.018864940851926804, 0.0075783203355968, 0.0021374933421611786, 0.021503077819943428, 0.009128781035542488, 0.005581883247941732, 0.006734579801559448, -0.013917955569922924, 0.0015343779232352972, 0.012804942205548286, 0.006778863724321127, 0.012475135736167431, -0.0002847114810720086, 0.00492944847792387, 0.0067145866341888905, -0.009122981689870358, -0.03482639417052269, -0.010344228707253933, -0.03251630812883377, -0.028383024036884308, -0.025850985199213028, -0.01123221404850483, -0.027940701693296432, 0.001347991288639605, -0.019924519583582878, -0.022343039512634277, -0.009605764411389828, -0.024197475984692574, -0.04211677983403206, -0.021690351888537407, -0.0181175135076046, -0.029477421194314957, -0.05189206451177597, -0.03655312582850456, -0.04060644283890724, -0.03545837104320526, -0.0254491176456213, -0.04147137328982353, -0.051313359290361404, -0.04600074142217636, -0.023288777098059654, -0.03693162649869919, -0.04120861366391182, -0.039499808102846146, -0.005474449135363102, -0.03241097182035446, -0.006848304066807032, -0.03523578867316246, -0.030774280428886414, -0.02595939114689827, -0.03891654685139656, -0.036971304565668106, -0.04401130601763725, -0.047461818903684616, -0.02158539742231369, -0.04330951347947121, -0.049399394541978836, -0.03605028614401817, -0.04636816680431366, -0.0674029067158699, -0.07167237251996994, -0.06530752778053284, -0.07000617682933807, -0.06605775654315948, -0.06723902374505997, -0.05334900692105293, -0.057349395006895065, -0.05380411446094513, -0.0636163279414177, -0.06020801514387131, -0.06793756037950516, -0.07293622195720673, -0.045197341591119766, -0.0606125183403492, -0.06746254861354828, -0.03800428658723831, -0.054554764181375504, -0.04980519413948059, -0.057951439172029495, -0.075474813580513, -0.05410619080066681, -0.05699557438492775, -0.06981461495161057, -0.055504150688648224, -0.06499990820884705, -0.08328641206026077, -0.07506061345338821, -0.06501451134681702, -0.07886455208063126, -0.0675625205039978, -0.07604816555976868, -0.08388756960630417, -0.07475578784942627, -0.08482687175273895, -0.06914364546537399, -0.06683070212602615, -0.08834971487522125, -0.07976202666759491, -0.06729097664356232, -0.06700961291790009, -0.07640685141086578, -0.0808248370885849, -0.10920483618974686, -0.09103617072105408, -0.10309045761823654, -0.08956501632928848, -0.1011158898472786, -0.10472774505615234, -0.08966346830129623, -0.10889514535665512, -0.1040724441409111, -0.10468268394470215, -0.11492329835891724, -0.10753372311592102, -0.10808194428682327, -0.10800092667341232, -0.12999337911605835, -0.13073647022247314, -0.135522723197937, -0.1229710802435875, -0.12340279668569565, -0.13848452270030975, -0.12851078808307648, -0.1333593726158142, -0.1381913274526596, -0.132798433303833, -0.12329784780740738, -0.13835962116718292, -0.1350541114807129, -0.10532944649457932, -0.14056603610515594, -0.1411595642566681, -0.12141615897417068, -0.1435711681842804, -0.12585893273353577, -0.1379326730966568, -0.12706544995307922, -0.13808226585388184, -0.12368185073137283, -0.1310376524925232, -0.12852685153484344, -0.12732641398906708, -0.1292436271905899, -0.1342022866010666, -0.13326072692871094, -0.1348574459552765, -0.1369432806968689, -0.12965695559978485, -0.1382434070110321, -0.12772196531295776, -0.11995168030261993, -0.11648710072040558, -0.12909911572933197, -0.10298702120780945, -0.11818847805261612, -0.1132916584610939, -0.10005560517311096]