Epoch: 1-3, Loss: 76.21048736572266, Lr: 0.001 , 
 ,Threshold: 
[-0.051595017313957214, -0.055811066180467606, -0.06577420979738235, -0.0767822191119194, -0.05954672023653984, -0.04537816345691681, -0.07258418202400208, -0.05994705110788345, -0.055458955466747284, -0.06055357679724693, -0.05353178828954697, -0.06174590438604355, -0.07262881100177765, -0.0676729679107666, -0.06316889077425003, -0.0685947835445404, -0.06472653150558472, -0.061670925468206406, -0.05785242095589638, -0.06938445568084717, -0.06345787644386292, -0.056079570204019547, -0.04961923882365227, -0.07109472155570984, -0.0541500560939312, -0.055571191012859344, -0.05756114795804024, -0.05966300517320633, -0.05311604589223862, -0.052269551903009415, -0.04337586462497711, -0.04317890852689743, -0.07233620434999466, -0.04958976432681084, -0.045082975178956985, -0.06064152717590332, -0.06460889428853989, -0.07521981000900269, -0.05759608373045921, -0.0510823093354702, -0.05489122495055199, -0.06581681966781616, -0.07370805740356445, -0.054024286568164825, -0.07063507288694382, -0.05581841990351677, -0.0677432045340538, -0.0701918751001358, -0.07216014713048935, -0.046420369297266006, -0.06520047038793564, -0.03584519773721695, -0.04838912934064865, -0.06121649220585823, -0.05263971537351608, -0.06448531895875931, -0.0718105286359787, -0.049529701471328735, -0.0582711435854435, -0.05267234519124031, -0.06355442851781845, -0.06284485012292862, -0.04836885631084442, -0.08680799603462219, -0.06235729902982712, -0.05042879283428192, -0.04502660408616066, -0.05216977372765541, -0.06353440880775452, -0.06077667698264122, -0.08536868542432785, -0.0660017728805542, -0.054850053042173386, -0.048499178141355515, -0.06836733222007751, -0.06223577633500099, -0.06460025161504745, -0.0779019221663475, -0.0520835816860199, -0.04761479049921036, -0.06330297142267227, -0.053275611251592636, -0.06230473518371582, -0.056728847324848175, -0.0669863224029541, -0.047398511320352554, -0.07023333013057709, -0.07303345203399658, -0.07265287637710571, -0.06520688533782959, -0.05831105262041092, -0.08831089735031128, -0.05309560149908066, -0.07015948742628098, -0.0395737886428833, -0.042383477091789246, -0.04483281075954437, -0.06934960931539536, -0.06757936626672745, -0.06662169098854065, -0.06502904742956161, -0.0610165148973465, -0.044042933732271194, -0.05114145204424858, -0.07376653701066971, -0.043896570801734924, -0.05667251721024513, -0.05368868634104729, -0.06032674387097359, -0.05502864718437195, -0.05977889895439148, -0.04389099404215813, -0.07149837166070938, -0.06636156141757965, -0.05891045555472374, -0.04788613319396973, -0.0786832645535469, -0.045096248388290405, -0.04640248790383339, -0.06467641890048981, -0.05683731287717819, -0.07188573479652405, -0.0807507336139679, -0.06641799956560135, -0.05939507856965065, -0.055431243032217026, -0.053242769092321396, -0.07780013233423233, -0.06612813472747803, -0.06570129096508026, -0.06953375786542892, -0.06267381459474564, -0.06257118284702301, -0.06441617757081985, -0.06263179332017899, -0.05075393244624138, -0.06554428488016129, -0.07962387055158615, -0.04577866569161415, -0.06339764595031738, -0.06491139531135559, -0.046876270323991776, -0.07425452023744583, -0.04618383198976517, -0.06683610379695892, -0.05638730898499489, -0.058510247617959976, -0.0668913796544075, -0.04835329204797745, -0.07225723564624786, -0.042694900184869766, -0.048591867089271545, -0.0812499076128006, -0.05198206752538681, -0.06992478668689728, -0.0698704868555069, -0.049370065331459045, -0.05979069694876671, -0.05368709936738014, -0.07854844629764557, -0.06853228807449341, -0.055727653205394745, -0.056870657950639725, -0.05611506104469299, -0.05934389308094978, -0.06528714299201965, -0.05515078082680702, -0.0411350317299366, -0.07140932232141495, -0.050541650503873825, -0.08057735115289688, -0.07186325639486313, -0.04921244829893112, -0.08265244215726852, -0.06720355898141861, -0.051055725663900375, -0.08177562803030014, -0.06991307437419891, -0.05786605924367905, -0.0641864687204361, -0.05198637396097183, -0.06678943336009979, -0.05941404029726982, -0.0675184354186058, -0.06905805319547653, -0.06744954735040665, -0.06284423172473907, -0.07084059715270996, -0.055113088339567184, -0.05819544196128845, -0.08228456974029541, -0.04242619499564171, -0.06368809193372726, -0.05395112186670303, -0.07245852053165436, -0.037017159163951874, -0.04399370029568672, -0.06941619515419006, -0.07437943667173386, -0.0599210225045681, -0.07465996593236923, -0.04931432008743286, -0.055233184248209, -0.06599882990121841, -0.06592976301908493, -0.06406007707118988, -0.07285542786121368, -0.07792036980390549, -0.05974973365664482, -0.0604601725935936, -0.07519301027059555, -0.07015649974346161, -0.07063860446214676, -0.06019371747970581, -0.09124061465263367, -0.06539415568113327, -0.06792362034320831, -0.05818944424390793, -0.08085222542285919, -0.06403256207704544, -0.07076796889305115, -0.08121608942747116, -0.06503205001354218, -0.06457642465829849, -0.05779319256544113, -0.05670023709535599, -0.04922708868980408, -0.05980740860104561, -0.06232687458395958, -0.07313715666532516, -0.0684211477637291, -0.0788278579711914, -0.05786607041954994, -0.049417007714509964, -0.08196782320737839, -0.0617368258535862, -0.07280520349740982, -0.06090623512864113, -0.05624713376164436, -0.08348413556814194, -0.06678364425897598, -0.0579415000975132, -0.06257964670658112, -0.06329464912414551, -0.06567816436290741, -0.06903930008411407, -0.06641943752765656, -0.060814324766397476, -0.08003532886505127, -0.051312945783138275, -0.06426463276147842, -0.06827747821807861, -0.06931092590093613, -0.055763162672519684, -0.08148880302906036, -0.05142887681722641, -0.0744439959526062, -0.05564946308732033, -0.07262807339429855, -0.07422326505184174, -0.06841027736663818, -0.07442599534988403, -0.05971908941864967, -0.06599664688110352, -0.0649358481168747, -0.0684140995144844, -0.06170419603586197, -0.06572981923818588, -0.0784563347697258, -0.06367809325456619, -0.051966845989227295, -0.06613367050886154, -0.07336372137069702, -0.07088315486907959, -0.06914881616830826, -0.07346680760383606, -0.06889592111110687, -0.07271058857440948, -0.06550761312246323, -0.07437437027692795, -0.06527495384216309, -0.0645824745297432, -0.0753256231546402, -0.037501994520425797, -0.04846850037574768, -0.023776089772582054, -0.0017725036013871431, 0.025875184684991837, 0.03765745833516121, 0.05002792924642563, 0.05339209362864494, 0.050252195447683334, 0.055519528687000275, 0.05183930695056915, 0.05697876587510109, 0.062522754073143, 0.04415774717926979, 0.062227364629507065, 0.06405073404312134, 0.04258621856570244, 0.03305067867040634, 0.06140648573637009, 0.044901713728904724, 0.061802659183740616, 0.04945192486047745, 0.06889025866985321, 0.07037776708602905, 0.05885984003543854, 0.04029688611626625, 0.059986989945173264, 0.047606561332941055, 0.04738549143075943, 0.05936319753527641, 0.045476291328668594, 0.06410596519708633, 0.052459247410297394, 0.0433182455599308, 0.05408741533756256, 0.04572016000747681, 0.06981081515550613] 
 , Step size: 
 [-0.059137873351573944, -0.0645546168088913, -0.06361725926399231, -0.0723530575633049, -0.0725807324051857, -0.06124809756875038, -0.05016086623072624, -0.06946885585784912, -0.05255565419793129, -0.05542523413896561, -0.062253523617982864, -0.052347857505083084, -0.06493240594863892, -0.04790959507226944, -0.05089511349797249, -0.047291286289691925, -0.050398170948028564, -0.056597769260406494, -0.050680242478847504, -0.06415962427854538, -0.055426839739084244, -0.04496678337454796, -0.05371002107858658, -0.0521983802318573, -0.04854860156774521, -0.04607607424259186, -0.06701536476612091, -0.057110629975795746, -0.049491576850414276, -0.05226404592394829, -0.05341167375445366, -0.03524615988135338, -0.06295816600322723, -0.06645964831113815, -0.07033853232860565, -0.02486562170088291, -0.06735385954380035, -0.05003614351153374, -0.06631834805011749, -0.06877308338880539, -0.052533768117427826, -0.05091853067278862, -0.04903345927596092, -0.07009156048297882, -0.05810633674263954, -0.05948774889111519, -0.04997020587325096, -0.04267821088433266, -0.05558418855071068, -0.05643737316131592, -0.07200825959444046, -0.026718618348240852, -0.0439881756901741, -0.045549385249614716, -0.03277498111128807, -0.05527835339307785, -0.037137992680072784, -0.05218803882598877, -0.04652391001582146, -0.05458671599626541, -0.06874021887779236, -0.03396368399262428, -0.07282765954732895, -0.048555176705121994, -0.046259842813014984, -0.04568864032626152, -0.04672585800290108, -0.0327044352889061, -0.058216940611600876, -0.06849689781665802, -0.05155137926340103, -0.035064902156591415, -0.05908183008432388, -0.04181624576449394, -0.0474824532866478, -0.06194985657930374, -0.056249380111694336, -0.055247947573661804, -0.030208095908164978, -0.06396425515413284, -0.04639497399330139, -0.04806600883603096, -0.02437463216483593, -0.04646339640021324, -0.030317772179841995, -0.038314878940582275, -0.011495539918541908, -0.013957807794213295, -0.03824238479137421, -0.028062263503670692, -0.018741218373179436, -0.028454268351197243, -0.016094639897346497, -0.02296995371580124, -0.014650913886725903, 0.004014996811747551, 0.0070785232819616795, -0.004834417719393969, 0.0149921253323555, 0.012276536785066128, 0.013472658582031727, 0.033375341445207596, 0.013072297908365726, 0.017134834080934525, 0.03351159021258354, 0.016651295125484467, 0.02811787836253643, 0.039554987102746964, 0.029532253742218018, 0.0393214114010334, 0.013120932504534721, 0.03063114359974861, 0.034268345683813095, 0.04199201986193657, 0.03182605654001236, 0.034109123051166534, 0.03195486590266228, 0.04651036486029625, 0.02882479317486286, 0.01697363890707493, 0.020741358399391174, 0.01358153484761715, 0.03257458657026291, 0.04063495248556137, 0.04952385649085045, 0.022702764719724655, 0.045579422265291214, 0.022880563512444496, 0.042413823306560516, 0.028109202161431313, 0.03765871375799179, 0.02961285039782524, 0.03971800580620766, 0.032900769263505936, 0.03339160233736038, 0.03640606626868248, 0.03667853772640228, 0.027773285284638405, 0.043259356170892715, 0.026974640786647797, 0.015002349391579628, 0.0063001057133078575, 0.036796826869249344, 0.03633676469326019, 0.03988433629274368, 0.028050601482391357, 0.006419329904019833, 0.015480391681194305, 0.04695802927017212, 0.013777881860733032, 0.022937174886465073, 0.025664733722805977, 0.014693177305161953, -0.015818409621715546, 0.02673613466322422, 0.012868378311395645, 0.01996546983718872, 0.0029940761160105467, -0.013963257893919945, 0.01143359299749136, -0.005268312990665436, 0.005603991914540529, -0.029286378994584084, 0.0030695023015141487, -0.0077749378979206085, -0.012411445379257202, 0.007811498828232288, -0.004315081052482128, -0.007230960763990879, -0.005293393973261118, -0.025764305144548416, -0.009863749146461487, 0.0016989094438031316, -0.0030067104380577803, 0.0018732663011178374, -0.010554887354373932, -0.005209410563111305, -0.003224381012842059, -0.018515173345804214, -0.04224233701825142, -0.01568576693534851, -0.03661665692925453, -0.03181328997015953, -0.028537888079881668, -0.013081973418593407, -0.029120897874236107, 0.0011454288614913821, -0.01914960891008377, -0.020780686289072037, -0.007191769778728485, -0.021059032529592514, -0.03809821233153343, -0.01633652113378048, -0.011201432906091213, -0.021016797050833702, -0.041893087327480316, -0.025401940569281578, -0.029458872973918915, -0.024394439533352852, -0.01468722615391016, -0.031212978065013885, -0.04178055375814438, -0.03763103112578392, -0.012852765619754791, -0.02811666764318943, -0.03258837014436722, -0.03105495311319828, 0.00423296308144927, -0.02256736531853676, 0.003147647250443697, -0.025055237114429474, -0.0202958807349205, -0.015069917775690556, -0.02771662175655365, -0.022311603650450706, -0.03151033818721771, -0.03445921093225479, -0.007799302227795124, -0.02862974815070629, -0.03367602825164795, -0.019119851291179657, -0.028139924630522728, -0.04749875143170357, -0.05108233913779259, -0.04396146535873413, -0.04796525090932846, -0.043134286999702454, -0.04419942945241928, -0.030169814825057983, -0.034026309847831726, -0.03030516766011715, -0.039909522980451584, -0.036265913397073746, -0.04377962276339531, -0.04825558513402939, -0.019567009061574936, -0.034484464675188065, -0.04050007462501526, -0.010856869630515575, -0.02612733468413353, -0.021880628541111946, -0.029662717133760452, -0.04677662253379822, -0.025152523070573807, -0.027785925194621086, -0.040386173874139786, -0.02584625594317913, -0.03525193780660629, -0.05371755361557007, -0.04609999805688858, -0.03556240350008011, -0.04882393032312393, -0.036856796592473984, -0.044608309864997864, -0.05180549994111061, -0.04204391688108444, -0.05154445394873619, -0.03518835827708244, -0.02724505215883255, -0.05218354985117912, -0.04273059219121933, -0.027126071974635124, -0.027130505070090294, -0.03495562821626663, -0.03770698979496956, -0.06434503197669983, -0.04451022297143936, -0.05487680435180664, -0.036971598863601685, -0.048802126199007034, -0.050890833139419556, -0.03313440829515457, -0.05117278918623924, -0.04448237270116806, -0.04327258840203285, -0.05179697647690773, -0.042725030332803726, -0.04172096773982048, -0.04022877290844917, -0.061084941029548645, -0.060924552381038666, -0.06504380702972412, -0.051938239485025406, -0.05194583535194397, -0.06671973317861557, -0.056465841829776764, -0.06100503355264664, -0.0653940811753273, -0.059550125151872635, -0.049786653369665146, -0.06472917646169662, -0.061420541256666183, -0.031690891832113266, -0.0671491026878357, -0.06797166168689728, -0.048494983464479446, -0.07095569372177124, -0.05357586592435837, -0.06602462381124496, -0.05549820512533188, -0.06694527715444565, -0.05298379808664322, -0.060798369348049164, -0.05874458700418472, -0.05802595242857933, -0.06042256951332092, -0.0658927708864212, -0.06546790152788162, -0.06757166236639023, -0.07015646249055862, -0.06339261680841446, -0.0724930465221405, -0.06249208375811577, -0.055387090891599655, -0.05234251916408539, -0.06549886614084244, -0.040142081677913666, -0.05603142827749252, -0.051570117473602295, -0.0388004407286644]