Epoch: 25-3, Loss: 0.007235336117446423, Lr: 0.001 , 
 ,Threshold: 
[-0.2251986563205719, -0.22834375500679016, -0.2381061166524887, -0.2488883137702942, -0.23104111850261688, -0.21738798916339874, -0.24476906657218933, -0.23196853697299957, -0.22740614414215088, -0.2321794182062149, -0.224876269698143, -0.23337529599666595, -0.2446705549955368, -0.23997905850410461, -0.23557479679584503, -0.24098122119903564, -0.23726315796375275, -0.23422449827194214, -0.2302929013967514, -0.24181360006332397, -0.23583415150642395, -0.22850368916988373, -0.22201259434223175, -0.2433442920446396, -0.22611960768699646, -0.2271798551082611, -0.22875967621803284, -0.23080728948116302, -0.2242470681667328, -0.22351855039596558, -0.21488167345523834, -0.21491551399230957, -0.24423570930957794, -0.22165173292160034, -0.21725347638130188, -0.2328140288591385, -0.2367158979177475, -0.24742703139781952, -0.22981901466846466, -0.2233584076166153, -0.22719696164131165, -0.2381446212530136, -0.24601736664772034, -0.22621473670005798, -0.24307961761951447, -0.22841504216194153, -0.24042251706123352, -0.242939755320549, -0.24499839544296265, -0.21936500072479248, -0.23825354874134064, -0.2091224491596222, -0.2217123657464981, -0.23461805284023285, -0.22612883150577545, -0.23807308077812195, -0.2455063909292221, -0.22338011860847473, -0.23224465548992157, -0.22672472894191742, -0.23769733309745789, -0.23700040578842163, -0.22255462408065796, -0.2610083520412445, -0.23660808801651, -0.2246052622795105, -0.21914617717266083, -0.2262507528066635, -0.23754626512527466, -0.23471258580684662, -0.25922468304634094, -0.2397724688053131, -0.22852127254009247, -0.22208794951438904, -0.24185679852962494, -0.23565898835659027, -0.2379397302865982, -0.2511688470840454, -0.22524701058864594, -0.22064974904060364, -0.23619845509529114, -0.22601217031478882, -0.23496191203594208, -0.22927504777908325, -0.23940818011760712, -0.219650536775589, -0.24241867661476135, -0.2449977546930313, -0.2444598525762558, -0.23684602975845337, -0.22972333431243896, -0.25945043563842773, -0.2238786816596985, -0.2404693216085434, -0.20938673615455627, -0.21189652383327484, -0.21412409842014313, -0.23840564489364624, -0.2363366335630417, -0.23511362075805664, -0.23320163786411285, -0.22874926030635834, -0.2113291472196579, -0.21825368702411652, -0.24077437818050385, -0.21046514809131622, -0.22323253750801086, -0.2202078253030777, -0.22678087651729584, -0.22137384116649628, -0.2259935885667801, -0.20999698340892792, -0.2376202642917633, -0.23249174654483795, -0.2250608652830124, -0.21407675743103027, -0.2449866533279419, -0.21151083707809448, -0.21285638213157654, -0.2310580313205719, -0.222963348031044, -0.23758018016815186, -0.24711483716964722, -0.23238632082939148, -0.2254246175289154, -0.22151008248329163, -0.2193090170621872, -0.24403953552246094, -0.23255564272403717, -0.2323514223098755, -0.2364390343427658, -0.22987477481365204, -0.22998309135437012, -0.23206783831119537, -0.23065419495105743, -0.21921420097351074, -0.23425324261188507, -0.24859954416751862, -0.2150491327047348, -0.23296454548835754, -0.23467616736888885, -0.21660828590393066, -0.2442823052406311, -0.21574121713638306, -0.23634222149848938, -0.2255226969718933, -0.2272423654794693, -0.23575317859649658, -0.2173275351524353, -0.2413862645626068, -0.21200180053710938, -0.2180754542350769, -0.25074079632759094, -0.22145402431488037, -0.2404879331588745, -0.2397831380367279, -0.219440296292305, -0.23005813360214233, -0.22405259311199188, -0.25010910630226135, -0.23952016234397888, -0.22689281404018402, -0.22828085720539093, -0.22776275873184204, -0.23122040927410126, -0.23728987574577332, -0.22725079953670502, -0.2133861482143402, -0.24378454685211182, -0.22306135296821594, -0.2532285749912262, -0.24456855654716492, -0.2219785749912262, -0.25627076625823975, -0.24034996330738068, -0.22433185577392578, -0.255586713552475, -0.2439703643321991, -0.23240679502487183, -0.23891928791999817, -0.22689156234264374, -0.24192441999912262, -0.23476910591125488, -0.2429286241531372, -0.24444380402565002, -0.24290591478347778, -0.23829025030136108, -0.24627476930618286, -0.23060546815395355, -0.23377126455307007, -0.2579581141471863, -0.21820633113384247, -0.2395676225423813, -0.22993160784244537, -0.24862040579319, -0.21344782412052155, -0.22065182030200958, -0.24621306359767914, -0.2514176070690155, -0.23715516924858093, -0.2521902024745941, -0.22723504900932312, -0.23352672159671783, -0.24404773116111755, -0.24428513646125793, -0.24244873225688934, -0.25126922130584717, -0.2550315260887146, -0.23822033405303955, -0.23888841271400452, -0.2536628842353821, -0.2486152946949005, -0.2490822672843933, -0.2386646419763565, -0.2685472369194031, -0.2437562793493271, -0.24633771181106567, -0.2366536259651184, -0.2593771815299988, -0.24273264408111572, -0.24965859949588776, -0.2603794038295746, -0.2443544566631317, -0.2441258728504181, -0.23744842410087585, -0.2363738715648651, -0.22883132100105286, -0.23934496939182281, -0.24181729555130005, -0.2525511085987091, -0.24776625633239746, -0.2581794261932373, -0.23723408579826355, -0.22880367934703827, -0.2613483667373657, -0.2411383092403412, -0.2522605061531067, -0.24041342735290527, -0.23567859828472137, -0.2612536549568176, -0.24577613174915314, -0.23682405054569244, -0.2413419783115387, -0.24190454185009003, -0.244113489985466, -0.2472580522298813, -0.24442453682422638, -0.2387073040008545, -0.25777649879455566, -0.22888311743736267, -0.24124693870544434, -0.24457718431949615, -0.2447851002216339, -0.23027439415454865, -0.25477907061576843, -0.223261758685112, -0.24436983466148376, -0.22327816486358643, -0.23569181561470032, -0.2357347160577774, -0.22620657086372375, -0.22694161534309387, -0.20766253769397736, -0.20787420868873596, -0.1998453587293625, -0.19575902819633484, -0.18040499091148376, -0.1749684363603592, -0.1763157993555069, -0.15077492594718933, -0.12716549634933472, -0.12799395620822906, -0.12229527533054352, -0.1056223064661026, -0.08875984698534012, -0.07702960819005966, -0.05479541793465614, -0.03864211216568947, -0.008418893441557884, 0.009187132120132446, 0.05021197721362114, 0.08850684016942978, 0.12404630333185196, 0.21588832139968872, 0.2615529000759125, 0.33738988637924194, 0.389191210269928, 0.42147940397262573, 0.42613697052001953, 0.4284278154373169, 0.42206108570098877, 0.40946146845817566, 0.4058239758014679, 0.39345264434814453, 0.390278160572052, 0.387507826089859, 0.36128711700439453, 0.37144437432289124, 0.36549094319343567, 0.33633360266685486, 0.3188585937023163, 0.33868715167045593, 0.3129638135433197, 0.32279738783836365, 0.3008384704589844, 0.31674322485923767, 0.3141622543334961, 0.30193981528282166, 0.2689930200576782, 0.29175543785095215, 0.2683457136154175, 0.2733438313007355, 0.28877773880958557, 0.2679173946380615, 0.2932949960231781, 0.28622695803642273, 0.279762864112854, 0.2927321493625641, 0.2892487347126007, 0.3177603483200073] 
 , Step size: 
 [-0.22720859944820404, -0.23397031426429749, -0.23354437947273254, -0.24274304509162903, -0.24496741592884064, -0.2320040911436081, -0.21997720003128052, -0.23969726264476776, -0.22299012541770935, -0.2274746596813202, -0.23624999821186066, -0.22509649395942688, -0.23500913381576538, -0.21588268876075745, -0.21783903241157532, -0.21397773921489716, -0.21573105454444885, -0.2215241938829422, -0.2163020223379135, -0.22979645431041718, -0.22157146036624908, -0.21069833636283875, -0.21968252956867218, -0.2193351536989212, -0.21787138283252716, -0.2184276133775711, -0.24258354306221008, -0.23373444378376007, -0.2264866828918457, -0.22753682732582092, -0.22510848939418793, -0.2035338133573532, -0.22847354412078857, -0.22912882268428802, -0.2309924215078354, -0.18555401265621185, -0.22797226905822754, -0.20879106223583221, -0.22368954122066498, -0.22572259604930878, -0.20930945873260498, -0.2077724039554596, -0.2060248702764511, -0.22704251110553741, -0.21167100965976715, -0.210524320602417, -0.19928225874900818, -0.1906510442495346, -0.20196671783924103, -0.20023442804813385, -0.21303901076316833, -0.16396167874336243, -0.18088197708129883, -0.18211513757705688, -0.16910874843597412, -0.19068795442581177, -0.1717735379934311, -0.18542982637882233, -0.17886650562286377, -0.18621540069580078, -0.19950617849826813, -0.16537457704544067, -0.20456981658935547, -0.18088170886039734, -0.1785503327846527, -0.17914576828479767, -0.1811848282814026, -0.16767972707748413, -0.19403113424777985, -0.20520654320716858, -0.18916954100131989, -0.17350810766220093, -0.19840461015701294, -0.1818685084581375, -0.18860195577144623, -0.20365986227989197, -0.19878366589546204, -0.1983870416879654, -0.17415791749954224, -0.20874632894992828, -0.19153571128845215, -0.19246527552604675, -0.16929717361927032, -0.19207777082920074, -0.17674437165260315, -0.18558523058891296, -0.15868254005908966, -0.16061709821224213, -0.18513472378253937, -0.17454156279563904, -0.1653541773557663, -0.17458920180797577, -0.16057464480400085, -0.16312231123447418, -0.1485927402973175, -0.12450309097766876, -0.11945487558841705, -0.13223324716091156, -0.1128469705581665, -0.11484239250421524, -0.1108173355460167, -0.08592004328966141, -0.09823539108037949, -0.09080623835325241, -0.07553719729185104, -0.07915246486663818, -0.06447461992502213, -0.051318828016519547, -0.059282198548316956, -0.0466165654361248, -0.06907965987920761, -0.048738304525613785, -0.04230634495615959, -0.03067191131412983, -0.034991294145584106, -0.02889438532292843, -0.027772139757871628, -0.008520490489900112, -0.021094707772135735, -0.02805408649146557, -0.017642632126808167, -0.018948949873447418, -0.005644688382744789, 0.009904671460390091, 0.021247169002890587, -0.003462838474661112, 0.020784465596079826, -0.0007798743317835033, 0.02013387717306614, 0.007866323925554752, 0.01886770874261856, 0.012426372617483139, 0.02540716715157032, 0.02100289613008499, 0.0243033766746521, 0.030359499156475067, 0.033443279564380646, 0.026769230142235756, 0.04522128775715828, 0.03231114149093628, 0.023737603798508644, 0.01836845465004444, 0.0480443499982357, 0.051380883902311325, 0.05560944229364395, 0.044143322855234146, 0.02181912213563919, 0.03127666562795639, 0.06240822374820709, 0.02902018092572689, 0.03738033026456833, 0.038681089878082275, 0.027544667944312096, -0.003109969198703766, 0.03980042785406113, 0.025286849588155746, 0.0324055552482605, 0.015719320625066757, -0.001748139038681984, 0.024377455934882164, 0.009030771441757679, 0.020384706556797028, -0.014756212942302227, 0.019313134253025055, 0.01000838354229927, 0.006500487215816975, 0.027760643512010574, 0.017494795843958855, 0.015149139799177647, 0.017899641767144203, -0.0013081408105790615, 0.014315920881927013, 0.025863204151391983, 0.018959853798151016, 0.026428868994116783, 0.014571744948625565, 0.0195172019302845, 0.022514570504426956, 0.006922522094100714, -0.01757398620247841, 0.008561397902667522, -0.011191355995833874, -0.00414985790848732, -0.0011291838018223643, 0.013285564258694649, -0.003910335712134838, 0.02463061362504959, 0.002013762481510639, -0.001324209850281477, 0.011005222797393799, -0.004235295113176107, -0.023123806342482567, -0.004101254511624575, -0.002663999330252409, -0.016094936057925224, -0.04014883190393448, -0.025497492402791977, -0.029630202800035477, -0.024097014218568802, -0.014380935579538345, -0.0301798265427351, -0.03943246603012085, -0.03400518745183945, -0.012409670278429985, -0.02488740161061287, -0.028949178755283356, -0.027012156322598457, 0.0037572733126580715, -0.02055574581027031, 0.00482904864475131, -0.023852717131376266, -0.020075278356671333, -0.01602226123213768, -0.02954971417784691, -0.02711137942969799, -0.03527648374438286, -0.03865589573979378, -0.013228568248450756, -0.035434525460004807, -0.04109754040837288, -0.027349675074219704, -0.03678493574261665, -0.05768527463078499, -0.06208769977092743, -0.05588816478848457, -0.061225514858961105, -0.05822279304265976, -0.06055764481425285, -0.047807544469833374, -0.0532660074532032, -0.05134326592087746, -0.06161932647228241, -0.05871385708451271, -0.0671004056930542, -0.0731731504201889, -0.04640653729438782, -0.06290929764509201, -0.07100522518157959, -0.04305202141404152, -0.06219877302646637, -0.0581994391977787, -0.06828811764717102, -0.0880739614367485, -0.06942582130432129, -0.07546181231737137, -0.09205252677202225, -0.08131568133831024, -0.09345855563879013, -0.11473561823368073, -0.10944826900959015, -0.10462494939565659, -0.12428602576255798, -0.11986346542835236, -0.13588488101959229, -0.15238891541957855, -0.15239009261131287, -0.1730547845363617, -0.16848836839199066, -0.18740230798721313, -0.21335016191005707, -0.21746589243412018, -0.22275739908218384, -0.23205779492855072, -0.2545970380306244, -0.27163034677505493, -0.31147414445877075, -0.3047010004520416, -0.32698872685432434, -0.3272491693496704, -0.34381598234176636, -0.35424908995628357, -0.3493095934391022, -0.3745063543319702, -0.3763465881347656, -0.382700115442276, -0.3977172374725342, -0.39429715275764465, -0.3981296420097351, -0.400539368391037, -0.42434221506118774, -0.4264971911907196, -0.43276771903038025, -0.42130526900291443, -0.42249181866645813, -0.43825453519821167, -0.42885011434555054, -0.4339638948440552, -0.43835991621017456, -0.43147996068000793, -0.4197085201740265, -0.43229490518569946, -0.4259397089481354, -0.39280301332473755, -0.42422789335250854, -0.42056453227996826, -0.3960363566875458, -0.41345512866973877, -0.39071789383888245, -0.3975774049758911, -0.3815920948982239, -0.38693317770957947, -0.3660401701927185, -0.36630797386169434, -0.3580392599105835, -0.35227978229522705, -0.3514353036880493, -0.35289081931114197, -0.354739248752594, -0.3586329221725464, -0.36324286460876465, -0.3488020598888397, -0.36258187890052795, -0.3557180166244507, -0.3423484265804291, -0.3453126549720764, -0.3627816140651703, -0.34411898255348206, -0.36000117659568787, -0.3598507344722748, -0.3511090874671936]