Epoch: 5-3, Loss: 27.003948211669922, Lr: 0.001 , 
 ,Threshold: 
[-0.2251926064491272, -0.22833780944347382, -0.23810023069381714, -0.248882457613945, -0.2310352921485901, -0.21738211810588837, -0.24476319551467896, -0.2319626808166504, -0.2274003028869629, -0.2321735918521881, -0.2248704433441162, -0.23336946964263916, -0.24466471374034882, -0.23997312784194946, -0.2355688512325287, -0.2409752756357193, -0.2372572124004364, -0.2342185527086258, -0.23028695583343506, -0.24180765450000763, -0.2358282208442688, -0.22849775850772858, -0.2220066785812378, -0.2433384209871292, -0.22611373662948608, -0.22717399895191193, -0.22875383496284485, -0.23080146312713623, -0.224241241812706, -0.22351272404193878, -0.21487584710121155, -0.21490968763828278, -0.24422988295555115, -0.22164589166641235, -0.2172476202249527, -0.2328081578016281, -0.23671001195907593, -0.24742110073566437, -0.2298130840063095, -0.22335246205329895, -0.2271910160779953, -0.23813867568969727, -0.246011421084404, -0.22620879113674164, -0.24307367205619812, -0.22840909659862518, -0.24041657149791718, -0.24293380975723267, -0.2449924498796463, -0.21935904026031494, -0.2382475882768631, -0.20911648869514465, -0.22170640528202057, -0.23461207747459412, -0.22612284123897552, -0.23806709051132202, -0.24550040066242218, -0.2233741134405136, -0.23223865032196045, -0.2267187088727951, -0.23769129812717438, -0.23699437081813812, -0.22254858911037445, -0.26100239157676697, -0.2366020381450653, -0.2245991975069046, -0.21914011240005493, -0.22624467313289642, -0.23754018545150757, -0.23470650613307953, -0.259218692779541, -0.23976638913154602, -0.22851519286632538, -0.22208186984062195, -0.24185071885585785, -0.23565290868282318, -0.23793365061283112, -0.2511628568172455, -0.22524093091487885, -0.22064366936683655, -0.23619237542152405, -0.22600610554218292, -0.23495584726333618, -0.22926898300647736, -0.23940213024616241, -0.2196444869041443, -0.24241264164447784, -0.2449917197227478, -0.2444538176059723, -0.23683999478816986, -0.22971732914447784, -0.2594444751739502, -0.22387272119522095, -0.24046336114406586, -0.20938079059123993, -0.2118905782699585, -0.21411815285682678, -0.2383996993303299, -0.23633070290088654, -0.23510770499706268, -0.23319576680660248, -0.22874340415000916, -0.2113233059644699, -0.21824784576892853, -0.24076855182647705, -0.21045932173728943, -0.22322671115398407, -0.2202019989490509, -0.22677505016326904, -0.22136802971363068, -0.2259877771139145, -0.20999117195606232, -0.2376144677400589, -0.23248594999313354, -0.22505506873130798, -0.21407097578048706, -0.24498087167739868, -0.21150507032871246, -0.21285061538219452, -0.23105226457118988, -0.22295762598514557, -0.2375744879245758, -0.24710911512374878, -0.23238062858581543, -0.22541892528533936, -0.22150439023971558, -0.21930333971977234, -0.24403385818004608, -0.23254996538162231, -0.23234574496746063, -0.23643335700035095, -0.22986909747123718, -0.22997741401195526, -0.23206216096878052, -0.23064853250980377, -0.21920855343341827, -0.2342475950717926, -0.24859389662742615, -0.21504348516464233, -0.23295889794826508, -0.23467053472995758, -0.21660269796848297, -0.24427670240402222, -0.21573562920093536, -0.2363366335630417, -0.225517138838768, -0.2272368222475052, -0.23574763536453247, -0.2173219919204712, -0.2413807213306427, -0.21199625730514526, -0.2180699110031128, -0.25073525309562683, -0.22144848108291626, -0.2404823750257492, -0.2397775948047638, -0.21943475306034088, -0.23005259037017822, -0.22404704988002777, -0.25010356307029724, -0.23951461911201477, -0.2268872708082199, -0.22827531397342682, -0.22775721549987793, -0.23121486604213715, -0.2372843325138092, -0.2272452563047409, -0.2133806049823761, -0.2437790036201477, -0.22305579483509064, -0.2532230317592621, -0.24456296861171722, -0.2219729870557785, -0.25626522302627563, -0.24034437537193298, -0.2243262678384781, -0.25558117032051086, -0.2439647614955902, -0.23240114748477936, -0.2389136403799057, -0.22688591480255127, -0.24191875755786896, -0.23476345837116241, -0.24292296171188354, -0.24443812668323517, -0.24290023744106293, -0.23828455805778503, -0.24626906216144562, -0.23059973120689392, -0.23376549780368805, -0.25795242190361023, -0.21820054948329926, -0.23956182599067688, -0.22992579638957977, -0.2486145794391632, -0.21344198286533356, -0.2206459492444992, -0.24620719254016876, -0.25141170620918274, -0.23714928328990936, -0.25218430161476135, -0.22722917795181274, -0.23352083563804626, -0.2440417855978012, -0.24427920579910278, -0.2424428015947342, -0.2512633204460144, -0.25502562522888184, -0.2382143884897232, -0.23888246715068817, -0.25365695357322693, -0.24860933423042297, -0.24907630681991577, -0.23865865170955658, -0.26854127645492554, -0.24375028908252716, -0.24633169174194336, -0.2366475909948349, -0.25937119126319885, -0.24272656440734863, -0.24965249001979828, -0.26037341356277466, -0.24434831738471985, -0.24411973357200623, -0.237442284822464, -0.23636773228645325, -0.2288251668214798, -0.23933883011341095, -0.24181115627288818, -0.2525450587272644, -0.2477601170539856, -0.258173406124115, -0.23722796142101288, -0.22879758477210999, -0.2613423764705658, -0.24113231897354126, -0.25225457549095154, -0.2404075711965561, -0.23567278683185577, -0.26124808192253113, -0.24577054381370544, -0.23681853711605072, -0.24133668839931488, -0.24189943075180054, -0.24410858750343323, -0.2472534328699112, -0.24442027509212494, -0.2387034147977829, -0.25777310132980347, -0.22888022661209106, -0.24124470353126526, -0.24457572400569916, -0.24478456377983093, -0.23027484118938446, -0.25478073954582214, -0.22326502203941345, -0.2443748265504837, -0.22328521311283112, -0.23570118844509125, -0.2357468456029892, -0.22622188925743103, -0.22696052491664886, -0.2076857089996338, -0.20790205895900726, -0.19987834990024567, -0.19579735398292542, -0.18044918775558472, -0.17501841485500336, -0.17637145519256592, -0.15083616971969604, -0.12723161280155182, -0.12806420028209686, -0.12236884236335754, -0.10569830238819122, -0.08883751928806305, -0.07710817456245422, -0.05487443879246712, -0.0387212298810482, -0.0084977513179183, 0.009108802303671837, 0.05013436824083328, 0.08843005448579788, 0.12397043406963348, 0.21581347286701202, 0.2614791691303253, 0.3373173773288727, 0.3891200125217438, 0.4214105010032654, 0.4260713458061218, 0.428365558385849, 0.4220016896724701, 0.4094046950340271, 0.4057697355747223, 0.3934009373188019, 0.39022892713546753, 0.38746097683906555, 0.361242413520813, 0.37140169739723206, 0.36545029282569885, 0.33629435300827026, 0.31882157921791077, 0.3386521339416504, 0.31292974948883057, 0.3227657377719879, 0.3006982207298279, 0.3166079819202423, 0.31403303146362305, 0.30110782384872437, 0.22755314409732819, 0.2478475123643875, 0.2184070199728012, 0.21955102682113647, 0.23231089115142822, 0.208535298705101, 0.2312009036540985, 0.22219964861869812, 0.2084134966135025, 0.2233167439699173, 0.2197357416152954, 0.24842780828475952] 
 , Step size: 
 [-0.22720280289649963, -0.23396436870098114, -0.23353829979896545, -0.24273689091205597, -0.24496111273765564, -0.23199787735939026, -0.21997100114822388, -0.23969098925590515, -0.22298379242420197, -0.22746819257736206, -0.23624339699745178, -0.22508981823921204, -0.23500266671180725, -0.21587641537189484, -0.21783283352851868, -0.2139715850353241, -0.215724915266037, -0.22151806950569153, -0.21629588305950165, -0.22979030013084412, -0.22156518697738647, -0.21069201827049255, -0.21967610716819763, -0.21932868659496307, -0.21786484122276306, -0.21842089295387268, -0.24257667362689972, -0.23372744023799896, -0.22647951543331146, -0.2275296002626419, -0.22510115802288055, -0.2035265564918518, -0.22846636176109314, -0.22912181913852692, -0.2309856116771698, -0.185547336935997, -0.22796568274497986, -0.20878461003303528, -0.22368314862251282, -0.22571638226509094, -0.20930331945419312, -0.2077663391828537, -0.2060188353061676, -0.2270365059375763, -0.21166515350341797, -0.2105184942483902, -0.19927646219730377, -0.1906452775001526, -0.20196104049682617, -0.20022885501384735, -0.21303348243236542, -0.16395631432533264, -0.18087667226791382, -0.18210986256599426, -0.1691035032272339, -0.19068272411823273, -0.17176833748817444, -0.18542470037937164, -0.17886142432689667, -0.18621036410331726, -0.19950120151042938, -0.16536962985992432, -0.20456495881080627, -0.18087689578533173, -0.17854560911655426, -0.1791410744190216, -0.18118014931678772, -0.16767506301403046, -0.19402648508548737, -0.2052018940448761, -0.1891649216413498, -0.17350348830223083, -0.19839999079704285, -0.1818639039993286, -0.18859738111495972, -0.20365533232688904, -0.1987791508436203, -0.19838254153728485, -0.1741534173488617, -0.20874182879924774, -0.1915312260389328, -0.1924608051776886, -0.16929271817207336, -0.19207334518432617, -0.1767399162054062, -0.1855807602405548, -0.15867803990840912, -0.16061261296272278, -0.18513023853302002, -0.1745370626449585, -0.16534964740276337, -0.17458467185497284, -0.16057008504867554, -0.16311778128147125, -0.14858825504779816, -0.12449868768453598, -0.11945049464702606, -0.13222886621952057, -0.11284254491329193, -0.11483794450759888, -0.11081290990114212, -0.08591566979885101, -0.09823115915060043, -0.09080202132463455, -0.07553287595510483, -0.07914844900369644, -0.06447063386440277, -0.051314827054739, -0.059278201311826706, -0.046612586826086044, -0.06907571852207184, -0.048734381794929504, -0.04230241850018501, -0.030667999759316444, -0.034987423568964005, -0.02889053151011467, -0.02776828221976757, -0.008516649715602398, -0.02109091728925705, -0.02805035375058651, -0.017639046534895897, -0.01894558221101761, -0.005641014780849218, 0.009908104315400124, 0.02125057578086853, -0.003459456143900752, 0.020787809044122696, -0.0007765103946439922, 0.020137248560786247, 0.007869705557823181, 0.01887109875679016, 0.012429743073880672, 0.025410570204257965, 0.021006356924772263, 0.02430691011250019, 0.030363082885742188, 0.033446963876485825, 0.026772938668727875, 0.045224934816360474, 0.03231479972600937, 0.023741304874420166, 0.018372097983956337, 0.04804808646440506, 0.051384441554546356, 0.05561300367116928, 0.044146809726953506, 0.02182246372103691, 0.03128005936741829, 0.062411755323410034, 0.029023779556155205, 0.03738396614789963, 0.03868470340967178, 0.02754831127822399, -0.0031063412316143513, 0.039804406464099884, 0.025290612131357193, 0.03240933269262314, 0.015723107382655144, -0.0017443373799324036, 0.024381672963500023, 0.00903472863137722, 0.020388685166835785, -0.014752252027392387, 0.01931707188487053, 0.010012240149080753, 0.006504297722131014, 0.027764378115534782, 0.017498474568128586, 0.015152755193412304, 0.017903147265315056, -0.0013047510292381048, 0.01431923359632492, 0.025866534560918808, 0.018963472917675972, 0.026432348415255547, 0.014575270004570484, 0.019520744681358337, 0.022518062964081764, 0.006925898604094982, -0.0175707396119833, 0.008564526215195656, -0.011188386939466, -0.004147035535424948, -0.0011264205677434802, 0.013288258574903011, -0.003907748032361269, 0.0246331375092268, 0.0020161981228739023, -0.0013218461535871029, 0.011007480323314667, -0.004233164247125387, -0.023121805861592293, -0.004099308047443628, -0.0026621269062161446, -0.016093196347355843, -0.040147263556718826, -0.025496117770671844, -0.029628874734044075, -0.024095704779028893, -0.01437964104115963, -0.03017856366932392, -0.039431262761354446, -0.034004054963588715, -0.012408521957695484, -0.024886321276426315, -0.028948139399290085, -0.027011169120669365, 0.003759256796911359, -0.02055472880601883, 0.004830012563616037, -0.023851821199059486, -0.02007441781461239, -0.016021447256207466, -0.02954891324043274, -0.02711055427789688, -0.03527573496103287, -0.038655202835798264, -0.013227940537035465, -0.035433948040008545, -0.04109702259302139, -0.027349228039383888, -0.036784544587135315, -0.05768493190407753, -0.062087420374155045, -0.055887963622808456, -0.06122532859444618, -0.05822261795401573, -0.06055740639567375, -0.047807224094867706, -0.05326559767127037, -0.05134274438023567, -0.06161867454648018, -0.058713044971227646, -0.067099429666996, -0.07317188382148743, -0.04640490189194679, -0.06290725618600845, -0.07100271433591843, -0.04304887354373932, -0.06219443306326866, -0.058194611221551895, -0.06828225404024124, -0.08806683123111725, -0.06941712647676468, -0.07545139640569687, -0.09204009920358658, -0.08130095899105072, -0.09344107657670975, -0.11471512913703918, -0.10942456126213074, -0.10459683835506439, -0.12425320595502853, -0.11982527375221252, -0.13584105670452118, -0.15233901143074036, -0.15233425796031952, -0.172992542386055, -0.16842009127140045, -0.18732507526874542, -0.21327105164527893, -0.21738287806510925, -0.22267049551010132, -0.23196958005428314, -0.2545076012611389, -0.27154022455215454, -0.3113837242126465, -0.30461058020591736, -0.32689863443374634, -0.32715943455696106, -0.3437269628047943, -0.35416069626808167, -0.34922170639038086, -0.3744190037250519, -0.37625980377197266, -0.38261401653289795, -0.3976319432258606, -0.39421242475509644, -0.3980453908443451, -0.40045568346977234, -0.4242591857910156, -0.4264148473739624, -0.43268606066703796, -0.42122432589530945, -0.4224116802215576, -0.43817514181137085, -0.42877197265625, -0.43388721346855164, -0.43828558921813965, -0.43140947818756104, -0.41964200139045715, -0.4322317838668823, -0.42587944865226746, -0.39274534583091736, -0.424172580242157, -0.4205116927623749, -0.3959859013557434, -0.41340652108192444, -0.390671044588089, -0.39753225445747375, -0.38154783844947815, -0.38689059019088745, -0.36599940061569214, -0.3662673830986023, -0.35800090432167053, -0.35209882259368896, -0.35125985741615295, -0.35272201895713806, -0.3536384701728821, -0.29173043370246887, -0.29451340436935425, -0.26855212450027466, -0.27872586250305176, -0.2693362534046173, -0.2514803409576416, -0.2523130774497986, -0.26819050312042236, -0.23929567635059357, -0.25878793001174927, -0.2594679892063141, -0.25175973773002625]