Epoch: 2-3, Loss: 63.067134857177734, Lr: 0.001 , 
 ,Threshold: 
[-0.10866163671016693, -0.10491610318422318, -0.09886490553617477, -0.1123465895652771, -0.09199836850166321, -0.08774865418672562, -0.10699931532144547, -0.09912793338298798, -0.09302392601966858, -0.12428496778011322, -0.09447848051786423, -0.09538644552230835, -0.12245568633079529, -0.11865763366222382, -0.09890308976173401, -0.10114406794309616, -0.09724031388759613, -0.10105717182159424, -0.1022677794098854, -0.0758814886212349, -0.1055072546005249, -0.09784703701734543, -0.10868752747774124, -0.11301956325769424, -0.08476605266332626, -0.10060877352952957, -0.1101188212633133, -0.09515088051557541, -0.10380438715219498, -0.10323423892259598, -0.09616759419441223, -0.09183106571435928, -0.1067231073975563, -0.09650284051895142, -0.11076609790325165, -0.11527163535356522, -0.10480350255966187, -0.1281561553478241, -0.10464821755886078, -0.11132514476776123, -0.10106619447469711, -0.10442876070737839, -0.11680887639522552, -0.11034685373306274, -0.08785062283277512, -0.09225430339574814, -0.10403379052877426, -0.11713188886642456, -0.10442493855953217, -0.10193915665149689, -0.09729377180337906, -0.11957373470067978, -0.10165099799633026, -0.11342662572860718, -0.10427790135145187, -0.11182902008295059, -0.11350876837968826, -0.10415775328874588, -0.10640809684991837, -0.11037733405828476, -0.09957868605852127, -0.11831170320510864, -0.09282242506742477, -0.10389000922441483, -0.09905742108821869, -0.11071953922510147, -0.1020863801240921, -0.10117867588996887, -0.11583762615919113, -0.09689349681138992, -0.09391120076179504, -0.10251221060752869, -0.10692191869020462, -0.11221154034137726, -0.0949852243065834, -0.09023697674274445, -0.114193856716156, -0.10440468043088913, -0.10673954337835312, -0.09741132706403732, -0.11752217262983322, -0.09715331345796585, -0.11281310766935349, -0.09831832349300385, -0.11573287844657898, -0.09817831963300705, -0.10216645896434784, -0.10200235247612, -0.08836095780134201, -0.12451294809579849, -0.10449421405792236, -0.09969387203454971, -0.08839145302772522, -0.09873706102371216, -0.10667869448661804, -0.1018359363079071, -0.10656087100505829, -0.08930546045303345, -0.1274678111076355, -0.10310374200344086, -0.11962292343378067, -0.10108859091997147, -0.10622529685497284, -0.10900209844112396, -0.08114020526409149, -0.10134495049715042, -0.11538296937942505, -0.09184658527374268, -0.10773295909166336, -0.09293569624423981, -0.11423797905445099, -0.08951941877603531, -0.08270321041345596, -0.09586374461650848, -0.10329662263393402, -0.08948270231485367, -0.08805105090141296, -0.118691585958004, -0.10337774455547333, -0.0920463353395462, -0.10531026124954224, -0.09204892814159393, -0.08624299615621567, -0.10538390278816223, -0.08214902877807617, -0.08305469900369644, -0.05706312134861946, -0.059894051402807236, -0.04941219463944435, -0.042091768234968185, 0.007254424504935741, 0.032704517245292664, 0.04951821267604828, 0.08557037264108658, 0.0941886231303215, 0.09528863430023193, 0.11133097112178802, 0.11659689247608185, 0.13542158901691437, 0.13108853995800018, 0.11478070914745331, 0.14972394704818726, 0.14090092480182648, 0.11821422725915909, 0.1264023631811142, 0.1232215166091919, 0.15638676285743713, 0.1282738894224167, 0.14662609994411469, 0.14329911768436432, 0.12215762585401535, 0.1445930302143097, 0.12988263368606567, 0.14785687625408173, 0.11607327312231064, 0.1293167620897293, 0.13385096192359924, 0.14813095331192017, 0.12828503549098969, 0.13634826242923737] 
 , Step size: 
 [-0.08562278002500534, -0.07231450825929642, -0.09324786812067032, -0.09436778724193573, -0.10557868331670761, -0.0977863296866417, -0.08947928994894028, -0.10657234489917755, -0.11871255189180374, -0.09335742145776749, -0.08196918666362762, -0.11196950823068619, -0.10267175734043121, -0.09746336936950684, -0.09698526561260223, -0.10034613311290741, -0.09005583077669144, -0.09285435825586319, -0.09980392456054688, -0.08526311069726944, -0.10418447107076645, -0.09436434507369995, -0.10038456320762634, -0.09141699224710464, -0.0796789675951004, -0.08657993376255035, -0.07998283207416534, -0.09368852525949478, -0.0873003900051117, -0.09128553420305252, -0.07675351947546005, -0.08267994970083237, -0.08614105731248856, -0.10334181785583496, -0.09437506645917892, -0.07809118181467056, -0.0737871527671814, -0.09776996076107025, -0.041904643177986145, -0.052271466702222824, -0.09019694477319717, -0.07939006388187408, -0.06818490475416183, -0.08350929617881775, -0.0734013095498085, -0.08868174254894257, -0.06802408397197723, -0.0847335085272789, -0.08556549996137619, -0.07034804672002792, -0.07900691777467728, -0.07149233669042587, -0.07393991947174072, -0.08439555019140244, -0.05426321551203728, -0.06367799639701843, -0.06189519912004471, -0.07762716710567474, -0.07639054208993912, -0.05886813998222351, -0.041581302881240845, -0.06827733665704727, -0.04384344816207886, -0.04397580400109291, -0.04208332672715187, -0.05379394441843033, -0.013786053285002708, -0.025912120938301086, -0.026210637763142586, -0.02173417992889881, 0.020984135568141937, -0.01088987197726965, -0.007355011999607086, 0.012256556190550327, 0.004469043109565973, 0.018880242481827736, 0.016842344775795937, 0.017739523202180862, 0.024044983088970184, 0.03556783124804497, 0.01870216242969036, 0.013538134284317493, 0.01983419805765152, 0.04632521793246269, 0.02654315158724785, 0.04475577175617218, 0.03609520196914673, 0.03206191956996918, 0.03620586916804314, 0.05112183466553688, 0.053669270128011703, 0.06349223107099533, 0.032030001282691956, 0.05178467556834221, 0.06585236638784409, 0.044850848615169525, 0.0604025200009346, 0.06289578229188919, 0.068393774330616, 0.05123431608080864, 0.06573846936225891, 0.043631963431835175, 0.05779815465211868, 0.07406596839427948, 0.06027834117412567, 0.04793446883559227, 0.058789972215890884, 0.06332143396139145, 0.05941522493958473, 0.07227221131324768, 0.061505332589149475, 0.04622083902359009, 0.03037438914179802, 0.011429444886744022, 0.0228282418102026, -0.003391935722902417, -0.03734351322054863, -0.04592892527580261, -0.06367781013250351, -0.08082050830125809, -0.09723412990570068, -0.11475852131843567, -0.1158452033996582, -0.11734063178300858, -0.1091875210404396, -0.1261991560459137, -0.13265587389469147, -0.13161781430244446, -0.14112205803394318, -0.12233952432870865, -0.14362113177776337, -0.12594366073608398, -0.13680680096149445, -0.14494772255420685, -0.12065829336643219, -0.1118541732430458, -0.14034181833267212, -0.13064569234848022, -0.13649006187915802, -0.14614856243133545, -0.15721337497234344, -0.1323777735233307, -0.14071939885616302, -0.12430588901042938, -0.1450478434562683, -0.13880470395088196, -0.13433964550495148, -0.15163615345954895, -0.13797564804553986, -0.13747131824493408, -0.1409231573343277, -0.14523324370384216, -0.13249167799949646, -0.1268414556980133, -0.133661687374115, -0.15011629462242126, -0.11484412848949432, -0.12559249997138977, -0.12595835328102112, -0.12787321209907532]