Epoch: 0-3, Loss: 143.15748596191406, Lr: 0.001 , 
 ,Threshold: 
[-0.006212454754859209, -0.0032726190984249115, 0.0027547189965844154, -0.010906160809099674, 0.009533075615763664, 0.013947890140116215, -0.0053234160877764225, 0.0022797109559178352, 0.008528852835297585, -0.022883908823132515, 0.007051269989460707, 0.006245315540581942, -0.0207703597843647, -0.01696849800646305, 0.002795894630253315, 0.0005057672969996929, 0.004355657380074263, 0.00038747774669900537, -0.0006173821748234332, 0.025637250393629074, -0.004281789064407349, 0.0030426043085753918, -0.007724368944764137, -0.011924714781343937, 0.01641310192644596, 0.00069202616577968, -0.008728467859327793, 0.006358809769153595, -0.002236318541690707, -0.0015763966366648674, 0.0055384207516908646, 0.009926030412316322, -0.004875035956501961, 0.005444253794848919, -0.008716658689081669, -0.01310410164296627, -0.0024299677461385727, -0.0254774522036314, -0.001884821685962379, -0.008360646665096283, 0.001694950507953763, -0.0019368322100490332, -0.014682276174426079, -0.008028838783502579, 0.014301513321697712, 0.00968870334327221, -0.0026149367913603783, -0.01575971581041813, -0.003119523636996746, -0.0006494918488897383, 0.00393742835149169, -0.018421635031700134, -0.0005763392546214163, -0.01242312602698803, -0.0034117852337658405, -0.011134468950331211, -0.013083672150969505, -0.003990970551967621, -0.0066344523802399635, -0.011170191690325737, -0.00038867490366101265, -0.019163543358445168, 0.006444162223488092, -0.004551295191049576, 0.0003326215664856136, -0.011228165589272976, -0.00247685587964952, -0.001481442479416728, -0.016045164316892624, 0.0029335026629269123, 0.005978947971016169, -0.002559933578595519, -0.0069076307117938995, -0.012128965929150581, 0.005180424079298973, 0.010038269683718681, -0.013884422369301319, -0.004048199392855167, -0.006341561675071716, 0.0030386780854314566, -0.017022905871272087, 0.0034133484587073326, -0.012155178934335709, 0.0023782909847795963, -0.01499113254249096, 0.002618580125272274, -0.0013181567192077637, -0.0011042450787499547, 0.01259535551071167, -0.023536553606390953, -0.0034638415090739727, 0.0013839919120073318, 0.012753131799399853, 0.002441355027258396, -0.005483814515173435, -0.0005905054858885705, -0.005261204205453396, 0.012003084644675255, -0.026368722319602966, -0.0019298098050057888, -0.018464956432580948, 0.0001522801467217505, -0.004911830648779869, -0.007586355321109295, 0.02040710672736168, 0.000287153001409024, -0.013707330450415611, 0.009863875806331635, -0.005996469873934984, 0.008786127902567387, -0.012534240260720253, 0.012150721624493599, 0.018890196457505226, 0.005526398308575153, -0.0022344267927110195, 0.011127777397632599, 0.012003120966255665, -0.01943807303905487, -0.005117453634738922, 0.004892525263130665, -0.010008617304265499, 0.0011242554755881429, 0.0041894456371665, -0.018427707254886627, 0.00023230991791933775, -0.006825586315244436, 0.010416233912110329, -0.004193296190351248, -0.009036285802721977, -0.02146023139357567, 0.004175027832388878, 0.0034025507047772408, -0.005460887681692839, 0.008255359716713428, -0.0006166150560602546, -0.012234533205628395, -0.004774223081767559, -0.004864332266151905, 0.010733908042311668, 0.00453820638358593, -0.01293239276856184, 0.021168934181332588, 0.011842428706586361, -0.011385174468159676, -0.0031635742634534836, -0.0063431053422391415, 0.026938285678625107, -0.0010227179154753685, 0.017540281638503075, 0.014524845406413078, -0.006190875545144081, 0.01673154905438423, 0.0025845621712505817, 0.021194331347942352, -0.009837533347308636, 0.004188270308077335, 0.009689657017588615, 0.02494416944682598, 0.0060908556915819645, 0.01519830897450447] 
 , Step size: 
 [0.010839823633432388, 0.02474985457956791, 0.003459660103544593, 0.0024821017868816853, -0.009429176338016987, -0.0027149273082613945, 0.005333655048161745, -0.010998222976922989, -0.024476954713463783, 0.0014057786902412772, 0.01172456331551075, -0.01908676140010357, -0.010535157285630703, -0.005620391108095646, -0.005501661915332079, -0.009000490419566631, 0.0015968629159033298, -0.0008890521712601185, -0.010527867823839188, 0.00488367211073637, -0.011264893226325512, 0.0018630155827850103, -0.0046218810603022575, 0.0023061486426740885, 0.011834590695798397, 0.002364432206377387, 0.006951434072107077, -0.009015139192342758, -0.0035008154809474945, -0.0088587561622262, 0.0050736586563289165, -0.001299221534281969, -0.00579595472663641, -0.024128412827849388, -0.016519859433174133, -0.001964909490197897, -0.0002676887670531869, -0.028056638315320015, 0.027800273150205612, 0.016432953998446465, -0.01805434376001358, -0.0036599671002477407, 0.008600480854511261, -0.009202376008033752, 0.003044258337467909, -0.012235518544912338, 0.00689125619828701, -0.010496336035430431, -0.011737272143363953, 0.0029734319541603327, -0.006110805086791515, 0.0001379346358589828, -0.00234176404774189, -0.013341739773750305, 0.01655610091984272, 0.006734290160238743, 0.005661844275891781, -0.009310383349657059, -0.004390979651361704, -0.002027921611443162, 0.010679379105567932, -0.0187587421387434, -1.1249621820752509e-05, -0.005496454890817404, -0.006619944237172604, -0.02040083147585392, 0.017258837819099426, 0.0037013425026088953, -0.005640722345560789, -0.011213844642043114, 0.021329186856746674, -0.014923300594091415, -0.016386644914746284, 0.00037815485848113894, -0.010298673063516617, 0.0009635490132495761, -0.0033460622653365135, -0.004927045200020075, -0.0008539571426808834, 0.008627849631011486, -0.009832197800278664, -0.016604328528046608, -0.012443640269339085, 0.012618647888302803, -0.008649622090160847, 0.008026961237192154, -0.0016494735609740019, -0.006508125923573971, -0.003382801776751876, 0.009570958092808723, 0.010782762430608273, 0.018926315009593964, -0.014670678414404392, 0.003950932528823614, 0.01748475804924965, -0.004174253903329372, 0.011908778920769691, 0.012395261786878109, 0.015187135897576809, -0.0028959931805729866, 0.009748108685016632, -0.014141939580440521, -0.0015534842386841774, 0.01319878175854683, -0.0012387356255203485, -0.013317406177520752, -0.000410237698815763, 0.007991647347807884, 0.005447086412459612, 0.02124416083097458, 0.013430671766400337, 0.0024481203872710466, -0.006581027526408434, -0.013582331128418446, 0.01447820384055376, 0.00838021095842123, -0.004680283833295107, 0.005705343559384346, 0.005068914499133825, 0.0023261213209480047, -0.003513137111440301, -0.013666984625160694, -0.009931342676281929, -0.00782294012606144, 0.002939823316410184, -0.012468134984374046, -0.014841419644653797, -0.010392957367002964, -0.017314670607447624, 0.0035680029541254044, -0.01616290584206581, 0.003131090197712183, -0.006382557563483715, -0.013430475257337093, 0.012020300142467022, 0.021815704181790352, -0.005990957375615835, 0.00411875220015645, -0.0015100354794412851, -0.010791193693876266, -0.02165224403142929, 0.003360360162332654, -0.004932344425469637, 0.01178067084401846, -0.009205475449562073, -0.0030597823206335306, 0.001237792312167585, -0.01625504530966282, -0.002804988529533148, -0.0026177067775279284, -0.006488202139735222, -0.011257484555244446, 0.0009334157221019268, 0.005971977952867746, -0.0016035411972552538, -0.018813589587807655, 0.015478811226785183, 0.0037421907763928175, 0.0023357034660875797, -0.000650756002869457]