Epoch: 24-3, Loss: 0.004889346193522215, Lr: 0.001 , 
 ,Threshold: 
[-0.24027441442012787, -0.2249641716480255, -0.2471769005060196, -0.24602921307086945, -0.22564801573753357, -0.2192971259355545, -0.23077000677585602, -0.2411724328994751, -0.22493870556354523, -0.24163401126861572, -0.22212547063827515, -0.2211465686559677, -0.23641839623451233, -0.23947060108184814, -0.2393036037683487, -0.23333118855953217, -0.22391287982463837, -0.22707727551460266, -0.22727306187152863, -0.24210797250270844, -0.22039102017879486, -0.23084338009357452, -0.23104141652584076, -0.23316329717636108, -0.2186257690191269, -0.24841229617595673, -0.23449373245239258, -0.22759027779102325, -0.2411677986383438, -0.2209586501121521, -0.2376273274421692, -0.22184798121452332, -0.22645772993564606, -0.21893125772476196, -0.24807624518871307, -0.2069009244441986, -0.23788432776927948, -0.22651483118534088, -0.22911132872104645, -0.22857843339443207, -0.23300045728683472, -0.22350803017616272, -0.2459283173084259, -0.23583585023880005, -0.22015322744846344, -0.2229587584733963, -0.22677646577358246, -0.22720472514629364, -0.21353691816329956, -0.25458720326423645, -0.2284131646156311, -0.24951419234275818, -0.22588492929935455, -0.21329265832901, -0.22606554627418518, -0.24181878566741943, -0.25433725118637085, -0.24298995733261108, -0.22885777056217194, -0.24086476862430573, -0.2532466948032379, -0.21960577368736267, -0.23233632743358612, -0.21445497870445251, -0.24012088775634766, -0.2239503711462021, -0.2628120481967926, -0.22337335348129272, -0.24203403294086456, -0.2335449457168579, -0.22541126608848572, -0.25594910979270935, -0.23498116433620453, -0.23725461959838867, -0.2183859497308731, -0.22310663759708405, -0.24219761788845062, -0.2312464714050293, -0.23780381679534912, -0.2180464118719101, -0.23333142697811127, -0.21237604320049286, -0.2239849865436554, -0.2227371633052826, -0.2259153425693512, -0.2454128861427307, -0.24082036316394806, -0.22854477167129517, -0.2465905100107193, -0.2260669469833374, -0.2350318282842636, -0.2405574768781662, -0.22844114899635315, -0.2185952365398407, -0.2295461744070053, -0.24401281774044037, -0.23698736727237701, -0.23922239243984222, -0.22992442548274994, -0.23570212721824646, -0.22864915430545807, -0.22039484977722168, -0.23844966292381287, -0.22912806272506714, -0.22460384666919708, -0.22737573087215424, -0.2089581936597824, -0.22776341438293457, -0.21891586482524872, -0.2199062556028366, -0.2190607190132141, -0.22375185787677765, -0.22534087300300598, -0.25970885157585144, -0.22112850844860077, -0.22093302011489868, -0.2420378476381302, -0.2370409071445465, -0.2144606113433838, -0.23109214007854462, -0.22933273017406464, -0.2266937494277954, -0.21886955201625824, -0.2361660748720169, -0.2175472378730774, -0.245611771941185, -0.21651846170425415, -0.22225676476955414, -0.21427807211875916, -0.2206970751285553, -0.22378067672252655, -0.22568194568157196, -0.22843840718269348, -0.2326429784297943, -0.22397290170192719, -0.2412463277578354, -0.2190180867910385, -0.23696830868721008, -0.219727024435997, -0.22324499487876892, -0.24008393287658691, -0.23738060891628265, -0.2213882952928543, -0.23255449533462524, -0.2345551997423172, -0.236341193318367, -0.23232385516166687, -0.24009643495082855, -0.23342761397361755, -0.23306091129779816, -0.23114819824695587, -0.22608652710914612, -0.22356462478637695, -0.21721380949020386, -0.22076356410980225, -0.20935194194316864, -0.224197655916214, -0.22982348501682281, -0.2385953962802887, -0.22556598484516144, -0.22612003982067108, -0.23317189514636993, -0.23159076273441315, -0.21489819884300232, -0.23982550203800201, -0.23708362877368927, -0.2353261113166809, -0.2403460592031479, -0.2295111119747162, -0.22908130288124084, -0.24005438387393951, -0.23537257313728333, -0.24086926877498627, -0.234588161110878, -0.2449430674314499, -0.21742188930511475, -0.23688730597496033, -0.22693385183811188, -0.23085500299930573, -0.23509860038757324, -0.236874058842659, -0.23459820449352264, -0.24906784296035767, -0.23201769590377808, -0.21702775359153748, -0.23038135468959808, -0.2399546355009079, -0.2629200518131256, -0.23028463125228882, -0.25189512968063354, -0.23699533939361572, -0.22304709255695343, -0.23998551070690155, -0.2472245842218399, -0.23796163499355316, -0.2612413763999939, -0.23480254411697388, -0.24521540105342865, -0.2393123060464859, -0.24096933007240295, -0.24047985672950745, -0.2309335470199585, -0.22276157140731812, -0.2564607560634613, -0.22210882604122162, -0.2261849194765091, -0.2343951016664505, -0.2546337842941284, -0.2426500916481018, -0.2151869535446167, -0.24788525700569153, -0.23902344703674316, -0.2530272305011749, -0.24942615628242493, -0.2359030544757843, -0.2422950118780136, -0.24886339902877808, -0.23925504088401794, -0.24521788954734802, -0.23606805503368378, -0.23671188950538635, -0.23281177878379822, -0.2461424618959427, -0.23587872087955475, -0.22299809753894806, -0.24834021925926208, -0.24396364390850067, -0.23804499208927155, -0.24625447392463684, -0.2517598867416382, -0.25588786602020264, -0.2505209743976593, -0.23178033530712128, -0.23800593614578247, -0.22696658968925476, -0.24097616970539093, -0.23178893327713013, -0.22973491251468658, -0.2449791431427002, -0.25672680139541626, -0.23558953404426575, -0.24388641119003296, -0.2519679367542267, -0.2357359081506729, -0.22679567337036133, -0.22582890093326569, -0.25298863649368286, -0.23442406952381134, -0.21951110661029816, -0.2399739772081375, -0.23826612532138824, -0.23886807262897491, -0.22846448421478271, -0.23454168438911438, -0.2401777058839798, -0.229213148355484, -0.227611243724823, -0.21682532131671906, -0.22174979746341705, -0.22787980735301971, -0.23564964532852173, -0.21951138973236084, -0.18438337743282318, -0.19813945889472961, -0.17710226774215698, -0.19246190786361694, -0.18335296213626862, -0.1790580004453659, -0.16453984379768372, -0.1534700244665146, -0.13254821300506592, -0.1339184194803238, -0.08819784969091415, -0.10582297295331955, -0.0732380673289299, -0.06157343462109566, -0.04619752988219261, -0.038896240293979645, -0.010060058906674385, 0.023356031626462936, 0.06002438813447952, 0.1005459800362587, 0.1459840089082718, 0.19524483382701874, 0.26444917917251587, 0.3055557310581207, 0.3789008855819702, 0.42896491289138794, 0.4268820583820343, 0.4274042546749115, 0.4284834563732147, 0.41109222173690796, 0.39692020416259766, 0.39897239208221436, 0.37567830085754395, 0.3793041706085205, 0.3777403235435486, 0.37020495533943176, 0.3334406316280365, 0.34290480613708496, 0.3507581055164337, 0.3338083326816559, 0.3248901069164276, 0.2674724757671356, 0.28742164373397827, 0.30356651544570923, 0.2887284457683563, 0.3158757984638214, 0.2873040735721588, 0.2918408215045929, 0.31192007660865784, 0.3186414837837219, 0.2831416130065918, 0.2567897140979767, 0.2855236530303955, 0.2751632332801819, 0.2785479426383972, 0.2956497073173523, 0.30169397592544556, 0.30700814723968506] 
 , Step size: 
 [-0.23748449981212616, -0.2362714558839798, -0.2559930682182312, -0.24274837970733643, -0.24464042484760284, -0.238742396235466, -0.2254253327846527, -0.22354823350906372, -0.22553867101669312, -0.2438686490058899, -0.23477983474731445, -0.22038784623146057, -0.22735702991485596, -0.21469585597515106, -0.23379108309745789, -0.22420381009578705, -0.22136713564395905, -0.2415081411600113, -0.2226281762123108, -0.2263573557138443, -0.2202165126800537, -0.23916855454444885, -0.22945331037044525, -0.22144874930381775, -0.2287542074918747, -0.2432606816291809, -0.23985673487186432, -0.23617926239967346, -0.2428867220878601, -0.2190096080303192, -0.22798427939414978, -0.21122746169567108, -0.20090028643608093, -0.22287525236606598, -0.20004573464393616, -0.2186846137046814, -0.21270151436328888, -0.2023240029811859, -0.1997138410806656, -0.21358312666416168, -0.2086769938468933, -0.2183147817850113, -0.20879092812538147, -0.20736779272556305, -0.20549732446670532, -0.2079336792230606, -0.2037389725446701, -0.19705043733119965, -0.20904015004634857, -0.18613341450691223, -0.18750429153442383, -0.21222539246082306, -0.19209346175193787, -0.18025994300842285, -0.17823386192321777, -0.1749367117881775, -0.18461167812347412, -0.1853940337896347, -0.19947601854801178, -0.17725171148777008, -0.19883714616298676, -0.18514561653137207, -0.17079338431358337, -0.18103767931461334, -0.19634771347045898, -0.20116770267486572, -0.19576339423656464, -0.18488523364067078, -0.19047482311725616, -0.21026243269443512, -0.17511941492557526, -0.19385896623134613, -0.20598404109477997, -0.1986621469259262, -0.18222174048423767, -0.2150041162967682, -0.19032928347587585, -0.20421527326107025, -0.19624736905097961, -0.19291538000106812, -0.176477313041687, -0.2064083367586136, -0.19047407805919647, -0.1797662377357483, -0.19270655512809753, -0.1843583881855011, -0.16893158853054047, -0.1918782740831375, -0.17078939080238342, -0.18450909852981567, -0.1661452054977417, -0.17570403218269348, -0.16421949863433838, -0.14778244495391846, -0.1678554266691208, -0.1577921062707901, -0.15467840433120728, -0.14387688040733337, -0.14767159521579742, -0.14210619032382965, -0.13308709859848022, -0.10620374977588654, -0.10958277434110641, -0.1059618815779686, -0.09839730709791183, -0.09207994490861893, -0.09427855908870697, -0.06733191758394241, -0.07460034638643265, -0.07732423394918442, -0.05385882034897804, -0.054931532591581345, -0.0722329318523407, -0.0633990690112114, -0.04111964628100395, -0.03952877223491669, -0.027704032137989998, -0.02393268793821335, 0.005150825250893831, 0.002572485478594899, 0.002901954110711813, -0.0016924720257520676, -0.009071019478142262, -0.013866336084902287, -0.0203567985445261, -0.010078410618007183, 0.011213499121367931, 0.0034102988429367542, -0.006857357919216156, 0.014469422399997711, 0.02932051382958889, 0.0197149571031332, 0.032446034252643585, 0.02081093192100525, 0.00888693518936634, 0.024921085685491562, 0.037157271057367325, 0.035850461572408676, 0.028456415981054306, 0.04605827108025551, 0.027926750481128693, 0.052135761827230453, 0.04364743456244469, 0.05855897441506386, 0.05055589601397514, 0.05459745228290558, 0.03373895213007927, 0.04432129114866257, 0.03414171561598778, 0.030329100787639618, 0.04757806286215782, 0.03253874182701111, 0.02676057070493698, 0.05201958864927292, 0.049063991755247116, 0.029529916122555733, 0.03350573778152466, 0.03104504942893982, 0.0194997638463974, 0.03535360097885132, 0.02954881079494953, 0.041440486907958984, 0.04223925992846489, 0.032955460250377655, 0.03517551347613335, 0.03559493273496628, 0.028234820812940598, 0.03620533645153046, 0.0170504879206419, 0.030765363946557045, 0.015314989723265171, 0.018848827108740807, 0.005715939681977034, 0.028173064813017845, 0.03605987876653671, 0.008104517124593258, 0.043600235134363174, 0.017648939043283463, 0.018472721800208092, 0.009950141422450542, 0.02107132226228714, 0.01896323449909687, 0.018075289204716682, 0.007820463739335537, 0.015276342630386353, 0.029629485681653023, 0.004916238598525524, 0.00599784916266799, 0.007479086052626371, -0.006992416922003031, 0.005937649868428707, -0.014117068611085415, -0.019455237314105034, -0.012002687901258469, 0.005090535618364811, -0.04273020103573799, -0.01553376019001007, -0.02740343287587166, -0.014131375588476658, -0.04204990714788437, -0.03779016062617302, -0.011452224105596542, -0.034637466073036194, -0.049676138907670975, -0.04500861465930939, -0.015710676088929176, -0.036390360444784164, -0.04413536563515663, -0.05043364316225052, -0.030684512108564377, -0.04710148647427559, -0.05288336053490639, -0.036883462220430374, -0.045593395829200745, -0.056301601231098175, -0.06243569776415825, -0.047336820513010025, -0.043796464800834656, -0.032887838780879974, -0.021364586427807808, -0.04181589558720589, -0.06744518131017685, -0.08043121546506882, -0.05426980182528496, -0.04868710786104202, -0.07138238102197647, -0.05313164368271828, -0.04910285025835037, -0.05762645602226257, -0.05145522579550743, -0.061453092843294144, -0.057669781148433685, -0.07191047072410583, -0.07810214906930923, -0.09104273468255997, -0.07101678848266602, -0.07705138623714447, -0.08208471536636353, -0.08131887763738632, -0.08118946105241776, -0.07743345946073532, -0.11095099151134491, -0.08169815689325333, -0.09665435552597046, -0.08561994880437851, -0.09957768768072128, -0.11856864392757416, -0.11510481685400009, -0.1178770586848259, -0.11050359904766083, -0.13646163046360016, -0.1344924122095108, -0.13730819523334503, -0.1386624425649643, -0.15523143112659454, -0.15614651143550873, -0.1868545562028885, -0.2037239670753479, -0.20482009649276733, -0.2424430549144745, -0.2434268295764923, -0.25540482997894287, -0.27251940965652466, -0.2991536259651184, -0.30242350697517395, -0.3211728632450104, -0.32793745398521423, -0.3469938039779663, -0.35677197575569153, -0.37448251247406006, -0.35604122281074524, -0.3920343518257141, -0.38735711574554443, -0.3943338990211487, -0.390624076128006, -0.392080694437027, -0.4207547605037689, -0.41188734769821167, -0.4145716726779938, -0.4233321249485016, -0.4153997302055359, -0.4194292426109314, -0.42961499094963074, -0.4270201623439789, -0.4194316864013672, -0.4418569505214691, -0.4103075861930847, -0.4347440302371979, -0.42454659938812256, -0.4323785901069641, -0.4196193516254425, -0.43143361806869507, -0.3951832056045532, -0.42679232358932495, -0.41256195306777954, -0.40695875883102417, -0.4207904636859894, -0.4073832631111145, -0.4021194279193878, -0.3734864592552185, -0.3730422258377075, -0.3678606450557709, -0.366031676530838, -0.33990538120269775, -0.3268246352672577, -0.3453309237957001, -0.3380641043186188, -0.3617565631866455, -0.35611099004745483, -0.3555533289909363, -0.35519200563430786, -0.37470364570617676, -0.3413948714733124, -0.317025363445282, -0.33120450377464294, -0.3454483449459076, -0.3641778230667114, -0.3580634593963623, -0.37490367889404297, -0.36187082529067993]