Epoch: 1-3, Loss: 58.49551773071289, Lr: 0.001 , 
 ,Threshold: 
[-0.07903293520212173, -0.0645735114812851, -0.08661142736673355, -0.08558109402656555, -0.06581918895244598, -0.05892019718885422, -0.07023808360099792, -0.08065032213926315, -0.06448986381292343, -0.08144938945770264, -0.06233857572078705, -0.06106650084257126, -0.07594666630029678, -0.07873425632715225, -0.07847403734922409, -0.07246137410402298, -0.06298550218343735, -0.06616654247045517, -0.06639451533555984, -0.08121813833713531, -0.05948258936405182, -0.06986711919307709, -0.070039302110672, -0.07226964831352234, -0.0579904280602932, -0.08803664147853851, -0.07453101128339767, -0.06789898127317429, -0.08146649599075317, -0.0611606203019619, -0.07767347246408463, -0.06169283017516136, -0.06614051759243011, -0.058457206934690475, -0.08741665631532669, -0.04605981707572937, -0.07698791474103928, -0.06558650732040405, -0.06809064745903015, -0.06754355132579803, -0.07198494672775269, -0.06254694610834122, -0.08499515801668167, -0.07501418888568878, -0.05933085456490517, -0.0620698556303978, -0.06576252728700638, -0.06606665998697281, -0.05224667489528656, -0.093225859105587, -0.06683503836393356, -0.08777365833520889, -0.06396491825580597, -0.05132729932665825, -0.06404349952936172, -0.0797610804438591, -0.09221397340297699, -0.08077730983495712, -0.06655053794384003, -0.07848968356847763, -0.09078403562307358, -0.05702858790755272, -0.06973622739315033, -0.05186297744512558, -0.07753532379865646, -0.06133943051099777, -0.10024596750736237, -0.06086522713303566, -0.0795924961566925, -0.07115654647350311, -0.06309426575899124, -0.09372112900018692, -0.07285293936729431, -0.07522692531347275, -0.05645805597305298, -0.06124529987573624, -0.08041545748710632, -0.06949976086616516, -0.07612224668264389, -0.05644214153289795, -0.07180507481098175, -0.050955381244421005, -0.06267647445201874, -0.06157052144408226, -0.06491227447986603, -0.0845104306936264, -0.08006184548139572, -0.06798474490642548, -0.08614813536405563, -0.06578602641820908, -0.07488780468702316, -0.08050604909658432, -0.0685005933046341, -0.0588056854903698, -0.06993145495653152, -0.0845944881439209, -0.07776027172803879, -0.08018284291028976, -0.07113335281610489, -0.07717344909906387, -0.07047770172357559, -0.06273040920495987, -0.08099713176488876, -0.07191057503223419, -0.06766670197248459, -0.07071717083454132, -0.05265248566865921, -0.07167491316795349, -0.06320998817682266, -0.06438146531581879, -0.0636967346072197, -0.06848996132612228, -0.07019723206758499, -0.10428309440612793, -0.06615697592496872, -0.06601038575172424, -0.08719346672296524, -0.08224555850028992, -0.05972226709127426, -0.07616092264652252, -0.07414834946393967, -0.07124093174934387, -0.06313934177160263, -0.0802488625049591, -0.06142079457640648, -0.08930664509534836, -0.060012780129909515, -0.06552457809448242, -0.05728776007890701, -0.06336846947669983, -0.06634124368429184, -0.06811607629060745, -0.0707484558224678, -0.07465597242116928, -0.06590572744607925, -0.08310575038194656, -0.06080666184425354, -0.07870012521743774, -0.0614171102643013, -0.06508450210094452, -0.08201567083597183, -0.07944528758525848, -0.06354989856481552, -0.07476695626974106, -0.07664483040571213, -0.0783730298280716, -0.07445142418146133, -0.0818827748298645, -0.07485572248697281, -0.07413508743047714, -0.0719507485628128, -0.06659325212240219, -0.06386951357126236, -0.057462263852357864, -0.06092110648751259, -0.04928382486104965, -0.06399550288915634, -0.06946699321269989, -0.07805429399013519, -0.06482851505279541, -0.06513332575559616, -0.07197923213243484, -0.07012545317411423, -0.05313834175467491, -0.07797906547784805, -0.075105682015419, -0.07315701991319656, -0.07807158678770065, -0.06717357784509659, -0.06666015088558197, -0.07757542282342911, -0.07281731069087982, -0.07831026613712311, -0.07202831655740738, -0.0818990021944046, -0.05459121987223625, -0.07358872145414352, -0.0638602152466774, -0.06764731556177139, -0.07167308777570724, -0.0732119157910347, -0.0708610936999321, -0.08525615185499191, -0.06805039942264557, -0.053001102060079575, -0.06636416912078857, -0.07594086974859238, -0.09859605133533478, -0.06610359251499176, -0.08759669214487076, -0.07261422276496887, -0.05852201581001282, -0.07532934844493866, -0.08240704983472824, -0.07304607331752777, -0.09623388946056366, -0.06971105933189392, -0.0800456628203392, -0.07400316745042801, -0.07559111714363098, -0.07499414682388306, -0.0653335303068161, -0.056899670511484146, -0.09025824069976807, -0.055429574102163315, -0.059327706694602966, -0.06734178960323334, -0.08731800317764282, -0.07504983991384506, -0.04736405238509178, -0.08006404340267181, -0.0712364912033081, -0.08615583926439285, -0.08174553513526917, -0.06820671260356903, -0.07462924718856812, -0.08118217438459396, -0.07155222445726395, -0.07761543989181519, -0.06888329982757568, -0.06920834630727768, -0.06532610952854156, -0.07868556678295135, -0.06843451410531998, -0.05559609457850456, -0.08097948133945465, -0.07661699503660202, -0.07071444392204285, -0.07895290106534958, -0.08451063930988312, -0.08862024545669556, -0.08324453234672546, -0.06449272483587265, -0.07068457454442978, -0.059614602476358414, -0.07361278682947159, -0.06440552324056625, -0.06241049990057945, -0.07771923393011093, -0.09039195626974106, -0.06854665279388428, -0.07690553367137909, -0.0852760374546051, -0.06896045058965683, -0.06008293852210045, -0.059286218136548996, -0.08667458593845367, -0.06839880347251892, -0.054034069180488586, -0.07541818916797638, -0.07407808303833008, -0.07549136877059937, -0.06608223170042038, -0.07324258238077164, -0.08013767004013062, -0.0709209069609642, -0.07088295370340347, -0.06212736293673515, -0.06946983188390732, -0.07835245877504349, -0.08963833749294281, -0.07735244929790497, -0.04684869572520256, -0.06583274900913239, -0.05107512325048447, -0.07341396808624268, -0.07218314707279205, -0.07671978324651718, -0.07214415073394775, -0.07201991975307465, -0.06352409720420837, -0.07784304022789001, -0.046249162405729294, -0.0794096365571022, -0.06239314004778862, -0.06777399778366089, -0.0701136440038681, -0.08300437778234482, -0.07591556012630463, -0.06769745796918869, -0.06132219359278679, -0.05728870630264282, -0.05548654496669769, -0.05720221996307373, -0.04195626080036163, -0.04598001763224602, 7.846654625609517e-05, 0.04597136378288269, 0.05027855187654495, 0.060088884085416794, 0.07096398621797562, 0.06294619292020798, 0.05707168951630592, 0.06856530159711838, 0.0535876527428627, 0.06537817418575287, 0.07180316001176834, 0.07213930785655975, 0.04310690984129906, 0.06046993285417557, 0.07604262232780457, 0.0667707771062851, 0.06524251401424408, 0.05020666867494583, 0.06589619815349579, 0.07680602371692657, 0.05955588072538376, 0.08288862556219101, 0.05404111370444298, 0.057000093162059784, 0.07581910490989685, 0.08219286054372787, 0.06524959951639175, 0.05146171897649765, 0.07019215822219849, 0.05162027105689049, 0.048893414437770844, 0.061400752514600754, 0.06435670703649521, 0.06816462427377701] 
 , Step size: 
 [-0.07871856540441513, -0.07610507309436798, -0.09593334048986435, -0.08240282535552979, -0.08217649161815643, -0.07781883329153061, -0.0653022900223732, -0.06351938098669052, -0.06519324332475662, -0.08217167109251022, -0.07056155800819397, -0.0573311522603035, -0.06674787402153015, -0.05601334199309349, -0.07602979242801666, -0.06699029356241226, -0.06464695930480957, -0.08474577218294144, -0.0656479224562645, -0.06948677450418472, -0.06355416774749756, -0.08312185108661652, -0.07372353971004486, -0.06490153819322586, -0.07020588964223862, -0.08233772963285446, -0.07509233802556992, -0.06830263137817383, -0.07509976625442505, -0.0527016818523407, -0.06385420262813568, -0.05000629276037216, -0.04194037616252899, -0.06656964123249054, -0.046197548508644104, -0.06740633398294449, -0.0621495395898819, -0.05211808905005455, -0.051178380846977234, -0.06621955335140228, -0.06129337474703789, -0.07009454071521759, -0.06018468365073204, -0.05833865702152252, -0.05742308497428894, -0.06085914745926857, -0.05826010927557945, -0.05363760143518448, -0.06835388392210007, -0.045417413115501404, -0.050099607557058334, -0.07731559872627258, -0.05994049832224846, -0.049063123762607574, -0.047451797872781754, -0.04430379718542099, -0.05450161173939705, -0.056112248450517654, -0.07108575105667114, -0.04908052086830139, -0.0712113156914711, -0.058957405388355255, -0.04444802179932594, -0.05416813865303993, -0.06916956603527069, -0.07445099204778671, -0.06829517334699631, -0.05646462365984917, -0.06097131222486496, -0.08006008714437485, -0.04392306134104729, -0.06159414350986481, -0.07280834019184113, -0.06426244974136353, -0.04666640982031822, -0.07882285863161087, -0.053381823003292084, -0.06722547858953476, -0.05876407027244568, -0.05490304157137871, -0.037969741970300674, -0.06733477860689163, -0.05080495774745941, -0.03982247784733772, -0.0532604418694973, -0.044419627636671066, -0.028536241501569748, -0.05160629376769066, -0.029690537601709366, -0.04250505939126015, -0.02365509793162346, -0.03310822322964668, -0.021909421309828758, -0.006348131690174341, -0.027883343398571014, -0.018650855869054794, -0.01658742129802704, -0.006373451557010412, -0.01243495661765337, -0.007156061008572578, -0.0005843376275151968, 0.019870460033416748, 0.014552276581525803, 0.016978271305561066, 0.021995695307850838, 0.02446439303457737, 0.01593756303191185, 0.0409412644803524, 0.027619801461696625, 0.020032141357660294, 0.03818681463599205, 0.03143017739057541, 0.008220796473324299, 0.020534850656986237, 0.03050985373556614, 0.02689194492995739, 0.03732611611485481, 0.03409026563167572, 0.0561809204518795, 0.051977191120386124, 0.050073783844709396, 0.04339616373181343, 0.03416461497545242, 0.02714422345161438, 0.017422255128622055, 0.02304070256650448, 0.037342704832553864, 0.025420725345611572, 0.01305326633155346, 0.03323770686984062, 0.04598210006952286, 0.03336755558848381, 0.041472844779491425, 0.024730492383241653, 0.008143891580402851, 0.022041775286197662, 0.03228943422436714, 0.03009588085114956, 0.021917836740612984, 0.03831685334444046, 0.01811998337507248, 0.039838120341300964, 0.029316464439034462, 0.043105293065309525, 0.03298141807317734, 0.036151643842458725, 0.015538417734205723, 0.0250263474881649, 0.014576336368918419, 0.008435090072453022, 0.024632107466459274, 0.009207885712385178, 0.0019321118015795946, 0.02573361061513424, 0.022016780450940132, 0.0020757452584803104, 0.005774383898824453, 0.0030971914529800415, -0.008418415673077106, 0.00787595845758915, 0.00298004481010139, 0.015331312082707882, 0.0159402284771204, 0.007473278790712357, 0.010015028528869152, 0.010535988956689835, 0.00290630292147398, 0.010070642456412315, -0.009017104282975197, 0.004221333656460047, -0.010743457823991776, -0.006677785888314247, -0.019091930240392685, 0.0032504149712622166, 0.010965542867779732, -0.01699644885957241, 0.019310567528009415, -0.006079400423914194, -0.005774894263595343, -0.01525056641548872, -0.004723906517028809, -0.006205203011631966, -0.006173054222017527, -0.017001278698444366, -0.008434001356363297, 0.007547080982476473, -0.015780141577124596, -0.009160440415143967, -0.00916515477001667, -0.021309250965714455, -0.006921456195414066, -0.026003114879131317, -0.030341576784849167, -0.023107361048460007, -0.00437988480553031, -0.05032317712903023, -0.020528919994831085, -0.029259586706757545, -0.013665709644556046, -0.04009551927447319, -0.034700069576501846, -0.006999468896538019, -0.03012130595743656, -0.045783087611198425, -0.042745981365442276, -0.013058675453066826, -0.03286195918917656, -0.039872802793979645, -0.04553050547838211, -0.024503884837031364, -0.03976590558886528, -0.04446406662464142, -0.024492647498846054, -0.03518959507346153, -0.04541847109794617, -0.05081354081630707, -0.0356159545481205, -0.032307177782058716, -0.019893931224942207, -0.006722715217620134, -0.027416765689849854, -0.05226241797208786, -0.06433036178350449, -0.03743341565132141, -0.030803337693214417, -0.05238243564963341, -0.03324287384748459, -0.028125997632741928, -0.035227082669734955, -0.027390332892537117, -0.03589565306901932, -0.03034314140677452, -0.042710598558187485, -0.047186147421598434, -0.05819621682167053, -0.03682364150881767, -0.041612111032009125, -0.04495195299386978, -0.042434852570295334, -0.037589702755212784, -0.03513682633638382, -0.06696876883506775, -0.035205140709877014, -0.04860404133796692, -0.035708989948034286, -0.04696221649646759, -0.06297553330659866, -0.05681373178958893, -0.05415602773427963, -0.03661878779530525, -0.059645943343639374, -0.04984566941857338, -0.043680302798748016, -0.035811897367239, -0.04222887381911278, -0.0280749648809433, -0.04959847405552864, -0.05342841148376465, -0.04060562700033188, -0.06504117697477341, -0.0506441593170166, -0.049457184970378876, -0.05297603830695152, -0.067009337246418, -0.057157792150974274, -0.06401658803224564, -0.06016559153795242, -0.07001779228448868, -0.07208561152219772, -0.07974978536367416, -0.051629818975925446, -0.07923281192779541, -0.06664838641881943, -0.06040086969733238, -0.05483217537403107, -0.05075119808316231, -0.07495669275522232, -0.05827014893293381, -0.06113840267062187, -0.06780436635017395, -0.05791051685810089, -0.060605619102716446, -0.06957344710826874, -0.06597214192152023, -0.05757545679807663, -0.07937894016504288, -0.0473121702671051, -0.07200773805379868, -0.06295076757669449, -0.07287602126598358, -0.0630207434296608, -0.07837230712175369, -0.04571832716464996, -0.08206469565629959, -0.07259650528430939, -0.07199178636074066, -0.09121701866388321, -0.08351679146289825, -0.08405537903308868, -0.06144063547253609, -0.06714548915624619, -0.06844374537467957, -0.07297471910715103, -0.06447606533765793, -0.04821581393480301, -0.06288277357816696, -0.05324717238545418, -0.07400613278150558, -0.06721697747707367, -0.06536886841058731, -0.06397691369056702, -0.08330553770065308, -0.06505570560693741, -0.05148416385054588, -0.05691368132829666, -0.0630069300532341, -0.07544710487127304, -0.06414932757616043, -0.07764539867639542, -0.06293067336082458]