Epoch: 5-3, Loss: 8.060383796691895, Lr: 0.001 , 
 ,Threshold: 
[-0.24027316272258759, -0.22496293485164642, -0.2471756637096405, -0.24602797627449036, -0.22564679384231567, -0.21929588913917542, -0.23076876997947693, -0.241171196103096, -0.22493746876716614, -0.24163277447223663, -0.22212424874305725, -0.22114534676074982, -0.23641717433929443, -0.23946936428546906, -0.2393023669719696, -0.23332995176315308, -0.22391164302825928, -0.22707603871822357, -0.22727182507514954, -0.24210673570632935, -0.22038978338241577, -0.23084214329719543, -0.23104017972946167, -0.233162060379982, -0.2186245322227478, -0.24841105937957764, -0.2344924956560135, -0.22758904099464417, -0.24116657674312592, -0.2209574282169342, -0.2376261055469513, -0.22184675931930542, -0.22645650804042816, -0.21893003582954407, -0.24807502329349518, -0.20689968764781952, -0.2378830909729004, -0.2265135943889618, -0.22911009192466736, -0.22857719659805298, -0.23299922049045563, -0.22350679337978363, -0.24592708051204681, -0.23583461344242096, -0.22015199065208435, -0.2229575216770172, -0.22677522897720337, -0.22720348834991455, -0.21353568136692047, -0.25458601117134094, -0.22841192781925201, -0.2495129406452179, -0.22588367760181427, -0.21329140663146973, -0.2260642945766449, -0.24181753396987915, -0.25433605909347534, -0.2429887056350708, -0.22885651886463165, -0.24086351692676544, -0.2532455027103424, -0.2196045219898224, -0.23233507573604584, -0.21445372700691223, -0.24011963605880737, -0.2239491194486618, -0.2628108561038971, -0.22337210178375244, -0.24203278124332428, -0.23354369401931763, -0.22541001439094543, -0.25594788789749146, -0.23497991263866425, -0.2372533679008484, -0.21838469803333282, -0.22310538589954376, -0.24219636619091034, -0.231245219707489, -0.23780256509780884, -0.2180451601743698, -0.23333017528057098, -0.21237479150295258, -0.2239837348461151, -0.2227359116077423, -0.2259140908718109, -0.24541163444519043, -0.24081911146640778, -0.22854351997375488, -0.24658925831317902, -0.22606569528579712, -0.23503057658672333, -0.24055622518062592, -0.22843989729881287, -0.21859398484230042, -0.22954492270946503, -0.24401156604290009, -0.23698611557483673, -0.23922115564346313, -0.22992318868637085, -0.23570089042186737, -0.22864791750907898, -0.2203936129808426, -0.23844842612743378, -0.22912682592868805, -0.224602609872818, -0.22737450897693634, -0.20895697176456451, -0.22776219248771667, -0.21891465783119202, -0.2199050635099411, -0.2190595269203186, -0.22375066578388214, -0.22533969581127167, -0.2597077190876007, -0.22112733125686646, -0.22093184292316437, -0.24203667044639587, -0.2370397299528122, -0.21445943415164948, -0.2310909628868103, -0.22933155298233032, -0.2266925722360611, -0.21886837482452393, -0.2361648976802826, -0.21754606068134308, -0.24561059474945068, -0.21651728451251984, -0.22225558757781982, -0.21427689492702484, -0.22069589793682098, -0.22377949953079224, -0.22568076848983765, -0.22843722999095917, -0.23264180123806, -0.22397172451019287, -0.24124515056610107, -0.2190169095993042, -0.23696713149547577, -0.2197258472442627, -0.2232438176870346, -0.2400827556848526, -0.23737944662570953, -0.2213871330022812, -0.23255334794521332, -0.23455405235290527, -0.23634004592895508, -0.23232270777225494, -0.24009528756141663, -0.23342646658420563, -0.23305976390838623, -0.23114705085754395, -0.2260853797197342, -0.22356349229812622, -0.21721267700195312, -0.2207624316215515, -0.2093508094549179, -0.22419652342796326, -0.22982235252857208, -0.23859426379203796, -0.2255648523569107, -0.22611890733242035, -0.2331707626581192, -0.23158963024616241, -0.2148970514535904, -0.2398243546485901, -0.23708248138427734, -0.23532496392726898, -0.24034491181373596, -0.22950996458530426, -0.22908015549182892, -0.2400532364845276, -0.2353714257478714, -0.24086812138557434, -0.23458699882030487, -0.24494190514087677, -0.21742072701454163, -0.236886128783226, -0.22693267464637756, -0.2308538258075714, -0.23509742319583893, -0.23687288165092468, -0.23459702730178833, -0.24906666576862335, -0.23201651871204376, -0.21702657639980316, -0.23038017749786377, -0.23995345830917358, -0.2629189193248749, -0.2302834540605545, -0.2518939971923828, -0.2369941622018814, -0.22304591536521912, -0.23998433351516724, -0.2472234070301056, -0.23796045780181885, -0.26124024391174316, -0.23480135202407837, -0.24521420896053314, -0.2393111139535904, -0.24096810817718506, -0.24047863483428955, -0.2309323251247406, -0.22276034951210022, -0.25645962357521057, -0.22210758924484253, -0.22618368268013, -0.2343938648700714, -0.2546326220035553, -0.24264885485172272, -0.2151857167482376, -0.24788400530815125, -0.23902219533920288, -0.2530260384082794, -0.24942490458488464, -0.23590180277824402, -0.24229376018047333, -0.2488621473312378, -0.23925378918647766, -0.24521663784980774, -0.2360668033361435, -0.23671063780784607, -0.23281052708625793, -0.2461412101984024, -0.23587746918201447, -0.22299684584140778, -0.2483389675617218, -0.2439623922109604, -0.23804374039173126, -0.24625322222709656, -0.2517586946487427, -0.25588667392730713, -0.2505197823047638, -0.231779083609581, -0.2380046844482422, -0.22696535289287567, -0.24097493290901184, -0.23178771138191223, -0.22973372042179108, -0.24497796595096588, -0.2567256689071655, -0.23558840155601501, -0.24388529360294342, -0.2519669234752655, -0.23573487997055054, -0.22679467499256134, -0.22582797706127167, -0.2529878318309784, -0.23442327976226807, -0.21951042115688324, -0.23997341096401215, -0.23826569318771362, -0.23886780440807343, -0.22846440970897675, -0.23454175889492035, -0.24017804861068726, -0.22921383380889893, -0.22761230170726776, -0.21682679653167725, -0.22175180912017822, -0.22788240015506744, -0.23565292358398438, -0.21951544284820557, -0.18438835442066193, -0.19814540445804596, -0.17710931599140167, -0.19247017800807953, -0.18336252868175507, -0.179068922996521, -0.16455219686031342, -0.1534838229417801, -0.13256342709064484, -0.13393494486808777, -0.08821558952331543, -0.10584163665771484, -0.07325751334428787, -0.061593469232320786, -0.04621788486838341, -0.03891674056649208, -0.010080588981509209, 0.023335572332143784, 0.06000407040119171, 0.100525863468647, 0.1459641307592392, 0.19522525370121002, 0.2644299566745758, 0.3055368661880493, 0.37888243794441223, 0.42894721031188965, 0.4268650412559509, 0.4273879826068878, 0.4284680187702179, 0.4110775589942932, 0.39690640568733215, 0.39895933866500854, 0.3756658732891083, 0.37929245829582214, 0.3777291774749756, 0.3701944649219513, 0.333430677652359, 0.3428954482078552, 0.3507494330406189, 0.33380022644996643, 0.32488250732421875, 0.23441146314144135, 0.25025272369384766, 0.26313117146492004, 0.2450418919324875, 0.270211398601532, 0.23921920359134674, 0.2426394373178482, 0.2619376480579376, 0.26828402280807495, 0.23235845565795898, 0.2037162035703659, 0.22845332324504852, 0.21484719216823578, 0.21609248220920563, 0.2317875772714615, 0.2374090701341629, 0.24329981207847595] 
 , Step size: 
 [-0.23748332262039185, -0.2362702190876007, -0.25599193572998047, -0.24274714291095734, -0.24463917315006256, -0.23874114453792572, -0.22542408108711243, -0.22354698181152344, -0.22553741931915283, -0.2438673973083496, -0.23477855324745178, -0.2203865647315979, -0.2273557484149933, -0.21469460427761078, -0.2337898463010788, -0.22420258820056915, -0.22136594355106354, -0.24150694906711578, -0.22262698411941528, -0.2263561636209488, -0.220215305685997, -0.23916733264923096, -0.22945208847522736, -0.22144752740859985, -0.2287529706954956, -0.24325944483280182, -0.23985548317432404, -0.23617799580097198, -0.24288542568683624, -0.21900829672813416, -0.22798296809196472, -0.21122613549232483, -0.2008989304304123, -0.22287392616271973, -0.2000444233417511, -0.21868334710597992, -0.2127002626657486, -0.20232276618480682, -0.19971266388893127, -0.21358194947242737, -0.2086758315563202, -0.21831363439559937, -0.20878979563713074, -0.2073666751384735, -0.20549620687961578, -0.20793256163597107, -0.20373786985874176, -0.1970493644475937, -0.2090390920639038, -0.18613235652446747, -0.18750326335430145, -0.21222437918186188, -0.19209246337413788, -0.18025894463062286, -0.17823286354541779, -0.1749357134103775, -0.18461070954799652, -0.1853930801153183, -0.19947507977485657, -0.17725078761577606, -0.19883625209331512, -0.18514473736286163, -0.17079253494739532, -0.1810368299484253, -0.19634687900543213, -0.20116688311100006, -0.19576258957386017, -0.1848844289779663, -0.1904740333557129, -0.21026165783405304, -0.17511865496635437, -0.19385822117328644, -0.20598331093788147, -0.1986614316701889, -0.18222102522850037, -0.21500340104103088, -0.19032856822013855, -0.20421455800533295, -0.1962466537952423, -0.1929146647453308, -0.1764765977859497, -0.2064076066017151, -0.19047334790229797, -0.1797654926776886, -0.19270581007003784, -0.1843576431274414, -0.16893084347248077, -0.19187751412391663, -0.17078863084316254, -0.1845083385705948, -0.16614443063735962, -0.175703227519989, -0.1642186939716339, -0.147781640291214, -0.16785462200641632, -0.15779130160808563, -0.1546775996685028, -0.1438760757446289, -0.14767079055309296, -0.14210538566112518, -0.13308629393577576, -0.10620293766260147, -0.10958196222782135, -0.10596106946468353, -0.09839649498462677, -0.09207913279533386, -0.0942777544260025, -0.06733112782239914, -0.07459956407546997, -0.07732345163822174, -0.05385804921388626, -0.05493076518177986, -0.0722322016954422, -0.0633983388543129, -0.04111893102526665, -0.039528071880340576, -0.02770332619547844, -0.023931996896862984, 0.005151492077857256, 0.002573154866695404, 0.002902624662965536, -0.0016917969333007932, -0.009070340543985367, -0.013865656219422817, -0.020356127992272377, -0.01007773820310831, 0.011214153841137886, 0.00341094471514225, -0.006856722291558981, 0.014470037072896957, 0.029321137815713882, 0.01971559226512909, 0.032446663826704025, 0.02081158198416233, 0.00888759084045887, 0.024921737611293793, 0.03715791925787926, 0.0358511246740818, 0.02845708467066288, 0.046058934181928635, 0.02792741172015667, 0.05213641747832298, 0.04364806041121483, 0.0585595965385437, 0.05055651813745499, 0.05459807440638542, 0.033739566802978516, 0.04432191327214241, 0.034142348915338516, 0.030329756438732147, 0.047578729689121246, 0.032539404928684235, 0.026761241257190704, 0.05202025920152664, 0.04906465858221054, 0.029530592262744904, 0.03350643068552017, 0.03104574792087078, 0.01950046978890896, 0.035354308784008026, 0.029549531638622284, 0.04144120588898659, 0.04223999008536339, 0.03295617923140526, 0.03517622873187065, 0.03559563308954239, 0.02823551930487156, 0.03620601445436478, 0.017051145434379578, 0.030766014009714127, 0.015315636061131954, 0.018849462270736694, 0.005716561805456877, 0.028173666447401047, 0.036060504615306854, 0.00810512900352478, 0.04360085725784302, 0.01764952391386032, 0.01847328245639801, 0.009950684383511543, 0.02107183262705803, 0.01896372251212597, 0.01807575672864914, 0.007820929400622845, 0.015276791527867317, 0.029629914090037346, 0.00491665955632925, 0.005998300388455391, 0.007479496765881777, -0.006992019712924957, 0.005938028916716576, -0.014116705395281315, -0.019454890862107277, -0.012002343311905861, 0.005090868100523949, -0.04272989183664322, -0.015533442609012127, -0.027403129264712334, -0.01413108129054308, -0.04204963147640228, -0.03778989613056183, -0.011451960541307926, -0.0346372164785862, -0.04967590048909187, -0.045008402317762375, -0.015710461884737015, -0.03639017045497894, -0.044135186821222305, -0.050433482974767685, -0.030684372410178185, -0.047101374715566635, -0.05288326367735863, -0.03688337281346321, -0.045593343675136566, -0.056301578879356384, -0.06243567913770676, -0.04733680933713913, -0.04379644989967346, -0.03288782015442848, -0.02136455848813057, -0.0418158695101738, -0.06744517385959625, -0.08043119311332703, -0.05426975339651108, -0.04868703708052635, -0.07138229161500931, -0.05313153192400932, -0.049102723598480225, -0.05762631446123123, -0.051455058157444, -0.06145290285348892, -0.057669561356306076, -0.07191023230552673, -0.07810186594724655, -0.0910424068570137, -0.07101638615131378, -0.07705088704824448, -0.08208410441875458, -0.08131814748048782, -0.08118849247694016, -0.07743236422538757, -0.11094966530799866, -0.0816965103149414, -0.09665243327617645, -0.08561760932207108, -0.09957488626241684, -0.11856529116630554, -0.11510089784860611, -0.11787239462137222, -0.1104978621006012, -0.13645502924919128, -0.13448463380336761, -0.13729916512966156, -0.13865190744400024, -0.15521934628486633, -0.1561325192451477, -0.18683910369873047, -0.20370693504810333, -0.20480160415172577, -0.24242334067821503, -0.2434060424566269, -0.2553832530975342, -0.2724973261356354, -0.2991311252117157, -0.3024006485939026, -0.32114991545677185, -0.32791438698768616, -0.34697073698043823, -0.35674890875816345, -0.37445953488349915, -0.3560182750225067, -0.39201146364212036, -0.387334406375885, -0.3943113088607788, -0.39060178399086, -0.39205843210220337, -0.4207327961921692, -0.4118655025959015, -0.41454994678497314, -0.4233105778694153, -0.4153783917427063, -0.41940805315971375, -0.4295940101146698, -0.42699939012527466, -0.4194110333919525, -0.4418366253376007, -0.4102878272533417, -0.4347248375415802, -0.42452824115753174, -0.4323611259460449, -0.41960275173187256, -0.431417852640152, -0.395168274641037, -0.426778107881546, -0.41254836320877075, -0.4069458544254303, -0.42077815532684326, -0.4073716104030609, -0.40210825204849243, -0.3734758794307709, -0.3730321526527405, -0.3678511381149292, -0.36602264642715454, -0.2841978371143341, -0.26747554540634155, -0.2834108769893646, -0.27262988686561584, -0.29480433464050293, -0.2858997583389282, -0.28436899185180664, -0.28338348865509033, -0.30264797806739807, -0.2635343372821808, -0.23457886278629303, -0.24558918178081512, -0.2567707896232605, -0.2734335958957672, -0.265850305557251, -0.28248336911201477, -0.27048295736312866]