Epoch: 0-3, Loss: 116.53144836425781, Lr: 0.001 , 
 ,Threshold: 
[-0.011197895742952824, 0.0032454379834234715, -0.018958115950226784, -0.0178933497518301, 0.001892502186819911, 0.008801404386758804, -0.0025252094492316246, -0.012989642098546028, 0.003175384132191539, -0.013717001304030418, 0.005478810053318739, 0.00676945922896266, -0.008090250194072723, -0.010922776535153389, -0.010685080662369728, -0.00475742993876338, 0.00467706611379981, 0.0014246158534660935, 0.0012984862551093102, -0.01338666770607233, 0.008402837440371513, -0.0019571019802242517, -0.0021065811160951853, -0.004339818377047777, 0.009946524165570736, -0.02008191868662834, -0.006576846353709698, 5.911843618378043e-05, -0.013502134010195732, 0.006781109608709812, -0.009717012755572796, 0.006258429493755102, 0.0017527849413454533, 0.009336795657873154, -0.019612353295087814, 0.021740799769759178, -0.009187771938741207, 0.0021991562098264694, -0.00023823807714506984, 0.000337941397447139, -0.0040875994600355625, 0.005276407580822706, -0.017295485362410545, -0.007521612104028463, 0.00817581545561552, 0.005459090694785118, 0.0017758088652044535, 0.0014981630956754088, 0.01536256168037653, -0.025545738637447357, 0.0009566142107360065, -0.019846133887767792, 0.004168224986642599, 0.01683685928583145, 0.004140137229114771, -0.011583683080971241, -0.0240449421107769, -0.01261870190501213, 0.0015933518297970295, -0.010347181931138039, -0.022644737735390663, 0.011107112281024456, -0.0016143103130161762, 0.016240978613495827, -0.009451854974031448, 0.006728786509484053, -0.03216966241598129, 0.00722047733142972, -0.011505691334605217, -0.003067523241043091, 0.004991957917809486, -0.025643400847911835, -0.004788778256624937, -0.0071570537984371185, 0.01162088941782713, 0.006844023242592812, -0.012312562204897404, -0.0013806375209242105, -0.007988923229277134, 0.011705353856086731, -0.0036508915945887566, 0.017207011580467224, 0.005480611231178045, 0.0065829334780573845, 0.003231514012441039, -0.016363687813282013, -0.01191768329590559, 0.00014901801478117704, -0.018071666359901428, 0.0022153123281896114, -0.006939987652003765, -0.012582479044795036, -0.0006149131222628057, 0.009027606807649136, -0.002168256789445877, -0.016943778842687607, -0.010141219012439251, -0.012545344419777393, -0.003466716269031167, -0.009474346414208412, -0.002737972419708967, 0.005066246259957552, -0.013138316571712494, -0.004006404895335436, 0.0002764920354820788, -0.0027727000415325165, 0.015278290025889874, -0.003787294030189514, 0.0046042464673519135, 0.003440283006057143, 0.004127868916839361, -0.0006788611062802374, -0.002427221741527319, -0.03651130944490433, 0.0014673760160803795, 0.0016392399556934834, -0.019555367529392242, -0.014623348601162434, 0.007937449961900711, -0.008489919826388359, -0.006466098129749298, -0.0035429445561021566, 0.004580099601298571, -0.012548419646918774, 0.006264686584472656, -0.021643809974193573, 0.007618733681738377, 0.002071146387606859, 0.010268712416291237, 0.004124854691326618, 0.0010952628217637539, -0.000762079143896699, -0.003536967560648918, -0.0073980530723929405, 0.0014124538283795118, -0.015704898163676262, 0.006678454577922821, -0.011133946478366852, 0.006249019876122475, 0.0026163551956415176, -0.014310586266219616, -0.011780005879700184, 0.004052138887345791, -0.007287347689270973, -0.009415693581104279, -0.011503667570650578, -0.008081713691353798, -0.015451540239155293, -0.008344274014234543, -0.007502013351768255, -0.005175751633942127, 0.0003572559216991067, 0.0032801448833197355, 0.009974991902709007, 0.006534409709274769, 0.018178045749664307, 0.0034658678341656923, -0.002004777081310749, -0.010602474212646484, 0.0026164078153669834, 0.002310246229171753, -0.004534613341093063, -0.002678945893421769, 0.014309822581708431, -0.010549928992986679, -0.007703777868300676, -0.0057915132492780685, -0.010759933851659298, 6.894674152135849e-05, 0.0005382833769544959, -0.010428386740386486, -0.005723655689507723, -0.011276129633188248, -0.0050494070164859295, -0.014295734465122223, 0.01242704875767231, -0.005889421328902245, 0.003302372992038727, -0.00046779721742495894, -0.004482237156480551, -0.006000748835504055, -0.0036468515172600746, -0.018026050180196762, -0.0007998362416401505, 0.014236679300665855, 0.000860468193423003, -0.008730893023312092, -0.030759096145629883, 0.0012955287238582969, -0.020190874114632607, -0.005216427147388458, 0.008871152997016907, -0.007936259731650352, -0.015009662136435509, -0.0056436937302351, -0.028825826942920685, -0.0022947858087718487, -0.012630405835807323, -0.006524033844470978, -0.007970760576426983, -0.007180724758654833, 0.0027335509657859802, 0.011492174118757248, -0.021458957344293594, 0.013873585499823093, 0.00997910276055336, 0.0019660210236907005, -0.0179910846054554, -0.005704281385987997, 0.021961845457553864, -0.010748698376119137, -0.001905050128698349, -0.017468582838773727, -0.012490532360970974, 0.0010353137040510774, -0.005373998079448938, -0.011914203874766827, -0.002267932752147317, -0.008342582732439041, -0.00031693594064563513, -3.4603290259838104e-05, 0.0038356324657797813, -0.009534114971756935, 0.000711582601070404, 0.013538504019379616, -0.011854257434606552, -0.0075052715837955475, -0.0016205529682338238, -0.009882223792374134, -0.015462224371731281, -0.019616486504673958, -0.014293643645942211, 0.004385510925203562, -0.001891818130388856, 0.009089168161153793, -0.004937024787068367, 0.004232301376760006, 0.006241978146135807, -0.009048067033290863, -0.022338904440402985, 5.203008186072111e-05, -0.008288837037980556, -0.01648326776921749, -0.00026670139050111175, 0.00864479597657919, 0.009476661682128906, -0.017885884270071983, 0.0003936982247978449, 0.014733629301190376, -0.006689241621643305, -0.005334896966814995, -0.006764390505850315, 0.0026247440837323666, -0.004516814835369587, -0.011441823095083237, -0.002287443494424224, -0.0022870097309350967, 0.006408809684216976, -0.001017597271129489, -0.010013902559876442, -0.021192021667957306, -0.009038449265062809, 0.021433990448713303, 0.0024198871105909348, 0.017154568806290627, -0.005228228867053986, -0.004053547978401184, -0.008663764223456383, -0.004194068722426891, -0.004122598562389612, 0.0043125334195792675, -0.0100787952542305, 0.021425824612379074, -0.011366463266313076, 0.005355681758373976, -0.00012470787623897195, -0.0026078876107931137, -0.015011143870651722, -0.008509832434356213, -0.0005961516289971769, 0.005357298068702221, 0.008621728047728539, 0.00891669187694788, 0.0038088590372353792, 0.01015203446149826, -0.015233894810080528, -0.003854871029034257, 0.01409837044775486, 0.004247584380209446, 0.007240026257932186, 0.014510562643408775, 0.00449381722137332, -0.00415267376229167, 0.007879079319536686, -0.007604083511978388, 0.0038424981757998466, 0.010042719542980194, 0.01022349577397108, -0.018858538940548897, -0.001541612553410232, 0.013977288268506527, 0.004703305661678314, 0.0031902131158858538, -0.011624248698353767, 0.0040206159465014935, 0.014906581491231918, -0.002252772217616439, 0.021113812923431396, -0.0076659140177071095, -0.004640765488147736, 0.014244846999645233, 0.020691558718681335, 0.003821781137958169, -0.009956392459571362, 0.009015711024403572, -0.009530200622975826, -0.012223978526890278, 0.0003523248014971614, 0.0033797542564570904, 0.007258824538439512] 
 , Step size: 
 [-0.0116759417578578, -0.009247618727385998, -0.028746899217367172, -0.015335443429648876, -0.015328198671340942, -0.011070900596678257, 0.0014476722571998835, 0.003288378706201911, 0.0015272649470716715, -0.015826668590307236, -0.004687479697167873, 0.008279862813651562, -0.0014031290775164962, 0.009489568881690502, -0.01060008630156517, -0.0010955228935927153, 0.0015787084121257067, -0.01795060932636261, 0.0004876909661106765, -0.004509476013481617, 0.0009470327640883625, -0.018903275951743126, -0.009874322451651096, -0.0012806615559384227, -0.007119493093341589, -0.01974823698401451, -0.013000859878957272, -0.006850915960967541, -0.014294481836259365, 0.0074183139950037, -0.004507678560912609, 0.009034206159412861, 0.017416974529623985, -0.006984036881476641, 0.013622581958770752, -0.007514639757573605, -0.0016161445528268814, 0.008964037522673607, 0.00896337442100048, -0.006681318394839764, -0.001885077217593789, -0.009728062897920609, 0.0013848756207153201, 0.0030130897648632526, 0.001991281285881996, -0.0015011877985671163, 0.0015679679345339537, 0.006499317940324545, -0.00799079705029726, 0.014879407361149788, 0.009474257938563824, -0.019007282331585884, -0.004060828126966953, 0.006657625548541546, 0.008537432178854942, 0.012086275033652782, 0.0024173392448574305, 0.001425083726644516, -0.012906727381050587, 0.009514257311820984, -0.012344091199338436, -0.0003397889086045325, 0.01420455053448677, 0.004743882920593023, -0.009991887956857681, -0.015173493884503841, -0.00919772032648325, 0.0024269225541502237, -0.002205468248575926, -0.021466396749019623, 0.014519939199090004, -0.0033523659221827984, -0.014928245916962624, -0.006534649524837732, 0.010733075439929962, -0.021806955337524414, 0.0031289260368794203, -0.011337121948599815, -0.00359234563075006, -0.0006466261111199856, 0.015136860311031342, -0.01594269461929798, -0.0009916643612086773, 0.007526662666350603, -0.00927021261304617, -0.0017665622290223837, 0.012301932089030743, -0.013703692704439163, 0.006951629184186459, -0.00792754627764225, 0.008520979434251785, -0.002865623217076063, 0.005729306023567915, 0.01770498976111412, -0.007096667308360338, -0.0022476669400930405, -0.003759324550628662, 0.0036067389883100986, -0.006343258079141378, -0.004826940130442381, -0.003131123259663582, 0.011419367045164108, 0.0016821161843836308, -0.000134500878630206, 0.00037682370748370886, -0.001189336646348238, -0.013124348595738411, 0.010204063728451729, -0.005118690896779299, -0.01382402889430523, 0.0038636550307273865, -0.002836816245689988, -0.026052670553326607, -0.010311485268175602, -0.0014076022198423743, -0.005366758909076452, 0.0051314448937773705, 0.0013223964488133788, 0.023301204666495323, 0.01965334825217724, 0.018615225329995155, 0.013172543607652187, 0.005073538050055504, -0.0011007938301190734, -0.00994284451007843, -0.0036050903145223856, 0.011335736140608788, 0.00010809567902470008, -0.011836565099656582, 0.008988158777356148, 0.02138472907245159, 0.008424898609519005, 0.016755083575844765, 0.0010869023390114307, -0.015798000618815422, -0.003225821303203702, 0.005693240091204643, 0.002061497652903199, -0.007523738779127598, 0.006956132594496012, -0.014741335064172745, 0.005894705653190613, -0.00481412885710597, 0.009606956504285336, 0.0017956126248463988, 0.008474918082356453, -0.008745451457798481, 0.0019677267409861088, -0.006636075675487518, -0.010854586958885193, 0.0071404906921088696, -0.005849753972142935, -0.012765501625835896, 0.011018493212759495, 0.0076102279126644135, -0.011772322468459606, -0.007541568949818611, -0.009598460979759693, -0.020518269389867783, -0.0035689608193933964, -0.007583891041576862, 0.0058642225340008736, 0.007947747595608234, 0.0013385484926402569, 0.0044992901384830475, 0.005757038481533527, -0.000918000063393265, 0.007110238540917635, -0.010896963998675346, 0.002821694128215313, -0.011505482718348503, -0.006867739371955395, -0.018718641251325607, 0.0038500684313476086, 0.016448795795440674, -0.014719447121024132, 0.026898657903075218, -0.0020057656802237034, -0.0009918115101754665, -0.009850282222032547, 0.001347563462331891, 3.676826599985361e-05, 0.0001692501245997846, -0.01056482084095478, -0.001753675052896142, 0.014243640936911106, -0.009123912081122398, 0.0036459644325077534, -0.0013774927938356996, -0.012776611372828484, 0.002459540730342269, -0.015649903565645218, -0.018985524773597717, -0.010830594226717949, 0.0090941758826375, -0.03542230650782585, -0.003817650955170393, -0.010354666039347649, 0.007176561281085014, -0.017592472955584526, -0.01024448312819004, 0.01946885511279106, -0.00271490216255188, -0.01915673166513443, -0.018116282299160957, 0.012288529425859451, -0.0067395856603980064, -0.013197310268878937, -0.018536128103733063, 0.002955514704808593, -0.012057985179126263, -0.016888534650206566, 0.007631356827914715, -0.006157729774713516, -0.01648545265197754, -0.021797938272356987, -0.0066209654323756695, -0.003353494917973876, 0.009682471863925457, 0.026071695610880852, 0.0026313839480280876, -0.021965378895401955, -0.03377831354737282, -0.006651608273386955, 0.00027318194042891264, -0.020999375730752945, -0.0014911913312971592, 0.004087035544216633, -0.002445333171635866, 0.006155514158308506, -0.0015855174278840423, 0.004949992056936026, -0.006361668463796377, -0.009696212597191334, -0.019599279388785362, 0.00244223908521235, -0.0016287160106003284, -0.004752409644424915, -0.002019963227212429, 0.009105228818953037, 0.007550959475338459, -0.023560401052236557, 0.008305194787681103, -0.003421627450734377, 0.010323899798095226, -0.0004935826291330159, -0.01669127307832241, -0.011701698414981365, -0.008864346891641617, 0.010902213864028454, -0.013593193143606186, -0.0035332459956407547, 0.002940709935501218, 0.010785520076751709, 0.004911723081022501, 0.021254779770970345, -0.0007062429212965071, -0.003628483507782221, 0.010280623100697994, -0.012992735020816326, 0.0007665628218092024, 0.0033795651979744434, 0.00040715502109378576, -0.013080304488539696, -0.0027038047555834055, -0.008900663815438747, -0.004339368548244238, -0.013450345024466515, -0.014768113382160664, -0.021785251796245575, 0.0070111616514623165, -0.019919075071811676, -0.006643705070018768, 0.00011382787488400936, 0.005970403552055359, 0.010683602653443813, -0.012926541268825531, 0.0038768050726503134, 0.0015175194712355733, -0.004738223738968372, 0.005405745469033718, 0.002904078923165798, -0.005927713587880135, -0.002233023289591074, 0.006216445472091436, -0.01555217057466507, 0.016617460176348686, -0.00805199146270752, 0.0011329984990879893, -0.008668802678585052, 0.001271397341042757, -0.014052373357117176, 0.01967931166291237, -0.017579607665538788, -0.008147543296217918, -0.007581029087305069, -0.026856550946831703, -0.019212277606129646, -0.019854934886097908, 0.002678428078070283, -0.003078869078308344, -0.004458780866116285, -0.009069827385246754, -0.0008315494051203132, 0.015423659235239029, 0.0007394394488073885, 0.01025499776005745, -0.010561558417975903, -0.003861302975565195, -0.0020913323387503624, -0.0007762692403048277, -0.020189408212900162, -0.0020225169137120247, 0.011523853056132793, 0.0058615864254534245, -0.0002651841496117413, -0.012738910503685474, -0.0015086671337485313, -0.015078089199960232, -0.0004356919671408832]