Epoch: 0-3, Loss: 20.564441680908203, Lr: 0.001 , 
 ,Threshold: 
[-0.01707809418439865, 0.006353631615638733, -0.006540725938975811, -0.017481593415141106, 0.004596390295773745, -0.0018185885855928063, -0.017667094245553017, -0.0038149601314216852, 0.004509764723479748, 0.0013172267936170101, -0.0024443622678518295, -0.016094479709863663, -0.014130044728517532, -0.0017021961975842714, -0.00942977424710989, 2.259237226098776e-05, -0.0015206390526145697, 0.004191236104816198, -0.015004828572273254, -0.007182708941400051, -0.004691325593739748, -0.009515022858977318, -0.010285723023116589, -0.009801063686609268, 0.012812655419111252, 0.0004766572965309024, -0.007288962136954069, 0.0045188856311142445, -0.014437142759561539, -0.024539247155189514, -0.00142426579259336, -0.004927471280097961, -0.0006463195895776153, -0.0031971829012036324, 0.012242501601576805, -0.011486922390758991, -0.016652202233672142, -0.0015928607899695635, -0.01440221443772316, 0.00333913485519588, 0.016730263829231262, -0.0021086183842271566, -0.0056957886554300785, -0.029835142195224762, -0.01626567542552948, -0.00565522164106369, -0.004540216643363237, -0.02244378626346588, 0.008491752669215202, 0.010109658353030682, -0.001922856317833066, -0.004601102788001299, -0.0181841179728508, -0.02127540111541748, -0.021028216928243637, -0.011943574994802475, 0.0018896005349233747, -0.014334337785840034, -0.0010205255821347237, 0.004407208412885666, 0.0024679135531187057, -0.008422422222793102, -0.013076486997306347, 0.001610341016203165, 0.004617474041879177, -0.011938599869608879, -0.0014695767313241959, 0.004876964725553989, -0.013924979604780674, 0.0113857826218009, -0.004508904181420803, -0.033683229237794876, 0.011960959061980247, -0.0038468465209007263, -0.007351276930421591, 0.0101185766980052, -0.019357213750481606, -0.0010628942400217056, 2.8084497898817062e-05, 0.0077873351983726025, 0.0011156739201396704, 0.017103129997849464, 0.003882709192112088, -0.027102818712592125, -0.012050178833305836, -0.028394712135195732, -0.0051046921871602535, 0.00783193577080965, 0.008661439642310143, 0.004518778994679451, -0.008713583461940289, 0.0009090959210880101, -0.0024011475034058094, -0.007447806652635336, -0.0016376306302845478, 0.011527187190949917, 0.0009385183220729232, -0.0016243360005319118, -0.004315703175961971, -0.013630324974656105, -0.0007581116515211761, -0.01062710490077734, -0.011519642546772957, -0.00855889730155468, 0.006337389349937439, -0.00802346970885992, -0.009406193159520626, -0.014796691946685314, -0.012661349028348923, -0.011219054460525513, -0.019456185400485992, -0.012696154415607452, -0.0011326896492391825, -0.014255143702030182, 0.0064288536086678505, 0.01640159636735916, -0.003893517889082432, -0.0002645586500875652, -0.004625836852937937, -0.025414740666747093, 0.007423793897032738, 0.007511967793107033, -0.003417730564251542, 0.006887231487780809, -0.0030747416894882917, -0.015704650431871414, -0.006852454971522093, -0.0007599411765113473, 0.014574448578059673, -0.00709918886423111, -0.01501504983752966, 0.0003021472366526723, -0.010610505007207394, 0.0035937116481363773, 0.0046016317792236805, -0.0023625995963811874, 0.009086880832910538, -0.010625933296978474, -0.009723183698952198, 0.002042419509962201, -0.0014772576978430152, 0.007075993809849024, 0.0027546740602701902, 0.003625319804996252, -0.007333268411457539, -0.006503876298666, -0.005471648648381233, 0.004225460812449455, -0.016958603635430336, 0.010152682662010193, 0.005223309621214867, -0.003015650436282158, 0.002242841525003314, 0.0007748014177195728, -0.007391416002064943, 0.006558546330779791, 0.013602720573544502, -0.005099371541291475, -0.001666293479502201, -0.007543779909610748, -0.012021873146295547, -0.004663137253373861, 0.015731660649180412, -0.002524015726521611, -0.020650949329137802, -0.004599472973495722, -0.0017403354868292809, -0.0014907345175743103, -0.006291621830314398, -0.011799848638474941, -0.000658539473079145, -0.007597623858600855, -0.00841438490897417, 0.006496710237115622, 0.010141768492758274, 0.0006664990214630961, -0.00784560851752758, -0.005063730292022228, -0.004077281337231398, 0.007348654326051474, 0.003578810952603817, -0.0009753587655723095, 0.013607606291770935, -0.004302913323044777, -0.003892490640282631, 0.0003801928833127022, -0.01191970705986023, -0.008776000700891018, -0.01670653186738491, -0.0030750269070267677, 0.008354748599231243, 0.010718340054154396, -0.008263095282018185, -0.0027853623032569885, 0.0056779636070132256, 0.018899276852607727, 0.00014008075231686234, 0.003224878804758191, -0.006171349436044693, -0.01626388356089592, -0.0017692806432023644, 0.006870277691632509, 0.004134930204600096, -0.016233213245868683, 0.00011077855015173554, -0.012386824004352093, 0.009104019962251186, 0.008025132119655609, -0.008926304057240486, -0.0011986710596829653, -0.01008717343211174, -0.010077627375721931, -0.0026392503641545773, -0.004529360216110945, 0.01417528372257948, -0.00286114402115345, -0.021965019404888153, -0.0029813209548592567, -0.013568240217864513, -0.015098846517503262, 0.01073421910405159, -0.008419720456004143, -0.00884330365806818, -0.020627224817872047, 0.011626514606177807, 0.008789737708866596, 0.0016821757890284061, 0.0020853544119745493, -0.007365935016423464, -0.004837349522858858, -0.0025696514640003443, 0.01846921630203724, 0.0032239763531833887, 0.0066715022549033165, -0.012127738445997238, -0.0002679753233678639, 0.003824495477601886, -0.00493739265948534, 3.586593084037304e-05, -0.014842353761196136, -0.005990046076476574, -0.016439352184534073, 0.004795769229531288, -0.01914062350988388, -0.008052165620028973, -0.004520880989730358, -0.007289913482964039, 0.018738195300102234, -0.008986720815300941, -0.001264809281565249, 0.002814771607518196, 0.009082942269742489, 0.0034266554284840822, 0.002490382408723235, -0.01152289379388094, -0.0019475952722132206, -0.005317564122378826, -0.017428293824195862, -0.006705826614052057, 0.001729075564071536, 0.0013508814154192805, -0.017071550711989403, 0.010239627212285995, 0.00015913485549390316, -0.006614355370402336, -0.012626858428120613, 0.016217805445194244, -0.00793820433318615, -0.008581310510635376, -0.01615307666361332, -0.009156838059425354, 0.0019609094597399235, 0.006605189293622971, -0.020341996103525162, -0.0018837499665096402, 0.0015462099108844995, -0.003326866775751114, -0.005281191319227219, -0.010504893027245998, 0.008423054590821266, -0.01631595380604267, 0.005217469297349453, -0.006112252362072468, 0.0047722370363771915, -0.008853395469486713, 0.006519407033920288, -0.013027350418269634, 0.0021928921341896057, 0.01726270094513893, -0.0019168127328157425, 0.014262273907661438, 0.010303394868969917, 0.006887854542583227, -0.006654266268014908, 0.025968024507164955, -0.006182111334055662, 0.003850351320579648, 0.005413336679339409, -0.009303096681833267, 0.0008122349390760064, 0.008489594794809818, -0.0019975705072283745, 0.0012309596640989184, -0.013393264263868332, 0.009982182644307613, 0.016114749014377594, 0.01184141170233488, 0.011622995138168335, -0.017574330791831017, 0.006369271781295538, -0.0034042242914438248, 0.009587840177118778, -0.004151434637606144, 0.011817649938166142, -0.008261512964963913, -0.010847586207091808, 0.011022225953638554, 0.010631284676492214, -0.004762258380651474, -0.00854813028126955] 
 , Step size: 
 [-0.00638458039611578, -0.006115510128438473, -0.007662625517696142, -0.010652965866029263, -0.010591533966362476, 0.012329842895269394, 0.01872108317911625, -0.011660606600344181, 0.0020708409138023853, 0.007683879695832729, 0.015835031867027283, 0.0004102709935978055, -0.019786080345511436, -0.005769089329987764, 0.0064899493008852005, -0.00881187990307808, -0.007005560211837292, -0.009628640487790108, 0.018861178308725357, -0.011945405043661594, 0.005942708346992731, 0.004911575000733137, 0.0037527973763644695, -0.012692755088210106, -0.002983881626278162, 2.103671431541443e-05, -0.011166929267346859, -0.011924520134925842, 0.003309181658551097, 0.009186005219817162, 0.015829389914870262, -0.009907578118145466, -0.017630156129598618, -0.0007819975726306438, 0.002265474060550332, 0.0005632731481455266, -0.009115057997405529, 0.00026032933965325356, -0.003481123596429825, -0.00801317673176527, -0.02480444125831127, -0.003139592008665204, -0.0005064234137535095, -0.009475268423557281, 0.0007783417240716517, -0.013477650471031666, -0.0072380066849291325, -0.014802534133195877, -0.00965835340321064, 0.0078119500540196896, 0.01285004522651434, -0.003368522971868515, -0.0075644226744771, 0.010492207482457161, -0.011526967398822308, 0.0006322218687273562, 0.0004920270876027644, 0.007296784780919552, 0.005781872663646936, 0.0029935529455542564, -0.0021470452193170786, 0.008340015076100826, 0.008308706805109978, 0.01246779877692461, -0.007420162670314312, 0.015447537414729595, -0.004742837511003017, 0.019267404451966286, 0.006905855145305395, 0.0073145353235304356, 0.008612414821982384, 0.0020325067453086376, -0.010842733085155487, 0.015859555453062057, -0.003786073997616768, 0.003793903160840273, 0.0356266088783741, 0.011008563451468945, 0.0036940420977771282, -0.0037512369453907013, -0.002588047878816724, -0.004431901499629021, -0.020105432718992233, -0.011020849458873272, 0.003215004689991474, -0.013903572224080563, 0.0016076070023700595, 0.004175959154963493, -0.02013995312154293, 0.004912716336548328, -0.006501756142824888, -0.011363399215042591, 0.0181109681725502, 0.003282886231318116, -0.0026033781468868256, -0.003121738787740469, -0.012417943216860294, 0.009564590640366077, -0.008620734326541424, 0.008312664926052094, -0.01395189668983221, 0.007178578991442919, -0.010977128520607948, 0.0031006536446511745, -0.01582842692732811, -0.014581030234694481, 0.000777515466324985, -0.007853183895349503, -0.015444394201040268, -0.010940277948975563, 0.010718065313994884, -0.005530524533241987, -0.004545802716165781, -0.003196967765688896, -0.00700575765222311, -0.0023692422546446323, -0.015165667049586773, 0.013049867935478687, 0.0103456424549222, -0.0040291910991072655, -0.005393651779741049, -0.020853975787758827, 0.0006980457692407072, 0.011221936903893948, 0.009995761327445507, 0.004852800164371729, 0.020648496225476265, 0.0024083335883915424, -0.006640277337282896, 0.005399639718234539, 0.015284867025911808, 0.007190860342234373, -0.008515902794897556, -0.007838322781026363, 0.0012862428557127714, 0.0019074613228440285, 0.004918728023767471, 0.01837035082280636, -0.0088213961571455, -0.01034018024802208, -0.005797260906547308, 0.0010912579018622637, -0.011366929858922958, -0.013539930805563927, -0.0012406334280967712, 0.0034653604961931705, 0.00975782424211502, 0.012717029079794884, 0.013938688673079014, -0.009866033680737019, 0.0005744383670389652, 0.01474916934967041, 0.009698331356048584, 0.014255920425057411, 0.0020795827731490135, -0.013454979285597801, 0.005822243634611368, -0.0003893630055245012, -0.0013286491157487035, -0.008286143653094769, 0.007624444551765919, 0.006444578990340233, 0.005912803113460541, 0.006615137215703726, -0.0149450171738863, -0.00520542124286294, -0.002665940672159195, 0.01837019808590412, -0.010213307105004787, 0.0037252488546073437, 0.002515322994440794, -0.017035556957125664, -0.001771981013007462, 0.005552387330681086, -0.0012494615511968732, -0.027235612273216248, 0.003953124396502972, -0.0005187307833693922, 0.01479868683964014, -0.00018942035967484117, -0.028427785262465477, 0.00533860782161355, -0.0057429056614637375, -0.025451920926570892, 0.004463649354875088, 0.022440338507294655, -0.026422841474413872, -0.014905612915754318, -0.00996408611536026, -0.0010680581908673048, 0.002952026668936014, 0.0050407899543643, 0.005425535142421722, 0.015992091968655586, 0.009109866805374622, -0.0004673950606957078, -0.018185889348387718, -0.009965335950255394, 0.005253821145743132, 0.00021044723689556122, 0.020611023530364037, -0.009308075532317162, -0.00788130983710289, -0.005800932180136442, 0.0008418066427111626, 0.0007325413171201944, 0.001297259470447898, 0.006666619796305895, 0.0080819521099329, -0.017033282667398453, -0.00045101356226950884, 0.005430769640952349, 0.010896056890487671, -0.00081993656931445, -0.0034268973395228386, 0.013632175512611866, 0.017970159649848938, -0.012863151729106903, -0.008051592856645584, -0.01723995991051197, 0.002581076929345727, -0.0026865277905017138, -7.892312714830041e-05, -0.018680134788155556, -0.008678968995809555, -0.007711122278124094, 0.008848398923873901, 0.011250251904129982, 0.009931158274412155, -0.008854116313159466, 0.0030376664362847805, 0.009251835756003857, 0.003292403183877468, -0.010547993704676628, 0.0007755173137411475, 0.007798034232109785, -0.0021305426489561796, 0.011403148993849754, 0.0027595050632953644, 0.00010403874330222607, -0.006107434164732695, 0.007426055613905191, -0.006529598496854305, 0.00551106221973896, -0.006826858501881361, 0.0010139085352420807, -0.003423065412789583, -0.016014931723475456, -0.021760685369372368, 0.011552194133400917, 0.009786629118025303, -0.010222701355814934, -0.03123980015516281, -0.016985753551125526, -0.00921558402478695, -0.006733954884111881, -0.005729543510824442, -0.009170381352305412, -0.00981014035642147, -0.013940812088549137, 0.010169939137995243, -0.015891650691628456, -0.01522741001099348, 0.016045138239860535, -0.007736629340797663, -0.009975668042898178, -0.0006854812963865697, -0.00352301774546504, 1.9906903617084026e-05, -0.02565564215183258, 0.000562331872060895, 0.005653219297528267, -0.02206178568303585, -0.023724839091300964, 0.00753798009827733, 0.009702617302536964, 0.012070310302078724, 0.013664045371115208, -0.003317810595035553, 0.0034040026366710663, -0.010898581705987453, 0.01139960065484047, -0.005676507484167814, -0.0038592929486185312, -0.0036296085454523563, -0.013649269007146358, 0.006237860303372145, 0.003313225694000721, -0.00858299806714058, 0.012156159617006779, 0.015268215909600258, 0.0038244016468524933, -0.0014734133146703243, 0.010587263852357864, -0.009969853796064854, -0.0014429837465286255, 0.005484592169523239, -0.018369615077972412, 0.007025362923741341, -0.016754480078816414, -0.004075156524777412, -0.009875084273517132, -0.002491629682481289, -0.005648964550346136, -0.004292646422982216, -0.006771354004740715, -0.0038570528849959373, 0.002225546631962061, -0.01114523597061634, 0.017053186893463135, -0.018317339941859245, -0.016613831743597984, -0.00992912519723177, 0.0038927539717406034, 0.010128963738679886, -0.01183463353663683, -0.010485945269465446, 0.0039225672371685505, 0.005058572627604008, 0.009455672465264797]