Epoch: 5-3, Loss: 5.4237284660339355, Lr: 0.001 , 
 ,Threshold: 
[-0.24602727591991425, -0.2214786559343338, -0.23474843800067902, -0.24555209279060364, -0.2226105034351349, -0.2296527624130249, -0.2459242194890976, -0.232106551527977, -0.2236255258321762, -0.22618193924427032, -0.2295028269290924, -0.24359512329101562, -0.24220871925354004, -0.23020116984844208, -0.23811301589012146, -0.22867320477962494, -0.230277419090271, -0.22443434596061707, -0.24345622956752777, -0.2357189655303955, -0.23323792219161987, -0.23806405067443848, -0.2388484925031662, -0.2381645143032074, -0.21515968441963196, -0.22699791193008423, -0.23445634543895721, -0.2226659059524536, -0.24175328016281128, -0.2520442008972168, -0.2291296124458313, -0.23287120461463928, -0.22889406979084015, -0.23166346549987793, -0.2164427489042282, -0.24023662507534027, -0.24538642168045044, -0.23043198883533478, -0.24328164756298065, -0.2254740297794342, -0.21196423470973969, -0.23079174757003784, -0.23437193036079407, -0.25844061374664307, -0.2446867674589157, -0.23425571620464325, -0.2331976592540741, -0.25117072463035583, -0.22029809653759003, -0.21876458823680878, -0.23091916739940643, -0.233747661113739, -0.24745316803455353, -0.25080206990242004, -0.2506709396839142, -0.241702139377594, -0.22796659171581268, -0.24429255723953247, -0.2310847043991089, -0.2258182168006897, -0.22792233526706696, -0.2388005256652832, -0.24344289302825928, -0.22876553237438202, -0.22576694190502167, -0.24236322939395905, -0.23192207515239716, -0.22561627626419067, -0.24448895454406738, -0.21907460689544678, -0.23487858474254608, -0.2639867067337036, -0.21825924515724182, -0.23398961126804352, -0.23740369081497192, -0.21982736885547638, -0.248980313539505, -0.23075221478939056, -0.22955182194709778, -0.22162896394729614, -0.22809147834777832, -0.21182407438755035, -0.2246917188167572, -0.25559067726135254, -0.24039790034294128, -0.2566991150379181, -0.2333410680294037, -0.22031892836093903, -0.21937955915927887, -0.22337563335895538, -0.2363957166671753, -0.22646792232990265, -0.2295638471841812, -0.2341994047164917, -0.22787874937057495, -0.21399885416030884, -0.22439336776733398, -0.2268804907798767, -0.2294122278690338, -0.23853453993797302, -0.22538051009178162, -0.235203355550766, -0.23604115843772888, -0.23305019736289978, -0.21810585260391235, -0.2324526011943817, -0.23380807042121887, -0.23915544152259827, -0.23693780601024628, -0.2354857474565506, -0.2436867654323578, -0.23683221638202667, -0.2251293659210205, -0.23831577599048615, -0.21772007644176483, -0.20778413116931915, -0.2281688004732132, -0.22474448382854462, -0.22932592034339905, -0.2503986656665802, -0.21788769960403442, -0.21808777749538422, -0.2290160059928894, -0.21870450675487518, -0.22858941555023193, -0.24107952415943146, -0.23198302090168, -0.22550764679908752, -0.21025192737579346, -0.23209013044834137, -0.2402523159980774, -0.22520050406455994, -0.23635560274124146, -0.22245939075946808, -0.22164389491081238, -0.2288552224636078, -0.2176499366760254, -0.23757143318653107, -0.2369566708803177, -0.225534588098526, -0.22935457527637482, -0.2211492657661438, -0.22568239271640778, -0.22483892738819122, -0.23561762273311615, -0.2344895750284195, -0.2334435135126114, -0.22371022403240204, -0.2450370192527771, -0.21737007796764374, -0.22190827131271362, -0.23022939264774323, -0.2250044196844101, -0.22656063735485077, -0.23468893766403198, -0.22072724997997284, -0.21373780071735382, -0.23256541788578033, -0.229257270693779, -0.23527422547340393, -0.23985736072063446, -0.23263943195343018, -0.21239203214645386, -0.23080973327159882, -0.2491312175989151, -0.2331630289554596, -0.23036256432533264, -0.23015014827251434, -0.2349788248538971, -0.2405906617641449, -0.22953759133815765, -0.23660625517368317, -0.23750434815883636, -0.2226809561252594, -0.2191675901412964, -0.22885778546333313, -0.23767106235027313, -0.23526595532894135, -0.23473352193832397, -0.22377808392047882, -0.22763055562973022, -0.23221443593502045, -0.21770456433296204, -0.23569795489311218, -0.23530986905097961, -0.23075735569000244, -0.24333547055721283, -0.24021756649017334, -0.24819958209991455, -0.234632208943367, -0.22334736585617065, -0.22103948891162872, -0.24005910754203796, -0.234567791223526, -0.22610771656036377, -0.21289433538913727, -0.2316797375679016, -0.22869721055030823, -0.23820365965366364, -0.2484135776758194, -0.23407110571861267, -0.22562503814697266, -0.22859454154968262, -0.2491900622844696, -0.23312389850616455, -0.245910182595253, -0.22477544844150543, -0.2258060872554779, -0.24266378581523895, -0.2348993569612503, -0.24374334514141083, -0.24369078874588013, -0.23624184727668762, -0.2381371259689331, -0.21939830482006073, -0.2364371418952942, -0.25603315234184265, -0.23679913580417633, -0.2474464327096939, -0.24901652336120605, -0.22329071164131165, -0.24249938130378723, -0.24299459159374237, -0.2548544704914093, -0.2226853370666504, -0.22551113367080688, -0.23258088529109955, -0.23211470246315002, -0.24153174459934235, -0.23897936940193176, -0.23671391606330872, -0.21567100286483765, -0.23091363906860352, -0.22743842005729675, -0.24620485305786133, -0.23431117832660675, -0.2301758974790573, -0.23888862133026123, -0.23386135697364807, -0.2486008256673813, -0.239596888422966, -0.2498456984758377, -0.2284540981054306, -0.25216713547706604, -0.24087963998317719, -0.23711806535720825, -0.23962008953094482, -0.21326296031475067, -0.2403201013803482, -0.2318553626537323, -0.22688767313957214, -0.21959134936332703, -0.224042147397995, -0.2235177755355835, -0.2357468605041504, -0.22418856620788574, -0.22515831887722015, -0.2344125509262085, -0.22047041356563568, -0.20823585987091064, -0.2040555775165558, -0.2173534780740738, -0.18415899574756622, -0.18687443435192108, -0.18630066514015198, -0.18368571996688843, -0.14525184035301208, -0.15907920897006989, -0.14852914214134216, -0.14460872113704681, -0.12503086030483246, -0.10067716240882874, -0.08303835242986679, -0.0968092530965805, -0.06405588984489441, -0.04552857577800751, -0.03404911234974861, -0.017791856080293655, -0.0027145501226186752, 0.03985627368092537, 0.04308096691966057, 0.10052847117185593, 0.13398103415966034, 0.19973860681056976, 0.24738667905330658, 0.3234078288078308, 0.3590667247772217, 0.41086050868034363, 0.44511133432388306, 0.42781177163124084, 0.4368070662021637, 0.4240095317363739, 0.41174665093421936, 0.38967835903167725, 0.4140833616256714, 0.3738340437412262, 0.3758142590522766, 0.36982038617134094, 0.34769660234451294, 0.35015586018562317, 0.350260466337204, 0.33227238059043884, 0.3270977735519409, 0.29967552423477173, 0.3183693289756775, 0.3190254867076874, 0.3135956823825836, 0.2451762706041336, 0.2135610729455948, 0.2361452728509903, 0.23009906709194183, 0.24401822686195374, 0.22766552865505219, 0.23904867470264435, 0.2165270298719406, 0.2175077348947525, 0.24241501092910767, 0.2438637912273407, 0.22828710079193115, 0.2282763123512268] 
 , Step size: 
 [-0.23259589076042175, -0.23408907651901245, -0.23516787588596344, -0.2383289933204651, -0.24120239913463593, -0.21646010875701904, -0.20817340910434723, -0.2380988597869873, -0.2249063402414322, -0.22248069941997528, -0.2173990160226822, -0.23087070882320404, -0.24733172357082367, -0.23010481894016266, -0.2161596268415451, -0.23079651594161987, -0.22839531302452087, -0.23181040585041046, -0.20456412434577942, -0.23467417061328888, -0.21665678918361664, -0.21777458488941193, -0.2188393920660019, -0.23682500422000885, -0.23011381924152374, -0.23133403062820435, -0.24562965333461761, -0.24636133015155792, -0.22979827225208282, -0.2218041568994522, -0.2117585837841034, -0.23309582471847534, -0.23641283810138702, -0.2160061150789261, -0.20879685878753662, -0.20834113657474518, -0.2157103568315506, -0.2050856202840805, -0.20886121690273285, -0.21444864571094513, -0.23257897794246674, -0.21197567880153656, -0.21021899580955505, -0.2212231606245041, -0.21257174015045166, -0.22316431999206543, -0.21529357135295868, -0.2209104746580124, -0.21422013640403748, -0.1961301565170288, -0.18979907035827637, -0.20395268499851227, -0.20615600049495697, -0.18412438035011292, -0.20509585738182068, -0.1921931654214859, -0.19177959859371185, -0.18425968289375305, -0.1851680725812912, -0.18631771206855774, -0.18921515345573425, -0.1793523132801056, -0.18004274368286133, -0.1762327402830124, -0.19616197049617767, -0.17277562618255615, -0.19271935522556305, -0.16840626299381256, -0.1800948679447174, -0.18081003427505493, -0.18043190240859985, -0.18762487173080444, -0.20118680596351624, -0.17554041743278503, -0.1962042599916458, -0.18973028659820557, -0.1623549461364746, -0.1854136735200882, -0.19353249669075012, -0.20224380493164062, -0.2021716684103012, -0.20441563427448273, -0.21845261752605438, -0.20823444426059723, -0.19130565226078033, -0.20706012845039368, -0.18957585096359253, -0.18386010825634003, -0.20439709722995758, -0.17373691499233246, -0.18031202256679535, -0.1769924908876419, -0.14584985375404358, -0.15418991446495056, -0.15104176104068756, -0.13586309552192688, -0.13822101056575775, -0.11353196948766708, -0.1292383074760437, -0.11207389086484909, -0.12854206562042236, -0.10342242568731308, -0.11582665890455246, -0.09872786700725555, -0.11348140984773636, -0.10887090116739273, -0.08871574699878693, -0.09149379283189774, -0.09198980778455734, -0.08227039873600006, -0.05858193337917328, -0.06350201368331909, -0.05249800905585289, -0.044201627373695374, -0.04095621779561043, -0.030030347406864166, -0.040196847170591354, -0.009683337062597275, -0.009763175621628761, -0.020665504038333893, -0.01774289831519127, -0.031870920211076736, -0.004852482117712498, 0.009030735120177269, 0.011118131689727306, 0.009880187921226025, 0.02978317067027092, 0.014723296277225018, 0.007660409435629845, 0.02068336308002472, 0.030781341716647148, 0.024274121969938278, 0.010503425262868404, 0.013478090986609459, 0.023844385519623756, 0.025841020047664642, 0.030646689236164093, 0.05012960359454155, 0.02895328402519226, 0.032356832176446915, 0.03803419694304466, 0.04560757800936699, 0.03256688266992569, 0.030815117061138153, 0.04400234296917915, 0.04867366701364517, 0.054008517414331436, 0.05607275664806366, 0.058248624205589294, 0.03480690345168114, 0.045156292617321014, 0.05765913426876068, 0.05155253782868385, 0.05684675648808479, 0.0450330451130867, 0.031183984130620956, 0.04877769201993942, 0.041025638580322266, 0.03916513919830322, 0.031298305839300156, 0.045843787491321564, 0.042959410697221756, 0.039671216160058975, 0.03892073780298233, 0.0165062565356493, 0.02442423813045025, 0.026518255472183228, 0.04553843289613724, 0.013789964839816093, 0.02762732096016407, 0.02667095512151718, 0.007442196365445852, 0.021171793341636658, 0.026380838826298714, 0.017386073246598244, -0.009638740681111813, 0.01817631721496582, 0.009360093623399734, 0.021819714456796646, 0.003470309544354677, -0.02801300212740898, 0.0015033541712909937, -0.012843310832977295, -0.035442546010017395, -0.0065140267834067345, 0.008233445696532726, -0.04083806276321411, -0.02977249026298523, -0.025337884202599525, -0.016872338950634003, -0.012661004438996315, -0.011387329548597336, -0.012113158591091633, -0.003959647845476866, -0.013423970900475979, -0.02586311474442482, -0.0450478233397007, -0.03797927126288414, -0.023732351139187813, -0.030209127813577652, -0.011581816710531712, -0.04344700276851654, -0.04362857714295387, -0.043528102338314056, -0.03881916031241417, -0.039353225380182266, -0.03858006000518799, -0.03400956839323044, -0.03596802428364754, -0.061479225754737854, -0.04557405784726143, -0.040334559977054596, -0.03514619544148445, -0.0469360314309597, -0.04998874291777611, -0.033382780849933624, -0.04399341717362404, -0.06668873131275177, -0.0638945922255516, -0.07532847672700882, -0.05732503905892372, -0.06404774636030197, -0.06296934187412262, -0.08321027457714081, -0.07503706216812134, -0.07611837983131409, -0.06087128072977066, -0.06015689671039581, -0.06303928047418594, -0.08350692689418793, -0.07324164360761642, -0.06892014294862747, -0.07580253481864929, -0.09063509106636047, -0.08059452474117279, -0.07512214779853821, -0.08691775798797607, -0.07563095539808273, -0.0868571549654007, -0.09263627976179123, -0.10225307196378708, -0.0919896587729454, -0.11062505841255188, -0.10384733974933624, -0.12038075923919678, -0.1171225905418396, -0.12577465176582336, -0.14167800545692444, -0.15425251424312592, -0.12774726748466492, -0.13765746355056763, -0.16644224524497986, -0.19698794186115265, -0.1932383030653, -0.1967938244342804, -0.20563186705112457, -0.21706576645374298, -0.233674556016922, -0.24689461290836334, -0.2641306519508362, -0.2535346448421478, -0.29216793179512024, -0.3037475347518921, -0.29175275564193726, -0.3198976218700409, -0.33323660492897034, -0.33449482917785645, -0.34837567806243896, -0.3551926016807556, -0.39042535424232483, -0.3738173842430115, -0.3774763345718384, -0.41315245628356934, -0.4221460223197937, -0.3974106013774872, -0.40089747309684753, -0.4034746587276459, -0.4059808850288391, -0.42604514956474304, -0.4221101701259613, -0.43839937448501587, -0.4175357520580292, -0.4356438219547272, -0.4345695674419403, -0.43485942482948303, -0.44524258375167847, -0.425547331571579, -0.42818307876586914, -0.4389394223690033, -0.4160362184047699, -0.4099140167236328, -0.4175370931625366, -0.4186364710330963, -0.40216386318206787, -0.418120801448822, -0.40437284111976624, -0.3921099305152893, -0.4106304347515106, -0.3797055184841156, -0.3977362811565399, -0.3789456784725189, -0.3784998655319214, -0.3646164834499359, -0.35813185572624207, -0.3526720404624939, -0.3499186933040619, -0.3491072356700897, -0.2680084705352783, -0.2781946063041687, -0.24842971563339233, -0.28692686557769775, -0.2861231565475464, -0.276725709438324, -0.2578430473804474, -0.24937613308429718, -0.2745804786682129, -0.27659836411476135, -0.26441216468811035, -0.2635512948036194, -0.2631649672985077]