Epoch: 1-3, Loss: 0.04885834828019142, Lr: 0.001 , 
 ,Threshold: 
[0.007747143507003784, 0.011766172014176846, -0.014437043108046055, 0.001591281732544303, -0.014467159286141396, -0.0037613867316395044, -7.75278895162046e-05, 0.002498096087947488, 0.0036811998579651117, -0.01291098352521658, -0.008409535512328148, -0.010576676577329636, -0.005953028332442045, 0.004269287921488285, 0.005209724884480238, 0.0035301274619996548, 0.012863975949585438, -0.012194395065307617, -0.006431682035326958, 0.015208004042506218, 0.008593695238232613, -0.0013940540375187993, -0.0021661247592419386, 0.0056859711185097694, -0.0008076895610429347, -0.019259391352534294, 0.008715883828699589, -0.0011739482870325446, -0.008390838280320168, 0.002012106589972973, -0.013309133239090443, -0.003505756612867117, 0.01975993812084198, 0.0016513158334419131, -0.003716674167662859, -0.003620065050199628, -0.0014482256956398487, 0.007351013366132975, -0.0057957530952990055, 0.0017347490647807717, 0.007353041786700487, 0.008852501399815083, -0.013787121511995792, 0.016208481043577194, -0.002737317467108369, 0.004637547302991152, -0.013723642565310001, -0.009907080791890621, -0.010778399184346199, 0.014780380763113499, 0.006785606034100056, -0.002528189215809107, 0.003496357472613454, 0.014177455566823483, 0.009824030101299286, 0.00401618517935276, -0.00395378889515996, 0.014351538382470608, 0.016894506290555, 0.0031193657778203487, 0.019300227984786034, -0.0016207393491640687, 0.010769654996693134, 0.01770225539803505, 0.009746742434799671, 0.023994205519557, 0.023310262709856033, 0.03275870531797409, 0.030258748680353165, 0.025942238047719002, 0.03528216481208801, 0.018064826726913452, 0.029892532154917717, 0.029172444716095924, 0.03236416354775429, 0.03927980735898018, 0.05232958495616913, 0.043999239802360535, 0.024604100733995438, 0.032553836703300476] 
 , Step size: 
 [0.002193327760323882, 0.014703340828418732, -7.87425524322316e-05, -0.0029486934654414654, -0.014311800710856915, 0.011072726920247078, -0.018862174823880196, 0.0012844399316236377, -0.008350702002644539, 0.018097952008247375, 0.005508926697075367, -0.0035469820722937584, -0.004958305507898331, -0.0003290058230049908, -0.006872188299894333, -0.018718689680099487, -0.008992846123874187, 0.002309774048626423, 0.015279075130820274, -0.007040403317660093, -0.02070687711238861, -0.01293735671788454, -0.0026989502366632223, 0.01473931223154068, -0.0028153930325061083, -0.017525196075439453, 0.001435647951439023, 0.008112144656479359, -0.005744036287069321, -0.004682143684476614, -0.008001251146197319, -0.01196568738669157, -0.010715692304074764, 0.008727873675525188, 0.00013630463217850775, -0.003849887754768133, 0.011627097614109516, 0.019387325271964073, 0.016489578410983086, 0.00820761639624834, 0.012253031134605408, 0.0071815489791333675, -0.018739914521574974, 0.009358986280858517, -0.023809164762496948, 0.006414630450308323, 0.004403348080813885, -0.0031346704345196486, 0.0037426413036882877, 0.0036626895889639854, 0.0009826564928516746, 0.0019018305465579033, -0.0008753066649660468, -0.007596991956233978, -0.013030988164246082, -0.002485679229721427, 0.016515661031007767, -0.005035001784563065, 0.009553434327244759, -0.015438270755112171, -0.015825506299734116, -0.014577205292880535, -0.0514829121530056, -0.008531131781637669, -0.02011966146528721, -0.01748955436050892, -0.018308870494365692, -0.021223653107881546, -0.027788326144218445, -0.015617930330336094, -0.026542795822024345, -0.028431475162506104, -0.009244033135473728, -0.021826839074492455, -0.03454405069351196, -0.06661459058523178, -0.03710944205522537, -0.047087907791137695, -0.03877853974699974, -0.03716222196817398]