Epoch: 2-3, Loss: 0.04826386272907257, Lr: 0.001 , 
 ,Threshold: 
[0.007747123949229717, 0.011766155250370502, -0.014437061734497547, 0.001591260195709765, -0.01446718629449606, -0.0037614176981151104, -7.756766717648134e-05, 0.002498046727851033, 0.003681136993691325, -0.012911058962345123, -0.008409633301198483, -0.010576799511909485, -0.0059531815350055695, 0.00426909513771534, 0.0052094836719334126, 0.003529820591211319, 0.012863592244684696, -0.01219487376511097, -0.006432278081774712, 0.015207231976091862, 0.008592729456722736, -0.0013952503213658929, -0.002167673083022237, 0.005684028845280409, -0.0008101651328615844, -0.01926250010728836, 0.008711961098015308, -0.00117881887126714, -0.008396978490054607, 0.0020043780095875263, -0.013318679295480251, -0.0035177553072571754, 0.01974477432668209, 0.001631513237953186, -0.003741822438314557, -0.003651869250461459, -0.001488115987740457, 0.007300813682377338, -0.005858164746314287, 0.0016563431126996875, 0.0072563341818749905, 0.008733464404940605, -0.013932322151958942, 0.016034727916121483, -0.0029458992648869753, 0.004360785707831383, -0.014050631783902645, -0.010286172851920128, -0.011192339472472668, 0.01434960588812828, 0.006405642256140709, -0.0027419913094490767, 0.003653546329587698, 0.01504029706120491, 0.011762258596718311, 0.0075487419962882996, 0.0015625833766534925, 0.02262626588344574, 0.02764471061527729, 0.016102740541100502, 0.034044910222291946, 0.01454723346978426, 0.027982152998447418, 0.03618071973323822, 0.02889755368232727, 0.043903373181819916, 0.0440024808049202, 0.05450591817498207, 0.05325118824839592, 0.05117079243063927, 0.06248827278614044, 0.05001532658934593, 0.06482298672199249, 0.06713628768920898, 0.07329986989498138, 0.08263278752565384, 0.09681786596775055, 0.0885290652513504, 0.06788285076618195, 0.07350991666316986] 
 , Step size: 
 [0.0021933461539447308, 0.014703355729579926, -7.87253156886436e-05, -0.002948673674836755, -0.014311774633824825, 0.011072755791246891, -0.018862135708332062, 0.0012844880111515522, -0.008350644260644913, 0.018098022788763046, 0.00550902308896184, -0.0035468610003590584, -0.004958153236657381, -0.0003288147272542119, -0.006871948018670082, -0.018718386068940163, -0.008992458693683147, 0.002310252282768488, 0.01527966745197773, -0.007039632648229599, -0.020705904811620712, -0.012936151586472988, -0.0026973921339958906, 0.01474126148968935, -0.002812908496707678, -0.017522087320685387, 0.0014395801117643714, 0.008117019198834896, -0.005737896542996168, -0.004674403462558985, -0.007991706021130085, -0.011953667737543583, -0.010700413957238197, 0.008747763000428677, 0.00016152106400113553, -0.0038180104456841946, 0.01166694425046444, 0.019437361508607864, 0.016551543027162552, 0.00828549824655056, 0.012349125929176807, 0.007300029043108225, -0.01859513856470585, 0.009532535448670387, -0.023599939420819283, 0.0066917710937559605, 0.004729448352009058, -0.0027564901392906904, 0.004154782276600599, 0.004093779716640711, 0.001362024457193911, 0.002113737165927887, -0.0010331394150853157, -0.008467018604278564, -0.014998717233538628, -0.006067831534892321, 0.010968725197017193, -0.013352276757359505, -0.0012850301573053002, -0.028555210679769516, -0.030762463808059692, -0.03096546046435833, -0.06897440552711487, -0.027309728786349297, -0.039593979716300964, -0.037756290286779404, -0.03939167782664299, -0.04341268166899681, -0.05128013715147972, -0.041393592953681946, -0.05441178008913994, -0.06114397570490837, -0.04505983367562294, -0.060870006680488586, -0.07676110416650772, -0.11145385354757309, -0.08316165953874588, -0.09329705685377121, -0.08383946120738983, -0.07990755140781403]