Epoch: 4-3, Loss: 0.03450985252857208, Lr: 0.001 , 
 ,Threshold: 
[0.007747056894004345, 0.011766110546886921, -0.014437111094594002, 0.0015911959344521165, -0.014467258006334305, -0.0037615103647112846, -7.768752402625978e-05, 0.002497898181900382, 0.0036809470038861036, -0.012911290861666203, -0.00840993132442236, -0.010577170178294182, -0.005953650455921888, 0.004268507473170757, 0.005208744201809168, 0.0035288846120238304, 0.012862415052950382, -0.012196348048746586, -0.00643411697819829, 0.015204857103526592, 0.008589751087129116, -0.0013989477884024382, -0.0021725227124989033, 0.005677924491465092, -0.000817962281871587, -0.019272303208708763, 0.008699566125869751, -0.001194257172755897, -0.008416472934186459, 0.001979805761948228, -0.013349046930670738, -0.0035558869130909443, 0.019696710631251335, 0.0015667334664613008, -0.003824420040473342, -0.0037567217368632555, -0.001619998482055962, 0.0071344501338899136, -0.006065871566534042, 0.0013961412478238344, 0.0069364518858492374, 0.008342819288372993, -0.014402163214981556, 0.015486534684896469, -0.0035771499387919903, 0.0034909534733742476, -0.015020660124719143, -0.011291776783764362, -0.01207107026129961, 0.013882665894925594, 0.006900665815919638, -0.000376741198124364, 0.009357741102576256, 0.025916893035173416, 0.02951360121369362, 0.033413562923669815, 0.035613108426332474, 0.0661759227514267, 0.07859229296445847, 0.07335076481103897, 0.09601675719022751, 0.08035458624362946, 0.09680444002151489, 0.10846411436796188, 0.10370855033397675, 0.12157690525054932, 0.12491512298583984, 0.13946537673473358, 0.1427687704563141, 0.14661715924739838, 0.16355888545513153, 0.15892520546913147, 0.17892664670944214, 0.18583610653877258, 0.1952129602432251, 0.2059815376996994, 0.21576027572155, 0.20010122656822205, 0.16745664179325104, 0.15782539546489716] 
 , Step size: 
 [0.002193405758589506, 0.014703399501740932, -7.867439126130193e-05, -0.0029486126732081175, -0.014311706647276878, 0.011072843335568905, -0.018862031400203705, 0.0012846324825659394, -0.008350455202162266, 0.018098250031471252, 0.005509314127266407, -0.003546492662280798, -0.004957687575370073, -0.0003282316611148417, -0.006871212739497423, -0.01871744729578495, -0.008991274051368237, 0.00231173075735569, 0.015281498432159424, -0.007037252653390169, -0.020702898502349854, -0.012932420708239079, -0.0026925099082291126, 0.014747384935617447, -0.0028050870168954134, -0.017512265592813492, 0.001452019321732223, 0.008132466115057468, -0.0057183983735740185, -0.004649796988815069, -0.007961342111229897, -0.011915468610823154, -0.010651975870132446, 0.008812823332846165, 0.00024433512589894235, -0.0037129439879208803, 0.011798664927482605, 0.019603170454502106, 0.01675770804286003, 0.008543894626200199, 0.012666930444538593, 0.007688793819397688, -0.018126798793673515, 0.010079779662191868, -0.02296736277639866, 0.007561492267996073, 0.00569568295031786, -0.0017527838936075568, 0.005031469278037548, 0.0045669302344322205, 0.0008648860966786742, -0.0002578478888608515, -0.006747804116457701, -0.019442640244960785, -0.033040884882211685, -0.03238475322723389, -0.023559292778372765, -0.05760534852743149, -0.053198523819446564, -0.08702191710472107, -0.09422799944877625, -0.09840938448905945, -0.1397407352924347, -0.10159443318843842, -0.11660479754209518, -0.11788591742515564, -0.12302528321743011, -0.1314442753791809, -0.14423613250255585, -0.14052587747573853, -0.1597069501876831, -0.1745755672454834, -0.16422207653522491, -0.18536294996738434, -0.20525194704532623, -0.24222664535045624, -0.21035456657409668, -0.21394911408424377, -0.19306108355522156, -0.17334087193012238]