Epoch: 5-3, Loss: 0.02623038738965988, Lr: 0.001 , 
 ,Threshold: 
[0.007746958639472723, 0.011766048148274422, -0.014437174424529076, 0.0015911214286461473, -0.014467346481978893, -0.0037616174668073654, -7.782662578392774e-05, 0.002497725887224078, 0.0036807272117584944, -0.012911561876535416, -0.008410274982452393, -0.010577606037259102, -0.0059541985392570496, 0.004267821088433266, 0.005207880400121212, 0.003527793800458312, 0.012861046940088272, -0.012198084965348244, -0.006436275318264961, 0.015202078968286514, 0.008586267940700054, -0.0014032871695235372, -0.002178268041461706, 0.0056706699542701244, -0.0008272779523395002, -0.019284099340438843, 0.008684525266289711, -0.0012131803669035435, -0.008440662175416946, 0.0019488846883177757, -0.01338791474699974, -0.003605665173381567, 0.01963246427476406, 0.0014785812236368656, -0.003939776215702295, -0.003907421603798866, -0.0018158481689170003, 0.006878563668578863, -0.0063976808451116085, 0.0009634779416956007, 0.006381351035088301, 0.007635029498487711, -0.015290319919586182, 0.014401204884052277, -0.004880686290562153, 0.0017879848601296544, -0.016880327835679054, -0.013183104805648327, -0.013568016700446606, 0.013481386937201023, 0.00868420023471117, 0.00516272708773613, 0.020946094766259193, 0.0460650697350502, 0.05680385231971741, 0.06721921265125275, 0.07612137496471405, 0.11188871413469315, 0.12775787711143494, 0.1256749927997589, 0.15122680366039276, 0.13827736675739288, 0.1582464575767517, 0.17251770198345184, 0.17107467353343964, 0.19257792830467224, 0.19972048699855804, 0.21826325356960297, 0.22530114650726318, 0.23231860995292664, 0.2526848316192627, 0.2506115138530731, 0.271984726190567, 0.2800734043121338, 0.28935280442237854, 0.2991957664489746, 0.30079904198646545, 0.2754748463630676, 0.2299819439649582, 0.20155271887779236] 
 , Step size: 
 [0.002193495398387313, 0.014703456312417984, -7.861673657316715e-05, -0.0029485446866601706, -0.014311629347503185, 0.01107294112443924, -0.01886190101504326, 0.0012847974430769682, -0.008350241929292679, 0.018098510801792145, 0.00550965266302228, -0.003546065418049693, -0.004957148339599371, -0.0003275540948379785, -0.0068703568540513515, -0.0187163595110178, -0.008989900350570679, 0.0023134658113121986, 0.015283647924661636, -0.0070344735868275166, -0.020699389278888702, -0.012928047217428684, -0.0026867282576858997, 0.014754662290215492, -0.002795750042423606, -0.01750044710934162, 0.001467100577428937, 0.008151398040354252, -0.005694219842553139, -0.004618832375854254, -0.007922478951513767, -0.011865617707371712, -0.010587245225906372, 0.008901413530111313, 0.000360004574758932, -0.0035619759000837803, 0.011994202621281147, 0.019858095794916153, 0.017086859792470932, 0.008973117917776108, 0.013217992149293423, 0.008392608724534512, -0.01724209077656269, 0.011162979528307915, -0.02166171185672283, 0.009264565072953701, 0.007550499867647886, 0.00013686825695913285, 0.006531754042953253, 0.004982553422451019, -0.0009254406904801726, -0.005826737731695175, -0.018439169973134995, -0.03996993601322174, -0.06101030856370926, -0.0670493096113205, -0.0649702250957489, -0.1043492928147316, -0.10350681841373444, -0.14059947431087494, -0.15080119669437408, -0.1577654927968979, -0.20287249982357025, -0.16736456751823425, -0.18580162525177002, -0.1908598393201828, -0.1999419927597046, -0.2125188261270523, -0.22920191287994385, -0.22877001762390137, -0.25158610939979553, -0.26919975876808167, -0.2605147063732147, -0.2832072079181671, -0.3035033941268921, -0.3401152193546295, -0.3015274107456207, -0.2969514727592468, -0.26453277468681335, -0.22527873516082764]