Epoch: 9-3, Loss: 0.004775210749357939, Lr: 0.001 , 
 ,Threshold: 
[0.007736674975603819, 0.011756296269595623, -0.014448096975684166, 0.001578186871483922, -0.014481833204627037, -0.0037784993182867765, -9.893148671835661e-05, 0.0024722577072679996, 0.003648883430287242, -0.01295133214443922, -0.008458995260298252, -0.010638321749866009, -0.006029653362929821, 0.004173999186605215, 0.005090625025331974, 0.0033805868588387966, 0.012677296996116638, -0.012432347051799297, -0.006724666338413954, 0.014834783971309662, 0.008123693987727165, -0.0019709591288119555, -0.002957473509013653, 0.0046738493256270885, -0.0021311440505087376, -0.020968658849596977, 0.006478745490312576, -0.004053045995533466, -0.012206807732582092, -0.0030689137056469917, -0.01993035525083542, -0.01237232144922018, 0.007911331951618195, -0.010643834248185158, -0.019589191302657127, -0.023789644241333008, -0.019523389637470245, -0.013641138561069965, -0.02708432823419571, -0.02296493574976921, -0.019806278869509697, -0.020681513473391533, -0.044839292764663696, -0.016249598935246468, -0.03540661931037903, -0.019077233970165253, -0.029852358624339104, -0.024876708164811134, -0.018501974642276764, 0.017086246982216835, 0.03146930783987045, 0.05029916763305664, 0.08103404194116592, 0.11874271184206009, 0.15114109218120575, 0.16286388039588928, 0.15731999278068542, 0.1887417882680893, 0.19092245399951935, 0.17448875308036804, 0.19192025065422058, 0.17609654366970062, 0.19684284925460815, 0.21624232828617096, 0.21983806788921356, 0.2513427734375, 0.2706288695335388, 0.29741135239601135, 0.3084038197994232, 0.31475576758384705, 0.33535507321357727, 0.3325249254703522, 0.3530636727809906, 0.36006906628608704, 0.3671444356441498, 0.3751550316810608, 0.365092396736145, 0.3395410180091858, 0.3310864269733429, 0.3228350877761841] 
 , Step size: 
 [0.002202737843617797, 0.014713752083480358, -6.71112647978589e-05, -0.0029350295662879944, -0.014296508394181728, 0.011090383864939213, -0.018840163946151733, 0.0013109054416418076, -0.008317683823406696, 0.01813872531056404, 0.005558735225349665, -0.003485090099275112, -0.0048814620822668076, -0.0002334155433345586, -0.006752511952072382, -0.018567901104688644, -0.008804096840322018, 0.0025489991530776024, 0.01557212695479393, -0.006665469612926245, -0.020232392475008965, -0.012354663573205471, -0.0019013523124158382, 0.015755658969283104, -0.0014879376394674182, -0.015812860801815987, 0.0036776536144316196, 0.010990390554070473, -0.0019352230010554194, 0.0003916960849892348, -0.0013984896941110492, -0.003120953217148781, 0.0011515984078869224, 0.02107987552881241, 0.01600095070898533, 0.016244804486632347, 0.02968459017574787, 0.04030710831284523, 0.03771563619375229, 0.03280320391058922, 0.03931565210223198, 0.036632977426052094, 0.012267121113836765, 0.04180263727903366, 0.008888348005712032, 0.030377360060811043, 0.020952541381120682, 0.012213370762765408, 0.01191580668091774, 0.0015331683680415154, -0.024027885869145393, -0.05214649811387062, -0.08022816479206085, -0.11430495977401733, -0.15742714703083038, -0.16415099799633026, -0.1456371694803238, -0.1792663335800171, -0.1640244871377945, -0.1863214671611786, -0.18889562785625458, -0.19328376650810242, -0.2403837889432907, -0.21197576820850372, -0.2358352094888687, -0.2513757050037384, -0.2728795111179352, -0.2935943305492401, -0.3141169250011444, -0.31272727251052856, -0.33549603819847107, -0.35230082273483276, -0.3430697023868561, -0.364976167678833, -0.38341477513313293, -0.41807979345321655, -0.36971843242645264, -0.36672115325927734, -0.37559744715690613, -0.3722632825374603]