Epoch: 8-3, Loss: 0.006115702446550131, Lr: 0.001 , 
 ,Threshold: 
[0.007738854270428419, 0.011758007109165192, -0.014446285553276539, 0.0015802985290065408, -0.014479490928351879, -0.003775782650336623, -9.552433766657487e-05, 0.002476377645507455, 0.0036540385335683823, -0.01294483058154583, -0.008451096713542938, -0.010628502815961838, -0.006017494481056929, 0.0041890451684594154, 0.005109338089823723, 0.0034040159080177546, 0.01270650327205658, -0.012393497861921787, -0.006677028723061085, 0.014895061030983925, 0.008200007490813732, -0.001881566597148776, -0.0027995496056973934, 0.004886210430413485, -0.0018376893131062388, -0.02056559920310974, 0.007042880170047283, -0.0032736468128859997, -0.011094027198851109, -0.0014714316930621862, -0.017688758671283722, -0.009155882522463799, 0.0124833257868886, -0.008006852120161057, -0.01613384112715721, -0.019403574988245964, -0.016256092116236687, -0.009979631751775742, -0.024444499984383583, -0.02001791074872017, -0.016530537977814674, -0.01700703427195549, -0.04132579639554024, -0.012949960306286812, -0.03235670179128647, -0.016352679580450058, -0.027402283623814583, -0.02245314046740532, -0.016693880781531334, 0.018529769033193588, 0.029440410435199738, 0.044422052800655365, 0.07630439102649689, 0.11075148731470108, 0.1444411277770996, 0.15935522317886353, 0.15656082332134247, 0.19159282743930817, 0.1970314234495163, 0.18444810807704926, 0.20475788414478302, 0.19301468133926392, 0.21760447323322296, 0.23691393435001373, 0.23759114742279053, 0.26736003160476685, 0.28093796968460083, 0.3040750026702881, 0.3140285313129425, 0.32002100348472595, 0.34022611379623413, 0.3369525372982025, 0.35684511065483093, 0.362914502620697, 0.3691978454589844, 0.37648800015449524, 0.36612582206726074, 0.3400612473487854, 0.3312423825263977, 0.322765052318573] 
 , Step size: 
 [0.0022007478401064873, 0.014712014235556126, -6.893528916407377e-05, -0.002937149256467819, -0.014298862777650356, 0.011087662540376186, -0.01884358748793602, 0.0013067703694105148, -0.008322865702211857, 0.01813223958015442, 0.005550869274884462, -0.003494865261018276, -0.004893570672720671, -0.0002484249125700444, -0.0067712231539189816, -0.01859142817556858, -0.008833534084260464, 0.002510037971660495, 0.015524573624134064, -0.006725902669131756, -0.020309291779994965, -0.012444846332073212, -0.0020603551529347897, 0.015542736276984215, -0.0017816928448155522, -0.01621595397591591, 0.003113330574706197, 0.01021253690123558, -0.0030430962797254324, -0.0011992278741672635, -0.0036280215717852116, -0.006318587809801102, -0.003411233192309737, 0.018407858908176422, 0.012535016052424908, 0.011874006129801273, 0.026402335613965988, 0.036643724888563156, 0.03504440188407898, 0.02983642928302288, 0.03602566197514534, 0.032946888357400894, 0.008730540052056313, 0.038468606770038605, 0.005797972436994314, 0.027597088366746902, 0.018434155732393265, 0.009730174206197262, 0.010035271756350994, 7.348344661295414e-05, -0.021906012669205666, -0.045914966613054276, -0.07511641085147858, -0.10599056631326675, -0.1505347192287445, -0.16095378994941711, -0.14537900686264038, -0.18275479972362518, -0.17085151374340057, -0.19692270457744598, -0.20221513509750366, -0.21069547533988953, -0.261470228433609, -0.23254910111427307, -0.2533247470855713, -0.2670670449733734, -0.2828114628791809, -0.2999259829521179, -0.31952059268951416, -0.3178997337818146, -0.3404320776462555, -0.3568977117538452, -0.34707769751548767, -0.36800602078437805, -0.3855912983417511, -0.4194633364677429, -0.3708347976207733, -0.3672906458377838, -0.37576285004615784, -0.372183233499527]