Epoch: 6-3, Loss: 0.011518965475261211, Lr: 0.001 , 
 ,Threshold: 
[0.0077452450059354305, 0.01176459714770317, -0.014438759535551071, 0.0015892614610493183, -0.014469454996287823, -0.003764111315831542, -8.097125100903213e-05, 0.002493903273716569, 0.003675916464999318, -0.012917499989271164, -0.008417677134275436, -0.010586881078779697, -0.0059657939709723, 0.004253316670656204, 0.005189655348658562, 0.0035047614946961403, 0.012832079082727432, -0.012234517373144627, -0.006481699645519257, 0.015143293887376785, 0.008511609397828579, -0.0014968053437769413, -0.002297124359756708, 0.005519601050764322, -0.0010229726321995258, -0.019534097984433174, 0.008361784741282463, -0.0016243605641648173, -0.008975019678473473, 0.0012533366680145264, -0.01428024098277092, -0.00477284612134099, 0.018093936145305634, -0.0004256290558259934, -0.00639612041413784, -0.007033764850348234, -0.005714092869311571, 0.002068252768367529, -0.012100457213819027, -0.00585064385086298, -0.001417052699252963, -0.0010728123597800732, -0.024762917309999466, 0.00436584884300828, -0.015202007256448269, -0.008188080973923206, -0.023789187893271446, -0.019911443814635277, -0.01710468716919422, 0.0147248525172472, 0.016242126002907753, 0.020898452028632164, 0.04641740396618843, 0.08028905838727951, 0.1030050665140152, 0.11971736699342728, 0.13196294009685516, 0.17446959018707275, 0.19426128268241882, 0.19609370827674866, 0.2260577231645584, 0.21638120710849762, 0.24188996851444244, 0.258543998003006, 0.2598336637020111, 0.28369733691215515, 0.2918698787689209, 0.31099745631217957, 0.3184707760810852, 0.3242163360118866, 0.34350526332855225, 0.33944016695022583, 0.3578732907772064, 0.3629390299320221, 0.3685305416584015, 0.3754664957523346, 0.36489182710647583, 0.33805033564567566, 0.31674185395240784, 0.25071364641189575] 
 , Step size: 
 [0.0021950488444417715, 0.014704952947795391, -7.699460547883064e-05, -0.0029466459527611732, -0.0143094751983881, 0.011075468733906746, -0.018858715891838074, 0.00128866545855999, -0.008345374837517738, 0.018104465678334236, 0.005517055746167898, -0.0035368073731660843, -0.004945567809045315, -0.00031305287848226726, -0.00685209222137928, -0.01869318261742592, -0.008960656821727753, 0.002350058639422059, 0.015329048968851566, -0.006975469645112753, -0.020624032244086266, -0.012833606451749802, -0.0025669168680906296, 0.014906388707458973, -0.002599341096356511, -0.0172498170286417, 0.00179090048186481, 0.008562889881432056, -0.00515999598428607, -0.003922608215361834, -0.007030345965176821, -0.01069711521267891, -0.00903877429664135, 0.010814489796757698, 0.00282140146009624, -0.0004330273368395865, 0.015886370092630386, 0.02465120702981949, 0.022757891565561295, 0.015749771147966385, 0.020982258021831512, 0.01707242615520954, -0.007789530325680971, 0.02118542417883873, -0.011347111314535141, 0.01924280636012554, 0.014523218385875225, 0.006918478757143021, 0.010163426399230957, 0.0037911562249064445, -0.008524240925908089, -0.021729785948991776, -0.044297073036432266, -0.07479119300842285, -0.10845936834812164, -0.12102335691452026, -0.1220930963754654, -0.16788358986377716, -0.17107698321342468, -0.21209505200386047, -0.2267642766237259, -0.23717205226421356, -0.2880057990550995, -0.2551102340221405, -0.2763073444366455, -0.28380557894706726, -0.2938595414161682, -0.3069744110107422, -0.32411137223243713, -0.32243892550468445, -0.34412866830825806, -0.3598169684410095, -0.34843480587005615, -0.3682364523410797, -0.385020911693573, -0.41846659779548645, -0.36955446004867554, -0.3651207685470581, -0.3604438900947571, -0.28692489862442017]