Epoch: 1-3, Loss: 67.40266418457031, Lr: 0.001 , 
 ,Threshold: 
[-0.06441732496023178, -0.06113827973604202, -0.05512154474854469, -0.06870168447494507, -0.048308514058589935, -0.04398854449391365, -0.06326533108949661, -0.05556260794401169, -0.04943761229515076, -0.08066354691982269, -0.0507764033973217, -0.05159195140004158, -0.07861293107271194, -0.07479339838027954, -0.055012259632349014, -0.05726329982280731, -0.05345766246318817, -0.05744938179850578, -0.058619238436222076, -0.032316792756319046, -0.062137454748153687, -0.0545680932700634, -0.06536702811717987, -0.06961525231599808, -0.04130934551358223, -0.05709672346711159, -0.06653323024511337, -0.051449794322252274, -0.06001419201493263, -0.05935775861144066, -0.052228014916181564, -0.04781473055481911, -0.06262984126806259, -0.052338939160108566, -0.06651782989501953, -0.07092588394880295, -0.060332223773002625, -0.0835133045911789, -0.0600174181163311, -0.06667590886354446, -0.056502461433410645, -0.0599786713719368, -0.07249615341424942, -0.06608379632234573, -0.04367700591683388, -0.04816943407058716, -0.06035399064421654, -0.07355107367038727, -0.06095871329307556, -0.058524757623672485, -0.053963612765073776, -0.07634031772613525, -0.05848868563771248, -0.07034096121788025, -0.0613059364259243, -0.06900707632303238, -0.07091864943504333, -0.061667442321777344, -0.06405306607484818, -0.0681862086057663, -0.05744143947958946, -0.07623587548732758, -0.05068831890821457, -0.061713237315416336, -0.05684718117117882, -0.06844010949134827, -0.05972139537334442, -0.058763861656188965, -0.07336146384477615, -0.054421983659267426, -0.05138431861996651, -0.05992899090051651, -0.0642830953001976, -0.06951767206192017, -0.05222255736589432, -0.047377027571201324, -0.0713106021285057, -0.06148727610707283, -0.06379180401563644, -0.05442248284816742, -0.07448794692754745, -0.05406340956687927, -0.06966137886047363, -0.0551411397755146, -0.07252848148345947, -0.05494694411754608, -0.058919232338666916, -0.058740273118019104, -0.04505818709731102, -0.0812070295214653, -0.061142586171627045, -0.0563119612634182, -0.04495958238840103, -0.055287525057792664, -0.06321797519922256, -0.05834731459617615, -0.06303820013999939, -0.04576095938682556, -0.08406628668308258, -0.05961458757519722, -0.07611766457557678, -0.057539716362953186, -0.06261841952800751, -0.06531587988138199, -0.03733925521373749, -0.0574529655277729, -0.07141374796628952, -0.04776239022612572, -0.0635821744799614, -0.04873783886432648, -0.07000294327735901, -0.045248664915561676, -0.03841583430767059, -0.051667720079422, -0.05927017331123352, -0.0457041971385479, -0.04459836706519127, -0.07569015026092529, -0.06100980564951897, -0.05053533986210823, -0.0648968517780304, -0.053096212446689606, -0.04919185861945152, -0.07071246206760406, -0.050565607845783234, -0.05556797608733177, -0.035312626510858536, -0.04573292285203934, -0.04478437826037407, -0.04917379096150398, -0.01280585490167141, -0.0006501510506495833, 0.004454640205949545, 0.03139731287956238, 0.03380424529314041, 0.030756289139389992, 0.044344112277030945, 0.04820731282234192, 0.0664479210972786, 0.06198057159781456, 0.04580589011311531, 0.0809595063328743, 0.07245368510484695, 0.04994048550724983, 0.05856841430068016, 0.05578984320163727, 0.08942020684480667, 0.06175659969449043, 0.08058926463127136, 0.07778050005435944, 0.05723908916115761, 0.0803130567073822, 0.06630540639162064, 0.08503343164920807, 0.054076507687568665, 0.0681501179933548, 0.07365915179252625, 0.08886699378490448, 0.06992154568433762, 0.07891631871461868] 
 , Step size: 
 [-0.044909991323947906, -0.031202970072627068, -0.05224277079105377, -0.05325489863753319, -0.0647626742720604, -0.0574827678501606, -0.04917796328663826, -0.06566538661718369, -0.07809604704380035, -0.05303223431110382, -0.0422881618142128, -0.07293684035539627, -0.0641680434346199, -0.05927657335996628, -0.05916231498122215, -0.06268177181482315, -0.051670461893081665, -0.0533422976732254, -0.06083958223462105, -0.045716602355241776, -0.06274233013391495, -0.0517902635037899, -0.05781696364283562, -0.049820564687252045, -0.039193976670503616, -0.047201670706272125, -0.04211607575416565, -0.05792611092329025, -0.05315078794956207, -0.05860583856701851, -0.04510087892413139, -0.052095677703619, -0.056638699024915695, -0.07467678934335709, -0.06678985804319382, -0.05179872736334801, -0.04898868128657341, -0.0749257281422615, -0.018372053280472755, -0.028225025162100792, -0.06459566205739975, -0.05187942087650299, -0.038781143724918365, -0.05275334045290947, -0.04105737805366516, -0.05636230856180191, -0.03493289649486542, -0.05117680877447128, -0.05120079964399338, -0.03556380420923233, -0.04362168908119202, -0.03559388220310211, -0.03740103542804718, -0.04720853269100189, -0.01600821502506733, -0.024359513074159622, -0.02378653548657894, -0.0403439886868, -0.037884656339883804, -0.020011411979794502, -0.002122343285009265, -0.028085559606552124, -0.0050851721316576, -0.007617967668920755, -0.005956039763987064, -0.017813853919506073, 0.02209961973130703, 0.01070567686110735, 0.0038974680937826633, 0.0013009291142225266, 0.03544238582253456, 0.0009256924968212843, 0.0014587255427613854, 0.01906546764075756, 0.008937273174524307, 0.020258719101548195, 0.01704360358417034, 0.01660543866455555, 0.021722793579101562, 0.03192342072725296, 0.013659174554049969, 0.006979907397180796, 0.011334280483424664, 0.03687451407313347, 0.01618620939552784, 0.033563245087862015, 0.02453988417983055, 0.02032226324081421, 0.023481566458940506, 0.03769171983003616, 0.03914598375558853, 0.04806731641292572, 0.015156712383031845, 0.03423180431127548, 0.04774791747331619, 0.025922924280166626, 0.040779147297143936, 0.0420340821146965, 0.04858045652508736, 0.029409151524305344, 0.04294387251138687, 0.019734853878617287, 0.03253417834639549, 0.047355085611343384, 0.03220857307314873, 0.01888716220855713, 0.029522407799959183, 0.03416065126657486, 0.029451996088027954, 0.04215273633599281, 0.031135274097323418, 0.015947751700878143, 0.001083677401766181, -0.01339657511562109, 0.0056665437296032906, -0.009927044622600079, -0.031686801463365555, -0.028623538091778755, -0.035661421716213226, -0.04375249147415161, -0.053308386355638504, -0.06583256274461746, -0.06351407617330551, -0.06253612786531448, -0.05248012766242027, -0.06823693960905075, -0.07179377228021622, -0.06823840737342834, -0.07574666291475296, -0.05533865839242935, -0.07544496655464172, -0.05655931681394577, -0.06648150086402893, -0.07388259470462799, -0.04882827773690224, -0.03942669555544853, -0.06756336987018585, -0.057654038071632385, -0.06347422301769257, -0.07314196228981018, -0.08435358107089996, -0.059680260717868805, -0.06827323138713837, -0.051947109401226044, -0.07301006466150284, -0.06705811619758606, -0.06295434385538101, -0.08063468337059021, -0.06737519800662994, -0.0673367977142334, -0.07134100049734116, -0.07623645663261414, -0.06416993588209152, -0.05923973396420479, -0.06688481569290161, -0.0841451957821846, -0.049865953624248505, -0.06155657023191452, -0.06287522614002228, -0.06575655192136765]