Epoch: 0-3, Loss: 24.492311477661133, Lr: 0.001 , 
 ,Threshold: 
[-0.0030828756280243397, -0.009255429729819298, 0.0001680597197264433, -0.015069017186760902, -0.012876816093921661, 0.0071226926520466805, 0.004656986799091101, -0.0135610681027174, -0.0039925118908286095, -0.023895297199487686, -0.007824685424566269, -0.0026084054261446, -0.008252996020019054, -0.010669012553989887, -0.002263534814119339, -0.02110472321510315, -0.00725273322314024, 0.006649252027273178, -0.010140089318156242, -0.011589876376092434, 0.00624905526638031, 0.010279402136802673, 0.00453392555937171, -0.01393147837370634, -0.015012389980256557, -0.018134603276848793, -0.004433833993971348, -0.004592025186866522, 0.0030292316805571318, 0.002202693372964859, -0.008515842258930206, -0.005139527842402458, -0.002533978782594204, -0.005460266023874283, -0.02384951151907444, -0.011759374290704727, 0.015576395206153393, -0.009904062375426292, -0.0058347564190626144, -0.010943548753857613, -0.016103120520710945, 0.0008336898172274232, -0.0061274864710867405, -0.004953464493155479, -0.00419877003878355, -0.0020988774485886097, -0.007236875128000975, -0.004551022779196501, -0.010089021176099777, 0.0006683066603727639, -0.020033694803714752, 0.008084377273917198, -0.0013968583662062883, -0.007005410268902779, 0.008720611222088337, -0.001705684931948781, 0.0031959821935743093, 0.008358527906239033, -0.03174855560064316, -0.007622929755598307, 0.00813185703009367, -0.013718914240598679, -0.011398217640817165, -0.011809351854026318, 0.01328617800027132, 0.006252483930438757, 0.0032795234583318233, 0.00287150451913476, -0.012324166484177113, 2.0681414753198624e-05, 0.0019179146038368344, -0.015236884355545044, 0.003833642229437828, -0.003753308206796646, 0.008369465358555317, 0.0011427205754444003, 0.0028260599356144667, 0.00024557707365602255, 0.0035445259418338537, 0.021112389862537384] 
 , Step size: 
 [-0.012254863977432251, -0.0037651141174137592, 0.006964406929910183, -0.001547322142869234, 0.007411620579659939, -0.007669456303119659, -0.013312666676938534, -0.0008294323924928904, -0.01338778156787157, -0.007547070272266865, -0.004044806584715843, -0.017491666600108147, -0.014150929637253284, 0.012984821572899818, 0.0008651251555420458, -0.00856842938810587, -0.013788926415145397, 0.004433838650584221, -0.008559660986065865, 0.01495871227234602, -0.013101068325340748, -0.01650022715330124, -0.011115018278360367, -0.012268112041056156, 0.00401297165080905, 0.004131858237087727, -0.004564912989735603, -0.0070877051912248135, -0.0032973953057080507, 0.015188484452664852, -0.01060475967824459, -0.010974717326462269, -0.010991144925355911, 0.00656107347458601, 0.00034383684396743774, -0.005219812039285898, 0.0004738450516015291, 0.004895148333162069, 0.006997662130743265, -0.009123163297772408, -0.0043332441709935665, 0.01198652759194374, -0.0023062678519636393, -0.023645412176847458, -0.0004252894432283938, 0.00799997802823782, -0.010434463620185852, -0.0024046055041253567, -0.015819180756807327, -0.0010632858611643314, 0.007427311036735773, 0.0334952287375927, -0.012196669355034828, 0.006963790860027075, -0.0033105879556387663, -0.008169128559529781, -0.009401624090969563, -0.014506416395306587, 0.0008381914813071489, 0.017461610957980156, 0.002543824724853039, -0.0062972079031169415, -0.006787905935198069, 0.013351831585168839, 0.004863466136157513, -0.007287820801138878, -0.014669546857476234, 0.002588327042758465, -0.009040615521371365, -0.004875796847045422, -0.0016519095515832305, 0.005311714950948954, -0.006609950680285692, 0.0097962012514472, -0.01476447656750679, 0.002158254850655794, -0.006857096217572689, -0.018817391246557236, -0.014451763592660427, 0.0017422368982806802]