Epoch: 9-3, Loss: 0.0035583260469138622, Lr: 0.001 , 
 ,Threshold: 
[0.004231274593621492, 0.012989750131964684, 0.015013930387794971, -0.0016313118394464254, -0.00026761754998005927, 0.0008155378163792193, 0.0029777169693261385, -0.008607009425759315, 0.015448790974915028, 0.010404986329376698, 0.006193817127496004, -0.004126872401684523, 0.005777394399046898, -0.01595817133784294, -0.01100985798984766, -0.001817601965740323, 0.001905733486637473, -0.009624991565942764, 0.00925243366509676, -0.0076192631386220455, 0.013884156011044979, 0.010353105142712593, 0.013741673901677132, 0.0053515443578362465, -0.0019966198597103357, 0.01579105295240879, 0.01882942207157612, -0.008818184025585651, -0.003068377496674657, -0.011456054635345936, 0.0016213401686400175, 0.01164951641112566, -0.0093375938013196, -0.020171120762825012, -0.016073185950517654, -0.0030222442001104355, -0.01460915245115757, -0.02166561596095562, -0.01854022778570652, -0.03895058110356331, -0.01601525768637657, -0.010551061481237411, -0.004790603648871183, 0.004352000541985035, 0.02006509155035019, 0.03740080073475838, 0.010988081805408001, 0.030010126531124115, 0.05886058881878853, 0.04610847681760788, 0.042340874671936035, 0.065803661942482, 0.08488304913043976, 0.13050280511379242, 0.1562432497739792, 0.1595854014158249, 0.14328010380268097, 0.16197143495082855, 0.1694108247756958, 0.19358372688293457, 0.20536190271377563, 0.20894408226013184, 0.22885537147521973, 0.2291174829006195, 0.2455417662858963, 0.2932129502296448, 0.2929016649723053, 0.2976878583431244, 0.30042898654937744, 0.31128382682800293, 0.3440510630607605, 0.36218416690826416, 0.360429048538208, 0.3638933002948761, 0.3738563060760498, 0.35684189200401306, 0.371073842048645, 0.3479064106941223, 0.34163376688957214, 0.316485196352005] 
 , Step size: 
 [-0.0025382547173649073, -0.010851535946130753, -0.0012706051347777247, -0.000531232450157404, 6.811250932514668e-05, 0.001069051562808454, -0.009095066227018833, -0.013726115226745605, -0.021454229950904846, 0.00028623611433431506, -0.004447074607014656, -0.010123088955879211, -0.010438784025609493, 0.01166532002389431, 0.0008408268913626671, 0.00651294132694602, 0.010071080178022385, -0.003931405954062939, 0.004475106950849295, 0.0021702370140701532, 0.0021274781320244074, -0.003746669739484787, 0.016824614256620407, -0.005119983106851578, -0.007539890706539154, -0.0028602329548448324, 0.0015702348900958896, 0.008511068299412727, 0.004609378054738045, 0.003327207639813423, 0.013478308916091919, 0.010720396414399147, 0.009363011457026005, 0.006587322801351547, 0.0298101045191288, 0.01646253652870655, 0.028978466987609863, 0.02846023254096508, 0.03397352248430252, 0.02910846844315529, 0.006894193589687347, 0.01361572090536356, 0.015498435124754906, -0.009134430438280106, -0.01302411500364542, -0.02144291065633297, -0.025645194575190544, -0.04225334897637367, -0.03138827532529831, -0.03568442538380623, -0.04587123915553093, -0.06643448024988174, -0.11333517730236053, -0.12258736044168472, -0.14465667307376862, -0.16835200786590576, -0.16687172651290894, -0.15286417305469513, -0.18893027305603027, -0.18838505446910858, -0.197205051779747, -0.19396020472049713, -0.22649845480918884, -0.2587161660194397, -0.2807430624961853, -0.29033324122428894, -0.29671815037727356, -0.2989843785762787, -0.3314366340637207, -0.32451319694519043, -0.3307242691516876, -0.3582577705383301, -0.37964558601379395, -0.3877814710140228, -0.38506925106048584, -0.40202149748802185, -0.36407703161239624, -0.3573811948299408, -0.35972192883491516, -0.3678889870643616]