Epoch: 7-3, Loss: 0.0031371680088341236, Lr: 0.001 , 
 ,Threshold: 
[0.004241955000907183, 0.012999317608773708, 0.015024447813630104, -0.001619284157641232, -0.00025391721283085644, 0.0008320226916112006, 0.0029980195686221123, -0.008582187816500664, 0.015480384230613708, 0.0104434909299016, 0.006242247298359871, -0.004066138993948698, 0.005854621529579163, -0.01586255244910717, -0.010889267548918724, -0.0016664427239447832, 0.002095832023769617, -0.009385530836880207, 0.009555373340845108, -0.007242036052048206, 0.014366486109793186, 0.01096273586153984, 0.014500466175377369, 0.006322859320789576, -0.0007766449707560241, 0.017346680164337158, 0.020796695724129677, -0.006127981934696436, 0.0003985868825111538, -0.00705529423430562, 0.007215684745460749, 0.018766365945339203, -0.0010100994259119034, -0.010183575563132763, -0.004633886739611626, 0.01080591045320034, -0.0018087485805153847, -0.007978350855410099, -0.005558253265917301, -0.024627333506941795, -0.0014484662096947432, 0.003004212863743305, 0.007128138095140457, 0.013028432615101337, 0.02339445985853672, 0.03616592660546303, 0.007091352250427008, 0.024382662028074265, 0.05134851112961769, 0.03689533844590187, 0.031892817467451096, 0.050657082349061966, 0.05883120372891426, 0.09728161245584488, 0.1298995018005371, 0.13883619010448456, 0.13458532094955444, 0.159636989235878, 0.17292945086956024, 0.20527321100234985, 0.22596195340156555, 0.2445501983165741, 0.26376402378082275, 0.26401767134666443, 0.27694419026374817, 0.31874796748161316, 0.31515607237815857, 0.3174862563610077, 0.31729480624198914, 0.32583048939704895, 0.35591307282447815, 0.371165007352829, 0.36702215671539307, 0.368795782327652, 0.3775976896286011, 0.3595609962940216, 0.37310659885406494, 0.34889158606529236, 0.341971755027771, 0.3084646165370941] 
 , Step size: 
 [-0.0025479106698185205, -0.010861637070775032, -0.0012817013775929809, -0.0005438274820335209, 5.3830459364689887e-05, 0.001052000210620463, -0.009115979075431824, -0.01375157106667757, -0.021486695855855942, 0.0002467914018779993, -0.004496545530855656, -0.01018494926393032, -0.01051739789545536, 0.011568881571292877, 0.0007196792284958065, 0.0063615040853619576, 0.009880990721285343, -0.004170577507466078, 0.004172137472778559, 0.0017937173834070563, 0.001644610078074038, -0.0043586804531514645, 0.016063615679740906, -0.00609557144343853, -0.00876616407185793, -0.0044282604940235615, -0.0004173100460320711, 0.005805809982120991, 0.001131342607550323, -0.0010771446395665407, 0.007886644452810287, 0.003596723545342684, 0.0010336046107113361, -0.003382848110049963, 0.01842413656413555, 0.0027032075449824333, 0.01620052382349968, 0.01480497419834137, 0.020984621718525887, 0.014816745184361935, -0.007669501937925816, 1.5073339454829693e-05, 0.0034945947118103504, -0.017925547435879707, -0.016423122957348824, -0.020203154534101486, -0.02181120030581951, -0.03668510913848877, -0.02392558939754963, -0.026598623022437096, -0.035555362701416016, -0.05119684338569641, -0.08649800717830658, -0.08823806047439575, -0.11810237914323807, -0.14833654463291168, -0.15937845408916473, -0.15186293423175812, -0.19365757703781128, -0.20116175711154938, -0.21894972026348114, -0.23083411157131195, -0.26182839274406433, -0.2928326427936554, -0.3110673427581787, -0.3150373101234436, -0.3185802102088928, -0.31890204548835754, -0.3487142026424408, -0.3396979868412018, -0.34324783086776733, -0.3677227199077606, -0.38655534386634827, -0.39289534091949463, -0.3889770805835724, -0.40486952662467957, -0.3662768602371216, -0.3584614396095276, -0.3601013123989105, -0.3584009110927582]