Epoch: 3-3, Loss: 0.04143814742565155, Lr: 0.001 , 
 ,Threshold: 
[0.004245467949658632, 0.013002810999751091, 0.015028384514153004, -0.0016147606074810028, -0.0002488702011760324, 0.0008380422368645668, 0.0030053691007196903, -0.008573275059461594, 0.015491644851863384, 0.01045712735503912, 0.0062592653557658195, -0.004044961184263229, 0.005881341174244881, -0.0158284492790699, -0.010847317054867744, -0.0016150624724105, 0.0021599906031042337, -0.00930525828152895, 0.009656183421611786, -0.00711717689409852, 0.014525218866765499, 0.011162550188601017, 0.014747198671102524, 0.006638443563133478, -0.0003809726913459599, 0.01785186678171158, 0.021437998861074448, -0.0053686099126935005, 0.0013563025277107954, -0.0058742789551615715, 0.008665784262120724, 0.020538153126835823, 0.0013883180217817426, -0.007287586573511362, -0.0012406350579112768, 0.014806196093559265, 0.0025533600710332394, -0.003275590483099222, -0.0007514756289310753, -0.02081986702978611, 0.0018982597393915057, 0.003909386228770018, 0.003700355999171734, 0.0036371806636452675, 0.008833218365907669, 0.01818528212606907, -0.014153863303363323, 0.0010179410455748439, 0.024055534973740578, 0.005295593291521072, -0.007676207460463047, -0.003275444032624364, -0.016260994598269463, 0.0005466467118822038, 0.012638633139431477, 0.008858075365424156, -0.00020622648298740387, 0.022932693362236023, 0.02926417998969555, 0.055571168661117554, 0.06685788929462433, 0.07261636853218079, 0.07342056930065155, 0.06068946421146393, 0.06239211559295654, 0.09504199773073196, 0.0872320681810379, 0.08470093458890915, 0.07833339273929596, 0.08346086740493774, 0.10960075259208679, 0.12084225565195084, 0.11503385752439499, 0.11778400093317032, 0.13090376555919647, 0.12034499645233154, 0.15404309332370758, 0.14387021958827972, 0.15210101008415222, 0.11423689126968384] 
 , Step size: 
 [-0.0025510576087981462, -0.010865391232073307, -0.0012859428534284234, -0.0005486467853188515, 4.84794654767029e-05, 0.0010456854943186045, -0.009123647585511208, -0.013760804198682308, -0.02149835415184498, 0.00023273139959201217, -0.004514022264629602, -0.010206613689661026, -0.01054468285292387, 0.011534424498677254, 0.0006774505600333214, 0.006309908349066973, 0.009816708974540234, -0.004250906873494387, 0.004071185830980539, 0.0016689125914126635, 0.0014855474000796676, -0.004559465683996677, 0.01581600494682789, -0.006412862334400415, -0.009164244867861271, -0.004937969148159027, -0.0010660344269126654, 0.00504059623926878, 0.00016824775957502425, -0.002262650988996029, 0.006432323716580868, 0.001815944560803473, -0.00137580675072968, -0.006287760566920042, 0.015029577538371086, -0.0013022513594478369, 0.011834004893898964, 0.01010038424283266, 0.01617369055747986, 0.010979234240949154, -0.011031383648514748, -0.0008934034849517047, 0.006933183874934912, -0.008446461521089077, -0.001713004196062684, -0.0020238026045262814, -0.000515300314873457, -0.01315590925514698, 0.0035855132155120373, 0.005178758874535561, 0.0041448078118264675, 0.0029273538384586573, -0.010962065309286118, 0.009152380749583244, -1.0958436178043485e-05, -0.01754046604037285, -0.023908989503979683, -0.014646977186203003, -0.04875916987657547, -0.04961829632520676, -0.05720226466655731, -0.055612511932849884, -0.06682373583316803, -0.0839889720082283, -0.09042655676603317, -0.08495420217514038, -0.08427694439888, -0.07977616786956787, -0.10318434983491898, -0.09059835225343704, -0.08991935104131699, -0.11006787419319153, -0.12676987051963806, -0.1333034634590149, -0.13239026069641113, -0.15397590398788452, -0.13212449848651886, -0.1347099393606186, -0.14603795111179352, -0.1262267827987671]