Epoch: 6-3, Loss: 0.010273491963744164, Lr: 0.001 , 
 ,Threshold: 
[0.004245440941303968, 0.013002987951040268, 0.015028642490506172, -0.0016144444234669209, -0.0002484670840203762, 0.0008385248365812004, 0.0030059656128287315, -0.008572537451982498, 0.01549259852617979, 0.010458297096192837, 0.006260773167014122, -0.004043019842356443, 0.005883880890905857, -0.015825899317860603, -0.010843787342309952, -0.0016101152868941426, 0.0021663359366357327, -0.009297124110162258, 0.009666631929576397, -0.007104051299393177, 0.01454213447868824, 0.011183926835656166, 0.014773271046578884, 0.0066711329855024815, -0.0003416438994463533, 0.017898619174957275, 0.02149168774485588, -0.0052789184264838696, 0.001469384878873825, -0.005735060200095177, 0.008836675435304642, 0.020748114213347435, 0.0016312447842210531, -0.0070039862766861916, -0.0009225790854543447, 0.015167695470154285, 0.0029050023294985294, -0.0029374731238931417, -0.00046777346869930625, -0.02043919451534748, 0.0019656741060316563, 0.0037667255382984877, 0.003276239614933729, 0.002894468605518341, 0.007827747613191605, 0.01696639321744442, -0.013033317402005196, 0.0012848088517785072, 0.02680712379515171, 0.01148969680070877, 0.006026683375239372, 0.02426178753376007, 0.031557366251945496, 0.07369770854711533, 0.10836921632289886, 0.1238069161772728, 0.1313248574733734, 0.1672406941652298, 0.1863606870174408, 0.22240951657295227, 0.24157507717609406, 0.25598597526550293, 0.26472845673561096, 0.25979629158973694, 0.26762670278549194, 0.30632349848747253, 0.3043844997882843, 0.30802544951438904, 0.30843642354011536, 0.31828323006629944, 0.3492862582206726, 0.3650861382484436, 0.36157241463661194, 0.3639295995235443, 0.37329021096229553, 0.3557751476764679, 0.3700944185256958, 0.34584471583366394, 0.3359992206096649, 0.25062739849090576] 
 , Step size: 
 [-0.0025510145351290703, -0.01086562778800726, -0.001286270678974688, -0.0005490392213687301, 4.799956877832301e-05, 0.0010451251873746514, -0.009124319069087505, -0.01376162376254797, -0.021499402821063995, 0.00023146900639403611, -0.004515625070780516, -0.01020865235477686, -0.010547332465648651, 0.011531784199178219, 0.000673841976094991, 0.006304895039647818, 0.009810310788452625, -0.004259088542312384, 0.004060673527419567, 0.0016557545168325305, 0.001468548201955855, -0.004581003915518522, 0.015789799392223358, -0.006445775739848614, -0.009203868918120861, -0.00498517882078886, -0.0011203637113794684, 0.004950297065079212, 5.449970194604248e-05, -0.0024023461155593395, 0.006260782480239868, 0.0016045341035351157, -0.0016200306126847863, -0.006572381593286991, 0.014711595140397549, -0.0016656068619340658, 0.011482536792755127, 0.009762403555214405, 0.01589031331241131, 0.0106029212474823, -0.011109134182333946, -0.0007536923512816429, 0.007358132395893335, -0.007704638876020908, -0.0006994486320763826, -0.0007921999786049128, -0.0015525969211012125, -0.013396517373621464, 0.0008389786817133427, -0.0010049818083643913, -0.009509280323982239, -0.024610579013824463, -0.05905802547931671, -0.06468921154737473, -0.09702964127063751, -0.1343986690044403, -0.1576407104730606, -0.16142874956130981, -0.20889121294021606, -0.220041885972023, -0.23578858375549316, -0.2431439757347107, -0.2625342011451721, -0.2877586781978607, -0.3005512058734894, -0.30141305923461914, -0.30680838227272034, -0.3087233603000641, -0.33928999304771423, -0.33174338936805725, -0.3363364040851593, -0.36142322421073914, -0.3809361457824707, -0.38789451122283936, -0.38454002141952515, -0.40094953775405884, -0.3630700409412384, -0.35517117381095886, -0.3534604012966156, -0.2889103591442108]