Epoch: 0-3, Loss: 0.05212198942899704, Lr: 0.001 , 
 ,Threshold: 
[0.004245542921125889, 0.013002866879105568, 0.015028444118797779, -0.0016146856360137463, -0.000248781027039513, 0.0008381516672670841, 0.0030055074021220207, -0.00857310276478529, 0.015491859056055546, 0.01045739371329546, 0.0062596057541668415, -0.004044535104185343, 0.005881884600967169, -0.015827767550945282, -0.010846449062228203, -0.001613963395357132, 0.0021613717544823885, -0.009303521364927292, 0.009658366441726685, -0.007114465348422527, 0.01452866941690445, 0.011166876181960106, 0.014752580784261227, 0.0066452850587666035, -0.0003724189009517431, 0.017862731590867043, 0.021451693028211594, -0.005351370200514793, 0.0013782372698187828, -0.005846879445016384, 0.008700154721736908, 0.020581716671586037, 0.0014452141476795077, -0.007215815130621195, -0.0011511859484016895, 0.014922071248292923, 0.002696847077459097, -0.0030955346301198006, -0.0005269372486509383, -0.020543759688735008, 0.0022490182891488075, 0.004333825781941414, 0.004210763610899448, 0.0042552463710308075, 0.009566470049321651, 0.01904904469847679, -0.013139910064637661, 0.0021371126640588045, 0.025165550410747528, 0.0069352248683571815, -0.0061091226525604725, -0.002129597356542945, -0.016164632514119148, -0.0014788131229579449, 0.0068998802453279495, -0.0024212978314608335, -0.018637962639331818, -0.004442405886948109, -0.008143763989210129, 0.008621484972536564, 0.011417152360081673, 0.010154190473258495, 0.005016457289457321, -0.012369970791041851, -0.014561397954821587, 0.014567910693585873, 0.0034362850710749626, -0.002579187508672476, -0.013402385637164116, -0.013435175642371178, 0.006800979375839233, 0.0112064303830266, -0.0016367991920560598, -0.005905346944928169, 0.0012116103898733854, -0.014009745791554451, 0.01779491826891899, 0.008611097931861877, 0.0208809245377779, -0.008550502359867096] 
 , Step size: 
 [-0.002551125595346093, -0.01086544618010521, -0.0012860054848715663, -0.0005487182643264532, 4.839341272599995e-05, 0.0010455783922225237, -0.009123780764639378, -0.013760975562036037, -0.02149857208132744, 0.00023246411001309752, -0.004514362663030624, -0.010207039304077625, -0.010545236989855766, 0.011533744633197784, 0.0006765811122022569, 0.006308813113719225, 0.009815331548452377, -0.004252633545547724, 0.004069001413881779, 0.0016662102425470948, 0.0014820975484326482, -0.004563808441162109, 0.015810612589120865, -0.006419731769710779, -0.009172842837870121, -0.0049489280208945274, -0.0010798851726576686, 0.005023237317800522, 0.00014618514978792518, -0.0022901571355760098, 0.006397826597094536, 0.0017720909090712667, -0.0014330340782180429, -0.006359849590808153, 0.014940121211111546, -0.0014185431646183133, 0.011690398678183556, 0.009920686483383179, 0.015950260683894157, 0.010705963708460331, -0.011380504816770554, -0.0013165108393877745, 0.006424473132938147, -0.009064584970474243, -0.0024475057143718004, -0.0028920734766870737, -0.0015294114127755165, -0.014280755072832108, 0.0024686141405254602, 0.0035343398340046406, 0.00257660960778594, 0.0017744649667292833, -0.0110718859359622, 0.011149367317557335, 0.0056814150884747505, -0.006262763403356075, -0.005442047957330942, 0.012762990780174732, -0.011178498156368732, -0.0022487598471343517, -0.0011426546843722463, 0.007563716731965542, 0.0023685088381171227, -0.010067859664559364, -0.01251864805817604, -0.0033722631633281708, 0.0007260037236846983, 0.008783030323684216, -0.009944099932909012, 0.007982365787029266, 0.014930708333849907, 0.002099919132888317, -0.0071373190730810165, -0.006215308327227831, 0.0012048978824168444, -0.015133526176214218, 0.009108801372349262, 0.005981299560517073, -0.009117585606873035, 0.002343518193811178]