Epoch: 6-34, Loss: 0.0007715383544564247, Lr: 0.001 , 
 ,Threshold: 
[0.00424417806789279, 0.013000926934182644, 0.015026106499135494, -0.0016174193006008863, -0.0002517682733014226, 0.0008346454706043005, 0.0030012873467057943, -0.008578159846365452, 0.015485545620322227, 0.010449829511344433, 0.006250273901969194, -0.004056005273014307, 0.005867586936801672, -0.01584663987159729, -0.010868859477341175, -0.001640578731894493, 0.0021285966504365206, -0.009343933314085007, 0.009608497843146324, -0.007175282575190067, 0.014452865347266197, 0.011073345318436623, 0.01464016828685999, 0.006504847668111324, -0.0005437472136691213, 0.01764991693198681, 0.021189136430621147, -0.005630475468933582, 0.001047413912601769, -0.006225090939551592, 0.00827806442975998, 0.02012467384338379, 0.0007022126810625196, -0.00807459931820631, -0.0021056237164884806, 0.013836541213095188, 0.0016305377939715981, -0.004151960369199514, -0.0014518328243866563, -0.02042887546122074, 0.002668691799044609, 0.006670449394732714, 0.010007157921791077, 0.014952749013900757, 0.024357451125979424, 0.03676622360944748, 0.00747681176289916, 0.02444911003112793, 0.050833482295274734, 0.036405522376298904, 0.03158140555024147, 0.05004115775227547, 0.057414837181568146, 0.09603963792324066, 0.12852808833122253, 0.13921913504600525, 0.13623028993606567, 0.16287223994731903, 0.17696331441402435, 0.21141663193702698, 0.23355168104171753, 0.2509613633155823, 0.26744604110717773, 0.26693880558013916, 0.2776029706001282, 0.3188742399215698, 0.3156784176826477, 0.318138986825943, 0.31777453422546387, 0.3263521194458008, 0.3563069701194763, 0.37137162685394287, 0.36711713671684265, 0.36884161829948425, 0.37761905789375305, 0.35955849289894104, 0.37311026453971863, 0.34885698556900024, 0.34183987975120544, 0.2962803840637207] 
 , Step size: 
 [-0.002549953991547227, -0.01086325105279684, -0.001283347955904901, -0.0005456770304590464, 5.169695941731334e-05, 0.0010493946028873324, -0.009119236841797829, -0.013755595311522484, -0.021491888910531998, 0.0002404059050604701, -0.004504635464400053, -0.010195160284638405, -0.010530483908951283, 0.011552934534847736, 0.0006992941489443183, 0.006335701327770948, 0.00984833762049675, -0.0042120167054235935, 0.0041191186755895615, 0.0017271883552893996, 0.001558244344778359, -0.004469648003578186, 0.01592356339097023, -0.006278378423303366, -0.009000319056212902, -0.004734035115689039, -0.0008142077713273466, 0.005304721649736166, 0.0004793590633198619, -0.0019097340991720557, 0.0068221851252019405, 0.0022328002378344536, -0.0006853329250589013, -0.005496432539075613, 0.01589779742062092, -0.000328287947922945, 0.012762695550918579, 0.010984028689563274, 0.016885463148355484, 0.010624137707054615, -0.011786816641688347, -0.0036481660790741444, 0.000624027568846941, -0.019822558388113976, -0.017334479838609695, -0.02073618955910206, -0.022141633555293083, -0.036685455590486526, -0.023338738828897476, -0.026051081717014313, -0.0351974256336689, -0.05053866654634476, -0.08500630408525467, -0.08690403401851654, -0.11670255661010742, -0.1488465666770935, -0.16120953857898712, -0.1553167700767517, -0.19789449870586395, -0.20749004185199738, -0.226773202419281, -0.23742567002773285, -0.2654532790184021, -0.29563063383102417, -0.31147482991218567, -0.31496742367744446, -0.3189722001552582, -0.31950613856315613, -0.34917256236076355, -0.340233713388443, -0.3436634838581085, -0.36793798208236694, -0.38665103912353516, -0.39294135570526123, -0.3889991044998169, -0.4048668146133423, -0.3662815988063812, -0.358424574136734, -0.35995468497276306, -0.3439886271953583]