Epoch: 3-3, Loss: 0.04127315431833267, Lr: 0.001 , 
 ,Threshold: 
[0.011681316420435905, 0.015245997346937656, -0.009098962880671024, -0.0028864662162959576, 0.03382835164666176, 0.003871014341711998, 0.017328079789876938, -0.0016738532576709986, 0.01517455093562603, -0.002607246395200491, 0.003341634990647435, -0.0019458818715065718, -0.0037088007666170597, -0.004357550293207169, 0.002716335467994213, -0.005080504342913628, -0.0052567594684660435, 0.0008029175805859268, 0.00038642343133687973, -0.01695435121655464, -0.023644965142011642, 0.00350925512611866, 0.0162384994328022, -0.006491050124168396, -0.0005708967801183462, -0.022342979907989502, -0.012311008758842945, 0.004955601412802935, 0.0030441300477832556, -0.000563139736186713, -0.006025182548910379, -0.006877583917230368, 0.012222301214933395, 0.016077470034360886, -0.010113006457686424, 0.015451828949153423, 0.011766744777560234, -0.008787672035396099, 0.0026938908267766237, -0.0217290036380291, -0.02273905649781227, 0.014252605848014355, -0.010239767841994762, -0.010950446128845215, -0.005814888048917055, -0.009158671833574772, -0.026827793568372726, -0.004284851253032684, 0.00010888033284572884, -0.001557823270559311, 0.00431204354390502, -0.0071260444819927216, -0.0027086122427135706, -0.0017845537513494492, 0.008278992958366871, 0.018597299233078957, 0.01654965803027153, 0.03197326138615608, 0.014644262380897999, 0.06491286307573318, 0.048754509538412094, 0.05476086959242821, 0.07055121660232544, 0.08572164177894592, 0.06079375371336937, 0.08473099768161774, 0.07868721336126328, 0.0845380499958992, 0.08074924349784851, 0.10019167512655258, 0.09586763381958008, 0.11900866776704788, 0.12661056220531464, 0.11017440259456635, 0.12599366903305054, 0.14309877157211304, 0.14563244581222534, 0.14092715084552765, 0.1463579386472702, 0.12173229455947876] 
 , Step size: 
 [0.012485834769904613, 0.0030206898227334023, -0.008095413446426392, -0.013943676836788654, -0.0167416762560606, 0.006038642954081297, 0.015461373142898083, -0.007129034958779812, -0.010078269988298416, -0.007500693667680025, 0.008355333469808102, 0.010604167357087135, 0.028047192841768265, -0.006513860542327166, 0.0019683917053043842, -0.024086328223347664, -0.01698339730501175, 0.006126046180725098, -0.01243340503424406, -0.006347454618662596, 3.722460678545758e-05, -0.00632313871756196, -0.00250306841917336, 0.008209711872041225, -0.009722815826535225, 0.015576516278088093, 0.0006313839694485068, 0.02050081640481949, 0.005083196796476841, 0.02751573920249939, -0.0007385127246379852, -0.00371434330008924, -0.016124514862895012, -0.018657464534044266, -0.0048781693913042545, 0.004505450371652842, 0.009940127842128277, -0.007109952624887228, -0.006046664901077747, -0.00979861430823803, -0.024371644482016563, 0.005239494610577822, 0.007709663361310959, 0.014058474451303482, 0.015102344565093517, 0.0035363626666367054, -0.00023101807164493948, 0.005035551730543375, 0.02344309538602829, 0.0027471131179481745, 0.0028373117092996836, -0.014527598395943642, -0.01965268887579441, -0.025633197277784348, -0.011627068743109703, -0.017110619693994522, -0.006938769482076168, -0.026209725067019463, -0.04747264087200165, -0.05487464368343353, -0.06034945696592331, -0.06377212703227997, -0.060526005923748016, -0.06674835085868835, -0.08328123390674591, -0.0625738874077797, -0.09419804811477661, -0.07792431861162186, -0.09857819229364395, -0.1131536215543747, -0.09880860149860382, -0.11952271312475204, -0.12987977266311646, -0.1365494728088379, -0.12046139687299728, -0.15213824808597565, -0.14611779153347015, -0.1472248136997223, -0.14178965985774994, -0.12918610870838165]