Epoch: 8-3, Loss: 0.005438538733869791, Lr: 0.001 , 
 ,Threshold: 
[0.011675692163407803, 0.015240510925650597, -0.009105052798986435, -0.0028935549780726433, 0.03382010757923126, 0.0038615295197814703, 0.017316404730081558, -0.00168834556825459, 0.015156249515712261, -0.002629712922498584, 0.003314003348350525, -0.001980352681130171, -0.003752646269276738, -0.004412431735545397, 0.0026482304092496634, -0.00516698369756341, -0.005363998003304005, 0.000670671637635678, 0.0002173917309846729, -0.017162539064884186, -0.023907333612442017, 0.0031771711073815823, 0.015820490196347237, -0.007036453578621149, -0.001281631994061172, -0.023227665573358536, -0.013420790433883667, 0.003580150194466114, 0.0012932635145261884, -0.002742958255112171, -0.008767945691943169, -0.01027587242424488, 0.00794812012463808, 0.010819763876497746, -0.01734180562198162, 0.006520215421915054, 0.0010554894106462598, -0.021419310942292213, -0.012021450325846672, -0.036809470504522324, -0.04008221998810768, -0.004945633467286825, -0.01779179647564888, -0.017763521522283554, -0.012453960254788399, -0.016171840950846672, -0.02526438608765602, -0.0019213443156331778, 0.01152023859322071, 0.02284812554717064, 0.04897063225507736, 0.06473753601312637, 0.08705917000770569, 0.09144365787506104, 0.12478814274072647, 0.14679250121116638, 0.14371353387832642, 0.16061876714229584, 0.14232181012630463, 0.20014126598834991, 0.18775509297847748, 0.20043739676475525, 0.22756803035736084, 0.2592405080795288, 0.24890778958797455, 0.2842644155025482, 0.29041561484336853, 0.3014962077140808, 0.30474087595939636, 0.3304947018623352, 0.3301491141319275, 0.3592885434627533, 0.37005719542503357, 0.35268673300743103, 0.3625853657722473, 0.3755015730857849, 0.35768941044807434, 0.33779633045196533, 0.3425624966621399, 0.32095903158187866] 
 , Step size: 
 [0.012490850873291492, 0.003026544349268079, -0.008088921196758747, -0.01393617782741785, -0.016732949763536453, 0.006048606708645821, 0.015473518520593643, -0.0071140495128929615, -0.010059373453259468, -0.007477620616555214, 0.008383539505302906, 0.010639121755957603, 0.028091222047805786, -0.0064587281085550785, 0.0020367444958537817, -0.023999296128749847, -0.016875337809324265, 0.006258981768041849, -0.012263217940926552, -0.006138552911579609, 0.0002989809727296233, -0.005991033278405666, -0.0020835415925830603, 0.008755228482186794, -0.009011121466755867, 0.016455382108688354, 0.0017325389198958874, 0.021863508969545364, 0.0068201301619410515, 0.02967042103409767, 0.001976064871996641, -0.0003460956795606762, -0.011861834675073624, -0.013383021578192711, 0.0023723612539470196, 0.013457073830068111, 0.020662540569901466, 0.005513462238013744, 0.008654162287712097, 0.0052864146418869495, -0.0070434813387691975, 0.024447008967399597, 0.015537778846919537, 0.021175095811486244, 0.02203790284693241, 0.010839014314115047, -0.0013556559570133686, 0.0030305390246212482, 0.012440849095582962, -0.02145485207438469, -0.042157139629125595, -0.08762960880994797, -0.11114032566547394, -0.1203901469707489, -0.1297508031129837, -0.14620579779148102, -0.1338055282831192, -0.15423598885536194, -0.1747734248638153, -0.1906377375125885, -0.20065155625343323, -0.21126088500022888, -0.22132813930511475, -0.24544589221477509, -0.27731069922447205, -0.267804890871048, -0.3115588128566742, -0.3002532720565796, -0.3278827667236328, -0.34896522760391235, -0.33895039558410645, -0.36619266867637634, -0.38040876388549805, -0.3871355652809143, -0.3668227195739746, -0.3956032693386078, -0.3726061284542084, -0.3622834384441376, -0.362014502286911, -0.36687836050987244]