Epoch: 7-3, Loss: 0.0033810357563197613, Lr: 0.001 , 
 ,Threshold: 
[0.011677810922265053, 0.015243103727698326, -0.009102024137973785, -0.0028899800963699818, 0.03382432088255882, 0.0038663442246615887, 0.01732230931520462, -0.001681021647527814, 0.015165491960942745, -0.0026183712761849165, 0.0033279622439295053, -0.001962918322533369, -0.003730636788532138, -0.00438460148870945, 0.0026828250847756863, -0.0051229544915258884, -0.00530931307002902, 0.0007381912437267601, 0.00030384465935640037, -0.017056096345186234, -0.023775223642587662, 0.0033464371226727962, 0.016033170744776726, -0.006760849617421627, -0.0009240606450475752, -0.022797897458076477, -0.012884940952062607, 0.004242445807904005, 0.002122132573276758, -0.001744372071698308, -0.007531989365816116, -0.0087906364351511, 0.009750636294484138, 0.0129112983122468, -0.014670192264020443, 0.00960199348628521, 0.004461725242435932, -0.017784105613827705, -0.008265622891485691, -0.03403017297387123, -0.03753703460097313, -0.003111334517598152, -0.017976395785808563, -0.019215146079659462, -0.015340489335358143, -0.020648330450057983, -0.03166010603308678, -0.010428727604448795, 0.00029202201403677464, 0.00839133933186531, 0.030351461842656136, 0.04260058328509331, 0.06500903517007828, 0.07272598892450333, 0.108173668384552, 0.13289162516593933, 0.13418860733509064, 0.15713083744049072, 0.14294099807739258, 0.20511677861213684, 0.19802705943584442, 0.21319234371185303, 0.24430066347122192, 0.27449801564216614, 0.26577138900756836, 0.29850587248802185, 0.30272597074508667, 0.31277263164520264, 0.3147439956665039, 0.33979353308677673, 0.33808526396751404, 0.3654889166355133, 0.37472426891326904, 0.35637804865837097, 0.3654330372810364, 0.37750720977783203, 0.3591245412826538, 0.33849626779556274, 0.34273114800453186, 0.31527963280677795] 
 , Step size: 
 [0.01248900406062603, 0.003023681929334998, -0.008092276751995087, -0.013940087519586086, -0.01673753373324871, 0.006043422035872936, 0.015467237681150436, -0.007121754344552755, -0.01006904523819685, -0.007489399053156376, 0.008369160816073418, 0.010621314868330956, 0.028068991377949715, -0.00648680841550231, 0.0020018971990793943, -0.024043738842010498, -0.016930563375353813, 0.006190999876707792, -0.012350364588201046, -0.0062454575672745705, 0.00016704101290088147, -0.0061604343354702, -0.002297129947692156, 0.008479524403810501, -0.009369311854243279, 0.01602844148874283, 0.0012006453471258283, 0.021207286044955254, 0.005997873842716217, 0.02868356555700302, 0.0007531291339546442, -0.0018167711095884442, -0.013657227158546448, -0.015475254505872726, -0.000298148748697713, 0.010378719307482243, 0.017267322167754173, 0.0018972435500472784, 0.004920587874948978, 0.002508708043023944, -0.009592108428478241, 0.02259254828095436, 0.015653418377041817, 0.0225321426987648, 0.024811657145619392, 0.015194362960755825, 0.004914090968668461, 0.011433908715844154, 0.023606272414326668, -0.0069210221990942955, -0.02319541573524475, -0.06488575041294098, -0.08854459226131439, -0.10145098716020584, -0.11321210116147995, -0.13272102177143097, -0.1250201016664505, -0.15164881944656372, -0.17632193863391876, -0.19640760123729706, -0.21176253259181976, -0.2248772531747818, -0.23856417834758759, -0.26084184646606445, -0.2939463257789612, -0.28203943371772766, -0.3239283859729767, -0.31182989478111267, -0.3383072316646576, -0.3587496876716614, -0.34740057587623596, -0.3727748990058899, -0.3853221535682678, -0.3910139203071594, -0.3698456883430481, -0.39771711826324463, -0.3741682171821594, -0.36305832862854004, -0.3622018098831177, -0.36019167304039]