Epoch: 6-3, Loss: 0.014421848580241203, Lr: 0.001 , 
 ,Threshold: 
[0.01168101653456688, 0.015245978720486164, -0.009098912589251995, -0.0028863821644335985, 0.033828459680080414, 0.003871107241138816, 0.0173281729221344, -0.0016737583791837096, 0.015174652449786663, -0.0026071483734995127, 0.0033417590893805027, -0.0019457392627373338, -0.0037086133379489183, -0.0043573216535151005, 0.002716628834605217, -0.005080122500658035, -0.005256244912743568, 0.0008036018116399646, 0.0003874327230732888, -0.016953131183981895, -0.023643648251891136, 0.003511796472594142, 0.01624222844839096, -0.00648982310667634, -0.0005693131242878735, -0.02234458550810814, -0.012312126345932484, 0.004955911543220282, 0.0030444320291280746, -0.0005658809095621109, -0.006023110821843147, -0.006870911922305822, 0.012239883653819561, 0.01609688252210617, -0.010455158539116383, 0.014924651943147182, 0.010985198430716991, -0.009930014610290527, 0.0010372344404459, -0.02394052781164646, -0.02584407851099968, 0.009990422986447811, -0.013006986118853092, -0.01414080522954464, -0.00930193904787302, -0.01274940650910139, -0.02854064851999283, -0.004859658889472485, 0.0028921111952513456, 0.006736851762980223, 0.022336043417453766, 0.025341911241412163, 0.04816017299890518, 0.06446100771427155, 0.0947873666882515, 0.12583671510219574, 0.13868506252765656, 0.16615740954875946, 0.15886427462100983, 0.22320617735385895, 0.2173607051372528, 0.234389066696167, 0.26423877477645874, 0.289631187915802, 0.2721969485282898, 0.3023589849472046, 0.30389204621315, 0.3141254186630249, 0.3157974183559418, 0.3402578830718994, 0.337898850440979, 0.36480429768562317, 0.3736083507537842, 0.35500675439834595, 0.3639504015445709, 0.37595734000205994, 0.35774192214012146, 0.33677172660827637, 0.3361766040325165, 0.25838708877563477] 
 , Step size: 
 [0.012486118823289871, 0.0030206560622900724, -0.008095544762909412, -0.013943841680884361, -0.01674186810851097, 0.00603847112506628, 0.015461193397641182, -0.007129210513085127, -0.010078443214297295, -0.007500872481614351, 0.008355127647519112, 0.010603942908346653, 0.028046926483511925, -0.006514169275760651, 0.0019680182449519634, -0.024086792021989822, -0.0169839970767498, 0.006125282030552626, -0.012434499338269234, -0.006348748691380024, 3.582162389648147e-05, -0.006325763184577227, -0.002506889868527651, 0.00820839498192072, -0.009724508039653301, 0.015577985905110836, 0.0006323771085590124, 0.02050040289759636, 0.005082788877189159, 0.02751827985048294, -0.0007406554068438709, -0.0037211442831903696, -0.016142459586262703, -0.018677685409784317, -0.004534829407930374, 0.005034396890550852, 0.010725223459303379, -0.005965258926153183, -0.004385943524539471, -0.007584543898701668, -0.02126913145184517, 0.00950425025075674, 0.01050825696438551, 0.017278140410780907, 0.01861756294965744, 0.007160273380577564, 0.0015677340561524034, 0.0056946175172924995, 0.020790722221136093, -0.005422698799520731, -0.015167334116995335, -0.04724505543708801, -0.07125633955001831, -0.09309887140989304, -0.09971726685762405, -0.12607192993164062, -0.13071323931217194, -0.16211460530757904, -0.1936718076467514, -0.21586556732654572, -0.2323429435491562, -0.2472214549779892, -0.25884702801704407, -0.2758003771305084, -0.30004698038101196, -0.2856438457965851, -0.3250551223754883, -0.3133007884025574, -0.3396076261997223, -0.3594645857810974, -0.3474317491054535, -0.3722362220287323, -0.3842768967151642, -0.38966771960258484, -0.3683570623397827, -0.3961400091648102, -0.37271633744239807, -0.3611971437931061, -0.355040043592453, -0.292199045419693]