Epoch: 3-3, Loss: 15.407529830932617, Lr: 0.001 , 
 ,Threshold: 
[-0.1740928739309311, -0.17589639127254486, -0.16340696811676025, -0.19354142248630524, -0.17483879625797272, -0.1796272248029709, -0.1885388046503067, -0.18458501994609833, -0.17804445326328278, -0.17754405736923218, -0.16941510140895844, -0.18403512239456177, -0.17535173892974854, -0.1772235482931137, -0.17223501205444336, -0.18223954737186432, -0.1806129813194275, -0.18071192502975464, -0.1800597459077835, -0.17946912348270416, -0.2000744640827179, -0.18183928728103638, -0.17855419218540192, -0.18350085616111755, -0.17514413595199585, -0.18282437324523926, -0.18318352103233337, -0.1871640682220459, -0.18039532005786896, -0.17394518852233887, -0.1918395310640335, -0.1751735806465149, -0.16735173761844635, -0.178181454539299, -0.17642007768154144, -0.19003483653068542, -0.1858227252960205, -0.169876366853714, -0.1752367913722992, -0.17252174019813538, -0.17824018001556396, -0.18771162629127502, -0.16631491482257843, -0.17637716233730316, -0.17540286481380463, -0.18215084075927734, -0.1874532699584961, -0.1648656576871872, -0.1855260282754898, -0.18241411447525024, -0.18085931241512299, -0.18392598628997803, -0.18005412817001343, -0.17892904579639435, -0.1986110657453537, -0.20826561748981476, -0.16808603703975677, -0.18776652216911316, -0.21216773986816406, -0.18150722980499268, -0.18236441910266876, -0.18410475552082062, -0.18709881603717804, -0.18192462623119354, -0.1748526692390442, -0.16577182710170746, -0.17089980840682983, -0.17978914082050323, -0.19026097655296326, -0.17392513155937195, -0.1813313513994217, -0.16617855429649353, -0.17222405970096588, -0.17274028062820435, -0.17084382474422455, -0.19036458432674408, -0.1815006285905838, -0.19125394523143768, -0.1955740600824356, -0.1978805959224701, -0.16937941312789917, -0.19399797916412354, -0.1909143626689911, -0.2090718299150467, -0.17434795200824738, -0.18764914572238922, -0.19293123483657837, -0.1874493807554245, -0.18742412328720093, -0.17177358269691467, -0.16840283572673798, -0.18489526212215424, -0.17333942651748657, -0.17463849484920502, -0.17249996960163116, -0.16758760809898376, -0.18715311586856842, -0.18991070985794067, -0.1879808008670807, -0.19119925796985626, -0.18434028327465057, -0.17005419731140137, -0.1736024171113968, -0.18560557067394257, -0.1939965933561325, -0.16047079861164093, -0.1654006391763687, -0.18363794684410095, -0.19482435286045074, -0.16771970689296722, -0.1973196417093277, -0.19053544104099274, -0.19431552290916443, -0.19890065491199493, -0.18049627542495728, -0.1610582172870636, -0.1826581358909607, -0.1660681813955307, -0.18433447182178497, -0.19073548913002014, -0.18300698697566986, -0.18080134689807892, -0.17984160780906677, -0.1905743032693863, -0.1872626692056656, -0.18314509093761444, -0.18244102597236633, -0.1784670352935791, -0.17220039665699005, -0.19131389260292053, -0.16284137964248657, -0.17719532549381256, -0.18096047639846802, -0.1553017646074295, -0.18430767953395844, -0.1875067502260208, -0.1813550591468811, -0.16790783405303955, -0.16457587480545044, -0.17957241833209991, -0.17689374089241028, -0.1812114268541336, -0.1841665506362915, -0.18338170647621155, -0.20984753966331482, -0.18154078722000122, -0.1879134476184845, -0.1781543791294098, -0.19544075429439545, -0.1602233201265335, -0.18736858665943146, -0.1727782040834427, -0.18393738567829132, -0.18324145674705505, -0.17153266072273254, -0.18583768606185913, -0.15631625056266785, -0.18366926908493042, -0.19369152188301086, -0.1787204146385193, -0.1788107305765152, -0.18008357286453247, -0.173944890499115, -0.16657638549804688, -0.1801145076751709, -0.17050015926361084, -0.20198461413383484, -0.16655148565769196, -0.18268504738807678, -0.18079176545143127, -0.18456944823265076, -0.17713139951229095, -0.18532885611057281, -0.17995554208755493, -0.1773194521665573, -0.17927788197994232, -0.17574149370193481, -0.17924776673316956, -0.194817453622818, -0.19309598207473755, -0.1800624281167984, -0.18869340419769287, -0.19449172914028168, -0.19741183519363403, -0.18966472148895264, -0.183401420712471, -0.19100958108901978, -0.17794381082057953, -0.17366036772727966, -0.1758095920085907, -0.17666323482990265, -0.18904490768909454, -0.1718273162841797, -0.19634221494197845, -0.17885005474090576, -0.1674221158027649, -0.1820564717054367, -0.18389560282230377, -0.18740828335285187, -0.18796774744987488, -0.17839843034744263, -0.1804833710193634, -0.1833222210407257, -0.19332343339920044, -0.1753854751586914, -0.19168682396411896, -0.17984618246555328, -0.17885567247867584, -0.1892760694026947, -0.17242929339408875, -0.17891082167625427, -0.17984774708747864, -0.18342682719230652, -0.19879509508609772, -0.20036135613918304, -0.19114843010902405, -0.19226787984371185, -0.20145423710346222, -0.17246457934379578, -0.17457227408885956, -0.18245576322078705, -0.17847755551338196, -0.18725501000881195, -0.1791425347328186, -0.17701776325702667, -0.1927071511745453, -0.18282091617584229, -0.18212805688381195, -0.18084995448589325, -0.1775457262992859, -0.19097180664539337, -0.16966493427753448, -0.16905368864536285, -0.18532118201255798, -0.18040470778942108, -0.19444014132022858, -0.16131865978240967, -0.16257214546203613, -0.18774640560150146, -0.17818136513233185, -0.18089789152145386, -0.19324266910552979, -0.18438614904880524, -0.18627029657363892, -0.19020740687847137, -0.19274939596652985, -0.1937256157398224, -0.19389989972114563, -0.18960605561733246, -0.1949642151594162, -0.17509140074253082, -0.1832573115825653, -0.17412559688091278, -0.18000683188438416, -0.17974096536636353, -0.19113704562187195, -0.19317828118801117, -0.18248389661312103, -0.19296954572200775, -0.19756576418876648, -0.18698887526988983, -0.18983343243598938, -0.1864023655653, -0.1922284960746765, -0.19157826900482178, -0.19491714239120483, -0.17871206998825073, -0.18254153430461884, -0.18719646334648132, -0.18364502489566803, -0.19329394400119781, -0.17930404841899872, -0.18784594535827637, -0.1781296730041504, -0.18971370160579681, -0.16996319591999054, -0.17126868665218353, -0.1689073145389557, -0.15273644030094147, -0.15198715031147003, -0.13587887585163116, -0.12567764520645142, -0.07232558727264404, -0.03507262095808983, 0.028912650421261787, 0.1108185276389122, 0.1652037650346756, 0.21447186172008514, 0.20354211330413818, 0.22649936378002167, 0.20646899938583374, 0.2064829170703888, 0.21024549007415771, 0.21183116734027863, 0.21524199843406677, 0.22148743271827698, 0.22261053323745728, 0.2033618837594986, 0.19969676434993744, 0.20550155639648438, 0.18953272700309753, 0.19802232086658478, 0.18563279509544373, 0.18751828372478485, 0.20915772020816803, 0.1813221424818039, 0.17175838351249695, 0.15912359952926636, 0.18405914306640625, 0.1636325716972351, 0.17314273118972778, 0.1886581927537918, 0.18323996663093567, 0.17740443348884583, 0.16873615980148315, 0.18090032041072845, 0.17556551098823547, 0.17424781620502472, 0.16804488003253937, 0.16188080608844757] 
 , Step size: 
 [-0.18531769514083862, -0.17972245812416077, -0.18910564482212067, -0.16570183634757996, -0.17816869914531708, -0.18396447598934174, -0.1863643229007721, -0.1793939471244812, -0.1913452446460724, -0.17861327528953552, -0.17278464138507843, -0.17537128925323486, -0.18152248859405518, -0.18763965368270874, -0.18706540763378143, -0.17860350012779236, -0.1829787790775299, -0.17597171664237976, -0.1554487943649292, -0.18931502103805542, -0.16827362775802612, -0.17309097945690155, -0.17847786843776703, -0.17971572279930115, -0.18085253238677979, -0.1873627007007599, -0.18237198889255524, -0.17409630119800568, -0.1744336485862732, -0.18676482141017914, -0.1710706651210785, -0.17358405888080597, -0.15601566433906555, -0.1620781570672989, -0.15607726573944092, -0.18135985732078552, -0.16630879044532776, -0.1677001714706421, -0.15835797786712646, -0.16469918191432953, -0.16729114949703217, -0.18085527420043945, -0.18017315864562988, -0.16740097105503082, -0.1644417643547058, -0.1496177762746811, -0.15767593681812286, -0.14525377750396729, -0.155080184340477, -0.1464473456144333, -0.15404683351516724, -0.15181989967823029, -0.16029663383960724, -0.14405852556228638, -0.15883797407150269, -0.15049909055233002, -0.14481323957443237, -0.16941440105438232, -0.16656747460365295, -0.1706901490688324, -0.13633643090724945, -0.1563778966665268, -0.1370733231306076, -0.15352162718772888, -0.14816536009311676, -0.12824782729148865, -0.1426853984594345, -0.14527416229248047, -0.14845919609069824, -0.13913415372371674, -0.15044334530830383, -0.1279330998659134, -0.14834338426589966, -0.15720374882221222, -0.13935787975788116, -0.1379600316286087, -0.14304077625274658, -0.15106342732906342, -0.1647949367761612, -0.15339729189872742, -0.13107356429100037, -0.14132753014564514, -0.14863231778144836, -0.14693967998027802, -0.1382867991924286, -0.12688685953617096, -0.14669762551784515, -0.13089406490325928, -0.14328625798225403, -0.10945473611354828, -0.11683259904384613, -0.12844178080558777, -0.11595811694860458, -0.09906648844480515, -0.09856271743774414, -0.09184135496616364, -0.07906156033277512, -0.09757579118013382, -0.07614949345588684, -0.05842166021466255, -0.08609063923358917, -0.07025251537561417, -0.050976723432540894, -0.0691821426153183, -0.05402173846960068, -0.056246090680360794, -0.03941718116402626, -0.03857353702187538, -0.04090379923582077, -0.031836267560720444, -0.03603191673755646, -0.008825495839118958, -0.024582229554653168, -0.0018858485855162144, -0.014252283610403538, -0.004976977594196796, 0.013177151791751385, 0.019239012151956558, -0.0026773756835609674, 0.02318551018834114, 0.021566780284047127, 0.023187672719359398, 0.03086235374212265, 0.030817478895187378, 0.03990715369582176, 0.033189307898283005, 0.05001649633049965, 0.04069020226597786, 0.0494929775595665, 0.04911157488822937, 0.06439393758773804, 0.058375515043735504, 0.05402365326881409, 0.057229183614254, 0.04362814500927925, 0.06406141817569733, 0.06717221438884735, 0.07525014132261276, 0.06398559361696243, 0.07276419550180435, 0.08168938010931015, 0.07173586636781693, 0.06152651458978653, 0.07985599339008331, 0.07938586920499802, 0.07491922378540039, 0.05921337381005287, 0.05447915941476822, 0.06690874695777893, 0.04620879888534546, 0.041765958070755005, 0.05931060016155243, 0.059206608682870865, 0.04509821534156799, 0.04628278315067291, 0.05530828610062599, 0.05349111929535866, 0.06277000159025192, 0.04642593488097191, 0.06894420087337494, 0.05552367866039276, 0.06116176396608353, 0.031525615602731705, 0.05581158027052879, 0.04242280498147011, 0.03621317073702812, 0.045786477625370026, 0.033783745020627975, 0.04161437973380089, 0.05257582664489746, 0.02712562493979931, 0.035991229116916656, 0.04629339650273323, 0.016730085015296936, 0.022213714197278023, 0.022800518199801445, 0.0165878776460886, 0.048878904432058334, 0.0035652308724820614, 0.007132663391530514, 0.018245253711938858, 0.022474423050880432, 0.030135227367281914, 0.013385227881371975, 0.006850751582533121, 0.013745065778493881, 0.01819470524787903, 0.013902720995247364, 0.005541384685784578, -0.001374156679958105, -0.01854436844587326, 0.006428147666156292, 0.01712946593761444, -0.00907442718744278, -0.01106350403279066, -0.011670107953250408, -0.0078041767701506615, -0.003916948102414608, -0.016395393759012222, -0.03194766491651535, -0.005409312434494495, -0.017389867454767227, -0.015315952710807323, -0.02526167221367359, -0.05180494114756584, -0.040566712617874146, -0.022621214389801025, -0.03292487934231758, -0.03414818271994591, -0.04878566041588783, -0.02297317609190941, -0.052650563418865204, -0.05256110057234764, -0.04126133769750595, -0.05487281456589699, -0.04137983173131943, -0.0568905733525753, -0.06336357444524765, -0.05042997747659683, -0.053293656557798386, -0.06414750218391418, -0.06009550392627716, -0.041072502732276917, -0.059075091034173965, -0.04437324404716492, -0.061512503772974014, -0.05474494770169258, -0.07344471663236618, -0.05087067186832428, -0.07377700507640839, -0.08155461400747299, -0.06679984927177429, -0.07839378714561462, -0.07293065637350082, -0.0761905312538147, -0.09073854982852936, -0.08069251477718353, -0.07310176640748978, -0.0907042920589447, -0.09219185262918472, -0.09080517292022705, -0.08318008482456207, -0.09607186168432236, -0.09720003604888916, -0.09496508538722992, -0.08953772485256195, -0.11492903530597687, -0.100200355052948, -0.08834394812583923, -0.0986413061618805, -0.07015694677829742, -0.10374056547880173, -0.0797620415687561, -0.07035788148641586, -0.09182702749967575, -0.09724961966276169, -0.10080275684595108, -0.10365210473537445, -0.091412253677845, -0.10585245490074158, -0.1178571954369545, -0.10269372910261154, -0.10683595389127731, -0.12558868527412415, -0.12226620316505432, -0.12969155609607697, -0.10667011141777039, -0.13310196995735168, -0.13700486719608307, -0.12627467513084412, -0.15780217945575714, -0.14977316558361053, -0.16414929926395416, -0.18454097211360931, -0.17358483374118805, -0.18640252947807312, -0.20036835968494415, -0.1917227953672409, -0.2067367136478424, -0.19956666231155396, -0.20857077836990356, -0.2038797289133072, -0.20903712511062622, -0.19640956819057465, -0.21659602224826813, -0.226128488779068, -0.21795332431793213, -0.22805255651474, -0.21360112726688385, -0.21262186765670776, -0.2234787493944168, -0.2192588746547699, -0.24537058174610138, -0.2367253601551056, -0.23025310039520264, -0.22417356073856354, -0.22091612219810486, -0.22368139028549194, -0.21812589466571808, -0.241519033908844, -0.21466360986232758, -0.23245084285736084, -0.20343464612960815, -0.22072145342826843, -0.21293947100639343, -0.20326657593250275, -0.19064010679721832, -0.1964135766029358, -0.1879231482744217, -0.20800934731960297, -0.21935689449310303, -0.18188001215457916, -0.18724146485328674, -0.1781531572341919, -0.19238534569740295, -0.17469479143619537, -0.1739894598722458, -0.1853911280632019, -0.17816922068595886, -0.1793774664402008]