Epoch: 1-3, Loss: 198.06808471679688, Lr: 0.001 , 
 ,Threshold: 
[-0.05369910970330238, -0.05606166273355484, -0.04372667893767357, -0.07387330383062363, -0.055430490523576736, -0.05993093550205231, -0.06879865378141403, -0.06496550142765045, -0.05845536291599274, -0.05821111425757408, -0.049931786954402924, -0.06427902728319168, -0.05540207028388977, -0.057242125272750854, -0.05229012295603752, -0.062290508300065994, -0.060655392706394196, -0.06085184961557388, -0.06024084985256195, -0.059585753828287125, -0.08013641834259033, -0.06176746264100075, -0.058480653911828995, -0.06351490318775177, -0.05536362901329994, -0.0633229911327362, -0.06375455856323242, -0.06760847568511963, -0.06068086251616478, -0.05404770001769066, -0.07187766581773758, -0.05509919673204422, -0.047200758010149, -0.05801287665963173, -0.056325942277908325, -0.06997699290513992, -0.0658552423119545, -0.04991096258163452, -0.05526535212993622, -0.05264345183968544, -0.05838475376367569, -0.06795202195644379, -0.04672129452228546, -0.0567375011742115, -0.055607039481401443, -0.06225830316543579, -0.06747101247310638, -0.04478944092988968, -0.0653630942106247, -0.06214356794953346, -0.060453351587057114, -0.06338463723659515, -0.05945504456758499, -0.058287445455789566, -0.07791821658611298, -0.08749547600746155, -0.047216836363077164, -0.06677746027708054, -0.09103287756443024, -0.06019105017185211, -0.06098487973213196, -0.06276735663414001, -0.06579378992319107, -0.060656316578388214, -0.05362781882286072, -0.044605039060115814, -0.04978622868657112, -0.05874550715088844, -0.06930436193943024, -0.053048212081193924, -0.06049554795026779, -0.04537421837449074, -0.051492851227521896, -0.05206664279103279, -0.05020716041326523, -0.06975176185369492, -0.060908179730176926, -0.070683553814888, -0.07503297179937363, -0.0773882046341896, -0.0489468052983284, -0.07362166792154312, -0.07059991359710693, -0.08883820474147797, -0.054234109818935394, -0.0676385834813118, -0.0730532556772232, -0.06774421036243439, -0.06787784397602081, -0.052411314100027084, -0.04925686866044998, -0.06597764790058136, -0.05472353845834732, -0.0563376247882843, -0.054643917828798294, -0.04985543340444565, -0.06946185976266861, -0.07231751084327698, -0.07044079899787903, -0.07363676279783249, -0.0669703260064125, -0.05279349163174629, -0.05635994300246239, -0.06839078664779663, -0.07682589441537857, -0.04336989298462868, -0.04839766025543213, -0.06659644842147827, -0.07774613052606583, -0.05067816004157066, -0.08026671409606934, -0.07344838976860046, -0.07721828669309616, -0.08187130838632584, -0.06343300640583038, -0.044017594307661057, -0.0656730979681015, -0.048969969153404236, -0.06713893264532089, -0.0733884647488594, -0.06549181789159775, -0.0630941092967987, -0.061873313039541245, -0.07262289524078369, -0.06932675093412399, -0.06529654562473297, -0.06444988399744034, -0.060338426381349564, -0.05386754125356674, -0.07289314270019531, -0.04431784898042679, -0.05862285569310188, -0.06234968826174736, -0.036678895354270935, -0.06566611677408218, -0.06891021877527237, -0.06283115595579147, -0.049562375992536545, -0.046188440173864365, -0.06109335273504257, -0.05830822512507439, -0.06251592934131622, -0.0653567761182785, -0.06444711238145828, -0.08983990550041199, -0.0621354877948761, -0.06848464906215668, -0.05867490544915199, -0.07597227394580841, -0.04084019362926483, -0.06792613863945007, -0.053278107196092606, -0.06428786367177963, -0.06338130682706833, -0.051585420966148376, -0.06579861789941788, -0.03620125353336334, -0.0634390115737915, -0.07352739572525024, -0.05844224616885185, -0.058392591774463654, -0.05954879894852638, -0.053296953439712524, -0.045876394957304, -0.05939400941133499, -0.04988336190581322, -0.08054462820291519, -0.045704517513513565, -0.06183404475450516, -0.059911832213401794, -0.06365291774272919, -0.05616592615842819, -0.06433389335870743, -0.058940351009368896, -0.056301333010196686, -0.05828050896525383, -0.054663654416799545, -0.057147640734910965, -0.07336745411157608, -0.07153399288654327, -0.0582762137055397, -0.0665883794426918, -0.07266097515821457, -0.07522344589233398, -0.06734780967235565, -0.06099145859479904, -0.06854403764009476, -0.05541228875517845, -0.05107536166906357, -0.0532340332865715, -0.054179128259420395, -0.06659834086894989, -0.04942062124609947, -0.07397677004337311, -0.05648377537727356, -0.044995393604040146, -0.05962759256362915, -0.061464574187994, -0.06496471911668777, -0.06552795320749283, -0.0559566430747509, -0.05804605782032013, -0.06083833798766136, -0.07075631618499756, -0.0527455136179924, -0.06896055489778519, -0.05702050402760506, -0.055929094552993774, -0.0662163645029068, -0.0493156872689724, -0.055682890117168427, -0.05650314688682556, -0.06005658954381943, -0.07579921931028366, -0.0770300105214119, -0.06780765950679779, -0.06896021962165833, -0.07819032669067383, -0.04925660043954849, -0.05138115584850311, -0.0592612661421299, -0.05526396259665489, -0.06395184993743896, -0.05584661662578583, -0.05373430624604225, -0.0694284588098526, -0.059543266892433167, -0.058853231370449066, -0.057561058551073074, -0.05424017459154129, -0.06763454526662827, -0.04626733437180519, -0.045642368495464325, -0.0618421733379364, -0.05683639645576477, -0.0707603469491005, -0.03749572113156319, -0.038596849888563156, -0.06359454989433289, -0.05381472036242485, -0.05628184601664543, -0.06913594901561737, -0.059910938143730164, -0.06184837967157364, -0.06583222001791, -0.06845030933618546, -0.0695209726691246, -0.06962930411100388, -0.06524765491485596, -0.07049433141946793, -0.050481945276260376, -0.05848170071840286, -0.04913733899593353, -0.054997000843286514, -0.05476681515574455, -0.0662042424082756, -0.06826134026050568, -0.05757742375135422, -0.0680689886212349, -0.0726574957370758, -0.06209409236907959, -0.06507822126150131, -0.06178366392850876, -0.07045148313045502, -0.07014884799718857, -0.07264251261949539, -0.05636046454310417, -0.06078055128455162, -0.06614368408918381, -0.06351422518491745, -0.07426079362630844, -0.06166895106434822, -0.07190016657114029, -0.06405925005674362, -0.07804373651742935, -0.06130541115999222, -0.06641729176044464, -0.06916339695453644, -0.05978889390826225, -0.06863193958997726, -0.06604421883821487, -0.07649632543325424, -0.05399662256240845, -0.062104761600494385, -0.052056021988391876, -0.019887393340468407, 0.003108412027359009, 0.042250409722328186, 0.03151797130703926, 0.05761680752038956, 0.04138221591711044, 0.045023757964372635, 0.051924895495176315, 0.05643998831510544, 0.06257344782352448, 0.07132785022258759, 0.07477513700723648, 0.05768713727593422, 0.05606861785054207, 0.06382036209106445, 0.04982755333185196, 0.06008468568325043, 0.0489887036383152, 0.053131215274333954, 0.07640091329813004, 0.05413869768381119, 0.04673269763588905, 0.035613320767879486, 0.06201284006237984, 0.042597316205501556, 0.05333086475729942, 0.07061389833688736, 0.06647477298974991, 0.06282266974449158, 0.05524732545018196, 0.06873320788145065, 0.06471431255340576, 0.0645582303404808, 0.05968036875128746, 0.054781846702098846] 
 , Step size: 
 [-0.06677962094545364, -0.060351788997650146, -0.06919921934604645, -0.04566025733947754, -0.05712549760937691, -0.0638199970126152, -0.06643334776163101, -0.05898601934313774, -0.07074716687202454, -0.05654916912317276, -0.051094915717840195, -0.055210717022418976, -0.06273520737886429, -0.06931246072053909, -0.068696990609169, -0.060361117124557495, -0.0648852065205574, -0.057224612683057785, -0.036452628672122955, -0.0706627294421196, -0.04988858476281166, -0.055728085339069366, -0.06127585843205452, -0.061845146119594574, -0.061369724571704865, -0.06551823765039444, -0.059692662209272385, -0.05280442535877228, -0.05519474670290947, -0.07009435445070267, -0.05589080601930618, -0.06009978428483009, -0.0438571572303772, -0.05039606988430023, -0.043972477316856384, -0.06918322294950485, -0.053824953734874725, -0.05503488704562187, -0.04570864140987396, -0.050973162055015564, -0.05270176753401756, -0.06516728550195694, -0.06464066356420517, -0.05351157858967781, -0.05330410599708557, -0.03996284306049347, -0.04946286976337433, -0.03893302381038666, -0.04965214058756828, -0.042017072439193726, -0.051366109400987625, -0.0511334091424942, -0.06011863797903061, -0.044260330498218536, -0.059297651052474976, -0.05116650462150574, -0.04555778205394745, -0.0707927793264389, -0.0690964087843895, -0.07560569047927856, -0.042443349957466125, -0.061806101351976395, -0.04199431836605072, -0.0579012855887413, -0.052000440657138824, -0.031395990401506424, -0.045145366340875626, -0.04682820662856102, -0.04893182963132858, -0.03862176090478897, -0.04957073926925659, -0.026880532503128052, -0.0464625246822834, -0.05478830263018608, -0.036723580211400986, -0.03518429771065712, -0.040221892297267914, -0.0482059083878994, -0.061874911189079285, -0.0501805804669857, -0.02754402719438076, -0.037692174315452576, -0.0451045036315918, -0.04383206367492676, -0.03603554517030716, -0.024494482204318047, -0.044355422258377075, -0.029085488989949226, -0.041652437299489975, -0.008709503337740898, -0.01861979253590107, -0.0313105583190918, -0.02109554223716259, -0.007392760366201401, -0.01258001383394003, -0.007393458858132362, 0.00592439528554678, -0.014463726431131363, 0.00631872471421957, 0.025868235155940056, -0.005471021868288517, 0.008945116773247719, 0.026614323258399963, 0.006338242441415787, 0.018434593454003334, 0.011251849122345448, 0.023936254903674126, 0.022465519607067108, 0.016882549971342087, 0.021642113104462624, 0.015561355277895927, 0.04580237343907356, 0.022604642435908318, 0.04323618859052658, 0.023358099162578583, 0.027110209688544273, 0.039709724485874176, 0.04122363030910492, 0.01431380957365036, 0.0382867194712162, 0.0342436321079731, 0.0331229642033577, 0.03752228990197182, 0.03474526107311249, 0.04017374664545059, 0.02953244559466839, 0.04219875857234001, 0.028001418337225914, 0.031659867614507675, 0.02741306647658348, 0.03765435889363289, 0.02729601413011551, 0.02007993683218956, 0.021310651674866676, 0.007408895064145327, 0.02821694128215313, 0.03197875991463661, 0.040957093238830566, 0.02847105637192726, 0.03569156304001808, 0.04402311518788338, 0.033354759216308594, 0.0224362351000309, 0.03968612477183342, 0.04095792397856712, 0.03474517539143562, 0.019301891326904297, 0.014199911616742611, 0.0274363923817873, 0.00855482928454876, 0.003973589278757572, 0.02089378610253334, 0.02090105414390564, 0.006763968616724014, 0.007963837124407291, 0.017302151769399643, 0.016360707581043243, 0.026542475447058678, 0.011175915598869324, 0.03323308750987053, 0.019492002204060555, 0.025152526795864105, -0.003719145432114601, 0.0227193646132946, 0.010704588145017624, 0.006247438956052065, 0.01279153861105442, 0.002616344718262553, 0.01115117222070694, 0.02264583855867386, -0.0020644310861825943, 0.007038417272269726, 0.018311714753508568, -0.009812863543629646, -0.0016873617423698306, 0.001436711405403912, -0.0035004469100385904, 0.028884992003440857, -0.013825256377458572, -0.008276278153061867, 0.00427284324541688, 0.00923243723809719, 0.017076490446925163, 0.0008025390561670065, -0.005728646647185087, 0.001251717796549201, 0.006153719965368509, 0.0022966917604207993, -0.00524120545014739, -0.011183332651853561, -0.02706664614379406, -0.0005394353065639734, 0.011839614249765873, -0.012776818126440048, -0.013530532829463482, -0.013437334448099136, -0.008083679713308811, -0.002596512669697404, -0.013981604017317295, -0.028326012194156647, -0.00037524697836488485, -0.010861448012292385, -0.007453262805938721, -0.01601407863199711, -0.040727756917476654, -0.02761939913034439, -0.007495952304452658, -0.01541923638433218, -0.015895070508122444, -0.029591277241706848, -0.0031833539251238108, -0.03230347856879234, -0.031497519463300705, -0.017117349430918694, -0.03085859678685665, -0.015707727521657944, -0.03011784702539444, -0.03531905263662338, -0.02105766534805298, -0.023436326533555984, -0.033800143748521805, -0.02942686527967453, -0.008917729370296001, -0.02733309380710125, -0.01150911021977663, -0.027546344324946404, -0.019747843965888023, -0.0371650792658329, -0.013329053297638893, -0.03487647324800491, -0.0413394458591938, -0.025483034551143646, -0.03591255843639374, -0.029459629207849503, -0.03162020817399025, -0.0449373684823513, -0.033597856760025024, -0.024756425991654396, -0.04145025089383125, -0.042404819279909134, -0.04102222993969917, -0.030528560280799866, -0.044262345880270004, -0.04448382928967476, -0.04138799011707306, -0.03482033312320709, -0.05896201357245445, -0.04436994343996048, -0.03282371908426285, -0.04362183436751366, -0.01592515967786312, -0.050648536533117294, -0.028469515964388847, -0.018659252673387527, -0.03920944407582283, -0.04355675354599953, -0.046056412160396576, -0.04773237183690071, -0.0343765914440155, -0.047678083181381226, -0.05836883932352066, -0.04150530323386192, -0.04397458955645561, -0.04112150892615318, -0.03255879878997803, -0.043524641543626785, -0.021765397861599922, -0.04332943260669708, -0.041883572936058044, -0.02524970844388008, -0.05095575377345085, -0.03687475621700287, -0.045650072395801544, -0.060640208423137665, -0.044248901307582855, -0.05221028998494148, -0.061669137328863144, -0.048907723277807236, -0.06054866313934326, -0.05041104555130005, -0.05701058357954025, -0.05023718997836113, -0.05379796400666237, -0.039697084575891495, -0.05870896950364113, -0.06700566411018372, -0.05753720924258232, -0.06651417165994644, -0.051198434084653854, -0.049665097147226334, -0.06043686717748642, -0.05642668902873993, -0.08292099833488464, -0.07492640614509583, -0.06932786852121353, -0.06426701694726944, -0.06215064972639084, -0.0661359503865242, -0.061838433146476746, -0.08655519038438797, -0.061202071607112885, -0.08034536987543106, -0.05258036404848099, -0.07166105508804321, -0.06533697992563248, -0.06163078919053078, -0.05155448988080025, -0.058654360473155975, -0.05145961791276932, -0.07257711887359619, -0.08515284210443497, -0.04956480860710144, -0.056303996592760086, -0.04962823912501335, -0.06502930074930191, -0.04875469580292702, -0.04949493333697319, -0.06215929985046387, -0.05638971924781799, -0.0589747428894043]