Epoch: 0-3, Loss: 191.51243591308594, Lr: 0.001 , 
 ,Threshold: 
[0.01044093631207943, 0.006023014429956675, -0.007029504515230656, -0.003281224984675646, -0.0056036124005913734, -0.005565614439547062, -0.018319394439458847, -0.01252773217856884, 0.006217081565409899, 0.006408534944057465, 0.0010061301290988922, -2.004962880164385e-05, -0.0037690773606300354, -0.01889927126467228, 0.006398774217814207, 0.0026017683558166027, -0.019575824961066246, -0.009342525154352188, -0.011386970989406109, -0.009096171706914902, -0.003167061135172844, 0.0014533501816913486, 0.0022220355458557606, -0.002072935691103339, -0.009518840350210667, -0.0032779593020677567, 0.011419941671192646, -0.012628766708076, 0.0009102063486352563, -0.004741245880723, 0.0068398225121200085, -0.005791695322841406, -0.005230816081166267, 0.0026607303880155087, -0.008594543673098087, -0.002628904767334461, -0.0086649926379323, 0.018279559910297394, -0.013058081269264221, -0.014758732169866562, -0.009871558286249638, 0.0022891091648489237, 0.011894183233380318, -0.009949665516614914, 0.014954429119825363, -0.02019481360912323, 0.00573230255395174, 0.001737130805850029, -0.0027409973554313183, -0.009090342558920383, -0.007797319442033768, -0.022708522155880928, 0.009217144921422005, -0.020307430997490883, 3.404996823519468e-05, -0.002006281167268753, -0.0006784615106880665, -0.0064922962337732315, -0.0009977292502298951, 0.005495491903275251, -0.03081555664539337, -0.0034341360442340374, 0.0051625510677695274, 0.004343318287283182, -0.017765551805496216, -0.01373467966914177, 0.012784436345100403, 0.005025526974350214, 0.001702766981907189, -0.005787083879113197, -0.006211948115378618, -0.012646831572055817, -0.0066370232962071896, -0.008200015872716904, -0.01025960873812437, 0.005939748603850603, 0.01391974464058876, 0.01130747888237238, -0.0073122382164001465, -0.0019521887879818678, -0.01450730673968792, 0.0023676115088164806, -0.006812531501054764, -0.014605419710278511, -0.019108789041638374, 0.0025217588990926743, -0.01783122681081295, 0.012273026630282402, 0.005423859693109989, 0.00794050469994545, -0.006510642822831869, -0.0059470124542713165, 0.002939368598163128, -0.00887972116470337, 0.002436163369566202, -0.010395143181085587, -0.0019402261823415756, 0.001200739643536508, -0.0016614312771707773, 0.008292915299534798, -0.014360856264829636, -0.00857535470277071, -0.006859667133539915, 0.013044222258031368, -0.0037849536165595055, 0.004441829863935709, 0.01682591624557972, -0.003681377973407507, -0.013391097076237202, -0.001008421997539699, -0.006394268479198217, 0.0019485410302877426, -0.009925458580255508, -0.003811250440776348, 0.020274389535188675, 0.011033720336854458, -5.698413588106632e-05, -0.0046672276221215725, -0.0034238891676068306, -0.016660381108522415, -0.01277849916368723, -0.01486373133957386, -0.003400371875613928, -0.005088598467409611, -0.0025167695712298155, -0.009498418308794498, 0.014778615906834602, 0.0015274451579898596, 0.023014167323708534, -0.0024718232452869415, 0.009967987425625324, -0.002544490387663245, 0.015934312716126442, -0.018008245155215263, -0.008593269623816013, -0.0016164251137524843, -0.007257852237671614, 0.015167481265962124, 0.012232610955834389, 0.008419669233262539, -0.00863535888493061, 0.010928950272500515, -0.009821963496506214, 0.0014109201729297638, -0.00042671686969697475, 0.0037588218692690134, 0.009807202965021133, -0.009278672747313976, 0.004779881797730923, -4.232104402035475e-05, 0.011900536715984344, 0.003524171654134989, 0.0030794148333370686, 0.0011203024769201875, -0.005646796897053719, -0.00595721835270524, -0.0002847715513780713, 0.0055534737184643745, 0.008571067824959755, 0.01729576289653778] 
 , Step size: 
 [0.001478646881878376, -0.009064605459570885, -0.0017593706725165248, 0.012277131900191307, -0.016475725919008255, 0.0077910227701067924, 0.006682509556412697, -0.0038158860988914967, -0.0029944037087261677, 0.0023288580123335123, 0.003880207659676671, 0.005539217032492161, -0.013488885946571827, -0.0176828783005476, -0.0014559883857145905, 0.0021601198241114616, 0.020323509350419044, -0.009359086863696575, -0.01447753794491291, -0.001273813657462597, -0.004849186632782221, 0.0044701071456074715, -0.01682133413851261, 0.00014917395310476422, 0.008965329267084599, 0.008455867879092693, 0.007738225162029266, -0.009942772798240185, -0.002376006217673421, -0.017887067049741745, -0.007478083483874798, 0.003556899493560195, -0.003116031875833869, 0.0022380491718649864, -0.01509437058120966, -0.012889846228063107, 0.00826285406947136, 0.00034310296177864075, 0.002440741518512368, -0.005226243287324905, 0.007375516928732395, -0.0030475384555757046, 0.015734205022454262, -0.0016494044102728367, 0.007111877202987671, -0.02072344720363617, -0.01594914309680462, 0.012244670651853085, -0.012217993848025799, 0.0060743726789951324, 0.0133074214681983, -0.01025236863642931, -0.012010590173304081, 0.006118816323578358, -0.00702575733885169, 0.0016568992286920547, -0.0028949310071766376, -0.010527077130973339, 0.0068873455747962, -0.004665276035666466, -0.012197118252515793, -0.0063934545032680035, -0.004875035956501961, -0.005759970750659704, 0.019526274874806404, -0.00017507042502984405, 0.010263114236295223, 0.0009197144536301494, 0.007410678546875715, 0.015457921661436558, 0.01349745411425829, 0.007676585111767054, 0.0013786974595859647, 0.020352084189653397, -0.01086481288075447, 0.015724914148449898, 0.019963223487138748, 0.012021290138363838, -0.009824967943131924, 0.004027165938168764, 0.01472402736544609, 0.005568424705415964, 0.0018235216848552227, 0.0007725188625045121, -0.002126049716025591, 0.011809847317636013, 0.0035116777289658785, 0.008694487623870373, 0.010581111535429955, 0.010836314409971237, 0.017974456772208214, 0.018872095271945, 0.011132537387311459, -0.021424675360322, 0.002494869753718376, 0.0007671237108297646, 0.01700671762228012, -0.01325320266187191, 0.004882239270955324, -0.0020956462249159813, 0.024302484467625618, 0.0005595848197117448, 0.006277251522988081, -0.00551069900393486, -0.02832542546093464, 0.0037707213778048754, 0.0025817377027124166, 4.928061389364302e-05, -0.004678479861468077, 0.001382497139275074, 0.0013208728050813079, 0.009631944820284843, 0.005087113007903099, 0.017804399132728577, -0.012484433129429817, -0.0045789978466928005, 0.00998880434781313, -0.006071976851671934, -0.01725383847951889, 0.015211480669677258, 0.003617857815697789, -0.0058457390405237675, -0.011541631072759628, -0.008818123489618301, 0.002244232688099146, 0.009621557779610157, -0.013673702254891396, -0.00020888744620606303, -0.018856631591916084, -0.0010784028563648462, 0.020891323685646057, -0.0037193060852587223, -0.010717841796576977, -0.01028888113796711, -0.004246215336024761, -0.030535487458109856, 0.012384829111397266, -0.004869129508733749, -0.006085357628762722, 0.010587645694613457, -0.008844323456287384, 0.009956695139408112, 0.00037259235978126526, 0.009887821972370148, 0.004621722735464573, -0.0026884442195296288, -0.015214971266686916, -0.01480831392109394, -0.002827535616233945, 0.00578674441203475, -0.0006051072850823402, -0.006834707222878933, 5.4658157750964165e-05, 0.011340012773871422, -0.027657857164740562, 0.010540756396949291, -0.0035437645856291056, -0.008483861573040485, 0.010317722335457802, -0.02031700685620308]