Epoch: 0-3, Loss: 14.061649322509766, Lr: 0.001 , 
 ,Threshold: 
[-0.021317198872566223, -0.01638898439705372, -0.0062102931551635265, 0.002721333410590887, 0.0011808566050603986, -0.010075288824737072, 0.014770024456083775, -0.005550653673708439, -0.006896954029798508, 0.0013969589490443468, 0.0012887249467894435, -0.00489567406475544, -0.00042933865915983915, 0.015923289582133293, -0.009316230192780495, 0.0007747363997623324, 0.006596080958843231, -0.01608365774154663, -0.00979597307741642, 0.0020066904835402966, -0.0021376009099185467, -0.0027144108898937702, -0.012936471030116081, 0.0035441694781184196, -0.017234936356544495, -0.012473361566662788, 0.0010221820557489991, 0.0004242607392370701, -0.008310403674840927, -0.008568383753299713, -0.002935434691607952, -0.011578275822103024, -0.018310051411390305, 0.023575175553560257, 0.0011987746693193913, -0.0018773337360471487, -0.0001654016668908298, 0.011354807764291763, -3.1338364351540804e-05, -0.01888047717511654, -0.003281630575656891, 0.006027798168361187, -0.004194154404103756, -0.018839076161384583, 0.0068313442170619965, 0.001914887223392725, -0.01768481731414795, -0.0004229096230119467, 0.02040114812552929, 0.0002383961109444499, 0.0011982627911493182, -0.008047416806221008, -0.004834659397602081, -0.001966213807463646, -0.01315170805901289, -0.006502524018287659, 0.0044350940734148026, -0.00022596161579713225, -0.02289099059998989, -0.010754702612757683, 0.007396358996629715, -0.008839674293994904, -0.01050674170255661, 0.003850822802633047, 0.012141219340264797, 0.0016017009038478136, -0.0012875200482085347, -0.0004470840794965625, 0.004431150387972593, 0.02025790326297283, 0.006814703345298767, 0.008131386712193489, 0.000956073752604425, 0.012220569886267185, -0.010666162706911564, -0.01545114815235138, -0.00019703933503478765, 0.00018511794041842222, -0.003369108308106661, -0.002886049682274461] 
 , Step size: 
 [-0.005756424739956856, -0.0035594571381807327, -0.018603557720780373, 0.02492445893585682, 0.008794525638222694, -0.012752469629049301, -0.0010535222245380282, 0.011790398508310318, -0.013794200494885445, 0.003419092856347561, -0.011317598633468151, -0.006753914058208466, 0.009520418010652065, 0.017007553949952126, -0.0006483406759798527, 0.014409618452191353, 0.0009671524167060852, -0.014977820217609406, -0.011996481567621231, -0.02930283173918724, 0.010744189843535423, 0.002531029051169753, 0.008539964444935322, -0.001201191800646484, -0.0005349740386009216, -0.0007449656259268522, 0.007182369939982891, 0.0035722428001463413, 0.008564035408198833, -0.014219680801033974, -0.013217966072261333, 0.0010149176232516766, -0.017798596993088722, -0.01131423655897379, -0.008767892606556416, -0.004265089053660631, -0.0011161679867655039, -0.009713939391076565, -0.02134699374437332, -0.006887815892696381, -0.010638635605573654, -0.009753789752721786, -0.004387292545288801, 0.00019332702504470944, -0.00556936115026474, -0.010581211186945438, 0.0060449340380728245, 0.0031607276760041714, 0.0010063198860734701, -0.009172280319035053, -0.014648964628577232, -0.001499188132584095, -0.01626598834991455, 0.0007063515949994326, -0.013243595138192177, -0.0022592712193727493, 0.0013400765601545572, -0.004520188085734844, -0.002409721724689007, -0.005214443430304527, 0.013227221556007862, -0.004406091757118702, 0.002471774350851774, -0.011354607529938221, 0.0034052091650664806, 0.006253552157431841, -0.00989623088389635, 0.006691998336464167, -0.003954142332077026, -0.003335642861202359, -0.003915960434824228, -0.011591417714953423, 0.020530879497528076, 0.0010390296811237931, 0.02251334860920906, -0.00011403963435441256, -0.008212205953896046, -0.004217633977532387, -0.012329526245594025, -0.01931837946176529]