Epoch: 7-3, Loss: 0.2869725227355957, Lr: 0.001 , 
 ,Threshold: 
[-0.20052357017993927, -0.20260874927043915, -0.22178615629673004, -0.20860126614570618, -0.22404557466506958, -0.2256341129541397, -0.22095553576946259, -0.19747783243656158, -0.20648939907550812, -0.2290012240409851, -0.23822320997714996, -0.2288873940706253, -0.20560753345489502, -0.2047826200723648, -0.2084088772535324, -0.1797804981470108, -0.19618724286556244, -0.16938325762748718, -0.14337889850139618, -0.13035808503627777, -0.12622684240341187, -0.06833081692457199, 0.008361982181668282, 0.04270048066973686, 0.11915883421897888, 0.22166238725185394, 0.3190937638282776, 0.3799240291118622, 0.4020761549472809, 0.3917393684387207, 0.35939913988113403, 0.3471211791038513, 0.32004883885383606, 0.3156305253505707, 0.29500794410705566, 0.2969806492328644, 0.29798704385757446, 0.28986671566963196, 0.270759642124176, 0.2541255056858063] 
 , Step size: 
 [-0.20005744695663452, -0.21339969336986542, -0.2106359750032425, -0.2145191878080368, -0.22773119807243347, -0.21584129333496094, -0.21553312242031097, -0.22149775922298431, -0.21623215079307556, -0.22260050475597382, -0.22877655923366547, -0.23617298901081085, -0.24236300587654114, -0.27179157733917236, -0.2855115532875061, -0.3200377821922302, -0.3533172607421875, -0.36327239871025085, -0.3947855532169342, -0.4186350405216217, -0.43694356083869934, -0.4550360143184662, -0.47759145498275757, -0.4558638632297516, -0.45369285345077515, -0.45895883440971375, -0.4461148679256439, -0.4228493869304657, -0.4177766740322113, -0.41679978370666504, -0.408006489276886, -0.38420388102531433, -0.3705103099346161, -0.344940721988678, -0.35454851388931274, -0.34180372953414917, -0.3500562608242035, -0.3342631757259369, -0.3037390112876892, -0.28813350200653076]