Epoch: 0-3, Loss: 44.678672790527344, Lr: 0.001 , 
 ,Threshold: 
[0.010956007055938244, 0.007430099416524172, -0.011604232713580132, 0.001434594625607133, -0.014004349708557129, -0.015133146196603775, -0.0105004096403718, 0.012923171743750572, 0.003373589599505067, -0.020261522382497787, -0.029941000044345856, -0.021384958177804947, 0.0001778475707396865, -0.0018995101563632488, -0.01010266412049532, 0.012234719470143318, -0.012931554578244686, 0.0014116163365542889, 0.010708613321185112, 0.001852695713751018, -0.023350520059466362, -0.003729074727743864, 0.025180120021104813, -0.002721951575949788, -0.005757647566497326, 0.002605351386591792, 0.009078587405383587, 0.0056268018670380116, 0.008383790031075478, 0.010823496617376804, -0.0021553528495132923, 0.0053659845143556595, -0.0018586987862363458, 0.00463133305311203, -0.0036595268175005913, -0.002969712484627962, 0.010665538720786572, 0.014359588734805584, 0.008543130941689014, 0.00046029267832636833] 
 , Step size: 
 [0.007926207035779953, -0.003015560330823064, 0.0005529872723855078, -0.002534886822104454, -0.014879272319376469, -0.003798398654907942, -0.002079368568956852, -0.007602459751069546, -4.28628409281373e-05, -0.0007235230877995491, -0.0022406536154448986, -0.002576107159256935, 0.0013011051341891289, -0.0126648573204875, -0.003317411057651043, -0.011508951894938946, -0.013595301657915115, 0.008749225176870823, 0.007267394568771124, 0.0063231512904167175, 0.0069468384608626366, -3.801134880632162e-05, -0.018037550151348114, 0.003233849536627531, 0.0006257122731767595, -0.012233933433890343, -0.008376985788345337, 0.005414627492427826, -0.0003834406961686909, -0.01250697486102581, -0.017927372828125954, -0.00899884756654501, -0.01153278723359108, 0.007348285056650639, -0.012522616423666477, 0.01007715705782175, -0.01159031130373478, -0.00895512755960226, 0.00617468636482954, 0.011600320227444172]