Epoch: 25-66, Loss: 0.0043207923881709576, Lr: 0.001 , 
 ,Threshold: 
[-0.2104625254869461, -0.18603184819221497, -0.2146001011133194, -0.2176194041967392, -0.20767052471637726, -0.2085791677236557, -0.20061105489730835, -0.21056048572063446, -0.21513324975967407, -0.20950882136821747, -0.1918015033006668, -0.21751131117343903, -0.21548393368721008, -0.2052951157093048, -0.19442608952522278, -0.19338946044445038, -0.18227176368236542, -0.17340034246444702, -0.16657020151615143, -0.12377005815505981, -0.10001314431428909, -0.05545675754547119, -0.02526337094604969, 0.04953906685113907, 0.12160185724496841, 0.21592740714550018, 0.2850799858570099, 0.3640855848789215, 0.39085525274276733, 0.3826262056827545, 0.3754621148109436, 0.3529929220676422, 0.33345189690589905, 0.3062171936035156, 0.3088710308074951, 0.31747058033943176, 0.303168386220932, 0.31242135167121887, 0.2957490384578705, 0.2804495692253113] 
 , Step size: 
 [-0.20574727654457092, -0.19475817680358887, -0.21872252225875854, -0.23455262184143066, -0.20846091210842133, -0.20599417388439178, -0.21567532420158386, -0.21202059090137482, -0.20679162442684174, -0.22380734980106354, -0.21356622874736786, -0.23616956174373627, -0.2413548231124878, -0.2544238567352295, -0.2802864611148834, -0.3030744194984436, -0.3196008503437042, -0.35641035437583923, -0.40284526348114014, -0.43332186341285706, -0.4215753674507141, -0.44881686568260193, -0.4622361660003662, -0.44540533423423767, -0.44696739315986633, -0.46612924337387085, -0.45096489787101746, -0.4290877878665924, -0.4382989704608917, -0.4138927459716797, -0.4009650945663452, -0.38605841994285583, -0.3657739758491516, -0.35148102045059204, -0.34747111797332764, -0.3423117399215698, -0.3487430214881897, -0.34388333559036255, -0.34710487723350525, -0.3467729091644287]