Epoch: 0-3, Loss: 62.831085205078125, Lr: 0.001 , 
 ,Threshold: 
[-0.0027262114454060793, 0.02099175564944744, -0.006979350466281176, -0.010237395763397217, 0.00011673313565552235, -0.00024240149650722742, 0.007708609104156494, -0.0024021826684474945, -0.007303318940103054, -0.0025642537511885166, 0.014569811522960663, -0.011946436017751694, -0.01162983663380146, -0.004383347928524017, 0.0020039931405335665, -0.0030854095239192247, -0.001377285923808813, -0.005589847918599844, -0.01567215658724308, 0.005286951549351215, -0.0014452360337600112, 0.003809802932664752, -0.015299391001462936, -0.004068817477673292, -0.011269386857748032, -0.004319238010793924, -0.014392929151654243, 0.00825469009578228, 0.002475209068506956, -0.00783828366547823, -0.0006842495640739799, -0.003691402729600668, -0.0031402341555804014, -0.01435033231973648, -0.0028798796702176332, 0.009928780607879162, 0.004399993922561407, 0.01901056058704853, 0.007827671244740486, -0.0061835963279008865] 
 , Step size: 
 [-0.00020865321857854724, 0.012236438691616058, -0.01162305660545826, -0.026744546368718147, -0.00016632082406431437, 0.000983941601589322, -0.006841692607849836, -0.002717220690101385, 0.004222255200147629, -0.00757291354238987, 0.009794057346880436, -0.0068612778559327126, -0.0022962067741900682, -0.00018430233467370272, -0.004834189545363188, -0.00274600088596344, 0.012419091537594795, 0.008869251236319542, -0.006650679744780064, -0.012691612355411053, 0.017760396003723145, 0.002142968587577343, -0.005062946118414402, 0.013200035318732262, 0.009230962023139, -0.015165826305747032, -0.0074689192697405815, 0.0052353208884596825, -0.014631301164627075, -0.002209700411185622, -0.0016963009256869555, -0.0011310724075883627, 0.0035452928859740496, 0.006010061129927635, 0.006334793753921986, 0.013244697824120522, 0.0003681274247355759, 0.0030646477825939655, -0.003459985600784421, -0.0007250609924085438]