Epoch: 15-3, Loss: 0.012841778807342052, Lr: 0.001 , 
 ,Threshold: 
[-0.21050673723220825, -0.18607395887374878, -0.21464140713214874, -0.21766088902950287, -0.2077106088399887, -0.20861755311489105, -0.2006477266550064, -0.21059489250183105, -0.21516431868076324, -0.20953503251075745, -0.19182054698467255, -0.2175210863351822, -0.2154829055070877, -0.2052757889032364, -0.19438394904136658, -0.1933174878358841, -0.18216077983379364, -0.17324015498161316, -0.16635076701641083, -0.12348659336566925, -0.09967152029275894, -0.055062998086214066, -0.02483321726322174, 0.04998191073536873, 0.12203365564346313, 0.21633443236351013, 0.28543373942375183, 0.3643874526023865, 0.39111432433128357, 0.38284966349601746, 0.3756418824195862, 0.35313737392425537, 0.3335682451725006, 0.3063100278377533, 0.30894365906715393, 0.31752753257751465, 0.3032124936580658, 0.31245511770248413, 0.2964797019958496, 0.2741016447544098] 
 , Step size: 
 [-0.20578619837760925, -0.19480052590370178, -0.2187674194574356, -0.23459772765636444, -0.20851120352745056, -0.20605143904685974, -0.21574123203754425, -0.2120988667011261, -0.206887885928154, -0.22393186390399933, -0.21373508870601654, -0.2363944947719574, -0.2416500300168991, -0.2548043727874756, -0.28076064586639404, -0.3036397397518158, -0.32024383544921875, -0.35710200667381287, -0.40355902910232544, -0.434024453163147, -0.4222230911254883, -0.44941073656082153, -0.4627816379070282, -0.4459091126918793, -0.447436660528183, -0.4665699601173401, -0.4513528347015381, -0.4294252395629883, -0.43859559297561646, -0.41415539383888245, -0.40118202567100525, -0.3862374722957611, -0.36592283844947815, -0.35160353779792786, -0.3475707769393921, -0.34239211678504944, -0.34880736470222473, -0.34393367171287537, -0.34821826219558716, -0.33711060881614685]