Epoch: 14-3, Loss: 0.0057340399362146854, Lr: 0.001 , 
 ,Threshold: 
[-0.2105061113834381, -0.1860734224319458, -0.21464087069034576, -0.2176603525876999, -0.20771010220050812, -0.20861706137657166, -0.2006472498178482, -0.21059446036815643, -0.21516390144824982, -0.20953473448753357, -0.19182030856609344, -0.21752098202705383, -0.2154829502105713, -0.20527607202529907, -0.1943845897912979, -0.19331848621368408, -0.1821623146533966, -0.17324231564998627, -0.16635370254516602, -0.12349016219377518, -0.09967581182718277, -0.055067963898181915, -0.0248386450111866, 0.04997631907463074, 0.12202819436788559, 0.21632930636405945, 0.28542932868003845, 0.3643835783004761, 0.3911110758781433, 0.3828468918800354, 0.3756396174430847, 0.35313549637794495, 0.3335666358470917, 0.306308776140213, 0.30894264578819275, 0.31752681732177734, 0.3032119572162628, 0.3124546408653259, 0.2961154878139496, 0.27279260754585266] 
 , Step size: 
 [-0.20578570663928986, -0.19479990005493164, -0.21876677870750427, -0.2345970720052719, -0.20851045846939087, -0.2060505896806717, -0.21574029326438904, -0.21209771931171417, -0.20688655972480774, -0.22393015027046204, -0.2137327790260315, -0.23639148473739624, -0.24164602160453796, -0.25479933619499207, -0.28075429797172546, -0.30363237857818604, -0.32023537158966064, -0.35709303617477417, -0.4035496413707733, -0.43401557207107544, -0.42221492528915405, -0.4494032561779022, -0.4627748131752014, -0.4459027349948883, -0.44743070006370544, -0.466564416885376, -0.4513479173183441, -0.42942094802856445, -0.4385918378829956, -0.4141520857810974, -0.4011792242527008, -0.38623520731925964, -0.36592090129852295, -0.35160186886787415, -0.34756937623023987, -0.3423910439014435, -0.34880656003952026, -0.34393301606178284, -0.3476678729057312, -0.3351138234138489]