Epoch: 16-3, Loss: 0.013902060687541962, Lr: 0.001 , 
 ,Threshold: 
[-0.21050643920898438, -0.1860736906528473, -0.21464113891124725, -0.21766062080860138, -0.20771031081676483, -0.20861728489398956, -0.20064742863178253, -0.21059465408325195, -0.21516409516334534, -0.20953486859798431, -0.191820427775383, -0.21752102673053741, -0.2154829055070877, -0.20527586340904236, -0.19438421726226807, -0.19331800937652588, -0.1821615844964981, -0.1732412725687027, -0.16635233163833618, -0.12348878383636475, -0.09967418015003204, -0.05506603792309761, -0.024836530908942223, 0.049978479743003845, 0.1220303401350975, 0.21633130311965942, 0.28543105721473694, 0.36438506841659546, 0.3911123275756836, 0.3828480541706085, 0.37564054131507874, 0.3531363010406494, 0.33356741070747375, 0.30630943179130554, 0.30894309282302856, 0.317527174949646, 0.3032122552394867, 0.3124549686908722, 0.2967042624950409, 0.2752673923969269] 
 , Step size: 
 [-0.20578590035438538, -0.1948002576828003, -0.21876715123653412, -0.23459745943546295, -0.2085108757019043, -0.2060510516166687, -0.21574079990386963, -0.21209834516048431, -0.20688723027706146, -0.2239309549331665, -0.21373385190963745, -0.23639290034770966, -0.2416478544473648, -0.25480160117149353, -0.2807571589946747, -0.30363568663597107, -0.3202389180660248, -0.35709699988365173, -0.40355366468429565, -0.43401920795440674, -0.42221799492836, -0.44940611720085144, -0.46277740597724915, -0.4459052085876465, -0.44743308424949646, -0.4665665924549103, -0.4513498544692993, -0.42942267656326294, -0.43859317898750305, -0.4141533374786377, -0.4011801779270172, -0.3862360715866089, -0.3659217357635498, -0.3516024947166443, -0.3475699722766876, -0.3423914909362793, -0.34880688786506653, -0.3439333736896515, -0.34855765104293823, -0.33888909220695496]