Epoch: 17-3, Loss: 0.01058412529528141, Lr: 0.001 , 
 ,Threshold: 
[-0.21050521731376648, -0.1860724687576294, -0.21463994681835175, -0.21765941381454468, -0.2077091932296753, -0.20861616730690002, -0.20064638555049896, -0.21059364080429077, -0.21516315639019012, -0.20953409373760223, -0.19181981682777405, -0.21752069890499115, -0.2154829055070877, -0.20527644455432892, -0.19438543915748596, -0.19331999123096466, -0.18216468393802643, -0.17324568331241608, -0.16635838150978088, -0.12349668890237808, -0.09968364983797073, -0.05507699027657509, -0.02484850399196148, 0.04996616765856743, 0.12201832234859467, 0.2163200080394745, 0.2854212522506714, 0.3643767833709717, 0.39110514521598816, 0.3828417658805847, 0.3756354749202728, 0.3531322181224823, 0.3335641026496887, 0.30630674958229065, 0.3089410662651062, 0.31752556562423706, 0.30321088433265686, 0.31245389580726624, 0.2967841923236847, 0.27622872591018677] 
 , Step size: 
 [-0.20578478276729584, -0.1947990506887436, -0.21876591444015503, -0.23459620773792267, -0.2085094302892685, -0.20604944229125977, -0.21573896706104279, -0.2120961844921112, -0.20688456296920776, -0.22392746806144714, -0.2137291580438614, -0.2363867461681366, -0.24163967370986938, -0.2547909915447235, -0.2807439863681793, -0.3036201000213623, -0.3202211260795593, -0.357077956199646, -0.4035339057445526, -0.4339996576309204, -0.42219993472099304, -0.44938966631889343, -0.46276232600212097, -0.4458913207054138, -0.44742000102996826, -0.4665543735027313, -0.45133909583091736, -0.429413378238678, -0.4385850131511688, -0.4141460359096527, -0.4011741876602173, -0.38623103499412537, -0.3659175634384155, -0.3515990376472473, -0.34756723046302795, -0.3423892557621002, -0.3488050699234009, -0.3439318835735321, -0.3486783802509308, -0.3403550386428833]