Epoch: 28-3, Loss: 0.0058414204977452755, Lr: 0.001 , 
 ,Threshold: 
[-0.2104385793209076, -0.1860089749097824, -0.21457770466804504, -0.21759694814682007, -0.20764878392219543, -0.20855821669101715, -0.20059113204479218, -0.21054179966449738, -0.2151164412498474, -0.20949454605579376, -0.19179105758666992, -0.21750584244728088, -0.21548494696617126, -0.20530574023723602, -0.19444896280765533, -0.1934286206960678, -0.18233242630958557, -0.1734878420829773, -0.16668976843357086, -0.12392453104257584, -0.10019971430301666, -0.055671777576208115, -0.025498302653431892, 0.049297139048576355, 0.12136591225862503, 0.21570532023906708, 0.2848869562149048, 0.3639205992221832, 0.39071395993232727, 0.3825047016143799, 0.3753642737865448, 0.3529137969017029, 0.33338841795921326, 0.30616694688796997, 0.3088313639163971, 0.3174394369125366, 0.30314427614212036, 0.3124029338359833, 0.29536789655685425, 0.2808118760585785] 
 , Step size: 
 [-0.20572640001773834, -0.1947358399629593, -0.2186986804008484, -0.234528586268425, -0.20843420922756195, -0.2059638798236847, -0.21564030647277832, -0.211978942155838, -0.2067401111125946, -0.2237405925989151, -0.2134755402803421, -0.23604820668697357, -0.24119529128074646, -0.25421789288520813, -0.280029296875, -0.3027670681476593, -0.31925129890441895, -0.35603395104408264, -0.40245723724365234, -0.4329395294189453, -0.421222060918808, -0.4484929144382477, -0.46193864941596985, -0.44513049721717834, -0.44671159982681274, -0.4658891558647156, -0.4507531523704529, -0.42890360951423645, -0.43813735246658325, -0.41374990344047546, -0.40084683895111084, -0.3859608769416809, -0.3656928241252899, -0.3514147102832794, -0.3474169373512268, -0.342268168926239, -0.3487081527709961, -0.3438558280467987, -0.3465231657028198, -0.34731653332710266]