Epoch: 26-3, Loss: 0.006610773969441652, Lr: 0.001 , 
 ,Threshold: 
[-0.2104608416557312, -0.1860302835702896, -0.21459856629371643, -0.21761786937713623, -0.20766900479793549, -0.2085777372121811, -0.20060968399047852, -0.2105592042207718, -0.21513210237026215, -0.20950783789157867, -0.1918007880449295, -0.21751093864440918, -0.21548402309417725, -0.2052958756685257, -0.1944277137517929, -0.19339223206043243, -0.18227602541446686, -0.1734064519405365, -0.16657857596874237, -0.1237807646393776, -0.10002606362104416, -0.05547165125608444, -0.025279639288783073, 0.049522314220666885, 0.12158550322055817, 0.21591199934482574, 0.2850665748119354, 0.36407411098480225, 0.3908454477787018, 0.3826177716255188, 0.3754553198814392, 0.3529874086380005, 0.33344751596450806, 0.30621373653411865, 0.30886828899383545, 0.31746840476989746, 0.3031666874885559, 0.3124200999736786, 0.295704185962677, 0.2804831862449646] 
 , Step size: 
 [-0.20574581623077393, -0.1947566270828247, -0.21872083842754364, -0.23455092310905457, -0.2084590494632721, -0.20599207282066345, -0.21567291021347046, -0.21201768517494202, -0.20678801834583282, -0.22380271553993225, -0.2135598510503769, -0.23616111278533936, -0.241343691945076, -0.2544094920158386, -0.28026849031448364, -0.3030529320240021, -0.3195764124393463, -0.3563840687274933, -0.40281805396080017, -0.433295339345932, -0.42155084013938904, -0.448794424533844, -0.4622155427932739, -0.4453863203525543, -0.44694966077804565, -0.4661126434803009, -0.4509502649307251, -0.4290750324726105, -0.43828776478767395, -0.413882851600647, -0.4009569585323334, -0.38605162501335144, -0.36576831340789795, -0.35147640109062195, -0.3474673628807068, -0.3423087000846863, -0.3487405776977539, -0.3438814580440521, -0.3470366895198822, -0.3468232750892639]