Epoch: 12-14, Loss: 0.004009047523140907, Lr: 0.001 , 
 ,Threshold: 
[-0.2206624448299408, -0.21737049520015717, -0.2096325308084488, -0.2145494669675827, -0.22259829938411713, -0.21702446043491364, -0.2088633030653, -0.2352917194366455, -0.1988103836774826, -0.22000949084758759, -0.2160266488790512, -0.2225395292043686, -0.22486059367656708, -0.20171014964580536, -0.2142336070537567, -0.185466006398201, -0.19961729645729065, -0.1671932339668274, -0.16755829751491547, -0.14498411118984222, -0.12192239612340927, -0.07787624001502991, -0.030181607231497765, 0.02699301578104496, 0.13658136129379272, 0.19695794582366943, 0.2990095317363739, 0.3596245348453522, 0.3727492690086365, 0.39434748888015747, 0.37687012553215027, 0.3523414433002472, 0.32709014415740967, 0.32120198011398315, 0.3100210130214691, 0.2858455777168274, 0.29485732316970825, 0.2991833984851837, 0.2802587151527405, 0.2721681594848633] 
 , Step size: 
 [-0.2304866462945938, -0.20567414164543152, -0.2217637151479721, -0.22733941674232483, -0.21105413138866425, -0.22066399455070496, -0.20925311744213104, -0.21442273259162903, -0.2303512543439865, -0.23183105885982513, -0.211396723985672, -0.2417961210012436, -0.2505356967449188, -0.2539249360561371, -0.2798212468624115, -0.3006114363670349, -0.32981377840042114, -0.36672013998031616, -0.4065251350402832, -0.44664156436920166, -0.45420709252357483, -0.4491369426250458, -0.4704333543777466, -0.4617668390274048, -0.4460018575191498, -0.45557883381843567, -0.43581444025039673, -0.42052987217903137, -0.4235565960407257, -0.41216444969177246, -0.4352078139781952, -0.38131409883499146, -0.3797414004802704, -0.34228822588920593, -0.3470791280269623, -0.3590620756149292, -0.35318723320961, -0.3459443747997284, -0.34494540095329285, -0.33833202719688416]