Epoch: 28-3, Loss: 0.005398347042500973, Lr: 0.001 , 
 ,Threshold: 
[-0.2206462025642395, -0.21735520660877228, -0.20961758494377136, -0.21453449130058289, -0.22258387506008148, -0.2170107215642929, -0.20885023474693298, -0.2352796047925949, -0.19879968464374542, -0.22000077366828918, -0.21602067351341248, -0.22253723442554474, -0.224861279129982, -0.20171771943569183, -0.2142501324415207, -0.18549427390098572, -0.1996607631444931, -0.16725558042526245, -0.16764336824417114, -0.1450917273759842, -0.12205106019973755, -0.07802560180425644, -0.030346885323524475, 0.026819836348295212, 0.13641034066677094, 0.19679498672485352, 0.29886943101882935, 0.3595050871372223, 0.37264734506607056, 0.3942609131336212, 0.3768008053302765, 0.35228630900382996, 0.32704639434814453, 0.32116788625717163, 0.309994637966156, 0.2858254313468933, 0.29484203457832336, 0.2991194725036621, 0.2849133014678955, 0.2794595956802368] 
 , Step size: 
 [-0.23047250509262085, -0.20565861463546753, -0.22174692153930664, -0.22732248902320862, -0.21103504300117493, -0.22064217925071716, -0.20922774076461792, -0.21439258754253387, -0.23031391203403473, -0.23178210854530334, -0.21133117377758026, -0.2417086511850357, -0.2504214644432068, -0.2537766695022583, -0.27963507175445557, -0.30038878321647644, -0.32955774664878845, -0.3664429783821106, -0.40623739361763, -0.44635993242263794, -0.45394742488861084, -0.4488985240459442, -0.4702140688896179, -0.46156466007232666, -0.44581422209739685, -0.45540255308151245, -0.4356604814529419, -0.4203966557979584, -0.4234398901462555, -0.41206175088882446, -0.4351227283477783, -0.381244957447052, -0.3796842694282532, -0.3422420918941498, -0.34704193472862244, -0.35903245210647583, -0.35316407680511475, -0.34583961963653564, -0.3520604074001312, -0.3496842682361603]