Epoch: 17-3, Loss: 0.0058139353059232235, Lr: 0.001 , 
 ,Threshold: 
[-0.22066353261470795, -0.21737147867679596, -0.20963352918624878, -0.2145504653453827, -0.22259925305843353, -0.21702538430690765, -0.208864226937294, -0.23529250919818878, -0.1988110989332199, -0.22001013159751892, -0.2160271555185318, -0.22253987193107605, -0.22486059367656708, -0.2017098367214203, -0.21423280239105225, -0.18546457588672638, -0.19961510598659515, -0.16719010472297668, -0.16755403578281403, -0.14497807621955872, -0.12191518396139145, -0.07786782085895538, -0.03017239272594452, 0.027002668008208275, 0.1365908980369568, 0.19696709513664246, 0.2990175783634186, 0.3596312999725342, 0.3727550506591797, 0.3943524658679962, 0.37687423825263977, 0.3523447513580322, 0.3270927667617798, 0.3212040960788727, 0.31002265214920044, 0.2858467996120453, 0.29485827684402466, 0.3007102608680725, 0.28455978631973267, 0.2766328454017639] 
 , Step size: 
 [-0.23048754036426544, -0.2056751549243927, -0.22176477313041687, -0.2273404747247696, -0.21105530858039856, -0.22066530585289001, -0.20925456285476685, -0.21442444622516632, -0.23035335540771484, -0.23183371126651764, -0.21140027046203613, -0.24180079996585846, -0.25054189562797546, -0.25393277406692505, -0.2798309624195099, -0.30062317848205566, -0.32982704043388367, -0.3667345345020294, -0.40654003620147705, -0.4466574192047119, -0.4542219340801239, -0.44915032386779785, -0.4704458713531494, -0.4617781937122345, -0.4460127651691437, -0.45558884739875793, -0.43582338094711304, -0.42053744196891785, -0.4235634207725525, -0.41217026114463806, -0.4352128803730011, -0.38131818175315857, -0.37974467873573303, -0.3422909379005432, -0.34708136320114136, -0.35906386375427246, -0.35318875312805176, -0.34824079275131226, -0.3515339195728302, -0.3452949821949005]