Epoch: 14-3, Loss: 0.008888727985322475, Lr: 0.001 , 
 ,Threshold: 
[-0.2206638902425766, -0.2173718512058258, -0.20963390171527863, -0.21455083787441254, -0.222599595785141, -0.21702571213245392, -0.20886452496051788, -0.23529283702373505, -0.19881141185760498, -0.22001038491725922, -0.21602733433246613, -0.22253987193107605, -0.22486059367656708, -0.2017095535993576, -0.21423231065273285, -0.1854638308286667, -0.1996140033006668, -0.16718852519989014, -0.1675519049167633, -0.14497549831867218, -0.12191208451986313, -0.07786427438259125, -0.030168406665325165, 0.02700684405863285, 0.13659504055976868, 0.19697101414203644, 0.2990208566188812, 0.3596341609954834, 0.37275758385658264, 0.3943544626235962, 0.37687578797340393, 0.3523460328578949, 0.32709380984306335, 0.3212049603462219, 0.31002336740493774, 0.28584742546081543, 0.29485875368118286, 0.3003222942352295, 0.28292834758758545, 0.2744991183280945] 
 , Step size: 
 [-0.2304878979921341, -0.20567554235458374, -0.2217651903629303, -0.2273409068584442, -0.21105577051639557, -0.2206658273935318, -0.209255188703537, -0.214425191283226, -0.23035427927970886, -0.23183490335941315, -0.21140189468860626, -0.24180299043655396, -0.2505447566509247, -0.2539364993572235, -0.27983558177948, -0.3006286919116974, -0.32983341813087463, -0.3667415976524353, -0.4065472185611725, -0.4466641843318939, -0.454228013753891, -0.4491560757160187, -0.4704510271549225, -0.4617830812931061, -0.44601714611053467, -0.4555929899215698, -0.43582695722579956, -0.42054060101509094, -0.4235661029815674, -0.41217273473739624, -0.4352147579193115, -0.38131973147392273, -0.3797460198402405, -0.34229201078414917, -0.3470822870731354, -0.35906466841697693, -0.3531893789768219, -0.34765732288360596, -0.34903261065483093, -0.34196746349334717]