Epoch: 9-3, Loss: 0.10968605428934097, Lr: 0.001 , 
 ,Threshold: 
[-0.22065170109272003, -0.217360258102417, -0.2096225470304489, -0.21453943848609924, -0.2225886583328247, -0.21701520681381226, -0.20885449647903442, -0.2352835088968277, -0.19880306720733643, -0.22000330686569214, -0.21602219343185425, -0.22253741323947906, -0.22486117482185364, -0.20171503722667694, -0.21424411237239838, -0.1854839026927948, -0.19964472949504852, -0.1672324389219284, -0.16761189699172974, -0.1450534611940384, -0.12200521677732468, -0.07797251641750336, -0.030287956818938255, 0.02688155509531498, 0.13647109270095825, 0.196852907538414, 0.29891881346702576, 0.35954713821411133, 0.3726833164691925, 0.3942914307117462, 0.3768250346183777, 0.3523053824901581, 0.3270612955093384, 0.32117927074432373, 0.31000348925590515, 0.28583192825317383, 0.2948468029499054, 0.2897026836872101, 0.27096718549728394, 0.2641936242580414] 
 , Step size: 
 [-0.2304772585630417, -0.2056637853384018, -0.2217526137828827, -0.22732822597026825, -0.21104152500629425, -0.22064967453479767, -0.20923666656017303, -0.2144031524658203, -0.23032712936401367, -0.23179979622364044, -0.21135486662387848, -0.2417403608560562, -0.2504625618457794, -0.2538304924964905, -0.2797031104564667, -0.30046984553337097, -0.3296513855457306, -0.3665440082550049, -0.40634289383888245, -0.4464598596096039, -0.45403966307640076, -0.44898322224617004, -0.47029197216033936, -0.46163615584373474, -0.445880651473999, -0.4554651081562042, -0.435714989900589, -0.42044368386268616, -0.4234810471534729, -0.4120979607105255, -0.435152530670166, -0.3812691271305084, -0.3797042965888977, -0.3422580659389496, -0.34705474972724915, -0.35904261469841003, -0.3531716763973236, -0.33176350593566895, -0.33074408769607544, -0.32594549655914307]