Epoch: 21-3, Loss: 0.005426586605608463, Lr: 0.001 , 
 ,Threshold: 
[-0.22065985202789307, -0.217368021607399, -0.20963014662265778, -0.2145470827817917, -0.22259598970413208, -0.21702226996421814, -0.20886126160621643, -0.2352897971868515, -0.1988086998462677, -0.22000814974308014, -0.21602584421634674, -0.22253940999507904, -0.22486063838005066, -0.20171146094799042, -0.21423648297786713, -0.18547090888023376, -0.19962488114833832, -0.1672040969133377, -0.16757318377494812, -0.14500246942043304, -0.12194449454545975, -0.07790183275938034, -0.030210038647055626, 0.026963217183947563, 0.13655196130275726, 0.19693006575107574, 0.2989857792854309, 0.3596041202545166, 0.3727319836616516, 0.39433279633522034, 0.3768584728240967, 0.352332204580307, 0.32708293199539185, 0.32119643688201904, 0.3100167512893677, 0.28584229946136475, 0.29485487937927246, 0.3002077341079712, 0.2850157916545868, 0.27817502617836] 
 , Step size: 
 [-0.23048433661460876, -0.20567163825035095, -0.22176101803779602, -0.22733668982982635, -0.21105101704597473, -0.22066037356853485, -0.20924882590770721, -0.21441763639450073, -0.23034490644931793, -0.2318226397037506, -0.21138542890548706, -0.24178095161914825, -0.25051602721214294, -0.2538992166519165, -0.27978888154029846, -0.30057260394096375, -0.329769104719162, -0.3666715919971466, -0.4064750373363495, -0.44659334421157837, -0.4541628360748291, -0.4490962028503418, -0.47039586305618286, -0.46173223853111267, -0.4459700584411621, -0.45554882287979126, -0.43578842282295227, -0.4205072224140167, -0.42353689670562744, -0.41214701533317566, -0.4351935386657715, -0.38130244612693787, -0.37973183393478394, -0.3422805964946747, -0.3470730483531952, -0.35905721783638, -0.3531835675239563, -0.34748366475105286, -0.3522297441959381, -0.34769436717033386]