Epoch: 8-3, Loss: 0.02783181145787239, Lr: 0.001 , 
 ,Threshold: 
[-0.22064225375652313, -0.21735122799873352, -0.20961371064186096, -0.2145305573940277, -0.22258014976978302, -0.21700704097747803, -0.20884676277637482, -0.2352762073278427, -0.19879651069641113, -0.219997838139534, -0.21601825952529907, -0.22253544628620148, -0.22486181557178497, -0.20171941816806793, -0.21425345540046692, -0.18549969792366028, -0.19966885447502136, -0.16726697981357574, -0.16765905916690826, -0.14511410892009735, -0.12207765132188797, -0.07805664092302322, -0.03038093075156212, 0.026784131303429604, 0.13637469708919525, 0.19676104187965393, 0.2988394498825073, 0.3594795763492584, 0.3726256489753723, 0.39424246549606323, 0.3767854869365692, 0.3522738218307495, 0.3270360827445984, 0.32115936279296875, 0.30998802185058594, 0.2858197093009949, 0.294795423746109, 0.283205509185791, 0.2653692066669464, 0.2592296898365021] 
 , Step size: 
 [-0.2304690182209015, -0.20565469563007355, -0.2217428833246231, -0.22731837630271912, -0.2110304832458496, -0.22063718736171722, -0.20922227203845978, -0.21438612043857574, -0.23030610382556915, -0.23177246749401093, -0.21131819486618042, -0.2416914850473404, -0.25039854645729065, -0.2537476420402527, -0.27959945797920227, -0.300345778465271, -0.3295089602470398, -0.36638960242271423, -0.4061829447746277, -0.4463011920452118, -0.45389318466186523, -0.4488488435745239, -0.4701683223247528, -0.4615219533443451, -0.4457745850086212, -0.4553658664226532, -0.43562793731689453, -0.42036816477775574, -0.42341485619544983, -0.4120396673679352, -0.43510422110557556, -0.3812297582626343, -0.37967178225517273, -0.34223154187202454, -0.34703320264816284, -0.35902535915374756, -0.35309651494026184, -0.32205745577812195, -0.32222411036491394, -0.31829947233200073]