Epoch: 13-3, Loss: 0.010837017558515072, Lr: 0.001 , 
 ,Threshold: 
[-0.22066310048103333, -0.2173711061477661, -0.20963315665721893, -0.21455009281635284, -0.22259889543056488, -0.217025026679039, -0.20886385440826416, -0.2352922409772873, -0.198810875415802, -0.220009908080101, -0.21602697670459747, -0.22253969311714172, -0.22486059367656708, -0.20170986652374268, -0.21423302590847015, -0.18546505272388458, -0.19961580634117126, -0.16719110310077667, -0.16755539178848267, -0.14498017728328705, -0.12191768735647202, -0.07787080109119415, -0.030175572261214256, 0.02699933759868145, 0.13658760488033295, 0.19696395099163055, 0.2990146577358246, 0.3596288859844208, 0.3727531135082245, 0.39435064792633057, 0.3768726587295532, 0.35234344005584717, 0.3270917236804962, 0.3212032914161682, 0.31002211570739746, 0.28584644198417664, 0.2948579788208008, 0.2998766303062439, 0.28170716762542725, 0.27340206503868103] 
 , Step size: 
 [-0.23048721253871918, -0.20567476749420166, -0.22176435589790344, -0.22734007239341736, -0.21105484664440155, -0.22066476941108704, -0.20925402641296387, -0.21442382037639618, -0.23035261034965515, -0.23183280229568481, -0.21139903366565704, -0.2417992502450943, -0.2505398094654083, -0.2539302110671997, -0.27982771396636963, -0.3006192445755005, -0.3298226594924927, -0.3667299151420593, -0.4065350890159607, -0.44665178656578064, -0.4542165994644165, -0.44914573431015015, -0.47044140100479126, -0.4617742598056793, -0.4460087716579437, -0.45558521151542664, -0.4358201324939728, -0.4205347001552582, -0.42356088757514954, -0.4121682345867157, -0.4352109432220459, -0.3813166320323944, -0.37974342703819275, -0.34228983521461487, -0.3470804989337921, -0.3590632677078247, -0.35318824648857117, -0.34698668122291565, -0.34716254472732544, -0.3402562439441681]