Epoch: 4-3, Loss: 13.578831672668457, Lr: 0.001 , 
 ,Threshold: 
[-0.20329232513904572, -0.20029866695404053, -0.19261299073696136, -0.19762395322322845, -0.20576588809490204, -0.20025628805160522, -0.192202627658844, -0.21883302927017212, -0.18274547159671783, -0.20449285209178925, -0.20133459568023682, -0.20899036526679993, -0.21293765306472778, -0.19220180809497833, -0.2081051766872406, -0.18404506146907806, -0.2046668380498886, -0.18079641461372375, -0.19223546981811523, -0.18352319300174713, -0.17821753025054932, -0.15610477328300476, -0.1318131387233734, -0.09612191468477249, -0.00017631344962865114, 0.058143891394138336, 0.1670839488506317, 0.23910008370876312, 0.2643130123615265, 0.29790547490119934, 0.29114702343940735, 0.27770790457725525, 0.2624398469924927, 0.2560708820819855, 0.25123271346092224, 0.228653684258461, 0.23026345670223236, 0.22300030291080475, 0.20780989527702332, 0.20417465269565582] 
 , Step size: 
 [-0.2145930677652359, -0.1893732249736786, -0.20530742406845093, -0.21062201261520386, -0.19389908015727997, -0.20320618152618408, -0.19123579561710358, -0.19540651142597198, -0.2094806283712387, -0.20792599022388458, -0.18259745836257935, -0.20604541897773743, -0.2055007815361023, -0.19614101946353912, -0.2063860297203064, -0.20980173349380493, -0.22022435069084167, -0.24123702943325043, -0.2695932388305664, -0.3027161657810211, -0.30662018060684204, -0.3006191551685333, -0.32344821095466614, -0.31831595301628113, -0.307171493768692, -0.3218887746334076, -0.30768364667892456, -0.2991035580635071, -0.30960509181022644, -0.30646124482154846, -0.3378427028656006, -0.2936367690563202, -0.301072359085083, -0.25925886631011963, -0.26959601044654846, -0.28139206767082214, -0.2620590031147003, -0.234467014670372, -0.23851744830608368, -0.23832327127456665]