Epoch: 29-3, Loss: 0.004010417498648167, Lr: 0.001 , 
 ,Threshold: 
[-0.22064262628555298, -0.21735180914402008, -0.20961426198482513, -0.21453115344047546, -0.222580686211586, -0.2170076072216034, -0.2088472843170166, -0.23527689278125763, -0.19879725575447083, -0.21999871730804443, -0.21601924300193787, -0.22253656387329102, -0.22486141324043274, -0.20171935856342316, -0.21425367891788483, -0.18550024926662445, -0.1996699422597885, -0.16726867854595184, -0.16766120493412018, -0.1451146900653839, -0.12207844853401184, -0.07805744558572769, -0.030382050201296806, 0.026782993227243423, 0.1363738775253296, 0.19676022231578827, 0.29883939027786255, 0.35947945713996887, 0.3726254403591156, 0.3942422568798065, 0.3767858147621155, 0.3522743880748749, 0.3270367980003357, 0.32116034626960754, 0.30998876690864563, 0.285820871591568, 0.2948385775089264, 0.29903969168663025, 0.284883052110672, 0.2795771062374115] 
 , Step size: 
 [-0.23046936094760895, -0.20565514266490936, -0.22174325585365295, -0.22731879353523254, -0.21103090047836304, -0.22063738107681274, -0.20922228693962097, -0.21438604593276978, -0.23030585050582886, -0.23177176713943481, -0.21131737530231476, -0.24169017374515533, -0.2503971755504608, -0.25374531745910645, -0.27959585189819336, -0.30034178495407104, -0.3295039236545563, -0.3663846552371979, -0.406176894903183, -0.4462999105453491, -0.4538920819759369, -0.4488477110862732, -0.4701674282550812, -0.4615214765071869, -0.4457741677761078, -0.4553649425506592, -0.4356275498867035, -0.42036816477775574, -0.42341500520706177, -0.4120396673679352, -0.4351044297218323, -0.38123002648353577, -0.37967199087142944, -0.3422320485115051, -0.3470337688922882, -0.35902586579322815, -0.3531589210033417, -0.3457176983356476, -0.3520117700099945, -0.34986549615859985]