Epoch: 10-3, Loss: 0.02247512713074684, Lr: 0.001 , 
 ,Threshold: 
[-0.22065883874893188, -0.2173670530319214, -0.2096291482448578, -0.2145460546016693, -0.22259508073329926, -0.21702136099338531, -0.2088603526353836, -0.23528896272182465, -0.19880791008472443, -0.22000737488269806, -0.21602509915828705, -0.2225387692451477, -0.22486068308353424, -0.20171169936656952, -0.2142370194196701, -0.18547184765338898, -0.19962631165981293, -0.16720622777938843, -0.16757608950138092, -0.14500753581523895, -0.12195044755935669, -0.07790886610746384, -0.030217641964554787, 0.026955248787999153, 0.13654406368732452, 0.19692234694957733, 0.2989788353443146, 0.3595984876155853, 0.37272700667381287, 0.3943287134170532, 0.3768550455570221, 0.352329283952713, 0.32708051800727844, 0.3211943209171295, 0.3100152313709259, 0.28584107756614685, 0.2948537766933441, 0.29447901248931885, 0.27504196763038635, 0.26772594451904297] 
 , Step size: 
 [-0.2304835021495819, -0.20567066967487335, -0.22175996005535126, -0.2273356020450592, -0.21104983985424042, -0.22065918147563934, -0.2092476189136505, -0.21441619098186493, -0.23034320771694183, -0.23182061314582825, -0.21138259768486023, -0.24177740514278412, -0.25051113963127136, -0.25389331579208374, -0.2797817587852478, -0.3005639612674713, -0.32975947856903076, -0.3666611909866333, -0.406464159488678, -0.4465799629688263, -0.45415037870407104, -0.449084997177124, -0.47038546204566956, -0.4617227017879486, -0.4459608197212219, -0.455540269613266, -0.43578073382377625, -0.4205007553100586, -0.4235309660434723, -0.4121420383453369, -0.43518924713134766, -0.3812990188598633, -0.3797290325164795, -0.3422781527042389, -0.34707099199295044, -0.35905563831329346, -0.3531820476055145, -0.33890023827552795, -0.33696427941322327, -0.331417977809906]