Epoch: 6-3, Loss: 1.3954534530639648, Lr: 0.001 , 
 ,Threshold: 
[-0.2205955535173416, -0.21730691194534302, -0.20957022905349731, -0.2144870162010193, -0.22253824770450592, -0.21696674823760986, -0.2088083177804947, -0.23524028062820435, -0.19876424968242645, -0.2199706733226776, -0.2159983217716217, -0.22252510488033295, -0.22486437857151031, -0.20173993706703186, -0.2142978012561798, -0.18557550013065338, -0.19978506863117218, -0.16743317246437073, -0.16788643598556519, -0.1454072892665863, -0.12242913246154785, -0.07846590131521225, -0.030833549797534943, 0.026309670880436897, 0.13590514659881592, 0.1963137686252594, 0.2984497547149658, 0.3591471016407013, 0.37234193086624146, 0.3940008580684662, 0.3765890896320343, 0.3521169126033783, 0.3269107937812805, 0.3210271894931793, 0.3098032772541046, 0.28407400846481323, 0.27958524227142334, 0.26340556144714355, 0.2470896691083908, 0.2422230839729309] 
 , Step size: 
 [-0.23042874038219452, -0.20561042428016663, -0.22169576585292816, -0.2272706925868988, -0.21097733080387115, -0.2205769568681717, -0.2091529816389084, -0.21430395543575287, -0.23020489513874054, -0.23164106905460358, -0.2111426144838333, -0.24145734310150146, -0.2500912547111511, -0.2533488869667053, -0.27909979224205017, -0.29974737763404846, -0.3288221061229706, -0.3656448721885681, -0.40541088581085205, -0.4455340802669525, -0.4531823396682739, -0.4481949210166931, -0.4695664048194885, -0.4609657824039459, -0.44525831937789917, -0.45488184690475464, -0.43520110845565796, -0.41999751329421997, -0.4230901300907135, -0.4117538034915924, -0.4348646402359009, -0.3810342848300934, -0.3795100450515747, -0.3420551121234894, -0.3467770218849182, -0.3565370440483093, -0.33096715807914734, -0.2924792170524597, -0.29469919204711914, -0.29257363080978394]