Epoch: 18-3, Loss: 0.005055248271673918, Lr: 0.001 , 
 ,Threshold: 
[-0.22066321969032288, -0.21737119555473328, -0.2096332460641861, -0.21455018222332, -0.22259899973869324, -0.21702514588832855, -0.2088640034198761, -0.23529230058193207, -0.19881092011928558, -0.22000999748706818, -0.21602706611156464, -0.22253987193107605, -0.22486059367656708, -0.20170995593070984, -0.21423311531543732, -0.18546518683433533, -0.19961605966091156, -0.16719147562980652, -0.16755591332912445, -0.1449805200099945, -0.12191811949014664, -0.07787121832370758, -0.030176183208823204, 0.026998696848750114, 0.1365870088338852, 0.1969633847475052, 0.29901444911956787, 0.3596286475658417, 0.37275275588035583, 0.394350528717041, 0.376872718334198, 0.3523435592651367, 0.32709184288978577, 0.32120344042778015, 0.3100222051143646, 0.285846471786499, 0.29485803842544556, 0.3006400167942047, 0.2847619950771332, 0.27710795402526855] 
 , Step size: 
 [-0.23048728704452515, -0.20567487180233002, -0.2217644453048706, -0.22734014689922333, -0.21105492115020752, -0.220664843916893, -0.20925401151180267, -0.2144237756729126, -0.2303525060415268, -0.2318326085805893, -0.21139882504940033, -0.24179880321025848, -0.25053930282592773, -0.2539294362068176, -0.2798267900943756, -0.30061814188957214, -0.32982128858566284, -0.3667283058166504, -0.4065335988998413, -0.44665104150772095, -0.4542160928249359, -0.4491448998451233, -0.4704408645629883, -0.46177366375923157, -0.446008563041687, -0.455584853887558, -0.43581995368003845, -0.42053449153900146, -0.42356082797050476, -0.4121679365634918, -0.4352110028266907, -0.3813166618347168, -0.37974342703819275, -0.3422899544239044, -0.3470805883407593, -0.3590633273124695, -0.3531883656978607, -0.3481350541114807, -0.35184332728385925, -0.34603485465049744]