Epoch: 24-3, Loss: 0.004878123756498098, Lr: 0.001 , 
 ,Threshold: 
[-0.22065477073192596, -0.21736323833465576, -0.2096254527568817, -0.21454235911369324, -0.22259148955345154, -0.21701794862747192, -0.20885716378688812, -0.23528599739074707, -0.19880534708499908, -0.22000539302825928, -0.21602393686771393, -0.22253863513469696, -0.22486081719398499, -0.20171384513378143, -0.2142416089773178, -0.18547974526882172, -0.19963854551315308, -0.1672237068414688, -0.16759991645812988, -0.1450365036725998, -0.1219850406050682, -0.07794889807701111, -0.030262084677815437, 0.02690868452191353, 0.13649801909923553, 0.19687865674495697, 0.298941433429718, 0.3595663607120514, 0.3726997375488281, 0.3943054676055908, 0.3768365681171417, 0.352314829826355, 0.3270690441131592, 0.32118573784828186, 0.31000852584838867, 0.28583601117134094, 0.29485002160072327, 0.2996218800544739, 0.28500354290008545, 0.27884379029273987] 
 , Step size: 
 [-0.230479896068573, -0.20566676557064056, -0.2217557281255722, -0.22733134031295776, -0.2110450118780136, -0.2206534743309021, -0.2092408537864685, -0.21440811455249786, -0.2303330898284912, -0.2318071722984314, -0.2113647758960724, -0.24175333976745605, -0.2504798471927643, -0.2538524270057678, -0.2797303795814514, -0.3005025386810303, -0.3296886384487152, -0.366584450006485, -0.40638455748558044, -0.44650447368621826, -0.4540809094905853, -0.44902095198631287, -0.4703267216682434, -0.46166837215423584, -0.445910781621933, -0.45549312233924866, -0.43573978543281555, -0.4204649031162262, -0.4235000014305115, -0.4121144711971283, -0.4351666569709778, -0.38128066062927246, -0.37971383333206177, -0.3422660827636719, -0.3470613956451416, -0.3590479791164398, -0.35317638516426086, -0.34660083055496216, -0.3522065281867981, -0.34873151779174805]