Epoch: 11-3, Loss: 0.02547507733106613, Lr: 0.001 , 
 ,Threshold: 
[-0.22066111862659454, -0.2173692137002945, -0.20963126420974731, -0.21454818546772003, -0.22259710729122162, -0.21702329814434052, -0.20886220037937164, -0.23529069125652313, -0.1988094598054886, -0.22000868618488312, -0.21602603793144226, -0.22253923118114471, -0.22486060857772827, -0.20171073079109192, -0.2142348736524582, -0.18546810746192932, -0.19962050020694733, -0.16719785332679749, -0.16756463050842285, -0.14499244093894958, -0.12193243950605392, -0.07788794487714767, -0.030194511637091637, 0.026979483664035797, 0.136568084359169, 0.19694526493549347, 0.29899856448173523, 0.3596152365207672, 0.37274134159088135, 0.39434075355529785, 0.3768647015094757, 0.3523370325565338, 0.3270866274833679, 0.32119911909103394, 0.3100188672542572, 0.2858439087867737, 0.2948559522628784, 0.2975495159626007, 0.2778933346271515, 0.27015572786331177] 
 , Step size: 
 [-0.2304854691028595, -0.20567286014556885, -0.22176231443881989, -0.22733798623085022, -0.2110525369644165, -0.22066223621368408, -0.20925112068653107, -0.2144203782081604, -0.2303483933210373, -0.23182734847068787, -0.21139168739318848, -0.24178946018218994, -0.25052693486213684, -0.25391364097595215, -0.2798072099685669, -0.3005944788455963, -0.3297944664955139, -0.3666991591453552, -0.4065034091472626, -0.44661954045295715, -0.4541867971420288, -0.4491184651851654, -0.47041624784469604, -0.4617511034011841, -0.44598719477653503, -0.45556503534317017, -0.4358023703098297, -0.42051947116851807, -0.4235473871231079, -0.41215643286705017, -0.43520113825798035, -0.3813086748123169, -0.37973693013191223, -0.34228453040122986, -0.3470761179924011, -0.3590596914291382, -0.3531852960586548, -0.3434925377368927, -0.3413251042366028, -0.3351965546607971]