Epoch: 15-3, Loss: 0.007918979972600937, Lr: 0.001 , 
 ,Threshold: 
[-0.22066377103328705, -0.21737173199653625, -0.20963378250598907, -0.21455071866512299, -0.22259949147701263, -0.21702560782432556, -0.20886443555355072, -0.23529274761676788, -0.198811337351799, -0.22001032531261444, -0.21602728962898254, -0.22253987193107605, -0.22486059367656708, -0.20170964300632477, -0.2142324447631836, -0.1854640543460846, -0.19961434602737427, -0.16718900203704834, -0.16755254566669464, -0.14497628808021545, -0.12191301584243774, -0.07786533981561661, -0.03016960434615612, 0.027005590498447418, 0.1365937739610672, 0.19696983695030212, 0.29901984333992004, 0.35963329672813416, 0.37275680899620056, 0.39435383677482605, 0.37687528133392334, 0.35234564542770386, 0.3270934820175171, 0.32120469212532043, 0.31002315878868103, 0.2858473062515259, 0.2948586344718933, 0.30057772994041443, 0.2837318181991577, 0.2753625512123108] 
 , Step size: 
 [-0.23048779368400574, -0.2056754231452942, -0.22176505625247955, -0.22734077274799347, -0.21105562150478363, -0.22066566348075867, -0.20925499498844147, -0.2144249677658081, -0.23035399615764618, -0.2318345457315445, -0.21140140295028687, -0.24180231988430023, -0.25054389238357544, -0.25393539667129517, -0.27983421087265015, -0.3006270229816437, -0.3298315405845642, -0.36673951148986816, -0.40654507279396057, -0.44666215777397156, -0.45422619581222534, -0.4491543173789978, -0.47044941782951355, -0.4617815911769867, -0.4460158348083496, -0.45559167861938477, -0.4358258545398712, -0.42053964734077454, -0.4235652685165405, -0.41217195987701416, -0.43521416187286377, -0.38131922483444214, -0.37974560260772705, -0.3422916531562805, -0.3470819890499115, -0.3590644299983978, -0.35318922996520996, -0.34804171323776245, -0.3502642512321472, -0.3433144688606262]