Epoch: 19-3, Loss: 0.008573793806135654, Lr: 0.001 , 
 ,Threshold: 
[-0.22066262364387512, -0.2173706293106079, -0.20963269472122192, -0.21454963088035583, -0.22259846329689026, -0.21702463924884796, -0.2088635265827179, -0.23529183864593506, -0.19881051778793335, -0.22000965476036072, -0.21602685749530792, -0.22253981232643127, -0.22486059367656708, -0.20171022415161133, -0.21423372626304626, -0.1854662448167801, -0.1996176838874817, -0.16719381511211395, -0.16755911707878113, -0.14498460292816162, -0.12192301452159882, -0.07787690311670303, -0.030182471498847008, 0.026992101222276688, 0.13658049702644348, 0.19695720076560974, 0.29900914430618286, 0.35962411761283875, 0.3727489411830902, 0.39434728026390076, 0.37687012553215027, 0.3523414433002472, 0.32709023356437683, 0.32120218873023987, 0.3100212514400482, 0.28584569692611694, 0.2948574423789978, 0.30051374435424805, 0.28487977385520935, 0.27750450372695923] 
 , Step size: 
 [-0.23048676550388336, -0.20567430555820465, -0.22176381945610046, -0.22733952105045319, -0.21105420589447021, -0.22066402435302734, -0.20925305783748627, -0.21442262828350067, -0.23035107553005219, -0.23183073103427887, -0.21139633655548096, -0.24179545044898987, -0.2505350112915039, -0.25392383337020874, -0.27981966733932495, -0.30060964822769165, -0.3298115134239197, -0.36671775579452515, -0.4065226912498474, -0.4466401934623718, -0.4542061984539032, -0.44913583993911743, -0.4704324007034302, -0.46176600456237793, -0.4460013806819916, -0.455578088760376, -0.43581411242485046, -0.42052942514419556, -0.4235563278198242, -0.4121640622615814, -0.4352077543735504, -0.38131406903266907, -0.37974128127098083, -0.34228822588920593, -0.34707924723625183, -0.3590622544288635, -0.3531874716281891, -0.3479449450969696, -0.3520231544971466, -0.3466518521308899]