Epoch: 7-3, Loss: 0.5735048651695251, Lr: 0.001 , 
 ,Threshold: 
[-0.22062604129314423, -0.21733586490154266, -0.20959864556789398, -0.21451544761657715, -0.2225656509399414, -0.21699313819408417, -0.2088335156440735, -0.23526383936405182, -0.1987854540348053, -0.21998856961727142, -0.21601158380508423, -0.22253218293190002, -0.22486306726932526, -0.201727032661438, -0.2142695188522339, -0.18552692234516144, -0.199710413813591, -0.1673261672258377, -0.16773992776870728, -0.1452176719903946, -0.12220126390457153, -0.07820022851228714, -0.03053966909646988, 0.02661777101457119, 0.13621002435684204, 0.19660423696041107, 0.2987038493156433, 0.35936394333839417, 0.37252697348594666, 0.3941584825515747, 0.3767176568508148, 0.35221967101097107, 0.32699280977249146, 0.3211253583431244, 0.3099615275859833, 0.28579843044281006, 0.2914387285709381, 0.2750083804130554, 0.25798341631889343, 0.2524600923061371] 
 , Step size: 
 [-0.2304549366235733, -0.20563916862010956, -0.22172629833221436, -0.2273017168045044, -0.21101178228855133, -0.22061584889888763, -0.20919771492481232, -0.214356929063797, -0.2302701473236084, -0.23172572255134583, -0.21125566959381104, -0.2416081428527832, -0.2502893805503845, -0.25360608100891113, -0.27942216396331787, -0.3001336455345154, -0.32926541566848755, -0.36612558364868164, -0.4059094786643982, -0.44603052735328674, -0.4536435604095459, -0.4486195147037506, -0.4699574410915375, -0.4613268971443176, -0.44559353590011597, -0.4551960825920105, -0.43547940254211426, -0.42023923993110657, -0.4233019948005676, -0.41194018721580505, -0.4350215792655945, -0.38116228580474854, -0.3796159625053406, -0.34218600392341614, -0.34699612855911255, -0.35899507999420166, -0.3481903076171875, -0.3098064661026001, -0.3110434114933014, -0.30797097086906433]