Epoch: 0-3, Loss: 174.75161743164062, Lr: 0.001 , 
 ,Threshold: 
[-0.00024776539066806436, -0.005921680945903063, -0.013484418392181396, -0.008758083917200565, -0.005642468109726906, 7.74419168010354e-05, -0.014442931860685349, -0.008514467626810074, 0.0036134030669927597, 0.013697324320673943, -0.008968289010226727, -0.006256013177335262, -0.0013797699939459562, 0.002604433335363865, 0.025670703500509262, -0.008738629519939423, 0.008030668832361698, -0.008672496303915977, 0.0069524142891168594, -0.0023568980395793915, -0.0031279507093131542, -0.0009652284788899124, 0.01034651417285204, -0.0188410934060812, -0.02689671702682972, -0.005289648659527302, 0.014486161060631275, 0.010259046219289303, 0.009423292241990566, -0.01341247744858265, -0.006392698269337416, -0.00853311363607645, -0.012022254057228565, -0.003574563190340996, -0.005331733264029026, 0.0059197391383349895, -0.004987891763448715, -0.011971455067396164, 0.0001281433505937457, -0.00463814428076148, 0.009325872175395489, -0.020159021019935608, -0.0005448582232929766, 0.01729550212621689, 0.01325676217675209, 0.008930434472858906, 0.0014785581734031439, -0.0033551184460520744, 0.005315019749104977, 0.0003810387570410967, 0.005344740115106106, -0.014891321770846844, 0.0017698750598356128, 0.008196445181965828, 0.01876220852136612, -0.008157264441251755, 0.00019980286015197635, 0.0019429854582995176, 0.002850979333743453, 0.028579983860254288, 0.004485623445361853, 0.016423529013991356, 0.01274649053812027, 0.004256771877408028, -0.003521923441439867, -0.010365002788603306, -0.013403021730482578, 0.0016725657042115927, 0.003909424412995577, -0.0036397711373865604, 0.01367547269910574, -0.011336029507219791, 0.01737808994948864, -0.0016867390368133783, 0.01636373996734619, -0.009418346919119358, 0.00857628509402275, 7.03337718732655e-05, 0.0003675390616990626, 0.010115360841155052] 
 , Step size: 
 [0.0016426026122644544, 0.014143313281238079, 0.01368766836822033, -0.003005637088790536, -0.005336670204997063, 0.0030713416635990143, 0.009083019569516182, 0.010999133810400963, 0.005905940663069487, 0.012776408344507217, 0.013809422962367535, -0.011908569373190403, -0.012898074463009834, 0.00014177296543493867, -0.013062653131783009, -0.004952027462422848, -0.003542181570082903, -0.02800712361931801, -0.014657396823167801, -0.0014736899174749851, -0.008892045356333256, -0.010524324141442776, 0.005234586540609598, 0.004838188178837299, -0.0038965721614658833, 0.007749706972390413, -0.009668809361755848, 0.000791940139606595, -0.019359920173883438, 0.007048085331916809, 0.0017966229934245348, -0.011278155259788036, -0.0026824299711734056, -0.017438633367419243, 0.0028749480843544006, 0.0005037717637605965, -0.005491709336638451, -0.0143712367862463, 0.009842121973633766, 0.020367521792650223, -0.004626109264791012, 0.012120362371206284, -0.0153578482568264, -0.005222946871072054, 0.0010006467346102, 0.0017764896620064974, -0.03597863018512726, 0.0031552899163216352, -0.009420652873814106, -0.006961375009268522, 0.017319856211543083, -0.009733264334499836, 0.002714951755478978, -0.015489276498556137, 0.0005819640355184674, -0.003179593477398157, 0.0009965270292013884, 0.0014534448273479939, -0.010712352581322193, -0.01819167099893093, 0.007429451681673527, -0.01370482798665762, -0.015248392708599567, 0.011271355673670769, 0.01596084237098694, 0.01735992543399334, 0.0016976227052509785, -0.0015750611200928688, -0.002534412546083331, 0.012457351200282574, -0.0007168587762862444, -0.0033889180049300194, -0.02360296994447708, 0.009756325744092464, -0.009481760673224926, -0.004923814907670021, 0.016974514350295067, -0.0063999118283391, 0.004772275220602751, -0.002981649013236165]