Epoch: 7-3, Loss: 0.005287915468215942, Lr: 0.001 , 
 ,Threshold: 
[-0.0028447103686630726, -0.004713997710496187, -0.010393819771707058, -0.016973286867141724, -0.008948019705712795, 0.00043000344885513186, 0.010702185332775116, 0.008032664656639099, 0.021541517227888107, 0.03772519528865814, 0.036132488399744034, 0.03370111063122749, 0.07082217931747437, 0.07380585372447968, 0.11674059927463531, 0.15281377732753754, 0.1690966635942459, 0.1611805111169815, 0.193263977766037, 0.21448297798633575, 0.23126021027565002, 0.21942749619483948, 0.26298949122428894, 0.2889889180660248, 0.2926698327064514, 0.3106546401977539, 0.33343201875686646, 0.3355717062950134, 0.33437544107437134, 0.36344337463378906, 0.3367016613483429, 0.37532058358192444, 0.36370062828063965, 0.3571189045906067, 0.36738625168800354, 0.3912617564201355, 0.37557414174079895, 0.340237557888031, 0.34466516971588135, 0.323816180229187] 
 , Step size: 
 [0.013355574570596218, 0.004373420495539904, 0.015227598138153553, -0.001602893928065896, -0.013521171174943447, -0.009811144322156906, -0.013982721604406834, -0.0016521537909284234, -0.009090621024370193, -0.03621785715222359, -0.02504872716963291, -0.06906861811876297, -0.08221245557069778, -0.10115909576416016, -0.12887467443943024, -0.1330302655696869, -0.16731864213943481, -0.1882493495941162, -0.1950111985206604, -0.19947081804275513, -0.22217969596385956, -0.2582074701786041, -0.2687126696109772, -0.2958078980445862, -0.3066016137599945, -0.31855863332748413, -0.33889609575271606, -0.3390200138092041, -0.3441130518913269, -0.3436202108860016, -0.36236125230789185, -0.36681240797042847, -0.3745177388191223, -0.37901628017425537, -0.37001898884773254, -0.40593215823173523, -0.38385170698165894, -0.37258586287498474, -0.36610308289527893, -0.3572670519351959]