Epoch: 2-3, Loss: 0.04403474181890488, Lr: 0.001 , 
 ,Threshold: 
[0.008935484103858471, 0.004986731801182032, -0.004039526917040348, -0.014325564727187157, -0.00757173728197813, 4.417307354742661e-05, 0.0050119697116315365, -0.00392270227894187, 0.0014016770292073488, 0.00516838114708662, -0.00463684881106019, -0.019979136064648628, -0.0015049566281959414, -0.024776341393589973, -0.007728570140898228, 0.013845070265233517, 0.01251568179577589, -0.003018900752067566, 0.01953217014670372, 0.029508205130696297, 0.0337570421397686, 0.004837615415453911, 0.03346962854266167, 0.04004611819982529, 0.0309059526771307, 0.04127621650695801, 0.056334324181079865, 0.05325326323509216, 0.047087665647268295, 0.07121316343545914, 0.039159178733825684, 0.0727003961801529, 0.05808329954743385, 0.051307979971170425, 0.06580957025289536, 0.09097538143396378, 0.09661771357059479, 0.09377709031105042, 0.08683674037456512, 0.08978082984685898] 
 , Step size: 
 [0.002120956778526306, -0.007071931846439838, 0.007312030531466007, -0.005471727345138788, -0.015669893473386765, -0.010070927441120148, -0.008676138706505299, 0.010080202482640743, 0.010937675833702087, -0.0035041365772485733, 0.015888802707195282, -0.01525984425097704, -0.009469902142882347, -0.0018029253697022796, -0.0038536502979695797, 0.006417053751647472, -0.010298519395291805, -0.02342601865530014, -0.019770201295614243, -0.012422083877027035, -0.022183192893862724, -0.04016111046075821, -0.03464227169752121, -0.04081037640571594, -0.03798924759030342, -0.04197901114821434, -0.05420893058180809, -0.048820652067661285, -0.04866928979754448, -0.04280996695160866, -0.05582728236913681, -0.05438664183020592, -0.05824926868081093, -0.06127609312534332, -0.05470773205161095, -0.09092641621828079, -0.0866532251238823, -0.10382656753063202, -0.08024142682552338, -0.08287747949361801]