Epoch: 0-3, Loss: 0.05085200071334839, Lr: 0.001 , 
 ,Threshold: 
[0.009436063468456268, 0.005391348619014025, -0.0036164356861263514, -0.01384183019399643, -0.0070021990686655045, 0.0007240447448566556, 0.0058283815160393715, -0.002964720595628023, 0.0025252613704651594, 0.006461294833570719, -0.003259026911109686, -0.018581079319119453, -0.00031646640854887664, -0.02413995750248432, -0.008420363999903202, 0.010733074508607388, 0.005631863605231047, -0.014713196083903313, 0.0021604676730930805, 0.00663329754024744, 0.005998900160193443, -0.02662438154220581, -0.0009163191425614059, 0.003521349746733904, -0.008479238487780094, 0.000395221752114594, 0.013844626955688, 0.008725845254957676, 9.427955956198275e-05, 0.02128133550286293, -0.014179795980453491, 0.015923287719488144, -0.0037499782629311085, -0.015560060739517212, -0.006125103682279587, 0.013866104185581207, 0.015560183674097061, 0.010420015081763268, 0.0036786305718123913, 0.00890067033469677] 
 , Step size: 
 [0.0016689351759850979, -0.007459674961864948, 0.006908915936946869, -0.00593425752595067, -0.016219209879636765, -0.010731465183198452, -0.009475580416619778, 0.009141907095909119, 0.00983444880694151, -0.004780481103807688, 0.01453389786183834, -0.016639428213238716, -0.01064365729689598, -0.002416318515315652, -0.003164698136970401, 0.009521719068288803, -0.0033954044338315725, -0.01167366188019514, -0.002300584688782692, 0.010599469766020775, 0.005772638134658337, -0.008477144874632359, 2.6785870431922376e-05, -0.003932520281523466, 0.0017665945924818516, -0.0006678682402707636, -0.011200913228094578, -0.0037366272881627083, -0.0010817315196618438, 0.007806430105119944, -0.0017802831716835499, 0.003280812641605735, 0.004534866660833359, 0.0066591170616447926, 0.018506428226828575, -0.012137302197515965, -0.003758912906050682, -0.018443578854203224, 0.005061246454715729, 0.0001935032196342945]