Epoch: 8-3, Loss: 0.005561536177992821, Lr: 0.001 , 
 ,Threshold: 
[-0.0163130946457386, -0.016376737505197525, -0.019415559247136116, -0.02384698949754238, -0.014844345860183239, -0.0048554507084190845, 0.00841084960848093, 0.010061655193567276, 0.02981511875987053, 0.05379043519496918, 0.05057993903756142, 0.04612169414758682, 0.08456932753324509, 0.08787480741739273, 0.1286698877811432, 0.1593342274427414, 0.1704622060060501, 0.15880365669727325, 0.18708787858486176, 0.20500469207763672, 0.2144724428653717, 0.20423926413059235, 0.25582820177078247, 0.27850717306137085, 0.2898797392845154, 0.3081722855567932, 0.33190038800239563, 0.3331794738769531, 0.33231499791145325, 0.3617250323295593, 0.33534690737724304, 0.37445521354675293, 0.3630848824977875, 0.35666918754577637, 0.36707597970962524, 0.3911910355091095, 0.3754698932170868, 0.3401589095592499, 0.3448265492916107, 0.3287838399410248] 
 , Step size: 
 [0.026221584528684616, 0.01760226860642433, 0.025486337020993233, 0.006175769492983818, -0.007054456509649754, -0.004022619687020779, -0.011350497603416443, -0.0034632058814167976, -0.017328497022390366, -0.052621595561504364, -0.03966547176241875, -0.08157322555780411, -0.0960058644413948, -0.11527930200099945, -0.14061148464679718, -0.13883420825004578, -0.16750957071781158, -0.18464744091033936, -0.18775223195552826, -0.1890123188495636, -0.20428770780563354, -0.2420368641614914, -0.2615981698036194, -0.28559502959251404, -0.30433347821235657, -0.3165617287158966, -0.3376956582069397, -0.33676666021347046, -0.3420780599117279, -0.3418698012828827, -0.36095163226127625, -0.3659156262874603, -0.3738826513290405, -0.3785499036312103, -0.3696933686733246, -0.40586358308792114, -0.3837420642375946, -0.37249743938446045, -0.36627423763275146, -0.3630513548851013]