Epoch: 9-3, Loss: 0.006376141682267189, Lr: 0.001 , 
 ,Threshold: 
[-0.025922197848558426, -0.02503175102174282, -0.026424983516335487, -0.029429178684949875, -0.01934652216732502, -0.010400685481727123, 0.00455528125166893, 0.008805136196315289, 0.032478637993335724, 0.061054546386003494, 0.05761020630598068, 0.05560040473937988, 0.09623659402132034, 0.09751804918050766, 0.1362120807170868, 0.16441859304904938, 0.17070117592811584, 0.1579594612121582, 0.1871376782655716, 0.20469622313976288, 0.20965135097503662, 0.1870349794626236, 0.24615775048732758, 0.26906710863113403, 0.28194746375083923, 0.3007411062717438, 0.32345256209373474, 0.32549893856048584, 0.3257348835468292, 0.356193870306015, 0.3310907185077667, 0.37135225534439087, 0.3607696294784546, 0.3549761176109314, 0.3658556342124939, 0.3905576169490814, 0.37494033575057983, 0.3398185670375824, 0.3447321057319641, 0.3288257122039795] 
 , Step size: 
 [0.03529949113726616, 0.027134360745549202, 0.03324176371097565, 0.012318686582148075, -0.00219671125523746, 0.0017758049070835114, -0.007270992733538151, -0.002060812897980213, -0.019992325454950333, -0.06017651781439781, -0.046859364956617355, -0.09129594266414642, -0.10800608992576599, -0.1250981241464615, -0.14805378019809723, -0.14355681836605072, -0.16719162464141846, -0.18328885734081268, -0.18738223612308502, -0.18832698464393616, -0.19902780652046204, -0.22397422790527344, -0.25172942876815796, -0.27644968032836914, -0.2967380881309509, -0.3094181716442108, -0.3293350338935852, -0.3289716839790344, -0.33526918292045593, -0.33605512976646423, -0.35643741488456726, -0.36263328790664673, -0.37143877148628235, -0.3767629861831665, -0.3683980405330658, -0.4052078127861023, -0.3831782042980194, -0.3721153438091278, -0.3661743998527527, -0.36309969425201416]