Epoch: 1-3, Loss: 0.04870156943798065, Lr: 0.001 , 
 ,Threshold: 
[0.009161899797618389, 0.0051672388799488544, -0.0038520365487784147, -0.01411217451095581, -0.007321647834032774, 0.00034070308902300894, 0.005364692769944668, -0.003514387644827366, 0.001869345549494028, 0.005686015356332064, -0.004120789468288422, -0.019526813179254532, -0.001269445288926363, -0.02497214265167713, -0.008859400637447834, 0.011137153021991253, 0.007500998210161924, -0.010751275345683098, 0.008751770481467247, 0.015900228172540665, 0.017727477476000786, -0.012957083061337471, 0.014288260601460934, 0.019883722066879272, 0.009384600445628166, 0.019083146005868912, 0.03337152674794197, 0.029325993731617928, 0.02198490872979164, 0.04479188472032547, 0.010848615318536758, 0.042526669800281525, 0.025038927793502808, 0.01562953181564808, 0.027537070214748383, 0.0500330850481987, 0.053812235593795776, 0.05010358616709709, 0.04388695955276489, 0.04879925400018692] 
 , Step size: 
 [0.0019165646517649293, -0.007244524545967579, 0.007134085521101952, -0.0056749675422906876, -0.015910234302282333, -0.010358039289712906, -0.009020386263728142, 0.009681682102382183, 0.010480030439794064, -0.004013377241790295, 0.015384014695882797, -0.01570364274084568, -0.009698263369500637, -0.001597510650753975, -0.0027294810861349106, 0.009116879664361477, -0.005271206609904766, -0.015652161091566086, -0.008911386132240295, 0.0013059801422059536, -0.00598981324583292, -0.022176291793584824, -0.015225417912006378, -0.020365409553050995, -0.01617346704006195, -0.019447144120931625, -0.030847763642668724, -0.02446414902806282, -0.0231012050062418, -0.015854917466640472, -0.026948323473334312, -0.02351258136332035, -0.024440612643957138, -0.024718880653381348, -0.0153792230412364, -0.04864303767681122, -0.04235212504863739, -0.058491434901952744, -0.03552699089050293, -0.04010491818189621]