Epoch: 5-3, Loss: 0.021479297429323196, Lr: 0.001 , 
 ,Threshold: 
[0.007355211768299341, 0.0037254199851304293, -0.005444836337119341, -0.016003072261810303, -0.00963733159005642, -0.0023810311686247587, 0.002277701860293746, -0.006775961723178625, -0.0011445224517956376, 0.0037831624504178762, -0.0035417519975453615, -0.013781839981675148, 0.01351042091846466, 0.0031192931346595287, 0.038107406347990036, 0.07613026350736618, 0.09064769744873047, 0.08912260830402374, 0.12346936017274857, 0.14274880290031433, 0.1549869030714035, 0.13268905878067017, 0.16736377775669098, 0.1799216866493225, 0.17694713175296783, 0.19358152151107788, 0.21556681394577026, 0.2189721316099167, 0.22007934749126434, 0.25196129083633423, 0.2285890430212021, 0.2701694071292877, 0.26254895329475403, 0.26064229011535645, 0.2769414484500885, 0.3040759563446045, 0.3004749119281769, 0.28126758337020874, 0.24911515414714813, 0.21805821359157562] 
 , Step size: 
 [0.003563297912478447, -0.005940632428973913, 0.008576076477766037, -0.003936251625418663, -0.013741390779614449, -0.007773387245833874, -0.006060291081666946, 0.012810446321964264, 0.013373116962611675, -0.0022133709862828255, 0.01470339298248291, -0.021490810438990593, -0.02459576167166233, -0.029935995116829872, -0.050092894583940506, -0.05675666406750679, -0.08989349007606506, -0.11743295192718506, -0.12602345645427704, -0.1282874345779419, -0.1463281363248825, -0.17116981744766235, -0.17205776274204254, -0.18455658853054047, -0.1881001740694046, -0.19872678816318512, -0.2183970808982849, -0.219852477312088, -0.22735348343849182, -0.22985191643238068, -0.25207358598709106, -0.25960680842399597, -0.27122926712036133, -0.2801782488822937, -0.27675074338912964, -0.3162621855735779, -0.30467066168785095, -0.30763155221939087, -0.26078101992607117, -0.22829529643058777]