Epoch: 6-3, Loss: 0.010383207350969315, Lr: 0.001 , 
 ,Threshold: 
[0.0028648031875491142, -0.0005531889037229121, -0.009226016700267792, -0.019040364772081375, -0.01262373011559248, -0.004930280148983002, 0.0015699147479608655, -0.005217886064201593, 0.003511691465973854, 0.012798264622688293, 0.011018244549632072, 0.009059461764991283, 0.047473106533288956, 0.051155127584934235, 0.09609029442071915, 0.14097747206687927, 0.16271160542964935, 0.1652863621711731, 0.20361830294132233, 0.22618569433689117, 0.2424904853105545, 0.22373360395431519, 0.26227691769599915, 0.27829036116600037, 0.2770332098007202, 0.29473936557769775, 0.31743618845939636, 0.32067227363586426, 0.32106998562812805, 0.3518109619617462, 0.3266697824001312, 0.36638492345809937, 0.35598382353782654, 0.3504747748374939, 0.3617868423461914, 0.38640525937080383, 0.37174785137176514, 0.3375539183616638, 0.332378089427948, 0.26680734753608704] 
 , Step size: 
 [0.007648876868188381, -0.00120773003436625, 0.012927734293043613, -0.00035123369889333844, -0.010346251539885998, -0.004863883834332228, -0.005105293821543455, 0.011416833847761154, 0.008839481510221958, -0.011182494461536407, 0.00015377069939859211, -0.04439329355955124, -0.05891240015625954, -0.07873719185590744, -0.10890510678291321, -0.12249782681465149, -0.16281378269195557, -0.1945800632238388, -0.2073182463645935, -0.21293726563453674, -0.2351638823747635, -0.2635464072227478, -0.2684466540813446, -0.2845318019390106, -0.28986212611198425, -0.30153319239616394, -0.32187139987945557, -0.32316234707832336, -0.32997867465019226, -0.33133891224861145, -0.3518255352973938, -0.35747644305229187, -0.36647164821624756, -0.3720915615558624, -0.36415961384773254, -0.4009060859680176, -0.3797937035560608, -0.3696044981479645, -0.35308799147605896, -0.2893368601799011]