Epoch: 4-3, Loss: 0.03481856733560562, Lr: 0.001 , 
 ,Threshold: 
[0.008211247622966766, 0.004434514790773392, -0.004602495115250349, -0.014953005127608776, -0.008289005607366562, -0.0007675538654439151, 0.004116011783480644, -0.00484826136380434, 0.0005733154830522835, 0.0046922252513468266, -0.004362926352769136, -0.0180576853454113, 0.0033602563198655844, -0.01562894508242607, 0.008184833452105522, 0.03811775892972946, 0.04583226516842842, 0.03848247602581978, 0.06854191422462463, 0.08433651924133301, 0.09332834929227829, 0.06817015260457993, 0.09999839961528778, 0.10958822071552277, 0.10375846177339554, 0.11731462925672531, 0.13609324395656586, 0.1368163824081421, 0.1352364867925644, 0.16434742510318756, 0.13838393986225128, 0.1774815171957016, 0.16855332255363464, 0.166305273771286, 0.1836705505847931, 0.21125876903533936, 0.21433879435062408, 0.2055303305387497, 0.18643026053905487, 0.1742674559354782] 
 , Step size: 
 [0.0027763480320572853, -0.006549455691128969, 0.007837831042706966, -0.004883635323494673, -0.014991055242717266, -0.009296993725001812, -0.007816420868039131, 0.010965215042233467, 0.011727823875844479, -0.003061190014705062, 0.015577907674014568, -0.017192844301462173, -0.014351763762533665, -0.010959482751786709, -0.01974678970873356, -0.017963413149118423, -0.04397314041852951, -0.06552309542894363, -0.06961824744939804, -0.06828609853982925, -0.0829758420586586, -0.10485291481018066, -0.10273782163858414, -0.11214148998260498, -0.11277970671653748, -0.12022893130779266, -0.1365397423505783, -0.13522730767726898, -0.1399511694908142, -0.13952672481536865, -0.1590113788843155, -0.16381821036338806, -0.17386049032211304, -0.18206261098384857, -0.1791243702173233, -0.21861743927001953, -0.21252985298633575, -0.22449418902397156, -0.18931454420089722, -0.17639705538749695]