Epoch: 3-3, Loss: 0.04028640687465668, Lr: 0.001 , 
 ,Threshold: 
[0.008648364804685116, 0.00476155336946249, -0.004272579215466976, -0.014588876627385616, -0.007877285592257977, -0.0003132082929369062, 0.004595181904733181, -0.00438641058281064, 0.0009010754292830825, 0.004672075156122446, -0.005027094855904579, -0.020075693726539612, -0.0009795102523639798, -0.023177986964583397, -0.004160130862146616, 0.020256370306015015, 0.022465022280812263, 0.010639823973178864, 0.03686479106545448, 0.04984398931264877, 0.056426748633384705, 0.029306817799806595, 0.05941341072320938, 0.06719692051410675, 0.059482138603925705, 0.07110486924648285, 0.08759205788373947, 0.08607107400894165, 0.08189912140369415, 0.10817591100931168, 0.07890978455543518, 0.11497245728969574, 0.10342593491077423, 0.09932681918144226, 0.11594179272651672, 0.14304310083389282, 0.14880087971687317, 0.14463193714618683, 0.1337820440530777, 0.13156545162200928] 
 , Step size: 
 [0.0023802192881703377, -0.006857285741716623, 0.007532175164669752, -0.005222101230174303, -0.015377584844827652, -0.009726512245833874, -0.008271333761513233, 0.010530203580856323, 0.011424650438129902, -0.0030195501167327166, 0.01626408100128174, -0.015172135084867477, -0.010003154166042805, -0.0034076326992362738, -0.00740345474332571, 7.510010618716478e-06, -0.020313577726483345, -0.03722982481122017, -0.03734004870057106, -0.033078037202358246, -0.04525208845734596, -0.06508879363536835, -0.061129163950681686, -0.06858889013528824, -0.06724625825881958, -0.07259228080511093, -0.08638444542884827, -0.08265005797147751, -0.08459190279245377, -0.0810503289103508, -0.09699195623397827, -0.09835299849510193, -0.10546896606683731, -0.11143097281455994, -0.10729671269655228, -0.14585046470165253, -0.14197130501270294, -0.15809598565101624, -0.13078700006008148, -0.12818048894405365]