Epoch: 6-31, Loss: 0.0006611570133827627, Lr: 0.001 , 
 ,Threshold: 
[0.004127770662307739, 0.001383517635986209, -0.0054483418352901936, -0.012925133109092712, -0.004840864334255457, 0.0043768188916146755, 0.013468415476381779, 0.009184503927826881, 0.020263860002160072, 0.03263135999441147, 0.03262438625097275, 0.030533650889992714, 0.06916740536689758, 0.07188931107521057, 0.11474130302667618, 0.15450675785541534, 0.1723230630159378, 0.1672285497188568, 0.20084108412265778, 0.22126148641109467, 0.2376188337802887, 0.2212119698524475, 0.26141592860221863, 0.28389647603034973, 0.2866375744342804, 0.30442947149276733, 0.3274446129798889, 0.3307996988296509, 0.3305245637893677, 0.3604864180088043, 0.33445295691490173, 0.3735853135585785, 0.3624046742916107, 0.3561466634273529, 0.3666708767414093, 0.39075642824172974, 0.3752012252807617, 0.34000319242477417, 0.34413719177246094, 0.3113667368888855] 
 , Step size: 
 [0.006709767039865255, -0.0025943308137357235, 0.00963526964187622, -0.006122936494648457, -0.017925983294844627, -0.014012054540216923, -0.016934184357523918, -0.002943693660199642, -0.007903763093054295, -0.031082553789019585, -0.02154732309281826, -0.06591686606407166, -0.08063995838165283, -0.09936074912548065, -0.12719541788101196, -0.1352817714214325, -0.17125436663627625, -0.1948969066143036, -0.20305772125720978, -0.20663028955459595, -0.22887447476387024, -0.2599680721759796, -0.26674947142601013, -0.2901122570037842, -0.2999057471752167, -0.3117133677005768, -0.33237043023109436, -0.33380284905433655, -0.339895635843277, -0.34039977192878723, -0.3599240779876709, -0.3649486005306244, -0.3731321692466736, -0.3779809772968292, -0.3692561089992523, -0.4054045081138611, -0.3834533989429474, -0.3723237216472626, -0.365543931722641, -0.3427707254886627]