Epoch: 4-3, Loss: 0.03223782777786255, Lr: 0.001 , 
 ,Threshold: 
[0.009341665543615818, -0.010787829756736755, -0.009072813205420971, 0.0016239569522440434, 0.012855283915996552, 0.0044512259773910046, -0.01718665473163128, -0.026843596249818802, -0.0013727147597819567, 0.012140095233917236, -0.021335236728191376, -0.011534965597093105, 0.0007279050187207758, -0.0027354250196367502, 0.0067739337682724, 0.03358984366059303, 0.036221008747816086, 0.041913826018571854, 0.05918320640921593, 0.07412908971309662, 0.0930234044790268, 0.07393341511487961, 0.08228927105665207, 0.09802728146314621, 0.10034231841564178, 0.09490522742271423, 0.122899129986763, 0.12142118811607361, 0.12880869209766388, 0.136429563164711, 0.15838246047496796, 0.15777967870235443, 0.1706252098083496, 0.18331415951251984, 0.21043094992637634, 0.20453447103500366, 0.19099152088165283, 0.2089289128780365, 0.1804116666316986, 0.15840879082679749] 
 , Step size: 
 [0.024812821298837662, 0.0002605316403787583, -0.014474100433290005, 0.006021665874868631, 0.005233036819845438, -0.020643511787056923, -0.0011083392892032862, -0.006679266691207886, 0.003132019191980362, -0.0036932507064193487, -0.007109389174729586, 0.0076552690006792545, 0.0019444625359028578, -0.015388098545372486, -0.002706647850573063, -0.03941403329372406, -0.022566404193639755, -0.03537357598543167, -0.053788039833307266, -0.06822273135185242, -0.06914601475000381, -0.07324380427598953, -0.1212937980890274, -0.09064304828643799, -0.11680211126804352, -0.11504008620977402, -0.11467854678630829, -0.12560366094112396, -0.1361008882522583, -0.13979750871658325, -0.16072633862495422, -0.16357842087745667, -0.16689366102218628, -0.17211008071899414, -0.1935032606124878, -0.19614294171333313, -0.21021288633346558, -0.2175186723470688, -0.2126765102148056, -0.17304454743862152]