Epoch: 6-35, Loss: 0.0003638325142674148, Lr: 0.001 , 
 ,Threshold: 
[-0.00046048394870013, -0.02288254350423813, -0.02092403918504715, -0.008410231210291386, 0.0031174689065665007, -0.005976494401693344, -0.023103035986423492, -0.02774685248732567, 0.001737380400300026, 0.021222354844212532, -0.001022396725602448, 0.02465185523033142, 0.05630882829427719, 0.07069655507802963, 0.09763585776090622, 0.14461582899093628, 0.1572151780128479, 0.16898329555988312, 0.18959596753120422, 0.20940031111240387, 0.2421131730079651, 0.22296176850795746, 0.24063172936439514, 0.2603830099105835, 0.27314552664756775, 0.2726890444755554, 0.3071102201938629, 0.3083125650882721, 0.3185095191001892, 0.32827863097190857, 0.351803183555603, 0.3510788083076477, 0.36297667026519775, 0.37299132347106934, 0.39790287613868713, 0.3825182616710663, 0.3537931442260742, 0.3471473157405853, 0.31952965259552, 0.30006805062294006] 
 , Step size: 
 [0.03389491140842438, 0.012899653986096382, -0.00126013217959553, 0.017720656469464302, 0.016284968703985214, -0.00910402461886406, 0.005506145302206278, -0.0053808558732271194, 0.00019154633628204465, -0.012809602543711662, -0.027546608820557594, -0.02873225510120392, -0.05411190912127495, -0.08970847725868225, -0.09455860406160355, -0.15175724029541016, -0.14458432793617249, -0.16377870738506317, -0.18656623363494873, -0.2060151994228363, -0.2219846546649933, -0.22584839165210724, -0.28386738896369934, -0.25827330350875854, -0.29494771361351013, -0.2982322573661804, -0.304176926612854, -0.3176348805427551, -0.3308304250240326, -0.33659079670906067, -0.3589347004890442, -0.36185798048973083, -0.3645792305469513, -0.36761781573295593, -0.38706183433532715, -0.38184404373168945, -0.3832532465457916, -0.3690759837627411, -0.3701438307762146, -0.34535014629364014]