Epoch: 6-3, Loss: 0.009726610966026783, Lr: 0.001 , 
 ,Threshold: 
[0.0060274675488471985, -0.01386098563671112, -0.012024492025375366, -0.0008137397817336023, 0.01016684528440237, 0.0014844308607280254, -0.018611501902341843, -0.025960704311728477, 0.0008783647208474576, 0.01753106527030468, -0.010049783624708652, 0.008485903963446617, 0.036298010498285294, 0.0551636777818203, 0.08449584990739822, 0.13138294219970703, 0.14946767687797546, 0.16613905131816864, 0.191071555018425, 0.21258850395679474, 0.23812419176101685, 0.2222682535648346, 0.23592382669448853, 0.25500020384788513, 0.2625950276851654, 0.26183006167411804, 0.29427042603492737, 0.29720619320869446, 0.3086678981781006, 0.3195209503173828, 0.3444979190826416, 0.34433937072753906, 0.35671699047088623, 0.3674023747444153, 0.39283517003059387, 0.37806951999664307, 0.3500913977622986, 0.34444335103034973, 0.31356844305992126, 0.2519197463989258] 
 , Step size: 
 [0.027804018929600716, 0.0033742228988558054, -0.011304470710456371, 0.008868573233485222, 0.00826138723641634, -0.01737130805850029, 0.0004519828944467008, -0.0075315325520932674, 0.0008468942833133042, -0.009170034900307655, -0.018503446131944656, -0.012403937056660652, -0.03375189006328583, -0.07398255914449692, -0.0816432386636734, -0.13911786675453186, -0.1378622204065323, -0.1619204729795456, -0.18832294642925262, -0.20962172746658325, -0.21751195192337036, -0.22483956813812256, -0.27849531173706055, -0.251142680644989, -0.2828022837638855, -0.28586187958717346, -0.290078341960907, -0.3055637776851654, -0.32029470801353455, -0.32737407088279724, -0.3514094054698944, -0.35493654012680054, -0.35813042521476746, -0.36185821890830994, -0.38187095522880554, -0.3772391378879547, -0.3793354034423828, -0.36608558893203735, -0.36354443430900574, -0.2873202860355377]