Epoch: 0-3, Loss: 0.049832794815301895, Lr: 0.001 , 
 ,Threshold: 
[0.010338366031646729, -0.009996323846280575, -0.008229058235883713, 0.0025591235607862473, 0.013947526924312115, 0.0057582068257033825, -0.01570804789662361, -0.025180095806717873, 0.000401123717892915, 0.013833913952112198, -0.02004948817193508, -0.011421686969697475, -0.001709702075459063, -0.009685298427939415, -0.007060418836772442, 0.009503011591732502, 0.0017224163748323917, -0.005643898621201515, -0.0014704802306368947, 0.0022941818460822105, 0.012481315061450005, -0.01317852083593607, -0.010733296163380146, -0.00019388337386772037, -0.002621585736051202, -0.013260947540402412, 0.009569027461111546, 0.0019218630623072386, 0.002304020104929805, 0.0020456293132156134, 0.014681510627269745, 0.0028670255560427904, 0.005195938982069492, 0.007092667743563652, 0.023232564330101013, 0.009460772387683392, -0.006937958765774965, 0.014008001424372196, -0.003018431831151247, -0.00664312532171607] 
 , Step size: 
 [0.023927679285407066, -0.00048345091636292636, -0.015261802822351456, 0.005144649650901556, 0.0041974750347435474, -0.021899044513702393, -0.002529560588300228, -0.0082820113748312, 0.0014145468594506383, -0.005338039714843035, -0.008330975659191608, 0.007589513435959816, 0.00438946858048439, -0.008438865654170513, 0.011117071844637394, -0.015189806930720806, 0.012307695113122463, 0.01261767279356718, 0.007527665235102177, 0.004630971699953079, 0.012739880010485649, 0.015373557806015015, -0.026357652619481087, 0.009690236300230026, -0.011382880620658398, -0.004187395796179771, 0.0017394160386174917, -0.0026479936204850674, -0.005680050700902939, -0.0010346292983740568, -0.011915957555174828, -0.0031413675751537085, 0.004688064102083445, 0.011024093255400658, 0.0016714740777388215, 0.007750956807285547, -0.002341328887268901, -0.011672893539071083, -0.017622385174036026, 0.0033587792422622442]