Epoch: 5-3, Loss: 0.021648410707712173, Lr: 0.001 , 
 ,Threshold: 
[0.008460591547191143, -0.011479749344289303, -0.009839687496423721, 0.000742891919799149, 0.011786647140979767, 0.00320040131919086, -0.01852995529770851, -0.028193742036819458, -0.0024674558080732822, 0.011812477372586727, -0.020407158881425858, -0.007753321435302496, 0.009452329948544502, 0.01308184303343296, 0.03139926493167877, 0.06785883754491806, 0.0765763446688652, 0.08766015619039536, 0.10985154658555984, 0.12842199206352234, 0.15032550692558289, 0.1339070200920105, 0.1452793926000595, 0.1637541651725769, 0.16943717002868652, 0.16722649335861206, 0.19875212013721466, 0.2008412629365921, 0.21182292699813843, 0.2227417677640915, 0.24793273210525513, 0.24934068322181702, 0.2636183202266693, 0.276860773563385, 0.3041933476924896, 0.2952331006526947, 0.276185542345047, 0.2849980592727661, 0.2428247332572937, 0.20196852087974548] 
 , Step size: 
 [0.025605427101254463, 0.0008757903124205768, -0.013792998157441616, 0.006817725487053394, 0.006218868773430586, -0.019468137994408607, 0.00015699236246291548, -0.005405093543231487, 0.004161553923040628, -0.003426617244258523, -0.008105041459202766, 0.0038504991680383682, -0.006771552376449108, -0.03128330782055855, -0.027553359046578407, -0.07424115389585495, -0.06371914595365524, -0.08203506469726562, -0.10552408546209335, -0.12371809780597687, -0.12777632474899292, -0.13458429276943207, -0.18588733673095703, -0.15804828703403473, -0.18776291608810425, -0.18934085965156555, -0.19270285964012146, -0.20735888183116913, -0.22164086997509003, -0.2288023978471756, -0.25319704413414, -0.25826510787010193, -0.263296902179718, -0.2694413363933563, -0.29145896434783936, -0.29180043935775757, -0.3014605939388275, -0.30088791251182556, -0.2837267220020294, -0.22485068440437317]