Epoch: 8-3, Loss: 0.003162843408063054, Lr: 0.001 , 
 ,Threshold: 
[-0.0028218720108270645, -0.02723611146211624, -0.02546570636332035, -0.012391484342515469, -0.0008441575919277966, -0.011078939773142338, -0.026478266343474388, -0.029299359768629074, 0.002759906928986311, 0.025768553838133812, 0.008208461105823517, 0.04238239675760269, 0.07394485920667648, 0.08304038643836975, 0.1115926131606102, 0.15448886156082153, 0.16097959876060486, 0.16475966572761536, 0.17937466502189636, 0.19423037767410278, 0.21769902110099792, 0.19448713958263397, 0.21125680208206177, 0.22804191708564758, 0.24394100904464722, 0.2500322163105011, 0.28805848956108093, 0.2945267856121063, 0.3075893521308899, 0.31958267092704773, 0.34462565183639526, 0.34510183334350586, 0.35863786935806274, 0.3700157403945923, 0.39603859186172485, 0.3811163008213043, 0.3528158366680145, 0.3465774357318878, 0.31950893998146057, 0.31694990396499634] 
 , Step size: 
 [0.036223482340574265, 0.01734059676527977, 0.0037302642595022917, 0.02216428332030773, 0.020567331463098526, -0.003761864732950926, 0.009147689677774906, -0.003595021553337574, -0.0006570792174898088, -0.017310593277215958, -0.03690792992711067, -0.046915438026189804, -0.0723157748579979, -0.10227104276418686, -0.1086934432387352, -0.16132299602031708, -0.14732420444488525, -0.15852707624435425, -0.1755557358264923, -0.19022613763809204, -0.19715218245983124, -0.1967683732509613, -0.25403445959091187, -0.22585216164588928, -0.26582667231559753, -0.27576637268066406, -0.28512072563171387, -0.30374667048454285, -0.3196602463722229, -0.32753315567970276, -0.3513634204864502, -0.35548654198646545, -0.35994574427604675, -0.36444252729415894, -0.3851119577884674, -0.3803653419017792, -0.3821968138217926, -0.3684280812740326, -0.3701174855232239, -0.3653165400028229]