Epoch: 2-3, Loss: 73.92961120605469, Lr: 0.001 , 
 ,Threshold: 
[-0.10004393756389618, -0.11314098536968231, -0.10887928307056427, -0.10451337695121765, -0.1162114366889, -0.10421276837587357, -0.09931889176368713, -0.08892402052879333, -0.10078924894332886, -0.10361777991056442, -0.10038311034440994, -0.11057659983634949, -0.0989358127117157, -0.10046350210905075, -0.0911279246211052, -0.09324169158935547, -0.10749693214893341, -0.09967041015625, -0.12409350275993347, -0.10654381662607193, -0.09968031197786331, -0.08295229822397232, -0.115860715508461, -0.11624009162187576, -0.09232591837644577, -0.106064572930336, -0.11119440943002701, -0.10151193290948868, -0.11121024191379547, -0.09708037972450256, -0.10321084409952164, -0.09472797811031342, -0.10481518507003784, -0.11555545032024384, -0.09746462106704712, -0.10284171998500824, -0.1070370152592659, -0.10091254115104675, -0.11370442807674408, -0.11948860436677933, -0.10930513590574265, -0.0910976231098175, -0.1056724563241005, -0.08869797736406326, -0.10919810831546783, -0.11401025205850601, -0.09665853530168533, -0.09670650959014893, -0.10704707354307175, -0.11546134948730469, -0.11098578572273254, -0.10413727164268494, -0.08870706707239151, -0.09465283900499344, -0.09286385774612427, -0.09599350392818451, -0.11956774443387985, -0.09195224940776825, -0.1018662080168724, -0.08956016600131989, -0.09517014771699905, -0.0801490843296051, -0.11938616633415222, -0.09669555723667145, -0.10042062401771545, -0.0933811143040657, -0.10559823364019394, -0.10004088282585144, -0.10698059946298599, -0.10381656140089035, -0.09273813664913177, -0.09904173761606216, -0.09290114045143127, -0.10800722241401672, -0.11476696282625198, -0.10244177281856537, -0.12516796588897705, -0.11173777282238007, -0.09497937560081482, -0.09863341599702835, -0.10434836149215698, -0.09725295007228851, -0.10631540417671204, -0.10614986717700958, -0.09503349661827087, -0.09451048076152802, -0.1065058559179306, -0.10216091573238373, -0.11664491891860962, -0.10730871558189392, -0.1115199625492096, -0.09839268028736115, -0.09791959822177887, -0.09773501753807068, -0.09942904859781265, -0.09538798034191132, -0.10556520521640778, -0.10770191252231598, -0.09105813503265381, -0.09260748326778412, -0.09173290431499481, -0.10805940628051758, -0.08451100438833237, -0.10475576668977737, -0.11460069566965103, -0.11636216193437576, -0.10539916902780533, -0.10142920911312103, -0.11549796164035797, -0.11765678226947784, -0.12055438756942749, -0.09786374866962433, -0.11235421150922775, -0.0939302071928978, -0.11316525191068649, -0.09070035070180893, -0.09540889412164688, -0.10876186937093735, -0.10459249466657639, -0.1127176433801651, -0.09355956315994263, -0.11210272461175919, -0.11447597295045853, -0.08376006036996841, -0.08169607818126678, -0.06008053198456764, -0.07268316298723221, -0.05463673546910286, -0.044037818908691406, -0.04000382497906685, 0.0019369554938748479, 0.023286061361432076, 0.05664332956075668, 0.075365349650383, 0.10138460248708725, 0.10961013287305832, 0.12406370043754578, 0.1389724314212799, 0.1366206556558609, 0.11757755279541016, 0.14734607934951782, 0.12698180973529816, 0.13529610633850098, 0.13907699286937714, 0.13501352071762085, 0.12877950072288513, 0.12353154271841049, 0.13311946392059326, 0.12079962342977524, 0.1230902448296547, 0.11177640408277512, 0.15459184348583221, 0.12339699268341064, 0.15024277567863464, 0.14878958463668823, 0.13283687829971313, 0.1207725778222084, 0.12926051020622253, 0.12701444327831268, 0.13283565640449524] 
 , Step size: 
 [-0.08856907486915588, -0.10402097553014755, -0.08437811583280563, -0.09334361553192139, -0.10125084221363068, -0.08229096978902817, -0.09430091828107834, -0.0860406830906868, -0.07451757043600082, -0.09178696572780609, -0.11017665266990662, -0.10820882022380829, -0.10851474851369858, -0.08267185091972351, -0.0895916149020195, -0.10148179531097412, -0.09655379503965378, -0.11679515242576599, -0.10501589626073837, -0.08567231148481369, -0.09041368961334229, -0.0996742993593216, -0.08391119539737701, -0.09198775142431259, -0.0904594138264656, -0.07203887403011322, -0.08472888916730881, -0.09107472747564316, -0.07612502574920654, -0.1000736802816391, -0.08450126647949219, -0.08782687783241272, -0.0858747810125351, -0.06780282407999039, -0.07947005331516266, -0.05166681110858917, -0.06003159284591675, -0.07587789744138718, -0.06922546774148941, -0.08264464884996414, -0.08483868837356567, -0.07512477785348892, -0.07177992165088654, -0.06887420266866684, -0.06933625787496567, -0.08968687802553177, -0.07470831274986267, -0.07456153631210327, -0.07243528962135315, -0.08500663936138153, -0.0792040154337883, -0.07389654964208603, -0.08940577507019043, -0.07142028957605362, -0.06374599039554596, -0.0796172171831131, -0.07857939600944519, -0.06860971450805664, -0.06371196359395981, -0.07085194438695908, -0.06206546723842621, -0.04776209965348244, -0.05313430353999138, -0.05071701854467392, -0.04342047870159149, -0.026131749153137207, -0.03609869256615639, -0.013664004392921925, -0.008624102920293808, -0.0003055717679671943, 0.014382719062268734, 0.010770175606012344, 0.006802290678024292, 0.00222263322211802, 0.002725569298490882, 0.0104081304743886, 0.00922795943915844, 0.026879535987973213, 0.0051908609457314014, 0.028067780658602715, 0.0494314581155777, 0.015865158289670944, 0.03781544044613838, 0.03418479114770889, 0.04319142550230026, 0.03719943016767502, 0.024358630180358887, 0.04801248759031296, 0.03456641361117363, 0.05232737585902214, 0.046413518488407135, 0.025451092049479485, 0.05078413709998131, 0.02001233771443367, 0.04871174693107605, 0.04434851184487343, 0.028741484507918358, 0.05469535291194916, 0.0614248663187027, 0.05484168604016304, 0.057665806263685226, 0.0428532138466835, 0.07388819754123688, 0.06309012323617935, 0.04232298955321312, 0.04782336950302124, 0.03747411072254181, 0.05430392920970917, 0.044857677072286606, 0.0248468779027462, 0.024577267467975616, 0.02926979586482048, 0.024146616458892822, -0.015635894611477852, 0.006648796144872904, -0.004423706326633692, -0.03715522959828377, -0.03892739862203598, -0.049781788140535355, -0.06815458834171295, -0.08341265469789505, -0.1119769737124443, -0.10987802594900131, -0.09242285788059235, -0.0967191532254219, -0.12102487683296204, -0.1241583377122879, -0.12687484920024872, -0.12938472628593445, -0.12573222815990448, -0.1495453268289566, -0.140941321849823, -0.1395479440689087, -0.14564986526966095, -0.13273349404335022, -0.13170330226421356, -0.15068267285823822, -0.15515413880348206, -0.1365143060684204, -0.16758650541305542, -0.12889984250068665, -0.13651317358016968, -0.14546500146389008, -0.133774533867836, -0.143983393907547, -0.14172886312007904, -0.11735871434211731, -0.13922569155693054, -0.13903279602527618, -0.1477702409029007, -0.14873336255550385, -0.12526804208755493, -0.13930343091487885, -0.13973961770534515, -0.10337559133768082, -0.1280052363872528, -0.13460902869701385, -0.11774400621652603, -0.12717372179031372, -0.12288260459899902]