Epoch: 1-3, Loss: 135.6581573486328, Lr: 0.001 , 
 ,Threshold: 
[-0.05458452180027962, -0.06803391128778458, -0.06384804844856262, -0.05958181247115135, -0.07119273394346237, -0.05908454582095146, -0.05431976914405823, -0.044062256813049316, -0.055907852947711945, -0.05856293439865112, -0.05530210956931114, -0.06540390104055405, -0.05372590199112892, -0.05526360869407654, -0.04589356482028961, -0.04803221672773361, -0.06247701495885849, -0.05462930351495743, -0.07908809930086136, -0.061757225543260574, -0.0549047514796257, -0.03823380917310715, -0.071151003241539, -0.07143852859735489, -0.04738304391503334, -0.06103883683681488, -0.06608986109495163, -0.056297894567251205, -0.06585711985826492, -0.051603902131319046, -0.05766543373465538, -0.049119483679533005, -0.05915975570678711, -0.06982823461294174, -0.051654256880283356, -0.05695397034287453, -0.06102433055639267, -0.05473250523209572, -0.06756372004747391, -0.07336734980344772, -0.06320494413375854, -0.044988103210926056, -0.05953986197710037, -0.04244409129023552, -0.06315501034259796, -0.06835997849702835, -0.05157673731446266, -0.05181921273469925, -0.062407225370407104, -0.07094792276620865, -0.06666206568479538, -0.0600171834230423, -0.04487850144505501, -0.051088713109493256, -0.04930904880166054, -0.052383843809366226, -0.07597710192203522, -0.04841555655002594, -0.05823206901550293, -0.04594559594988823, -0.05160905048251152, -0.03668802231550217, -0.0758715271949768, -0.0531107597053051, -0.05673428997397423, -0.04956020787358284, -0.061689235270023346, -0.055885396897792816, -0.06276669353246689, -0.059555161744356155, -0.04842807352542877, -0.05467222258448601, -0.04845535010099411, -0.06350000202655792, -0.07021337002515793, -0.0578153133392334, -0.08047691732645035, -0.0669853538274765, -0.050172049552202225, -0.053790073841810226, -0.05946287512779236, -0.052308935672044754, -0.06134870648384094, -0.061152275651693344, -0.04999978840351105, -0.04944099113345146, -0.06139642745256424, -0.056997284293174744, -0.07145507633686066, -0.062081478536129, -0.06624697148799896, -0.053072694689035416, -0.05255582556128502, -0.05231436714529991, -0.053951386362314224, -0.04987797513604164, -0.060012638568878174, -0.06208882853388786, -0.04538106545805931, -0.04687313362956047, -0.045949891209602356, -0.06223062053322792, -0.038622286170721054, -0.05880671739578247, -0.06858017295598984, -0.07024364173412323, -0.05916294828057289, -0.055127378553152084, -0.06912971287965775, -0.07123766839504242, -0.07410304993391037, -0.051371145993471146, -0.06583581864833832, -0.047380231320858, -0.0667533427476883, -0.044499386101961136, -0.0495045930147171, -0.06326431035995483, -0.05969163402915001, -0.06863763928413391, -0.05053004249930382, -0.07038752734661102, -0.07455218583345413, -0.04622562974691391, -0.04728126525878906, -0.02968519553542137, -0.048195596784353256, -0.038009162992239, -0.037393905222415924, -0.045846592634916306, -0.017836738377809525, -0.010505950078368187, 0.010581962764263153, 0.020026203244924545, 0.04002400115132332, 0.04455063119530678, 0.056904930621385574, 0.07063265144824982, 0.06768465042114258, 0.04854996129870415, 0.07844671607017517, 0.0583236962556839, 0.06701824814081192, 0.07120469957590103, 0.06762245297431946, 0.0619322843849659, 0.057163603603839874, 0.06737726926803589, 0.05565698817372322, 0.0584140382707119, 0.04763755947351456, 0.09102446585893631, 0.06045707315206528, 0.08796373009681702, 0.08730541169643402, 0.07212042063474655, 0.060898058116436005, 0.0703059509396553, 0.0690387412905693, 0.07591119408607483] 
 , Step size: 
 [-0.045935746282339096, -0.061055514961481094, -0.04130159690976143, -0.05007368326187134, -0.058333076536655426, -0.040037851780653, -0.05154721066355705, -0.042705245316028595, -0.03137714043259621, -0.04969314485788345, -0.0684315487742424, -0.06713149696588516, -0.06788268685340881, -0.04207471013069153, -0.049354325979948044, -0.06115418300032616, -0.0549660362303257, -0.07549629360437393, -0.06352907419204712, -0.042448800057172775, -0.04647770896553993, -0.05480192229151726, -0.03881828486919403, -0.04823675751686096, -0.048964694142341614, -0.03205631300806999, -0.04640138894319534, -0.05474068596959114, -0.042232997715473175, -0.0683663934469223, -0.054051000624895096, -0.05829446390271187, -0.056834813207387924, -0.039540186524391174, -0.05210291966795921, -0.02498796582221985, -0.03451857343316078, -0.05210287496447563, -0.04438171163201332, -0.05684107914566994, -0.057903602719306946, -0.04716136306524277, -0.042932551354169846, -0.040488727390766144, -0.03897435963153839, -0.05643559992313385, -0.03883591294288635, -0.03717659041285515, -0.03371509909629822, -0.0452234260737896, -0.03798422962427139, -0.03082781471312046, -0.043678831309080124, -0.024927591904997826, -0.017145011574029922, -0.03367709740996361, -0.03183869272470474, -0.021267980337142944, -0.018563469871878624, -0.02615227736532688, -0.017195822671055794, -0.004972053226083517, -0.011127565056085587, -0.010108095593750477, -0.006208367180079222, 0.007935376837849617, -0.007346301805227995, 0.004056715872138739, 0.004076786804944277, 0.01071594376116991, 0.02375107817351818, 0.018053697422146797, 0.0115194171667099, 0.004947342444211245, 0.003914229106158018, 0.0096740098670125, 0.006992707960307598, 0.022540636360645294, -0.0008553317165933549, 0.020851321518421173, 0.040772777050733566, 0.005399660672992468, 0.02653706818819046, 0.022087788209319115, 0.030283035710453987, 0.02365787886083126, 0.009588298387825489, 0.031668927520513535, 0.017382722347974777, 0.034158580005168915, 0.027184704318642616, 0.00516130356118083, 0.029680904000997543, -0.0016458355821669102, 0.027078185230493546, 0.02168087475001812, 0.005298167932778597, 0.029943514615297318, 0.03537662327289581, 0.027830224484205246, 0.0300949327647686, 0.015433460474014282, 0.0453023798763752, 0.03344373032450676, 0.011579173617064953, 0.015707112848758698, 0.0041655306704342365, 0.020602673292160034, 0.010790194384753704, -0.009325632825493813, -0.008775868453085423, -0.002381686121225357, -0.00427704444155097, -0.03932739794254303, -0.011486250907182693, -0.015348379500210285, -0.03913401439785957, -0.030765559524297714, -0.03128795325756073, -0.04046521708369255, -0.047787733376026154, -0.0699981227517128, -0.062321655452251434, -0.04057815670967102, -0.042015429586172104, -0.06428848206996918, -0.06356550753116608, -0.06318845599889755, -0.06326932460069656, -0.05764545500278473, -0.07992342859506607, -0.0699695348739624, -0.06754098832607269, -0.07282094657421112, -0.05932197347283363, -0.05789310485124588, -0.07669597119092941, -0.0810605064034462, -0.06242208927869797, -0.09369377791881561, -0.055259887129068375, -0.06316282600164413, -0.07246208935976028, -0.0611107163131237, -0.07172446697950363, -0.06993184983730316, -0.04596678167581558, -0.06837470829486847, -0.0687229335308075, -0.07786646485328674, -0.07931709289550781, -0.05637256056070328, -0.07103417813777924, -0.07210773229598999, -0.03655075654387474, -0.06194353103637695, -0.06938312202692032, -0.05343106389045715, -0.06385472416877747, -0.06064729765057564]