Epoch: 3-3, Loss: 43.186134338378906, Lr: 0.001 , 
 ,Threshold: 
[-0.13347825407981873, -0.14623594284057617, -0.14186614751815796, -0.13757435977458954, -0.14934493601322174, -0.1375027596950531, -0.1326589435338974, -0.12221408635377884, -0.13403812050819397, -0.13690398633480072, -0.13366253674030304, -0.1441607028245926, -0.13260792195796967, -0.13421015441417694, -0.12491881102323532, -0.1270618587732315, -0.14121033251285553, -0.13338413834571838, -0.15775959193706512, -0.1401122361421585, -0.13311032950878143, -0.1161908358335495, -0.14904826879501343, -0.14940525591373444, -0.1255292296409607, -0.13937166333198547, -0.14456382393836975, -0.1349736452102661, -0.14480216801166534, -0.13081355392932892, -0.13707958161830902, -0.12872827053070068, -0.13891173899173737, -0.1497497707605362, -0.13178277015686035, -0.13725006580352783, -0.14158418774604797, -0.13563449680805206, -0.14851026237010956, -0.1543860137462616, -0.1442641019821167, -0.1261245757341385, -0.14081040024757385, -0.12400027364492416, -0.14442475140094757, -0.1490851640701294, -0.13154560327529907, -0.13150903582572937, -0.14177455008029938, -0.14996448159217834, -0.1453053206205368, -0.1382128894329071, -0.12247205525636673, -0.12817592918872833, -0.12628273665905, -0.1292986273765564, -0.1527598798274994, -0.12497545778751373, -0.1346464306116104, -0.12221965938806534, -0.12771913409233093, -0.11255137622356415, -0.15173789858818054, -0.12896603345870972, -0.1325789988040924, -0.12545770406723022, -0.13757458329200745, -0.1318521499633789, -0.1387389451265335, -0.13560020923614502, -0.12457367032766342, -0.13089431822299957, -0.12477423995733261, -0.13998015224933624, -0.1467883437871933, -0.13452963531017303, -0.15735819935798645, -0.1440199613571167, -0.1272585391998291, -0.13092465698719025, -0.1366446167230606, -0.12955084443092346, -0.1386238932609558, -0.13849309086799622, -0.1274295151233673, -0.12697310745716095, -0.1390278935432434, -0.13471125066280365, -0.149232417345047, -0.13994930684566498, -0.1442306637763977, -0.13119618594646454, -0.13082677125930786, -0.13075046241283417, -0.13249845802783966, -0.12850923836231232, -0.13871987164020538, -0.14088410139083862, -0.12427522987127304, -0.12585066258907318, -0.12500464916229248, -0.14135678112506866, -0.11783504486083984, -0.13811242580413818, -0.14800672233104706, -0.1497994214296341, -0.13887086510658264, -0.13493295013904572, -0.14903587102890015, -0.1512422114610672, -0.15420567989349365, -0.13154616951942444, -0.14595365524291992, -0.1273752748966217, -0.14628346264362335, -0.12334148585796356, -0.1273866444826126, -0.1397259533405304, -0.13414594531059265, -0.14024272561073303, -0.11840185523033142, -0.13352319598197937, -0.13140255212783813, -0.09465061128139496, -0.08471011370420456, -0.05316600203514099, -0.0538383424282074, -0.02165011316537857, 0.0039663114584982395, 0.022063560783863068, 0.07539425790309906, 0.10459323227405548, 0.14260128140449524, 0.1632346659898758, 0.1894650161266327, 0.19704003632068634, 0.21043230593204498, 0.22401417791843414, 0.22030220925807953, 0.19985170662403107, 0.22811153531074524, 0.2063114196062088, 0.21319527924060822, 0.21551531553268433, 0.209994375705719, 0.20228424668312073, 0.19517357647418976, 0.20348858833312988, 0.18967606127262115, 0.1905348300933838, 0.17775040864944458, 0.2190597951412201, 0.18630139529705048, 0.21156048774719238, 0.20632971823215485, 0.18965907394886017, 0.1761704683303833, 0.1827351301908493, 0.1792139708995819, 0.18340061604976654] 
 , Step size: 
 [-0.12227492034435272, -0.1387191116809845, -0.1199169009923935, -0.12917011976242065, -0.13727179169654846, -0.11797048896551132, -0.1299748420715332, -0.12220682948827744, -0.11119216680526733, -0.12857474386692047, -0.14748862385749817, -0.14362311363220215, -0.14318466186523438, -0.11673734337091446, -0.1232859268784523, -0.13492941856384277, -0.13082236051559448, -0.1510513722896576, -0.13971607387065887, -0.12117087095975876, -0.1279396265745163, -0.14013664424419403, -0.12561871111392975, -0.13426090776920319, -0.13308390974998474, -0.11345332860946655, -0.12532572448253632, -0.13037002086639404, -0.11331293731927872, -0.13488024473190308, -0.11685723811388016, -0.11784615367650986, -0.11422128975391388, -0.0945037305355072, -0.10419609397649765, -0.07504081726074219, -0.08147141337394714, -0.09488843381404877, -0.08758708089590073, -0.1004248857498169, -0.1025359183549881, -0.0928812101483345, -0.08922966569662094, -0.08548985421657562, -0.08697900921106339, -0.10864537209272385, -0.09416486322879791, -0.09475397318601608, -0.09275317937135696, -0.10707400739192963, -0.10241183638572693, -0.09891609847545624, -0.11679477989673615, -0.10012505948543549, -0.09368560463190079, -0.11092305183410645, -0.11136595159769058, -0.10212018340826035, -0.09920892119407654, -0.10761407017707825, -0.10009674727916718, -0.08646411448717117, -0.09319499135017395, -0.09275536239147186, -0.08796743303537369, -0.07380926609039307, -0.08601559698581696, -0.06341595947742462, -0.05653972178697586, -0.04783447086811066, -0.032271210104227066, -0.0354241319000721, -0.038671862334012985, -0.04096606746315956, -0.03964926674962044, -0.030748119577765465, -0.029621314257383347, -0.008165819570422173, -0.029100321233272552, -0.005623620003461838, 0.016351895406842232, -0.016409609466791153, 0.0063900453969836235, 0.0038862917572259903, 0.014364298433065414, 0.010296156629920006, -0.0005350493011064827, 0.02405708096921444, 0.0115612568333745, 0.030499020591378212, 0.02604229934513569, 0.00715533085167408, 0.035214848816394806, 0.007168193813413382, 0.03764057904481888, 0.03502965718507767, 0.020888248458504677, 0.047482773661613464, 0.05502832680940628, 0.049078620970249176, 0.05264487862586975, 0.038579825311899185, 0.07023554295301437, 0.06020433083176613, 0.040350545197725296, 0.04646879807114601, 0.036739740520715714, 0.05381685867905617, 0.044538386166095734, 0.024702340364456177, 0.02452312596142292, 0.028380516916513443, 0.020427273586392403, -0.02341413125395775, -0.008022226393222809, -0.027659496292471886, -0.07014673203229904, -0.08250518888235092, -0.10259084403514862, -0.12870098650455475, -0.15047572553157806, -0.18429532647132874, -0.18626676499843597, -0.17195726931095123, -0.17856834828853607, -0.20467591285705566, -0.2102816253900528, -0.21496842801570892, -0.21908536553382874, -0.21647047996520996, -0.24095489084720612, -0.23278017342090607, -0.23157380521297455, -0.23746764659881592, -0.22419936954975128, -0.22279496490955353, -0.2413042038679123, -0.24514809250831604, -0.22584474086761475, -0.2561904489994049, -0.21664969623088837, -0.22335340082645416, -0.23135687410831451, -0.21862588822841644, -0.2277255803346634, -0.22428981959819794, -0.19829972088336945, -0.21908721327781677, -0.21753184497356415, -0.22493593394756317, -0.22448375821113586, -0.1995544284582138, -0.21197329461574554, -0.21079862117767334, -0.17034229636192322, -0.1941865086555481, -0.19928207993507385, -0.18036098778247833, -0.18840111792087555, -0.182308629155159]