Epoch: 1-3, Loss: 0.04738707095384598, Lr: 0.001 , 
 ,Threshold: 
[0.010057630017399788, -0.004718075506389141, -0.015482491813600063, 0.011069860309362411, 0.0013706597965210676, 0.011086836457252502, 0.021127469837665558, -0.008391130715608597, -0.019413655623793602, 0.010146834887564182, -0.009182593785226345, -0.00613940367475152, 0.010818296112120152, 0.008301789872348309, -0.020368501543998718, 0.008984589949250221, -0.008310713805258274, -0.003141973400488496, 0.022251470014452934, 0.011960678733885288, 0.021728502586483955, 0.030780093744397163, 0.0034711072221398354, 0.007200681138783693, 0.030020806938409805, 0.030480531975626945, 0.019999034702777863, 0.0316237211227417, 0.01974470168352127, 0.016281282529234886, 0.02681887149810791, 0.01678147166967392, 0.023033909499645233, 0.020111490041017532, 0.04506269469857216, 0.03717629611492157, 0.0367007814347744, 0.030075320973992348, 0.048432357609272, 0.05352430418133736] 
 , Step size: 
 [0.013402324169874191, 0.004320830572396517, 0.007075584959238768, 0.0010492742294445634, 0.0015041655860841274, 0.01040464174002409, -0.004572276026010513, 0.006774621084332466, -0.008700285106897354, 0.013990302570164204, 0.012259315699338913, 0.007772556506097317, 0.005391659215092659, 0.004476599395275116, 0.002248343313112855, -0.004822638817131519, -0.016237851232290268, -0.00490114139392972, -0.019258573651313782, -0.0030983206816017628, -0.008855078369379044, -0.002412973204627633, -0.02100592851638794, -0.01479422114789486, -0.02151309885084629, -0.01867717131972313, -0.011819412931799889, -0.006694377865642309, -0.037163145840168, -0.019075950607657433, -0.035066623240709305, -0.03873322159051895, -0.016018405556678772, -0.034204453229904175, -0.05263540893793106, -0.07982295006513596, -0.04145297408103943, -0.0349220372736454, -0.042112745344638824, -0.037974607199430466]