Epoch: 6-3, Loss: 0.013021229766309261, Lr: 0.001 , 
 ,Threshold: 
[0.0072321039624512196, -0.007857578806579113, -0.019986329600214958, 0.005162011366337538, -0.006180784199386835, 0.0023974254727363586, 0.011896499432623386, -0.01644139364361763, -0.02759077399969101, 0.005431145895272493, -0.007043374702334404, 0.008749923668801785, 0.045459918677806854, 0.06893247365951538, 0.0644475445151329, 0.12224166095256805, 0.12820963561534882, 0.1562708169221878, 0.20233917236328125, 0.20757989585399628, 0.23364652693271637, 0.2562229335308075, 0.24285471439361572, 0.2570192813873291, 0.29030507802963257, 0.3000771999359131, 0.2994425594806671, 0.3189510405063629, 0.3164651691913605, 0.32170766592025757, 0.34072545170783997, 0.3370833694934845, 0.34721997380256653, 0.34871384501457214, 0.377097487449646, 0.3663977086544037, 0.3459973931312561, 0.3366566002368927, 0.3343110978603363, 0.2720792889595032] 
 , Step size: 
 [0.016160503029823303, 0.0062949396669864655, 0.010581105016171932, 0.006110376212745905, 0.008347521536052227, 0.0185011625289917, 0.004156125709414482, 0.014383839443325996, -0.0008986447937786579, 0.01840660721063614, 0.009918232448399067, -0.007243016269057989, -0.02962828055024147, -0.05692966282367706, -0.08358883112668991, -0.1196061447262764, -0.1550210565328598, -0.1669832020998001, -0.2026791274547577, -0.20253048837184906, -0.2251235991716385, -0.23262766003608704, -0.2656061351299286, -0.27024903893470764, -0.2880449593067169, -0.2949981689453125, -0.29826095700263977, -0.30156221985816956, -0.34215453267097473, -0.3332619369029999, -0.3586249351501465, -0.36959022283554077, -0.3518425226211548, -0.37579289078712463, -0.39896005392074585, -0.4249516427516937, -0.37002742290496826, -0.36480045318603516, -0.3569414019584656, -0.2877042591571808]