Epoch: 2-3, Loss: 0.04569931700825691, Lr: 0.001 , 
 ,Threshold: 
[0.009836139157414436, -0.004894123412668705, -0.015666699036955833, 0.01085715927183628, 0.001126267365179956, 0.010796558111906052, 0.020776141434907913, -0.008792884647846222, -0.0198709424585104, 0.009658098220825195, -0.009645683690905571, -0.006478885188698769, 0.010799896903336048, 0.008938510902225971, -0.01865544356405735, 0.012574844993650913, -0.0023349274415522814, 0.00557447224855423, 0.03393375873565674, 0.026692697778344154, 0.03863624483346939, 0.04924015328288078, 0.02402813732624054, 0.028583308681845665, 0.052095815539360046, 0.05347346514463425, 0.04471293091773987, 0.05715285986661911, 0.046365588903427124, 0.04539906978607178, 0.057677023112773895, 0.0497833788394928, 0.05873844772577286, 0.058513712137937546, 0.08610966056585312, 0.08037244528532028, 0.08117693662643433, 0.07440154254436493, 0.09161713719367981, 0.0944579616189003] 
 , Step size: 
 [0.013600341975688934, 0.004487153608351946, 0.007248204201459885, 0.0012505066115409136, 0.0017368403496220708, 0.010683086700737476, -0.004230965860188007, 0.00716448575258255, -0.00825519673526287, 0.01446731947362423, 0.012709174305200577, 0.00810193084180355, 0.005404097959399223, 0.00383054674603045, 0.0005309489788487554, -0.008408351801335812, -0.02224263921380043, -0.013667214661836624, -0.031060004606842995, -0.017998529598116875, -0.02596483938395977, -0.021112171933054924, -0.04181113839149475, -0.03645548224449158, -0.04391946643590927, -0.042030803859233856, -0.03689559921622276, -0.03263799101114273, -0.0642770528793335, -0.048685986548662186, -0.06654632091522217, -0.07245074957609177, -0.05251266434788704, -0.07358596473932266, -0.09491738677024841, -0.12444557249546051, -0.08745504170656204, -0.08093464374542236, -0.08706815540790558, -0.08067160844802856]