Epoch: 7-3, Loss: 0.005253542214632034, Lr: 0.001 , 
 ,Threshold: 
[-0.0025807349011301994, -0.017577582970261574, -0.02869105152785778, -0.0023169154301285744, -0.012562684714794159, -0.002605067566037178, 0.008221100084483624, -0.01620762050151825, -0.024211036041378975, 0.012029318138957024, 0.0037851782981306314, 0.025456417351961136, 0.06888482719659805, 0.0875355675816536, 0.08225272595882416, 0.13713984191417694, 0.13531558215618134, 0.15217940509319305, 0.19500121474266052, 0.19382885098457336, 0.22073446214199066, 0.2423630952835083, 0.2408902794122696, 0.264415442943573, 0.2926912009716034, 0.3098672032356262, 0.3069060742855072, 0.32705920934677124, 0.3237454295158386, 0.3277757465839386, 0.3459235429763794, 0.34176284074783325, 0.3513478636741638, 0.3524242341518402, 0.3804902136325836, 0.36948224902153015, 0.34814393520355225, 0.34013620018959045, 0.3433572053909302, 0.330491840839386] 
 , Step size: 
 [0.025583524256944656, 0.016391951590776443, 0.01967848651111126, 0.013866088353097439, 0.014926242642104626, 0.023685667663812637, 0.007939928211271763, 0.014302680268883705, -0.004114788491278887, 0.011934314854443073, -0.0008065919391810894, -0.023977359756827354, -0.053330399096012115, -0.07554104924201965, -0.10105621814727783, -0.133612260222435, -0.16069072484970093, -0.1610415130853653, -0.19334056973457336, -0.18713827431201935, -0.21072030067443848, -0.2173418253660202, -0.2633427083492279, -0.2785228490829468, -0.2910879850387573, -0.3061962425708771, -0.30664125084877014, -0.3104799687862396, -0.35005173087120056, -0.3397619426250458, -0.3641115427017212, -0.3744886517524719, -0.35618090629577637, -0.37969231605529785, -0.4025031626224518, -0.42815783619880676, -0.3723051846027374, -0.36846059560775757, -0.3665929436683655, -0.35676318407058716]