Epoch: 5-3, Loss: 0.024006856605410576, Lr: 0.001 , 
 ,Threshold: 
[0.008124496787786484, -0.006264340132474899, -0.017193587496876717, 0.009018206968903542, -0.0011045928113162518, 0.008225387893617153, 0.017888182774186134, -0.012115945108234882, -0.022987274453043938, 0.007625665049999952, -0.009102951735258102, -0.0009060847805812955, 0.025039175525307655, 0.03577679023146629, 0.02414625510573387, 0.07470623403787613, 0.075161412358284, 0.09799565374851227, 0.1396685242652893, 0.14227397739887238, 0.16296488046646118, 0.18105344474315643, 0.16336213052272797, 0.1743365377187729, 0.20470373332500458, 0.21298760175704956, 0.2119436115026474, 0.23162557184696198, 0.22905901074409485, 0.23597104847431183, 0.25621068477630615, 0.2549136281013489, 0.26884782314300537, 0.273460328578949, 0.3043752908706665, 0.297039657831192, 0.2867346704006195, 0.2627873718738556, 0.25413084030151367, 0.22257177531719208] 
 , Step size: 
 [0.015151864849030972, 0.005696233827620745, 0.008599216118454933, 0.002919635735452175, 0.0038018100894987583, 0.013099050149321556, -0.0014800616772845387, 0.010340042412281036, -0.005272614769637585, 0.01638977602124214, 0.01208602637052536, 0.002525762189179659, -0.008863204158842564, -0.023256095126271248, -0.04268116131424904, -0.07134201377630234, -0.10109622776508331, -0.10781031847000122, -0.1391044408082962, -0.13613754510879517, -0.15317827463150024, -0.15610076487064362, -0.18455202877521515, -0.18591496348381042, -0.20073342323303223, -0.20612192153930664, -0.20893554389476776, -0.21239468455314636, -0.2529294490814209, -0.2456015795469284, -0.27222803235054016, -0.28546005487442017, -0.2712459862232208, -0.2982238233089447, -0.3240452706813812, -0.3533689081668854, -0.3074052929878235, -0.2862181067466736, -0.26787078380584717, -0.22587373852729797]