Epoch: 23-3, Loss: 0.005770618561655283, Lr: 0.001 , 
 ,Threshold: 
[-0.1896933615207672, -0.2019154578447342, -0.217518612742424, -0.20576368272304535, -0.2328769713640213, -0.18608228862285614, -0.21127913892269135, -0.2033822238445282, -0.20023201406002045, -0.21154725551605225, -0.18616719543933868, -0.19438502192497253, -0.2095152586698532, -0.20878934860229492, -0.17734597623348236, -0.1656065434217453, -0.18982386589050293, -0.1633080691099167, -0.13628435134887695, -0.12458532303571701, -0.08693163841962814, -0.03618193417787552, -0.004348654765635729, 0.07509653270244598, 0.13655196130275726, 0.19772325456142426, 0.28927645087242126, 0.35344070196151733, 0.4033307731151581, 0.38052019476890564, 0.3657569885253906, 0.3484691083431244, 0.32418981194496155, 0.3183838427066803, 0.311506986618042, 0.29363366961479187, 0.29980483651161194, 0.2954050898551941, 0.28601470589637756, 0.2924620807170868] 
 , Step size: 
 [-0.18453088402748108, -0.19199328124523163, -0.19604170322418213, -0.19156335294246674, -0.20274029672145844, -0.18578840792179108, -0.18237125873565674, -0.18332624435424805, -0.2015317678451538, -0.19698798656463623, -0.20271821320056915, -0.19692453742027283, -0.23036950826644897, -0.2225217968225479, -0.2845940887928009, -0.27409669756889343, -0.31899020075798035, -0.3436912000179291, -0.39028966426849365, -0.4172234535217285, -0.4323941171169281, -0.44593068957328796, -0.446155309677124, -0.45415791869163513, -0.4542892575263977, -0.4544451832771301, -0.4447152614593506, -0.4536246955394745, -0.4249265491962433, -0.41891711950302124, -0.39751744270324707, -0.38114890456199646, -0.3745816648006439, -0.34932172298431396, -0.34679707884788513, -0.35497015714645386, -0.3505678176879883, -0.35255759954452515, -0.3473905622959137, -0.3445516526699066]