Epoch: 0-3, Loss: 116.20156860351562, Lr: 0.001 , 
 ,Threshold: 
[0.013698694296181202, -0.0002120696590282023, -0.015720529481768608, -0.004571698606014252, -0.03174377977848053, 0.015202051028609276, -0.010507000610232353, -0.0027823252603411674, -0.00015399896074086428, -0.012442567385733128, 0.012159974314272404, 0.003078680718317628, -0.013743854127824306, -0.01605471968650818, 0.01089183147996664, 0.015801304951310158, -0.018048841506242752, -0.004717855714261532, 0.005066340789198875, -0.005490302108228207, 0.002908776979893446, 0.015756137669086456, -0.00045652739936485887, 0.020979581400752068, 0.011282889172434807, -0.011153338477015495, -0.006847563199698925, -0.00950467400252819, 0.010500278323888779, -0.01004413329064846, -0.00861567072570324, -0.005654973443597555, -0.010138015262782574, 0.0023905609268695116, 0.0015588164096698165, -0.002179740695282817, 0.0014416726771742105, 0.0012980999890714884, -0.007299832999706268, 0.011059926822781563] 
 , Step size: 
 [0.0037778918631374836, -0.0028590690344572067, -0.0072771706618368626, -0.0026464357506483793, -0.013698339462280273, 0.002085885964334011, 0.007032621651887894, 0.006121729966253042, -0.010449211113154888, -0.0007225223234854639, -0.0009527108049951494, 0.009738770313560963, -0.014866597950458527, 0.00811836589127779, -0.03399652615189552, 0.005608507432043552, -0.006446502637118101, 0.003622807329520583, -0.008524290286004543, -0.00865219347178936, -0.004881708882749081, -0.0049355654045939445, 0.0022395323030650616, -0.0037958412431180477, -0.005390907637774944, -0.010790401138365269, -0.008046697825193405, -0.02428744174540043, -0.004143307916820049, -0.008400693535804749, 0.0005001529352739453, 0.002266074065119028, -0.006570233963429928, 0.0036753066815435886, 0.006152292247861624, -0.014223411679267883, 0.0022339101415127516, 0.00038369937101379037, 0.01121634803712368, -0.0008144612656906247]