Epoch: 6-3, Loss: 1.3677358627319336, Lr: 0.001 , 
 ,Threshold: 
[-0.18957607448101044, -0.2018042355775833, -0.21740974485874176, -0.20565477013587952, -0.23277100920677185, -0.18598054349422455, -0.21118178963661194, -0.20329071581363678, -0.20014894008636475, -0.2114764004945755, -0.18611374497413635, -0.19435514509677887, -0.20951680839061737, -0.20883610844612122, -0.17744998633861542, -0.1657903790473938, -0.19010818004608154, -0.16372179985046387, -0.13685299456119537, -0.1253177374601364, -0.08780606836080551, -0.0371830128133297, -0.005438060499727726, 0.07397885620594025, 0.13544704020023346, 0.19666296243667603, 0.28834837675094604, 0.35263773798942566, 0.4026380777359009, 0.37991786003112793, 0.3652689754962921, 0.3480769395828247, 0.32387596368789673, 0.31813499331474304, 0.3112792670726776, 0.29328909516334534, 0.28062599897384644, 0.26607951521873474, 0.2426639050245285, 0.25345879793167114] 
 , Step size: 
 [-0.18443487584590912, -0.19188855588436127, -0.19593054056167603, -0.19145135581493378, -0.20261943340301514, -0.185651034116745, -0.1822136789560318, -0.18314172327518463, -0.20130634307861328, -0.1966945379972458, -0.20232515037059784, -0.19639508426189423, -0.22967222332954407, -0.22160381078720093, -0.2834457457065582, -0.27268654108047485, -0.317372590303421, -0.34193962812423706, -0.38847142457962036, -0.4154306650161743, -0.43073657155036926, -0.44441142678260803, -0.44476309418678284, -0.4528665542602539, -0.45307549834251404, -0.45328953862190247, -0.44369205832481384, -0.45272770524024963, -0.42413821816444397, -0.4182128310203552, -0.39693161845207214, -0.38066360354423523, -0.3741808533668518, -0.3489930331707001, -0.3464880883693695, -0.3544859290122986, -0.32295721769332886, -0.30926230549812317, -0.28176555037498474, -0.28493356704711914]