Epoch: 22-3, Loss: 0.006370183080434799, Lr: 0.001 , 
 ,Threshold: 
[-0.18969640135765076, -0.20191830396652222, -0.21752139925956726, -0.2057664692401886, -0.23287968337535858, -0.18608489632606506, -0.21128158271312714, -0.20338459312915802, -0.20023413002490997, -0.21154902875423431, -0.18616852164268494, -0.19438569247722626, -0.2095152586698532, -0.2087881863117218, -0.17734332382678986, -0.16560178995132446, -0.18981650471687317, -0.16329732537269592, -0.13626958429813385, -0.12456632405519485, -0.08690900355577469, -0.03615600988268852, -0.004320458043366671, 0.07512547075748444, 0.13658054172992706, 0.19775071740150452, 0.28930047154426575, 0.3534613847732544, 0.4033486843109131, 0.380535751581192, 0.365769624710083, 0.3484792411327362, 0.32419776916503906, 0.3183901906013489, 0.3115118443965912, 0.2936375141143799, 0.2998078167438507, 0.2954072952270508, 0.28590500354766846, 0.29236921668052673] 
 , Step size: 
 [-0.18453331291675568, -0.1919959932565689, -0.19604456424713135, -0.19156619906425476, -0.20274347066879272, -0.1857919991016388, -0.1823754757642746, -0.18333110213279724, -0.20153771340847015, -0.19699575006961823, -0.2027284950017929, -0.19693847000598907, -0.23038776218891144, -0.22254575788974762, -0.28462404012680054, -0.27413347363471985, -0.3190324008464813, -0.34373676776885986, -0.3903369605541229, -0.41727006435394287, -0.4324370324611664, -0.4459700584411621, -0.4461915194988251, -0.45419132709503174, -0.45432063937187195, -0.4544751048088074, -0.44474178552627563, -0.45364782214164734, -0.4249468743801117, -0.41893526911735535, -0.39753246307373047, -0.38116148114204407, -0.3745920658111572, -0.34933018684387207, -0.3468038737773895, -0.3549755811691284, -0.3505721688270569, -0.35256099700927734, -0.3472265601158142, -0.34440889954566956]