Epoch: 16-3, Loss: 0.004613380879163742, Lr: 0.001 , 
 ,Threshold: 
[-0.18970337510108948, -0.20192481577396393, -0.21752771735191345, -0.20577284693717957, -0.23288588225841522, -0.1860908418893814, -0.211287260055542, -0.2033899575471878, -0.20023901760578156, -0.21155321598052979, -0.18617157638072968, -0.1943872570991516, -0.2095152586698532, -0.20878536999225616, -0.1773371398448944, -0.16559076309204102, -0.18979935348033905, -0.16327251493930817, -0.13623547554016113, -0.1245226338505745, -0.08685694634914398, -0.03609643131494522, -0.004255667794495821, 0.07519202679395676, 0.1366460919380188, 0.19781386852264404, 0.28935563564300537, 0.35350897908210754, 0.4033895432949066, 0.3805713653564453, 0.3657984435558319, 0.3485023081302643, 0.3242161273956299, 0.3184047341346741, 0.3115231692790985, 0.29364636540412903, 0.29981479048728943, 0.29541242122650146, 0.2836447060108185, 0.29051926732063293] 
 , Step size: 
 [-0.18453900516033173, -0.19200226664543152, -0.1960511952638626, -0.19157283008098602, -0.2027507871389389, -0.18580028414726257, -0.1823851317167282, -0.18334244191646576, -0.20155151188373566, -0.19701369106769562, -0.20275229215621948, -0.19697068631649017, -0.23042994737625122, -0.22260116040706635, -0.28469300270080566, -0.27421835064888, -0.319130003452301, -0.34384170174598694, -0.39044633507728577, -0.41737714409828186, -0.43253597617149353, -0.44606056809425354, -0.44627445936203003, -0.4542679190635681, -0.45439285039901733, -0.4545438885688782, -0.4448026418685913, -0.45370084047317505, -0.4249935746192932, -0.4189770519733429, -0.39756712317466736, -0.38119009137153625, -0.3746159076690674, -0.3493494987487793, -0.3468194007873535, -0.35498806834220886, -0.3505822718143463, -0.35256892442703247, -0.343800812959671, -0.34153613448143005]