Epoch: 27-3, Loss: 0.005640864837914705, Lr: 0.001 , 
 ,Threshold: 
[-0.1896803230047226, -0.20190319418907166, -0.217506542801857, -0.20575158298015594, -0.23286527395248413, -0.18607108294963837, -0.21126848459243774, -0.20337218046188354, -0.20022284984588623, -0.21153952181339264, -0.18616138398647308, -0.1943819224834442, -0.2095152586698532, -0.20879434049129486, -0.17735737562179565, -0.1656266450881958, -0.18985511362552643, -0.16335350275039673, -0.1363467425107956, -0.12466594576835632, -0.08702776581048965, -0.03629189357161522, -0.004468310624361038, 0.07497377693653107, 0.1364307403564453, 0.19760669767856598, 0.2891748249530792, 0.35335275530815125, 0.40325498580932617, 0.38045454025268555, 0.3657039701938629, 0.3484264612197876, 0.3241555988788605, 0.3183566629886627, 0.31148579716682434, 0.29361703991889954, 0.29979208111763, 0.29539546370506287, 0.2861615717411041, 0.29260289669036865] 
 , Step size: 
 [-0.18452024459838867, -0.19198156893253326, -0.19602927565574646, -0.19155097007751465, -0.20272667706012726, -0.18577295541763306, -0.18235357105731964, -0.183305561542511, -0.20150654017925262, -0.19695523381233215, -0.20267434418201447, -0.19686560332775116, -0.2302921712398529, -0.2224200814962387, -0.28446701169013977, -0.2739408612251282, -0.3188117444515228, -0.343498170375824, -0.390089750289917, -0.4170258939266205, -0.43221205472946167, -0.44576385617256165, -0.4460023045539856, -0.4540160596370697, -0.4541560411453247, -0.4543178677558899, -0.4446031153202057, -0.4535265266895294, -0.42484012246131897, -0.4188400208950043, -0.39745333790779114, -0.3810960650444031, -0.37453794479370117, -0.3492858409881592, -0.34676823019981384, -0.35494670271873474, -0.35054901242256165, -0.3525429368019104, -0.34759896993637085, -0.3447595238685608]