Epoch: 24-3, Loss: 0.005222724750638008, Lr: 0.001 , 
 ,Threshold: 
[-0.18969105184078217, -0.20191331207752228, -0.21751649677753448, -0.20576156675815582, -0.23287490010261536, -0.18608032166957855, -0.21127724647521973, -0.20338046550750732, -0.2002304047346115, -0.2115458846092224, -0.1861661672592163, -0.19438448548316956, -0.2095152586698532, -0.20879024267196655, -0.17734801769256592, -0.16561007499694824, -0.18982939422130585, -0.16331613063812256, -0.1362954080104828, -0.1245996430516243, -0.08694871515035629, -0.03620147332549095, -0.004369924310594797, 0.07507473230361938, 0.13653042912483215, 0.19770260155200958, 0.2892584800720215, 0.3534250855445862, 0.40331733226776123, 0.3805086016654968, 0.36574769020080566, 0.34846165776252747, 0.3241838812828064, 0.3183790445327759, 0.31150326132774353, 0.2936307489871979, 0.2998025715351105, 0.295403391122818, 0.2860682010650635, 0.29251018166542053] 
 , Step size: 
 [-0.18452900648117065, -0.19199120998382568, -0.19603952765464783, -0.19156117737293243, -0.20273789763450623, -0.1857856959104538, -0.18236814439296722, -0.18332259356975555, -0.20152734220027924, -0.19698219001293182, -0.20271043479442596, -0.19691407680511475, -0.23035582900047302, -0.22250375151634216, -0.28457164764404297, -0.2740691602230072, -0.3189585208892822, -0.3436570167541504, -0.3902541399002075, -0.4171883463859558, -0.43236181139945984, -0.44590115547180176, -0.4461281895637512, -0.4541328251361847, -0.4542655646800995, -0.45442265272140503, -0.444695383310318, -0.45360732078552246, -0.4249112606048584, -0.41890349984169006, -0.3975060284137726, -0.3811396360397339, -0.3745739459991455, -0.3493154048919678, -0.34679195284843445, -0.35496601462364197, -0.35056453943252563, -0.3525550365447998, -0.34746840596199036, -0.34462395310401917]