Epoch: 14-3, Loss: 0.005415762774646282, Lr: 0.001 , 
 ,Threshold: 
[-0.18970170617103577, -0.2019232213497162, -0.2175261676311493, -0.20577126741409302, -0.23288434743881226, -0.18608936667442322, -0.21128588914871216, -0.20338863134384155, -0.20023784041404724, -0.21155224740505219, -0.18617087602615356, -0.19438686966896057, -0.2095152586698532, -0.2087859809398651, -0.17733865976333618, -0.1655934900045395, -0.1898036152124405, -0.16327878832817078, -0.13624407351016998, -0.12453363835811615, -0.08687011897563934, -0.0361115038394928, -0.004272060934454203, 0.07517523318529129, 0.13662952184677124, 0.1977979987859726, 0.28934186697006226, 0.3534970283508301, 0.40337926149368286, 0.380562424659729, 0.3657911419868469, 0.3484964966773987, 0.3242115080356598, 0.3184012472629547, 0.31152039766311646, 0.2936441898345947, 0.2998131811618805, 0.29541128873825073, 0.28134268522262573, 0.28863734006881714] 
 , Step size: 
 [-0.18453764915466309, -0.19200074672698975, -0.19604958593845367, -0.1915712207555771, -0.20274904370307922, -0.18579821288585663, -0.1823827624320984, -0.1833396852016449, -0.20154809951782227, -0.19700920581817627, -0.20274631679058075, -0.19696266949176788, -0.2304193675518036, -0.2225872278213501, -0.2846755385398865, -0.27419689297676086, -0.31910547614097595, -0.34381505846977234, -0.3904189169406891, -0.41735023260116577, -0.43251121044158936, -0.4460378587245941, -0.4462537169456482, -0.45424848794937134, -0.4543748199939728, -0.45452654361724854, -0.44478747248649597, -0.45368751883506775, -0.42498189210891724, -0.4189665615558624, -0.3975585103034973, -0.38118287920951843, -0.374610036611557, -0.34934473037719727, -0.34681567549705505, -0.3549850285053253, -0.35057979822158813, -0.35256707668304443, -0.3403012454509735, -0.33860790729522705]