Epoch: 3-3, Loss: 24.83321189880371, Lr: 0.001 , 
 ,Threshold: 
[-0.1389228105545044, -0.1519598364830017, -0.167610764503479, -0.15600888431072235, -0.18324196338653564, -0.13647866249084473, -0.1617749184370041, -0.15409354865550995, -0.15148389339447021, -0.16355708241462708, -0.13913403451442719, -0.1485956460237503, -0.1655047982931137, -0.16753651201725006, -0.1399853527545929, -0.1341627985239029, -0.16663601994514465, -0.1515655517578125, -0.13934637606143951, -0.14701592922210693, -0.13463835418224335, -0.11556562036275864, -0.12144848704338074, -0.08219967037439346, -0.059437476098537445, -0.02380569837987423, 0.06574796885251999, 0.14325572550296783, 0.21051421761512756, 0.20475894212722778, 0.2065802365541458, 0.20522503554821014, 0.19549009203910828, 0.20241135358810425, 0.19582854211330414, 0.18638208508491516, 0.18427379429340363, 0.1783120483160019, 0.1637265533208847, 0.17658022046089172] 
 , Step size: 
 [-0.13786545395851135, -0.14430956542491913, -0.14807207882404327, -0.14326675236225128, -0.15388193726539612, -0.13673783838748932, -0.1328321397304535, -0.1328311264514923, -0.14869888126850128, -0.1400337517261505, -0.14008396863937378, -0.12699857354164124, -0.15075799822807312, -0.12884165346622467, -0.17359478771686554, -0.13905541598796844, -0.1583818793296814, -0.15870599448680878, -0.18492192029953003, -0.19711458683013916, -0.2027517855167389, -0.21112513542175293, -0.21054062247276306, -0.22078730165958405, -0.22509077191352844, -0.2313709855079651, -0.22886443138122559, -0.24598094820976257, -0.22690461575984955, -0.23150993883609772, -0.22153498232364655, -0.21734656393527985, -0.2230188101530075, -0.20893602073192596, -0.2019326537847519, -0.21736565232276917, -0.19553858041763306, -0.19167675077915192, -0.17469745874404907, -0.1809433549642563]