Epoch: 9-3, Loss: 0.04376992583274841, Lr: 0.001 , 
 ,Threshold: 
[-0.18967753648757935, -0.20190049707889557, -0.21750390529632568, -0.20574899017810822, -0.23286275565624237, -0.18606868386268616, -0.2112661451101303, -0.2033700793981552, -0.20022110641002655, -0.2115379273891449, -0.18616028130054474, -0.1943812221288681, -0.2095154970884323, -0.2087956964969635, -0.17736028134822845, -0.16563154757022858, -0.18986231088638306, -0.16336414217948914, -0.1363612413406372, -0.12468325346708298, -0.08704852312803268, -0.0363156832754612, -0.004494171589612961, 0.07494744658470154, 0.136404350399971, 0.19758164882659912, 0.28915295004844666, 0.35333386063575745, 0.4032384753227234, 0.380439817905426, 0.36569181084632874, 0.348416805267334, 0.3241479992866516, 0.318350613117218, 0.3114809989929199, 0.2936134934425354, 0.29978886246681213, 0.291839063167572, 0.2666873335838318, 0.27599769830703735] 
 , Step size: 
 [-0.18451809883117676, -0.1919790804386139, -0.19602665305137634, -0.19154828786849976, -0.2027236521244049, -0.18576957285404205, -0.18234971165657043, -0.18330106139183044, -0.20150096714496613, -0.1969478875398636, -0.20266461372375488, -0.1968526989221573, -0.2302747219800949, -0.22239722311496735, -0.28443801403045654, -0.2739056646823883, -0.31877171993255615, -0.343453973531723, -0.39004433155059814, -0.4169830083847046, -0.4321728050708771, -0.445727676153183, -0.44596943259239197, -0.45398491621017456, -0.45412734150886536, -0.4542907476425171, -0.44457918405532837, -0.4535052180290222, -0.42482155561447144, -0.4188231825828552, -0.3974395990371704, -0.3810841143131256, -0.3745284378528595, -0.34927797317504883, -0.34676194190979004, -0.35494154691696167, -0.3505443036556244, -0.34725239872932434, -0.31801798939704895, -0.31905072927474976]