Epoch: 13-3, Loss: 0.006169414147734642, Lr: 0.001 , 
 ,Threshold: 
[-0.18969929218292236, -0.20192094147205353, -0.2175239473581314, -0.20576904714107513, -0.23288218677043915, -0.18608731031417847, -0.21128392219543457, -0.20338678359985352, -0.20023617148399353, -0.21155086159706116, -0.18616987764835358, -0.1943863481283188, -0.2095152586698532, -0.20878687500953674, -0.17734083533287048, -0.16559737920761108, -0.1898096203804016, -0.16328756511211395, -0.13625609874725342, -0.12454894930124283, -0.08688844740390778, -0.03613244742155075, -0.004294839687645435, 0.07515191286802292, 0.13660642504692078, 0.19777578115463257, 0.28932246565818787, 0.3534803092479706, 0.4033648371696472, 0.380549818277359, 0.3657809793949127, 0.34848836064338684, 0.32420510053634644, 0.3183961808681488, 0.3115164637565613, 0.2936411499977112, 0.29981085658073425, 0.295409619808197, 0.27969178557395935, 0.2872768044471741] 
 , Step size: 
 [-0.1845356971025467, -0.19199857115745544, -0.19604730606079102, -0.19156894087791443, -0.20274651050567627, -0.18579533696174622, -0.18237943947315216, -0.18333575129508972, -0.20154331624507904, -0.19700287282466888, -0.20273791253566742, -0.19695140421390533, -0.2304045408964157, -0.22256764769554138, -0.2846510708332062, -0.27416694164276123, -0.3190712332725525, -0.3437778949737549, -0.39038047194480896, -0.41731253266334534, -0.4324765205383301, -0.44600602984428406, -0.44622448086738586, -0.45422136783599854, -0.45434948801994324, -0.4545024037361145, -0.4447660446166992, -0.4536687135696411, -0.4249654710292816, -0.4189518690109253, -0.3975463807582855, -0.381172776222229, -0.3746017515659332, -0.3493380546569824, -0.34681031107902527, -0.3549806773662567, -0.35057634115219116, -0.35256442427635193, -0.3377906382083893, -0.3364928364753723]