Epoch: 17-3, Loss: 0.01150448527187109, Lr: 0.001 , 
 ,Threshold: 
[-0.1897033154964447, -0.20192478597164154, -0.21752767264842987, -0.20577280223369598, -0.23288583755493164, -0.18609081208705902, -0.21128720045089722, -0.20338991284370422, -0.20023897290229797, -0.21155314147472382, -0.1861715167760849, -0.19438724219799042, -0.2095152586698532, -0.20878544449806213, -0.17733719944953918, -0.1655908077955246, -0.1897994428873062, -0.16327251493930817, -0.13623549044132233, -0.1245226263999939, -0.08685693144798279, -0.03609640151262283, -0.004255642183125019, 0.07519203424453735, 0.13664610683918, 0.19781386852264404, 0.289355605840683, 0.3535088300704956, 0.40338951349258423, 0.3805713355541229, 0.36579838395118713, 0.3485022783279419, 0.3242160677909851, 0.3184046745300293, 0.31152305006980896, 0.29364627599716187, 0.2998146712779999, 0.2954123020172119, 0.28438612818717957, 0.29112306237220764] 
 , Step size: 
 [-0.18453893065452576, -0.19200219213962555, -0.19605116546154022, -0.19157280027866364, -0.20275075733661652, -0.1858002245426178, -0.18238507211208344, -0.18334239721298218, -0.2015514373779297, -0.19701366126537323, -0.2027522176504135, -0.1969706267118454, -0.23042991757392883, -0.22260111570358276, -0.28469303250312805, -0.27421829104423523, -0.3191298842430115, -0.34384170174598694, -0.3904462158679962, -0.4173770844936371, -0.432535856962204, -0.446060448884964, -0.44627439975738525, -0.4542679786682129, -0.4543927311897278, -0.4545438289642334, -0.44480258226394653, -0.4537007212638855, -0.42499345541000366, -0.41897693276405334, -0.3975669741630554, -0.38119006156921387, -0.37461578845977783, -0.34934940934181213, -0.34681928157806396, -0.3549879491329193, -0.35058215260505676, -0.35256877541542053, -0.34492728114128113, -0.3424755334854126]