Epoch: 29-3, Loss: 0.00539590697735548, Lr: 0.001 , 
 ,Threshold: 
[-0.18967312574386597, -0.20189650356769562, -0.21749992668628693, -0.20574495196342468, -0.23285892605781555, -0.1860649734735489, -0.21126259863376617, -0.20336666703224182, -0.20021787285804749, -0.2115352898836136, -0.1861581951379776, -0.1943802386522293, -0.2095152586698532, -0.20879706740379333, -0.1773635596036911, -0.1656377613544464, -0.1898723691701889, -0.1633785516023636, -0.136381134390831, -0.12471041828393936, -0.08708079159259796, -0.03635257109999657, -0.004534308798611164, 0.07490608096122742, 0.1363638937473297, 0.1975424736738205, 0.2891187071800232, 0.3533041477203369, 0.4032129943370819, 0.380418062210083, 0.36567452549934387, 0.34840279817581177, 0.3241367042064667, 0.31834176182746887, 0.31147411465644836, 0.29360800981521606, 0.2997851073741913, 0.29539018869400024, 0.2861689627170563, 0.2926223874092102] 
 , Step size: 
 [-0.18451447784900665, -0.1919751763343811, -0.19602251052856445, -0.19154420495033264, -0.20271921157836914, -0.18576444685459137, -0.18234381079673767, -0.1832941621541977, -0.20149266719818115, -0.1969371885061264, -0.20265018939971924, -0.19683310389518738, -0.2302495837211609, -0.22236408293247223, -0.28439727425575256, -0.27385514974594116, -0.31871354579925537, -0.34339189529418945, -0.38997936248779297, -0.4169168472290039, -0.4321114718914032, -0.44567155838012695, -0.44591790437698364, -0.45393791794776917, -0.4540824294090271, -0.4542478621006012, -0.444541335105896, -0.4534722566604614, -0.4247923791408539, -0.4187973737716675, -0.3974178731441498, -0.38106676936149597, -0.3745136559009552, -0.3492659628391266, -0.3467523157596588, -0.35493379831314087, -0.35053879022598267, -0.3525349497795105, -0.347600519657135, -0.34478238224983215]