Epoch: 26-3, Loss: 0.005640859715640545, Lr: 0.001 , 
 ,Threshold: 
[-0.18968431651592255, -0.2019069492816925, -0.21751022338867188, -0.20575526356697083, -0.23286885023117065, -0.18607454001903534, -0.2112717628479004, -0.20337530970573425, -0.20022571086883545, -0.21154192090034485, -0.18616318702697754, -0.1943829357624054, -0.2095152586698532, -0.2087927758693695, -0.1773538738489151, -0.1656205803155899, -0.18984556198120117, -0.1633395552635193, -0.13632768392562866, -0.12464143335819244, -0.08699853718280792, -0.036258451640605927, -0.0044319238513708115, 0.07501111924648285, 0.1364676058292389, 0.19764210283756256, 0.2892058193683624, 0.35337957739830017, 0.40327805280685425, 0.3804745078086853, 0.3657202124595642, 0.3484395444393158, 0.32416611909866333, 0.3183649480342865, 0.31149232387542725, 0.2936221659183502, 0.2997960150241852, 0.29539844393730164, 0.2861613929271698, 0.29259634017944336] 
 , Step size: 
 [-0.18452350795269012, -0.19198516011238098, -0.19603310525417328, -0.19155478477478027, -0.20273087918758392, -0.1857776641845703, -0.18235896527767181, -0.18331190943717957, -0.20151421427726746, -0.19696521759033203, -0.20268769562244415, -0.19688363373279572, -0.23031577467918396, -0.22245097160339355, -0.2845057249069214, -0.27398836612701416, -0.3188660740852356, -0.3435570299625397, -0.3901507258415222, -0.4170858860015869, -0.4322674572467804, -0.4458145201206207, -0.4460487365722656, -0.4540592432022095, -0.45419660210609436, -0.45435667037963867, -0.44463714957237244, -0.45355644822120667, -0.4248664379119873, -0.41886353492736816, -0.39747291803359985, -0.3811122179031372, -0.37455126643180847, -0.3492967486381531, -0.3467770218849182, -0.35495391488075256, -0.35055482387542725, -0.35254746675491333, -0.347602903842926, -0.34475257992744446]