Epoch: 21-3, Loss: 0.0055300951935350895, Lr: 0.001 , 
 ,Threshold: 
[-0.18969906866550446, -0.20192082226276398, -0.21752384305000305, -0.20576892793178558, -0.2328820526599884, -0.18608717620372772, -0.21128375828266144, -0.20338663458824158, -0.20023596286773682, -0.21155063807964325, -0.18616969883441925, -0.1943863481283188, -0.2095152586698532, -0.20878714323043823, -0.17734098434448242, -0.16559764742851257, -0.18981003761291504, -0.16328798234462738, -0.13625672459602356, -0.12454964220523834, -0.08688915520906448, -0.0361332967877388, -0.004295760300010443, 0.07515081763267517, 0.13660556077957153, 0.19777481257915497, 0.2893214523792267, 0.3534795343875885, 0.4033641815185547, 0.3805493712425232, 0.3657805919647217, 0.3484880030155182, 0.3242047429084778, 0.31839579343795776, 0.3115161657333374, 0.2936408519744873, 0.2998104393482208, 0.29540929198265076, 0.28577136993408203, 0.29225730895996094] 
 , Step size: 
 [-0.18453547358512878, -0.19199839234352112, -0.1960470825433731, -0.19156871736049652, -0.20274627208709717, -0.1857951283454895, -0.18237914144992828, -0.18333540856838226, -0.2015428990125656, -0.19700253009796143, -0.20273751020431519, -0.19695065915584564, -0.23040369153022766, -0.22256676852703094, -0.28465014696121216, -0.2741655707359314, -0.31906935572624207, -0.34377652406692505, -0.3903783857822418, -0.4173109829425812, -0.43247467279434204, -0.4460045397281647, -0.44622310996055603, -0.4542204439640045, -0.4543481469154358, -0.4545011818408966, -0.44476500153541565, -0.4536679983139038, -0.42496466636657715, -0.418951153755188, -0.3975456655025482, -0.3811723291873932, -0.3746010959148407, -0.34933751821517944, -0.3468098044395447, -0.35498037934303284, -0.3505759537220001, -0.35256391763687134, -0.34702643752098083, -0.3442365825176239]