Epoch: 0-3, Loss: 40.2377815246582, Lr: 0.001 , 
 ,Threshold: 
[0.0012183047365397215, -0.008163201622664928, -0.009104331955313683, 0.0037485368084162474, -0.016750948503613472, -0.002953651361167431, 0.023966629058122635, -0.020044539123773575, -0.007600968703627586, -0.026133546605706215, 0.007509604562073946, -0.004512014798820019, -0.005573509261012077, -0.011179713532328606, 0.008948596194386482, -0.01666942797601223, -0.0045014251954853535, -0.0087282108142972, 0.008551103994250298, 0.018266571685671806, -0.010925485752522945, -0.00012845068704336882, 0.007997984997928143, -0.008865229785442352, 0.004222243092954159, 0.006407751236110926, -0.0009819699916988611, -0.008189067244529724, -0.015501480549573898, -0.0009706016862764955, -0.0007872132118791342, 0.0056155528873205185, -0.0015557513106614351, -0.0012716532219201326, -0.0034950203262269497, -0.007389388978481293, 0.00034477387089282274, -0.02167358249425888, -0.014245251193642616, -0.002960885874927044, 0.009153356775641441, -0.013809766620397568, -0.01055664662271738, -0.001392527250573039, -0.009828819893300533, -0.011635938659310341, -0.02558443881571293, 0.006910042837262154, 0.0076743243262171745, -0.02574186585843563, -0.0045423912815749645, -0.00634590070694685, -0.006285242736339569, 0.014559962786734104, 0.008862688206136227, 0.005937511567026377, -0.005496143363416195, -0.010995063930749893, -0.022410335019230843, 0.0015863904263824224, -0.020262598991394043, -0.0172052513808012, -0.0201148372143507, -0.01959913596510887, -0.0029297235887497663, -0.007058896590024233, 0.016145853325724602, 0.02046121098101139, 0.010229169391095638, 0.004945225082337856, -0.013491895981132984, 0.0014614011161029339, 0.021232280880212784, 0.0033143938053399324, -0.010150794871151447, -0.0020318180322647095, -0.0018154599238187075, -0.003531369846314192, -0.00030563189648091793, -0.01342437881976366] 
 , Step size: 
 [-0.009734774008393288, 0.0023110785987228155, 0.007532822899520397, -0.00624871114268899, 0.01930847018957138, 0.007961774244904518, 0.008670385926961899, 0.0011083658318966627, 0.017553558573126793, -0.012099074199795723, 0.004872045014053583, 0.0037219119258224964, -0.007174712140113115, 0.002240878762677312, 0.0018914354732260108, -0.001795647433027625, -0.00084906374104321, 0.0022112675942480564, -0.0053633758798241615, -0.01959737204015255, 0.00365188205614686, -0.008140972815454006, 0.004883275367319584, 0.009351319633424282, -0.005337516777217388, -0.005726607982069254, -0.0007219925173558295, -0.014078167267143726, 0.0002967333421111107, 0.003255275310948491, -0.007153349928557873, -0.0009970527607947588, -0.008158797398209572, 0.012391778640449047, 0.0020596403628587723, -0.004259895067662001, 0.0010531647130846977, -0.008892289362847805, -0.008702373132109642, -0.007253180257976055, -0.020197751000523567, 0.012399782426655293, -0.02315518446266651, -0.007301473058760166, -0.025443032383918762, -0.008116804994642735, -0.01600758172571659, -0.013927320018410683, -0.005715713836252689, -0.003822927363216877, -0.00021653203293681145, 0.003586208913475275, 0.0006395999225787818, -0.006033009383827448, -0.007058670278638601, -0.018597424030303955, -0.006769381929188967, 0.008606127463281155, -0.012202348560094833, 0.006956738885492086, -0.003225297201424837, -0.004151514731347561, 0.021600812673568726, 0.005402459297329187, 0.0015439604176208377, 0.014908458106219769, 0.004586125258356333, -0.00858996994793415, -0.007938096299767494, 0.002706230618059635, 0.013060422614216805, -0.011751611717045307, -0.006632070057094097, 0.0004326668567955494, -0.007377053145319223, -0.004957342054694891, -0.012026114389300346, 0.006146536208689213, -0.0071243103593587875, -0.006872259546071291]