Epoch: 0-3, Loss: 76.5346908569336, Lr: 0.001 , 
 ,Threshold: 
[0.008094334974884987, 0.003921414725482464, -0.005298310425132513, 0.008559394627809525, -0.006184251978993416, -0.009930129162967205, -0.0066646090708673, 0.017201952636241913, -0.008903774432837963, 0.011398376896977425, -0.009904974140226841, -0.0063753919675946236, -0.00793484877794981, -0.014471353963017464, -0.004652226343750954, -0.003119006520137191, -0.005828552879393101, -0.005223248153924942, -3.777240635827184e-05, -0.006496204994618893, -0.014923510141670704, 0.0028616623021662235, -0.014807786792516708, 0.023843735456466675, 0.004745342303067446, 0.0015950541710481048, 0.006112969014793634, 0.009718162007629871, -0.013920710422098637, -0.016654429957270622, -0.00378414592705667, 0.025203097611665726, 0.0027749701403081417, 0.002859000349417329, 0.012943600304424763, -0.00175047991797328, 0.008328075520694256, 0.004874205216765404, -0.002047331305220723, 0.0027323290705680847, -0.010037917643785477, 0.009589606896042824, -0.0013166972203180194, 0.0014301621122285724, 0.019913945347070694, -0.005129515193402767, 0.0022729337215423584, -0.008215765468776226, -0.010704916901886463, -0.00021939387079328299, 0.005268284119665623, -0.0002741958014667034, -0.013432824984192848, -0.007378299720585346, 0.0034079798497259617, 0.0041975402273237705, 0.004375535063445568, -0.008220314979553223, 0.0018566978396847844, -0.008898906409740448, -0.014499765820801258, -0.017446350306272507, -0.0023803571239113808, -0.0018228191183879972, -0.009184236638247967, -0.004362905398011208, 0.0164520014077425, 0.006423753686249256, 0.02532378025352955, 0.014959695748984814, 0.004398084245622158, 0.010084875859320164, 0.011564826592803001, 0.007043537218123674, 0.012956738471984863, 0.0007347387727349997, -0.0028462600894272327, -0.006403609178960323, -0.016013655811548233, 0.011019827798008919] 
 , Step size: 
 [-0.022235367447137833, 0.006672748364508152, 0.0013273439835757017, -0.006358626298606396, 0.0030949958600103855, -0.015430133789777756, 0.008192187175154686, -0.005306223873049021, -0.017561065033078194, 0.0015726599376648664, -0.002868134994059801, -0.016083188354969025, -0.007693092804402113, 0.010904401540756226, -0.003896532580256462, -0.009410352446138859, -0.01661897636950016, -0.012926267459988594, -0.013090857304632664, 0.012866722419857979, 0.006116276606917381, -0.0010738091077655554, -0.0052827573381364346, 0.00862380675971508, -0.01263224147260189, -0.019007543101906776, 0.001935300650075078, 0.006354034878313541, -0.004583396948873997, -0.01341752428561449, 0.005367551930248737, -0.006028095260262489, -0.004365599248558283, -0.01871233992278576, 0.015763988718390465, -0.0002930305781774223, 0.018538642674684525, -0.0002286381204612553, -0.013433897867798805, -0.011799276806414127, 0.002419432159513235, 0.003578058211132884, -0.006165777333080769, 0.0019952612929046154, 0.0021248329430818558, 0.00882547814399004, -0.013045286759734154, 0.007345204707235098, 0.004429753869771957, -0.005432324483990669, 0.003084470983594656, -0.008077847771346569, 0.0011243568733334541, 0.00761570455506444, -0.00229392247274518, 0.006664301734417677, 0.016814762726426125, 0.0026656901463866234, -0.005063364747911692, -0.008090708404779434, 0.0034761393908411264, -0.012396829202771187, 0.0050779362209141254, 0.0009116818546317518, -0.0001257323892787099, -0.021535584703087807, 0.0031503692734986544, -0.011505908332765102, -0.001649894518777728, 0.0076891956850886345, 0.0020423748064786196, -0.006097158882766962, 0.002447209320962429, -0.003537476761266589, -0.010297959670424461, -0.0028030406683683395, -0.008727208711206913, -0.002309087198227644, -0.012589767575263977, 0.0025078703183680773]