Epoch: 1-3, Loss: 0.04719909653067589, Lr: 0.001 , 
 ,Threshold: 
[0.011681359261274338, 0.015246031805872917, -0.009098927490413189, -0.0028864203486591578, 0.03382837027311325, 0.003871080931276083, 0.017328158020973206, -0.001673747319728136, 0.0151746841147542, -0.0026070766616612673, 0.003341851057484746, -0.0019456091104075313, -0.003708459669724107, -0.004357112105935812, 0.0027168821543455124, -0.005079810041934252, -0.005255889147520065, 0.0008040023967623711, 0.0003878115094266832, -0.016952600330114365, -0.023642783984541893, 0.003512041410431266, 0.01624201238155365, -0.006486553233116865, -0.0005650855018757284, -0.022335698828101158, -0.012301743030548096, 0.004967169836163521, 0.003058826783671975, -0.0005451227771118283, -0.006002399139106274, -0.0068495022132992744, 0.012257582508027554, 0.016121337190270424, -0.010052889585494995, 0.015528933145105839, 0.011863848194479942, -0.008664886467158794, 0.002849993295967579, -0.02153538540005684, -0.022494297474622726, 0.014558953233063221, -0.009858483448624611, -0.010480419732630253, -0.0052416338585317135, -0.008465767838060856, -0.02601761743426323, -0.0033635846339166164, 0.0010814014822244644, -0.0006072247633710504, 0.005026442464441061, -0.006991417612880468, -0.00372910825535655, -0.004685412626713514, 0.0024056078400462866, 0.008644855581223965, -0.00068619754165411, 0.007049736101180315, -0.017454728484153748, 0.026036296039819717, 0.0051419781520962715, 0.007226306479424238, 0.019947588443756104, 0.03258628770709038, 0.00548260472714901, 0.027220193296670914, 0.018639085814356804, 0.0214624535292387, 0.014338771812617779, 0.0297642033547163, 0.02057417668402195, 0.03861905261874199, 0.04102250933647156, 0.01817450486123562, 0.030893828719854355, 0.04570615291595459, 0.04850422963500023, 0.046026695519685745, 0.05604800581932068, 0.03892325609922409] 
 , Step size: 
 [0.012485796585679054, 0.003020654898136854, -0.008095446974039078, -0.013943717814981937, -0.016741715371608734, 0.006038577761501074, 0.015461293049156666, -0.007129140198230743, -0.010078403167426586, -0.007500863168388605, 0.00835511740297079, 0.010603896342217922, 0.0280468612909317, -0.006514296866953373, 0.0019678480457514524, -0.02408703602850437, -0.016984272748231888, 0.006124959792941809, -0.012434794567525387, -0.006349197588860989, 3.5062683309661224e-05, -0.006325920112431049, -0.0025065906811505556, 0.008205224759876728, -0.009728632867336273, 0.015569287352263927, 0.0006221934454515576, 0.020489361137151718, 0.005068617407232523, 0.027497950941324234, -0.0007610604516230524, -0.0037421693559736013, -0.016159746795892715, -0.018701577559113503, -0.0049384841695427895, 0.00442796153947711, 0.009842597879469395, -0.007233120035380125, -0.006203443743288517, -0.009992427192628384, -0.024616731330752373, 0.004932239651679993, 0.007328985724598169, 0.013591290451586246, 0.014533888548612595, 0.002849322510883212, -0.0010316141415387392, 0.0041230726055800915, 0.022482410073280334, 0.0018039747374132276, 0.0021288099233061075, -0.014654862694442272, -0.018614765256643295, -0.02268579602241516, -0.005668663419783115, -0.007026837673038244, 0.010467372834682465, -0.0010702043073251843, -0.015063035301864147, -0.01546403206884861, -0.016058675944805145, -0.015469391830265522, -0.009047308936715126, -0.012604312039911747, -0.02686760388314724, -0.0038586431182920933, -0.03274944797158241, -0.013340379111468792, -0.03042921982705593, -0.04065559059381485, -0.02130720764398575, -0.03645583614706993, -0.04121226444840431, -0.041237980127334595, -0.021581435576081276, -0.05038725584745407, -0.04421792924404144, -0.047175612300634384, -0.04612141475081444, -0.04101790115237236]