Epoch: 4-3, Loss: 0.032826993614435196, Lr: 0.001 , 
 ,Threshold: 
[0.011681277304887772, 0.015245966613292694, -0.009098995476961136, -0.0028865032363682985, 0.033828310668468475, 0.003870961256325245, 0.017328012734651566, -0.0016739388229325414, 0.01517444383352995, -0.002607382833957672, 0.0033414599020034075, -0.0019461025949567556, -0.0037090759724378586, -0.00435790466144681, 0.0027158933226019144, -0.005081066396087408, -0.005257457960397005, 0.0008020434179343283, 0.0003853076486848295, -0.01695575751364231, -0.02364671416580677, 0.00350701785646379, 0.01623568870127201, -0.006494703236967325, -0.0005756134632974863, -0.022348914295434952, -0.012318519875407219, 0.0049462453462183475, 0.0030322775710374117, -0.0005776280886493623, -0.006043383851647377, -0.00689982483163476, 0.012194696813821793, 0.01604353077709675, -0.010162418708205223, 0.0153885493054986, 0.011687270365655422, -0.008887756615877151, 0.0025675008073449135, -0.02188463881611824, -0.02293308824300766, 0.014014477841556072, -0.010536587797105312, -0.011302688159048557, -0.006222344469279051, -0.009608155116438866, -0.027283158153295517, -0.004667181055992842, -4.118816286791116e-05, -0.0011931088520213962, 0.005682708695530891, -0.0040300944820046425, 0.0031107920221984386, 0.007804399821907282, 0.02265368588268757, 0.03842048719525337, 0.04229295253753662, 0.062767893075943, 0.04926354065537453, 0.1027565747499466, 0.0889626070857048, 0.09696682542562485, 0.11455996334552765, 0.13155342638492584, 0.10838101804256439, 0.13413164019584656, 0.130432590842247, 0.13854560256004333, 0.13750003278255463, 0.15983469784259796, 0.15809842944145203, 0.18425482511520386, 0.19415923953056335, 0.17929378151893616, 0.19531269371509552, 0.21237531304359436, 0.21189187467098236, 0.20189709961414337, 0.19927780330181122, 0.16411662101745605] 
 , Step size: 
 [0.012485870160162449, 0.0030207179952412844, -0.00809538271278143, -0.013943642377853394, -0.016741637140512466, 0.006038693245500326, 0.015461434610188007, -0.007128952071070671, -0.010078162886202335, -0.007500558625906706, 0.00835550669580698, 0.01060438621789217, 0.028047462925314903, -0.00651351036503911, 0.001968829659745097, -0.024085765704512596, -0.01698269695043564, 0.0061269192956388, -0.012432286515831947, -0.006346049252897501, 3.8966056308709085e-05, -0.006320904940366745, -0.0025002520997077227, 0.00821335893124342, -0.009718095883727074, 0.015582398511469364, 0.0006388344336301088, 0.020510083064436913, 0.005094955209642649, 0.02753005176782608, -0.0007205008296296, -0.0036923044826835394, -0.016096947714686394, -0.018623346462845802, -0.0048286099918186665, 0.004569017328321934, 0.010019931942224503, -0.007009592372924089, -0.005919768009334803, -0.009642893448472023, -0.024177424609661102, 0.005478276871144772, 0.008005795069038868, 0.01440849807113409, 0.01550661027431488, 0.0039825704880058765, 0.0002198324364144355, 0.005416529253125191, 0.02359379082918167, 0.002392333699390292, 0.0014773543225601315, -0.01762295886874199, -0.025508860126137733, -0.03533712401986122, -0.026204735040664673, -0.03725185990333557, -0.03307424113154411, -0.057529088109731674, -0.08274952322244644, -0.09356512129306793, -0.10151022672653198, -0.10702359676361084, -0.10569511353969574, -0.11388304084539413, -0.13229615986347198, -0.11353293806314468, -0.1477111577987671, -0.1338432878255844, -0.15747275948524475, -0.1752457469701767, -0.16366882622241974, -0.18772421777248383, -0.20066964626312256, -0.20915313065052032, -0.19366610050201416, -0.22579073905944824, -0.21734145283699036, -0.21375951170921326, -0.20056815445423126, -0.1771332174539566]