Epoch: 5-3, Loss: 0.022160058841109276, Lr: 0.001 , 
 ,Threshold: 
[0.011681202799081802, 0.015245922841131687, -0.009099038317799568, -0.0028865535277873278, 0.0338282585144043, 0.0038708874490112066, 0.017327919602394104, -0.0016740569844841957, 0.015174292027950287, -0.0026075721252709627, 0.0033412128686904907, -0.0019464140059426427, -0.0037094654981046915, -0.0043584005907177925, 0.0027152777183800936, -0.005081845447421074, -0.005258423276245594, 0.0008008377044461668, 0.00038378359749913216, -0.016957692801952362, -0.023649146780371666, 0.0035039810463786125, 0.01623190939426422, -0.00649977196007967, -0.0005821504164487123, -0.02235741727054119, -0.01232918631285429, 0.004933072719722986, 0.0030155261047184467, -0.0005984845338389277, -0.006069445516914129, -0.006931898649781942, 0.01215460803359747, 0.01599344052374363, -0.010240384377539158, 0.0152863385155797, 0.011555290780961514, -0.009058681316673756, 0.002344907959923148, -0.02216915786266327, -0.023298490792512894, 0.013551026582717896, -0.011088227853178978, -0.011977278627455235, -0.0070293257012963295, -0.01053557638078928, -0.028024116531014442, -0.005183113738894463, 0.0003586316015571356, 0.0010496522299945354, 0.011297439225018024, 0.006740490440279245, 0.020604539662599564, 0.0327550433576107, 0.053691618144512177, 0.075093574821949, 0.08417873829603195, 0.10972830653190613, 0.10026101022958755, 0.15756233036518097, 0.14732833206653595, 0.15894153714179993, 0.18050619959831238, 0.20170140266418457, 0.18266111612319946, 0.2123085856437683, 0.21314258873462677, 0.22480322420597076, 0.22758908569812775, 0.25346022844314575, 0.25358545780181885, 0.2821598947048187, 0.293079137802124, 0.2776070535182953, 0.291166216135025, 0.3063114285469055, 0.298191636800766, 0.2783384621143341, 0.2618374526500702, 0.2078934609889984] 
 , Step size: 
 [0.012485936284065247, 0.0030207596719264984, -0.008095350116491318, -0.01394360326230526, -0.016741588711738586, 0.006038760766386986, 0.015461521223187447, -0.0071288407780230045, -0.010078013874590397, -0.007500375621020794, 0.008355746977031231, 0.010604689829051495, 0.028047841042280197, -0.006513022817671299, 0.001969435717910528, -0.024084992706775665, -0.016981741413474083, 0.00612811790779233, -0.012430763803422451, -0.00634411908686161, 4.1375293221790344e-05, -0.006317877676337957, -0.0024964672047644854, 0.008218418806791306, -0.009711557999253273, 0.01559083629399538, 0.0006494028493762016, 0.020523127168416977, 0.005111563019454479, 0.027550647035241127, -0.0006947265937924385, -0.0036605277564376593, -0.016056926921010017, -0.018573002889752388, -0.004750356078147888, 0.0046717082150280476, 0.010152488946914673, -0.006838164757937193, -0.005696303676813841, -0.009358175098896027, -0.023811861872673035, 0.0059426953084766865, 0.008556949906051159, 0.015079474076628685, 0.016307197511196136, 0.004902624990791082, 0.0009564360370859504, 0.0059339976869523525, 0.023207135498523712, 0.0001835815783124417, -0.004122334532439709, -0.02845356985926628, -0.04321957007050514, -0.06070919334888458, -0.05782574415206909, -0.07468318194150925, -0.07581304013729095, -0.10550127178430557, -0.13488346338272095, -0.14976142346858978, -0.1613643765449524, -0.17058657109737396, -0.1733579933643341, -0.18590299785137177, -0.2085312008857727, -0.19373314082622528, -0.23261435329914093, -0.2223687469959259, -0.24996066093444824, -0.27142396569252014, -0.26182791590690613, -0.28845545649528503, -0.30264365673065186, -0.3109293580055237, -0.2936631739139557, -0.32445698976516724, -0.30970442295074463, -0.2977810204029083, -0.27189284563064575, -0.22917062044143677]