Epoch: 0-3, Loss: 0.049987249076366425, Lr: 0.001 , 
 ,Threshold: 
[0.011681373231112957, 0.015246042050421238, -0.009098916314542294, -0.0028864031191915274, 0.03382837399840355, 0.003871105844154954, 0.017328182235360146, -0.0016737072728574276, 0.01517473254352808, -0.0026070130988955498, 0.0033419313840568066, -0.0019455073634162545, -0.003708333009853959, -0.004356949124485254, 0.002717084251344204, -0.0050795553252100945, -0.005255572032183409, 0.0008043981506489217, 0.00038831427809782326, -0.016951967030763626, -0.023642005398869514, 0.0035130337346345186, 0.01624324545264244, -0.00648491783067584, -0.0005629829247482121, -0.02233310602605343, -0.012298465706408024, 0.004971208982169628, 0.0030638708267360926, -0.0005390907754190266, -0.005994998384267092, -0.00684077013283968, 0.01226789504289627, 0.016133403405547142, -0.010031289421021938, 0.015556559897959232, 0.011898508295416832, -0.008621251210570335, 0.002905183471739292, -0.021467426791787148, -0.02240893431007862, 0.01466484647244215, -0.009730103425681591, -0.010324598290026188, -0.005055476911365986, -0.008247803896665573, -0.025775320827960968, -0.0031072304118424654, 0.0013167597353458405, -0.00044068455463275313, 0.005027239676564932, -0.007291074842214584, -0.004515225533396006, -0.006075955927371979, 0.0003295095229987055, 0.005472851451486349, -0.0033160182647407055, 0.002171335741877556, -0.024937763810157776, 0.015644215047359467, -0.007652404718101025, -0.007749366108328104, 0.00324329175055027, 0.014452611096203327, -0.013661202043294907, 0.006983491126447916, -0.0025417981669306755, -0.0006716761854477227, -0.00893984455615282, 0.005062607116997242, -0.006157124415040016, 0.009931227192282677, 0.009914659895002842, -0.01658880151808262, -0.006038667634129524, 0.0067998734302818775, 0.008258153684437275, 0.005168436095118523, 0.015306565910577774, -0.0010696823010221124] 
 , Step size: 
 [0.012485784478485584, 0.0030206418596208096, -0.008095457218587399, -0.013943730853497982, -0.016741730272769928, 0.006038553547114134, 0.015461262315511703, -0.00712917884811759, -0.010078451596200466, -0.007500926032662392, 0.008355039171874523, 0.010603794828057289, 0.028046738356351852, -0.006514457985758781, 0.0019676480442285538, -0.024087293073534966, -0.016984587535262108, 0.006124564446508884, -0.012435298413038254, -0.006349830888211727, 3.428533091209829e-05, -0.006326909177005291, -0.002507827477529645, 0.008203588426113129, -0.00973073672503233, 0.015566708520054817, 0.0006189440027810633, 0.02048535645008087, 0.005063612945377827, 0.027491992339491844, -0.0007683882140554488, -0.003750825533643365, -0.01617005281150341, -0.018713677302002907, -0.004960124380886555, 0.004400224890559912, 0.009807814843952656, -0.007276859134435654, -0.006258848588913679, -0.01006042305380106, -0.02470218762755394, 0.00482603907585144, 0.007200792897492647, 0.013436350040137768, 0.014349138364195824, 0.0026329613756388426, -0.001271348912268877, 0.003868621541187167, 0.022249441593885422, 0.0016378082800656557, 0.002128256019204855, -0.014353670179843903, -0.017823033034801483, -0.021282333880662918, -0.003574553644284606, -0.0038360399194061756, 0.013127665035426617, 0.0038151538465172052, -0.0075868479907512665, -0.005051488056778908, -0.003219845239073038, -0.00045345857506617904, 0.007704110350459814, 0.0055959890596568584, -0.007655809633433819, 0.016445742920041084, -0.011478628031909466, 0.00887834932655096, -0.007049884647130966, -0.015813076868653297, 0.005533428862690926, -0.007599595934152603, -0.00990958884358406, -0.006317241117358208, 0.015531951561570168, -0.011206286028027534, -0.0036695857997983694, -0.005977801978588104, -0.005006341729313135, -0.0006241841474547982]