Epoch: 9-3, Loss: 0.003773723030462861, Lr: 0.001 , 
 ,Threshold: 
[0.011671779677271843, 0.015237050130963326, -0.009108797647058964, -0.002897900063544512, 0.03381501883268356, 0.003855649149045348, 0.017309127375483513, -0.001697417814284563, 0.015144744887948036, -0.002643834799528122, 0.0032964616548269987, -0.0020023416727781296, -0.0037805428728461266, -0.004447801038622856, 0.0026040272787213326, -0.005223514512181282, -0.005434779915958643, 0.0005822691018693149, 0.00010290206409990788, -0.017305755987763405, -0.024089789018034935, 0.002939339028671384, 0.015512742102146149, -0.007434133440256119, -0.0018126636277884245, -0.023893307894468307, -0.014306827448308468, 0.002418729942291975, -0.000257819308899343, -0.0047425697557628155, -0.011478778906166553, -0.013852162286639214, 0.0031573788728564978, 0.004580696113407612, -0.022808421403169632, -0.00019913178402930498, -0.006799043621867895, -0.03034065291285515, -0.022216064855456352, -0.04483284428715706, -0.048808593302965164, -0.014361240901052952, -0.027172455564141273, -0.02695457823574543, -0.021474411711096764, -0.025078464299440384, -0.033396024256944656, -0.00912835355848074, 0.00546717643737793, 0.020225515589118004, 0.051412586122751236, 0.06840644776821136, 0.09615827351808548, 0.10095899552106857, 0.13344846665859222, 0.15442925691604614, 0.14877010881900787, 0.16217279434204102, 0.138805091381073, 0.1929955631494522, 0.1764412671327591, 0.18301349878311157, 0.2060345858335495, 0.2397507280111313, 0.23127909004688263, 0.26956090331077576, 0.279577374458313, 0.2914143204689026, 0.29623138904571533, 0.32283419370651245, 0.3226768374443054, 0.35295435786247253, 0.36490824818611145, 0.34858056902885437, 0.359319806098938, 0.3731933534145355, 0.35599640011787415, 0.3369441330432892, 0.34224075078964233, 0.32094326615333557] 
 , Step size: 
 [0.012494373135268688, 0.0030301627703011036, -0.008085009641945362, -0.013931668363511562, -0.01672765426337719, 0.006054690573364496, 0.01548099983483553, -0.007104760035872459, -0.010047595016658306, -0.007463209796696901, 0.008401346392929554, 0.010661316104233265, 0.02811913937330246, -0.006423312239348888, 0.00208098441362381, -0.023942500352859497, -0.016804134473204613, 0.0063477312214672565, -0.0121481167152524, -0.005995006766170263, 0.00048083116416819394, -0.005753456614911556, -0.0017749402904883027, 0.00915275327861309, -0.008479706943035126, 0.017116371542215347, 0.002610036637634039, 0.023011555895209312, 0.008355289697647095, 0.031642764806747437, 0.004649532958865166, 0.003185643581673503, -0.0071028764359653, -0.00714726559817791, 0.007864427752792835, 0.02017928846180439, 0.02849307470023632, 0.014377937652170658, 0.018757473677396774, 0.013279667124152184, 0.0016247185412794352, 0.03378456085920334, 0.024856295436620712, 0.030321070924401283, 0.03102661296725273, 0.019721925258636475, 0.006775607820600271, 0.010236239992082119, 0.018496593460440636, -0.01892053708434105, -0.045021455734968185, -0.0919211208820343, -0.12111341953277588, -0.13087761402130127, -0.13913290202617645, -0.1541549116373062, -0.13890382647514343, -0.15555605292320251, -0.17091086506843567, -0.18312062323093414, -0.18899087607860565, -0.19349709153175354, -0.1998465210199356, -0.22620946168899536, -0.2603268027305603, -0.25374990701675415, -0.30118322372436523, -0.290507972240448, -0.319497287273407, -0.3412829339504242, -0.3312472105026245, -0.3596171736717224, -0.37505751848220825, -0.38284584879875183, -0.3633710741996765, -0.39317968487739563, -0.37076836824417114, -0.36134278774261475, -0.3616600036621094, -0.36685803532600403]