Epoch: 2-3, Loss: 0.04714607819914818, Lr: 0.001 , 
 ,Threshold: 
[0.011681336909532547, 0.015246014110744, -0.009098945185542107, -0.002886442933231592, 0.03382836654782295, 0.003871047869324684, 0.017328117042779922, -0.0016737992409616709, 0.015174617990851402, -0.0026071593165397644, 0.0033417455852031708, -0.0019457419402897358, -0.0037086254451423883, -0.004357325378805399, 0.0027166169602423906, -0.005080146715044975, -0.005256311036646366, 0.0008034771308302879, 0.0003871395601890981, -0.016953445971012115, -0.02364383451640606, 0.0035106970462948084, 0.0162403155118227, -0.006488705053925514, -0.0005678634624928236, -0.022339168936014175, -0.012306157499551773, 0.004961659200489521, 0.0030518316198140383, -0.0005536872195079923, -0.006013241596519947, -0.006862879265099764, 0.012240738607943058, 0.016100358217954636, -0.010080957785248756, 0.015493002720177174, 0.01181868091225624, -0.008721908554434776, 0.0027775915805250406, -0.021625112742185593, -0.022607680410146713, 0.014416929334402084, -0.01003476232290268, -0.010699003003537655, -0.0055102212354540825, -0.008793559856712818, -0.026405517011880875, -0.003817259334027767, 0.0005806435947306454, -0.0011419097427278757, 0.004525100812315941, -0.007354656234383583, -0.0037712298799306154, -0.00417955219745636, 0.0038249646313488483, 0.011379444040358067, 0.004795574117451906, 0.015842974185943604, -0.005250732414424419, 0.041721150279045105, 0.023284079506993294, 0.02741367369890213, 0.04159368574619293, 0.0554143488407135, 0.02920590527355671, 0.05179690569639206, 0.04414396733045578, 0.04819193482398987, 0.042325474321842194, 0.059328097850084305, 0.0524311400949955, 0.07267329841852188, 0.07758746296167374, 0.05834939703345299, 0.07279713451862335, 0.08903385698795319, 0.09245938062667847, 0.08995070308446884, 0.09907266497612, 0.079830601811409] 
 , Step size: 
 [0.012485816143453121, 0.003020672360435128, -0.008095430210232735, -0.013943696394562721, -0.01674169860780239, 0.006038609892129898, 0.015461331233382225, -0.007129088044166565, -0.010078337043523788, -0.007500780280679464, 0.008355223573744297, 0.010604026727378368, 0.028047023341059685, -0.006514084059745073, 0.0019681116100400686, -0.024086693301796913, -0.016983846202492714, 0.0061254859901964664, -0.012434124015271664, -0.0063483575358986855, 3.610480052884668e-05, -0.006324578542262316, -0.002504891250282526, 0.008207371458411217, -0.009725851006805897, 0.01557273231446743, 0.0006265720003284514, 0.020494820550084114, 0.005075558554381132, 0.027506407350301743, -0.000750330276787281, -0.0037289143074303865, -0.01614292711019516, -0.018680481240153313, -0.004910321440547705, 0.004464073106646538, 0.009887967258691788, -0.007175917737185955, -0.0061307246796786785, -0.009902603924274445, -0.02450319193303585, 0.005074687302112579, 0.007505016401410103, 0.013808585703372955, 0.014800244942307472, 0.0031743361614644527, -0.0006482854369096458, 0.004572304431349039, 0.022977011278271675, 0.002333961194381118, 0.0026261131279170513, -0.014295718632638454, -0.018578987568616867, -0.023205794394016266, -0.00711326627060771, -0.00979667715728283, 0.004938037134706974, -0.009907905012369156, -0.02733362838625908, -0.03130054101347923, -0.03441796451807022, -0.035909105092287064, -0.03099176660180092, -0.0357864648103714, -0.0509832389652729, -0.028866223990917206, -0.05875616893172264, -0.04060705378651619, -0.05903303623199463, -0.07095539569854736, -0.0539327934384346, -0.07144637405872345, -0.07884235680103302, -0.08252429217100143, -0.06473478674888611, -0.0951470136642456, -0.08971706032752991, -0.09276445209980011, -0.09090791642665863, -0.08374183624982834]