Epoch: 6-34, Loss: 0.0004877385508734733, Lr: 0.001 , 
 ,Threshold: 
[0.007742532528936863, 0.011761659756302834, -0.014442150481045246, 0.001585212885402143, -0.014473985880613327, -0.0037693697959184647, -8.751828136155382e-05, 0.002486030338332057, 0.003666103584691882, -0.012929758056998253, -0.008432638831436634, -0.01060549821704626, -0.0059888954274356365, 0.00422461936250329, 0.005153837613761425, 0.0034598736092448235, 0.01277619693428278, -0.012305177748203278, -0.006568347103893757, 0.015033387579023838, 0.008373932912945747, -0.0016664351569488645, -0.002517108106985688, 0.005243332590907812, -0.0013766064075753093, -0.01997946947813034, 0.007795445155352354, -0.0023284191265702248, -0.00987416971474886, 0.000103865830169525, -0.015710294246673584, -0.006603782996535301, 0.01575317233800888, -0.0035620315466076136, -0.010405809618532658, -0.012097662314772606, -0.01023977342993021, -0.0031754174269735813, -0.017877796664834023, -0.012430930510163307, -0.008599990047514439, -0.00883861817419529, -0.033100612461566925, -0.004632781259715557, -0.02396043948829174, -0.009644173085689545, -0.022418774664402008, -0.018733786419034004, -0.014804434962570667, 0.017639638856053352, 0.02367912046611309, 0.03589805215597153, 0.06873460859060287, 0.10170384496450424, 0.13437695801258087, 0.15196003019809723, 0.1540806144475937, 0.19680745899677277, 0.206440269947052, 0.19975049793720245, 0.22563855350017548, 0.2161552608013153, 0.24339477717876434, 0.2603450119495392, 0.2630212604999542, 0.2906319200992584, 0.2990611791610718, 0.3186480402946472, 0.3265584409236908, 0.33138683438301086, 0.3497995436191559, 0.34510597586631775, 0.3631063997745514, 0.36755597591400146, 0.3725573718547821, 0.3788355588912964, 0.36767643690109253, 0.3407662808895111, 0.33089396357536316, 0.3019304871559143] 
 , Step size: 
 [0.002197454683482647, 0.014708125032484531, -7.333487155847251e-05, -0.0029423250816762447, -0.014304650947451591, 0.01108099427074194, -0.018851876258850098, 0.0012968304799869657, -0.00833524763584137, 0.01811695471405983, 0.0055322241969406605, -0.003518011188134551, -0.004922301508486271, -0.0002841623208951205, -0.006815989501774311, -0.0186478141695261, -0.008904047310352325, 0.002421197248622775, 0.01541584637016058, -0.0068649291060864925, -0.020484881475567818, -0.012662145309150219, -0.0023450565058737993, 0.015184028074145317, -0.0022442995104938745, -0.01680321991443634, 0.002359099453315139, 0.009267467074096203, -0.004260885529220104, -0.002772388979792595, -0.005600982345640659, -0.008864818140864372, -0.00668533518910408, 0.013963758014142513, 0.006834767293184996, 0.004625848028808832, 0.02042142115533352, 0.02989376150071621, 0.028526706621050835, 0.02231578715145588, 0.028154678642749786, 0.024830270558595657, 0.000542395981028676, 0.03017834946513176, -0.0025814019609242678, 0.020860962569713593, 0.013382881879806519, 0.005937062203884125, 0.008066716603934765, 0.000980924814939499, -0.015925146639347076, -0.03693130984902382, -0.06716133654117584, -0.09662795811891556, -0.14049024879932404, -0.1541345715522766, -0.1438455879688263, -0.18918603658676147, -0.18156029284000397, -0.21355755627155304, -0.22439685463905334, -0.23536603152751923, -0.2883429229259491, -0.25641390681266785, -0.2791522145271301, -0.29077327251434326, -0.3012031316757202, -0.31479406356811523, -0.33243077993392944, -0.3298073410987854, -0.350558340549469, -0.36560311913490295, -0.35382363200187683, -0.37300536036491394, -0.38918694853782654, -0.42192089557647705, -0.3725188970565796, -0.3680664896965027, -0.37539637088775635, -0.3481137156486511]