Epoch: 2-3, Loss: 93.2991714477539, Lr: 0.001 , 
 ,Threshold: 
[-0.0772337019443512, -0.12686361372470856, -0.11623595654964447, -0.09943117946386337, -0.10752150416374207, -0.11694055050611496, -0.09850752353668213, -0.1133761927485466, -0.1221974566578865, -0.12012027204036713, -0.10667897015810013, -0.11936833709478378, -0.13603182137012482, -0.08963864296674728, -0.11512508243322372, -0.11950699985027313, -0.1099882647395134, -0.12036845833063126, -0.10306525975465775, -0.11136546730995178, -0.11813990026712418, -0.09583362936973572, -0.09899062663316727, -0.1086924597620964, -0.12138830125331879, -0.11789093166589737, -0.10738030821084976, -0.1279112845659256, -0.11709703505039215, -0.11045417934656143, -0.09572682529687881, -0.11198417842388153, -0.10084747523069382, -0.12170786410570145, -0.10694567859172821, -0.1117706373333931, -0.12140824645757675, -0.12256290018558502, -0.11097325384616852, -0.10984921455383301, -0.11556164920330048, -0.11007110029459, -0.10141585767269135, -0.11097823828458786, -0.12222398072481155, -0.12164139747619629, -0.10705342888832092, -0.11024123430252075, -0.1101844385266304, -0.09834173321723938, -0.12192424386739731, -0.10251295566558838, -0.11081171780824661, -0.11908192932605743, -0.1057434007525444, -0.11266380548477173, -0.10717950016260147, -0.10908667743206024, -0.11757736653089523, -0.11800192296504974, -0.10206930339336395, -0.11350011825561523, -0.12182443588972092, -0.09638931602239609, -0.09183914959430695, -0.09733602404594421, -0.1232403963804245, -0.11818361282348633, -0.11914161592721939, -0.1103745698928833, -0.11359573900699615, -0.12341524660587311, -0.08846031129360199, -0.10336672514677048, -0.11627494543790817, -0.1109088659286499, -0.09428606182336807, -0.10725242644548416, -0.0861687883734703, -0.10825172066688538, -0.12509813904762268, -0.10827627778053284, -0.10224072635173798, -0.12470079958438873, -0.10927174985408783, -0.11530232429504395, -0.09221646934747696, -0.1044343113899231, -0.12253382056951523, -0.10844259709119797, -0.10484571754932404, -0.10225158929824829, -0.0892539769411087, -0.12333851307630539, -0.09881539642810822, -0.1199074536561966, -0.10458771139383316, -0.11111970990896225, -0.11275745183229446, -0.10954844206571579, -0.11216151714324951, -0.12014281004667282, -0.09908467531204224, -0.11593218147754669, -0.11200456321239471, -0.10085320472717285, -0.10910643637180328, -0.10435555130243301, -0.09159843623638153, -0.09640131145715714, -0.10720840096473694, -0.10684814304113388, -0.12151381373405457, -0.11277814209461212, -0.10456667840480804, -0.11882951855659485, -0.12803219258785248, -0.10602869838476181, -0.11350758373737335, -0.11334791779518127, -0.12315473705530167, -0.11069194972515106, -0.11323005706071854, -0.09045588970184326, -0.09042001515626907, -0.09034960716962814, -0.09328624606132507, -0.08573225885629654, -0.0593932680785656, -0.06613485515117645, -0.00731454836204648, 0.024497702717781067, 0.04837940260767937, 0.07453148066997528, 0.10315527766942978, 0.11222651600837708, 0.12395180016756058, 0.12890134751796722, 0.11515776813030243, 0.11698464304208755, 0.13901616632938385, 0.11182495206594467, 0.14226318895816803, 0.13256844878196716, 0.13759693503379822, 0.13738489151000977, 0.12736725807189941, 0.12244408577680588, 0.1298273801803589, 0.12734149396419525, 0.13001246750354767, 0.14063876867294312, 0.1182863786816597, 0.13027523458003998, 0.13438548147678375, 0.11651983112096786, 0.11857247352600098, 0.12451633810997009, 0.13764841854572296, 0.12885425984859467] 
 , Step size: 
 [-0.1063532754778862, -0.10914995521306992, -0.11795869469642639, -0.1178239956498146, -0.10779129713773727, -0.10270363092422485, -0.11433294415473938, -0.10508736968040466, -0.11662967503070831, -0.0990840271115303, -0.09012990444898605, -0.08836157619953156, -0.09783842414617538, -0.09657522290945053, -0.10893690586090088, -0.10360883176326752, -0.12370119243860245, -0.11024969071149826, -0.07782715559005737, -0.09656777232885361, -0.1001076027750969, -0.11349152773618698, -0.11050129681825638, -0.09756128489971161, -0.11208689957857132, -0.11278101056814194, -0.11026649922132492, -0.09148353338241577, -0.08764967322349548, -0.08452823758125305, -0.08981087058782578, -0.0835534855723381, -0.08541872352361679, -0.0813949704170227, -0.07526229321956635, -0.07337456196546555, -0.06742740422487259, -0.05756025388836861, -0.05520092323422432, -0.056296560913324356, -0.10000105947256088, -0.06667590886354446, -0.08896397799253464, -0.09243316948413849, -0.10473417490720749, -0.08606719970703125, -0.09000873565673828, -0.08158982545137405, -0.09268830716609955, -0.09098198264837265, -0.09697780758142471, -0.07978079468011856, -0.07460163533687592, -0.07332470268011093, -0.0909212976694107, -0.08755045384168625, -0.07449933886528015, -0.06930883973836899, -0.07220310717821121, -0.05335119366645813, -0.07966771721839905, -0.04729141667485237, -0.06197046861052513, -0.05195365101099014, -0.03984969109296799, -0.029656091704964638, -0.02308778464794159, -0.018536798655986786, 0.004254442173987627, -0.008021588437259197, 0.015978794544935226, 0.008208115585148335, 0.02146001160144806, 0.021490739658474922, 0.0289701446890831, 0.026859112083911896, 0.037765372544527054, 0.0221417136490345, 0.021210094913840294, 0.03229968249797821, 0.043237414211034775, 0.03898894414305687, 0.04380827024579048, 0.03509441390633583, 0.03205745294690132, 0.05431623011827469, 0.038399893790483475, 0.03753257542848587, 0.053632088005542755, 0.05314026027917862, 0.06831670552492142, 0.049649033695459366, 0.06510820984840393, 0.07364656031131744, 0.050790559500455856, 0.04759787395596504, 0.053608085960149765, 0.035293929278850555, 0.0443660169839859, 0.05906267091631889, 0.059083499014377594, 0.04968532174825668, 0.04782942309975624, 0.054454073309898376, 0.05806727707386017, 0.05906841531395912, 0.0631113350391388, 0.04437948390841484, 0.04693799838423729, 0.036871008574962616, 0.043303340673446655, 0.031750380992889404, 0.016592347994446754, 0.002538430504500866, -0.008683844469487667, -0.016406681388616562, -0.03239699453115463, -0.020938895642757416, -0.040395092219114304, -0.05648640915751457, -0.07526159286499023, -0.07616902887821198, -0.0828493982553482, -0.10272099077701569, -0.09069385379552841, -0.09158726781606674, -0.11177948862314224, -0.1104610487818718, -0.11201213300228119, -0.12480594217777252, -0.13417434692382812, -0.1050676554441452, -0.14406582713127136, -0.12475281208753586, -0.11805997788906097, -0.1300596445798874, -0.12694866955280304, -0.15006054937839508, -0.14599943161010742, -0.14610236883163452, -0.15053746104240417, -0.13436418771743774, -0.14593780040740967, -0.1357504278421402, -0.13445724546909332, -0.12957073748111725, -0.13303807377815247, -0.1353932023048401, -0.13505931198596954, -0.13354696333408356, -0.13171051442623138, -0.14474131166934967, -0.1264563649892807, -0.13138073682785034, -0.14873912930488586, -0.14154565334320068, -0.1375650018453598, -0.14307984709739685, -0.1512279063463211, -0.131016805768013]