Epoch: 0-3, Loss: 38.52568817138672, Lr: 0.001 , 
 ,Threshold: 
[0.007471642456948757, 0.003380472306162119, -0.006845283322036266, -0.017815997824072838, -0.0005372104933485389, 0.01365571841597557, -0.01350470446050167, -0.0009646410471759737, 0.0035216370597481728, -0.0015139806782826781, 0.005596780218183994, -0.002631768584251404, -0.013453138060867786, -0.0084818284958601, -0.004010498523712158, -0.009569507092237473, -0.005627904552966356, -0.0025936260353773832, 0.001191416522487998, -0.010225964710116386, -0.004250901285558939, 0.003143711481243372, 0.009615580551326275, -0.011869151145219803, 0.00506511889398098, 0.003635004162788391, 0.001653008395805955, -0.0004495940520428121, 0.006039126310497522, 0.0068923095241189, 0.015821119770407677, 0.016053741797804832, -0.013086777180433273, 0.009679506532847881, 0.01417976152151823, -0.001530239125713706, -0.005724235903471708, -0.01633707992732525, 0.0012848032638430595, 0.007786817383021116, 0.003969034645706415, -0.006957975681871176, -0.014853374101221561, 0.004803507588803768, -0.011596234515309334, 0.0032441341318190098, -0.008636927232146263, -0.011054027825593948, -0.012979756109416485, 0.012818186543881893, -0.005892260931432247, 0.02362208254635334, 0.011099043302237988, -0.001712690107524395, 0.006890388671308756, -0.004954233765602112, -0.012264966033399105, 0.010035036131739616, 0.0012830395717173815, 0.006872166413813829, -0.004020293243229389, -0.0033139074221253395, 0.011156088672578335, -0.02729668654501438, -0.0028626592829823494, 0.009069301187992096, 0.014474514871835709, 0.007346108555793762, -0.004003840498626232, -0.0012383221182972193, -0.025821447372436523, -0.006443022284656763, 0.004719160497188568, 0.01107245497405529, -0.008796531707048416, -0.0026711737737059593, -0.0050460356287658215, -0.018353860825300217, 0.007448500022292137, 0.011888560838997364, -0.0038471869193017483, 0.006105426233261824, -0.0029127742163836956, 0.0026753407437354326, -0.007584891282021999, 0.011996232904493809, -0.0107805747538805, -0.013578989543020725, -0.013193481601774693, -0.005743281450122595, 0.0011354051530361176, -0.028901973739266396, 0.006251380313187838, -0.010935984551906586, 0.01951054111123085, 0.016625143587589264, 0.014100520871579647, -0.010512822307646275, -0.00888746790587902, -0.007891586050391197, -0.0062593561597168446, -0.0021838820539414883, 0.014883965253829956, 0.00782597716897726, -0.01477549597620964, 0.015153033658862114, 0.0024476852267980576, 0.005468575283885002, -0.0011228800285607576, 0.0041884770616889, -0.0005228662048466504, 0.015372502617537975, -0.012219806201756, -0.007080768700689077, 0.00035324861528351903, 0.011321987956762314, -0.019550740718841553, 0.013928664848208427, 0.012444866821169853, -0.006080896593630314, 0.0014374128077179193, -0.014047414995729923, -0.022360527887940407, -0.008422999642789364, -0.0013493923470377922, 0.0026489170268177986, 0.004861936438828707, -0.01971776969730854, -0.008074204437434673, -0.007681852672249079, -0.011510618962347507, -0.004676315002143383, -0.004524419084191322, -0.006314393598586321, -0.00448217336088419, 0.0074480813927948475, -0.0072719138115644455, -0.021236436441540718, 0.01275151502341032, -0.004751693457365036, -0.006162446923553944, 0.01177639327943325, -0.015646398067474365, 0.012203002348542213, -0.008693025447428226, 0.0014662931207567453, -0.001104589900933206, -0.009482753463089466, 0.009056271985173225, -0.014842779375612736, 0.014733006246387959, 0.00884716771543026, -0.023787450045347214, 0.005508172791451216, -0.012080615386366844, -0.012407290749251842, 0.00803412590175867, -0.002456875052303076, 0.0035820540506392717, -0.02079925313591957, -0.011226138100028038, 0.0016118725761771202, 0.0004898663028143346, 0.0012399216648191214, -0.001999467145651579, -0.007955724373459816, 0.0021702165249735117, 0.016179390251636505, -0.014082534238696098, 0.0068135857582092285, -0.023181341588497162, -0.014411307871341705, 0.008312036283314228, -0.024541690945625305, -0.009348861873149872, 0.006965359672904015, -0.023377152159810066, -0.011191264726221561, 0.0013488843105733395, -0.0049902391619980335, 0.007191167678683996, -0.007611354812979698, -0.00024262495571747422, -0.008345420472323895, -0.009863270446658134, -0.008263600058853626, -0.003663155250251293, -0.011634279042482376, 0.004109497647732496, 0.0010468076216056943, -0.023013833910226822, 0.016879890114068985, -0.0043187011033296585, 0.005500804167240858, -0.012915895320475101, 0.022641979157924652, 0.015810897573828697, -0.00947734247893095, -0.014290891587734222, 0.00041357119334861636, -0.01404078584164381, 0.011661808006465435, 0.006160976830869913, -0.005304764956235886, -0.004670651163905859, -0.002821338828653097, -0.01163902971893549, -0.016734320670366287, 0.001564364181831479, 0.000834536855109036, -0.013918726705014706, -0.00886919628828764, -0.009334655478596687, 0.001130599295720458, -0.031200075522065163, -0.004274354781955481, -0.006815167143940926, 0.0029089453164488077, -0.019767124205827713, -0.002965404884889722, -0.009723031893372536, -0.020202184095978737, -0.003974245395511389, -0.003468424081802368, 0.0032989727333188057, 0.004396973177790642, 0.011867339722812176, 0.0012835890520364046, -0.0012371087213978171, -0.012046437710523605, -0.007333796937018633, -0.01774248108267784, 0.00321761192753911, 0.01166566926985979, -0.020881807431578636, -0.0006428110646083951, -0.01170657854527235, 0.000201654271222651, 0.00488551938906312, -0.023041971027851105, -0.005760530009865761, 0.0030710373539477587, -0.0015742229297757149, -0.0022907231468707323, -0.004679983016103506, -0.008051597513258457, -0.005455930717289448, 0.0001103776739910245, -0.019138915464282036, 0.009527894668281078, -0.003436509519815445, -0.007462457288056612, -0.008511727675795555, 0.005013937130570412, -0.02072899229824543, 0.009302620775997639, -0.013711041770875454, 0.005088399164378643, -0.01251701544970274, -0.013609388843178749, -0.007818381302058697, -0.013683742843568325, 0.0008499776013195515, -0.00546635314822197, -0.004446075297892094, -0.007977205328643322, -0.001313369837589562, -0.005399941001087427, -0.01794636808335781, -0.0034158173948526382, 0.008214525878429413, -0.005757786799222231, -0.013133995234966278, -0.010639598593115807, -0.008888364769518375, -0.013185776770114899, -0.008602924644947052, -0.012409689836204052, -0.005206416826695204, -0.014091312885284424, -0.005063772201538086, -0.004582784604281187, -0.01590658351778984, 0.02020404301583767, 0.00383581081405282, 0.009518376551568508, -0.003363539231941104, -0.002082963241264224, -0.0027667563408613205, 0.0037735283840447664, 0.0041960496455430984, -0.0006467080092988908, 0.0035385629162192345, -0.0008248987724073231, 0.003883286379277706, 0.009137854911386967, -0.009409795515239239, 0.00853587407618761, 0.010296570137143135, -0.011112901382148266, -0.02068961039185524, 0.007648366037756205, -0.008830202743411064, 0.00810685008764267, -0.0041974433697760105, 0.01529322937130928, 0.016838043928146362, 0.0053803324699401855, -0.013117371127009392, 0.006635268684476614, -0.005680589005351067, -0.005837359931319952, 0.006203280761837959, -0.0075027295388281345, 0.011090908199548721, -0.0004966888227500021, -0.010200245305895805, 0.0011955160880461335, -0.0071536521427333355, 0.016978351399302483] 
 , Step size: 
 [-0.0007127411663532257, -0.00661150086671114, -0.005163276568055153, -0.014038380235433578, -0.014456008560955524, -0.0033282313961535692, 0.007508657872676849, -0.011534500867128372, 0.005343176424503326, 0.002128574065864086, -0.005298750475049019, 0.004516263958066702, -0.008541998453438282, 0.008215847425162792, 0.005297160241752863, 0.009695133194327354, 0.005979170091450214, -0.00020184466848149896, 0.005913297645747662, -0.008556186221539974, -0.00027313397731631994, 0.009985456243157387, 0.0010209582978859544, 0.0023887406568974257, 0.005591811146587133, 0.007568421307951212, -0.014198016375303268, -0.004461164586246014, 0.0036562064196914434, 0.0003427902120165527, -0.0013803394977003336, 0.016210388392210007, -0.01211799867451191, -0.016311660408973694, -0.020344965159893036, 0.027135688811540604, -0.01291617564857006, 0.004876508843153715, -0.011214040219783783, -0.013285975903272629, 0.003124778624624014, 0.004801797214895487, 0.006496629677712917, -0.015420647338032722, -0.0058787064626812935, -0.007792230695486069, 0.0010451080743223429, 0.007784941233694553, -0.005938135087490082, -0.008024652488529682, -0.02521471679210663, 0.01812310703098774, 0.0009141702321358025, -0.00021277833729982376, 0.013050448149442673, -0.009017223492264748, 0.009490455500781536, -0.005216175224632025, 0.0009579472825862467, -0.0069146291352808475, -0.02090742252767086, 0.014027886092662811, -0.024677878245711327, -0.00023231853265315294, 0.0023010263685137033, 0.0027917439583688974, 0.0016412974800914526, 0.01539816427975893, -0.010417432524263859, -0.020925911143422127, -0.004244200885295868, 0.011901059187948704, -0.012499116361141205, 0.0045387400314211845, -0.0012939057778567076, -0.01587303914129734, -0.010316351428627968, -0.00969759002327919, 0.014732207171618938, -0.02026580460369587, -0.004943497478961945, -0.009649318642914295, 0.013259323313832283, -0.009878212586045265, 0.005236260127276182, -0.00419768737629056, 0.021326832473278046, 0.016469253227114677, -0.009653192013502121, -0.0017505617579445243, 0.0047297351993620396, -0.008703245781362057, -0.0010654302313923836, -0.013902352191507816, -0.01122569851577282, 0.004742899443954229, 0.00592765212059021, -0.008312197402119637, 0.00818310584872961, 0.003071676939725876, 0.0014037368819117546, 0.017991119995713234, -0.005153411068022251, -0.0027009102050215006, 0.012903694994747639, -0.005344056989997625, 0.005559725221246481, 0.015451044775545597, 0.0034455007407814264, 0.011172860860824585, -0.017232690006494522, -0.001605371362529695, 0.0005867955624125898, 0.006956045515835285, -0.004099542740732431, -0.0018831540364772081, -0.0041660829447209835, 0.010749874636530876, -0.005556832067668438, -0.015014790929853916, -0.009000368416309357, -0.013178421184420586, 0.001992506207898259, 0.012458037585020065, 0.020603416487574577, -0.006751007866114378, 0.01528629008680582, -0.007200269959867001, 0.012562643736600876, -0.001500523998402059, 0.008028501644730568, 0.0004758742288686335, 0.010254750959575176, 0.0031281677074730396, 0.0036292283330112696, 0.006885075010359287, 0.0076597449369728565, -0.00037035613786429167, 0.017045816406607628, 0.0014538379618898034, -0.010797636583447456, -0.019483700394630432, 0.014516185969114304, 0.012290626764297485, 0.017415635287761688, 0.006408528424799442, -0.013212120160460472, -0.0036840231623500586, 0.02839483879506588, -0.004024885594844818, 0.006136773154139519, 0.010271633975207806, 1.3731769286096096e-05, -0.029754137620329857, 0.014653535559773445, 0.0007788196089677513, 0.008739162236452103, -0.007255599368363619, -0.02338186837732792, 0.0064283572137355804, -0.011591905727982521, 0.0002132240915670991, -0.03325982019305229, -0.00016387132927775383, -0.01010617520660162, -0.014259425923228264, 0.0064748674631118774, -0.005228282883763313, -0.00782407633960247, -0.005674451589584351, -0.025989893823862076, -0.009954335168004036, 0.0017506559379398823, 0.0011258922750130296, 0.003228997578844428, -0.008856338448822498, -8.556077955290675e-05, 0.004977754317224026, -0.004017948638647795, -0.026259634643793106, 0.0012823983561247587, -0.019014516845345497, -0.01380306575447321, -0.010289153084158897, 0.0049338978715240955, -0.010415321215987206, 0.02026986889541149, 0.00030941941076889634, -0.0008577400003559887, 0.013165357522666454, -0.00028575985925272107, -0.01685236021876335, 0.005155307240784168, 0.01046706922352314, 0.0009829511400312185, -0.019729292020201683, -0.003731164848431945, -0.007855535484850407, -0.0027163252234458923, 0.006376271601766348, -0.01077900268137455, -0.02226518839597702, -0.019506413489580154, 0.007187525741755962, -0.009484927169978619, -0.013873604126274586, -0.012303822673857212, 0.022518159821629524, -0.0031873933039605618, 0.02229105681180954, -0.005630732513964176, -0.0007441106718033552, 0.0046057673171162605, -0.00789750088006258, 0.002538416301831603, -0.010323643684387207, -0.01283204834908247, 0.014370173215866089, -0.005817554425448179, -0.010072512552142143, 0.005387148819863796, -0.0026027963031083345, -0.021397709846496582, -0.024382514879107475, -0.01682850904762745, -0.020643312484025955, -0.015750499442219734, -0.01675458811223507, -0.002669384703040123, -0.0065012164413928986, -0.002682408783584833, -0.012197555042803288, -0.008446174673736095, -0.015831273049116135, -0.020175756886601448, 0.00864784512668848, -0.0060629043728113174, -0.011851656250655651, 0.017939934507012367, 0.003329564817249775, 0.007756215054541826, 0.0005438633379526436, -0.01592862233519554, 0.006359996739774942, 0.004512490704655647, -0.007203121669590473, 0.008298536762595177, -0.00010143849067389965, -0.01787123642861843, -0.009870911948382854, 0.0009356113150715828, -0.012025278061628342, 0.0003140494227409363, -0.006983904168009758, -0.013728158548474312, -0.003449392504990101, -0.012793837115168571, 0.0037087390664964914, 0.013732550665736198, -0.012436524964869022, -0.0026167116593569517, 0.012172810733318329, 0.01377941481769085, 0.006587204989045858, 0.004530507139861584, -0.02130916714668274, -0.0006866230396553874, -0.010250531136989594, 0.007295591756701469, -0.002653661649674177, -0.0038011297583580017, 0.013511596247553825, -0.003081919625401497, 0.0042327698320150375, 0.006074115633964539, -0.0018184413202106953, 0.00789239164441824, 0.009515427052974701, 0.011587893590331078, -0.008749428205192089, -0.008119378238916397, -0.011822272092103958, 0.0016402867622673512, 0.001940824557095766, -0.012579943053424358, -0.0021138025913387537, -0.006454133428633213, -0.010604080744087696, -0.004514627158641815, 0.0054725902155041695, -0.009306126274168491, -0.005869914777576923, 0.023960361257195473, -0.011441253125667572, -0.012240554206073284, 0.007232981268316507, -0.015253088437020779, 0.002092607319355011, -0.010415256954729557, -2.7557776775211096e-05, -0.011514664627611637, 0.0024009926710277796, -0.005492871627211571, -0.0035161515697836876, -0.002881103428080678, -0.005358876660466194, -0.01091381162405014, -0.010572274215519428, -0.01275869645178318, -0.015417770482599735, -0.008732235059142113, -0.017906952649354935, -0.00797759834676981, -0.0010619075037539005, 0.002008776180446148, -0.011216656304895878, 0.014681454747915268, -0.0018219477497041225, 0.0026127174496650696, 0.015335410833358765]