Epoch: 4-3, Loss: 19.635581970214844, Lr: 0.001 , 
 ,Threshold: 
[-0.21783097088336945, -0.2210756540298462, -0.23084688186645508, -0.24165411293506622, -0.2238503396511078, -0.2101556360721588, -0.2375129610300064, -0.2247275710105896, -0.22018741071224213, -0.22498677670955658, -0.21771033108234406, -0.22620853781700134, -0.23747026920318604, -0.2327411025762558, -0.22831544280052185, -0.23370224237442017, -0.22997123003005981, -0.22693191468715668, -0.22300873696804047, -0.2345343828201294, -0.22856727242469788, -0.22124454379081726, -0.21476225554943085, -0.2361026257276535, -0.21888868510723114, -0.2199653685092926, -0.2215651273727417, -0.22362256050109863, -0.21707668900489807, -0.2163570076227188, -0.20772656798362732, -0.20776109397411346, -0.2370799332857132, -0.21448445320129395, -0.21006989479064941, -0.22562013566493988, -0.2295130491256714, -0.2402098923921585, -0.2225896418094635, -0.21611471474170685, -0.21993957459926605, -0.23088042438030243, -0.23874753713607788, -0.2189422994852066, -0.23578928411006927, -0.22111862897872925, -0.23312129080295563, -0.2356332540512085, -0.2376863956451416, -0.21204490959644318, -0.23093152046203613, -0.2017943561077118, -0.21438045799732208, -0.22728314995765686, -0.2187895029783249, -0.23073279857635498, -0.23816248774528503, -0.21603183448314667, -0.22489094734191895, -0.21936604380607605, -0.23033210635185242, -0.22962969541549683, -0.2151777446269989, -0.25362589955329895, -0.2292173057794571, -0.21720853447914124, -0.21174579858779907, -0.2188471108675003, -0.2301430106163025, -0.22731056809425354, -0.2518213093280792, -0.23236893117427826, -0.22111767530441284, -0.21468374133110046, -0.23444940149784088, -0.22824981808662415, -0.23052746057510376, -0.24375325441360474, -0.21783164143562317, -0.21323499083518982, -0.2287835031747818, -0.21859662234783173, -0.22754551470279694, -0.2218574434518814, -0.23199377954006195, -0.21224121749401093, -0.23502202332019806, -0.23760022222995758, -0.23706795275211334, -0.2294616848230362, -0.2223481982946396, -0.2520863711833954, -0.2165289670228958, -0.23313802480697632, -0.20207622647285461, -0.20460079610347748, -0.20683883130550385, -0.23112858831882477, -0.22906824946403503, -0.22785653173923492, -0.2259567528963089, -0.2215210348367691, -0.20411929488182068, -0.21105344593524933, -0.23358604311943054, -0.20329532027244568, -0.21606723964214325, -0.21304689347743988, -0.21962527930736542, -0.21422572433948517, -0.21885505318641663, -0.20286649465560913, -0.23049890995025635, -0.2253776490688324, -0.21795956790447235, -0.20698459446430206, -0.2379027009010315, -0.2044387310743332, -0.20579934120178223, -0.22401680052280426, -0.21594728529453278, -0.23059144616127014, -0.2400951087474823, -0.22539691627025604, -0.2184411585330963, -0.21453259885311127, -0.2123374193906784, -0.23706863820552826, -0.2255868911743164, -0.22538690268993378, -0.22947736084461212, -0.22291772067546844, -0.22303912043571472, -0.22513173520565033, -0.22372682392597198, -0.21229684352874756, -0.22734221816062927, -0.2416943907737732, -0.20815250277519226, -0.22607506811618805, -0.2277970314025879, -0.20974691212177277, -0.2374083697795868, -0.2089083045721054, -0.22952598333358765, -0.21873867511749268, -0.22049304842948914, -0.22902871668338776, -0.21063870191574097, -0.2347184270620346, -0.20534344017505646, -0.21141396462917328, -0.24409103393554688, -0.21482202410697937, -0.23383364081382751, -0.23315569758415222, -0.2128257155418396, -0.22344975173473358, -0.21744950115680695, -0.24347777664661407, -0.23292690515518188, -0.2203138917684555, -0.22170786559581757, -0.22118620574474335, -0.22463761270046234, -0.2307053804397583, -0.2206660360097885, -0.20679986476898193, -0.2371940314769745, -0.21646755933761597, -0.24663501977920532, -0.23797127604484558, -0.21538007259368896, -0.24961668252944946, -0.23372779786586761, -0.2177078276872635, -0.24893026053905487, -0.23729756474494934, -0.22570392489433289, -0.23218519985675812, -0.22012846171855927, -0.23513339459896088, -0.22797545790672302, -0.23612704873085022, -0.23763294517993927, -0.236084446310997, -0.2314513474702835, -0.23941481113433838, -0.22372177243232727, -0.2268625646829605, -0.25102072954177856, -0.21124708652496338, -0.2325904369354248, -0.22293229401111603, -0.2415963113307953, -0.2063969522714615, -0.2135881632566452, -0.2391423135995865, -0.2443363070487976, -0.23007051646709442, -0.2451058328151703, -0.22014838457107544, -0.22643396258354187, -0.2369259148836136, -0.2371692955493927, -0.23532237112522125, -0.24412964284420013, -0.247899129986763, -0.2310277670621872, -0.23166966438293457, -0.2464102953672409, -0.24134238064289093, -0.24178488552570343, -0.23135700821876526, -0.26123175024986267, -0.23640897870063782, -0.23897333443164825, -0.22926421463489532, -0.25196704268455505, -0.23530034720897675, -0.24220068752765656, -0.25289416313171387, -0.23683512210845947, -0.23656752705574036, -0.22984690964221954, -0.22876247763633728, -0.22121106088161469, -0.2317236363887787, -0.23419532179832458, -0.2449292689561844, -0.24014419317245483, -0.2505630552768707, -0.22962434589862823, -0.22120192646980286, -0.25376152992248535, -0.2335701435804367, -0.24471639096736908, -0.2328972965478897, -0.2282090187072754, -0.25390031933784485, -0.23844222724437714, -0.2295732945203781, -0.23418985307216644, -0.23487181961536407, -0.23722383379936218, -0.24053721129894257, -0.23791512846946716, -0.23245562613010406, -0.25182220339775085, -0.22328874468803406, -0.23609597980976105, -0.2399476170539856, -0.24078813195228577, -0.22702673077583313, -0.2524193823337555, -0.22197498381137848, -0.24431611597537994, -0.22471128404140472, -0.23884622752666473, -0.2409149706363678, -0.2337554395198822, -0.2372445911169052, -0.22124899923801422, -0.22514782845973969, -0.2212766706943512, -0.22163188457489014, -0.21122896671295166, -0.21097099781036377, -0.21759934723377228, -0.1974935680627823, -0.17892317473888397, -0.1842653453350067, -0.1825275421142578, -0.16908752918243408, -0.15474708378314972, -0.14479592442512512, -0.12379078567028046, -0.10847679525613785, -0.07868610322475433, -0.06119046360254288, -0.020050736144185066, 0.01852555200457573, 0.054478663951158524, 0.14684125781059265, 0.1930859237909317, 0.2695961892604828, 0.3221367597579956, 0.3554110825061798, 0.3614116907119751, 0.3652982711791992, 0.3604104518890381, 0.3494892716407776, 0.34768426418304443, 0.3372083306312561, 0.3360225558280945, 0.33542099595069885, 0.3112054467201233, 0.3234095573425293, 0.3194534480571747, 0.29165130853652954, 0.27636539936065674, 0.29855918884277344, 0.2741875946521759, 0.2862778604030609, 0.2601969838142395, 0.27641603350639343, 0.27437624335289, 0.25516277551651, 0.21868018805980682, 0.23721866309642792, 0.20750515162944794, 0.2064450979232788, 0.2171984314918518, 0.1911427527666092, 0.2113889902830124, 0.20003733038902283, 0.1817483901977539, 0.19499284029006958, 0.1888432651758194, 0.21491838991641998] 
 , Step size: 
 [-0.22018329799175262, -0.22677220404148102, -0.22630219161510468, -0.23542068898677826, -0.2374723255634308, -0.22460706532001495, -0.21269215643405914, -0.23235984146595, -0.21553798019886017, -0.2198651134967804, -0.22844643890857697, -0.21722818911075592, -0.2273128181695938, -0.2084367424249649, -0.21054434776306152, -0.20683129131793976, -0.20869043469429016, -0.21450291574001312, -0.20922638475894928, -0.2226801961660385, -0.21435001492500305, -0.20340362191200256, -0.21229952573776245, -0.21186396479606628, -0.2102992981672287, -0.2106974571943283, -0.234662264585495, -0.22566844522953033, -0.21821793913841248, -0.21913208067417145, -0.2165922373533249, -0.19498009979724884, -0.21991944313049316, -0.22072161734104156, -0.22279495000839233, -0.17747123539447784, -0.22000733017921448, -0.2010292112827301, -0.21612361073493958, -0.21834790706634521, -0.20212841033935547, -0.20068275928497314, -0.19902746379375458, -0.22014868259429932, -0.20504803955554962, -0.20401470363140106, -0.1928611844778061, -0.18432047963142395, -0.19572821259498596, -0.19416218996047974, -0.2070431411266327, -0.15807732939720154, -0.1750451624393463, -0.17630460858345032, -0.16333554685115814, -0.18492326140403748, -0.1660403162240982, -0.17974616587162018, -0.173238143324852, -0.18065063655376434, -0.19402192533016205, -0.1599421203136444, -0.1991998255252838, -0.1755659133195877, -0.17332442104816437, -0.1739962100982666, -0.1760769784450531, -0.1626175045967102, -0.1889592707157135, -0.2001175433397293, -0.18410737812519073, -0.16845479607582092, -0.19336526095867157, -0.17685025930404663, -0.1836409717798233, -0.19874052703380585, -0.1939333826303482, -0.19361327588558197, -0.16941049695014954, -0.20403306186199188, -0.18688973784446716, -0.18792323768138885, -0.16480723023414612, -0.18765108287334442, -0.1723158359527588, -0.18114499747753143, -0.15406593680381775, -0.15614067018032074, -0.18064460158348083, -0.17002952098846436, -0.16080990433692932, -0.17001578211784363, -0.15598630905151367, -0.15856614708900452, -0.14410217106342316, -0.12008635699748993, -0.11505407094955444, -0.1277935951948166, -0.10840358585119247, -0.11035915464162827, -0.10635992139577866, -0.08152839541435242, -0.09397757798433304, -0.08658264577388763, -0.071106918156147, -0.07509450614452362, -0.060460254549980164, -0.04731753468513489, -0.05530276149511337, -0.04267606884241104, -0.06518901139497757, -0.04488108679652214, -0.03841627389192581, -0.026827406138181686, -0.03119535557925701, -0.02512226812541485, -0.023991623893380165, -0.004768948070704937, -0.017383478581905365, -0.02440650761127472, -0.01413431204855442, -0.015653759241104126, -0.002028061542659998, 0.013279065489768982, 0.024612221866846085, -0.00010553067841101438, 0.024125687777996063, 0.0025922288186848164, 0.023543184623122215, 0.011307666078209877, 0.02235531248152256, 0.01593274436891079, 0.029009439051151276, 0.024680064991116524, 0.02806098386645317, 0.03415355831384659, 0.03728734329342842, 0.030667178332805634, 0.049106888473033905, 0.03622245788574219, 0.027690976858139038, 0.022277353331446648, 0.052069924771785736, 0.05527694895863533, 0.05958330258727074, 0.04812997952103615, 0.025772469118237495, 0.035510919988155365, 0.06706613302230835, 0.03394707664847374, 0.04249759390950203, 0.04384659603238106, 0.03281780332326889, 0.002241995185613632, 0.04569002985954285, 0.03087306208908558, 0.03805675357580185, 0.02141275256872177, 0.00400456553325057, 0.03077792562544346, 0.015106996521353722, 0.026587260887026787, -0.008453406393527985, 0.025555875152349472, 0.016105661168694496, 0.012538964860141277, 0.03372170403599739, 0.0233977772295475, 0.021005280315876007, 0.02366100810468197, 0.004348072689026594, 0.02000812068581581, 0.031620535999536514, 0.02510266751050949, 0.032374218106269836, 0.020575111731886864, 0.025498513132333755, 0.028359614312648773, 0.012456810101866722, -0.012369177304208279, 0.013431466184556484, -0.006723636295646429, 6.889356882311404e-05, 0.0030030712950974703, 0.017333965748548508, 2.546061296015978e-06, 0.02846517600119114, 0.005713985301554203, 0.00224590627476573, 0.014394381083548069, -0.0010626105358824134, -0.020105060189962387, -0.0011437952052801847, 0.00022159202490001917, -0.013300354592502117, -0.037475645542144775, -0.02291041985154152, -0.027092818170785904, -0.02164405956864357, -0.011972310021519661, -0.027827173471450806, -0.037210721522569656, -0.031943079084157944, -0.010365677066147327, -0.02299252338707447, -0.02717544697225094, -0.02538278140127659, 0.006749426480382681, -0.01906062290072441, 0.006122010760009289, -0.022791912779211998, -0.019133886322379112, -0.015223558992147446, -0.02878623455762863, -0.026543907821178436, -0.034769345074892044, -0.03826024383306503, -0.01297968253493309, -0.03529313951730728, -0.04108621925115585, -0.027494704350829124, -0.03709351271390915, -0.05816730856895447, -0.06279310584068298, -0.05687327682971954, -0.0622311495244503, -0.059232551604509354, -0.061533354222774506, -0.04873783886432648, -0.054139260202646255, -0.05214370787143707, -0.06234631687402725, -0.059354301542043686, -0.06763511896133423, -0.07351969182491302, -0.046522293239831924, -0.06275506317615509, -0.07053226977586746, -0.04217163845896721, -0.06068448722362518, -0.056245096027851105, -0.06563689559698105, -0.08458346873521805, -0.06492350250482559, -0.06980177015066147, -0.08508007973432541, -0.0727737620472908, -0.08306395262479782, -0.10228364169597626, -0.09475771337747574, -0.0868966206908226, -0.10321614891290665, -0.09493604302406311, -0.10681911557912827, -0.11871267855167389, -0.11402236670255661, -0.1296447366476059, -0.12009787559509277, -0.13145971298217773, -0.15535868704319, -0.1556781530380249, -0.15699981153011322, -0.1644737869501114, -0.18516667187213898, -0.20089785754680634, -0.23983018100261688, -0.2323475182056427, -0.2542150616645813, -0.2541239559650421, -0.27075740694999695, -0.281206339597702, -0.27619728446006775, -0.30146437883377075, -0.3034129738807678, -0.30992501974105835, -0.3251768946647644, -0.32199710607528687, -0.3259965777397156, -0.32860296964645386, -0.3526398539543152, -0.3550485670566559, -0.3615875542163849, -0.3504309058189392, -0.35196536779403687, -0.3681291937828064, -0.35919997096061707, -0.3648780584335327, -0.3701496720314026, -0.36459556221961975, -0.3544391095638275, -0.3684718608856201, -0.36371132731437683, -0.3322625756263733, -0.3653675317764282, -0.3635171055793762, -0.34094858169555664, -0.3600594401359558, -0.3390321433544159, -0.34750795364379883, -0.33237525820732117, -0.33944883942604065, -0.3204506039619446, -0.3212326467037201, -0.31495124101638794, -0.3003250062465668, -0.29972362518310547, -0.30168142914772034, -0.2930494546890259, -0.2748963236808777, -0.2762700617313385, -0.24952347576618195, -0.25762078166007996, -0.24621862173080444, -0.22534142434597015, -0.22381795942783356, -0.2371787428855896, -0.20226500928401947, -0.2203589230775833, -0.21821801364421844, -0.2075679749250412]