Epoch: 3-3, Loss: 14.281494140625, Lr: 0.001 , 
 ,Threshold: 
[-0.14693301916122437, -0.14493118226528168, -0.1597593128681183, -0.1452077031135559, -0.14352962374687195, -0.16094066202640533, -0.1709965318441391, -0.1345091611146927, -0.16547681391239166, -0.14864835143089294, -0.16840116679668427, -0.1596439778804779, -0.1488858163356781, -0.14263948798179626, -0.16856591403484344, -0.14412148296833038, -0.14392852783203125, -0.13649563491344452, -0.15377050638198853, -0.14748694002628326, -0.12493618577718735, -0.13638286292552948, -0.12761524319648743, -0.09031499922275543, -0.04839954525232315, 0.0020093382336199284, 0.08220820873975754, 0.16306862235069275, 0.1927281618118286, 0.22467784583568573, 0.2084324210882187, 0.20747233927249908, 0.21142210066318512, 0.19452807307243347, 0.19881559908390045, 0.19079306721687317, 0.18220429122447968, 0.1828300803899765, 0.171176940202713, 0.16845276951789856] 
 , Step size: 
 [-0.14914165437221527, -0.146907240152359, -0.15112197399139404, -0.15907232463359833, -0.13025249540805817, -0.14881134033203125, -0.1519121527671814, -0.15283888578414917, -0.1447603851556778, -0.14513960480690002, -0.16457219421863556, -0.1284959316253662, -0.15049438178539276, -0.14653614163398743, -0.14822524785995483, -0.15573842823505402, -0.14078694581985474, -0.1729651838541031, -0.17941169440746307, -0.18255779147148132, -0.21612553298473358, -0.20614095032215118, -0.23104916512966156, -0.21654120087623596, -0.22482724487781525, -0.2360536754131317, -0.21450179815292358, -0.24136599898338318, -0.224760964512825, -0.2189984917640686, -0.2163246124982834, -0.23075111210346222, -0.21049685776233673, -0.20945174992084503, -0.20337556302547455, -0.19560489058494568, -0.2041662186384201, -0.1740979552268982, -0.20435525476932526, -0.18383944034576416]