Epoch: 6-3, Loss: 1.7735930681228638, Lr: 0.001 , 
 ,Threshold: 
[-0.19953235983848572, -0.19676724076271057, -0.21157880127429962, -0.19687218964099884, -0.19506926834583282, -0.21266619861125946, -0.22271108627319336, -0.18593673408031464, -0.21644634008407593, -0.1989024132490158, -0.2178078591823578, -0.2078990638256073, -0.19539983570575714, -0.18638445436954498, -0.20827192068099976, -0.17809456586837769, -0.16956931352615356, -0.15120413899421692, -0.15374453365802765, -0.12760451436042786, -0.08026140928268433, -0.05922309309244156, -0.012520541436970234, 0.06884746253490448, 0.15385279059410095, 0.23104296624660492, 0.3112359046936035, 0.37542924284935, 0.38567695021629333, 0.39897310733795166, 0.36542990803718567, 0.34885111451148987, 0.3378381133079529, 0.309810996055603, 0.3114933669567108, 0.2967311143875122, 0.27980828285217285, 0.2667999267578125, 0.2520793676376343, 0.2446194589138031] 
 , Step size: 
 [-0.19922298192977905, -0.1982704997062683, -0.2029447853565216, -0.21146085858345032, -0.1836225390434265, -0.2019120156764984, -0.2056676149368286, -0.20795919001102448, -0.20223259925842285, -0.2066027969121933, -0.23195652663707733, -0.20326343178749084, -0.23515096306800842, -0.2460801601409912, -0.26725688576698303, -0.2973320186138153, -0.3094663619995117, -0.36626872420310974, -0.3938748836517334, -0.4116947054862976, -0.4544623792171478, -0.44922444224357605, -0.47426894307136536, -0.45699888467788696, -0.45994383096694946, -0.4640005826950073, -0.4341886043548584, -0.45153090357780457, -0.42400968074798584, -0.4068644940853119, -0.3919350802898407, -0.3942539095878601, -0.3610951602458954, -0.3506729006767273, -0.3458244800567627, -0.3340139389038086, -0.33339923620224, -0.2872476577758789, -0.31346261501312256, -0.28691497445106506]