Epoch: 7-3, Loss: 0.14616335928440094, Lr: 0.001 , 
 ,Threshold: 
[-0.19953252375125885, -0.1967673897743225, -0.21157895028591156, -0.19687233865261078, -0.19506941735744476, -0.2126663476228714, -0.2227112352848053, -0.18593686819076538, -0.21644645929336548, -0.19890251755714417, -0.21780793368816376, -0.2078990787267685, -0.19539983570575714, -0.18638445436954498, -0.2082718014717102, -0.1780943125486374, -0.16956888139247894, -0.15120349824428558, -0.15374362468719482, -0.12760326266288757, -0.0802597776055336, -0.05922115594148636, -0.01251839566975832, 0.06884969770908356, 0.15385496616363525, 0.23104503750801086, 0.31123772263526917, 0.3754308521747589, 0.38567832112312317, 0.3989742398262024, 0.3654308319091797, 0.34885185956954956, 0.33783867955207825, 0.3098115026950836, 0.31151023507118225, 0.3061935007572174, 0.29064977169036865, 0.27757036685943604, 0.26227954030036926, 0.25413548946380615] 
 , Step size: 
 [-0.1992231160402298, -0.19827064871788025, -0.20294493436813354, -0.21146102249622345, -0.18362271785736084, -0.20191220939159393, -0.20566783845424652, -0.20795945823192596, -0.2022329419851303, -0.2066032439470291, -0.23195713758468628, -0.2032642811536789, -0.23515214025974274, -0.24608173966407776, -0.267258882522583, -0.29733437299728394, -0.3094691038131714, -0.36627164483070374, -0.39387792348861694, -0.41169774532318115, -0.4544652998447418, -0.4492272734642029, -0.4742715656757355, -0.45700135827064514, -0.4599460959434509, -0.46400269865989685, -0.4341906011104584, -0.45153266191482544, -0.4240112006664276, -0.4068658649921417, -0.39193621277809143, -0.3942548334598541, -0.36109593510627747, -0.3506735861301422, -0.34584763646125793, -0.34738776087760925, -0.34910911321640015, -0.3033088147640228, -0.3287239074707031, -0.3012332320213318]