Epoch: 1-3, Loss: 0.05383110046386719, Lr: 0.001 , 
 ,Threshold: 
[0.004245528019964695, 0.013002855703234673, 0.015028432011604309, -0.0016147008864209056, -0.00024879921693354845, 0.0008381294319406152, 0.0030054792296141386, -0.008573138155043125, 0.015491814352571964, 0.010457338765263557, 0.006259535904973745, -0.004044623114168644, 0.005881772376596928, -0.015827905386686325, -0.010846626944839954, -0.001614188775420189, 0.0021610879339277744, -0.009303878992795944, 0.009657916612923145, -0.007115024141967297, 0.014527957886457443, 0.0111659811809659, 0.014751467853784561, 0.0066438643261790276, -0.00037419836735352874, 0.017860468477010727, 0.021448839455842972, -0.0053549655713140965, 0.001373648177832365, -0.005852634087204933, 0.008692898787558079, 0.020572466775774956, 0.0014332657447084785, -0.007230935152620077, -0.00117009156383574, 0.014897462911903858, 0.002666263608261943, -0.0031341423746198416, -0.0005754349986091256, -0.020603956654667854, 0.0021716817282140255, 0.004238950088620186, 0.004094608128070831, 0.004111242014914751, 0.0093911187723279, 0.018835224211215973, -0.01339891366660595, 0.0018293148605152965, 0.024819783866405487, 0.006413258612155914, -0.0067140450701117516, -0.0028083068318665028, -0.016875823959708214, -0.002125640632584691, 0.006480530370026827, -0.0023053414188325405, -0.01751328818500042, -0.0015213831793516874, -0.002485511125996709, 0.017667101696133614, 0.023983707651495934, 0.025967992842197418, 0.023594336584210396, 0.00824705883860588, 0.0076805646531283855, 0.03806108608841896, 0.027872731909155846, 0.02251829020678997, 0.012766573578119278, 0.013833734206855297, 0.03552468121051788, 0.04156818613409996, 0.03056475706398487, 0.02843109890818596, 0.03760203719139099, 0.024279136210680008, 0.057562291622161865, 0.04922880604863167, 0.061647821217775345, 0.031633492559194565] 
 , Step size: 
 [-0.0025511118583381176, -0.010865435004234314, -0.0012859927956014872, -0.0005487037124112248, 4.8410969611722976e-05, 0.0010456001618877053, -0.009123751893639565, -0.013760940171778202, -0.021498527377843857, 0.00023251895618159324, -0.004514292813837528, -0.010206952691078186, -0.010545123368501663, 0.011533884331583977, 0.0006767595768906176, 0.006309038959443569, 0.009815613739192486, -0.00425227964296937, 0.004069452174007893, 0.0016667675226926804, 0.0014828104758635163, -0.004562911111861467, 0.015811730176210403, -0.006418304517865181, -0.009171055629849434, -0.004946642555296421, -0.001076991786248982, 0.005026856902986765, 0.00015080081357154995, -0.0022843789774924517, 0.0064051090739667416, 0.0017814014572650194, -0.001421014778316021, -0.0063446625135838985, 0.014959028922021389, -0.0013938474003225565, 0.011721010319888592, 0.00995921716094017, 0.015998518094420433, 0.01076553575694561, -0.011303544975817204, -0.001221920014359057, 0.006540276575833559, -0.008920514024794102, -0.0022717348765581846, -0.002676946111023426, -0.0012699626386165619, -0.013971216976642609, 0.002817122731357813, 0.004059405066072941, 0.0031833071261644363, 0.0024549781810492277, -0.010359196923673153, 0.011797229759395123, 0.00610571913421154, -0.006374419666826725, -0.006561832502484322, 0.009868613444268703, -0.01680464670062065, -0.011304406449198723, -0.013763473369181156, -0.008313242346048355, -0.016268234699964523, -0.03073774091899395, -0.03481331467628479, -0.026936158537864685, -0.023780936375260353, -0.01638093963265419, -0.036193665117025375, -0.019370678812265396, -0.01390810962766409, -0.028426125645637512, -0.0395316518843174, -0.04076660796999931, -0.03543442487716675, -0.05371205881237984, -0.030982792377471924, -0.03498619422316551, -0.05025799944996834, -0.03823933005332947]