Epoch: 8-3, Loss: 0.004580514971166849, Lr: 0.001 , 
 ,Threshold: 
[0.004235481843352318, 0.012994217686355114, 0.015019044280052185, -0.001625409466214478, -0.0002609651128295809, 0.0008234668639488518, 0.0029874034225940704, -0.0085952403023839, 0.015463693998754025, 0.010423040017485619, 0.006216411013156176, -0.004098688252270222, 0.005813052412122488, -0.01591350883245468, -0.010954334400594234, -0.0017487563891336322, 0.001991851720958948, -0.009517151862382889, 0.009387959726154804, -0.007451527286320925, 0.014096935279667377, 0.010619807988405228, 0.014070389792323112, 0.005767700262367725, -0.0014801406068727374, 0.01644103415310383, 0.019639691337943077, -0.007652630098164082, -0.0015781765105202794, -0.009569801390171051, 0.004015765618532896, 0.014696191996335983, -0.0058917333371937275, -0.016108235344290733, -0.011611147783696651, 0.0025477316230535507, -0.010712599381804466, -0.017743144184350967, -0.01598515920341015, -0.03562922030687332, -0.01259583979845047, -0.007831832394003868, -0.0029571412596851587, 0.004281638655811548, 0.016969572752714157, 0.031020676717162132, 0.003953985869884491, 0.023001600056886673, 0.05165158212184906, 0.03836571425199509, 0.034066710621118546, 0.05585786700248718, 0.07111836969852448, 0.11490471661090851, 0.14562807977199554, 0.14969877898693085, 0.13856525719165802, 0.15979309380054474, 0.16956031322479248, 0.1983630359172821, 0.2144925743341446, 0.23013439774513245, 0.250604510307312, 0.253030002117157, 0.266357958316803, 0.3115464448928833, 0.3094403147697449, 0.3126598596572876, 0.3134221136569977, 0.32256019115448, 0.3534252941608429, 0.36960434913635254, 0.36602583527565, 0.36809873580932617, 0.3770594000816345, 0.35919687151908875, 0.3727762699127197, 0.3487379252910614, 0.3419809341430664, 0.3164668381214142] 
 , Step size: 
 [-0.002541998401284218, -0.01085641048848629, -0.001276189461350441, -0.0005376036860980093, 6.098037920310162e-05, 0.001060651382431388, -0.009105244651436806, -0.013738389126956463, -0.02146974951028824, 0.00026753623387776315, -0.00447035813704133, -0.010152000002563, -0.010475288145244122, 0.01162008661776781, 0.0007848328677937388, 0.006443763617426157, 0.009984755888581276, -0.0040393187664449215, 0.004339368548244238, 0.00200263736769557, 0.0019142702221870422, -0.004014532547444105, 0.01649484969675541, -0.005537888500839472, -0.00805887021124363, -0.003515037940815091, 0.0007524730172008276, 0.007340406067669392, 0.0031166882254183292, 0.0014430824667215347, 0.011090782471001148, 0.0076803183183074, 0.0059298621490597725, 0.0025505893863737583, 0.025392157956957817, 0.010959567502140999, 0.025106491521000862, 0.024566954001784325, 0.031409602612257004, 0.025814054533839226, 0.0035032921005040407, 0.01089891791343689, 0.013649776577949524, -0.009096192196011543, -0.00993357039988041, -0.015004690736532211, -0.018555594608187675, -0.03519540652632713, -0.024137601256370544, -0.027925463393330574, -0.037569623440504074, -0.05633494630455971, -0.09908168017864227, -0.1063922569155693, -0.13394032418727875, -0.15873967111110687, -0.16261407732963562, -0.15119308233261108, -0.18955260515213013, -0.19362513720989227, -0.20679397881031036, -0.21574892103672028, -0.24857203662395477, -0.28235405683517456, -0.3009569048881531, -0.3083331286907196, -0.3131304085254669, -0.31418147683143616, -0.3448346257209778, -0.3363332748413086, -0.34065818786621094, -0.3661142885684967, -0.3855431079864502, -0.39218929409980774, -0.3884267508983612, -0.40449556708335876, -0.3659231662750244, -0.3582940101623535, -0.36011138558387756, -0.3678692579269409]