Epoch: 4-3, Loss: 0.03714262694120407, Lr: 0.001 , 
 ,Threshold: 
[0.004245429765433073, 0.013002785854041576, 0.015028356574475765, -0.0016147963469848037, -0.0002489130711182952, 0.0008379895589314401, 0.0030053032096475363, -0.00857335701584816, 0.015491539612412453, 0.010456999763846397, 0.006259101442992687, -0.004045168403536081, 0.00588107667863369, -0.01582879200577736, -0.010847756639122963, -0.0016156166093423963, 0.0021592946723103523, -0.009306132793426514, 0.009655077010393143, -0.007118544541299343, 0.01452348567545414, 0.011160382069647312, 0.014744490385055542, 0.006635020021349192, -0.0003852469380944967, 0.017846455797553062, 0.021431203931570053, -0.005377487279474735, 0.0013450783444568515, -0.005888164509087801, 0.008648611605167389, 0.020516809076070786, 0.0013576832134276628, -0.007326292339712381, -0.0012889646459370852, 0.01474369689822197, 0.0024757597129791975, -0.0033724650274962187, -0.0008711858536116779, -0.02096552401781082, 0.0017181220464408398, 0.0036985534243285656, 0.003459824249148369, 0.00336933764629066, 0.008556795306503773, 0.01791846938431263, -0.014430169947445393, 0.0009062066092155874, 0.024313079193234444, 0.005577817093580961, -0.00657311687245965, -0.000569189025554806, -0.010971984826028347, 0.009535865858197212, 0.026535114273428917, 0.02791198343038559, 0.023555435240268707, 0.050867773592472076, 0.060714930295944214, 0.08943717926740646, 0.10270996391773224, 0.1100359559059143, 0.11247771978378296, 0.1013466939330101, 0.10466542840003967, 0.1390613615512848, 0.13326016068458557, 0.1330227255821228, 0.12943054735660553, 0.13755600154399872, 0.1669674515724182, 0.18160326778888702, 0.1785438060760498, 0.18332980573177338, 0.19763240218162537, 0.18727432191371918, 0.21875855326652527, 0.20394812524318695, 0.20521022379398346, 0.15676674246788025] 
 , Step size: 
 [-0.002551022917032242, -0.010865368880331516, -0.0012859136331826448, -0.0005486130830831826, 4.852011988987215e-05, 0.0010457359021529555, -0.009123580530285835, -0.013760723173618317, -0.021498246118426323, 0.00023286000941880047, -0.004513859283179045, -0.010206407867372036, -0.010544419288635254, 0.011534768156707287, 0.0006778889219276607, 0.0063104587607085705, 0.009817399084568024, -0.004250036086887121, 0.00407228572294116, 0.001670274417847395, 0.001487279892899096, -0.004557294305413961, 0.01581871695816517, -0.00640942482277751, -0.009159953333437443, -0.004932509735226631, -0.0010591598693281412, 0.005049529485404491, 0.00017953729548025876, -0.0022487128153443336, 0.006449556909501553, 0.001837438903748989, -0.001345004653558135, -0.00624889088794589, 0.015077893622219563, -0.0012395329540595412, 0.011911642737686634, 0.010197028517723083, 0.016292791813611984, 0.011123357340693474, -0.010852020233869553, -0.0006832822109572589, 0.007172724697738886, -0.00817882176488638, -0.0014367613475769758, -0.0017567542381584644, -0.00024114757252391428, -0.013043557293713093, 0.0033231128472834826, 0.004886783193796873, 0.003035058034583926, 0.00022832295508123934, -0.016236208379268646, 0.0001828528183978051, -0.013941417448222637, -0.03676395118236542, -0.047958873212337494, -0.04298583045601845, -0.08078419417142868, -0.0842231959104538, -0.09391456097364426, -0.09397468715906143, -0.1069057509303093, -0.12578187882900238, -0.13396260142326355, -0.13040460646152496, -0.13187220692634583, -0.1297982633113861, -0.15621772408485413, -0.14680854976177216, -0.14967887103557587, -0.17353618144989014, -0.19327734410762787, -0.20216169953346252, -0.2028190642595291, -0.22511625289916992, -0.2016254961490631, -0.2001960426568985, -0.20488986372947693, -0.17436181008815765]