Epoch: 5-3, Loss: 0.0228989627212286, Lr: 0.001 , 
 ,Threshold: 
[0.004245351534336805, 0.013002729043364525, 0.015028298832476139, -0.001614861306734383, -0.0002489894686732441, 0.0008378951461054385, 0.00300518493168056, -0.008573504164814949, 0.015491349622607231, 0.010456766001880169, 0.006258806679397821, -0.004045538604259491, 0.005880606360733509, -0.015829401090741158, -0.01084852498024702, -0.001616579364053905, 0.0021580862812697887, -0.009307649917900562, 0.009653161279857159, -0.007120916619896889, 0.014520471915602684, 0.011156606487929821, 0.014739785343408585, 0.006629046984016895, -0.0003927213547285646, 0.01783696934580803, 0.0214192196726799, -0.0053929234854876995, 0.001325371558777988, -0.0059128706343472, 0.008617507293820381, 0.020477263256907463, 0.0013038453180342913, -0.0073950267396867275, -0.0013757739216089249, 0.014629806391894817, 0.002332458971068263, -0.003554645227268338, -0.0011011328315362334, -0.021251415833830833, 0.0013547312701120973, 0.0032609067857265472, 0.0029440424405038357, 0.00277326419018209, 0.007921667769551277, 0.017296383157372475, -0.014960317872464657, 0.0008139206911437213, 0.025189511477947235, 0.0077778929844498634, -0.0015064288163557649, 0.009431969374418259, 0.006063271313905716, 0.034994937479496, 0.06076599657535553, 0.06899677217006683, 0.06991727650165558, 0.1015845388174057, 0.11530786752700806, 0.14723517000675201, 0.16339634358882904, 0.17332200706005096, 0.1784849762916565, 0.1703062206506729, 0.17673496901988983, 0.2143159806728363, 0.2116677463054657, 0.21474093198776245, 0.21477289497852325, 0.2257213443517685, 0.2579766511917114, 0.2751275300979614, 0.2735249400138855, 0.2785225808620453, 0.2916102707386017, 0.27872732281684875, 0.3033120334148407, 0.27931395173072815, 0.26661354303359985, 0.2005442976951599] 
 , Step size: 
 [-0.00255095143802464, -0.010865316726267338, -0.0012858607806265354, -0.0005485528381541371, 4.859184264205396e-05, 0.0010458254255354404, -0.009123466908931732, -0.01376058254390955, -0.02149806171655655, 0.00023308942036237568, -0.004513567313551903, -0.010206039063632488, -0.010543949902057648, 0.011535371653735638, 0.0006786545854993165, 0.0063114166259765625, 0.009818603284657001, -0.004248526878654957, 0.004074194468557835, 0.001672634156420827, 0.0014902896946296096, -0.004553511273115873, 0.01582343317568302, -0.006403427105396986, -0.00915244035422802, -0.004922931548207998, -0.001047044643200934, 0.005065074190497398, 0.00019935292948503047, -0.0022239123936742544, 0.006480770651251078, 0.0018772392068058252, -0.001290858257561922, -0.0061798603273928165, 0.01516470592468977, -0.0011252870317548513, 0.01205504685640335, 0.010378802195191383, 0.01652153767645359, 0.011406167410314083, -0.010490686632692814, -0.0002472587220836431, 0.0076863947324454784, -0.007583348546177149, -0.000801952148322016, -0.001134294900111854, 0.00028594330069608986, -0.012949981726706028, 0.0024336022324860096, 0.0026571538764983416, -0.0020489816088229418, -0.009783638641238213, -0.03334929421544075, -0.025491785258054733, -0.048664640635252, -0.0786508247256279, -0.09531847387552261, -0.09485748410224915, -0.13672934472560883, -0.14353403449058533, -0.15624910593032837, -0.15899834036827087, -0.17475707828998566, -0.19669322669506073, -0.2081182301044464, -0.20791277289390564, -0.21262714266777039, -0.21396420896053314, -0.24418476223945618, -0.23772753775119781, -0.24361704289913177, -0.27017587423324585, -0.29160743951797485, -0.301057904958725, -0.3010299503803253, -0.32153674960136414, -0.2923602759838104, -0.2831321358680725, -0.2748030722141266, -0.22633449733257294]