Epoch: 2-3, Loss: 0.04441654309630394, Lr: 0.001 , 
 ,Threshold: 
[0.004245505202561617, 0.013002836145460606, 0.015028411522507668, -0.001614724867977202, -0.0002488275058567524, 0.0008380945073440671, 0.0030054354574531317, -0.008573192171752453, 0.015491747297346592, 0.010457254014909267, 0.006259428337216377, -0.004044757690280676, 0.0058815996162593365, -0.015828125178813934, -0.010846905410289764, -0.0016145424451678991, 0.002160643460229039, -0.009304436855018139, 0.009657216258347034, -0.007115896791219711, 0.014526846818625927, 0.011164592579007149, 0.014749737456440926, 0.006641667801886797, -0.0003769457689486444, 0.01785697601735592, 0.021444441750645638, -0.0053605432622134686, 0.0013665634905919433, -0.005861460231244564, 0.008681870996952057, 0.020558558404445648, 0.0014146707253530622, -0.0072543988935649395, -0.001199360005557537, 0.014859572052955627, 0.002619242062792182, -0.003193106036633253, -0.000648867804557085, -0.02069406397640705, 0.002057567937299609, 0.004101403057575226, 0.003930128179490566, 0.003913675434887409, 0.009157720021903515, 0.018561813980340958, -0.01372432429343462, 0.001475915894843638, 0.024479292333126068, 0.005824456922709942, -0.007313848473131657, -0.0033212804701179266, -0.01712305285036564, -0.0017758156172931194, 0.007965724915266037, 0.0010152407921850681, -0.01164945401251316, 0.007659359835088253, 0.010407820343971252, 0.03396692872047424, 0.043220166116952896, 0.0474398173391819, 0.046817436814308167, 0.03287261351943016, 0.03349107503890991, 0.06494926661252975, 0.055740002542734146, 0.051486603915691376, 0.04310169070959091, 0.04585014283657074, 0.06935644894838333, 0.07752352207899094, 0.06872972100973129, 0.06878232210874557, 0.07981178909540176, 0.06790624558925629, 0.1018034890294075, 0.09330511093139648, 0.10473760217428207, 0.07249220460653305] 
 , Step size: 
 [-0.0025510904379189014, -0.010865416377782822, -0.001285972772166133, -0.0005486810114234686, 4.843834904022515e-05, 0.0010456342715770006, -0.00912371277809143, -0.013760886155068874, -0.021498464047908783, 0.00023260389571078122, -0.00451418524608016, -0.010206817649304867, -0.010544948279857635, 0.011534102261066437, 0.0006770390318706632, 0.006309390068054199, 0.009816057048738003, -0.004251724109053612, 0.00407015485689044, 0.0016676366794854403, 0.0014839188661426306, -0.004561515990644693, 0.015813466161489487, -0.00641609774902463, -0.009168291464447975, -0.004943124484270811, -0.0010725469328463078, 0.005032474175095558, 0.00015792666818015277, -0.002275519771501422, 0.006416176911443472, 0.001795405289158225, -0.0014023120747879148, -0.0063210949301719666, 0.014988298527896404, -0.0013558196369558573, 0.011768069118261337, 0.010018064640462399, 0.016071593388915062, 0.010854721069335938, -0.011189950630068779, -0.0010847948724403977, 0.006704213563352823, -0.008722926490008831, -0.002037938917055726, -0.0024021263234317303, -0.0009445382165722549, -0.013616000302135944, 0.003159638261422515, 0.004649854265153408, 0.003783279797062278, 0.0029694861732423306, -0.010108877904713154, 0.011455186642706394, 0.004637607838958502, -0.009685417637228966, -0.01241751667112112, 0.0007111091399565339, -0.029716195538640022, -0.02771070972084999, -0.03318006545305252, -0.030003268271684647, -0.039741069078445435, -0.05564378201961517, -0.060942456126213074, -0.054200392216444016, -0.05205903202295303, -0.04578239843249321, -0.06703664362430573, -0.05195631459355354, -0.04842370003461838, -0.06521634757518768, -0.07866296917200089, -0.08221706748008728, -0.07889394462108612, -0.098760686814785, -0.07678128778934479, -0.08074013143777847, -0.09510631859302521, -0.08090783655643463]