Epoch: 1-3, Loss: 0.049394864588975906, Lr: 0.001 , 
 ,Threshold: 
[-0.017700733616948128, 0.005030184984207153, 0.0040864790789783, 0.0006886934279464185, 0.016102701425552368, -0.007333158515393734, 0.009428718127310276, 0.005842798855155706, -0.003713213838636875, -0.004402737598866224, -0.00449485145509243, -0.007820995524525642, -0.013767140917479992, 0.014458957128226757, 0.005343453958630562, 0.0046054646372795105, 0.008066101931035519, 0.01357292290776968, 0.015179570764303207, 0.01989159919321537, -0.005071287043392658, 0.015656577423214912, -0.006221979856491089, 0.005739566870033741, 0.0022146895062178373, -0.0031349395867437124, 0.01270454190671444, 0.011204560287296772, 0.020113907754421234, 0.0028754021041095257, -0.003945488482713699, 0.0019039335893467069, 0.00841796025633812, 0.0012115489225834608, -0.00024998965091072023, 0.005863579921424389, 0.00904899463057518, 0.003635730128735304, -0.006559605710208416, -0.0021260862704366446, 0.011280768550932407, -0.011931722983717918, -0.008147182874381542, 0.008453115820884705, -0.015172692015767097, -0.0005522519932128489, -0.00917743518948555, 0.0038706811610609293, 0.00286454102024436, -0.019258277490735054, 0.008707183413207531, -0.00041323716868646443, 0.016365032643079758, 0.0022566828411072493, 0.005656110588461161, -0.014097553677856922, -0.008068650960922241, -0.0030304351821541786, 0.001596257439814508, 0.016855191439390182, 0.02045179158449173, -0.0022767852060496807, 0.013574128970503807, 0.01452373992651701, 0.03143593296408653, 0.028624415397644043, 0.024321649223566055, 0.024581195786595345, 0.017267942428588867, 0.008807819336652756, 0.03442523628473282, 0.03080017864704132, 0.019742565229535103, 0.0483800433576107, 0.032640088349580765, 0.036537956446409225, 0.04964541643857956, 0.046888113021850586, 0.04485151544213295, 0.02638699673116207] 
 , Step size: 
 [0.002271069446578622, -0.008205068297684193, -0.00921596772968769, -0.012108393013477325, 0.009005021303892136, 0.009502552449703217, 0.01566820777952671, 0.0032511004246771336, -0.007193568162620068, 0.013052604161202908, -0.013429258018732071, 0.00046052219113335013, 0.0007010324043221772, 0.01279477495700121, 0.02374071441590786, 0.007903988473117352, -0.006594413425773382, 0.008247613906860352, -0.024488989263772964, -0.016746167093515396, -0.0031334725208580494, -0.016350455582141876, -0.0103475796058774, 0.0070479679852724075, 0.002665348118171096, -0.01529297698289156, -0.004856789018958807, 0.014720863662660122, -0.0030548747163265944, -0.00808833446353674, -0.012346174567937851, -0.001695110579021275, -0.008534910157322884, 0.003638171125203371, -0.022401556372642517, 0.010349638760089874, 0.019334739074110985, -0.009492333978414536, -0.006000833120197058, 0.0033352249301970005, -0.006246035918593407, 0.013784097507596016, -0.007165311835706234, 0.013627170585095882, -0.010216203518211842, 0.007136248052120209, 0.016109611839056015, 0.0078117698431015015, -0.002939253579825163, 0.0006700887461192906, 0.0010275006061419845, -0.002390170469880104, 0.0023811478167772293, -0.005025989841669798, -0.021470727398991585, 0.010735522955656052, 0.00291740195825696, -0.0008839607471600175, 0.0006347494199872017, -0.014254242181777954, -0.016532722860574722, 0.003211085218936205, -0.0021336451172828674, -0.032544706016778946, -0.029586121439933777, -0.015196185559034348, -0.026745617389678955, -0.009623906575143337, -0.019324559718370438, -0.031795892864465714, -0.03139248117804527, -0.05063425749540329, -0.04265052452683449, -0.034331630915403366, -0.035497162491083145, -0.05708933249115944, -0.042980946600437164, -0.05536724254488945, -0.03205404803156853, -0.03841986134648323]