Epoch: 7-3, Loss: 0.003338504582643509, Lr: 0.001 , 
 ,Threshold: 
[-0.01770603284239769, 0.005025465041399002, 0.004081368446350098, 0.0006828740006312728, 0.01609618030488491, -0.007340807933360338, 0.00941950548440218, 0.005831723567098379, -0.003726351074874401, -0.004417815245687962, -0.0045124501921236515, -0.007840096019208431, -0.013786673545837402, 0.014441294595599174, 0.005332845263183117, 0.0046104141511023045, 0.008101942017674446, 0.013664072379469872, 0.015371275134384632, 0.02024363912642002, -0.005310235545039177, 0.0153512516990304, -0.0066392854787409306, 0.005212315823882818, 0.0015446129254996777, -0.003991473000496626, 0.011618569493293762, 0.009847055189311504, 0.01835443824529648, 0.0006653606542386115, -0.006735623814165592, -0.0016262998105958104, 0.003982659429311752, -0.0042648352682590485, -0.00706477789208293, -0.002969545777887106, -0.00155856111086905, -0.009033352136611938, -0.021084707230329514, -0.018638137727975845, -0.007377197965979576, -0.029544824734330177, -0.027625611051917076, -0.011675482615828514, -0.03546827286481857, -0.02034405805170536, -0.024209940806031227, -0.0105640459805727, -0.0060485247522592545, -0.02052769623696804, 0.020564241334795952, 0.03666529431939125, 0.08558543771505356, 0.0887521505355835, 0.11653442680835724, 0.11728201806545258, 0.14429552853107452, 0.1686067432165146, 0.18583078682422638, 0.22018755972385406, 0.23014838993549347, 0.22611895203590393, 0.26651203632354736, 0.27452588081359863, 0.30421584844589233, 0.3109854459762573, 0.3148798644542694, 0.32563650608062744, 0.3265898525714874, 0.3260814845561981, 0.3595275580883026, 0.3633419871330261, 0.35550692677497864, 0.38596010208129883, 0.36676812171936035, 0.3651272654533386, 0.35618826746940613, 0.33248278498649597, 0.3426600694656372, 0.302717000246048] 
 , Step size: 
 [0.0022757749538868666, -0.008200153708457947, -0.009210646152496338, -0.012102358974516392, 0.009011802263557911, 0.009510405361652374, 0.015677616000175476, 0.003262382000684738, -0.007180221378803253, 0.013067840598523617, -0.013411453925073147, 0.0004797774599865079, 0.0007206936716102064, 0.012812640517950058, 0.023751486092805862, 0.007899465970695019, -0.006629876792430878, 0.008156209252774715, -0.024682767689228058, -0.01710629090666771, -0.002892112825065851, -0.016040805727243423, -0.009925034828484058, 0.0075803459621965885, 0.0033403828274458647, -0.014429603703320026, -0.003760203719139099, 0.016087867319583893, -0.001278987037949264, -0.005857064854353666, -0.009531795978546143, 0.0018592729466035962, -0.004066822584718466, 0.00914327148348093, -0.0155453160405159, 0.019217204302549362, 0.029946360737085342, 0.0031829816289246082, 0.008520501665771008, 0.019822577014565468, 0.012398467399179935, 0.03141302615404129, 0.012308819219470024, 0.03377610445022583, 0.01012365147471428, 0.027007009834051132, 0.03134359046816826, 0.022416427731513977, 0.006146674044430256, 0.0021621701307594776, -0.010809391736984253, -0.04008897393941879, -0.06816213577985764, -0.0929972305893898, -0.13395164906978607, -0.12275448441505432, -0.1509120762348175, -0.1738937646150589, -0.18514929711818695, -0.2196378856897354, -0.22853951156139374, -0.22848272323608398, -0.26044151186943054, -0.2983246147632599, -0.3087577819824219, -0.30443015694618225, -0.32457393407821655, -0.31819286942481995, -0.3366836607456207, -0.35767972469329834, -0.36580583453178406, -0.39309266209602356, -0.38928136229515076, -0.3839687705039978, -0.3835234045982361, -0.4016314148902893, -0.36928030848503113, -0.36472928524017334, -0.3602009415626526, -0.3586653769016266]