Epoch: 9-3, Loss: 0.004366724286228418, Lr: 0.001 , 
 ,Threshold: 
[-0.017713036388158798, 0.005018562078475952, 0.004073740914463997, 0.0006742287077941, 0.0160866379737854, -0.007351656444370747, 0.009406880475580692, 0.00581724988296628, -0.0037424336187541485, -0.004434491042047739, -0.0045287893153727055, -0.007852490060031414, -0.013789384625852108, 0.014459260739386082, 0.005389271769672632, 0.004738727118819952, 0.008356559090316296, 0.014127065427601337, 0.016202887520194054, 0.021641463041305542, -0.005694765597581863, 0.014855369925498962, -0.007268995046615601, 0.00442613335326314, 0.0005600885488092899, -0.005226499866694212, 0.010094378143548965, 0.007946427911520004, 0.015978414565324783, -0.0037654477637261152, -0.012543685734272003, -0.009136330336332321, -0.00598931685090065, -0.01459929347038269, -0.02004520781338215, -0.015130552463233471, -0.015036634169518948, -0.024638015776872635, -0.036143574863672256, -0.035228632390499115, -0.025349590927362442, -0.03895656391978264, -0.03571898862719536, -0.018824178725481033, -0.04173733666539192, -0.024700192734599113, -0.024269673973321915, -0.010225959122180939, -0.0035794973373413086, -0.012227910570800304, 0.03699575364589691, 0.06644824892282486, 0.11164930462837219, 0.12031641602516174, 0.14219780266284943, 0.130204439163208, 0.14767388999462128, 0.16028781235218048, 0.17372596263885498, 0.20454223453998566, 0.2011815309524536, 0.1916467547416687, 0.2398204356431961, 0.25740915536880493, 0.2941799461841583, 0.3046469986438751, 0.31117820739746094, 0.3229010999202728, 0.3241477608680725, 0.323683500289917, 0.35808706283569336, 0.3628840744495392, 0.35489240288734436, 0.3855729103088379, 0.3663640022277832, 0.3649544417858124, 0.3558818995952606, 0.33229517936706543, 0.3427644670009613, 0.3112727701663971] 
 , Step size: 
 [0.0022818909492343664, -0.008192718960344791, -0.009202396497130394, -0.012093073688447475, 0.009022003971040249, 0.009521867148578167, 0.01569085381925106, 0.003277482697740197, -0.007163506932556629, 0.013085090555250645, -0.013394448906183243, 0.0004927587579004467, 0.000724065350368619, 0.012795580551028252, 0.023696109652519226, 0.007773096207529306, -0.006883095949888229, 0.007692315615713596, -0.02552301622927189, -0.01853466033935547, -0.0025042141787707806, -0.015538361854851246, -0.009288279339671135, 0.008373020216822624, 0.00433080131188035, -0.013186408206820488, -0.002224116586148739, 0.01799805648624897, 0.0011135678505524993, -0.0014028488658368587, -0.0037040847819298506, 0.009372656233608723, 0.00589717784896493, 0.01944567821919918, -0.0026192034129053354, 0.03135526180267334, 0.04334676265716553, 0.018661949783563614, 0.023464621976017952, 0.03624511882662773, 0.030178913846611977, 0.040890783071517944, 0.02050488442182541, 0.04105003923177719, 0.016546690836548805, 0.031557172536849976, 0.03169945999979973, 0.022300846874713898, 0.003837914438918233, -0.006004557944834232, -0.02742559090256691, -0.07076624035835266, -0.09489395469427109, -0.12442883849143982, -0.15891045331954956, -0.1344139277935028, -0.15266695618629456, -0.16384847462177277, -0.17138805985450745, -0.2024451345205307, -0.19735616445541382, -0.19175387918949127, -0.23336011171340942, -0.28212422132492065, -0.29990264773368835, -0.29926541447639465, -0.32175707817077637, -0.31604471802711487, -0.33463066816329956, -0.3554671108722687, -0.3644929528236389, -0.3927514851093292, -0.38872939348220825, -0.38362422585487366, -0.38313448429107666, -0.40147343277931213, -0.36895808577537537, -0.3645239472389221, -0.36031460762023926, -0.36882439255714417]