Epoch: 5-3, Loss: 0.025423480197787285, Lr: 0.001 , 
 ,Threshold: 
[-0.017700886353850365, 0.00503005413338542, 0.004086347296833992, 0.0006885390030220151, 0.016102544963359833, -0.0073333862237632275, 0.009428434073925018, 0.005842431448400021, -0.0037136792670935392, -0.004403315484523773, -0.0044956025667488575, -0.007821936160326004, -0.013768319971859455, 0.014457453973591328, 0.0053415801376104355, 0.004603070672601461, 0.00806304533034563, 0.013569102622568607, 0.015174550004303455, 0.019885186105966568, -0.005078236106783152, 0.015647636726498604, -0.006233605090528727, 0.0057249050587415695, 0.0021961485035717487, -0.0031585677061229944, 0.012674689292907715, 0.011167093180119991, 0.02006538398563862, 0.0028142014052718878, -0.004023369401693344, 0.0018044275930151343, 0.00829004030674696, 0.0010490959975868464, -0.0004608012968674302, 0.0055855028331279755, 0.00869249552488327, 0.0031698914244771004, -0.007146254647523165, -0.002867071656510234, 0.010338418185710907, -0.013238044455647469, -0.00981353223323822, 0.006418860517442226, -0.017598429694771767, -0.0032922159880399704, -0.011895060539245605, 0.0013538558268919587, 0.0014745916705578566, -0.018292218446731567, 0.014333145692944527, 0.012689335271716118, 0.04117321968078613, 0.04067761078476906, 0.06024102121591568, 0.056605014950037, 0.08210849016904831, 0.10421651601791382, 0.12359528243541718, 0.15163031220436096, 0.1651303470134735, 0.15151925384998322, 0.17572452127933502, 0.18484964966773987, 0.2093716412782669, 0.2146243304014206, 0.21959282457828522, 0.23185667395591736, 0.23433227837085724, 0.23605887591838837, 0.2715979516506195, 0.2775614857673645, 0.27305516600608826, 0.30687984824180603, 0.2925693392753601, 0.2953716814517975, 0.2974740266799927, 0.27745214104652405, 0.25024497509002686, 0.19545048475265503] 
 , Step size: 
 [0.002271234756335616, -0.008204955607652664, -0.009215856902301311, -0.012108263559639454, 0.009005187079310417, 0.009502760134637356, 0.015668468549847603, 0.0032514522317796946, -0.007193119265139103, 0.013053168542683125, -0.013428525999188423, 0.00046144056250341237, 0.0007021880010142922, 0.012796255759894848, 0.023742564022541046, 0.00790635496377945, -0.00659137824550271, 0.008251422084867954, -0.0244839359074831, -0.01673966832458973, -0.003126465016975999, -0.016341399401426315, -0.010335811413824558, 0.007062756922096014, 0.0026840209029614925, -0.01526915654540062, -0.004826635587960482, 0.014758601784706116, -0.003005836857482791, -0.008026464842259884, -0.01226748526096344, -0.0015947339124977589, -0.008405674248933792, 0.003801872953772545, -0.022188488394021988, 0.010629799216985703, 0.019692497327923775, -0.009024045430123806, -0.005411787889897823, 0.0040775784291327, -0.005299206357449293, 0.01508821826428175, -0.005501926876604557, 0.015656428411602974, -0.007797367870807648, 0.009867078624665737, 0.018814627081155777, 0.010329576209187508, -0.0015405802987515926, -0.00028142041992396116, -0.0045621334575116634, -0.015548327006399632, -0.022704526782035828, -0.04404408112168312, -0.07711955904960632, -0.06122763454914093, -0.08853501081466675, -0.10971315205097198, -0.12336239218711853, -0.1516069918870926, -0.16426044702529907, -0.15367409586906433, -0.1677427738904953, -0.20694836974143982, -0.2121342122554779, -0.20608988404273987, -0.22738152742385864, -0.22249460220336914, -0.24260590970516205, -0.2659914493560791, -0.27639472484588623, -0.306061327457428, -0.30541136860847473, -0.30334845185279846, -0.30726999044418335, -0.32946911454200745, -0.30669713020324707, -0.30424994230270386, -0.25762370228767395, -0.22674795985221863]