Epoch: 8-3, Loss: 0.004462809767574072, Lr: 0.001 , 
 ,Threshold: 
[-0.017709655687212944, 0.0050216601230204105, 0.0040770950727164745, 0.000677999050822109, 0.016090773046016693, -0.007346983999013901, 0.009412259794771671, 0.005823297426104546, -0.0037359304260462523, -0.004428165499120951, -0.0045234207063913345, -0.007850187830626965, -0.01379366498440504, 0.014441710896790028, 0.005347896367311478, 0.0046533383429050446, 0.008194496855139732, 0.013839024119079113, 0.015691818669438362, 0.020787550136446953, -0.00551231112331152, 0.015093371272087097, -0.006966332904994488, 0.004809790290892124, 0.0010489599080756307, -0.004600245039910078, 0.010888163931667805, 0.00895899161696434, 0.01729152724146843, -0.001513261697255075, -0.009562821127474308, -0.0052306815050542355, -0.0007738791755400598, -0.008803113363683224, -0.012660015374422073, -0.0093617532402277, -0.008863088674843311, -0.017496295273303986, -0.029755406081676483, -0.028228092938661575, -0.017947198823094368, -0.034144651144742966, -0.0314977653324604, -0.014580996707081795, -0.03732876479625702, -0.021127494052052498, -0.021533457562327385, -0.008417521603405476, -0.00270465319044888, -0.0139252208173275, 0.031736310571432114, 0.05583381652832031, 0.10440917313098907, 0.10973655432462692, 0.13427019119262695, 0.1293364018201828, 0.1512136459350586, 0.1673162877559662, 0.18163612484931946, 0.21437251567840576, 0.21206697821617126, 0.20861214399337769, 0.2566240727901459, 0.26346516609191895, 0.30044516921043396, 0.3088034689426422, 0.3129407465457916, 0.3245331943035126, 0.32565709948539734, 0.32509490847587585, 0.35899779200553894, 0.36328232288360596, 0.35533109307289124, 0.38586780428886414, 0.36665472388267517, 0.3651047945022583, 0.35608601570129395, 0.33242267370224, 0.34280523657798767, 0.31115463376045227] 
 , Step size: 
 [0.002278920030221343, -0.008196026086807251, -0.009205983020365238, -0.012097081169486046, 0.009017626754939556, 0.009516972117125988, 0.015685249119997025, 0.0032712051179260015, -0.007170243188738823, 0.013078559190034866, -0.013400072231888771, 0.0004902409273199737, 0.0007280730060301721, 0.012812716886401176, 0.023736964911222458, 0.007857423275709152, -0.006721726153045893, 0.007981051690876484, -0.025006478652358055, -0.01766188256442547, -0.0026881229132413864, -0.0157794076949358, -0.009594200178980827, 0.007986409589648247, 0.0038393407594412565, -0.01381635945290327, -0.0030235315207391977, 0.01698114350438118, -0.00020698222215287387, -0.003665263531729579, -0.006691473536193371, 0.005472532939165831, 0.0006986232474446297, 0.013686793856322765, -0.009946215897798538, 0.025594810023903847, 0.037208136171102524, 0.01158423162996769, 0.017128635197877884, 0.029323503375053406, 0.022861216217279434, 0.03609365224838257, 0.016278861090540886, 0.03679871931672096, 0.012118981219828129, 0.027941560372710228, 0.028890768066048622, 0.020429283380508423, 0.002923607127740979, -0.004323167726397514, -0.022040532901883125, -0.05966855213046074, -0.0874515101313591, -0.11381368339061737, -0.15125048160552979, -0.13406136631965637, -0.15682801604270935, -0.1715157926082611, -0.1798429787158966, -0.21279962360858917, -0.20870548486709595, -0.20935405790805817, -0.2500930428504944, -0.2873990833759308, -0.30534467101097107, -0.3026820123195648, -0.32294517755508423, -0.3173057734966278, -0.3359003961086273, -0.35676348209381104, -0.36533430218696594, -0.3930959701538086, -0.3891407251358032, -0.3839001953601837, -0.38342055678367615, -0.4016188383102417, -0.369174063205719, -0.3646639585494995, -0.36035841703414917, -0.36868420243263245]