Epoch: 6-3, Loss: 0.012895863503217697, Lr: 0.001 , 
 ,Threshold: 
[-0.0177012886852026, 0.005029980093240738, 0.004086346831172705, 0.0006885509355925024, 0.016102533787488937, -0.007333459332585335, 0.009428268298506737, 0.005842122249305248, -0.003714208258315921, -0.004404180217534304, -0.004497031215578318, -0.007824192754924297, -0.013771903701126575, 0.014451633207499981, 0.00533239496871829, 0.0045881555415689945, 0.008038915693759918, 0.013530814088881016, 0.015111561864614487, 0.01978502795100212, -0.005071417428553104, 0.015658505260944366, -0.006233875639736652, 0.005723682232201099, 0.0021931887604296207, -0.0031644231639802456, 0.012664170004427433, 0.011148758232593536, 0.020034393295645714, 0.002764561679214239, -0.004102159291505814, 0.0016805476043373346, 0.008097016252577305, 0.0007567831198684871, -0.0009090470848605037, 0.004968593828380108, 0.007790983654558659, 0.001855676295235753, -0.008974739350378513, -0.0053853560239076614, 0.006919270846992731, -0.01699788309633732, -0.014317532069981098, 0.0011888905428349972, -0.02338797226548195, -0.009370553307235241, -0.017339477315545082, -0.003818035824224353, -0.0022625599522143602, -0.02014639601111412, 0.016066305339336395, 0.02090398222208023, 0.06166723370552063, 0.07122885435819626, 0.10144264996051788, 0.1083645224571228, 0.1433757096529007, 0.1719026416540146, 0.19197265803813934, 0.2253209799528122, 0.24122580885887146, 0.23061348497867584, 0.2600245475769043, 0.27041372656822205, 0.295756071805954, 0.3015404939651489, 0.30708539485931396, 0.31871297955513, 0.3204800486564636, 0.3208088278770447, 0.3546988070011139, 0.35898298025131226, 0.3516444265842438, 0.38255882263183594, 0.3637739419937134, 0.3625219762325287, 0.35414454340934753, 0.3306359350681305, 0.3317069709300995, 0.24514536559581757] 
 , Step size: 
 [0.002271617529913783, -0.008204948157072067, -0.009215949103236198, -0.01210837159305811, 0.009005102328956127, 0.009502735920250416, 0.015668531879782677, 0.003251660382375121, -0.007192691322416067, 0.013053927570581436, -0.013427196070551872, 0.00046359546831808984, 0.0007056564791128039, 0.012801943346858025, 0.02375158853828907, 0.00792104285210371, -0.006567413918673992, 0.008289686404168606, -0.02442041225731373, -0.0166375283151865, -0.003133425023406744, -0.016352539882063866, -0.010335586965084076, 0.007063948083668947, 0.0026869415305554867, -0.01526335533708334, -0.0048161162994802, 0.014777036383748055, -0.0029747034423053265, -0.00797624234110117, -0.012187821790575981, -0.0014698266750201583, -0.008210884407162666, 0.004096752032637596, -0.021736174821853638, 0.011251426301896572, 0.020595921203494072, -0.007706955540925264, -0.0035779476165771484, 0.006598228123039007, -0.0018737168284133077, 0.01885797642171383, -0.000993704772554338, 0.020895550027489662, -0.0019903266802430153, 0.015976911410689354, 0.02432635985314846, 0.015567709691822529, 0.0022704103030264378, 0.0016778565477579832, -0.006228271406143904, -0.023834481835365295, -0.04370315372943878, -0.07565543055534363, -0.11968939006328583, -0.11459176242351532, -0.15097859501838684, -0.1784420907497406, -0.19259993731975555, -0.2260483354330063, -0.24119116365909576, -0.23389136791229248, -0.2534872889518738, -0.2939552664756775, -0.2999747395515442, -0.29454874992370605, -0.31643441319465637, -0.3109363317489624, -0.3303142189979553, -0.35221603512763977, -0.3608286380767822, -0.38862475752830505, -0.38531428575515747, -0.3804765045642853, -0.38042715191841125, -0.3989261984825134, -0.36708948016166687, -0.36269712448120117, -0.34833982586860657, -0.28908035159111023]