Epoch: 3-3, Loss: 17.02179718017578, Lr: 0.001 , 
 ,Threshold: 
[-0.1972886621952057, -0.1839417815208435, -0.17993219196796417, -0.19899052381515503, -0.18891160190105438, -0.18323442339897156, -0.19113056361675262, -0.18296076357364655, -0.20466481149196625, -0.18560434877872467, -0.1969887912273407, -0.1981254667043686, -0.18897086381912231, -0.17730925977230072, -0.1762130707502365, -0.18449924886226654, -0.20358949899673462, -0.18308906257152557, -0.18900570273399353, -0.1842922568321228, -0.1973981261253357, -0.19026976823806763, -0.1835441142320633, -0.19216690957546234, -0.19265185296535492, -0.17704394459724426, -0.1815805584192276, -0.18666204810142517, -0.20342236757278442, -0.1804834008216858, -0.1939404010772705, -0.1944521814584732, -0.18587738275527954, -0.18036633729934692, -0.19077205657958984, -0.20196305215358734, -0.1806955337524414, -0.19739452004432678, -0.18525047600269318, -0.19669999182224274, -0.1896875649690628, -0.18253475427627563, -0.18762867152690887, -0.19443762302398682, -0.19146648049354553, -0.1828530877828598, -0.18680991232395172, -0.20164306461811066, -0.165241077542305, -0.18716783821582794, -0.18989335000514984, -0.18553811311721802, -0.19532744586467743, -0.19088667631149292, -0.18027999997138977, -0.17983712255954742, -0.19284266233444214, -0.17606143653392792, -0.18802018463611603, -0.20127424597740173, -0.17568770051002502, -0.1976184993982315, -0.20600180327892303, -0.18777364492416382, -0.20186027884483337, -0.20032434165477753, -0.17557084560394287, -0.19132721424102783, -0.19928745925426483, -0.20168307423591614, -0.20226143300533295, -0.1865912824869156, -0.197843998670578, -0.20818473398685455, -0.18525268137454987, -0.2227686196565628, -0.17547674477100372, -0.18292149901390076, -0.18103763461112976, -0.19490738213062286, -0.17621023952960968, -0.1643720418214798, -0.1834532767534256, -0.18756209313869476, -0.1807221919298172, -0.2069959193468094, -0.20385929942131042, -0.19772513210773468, -0.20057646930217743, -0.19664767384529114, -0.18017776310443878, -0.1747647374868393, -0.20032721757888794, -0.19546444714069366, -0.18589934706687927, -0.16710835695266724, -0.19332429766654968, -0.19057844579219818, -0.2001798301935196, -0.17672286927700043, -0.19118797779083252, -0.1756007820367813, -0.19997337460517883, -0.20017623901367188, -0.18682201206684113, -0.20928023755550385, -0.17320430278778076, -0.1839565634727478, -0.20121924579143524, -0.1869707852602005, -0.16608092188835144, -0.17750458419322968, -0.20125028491020203, -0.1795877367258072, -0.1965075433254242, -0.1717551350593567, -0.1919465810060501, -0.17069804668426514, -0.18127255141735077, -0.1727432906627655, -0.1853211671113968, -0.1885867714881897, -0.16673000156879425, -0.1760234534740448, -0.1877637356519699, -0.17894627153873444, -0.18317563831806183, -0.1928606480360031, -0.19443343579769135, -0.19077825546264648, -0.17417791485786438, -0.17251060903072357, -0.19373683631420135, -0.18993446230888367, -0.19614562392234802, -0.17289680242538452, -0.18226957321166992, -0.18041984736919403, -0.1910480558872223, -0.18600082397460938, -0.18009190261363983, -0.19904863834381104, -0.19160287082195282, -0.21388423442840576, -0.1871757060289383, -0.19108854234218597, -0.1774357259273529, -0.16630345582962036, -0.19491368532180786, -0.1826023906469345, -0.19381903111934662, -0.19983714818954468, -0.19899560511112213, -0.19519028067588806, -0.18340523540973663, -0.1727147102355957, -0.19684283435344696, -0.1868894398212433, -0.18289610743522644, -0.1855001598596573, -0.17677190899848938, -0.17956887185573578, -0.1823345571756363, -0.19503122568130493, -0.17837433516979218, -0.1898852437734604, -0.17618834972381592, -0.1967034637928009, -0.19229738414287567, -0.18798492848873138, -0.18880867958068848, -0.19266298413276672, -0.18892768025398254, -0.1953214406967163, -0.18280667066574097, -0.1962103247642517, -0.1765744537115097, -0.17915311455726624, -0.1942799836397171, -0.20274628698825836, -0.18965353071689606, -0.19172200560569763, -0.19528871774673462, -0.1953222006559372, -0.19676779210567474, -0.21199657022953033, -0.19544005393981934, -0.17861035466194153, -0.16924723982810974, -0.20931605994701385, -0.20397773385047913, -0.19549177587032318, -0.19072440266609192, -0.17968475818634033, -0.1727922111749649, -0.1928514838218689, -0.1846776157617569, -0.1918124407529831, -0.18224139511585236, -0.20679867267608643, -0.2042260468006134, -0.19827190041542053, -0.20512878894805908, -0.19048690795898438, -0.18890228867530823, -0.1935836374759674, -0.17015177011489868, -0.22475194931030273, -0.19668570160865784, -0.1966528296470642, -0.208573117852211, -0.17968381941318512, -0.17506574094295502, -0.20712222158908844, -0.1917281597852707, -0.18979357182979584, -0.19468921422958374, -0.17711994051933289, -0.18808972835540771, -0.17947179079055786, -0.18964609503746033, -0.1997535228729248, -0.18143552541732788, -0.19053515791893005, -0.20247642695903778, -0.19710959494113922, -0.1832154244184494, -0.1679433435201645, -0.20630687475204468, -0.20539754629135132, -0.20564141869544983, -0.1899668127298355, -0.20075739920139313, -0.2062631994485855, -0.19547367095947266, -0.19014379382133484, -0.16986605525016785, -0.19341614842414856, -0.20272067189216614, -0.1977277398109436, -0.176786407828331, -0.2121976613998413, -0.18896982073783875, -0.18285010755062103, -0.21695664525032043, -0.19698750972747803, -0.19844074547290802, -0.1692570298910141, -0.19151151180267334, -0.1872192919254303, -0.18938802182674408, -0.21385718882083893, -0.17212048172950745, -0.19726039469242096, -0.20333246886730194, -0.20019839704036713, -0.1963537484407425, -0.1936207115650177, -0.20199528336524963, -0.16634501516819, -0.18352138996124268, -0.19191254675388336, -0.1829812079668045, -0.17597758769989014, -0.18572591245174408, -0.19607549905776978, -0.19912244379520416, -0.17734621465206146, -0.19342666864395142, -0.18324865400791168, -0.18195602297782898, -0.1800682246685028, -0.17444656789302826, -0.16638588905334473, -0.17415502667427063, -0.15252846479415894, -0.1674620509147644, -0.1532128006219864, -0.15613383054733276, -0.1254526525735855, -0.11320306360721588, -0.08417283743619919, -0.049068599939346313, -0.014484080485999584, 0.05748949199914932, 0.11060988903045654, 0.17100712656974792, 0.21754276752471924, 0.24513724446296692, 0.2378154844045639, 0.2555036246776581, 0.24382375180721283, 0.2483624666929245, 0.2235134094953537, 0.2236534208059311, 0.21535515785217285, 0.2424391210079193, 0.20207922160625458, 0.22634023427963257, 0.22756263613700867, 0.19807712733745575, 0.19369767606258392, 0.21536538004875183, 0.2201453596353531, 0.20148912072181702, 0.20602785050868988, 0.19210495054721832, 0.19733023643493652, 0.18362972140312195, 0.22194203734397888, 0.20339053869247437, 0.18839725852012634, 0.18994466960430145, 0.19462434947490692, 0.18709604442119598, 0.17929883301258087, 0.18788102269172668, 0.1883319616317749, 0.15939711034297943, 0.1690816730260849] 
 , Step size: 
 [-0.17755427956581116, -0.1811320036649704, -0.19837793707847595, -0.2012549787759781, -0.16914793848991394, -0.1865517795085907, -0.19676946103572845, -0.17750521004199982, -0.1899489015340805, -0.1792982965707779, -0.17715394496917725, -0.19325901567935944, -0.18365149199962616, -0.18113838136196136, -0.17873616516590118, -0.17777572572231293, -0.16972412168979645, -0.17638994753360748, -0.17571569979190826, -0.1521500051021576, -0.19308531284332275, -0.18039993941783905, -0.16249829530715942, -0.1895432472229004, -0.19431565701961517, -0.18382757902145386, -0.19589489698410034, -0.20225398242473602, -0.1782451868057251, -0.183794766664505, -0.16930171847343445, -0.16530367732048035, -0.17170961201190948, -0.17479029297828674, -0.1780172437429428, -0.15757529437541962, -0.15720130503177643, -0.17394550144672394, -0.17490199208259583, -0.1659877598285675, -0.16462337970733643, -0.185520738363266, -0.14961761236190796, -0.16510900855064392, -0.16592581570148468, -0.15760193765163422, -0.1578197032213211, -0.16694557666778564, -0.16242216527462006, -0.16543778777122498, -0.17978577315807343, -0.15648959577083588, -0.1665567308664322, -0.1695699244737625, -0.16238091886043549, -0.1749771535396576, -0.14631663262844086, -0.16506457328796387, -0.16552963852882385, -0.1734829694032669, -0.16300158202648163, -0.16537947952747345, -0.157358318567276, -0.15159809589385986, -0.17093980312347412, -0.1613818258047104, -0.16668646037578583, -0.1746591478586197, -0.15626801550388336, -0.17373217642307281, -0.14418596029281616, -0.1550399512052536, -0.16990789771080017, -0.16808944940567017, -0.16412410140037537, -0.1620062291622162, -0.16002018749713898, -0.14875243604183197, -0.16929377615451813, -0.1838764250278473, -0.1658247709274292, -0.1701485812664032, -0.15678958594799042, -0.16460159420967102, -0.17798802256584167, -0.15678434073925018, -0.15750053524971008, -0.1401658058166504, -0.13782767951488495, -0.14751139283180237, -0.1333460509777069, -0.15348675847053528, -0.14512990415096283, -0.12636904418468475, -0.11544188112020493, -0.11177188158035278, -0.11146669089794159, -0.09956604987382889, -0.09002423286437988, -0.08313585817813873, -0.06911374628543854, -0.07062743604183197, -0.06659512966871262, -0.07056129723787308, -0.05153963342308998, -0.048472605645656586, -0.05842537805438042, -0.05946056917309761, -0.03904469683766365, -0.033838171511888504, -0.02961200289428234, -0.005971341859549284, -0.024858392775058746, -0.003251494839787483, -0.013005808927118778, -0.0055624376982450485, -0.0021609896793961525, 0.0070350393652915955, 0.0025386298075318336, 0.011869687587022781, 0.023540159687399864, 0.039873067289590836, 0.03821053355932236, 0.04597911983728409, 0.03097316436469555, 0.033527884632349014, 0.027773283421993256, 0.021457577124238014, 0.034300610423088074, 0.03417780250310898, 0.04489782452583313, 0.03322833776473999, 0.04994440823793411, 0.03881436586380005, 0.04283159598708153, 0.0491643100976944, 0.05290016159415245, 0.051188718527555466, 0.060147326439619064, 0.045295096933841705, 0.05166405439376831, 0.036688972264528275, 0.03309713304042816, 0.05441202223300934, 0.058241214603185654, 0.05813254043459892, 0.05489166080951691, 0.04823393002152443, 0.05591368302702904, 0.05475770682096481, 0.07214244455099106, 0.051295205950737, 0.055426593869924545, 0.0625142902135849, 0.0484018549323082, 0.03343981131911278, 0.05741637945175171, 0.06032257527112961, 0.0464751198887825, 0.0397489070892334, 0.038642775267362595, 0.03433823212981224, 0.05158473923802376, 0.03828830271959305, 0.04770837724208832, 0.03258826583623886, 0.032116834074258804, 0.031015362590551376, 0.04349533095955849, 0.02255166694521904, 0.014093027450144291, 0.036550696939229965, 0.03521302342414856, 0.02268701046705246, 0.01763090305030346, 0.01701030507683754, 0.019163331016898155, 0.016346193850040436, 0.02123233489692211, 0.008506661280989647, 0.018269585445523262, 0.022532513365149498, 0.007520649116486311, 0.020624058321118355, 0.008981344290077686, 0.014199668541550636, 0.000728293729480356, -0.017934206873178482, 0.00677213491871953, -0.011694899760186672, -0.004666922613978386, 0.004413631744682789, -0.017305033281445503, -0.01828835904598236, -0.0292749535292387, -0.04677422717213631, -0.009039051830768585, -0.0031793031375855207, -0.010484597645699978, -0.02163207158446312, -0.012540704570710659, -0.017019687220454216, -0.007771811448037624, -0.020188147202134132, -0.03289538249373436, -0.03465353325009346, -0.03618581220507622, -0.04955708235502243, -0.03747565671801567, -0.046833302825689316, -0.04493262991309166, -0.05750855803489685, -0.035688258707523346, -0.04343931004405022, -0.059138622134923935, -0.04487399384379387, -0.08184676617383957, -0.06529990583658218, -0.06257429718971252, -0.03703131899237633, -0.05093950033187866, -0.04842541366815567, -0.039829619228839874, -0.06955761462450027, -0.06794467568397522, -0.06470254808664322, -0.05690876021981239, -0.06311498582363129, -0.08628784120082855, -0.07603569328784943, -0.07762607932090759, -0.07150164246559143, -0.07704555243253708, -0.08610395342111588, -0.08074469119310379, -0.07859233766794205, -0.08589362353086472, -0.09175583720207214, -0.09141930937767029, -0.09194839000701904, -0.0906371921300888, -0.09302528947591782, -0.08562712371349335, -0.0954708606004715, -0.10266925394535065, -0.11405447125434875, -0.09296746551990509, -0.09648004919290543, -0.12935727834701538, -0.11259401589632034, -0.11265096068382263, -0.12036114186048508, -0.10595905035734177, -0.12956681847572327, -0.11118016391992569, -0.1215071901679039, -0.11606351286172867, -0.13862130045890808, -0.14695443212985992, -0.14321061968803406, -0.1349232941865921, -0.1439650058746338, -0.15376198291778564, -0.1525505930185318, -0.15841849148273468, -0.1629120260477066, -0.1666875183582306, -0.15912574529647827, -0.17248252034187317, -0.18998640775680542, -0.170673668384552, -0.18945293128490448, -0.19458557665348053, -0.20040854811668396, -0.2025201916694641, -0.22729048132896423, -0.21295872330665588, -0.23242329061031342, -0.2314024567604065, -0.22139707207679749, -0.22295349836349487, -0.2170509397983551, -0.21431761980056763, -0.22616779804229736, -0.23617202043533325, -0.2488613724708557, -0.229078009724617, -0.22331933677196503, -0.223414808511734, -0.24169427156448364, -0.23626798391342163, -0.23220069706439972, -0.24297258257865906, -0.25435641407966614, -0.244411900639534, -0.2250746190547943, -0.22670374810695648, -0.22680461406707764, -0.23757362365722656, -0.2315293848514557, -0.2235339730978012, -0.24077750742435455, -0.2201407253742218, -0.20548243820667267, -0.23643741011619568, -0.21925054490566254, -0.2210288643836975, -0.21941198408603668, -0.20434583723545074, -0.21932804584503174, -0.20927652716636658, -0.21806323528289795, -0.1830224096775055, -0.18856097757816315, -0.2062615305185318, -0.18372094631195068, -0.19993054866790771, -0.1892905831336975, -0.1846291571855545, -0.1864190250635147]