Epoch: 1-3, Loss: 50.81184387207031, Lr: 0.001 , 
 ,Threshold: 
[-0.0787036344408989, -0.0660482868552208, -0.061863888055086136, -0.08107087016105652, -0.07139328867197037, -0.06529255211353302, -0.07309665530920029, -0.06498191505670547, -0.08674594759941101, -0.0679204910993576, -0.07942385971546173, -0.08030218631029129, -0.07095672190189362, -0.05918367579579353, -0.058034274727106094, -0.06627898663282394, -0.08534175157546997, -0.06488821655511856, -0.07090035080909729, -0.06619880348443985, -0.07927943021059036, -0.07213780283927917, -0.06543941795825958, -0.07414251565933228, -0.07483416050672531, -0.05942932888865471, -0.06413379311561584, -0.06920734792947769, -0.08585084229707718, -0.06279557943344116, -0.07614808529615402, -0.07648853212594986, -0.0677393227815628, -0.06217673793435097, -0.07256109267473221, -0.08380134403705597, -0.06255019456148148, -0.07917411625385284, -0.06697198003530502, -0.07840675115585327, -0.07139243930578232, -0.06424479186534882, -0.06935577839612961, -0.07621258497238159, -0.07326597720384598, -0.06465709954500198, -0.06856435537338257, -0.08334929496049881, -0.046843722462654114, -0.06873349845409393, -0.071406289935112, -0.06699206680059433, -0.07671099156141281, -0.07220293581485748, -0.061481770128011703, -0.06096937879920006, -0.07395032793283463, -0.05713769420981407, -0.06905537098646164, -0.0822523906826973, -0.05661967024207115, -0.07850378006696701, -0.0868842825293541, -0.06864232569932938, -0.08277353644371033, -0.0812777578830719, -0.05657421052455902, -0.07237088680267334, -0.08039914071559906, -0.08287543803453445, -0.08351454883813858, -0.0679263025522232, -0.07925590127706528, -0.08966168016195297, -0.06678818166255951, -0.10436006635427475, -0.05714428052306175, -0.06464438140392303, -0.06283359229564667, -0.07677959650754929, -0.058169662952423096, -0.04644129425287247, -0.06566542387008667, -0.06996909528970718, -0.06323976814746857, -0.08955232799053192, -0.08646495640277863, -0.08039632439613342, -0.08333195745944977, -0.07948879152536392, -0.06310267001390457, -0.05780843645334244, -0.08351702988147736, -0.07885947078466415, -0.06950821727514267, -0.05100572481751442, -0.07737018913030624, -0.07476647943258286, -0.08456598967313766, -0.061320770531892776, -0.07610837370157242, -0.06056053191423416, -0.08496162295341492, -0.08520571887493134, -0.07191716879606247, -0.09454735368490219, -0.05856657028198242, -0.06930901110172272, -0.08664998412132263, -0.07254094630479813, -0.05171162635087967, -0.0631445050239563, -0.08691281825304031, -0.06511383503675461, -0.08194111287593842, -0.057104259729385376, -0.0772293284535408, -0.05591050162911415, -0.06633664667606354, -0.05771941691637039, -0.07021588832139969, -0.0733727440237999, -0.05140193924307823, -0.060618285089731216, -0.07235156744718552, -0.06332479417324066, -0.06721483916044235, -0.07677322626113892, -0.07819601893424988, -0.07439101487398148, -0.05766063183546066, -0.05581355094909668, -0.07691729813814163, -0.07295751571655273, -0.07900314033031464, -0.05552281066775322, -0.06476368010044098, -0.06283394247293472, -0.0733693465590477, -0.06822958588600159, -0.06224357709288597, -0.08101192116737366, -0.07338700443506241, -0.0954718142747879, -0.06874565035104752, -0.07259416580200195, -0.05898246169090271, -0.047869738191366196, -0.07640204578638077, -0.0639801099896431, -0.07506071776151657, -0.08120450377464294, -0.08025442808866501, -0.07624996453523636, -0.0643012523651123, -0.05341711640357971, -0.07744570821523666, -0.0674109235405922, -0.0634821429848671, -0.06608171761035919, -0.0572323277592659, -0.05992262065410614, -0.06259983777999878, -0.07520536333322525, -0.05841297656297684, -0.06987332552671432, -0.05612904578447342, -0.0765782967209816, -0.07211560010910034, -0.06774945557117462, -0.06854597479104996, -0.07224755734205246, -0.06830786168575287, -0.07451439648866653, -0.06178797408938408, -0.0750684067606926, -0.05524352937936783, -0.057647399604320526, -0.07277269661426544, -0.08122682571411133, -0.06810633838176727, -0.07016007602214813, -0.07374309003353119, -0.07383573800325394, -0.07536259293556213, -0.09086539596319199, -0.07426724582910538, -0.05745646357536316, -0.04818302020430565, -0.08819054812192917, -0.08276946097612381, -0.07426776736974716, -0.06944875419139862, -0.05833429470658302, -0.0514259897172451, -0.07149101793766022, -0.06333387643098831, -0.07059631496667862, -0.06095707044005394, -0.08553783595561981, -0.08305874466896057, -0.07708807289600372, -0.08448006957769394, -0.06949746608734131, -0.06794795393943787, -0.0725666731595993, -0.04909389093518257, -0.1039058193564415, -0.0757218524813652, -0.075737863779068, -0.08774156123399734, -0.058910567313432693, -0.05431649088859558, -0.08648707717657089, -0.07097868621349335, -0.06901219487190247, -0.07390040159225464, -0.05639826878905296, -0.06735800951719284, -0.058706291019916534, -0.06884656846523285, -0.07932831346988678, -0.060583632439374924, -0.06964036077260971, -0.08156619966030121, -0.07617443054914474, -0.062240537256002426, -0.04698460176587105, -0.08536475151777267, -0.08446704596281052, -0.08470922708511353, -0.06903818249702454, -0.07984717935323715, -0.0853780135512352, -0.07462109625339508, -0.06930066645145416, -0.048980552703142166, -0.07246889173984528, -0.08172481507062912, -0.07672548294067383, -0.05576960742473602, -0.09168578684329987, -0.06803729385137558, -0.06192680075764656, -0.09614565223455429, -0.07608189433813095, -0.07755981385707855, -0.04840507358312607, -0.070672906935215, -0.06637975573539734, -0.06850426644086838, -0.09370388090610504, -0.05118978023529053, -0.07623136788606644, -0.08321164548397064, -0.07958462089300156, -0.07565338909626007, -0.07295770943164825, -0.08141855895519257, -0.04585913196206093, -0.0632249265909195, -0.07182984799146652, -0.06315426528453827, -0.056514326483011246, -0.0666913315653801, -0.07756141573190689, -0.08160952478647232, -0.060331981629133224, -0.07738322019577026, -0.06827332079410553, -0.06825854629278183, -0.06786610186100006, -0.0640929564833641, -0.058302585035562515, -0.06890524178743362, -0.050786346197128296, -0.07038062065839767, -0.06219315528869629, -0.07296852767467499, -0.053049538284540176, -0.05627948045730591, -0.05017644539475441, -0.04921957105398178, -0.06035485118627548, -0.03869619965553284, -0.02804015576839447, 0.006128333974629641, 0.04431987553834915, 0.07287907600402832, 0.0690646767616272, 0.09061863273382187, 0.08263473957777023, 0.09051215648651123, 0.06867695599794388, 0.07157322019338608, 0.06578600406646729, 0.09526164084672928, 0.0570223443210125, 0.08344198763370514, 0.0866456925868988, 0.05910857766866684, 0.05651455745100975, 0.07995627820491791, 0.08663639426231384, 0.0695776492357254, 0.07582267373800278, 0.06378418207168579, 0.07055015861988068, 0.059615373611450195, 0.09842109680175781, 0.08148971199989319, 0.06803270429372787, 0.07665004581212997, 0.08128415048122406, 0.07437703758478165, 0.06902830302715302, 0.07775618135929108, 0.07940639555454254, 0.05328619107604027, 0.06282927095890045] 
 , Step size: 
 [-0.06136590987443924, -0.06393064558506012, -0.08141351491212845, -0.08401268720626831, -0.050497472286224365, -0.06926635652780533, -0.08005986362695694, -0.06065203621983528, -0.07288964837789536, -0.06110471487045288, -0.05800981819629669, -0.07543695718050003, -0.06724473088979721, -0.06576914340257645, -0.06395445764064789, -0.06332506984472275, -0.055517032742500305, -0.0619480237364769, -0.060649652034044266, -0.03697354346513748, -0.07808222621679306, -0.06551840901374817, -0.047407131642103195, -0.07384001463651657, -0.07701576501131058, -0.06472793966531754, -0.07536765933036804, -0.0818776935338974, -0.05946114659309387, -0.06679918617010117, -0.05416952073574066, -0.0526660792529583, -0.061735816299915314, -0.06586960703134537, -0.06974505633115768, -0.04873155057430267, -0.048911817371845245, -0.06638263165950775, -0.0681212842464447, -0.05951600894331932, -0.05831034108996391, -0.07901617884635925, -0.04265664517879486, -0.05757632106542587, -0.05865192040801048, -0.05181967467069626, -0.052987199276685715, -0.06301791220903397, -0.061010513454675674, -0.064555823802948, -0.07948370277881622, -0.05677935108542442, -0.06767398864030838, -0.07142333686351776, -0.06547772139310837, -0.07861359417438507, -0.04968082904815674, -0.06817620247602463, -0.06852647662162781, -0.07659905403852463, -0.06629034876823425, -0.06924686580896378, -0.06099782511591911, -0.05538080632686615, -0.07396484911441803, -0.06381753832101822, -0.06854099035263062, -0.07600653916597366, -0.056596968322992325, -0.072886161506176, -0.042480114847421646, -0.05232825502753258, -0.06629662215709686, -0.06375101208686829, -0.05942347273230553, -0.05679349601268768, -0.05418790876865387, -0.04233468696475029, -0.06217581033706665, -0.07614462077617645, -0.05753638222813606, -0.061366740614175797, -0.04778842628002167, -0.05636678263545036, -0.07066451758146286, -0.049273405224084854, -0.049802664667367935, -0.032146625220775604, -0.02967650629580021, -0.039014577865600586, -0.024753624573349953, -0.044866908341646194, -0.03718400374054909, -0.020259132608771324, -0.011159215122461319, -0.012115527875721455, -0.012211152352392673, -0.0014793924055993557, 0.005263539031147957, 0.008147750981152058, 0.01536531001329422, 0.012442469596862793, 0.015337311662733555, 0.009642979130148888, 0.02715500444173813, 0.031081128865480423, 0.01500001922249794, 0.010363264940679073, 0.027269721031188965, 0.027492031455039978, 0.027753831818699837, 0.048977673053741455, 0.02646493911743164, 0.04404108598828316, 0.02990090101957321, 0.03212199732661247, 0.03146231919527054, 0.0351555198431015, 0.026149144396185875, 0.029630616307258606, 0.03786977380514145, 0.049711503088474274, 0.042007677257061005, 0.044044554233551025, 0.02712080255150795, 0.027813997119665146, 0.020911751314997673, 0.01289154402911663, 0.023761197924613953, 0.021391401067376137, 0.030507370829582214, 0.016983600333333015, 0.032528914511203766, 0.019897539168596268, 0.02229524776339531, 0.026348035782575607, 0.028975635766983032, 0.026930518448352814, 0.035051096230745316, 0.01937268115580082, 0.025009049102663994, 0.009377055801451206, 0.005161754321306944, 0.02683674730360508, 0.02752378024160862, 0.026052577421069145, 0.02223273739218712, 0.014486142434179783, 0.021707776933908463, 0.018112221732735634, 0.03477947413921356, 0.014830559492111206, 0.018316417932510376, 0.025805428624153137, 0.013385293073952198, -0.0015795116778463125, 0.022859448567032814, 0.027015969157218933, 0.014053975231945515, 0.006391183938831091, 0.005217276513576508, 0.0003060884482692927, 0.01649298518896103, 0.0019868286326527596, 0.011440319009125233, -0.0029133327770978212, -0.003245709231123328, -0.0040595028549432755, 0.008678189478814602, -0.0116551099345088, -0.018534081056714058, 0.002973579801619053, 0.000375092844478786, -0.012632622383534908, -0.01776200905442238, -0.018091673031449318, -0.01588706485927105, -0.01765448786318302, -0.01233663409948349, -0.02465972863137722, -0.014604603871703148, -0.009834599681198597, -0.02402849681675434, -0.00912602711468935, -0.018727602437138557, -0.010774219408631325, -0.02114926464855671, -0.037366896867752075, -0.009481526911258698, -0.027188440784811974, -0.019270513206720352, -0.008076086640357971, -0.027793608605861664, -0.027784012258052826, -0.03803976625204086, -0.0549788698554039, -0.016855087131261826, -0.009495836682617664, -0.01680765673518181, -0.02719159424304962, -0.017070991918444633, -0.020612983033061028, -0.009686022065579891, -0.02097146213054657, -0.03193429112434387, -0.032966021448373795, -0.03357112407684326, -0.041801486164331436, -0.03112257830798626, -0.038451507687568665, -0.03408898785710335, -0.04430459439754486, -0.020541662350296974, -0.026438511908054352, -0.040073495358228683, -0.023773865774273872, -0.058716826140880585, -0.040757544338703156, -0.037502042949199677, -0.011375486850738525, -0.024914154782891273, -0.01859850063920021, -0.011860918253660202, -0.040555331856012344, -0.03867524117231369, -0.03518307954072952, -0.027275100350379944, -0.032669831067323685, -0.055018696933984756, -0.04387882351875305, -0.04463282227516174, -0.03750120848417282, -0.04162268713116646, -0.04904894530773163, -0.041868217289447784, -0.03830346092581749, -0.044827282428741455, -0.05011733993887901, -0.04904479905962944, -0.04865650460124016, -0.04638741910457611, -0.041292645037174225, -0.03789201378822327, -0.04637011140584946, -0.051567863672971725, -0.061652328819036484, -0.03904910385608673, -0.04091605171561241, -0.07233626395463943, -0.05438759922981262, -0.05371154472231865, -0.05410144850611687, -0.045262061059474945, -0.06983999907970428, -0.043434303253889084, -0.054452084004879, -0.04898789897561073, -0.06948580592870712, -0.07516803592443466, -0.06873832643032074, -0.05751075968146324, -0.0638742446899414, -0.07127781957387924, -0.06594160199165344, -0.06726077198982239, -0.06686493754386902, -0.06255753338336945, -0.051801566034555435, -0.059704020619392395, -0.07260900735855103, -0.04826206713914871, -0.06256594508886337, -0.06331130862236023, -0.06444408744573593, -0.062167610973119736, -0.08310024440288544, -0.06504356116056442, -0.08146804571151733, -0.07803434878587723, -0.06613512337207794, -0.06619036942720413, -0.058985527604818344, -0.05519871041178703, -0.0662202462553978, -0.07547229528427124, -0.08739973604679108, -0.06681089848279953, -0.06037955731153488, -0.06014420464634895, -0.07839879393577576, -0.07317586988210678, -0.06959744542837143, -0.08105303347110748, -0.09330327063798904, -0.0843186303973198, -0.06603074073791504, -0.06885270029306412, -0.07018835842609406, -0.08231652528047562, -0.07768024504184723, -0.07119560986757278, -0.08981148898601532, -0.07062995433807373, -0.0576806515455246, -0.09010512381792068, -0.0745140090584755, -0.07812929898500443, -0.0779985561966896, -0.06575297564268112, -0.08119552582502365, -0.07287275046110153, -0.08327054232358932, -0.05588145554065704, -0.06141925975680351, -0.07980521023273468, -0.05986792594194412, -0.07626558840274811, -0.06692317873239517, -0.06520769745111465, -0.06695020943880081]