Epoch: 2-3, Loss: 105.10699462890625, Lr: 0.001 , 
 ,Threshold: 
[-0.1405145674943924, -0.12762348353862762, -0.12354035675525665, -0.14269337058067322, -0.13287542760372162, -0.12692631781101227, -0.13473880290985107, -0.12659429013729095, -0.14837391674518585, -0.12942376732826233, -0.14089234173297882, -0.1419607400894165, -0.13266073167324066, -0.12089943885803223, -0.11974231898784637, -0.12801167368888855, -0.14710940420627594, -0.12664096057415009, -0.13261377811431885, -0.127926304936409, -0.14106765389442444, -0.1339343786239624, -0.12721866369247437, -0.13586491346359253, -0.13643144071102142, -0.12092128396034241, -0.12556061148643494, -0.130680114030838, -0.1474323868751526, -0.12443916499614716, -0.13783808052539825, -0.13825073838233948, -0.12955716252326965, -0.12398723512887955, -0.13434194028377533, -0.14551618695259094, -0.1242169737815857, -0.14087432622909546, -0.12872035801410675, -0.1401633620262146, -0.13317610323429108, -0.12606121599674225, -0.13116706907749176, -0.1380077600479126, -0.13505354523658752, -0.12646210193634033, -0.1304241567850113, -0.14525920152664185, -0.10884373635053635, -0.13072992861270905, -0.13339950144290924, -0.12898170948028564, -0.13872241973876953, -0.13424880802631378, -0.12358957529067993, -0.12311574071645737, -0.1360865831375122, -0.11925651133060455, -0.1311846822500229, -0.14439743757247925, -0.11877754330635071, -0.14067021012306213, -0.14904259145259857, -0.13079532980918884, -0.1448935717344284, -0.14337734878063202, -0.11863671243190765, -0.1344117671251297, -0.14240679144859314, -0.14484484493732452, -0.14546237885951996, -0.1298438012599945, -0.1411696821451187, -0.1515604853630066, -0.12866632640361786, -0.16621552407741547, -0.11896774917840958, -0.1264381855726242, -0.12458837032318115, -0.13849720358848572, -0.11983922123908997, -0.10804805904626846, -0.1271773725748062, -0.1313495934009552, -0.12454596161842346, -0.15085530281066895, -0.14772909879684448, -0.14162899553775787, -0.1445247083902359, -0.14064551889896393, -0.12422342598438263, -0.11887362599372864, -0.14450296759605408, -0.139732226729393, -0.13026998937129974, -0.11161858588457108, -0.13790130615234375, -0.13522031903266907, -0.14489702880382538, -0.12155312299728394, -0.13616326451301575, -0.12060324102640152, -0.1449984461069107, -0.14523334801197052, -0.13191527128219604, -0.15437547862529755, -0.11841180920600891, -0.12917189300060272, -0.14648382365703583, -0.1323300302028656, -0.11149194836616516, -0.12293446809053421, -0.14671434462070465, -0.12503856420516968, -0.1420014351606369, -0.11729878187179565, -0.1375366598367691, -0.11636066436767578, -0.12697364389896393, -0.11854024231433868, -0.13114270567893982, -0.13442270457744598, -0.11262792348861694, -0.12197653204202652, -0.13375836610794067, -0.12489814311265945, -0.12900277972221375, -0.13863003253936768, -0.14012481272220612, -0.13637003302574158, -0.11966032534837723, -0.11786647886037827, -0.13898473978042603, -0.13504453003406525, -0.14110057055950165, -0.11764667928218842, -0.12691153585910797, -0.12495725601911545, -0.1355302333831787, -0.1304224729537964, -0.12444209307432175, -0.1433103084564209, -0.13574646413326263, -0.15774933993816376, -0.13102374970912933, -0.13479356467723846, -0.12107282876968384, -0.10986655950546265, -0.1383901983499527, -0.1260063797235489, -0.13716532289981842, -0.14321543276309967, -0.1423420011997223, -0.1383933573961258, -0.1264943778514862, -0.11570679396390915, -0.13975730538368225, -0.12973874807357788, -0.12575043737888336, -0.12839652597904205, -0.11959192156791687, -0.1222941055893898, -0.1250356137752533, -0.137697234749794, -0.12096435576677322, -0.1324661523103714, -0.11878129839897156, -0.1392798125743866, -0.13487692177295685, -0.13059356808662415, -0.1313573718070984, -0.13517892360687256, -0.13140659034252167, -0.13773547112941742, -0.125174418091774, -0.1384943574666977, -0.11874029040336609, -0.12121458351612091, -0.13632267713546753, -0.14475539326667786, -0.13161616027355194, -0.13363784551620483, -0.1371823102235794, -0.13721762597560883, -0.13868014514446259, -0.15392567217350006, -0.13739152252674103, -0.12048536539077759, -0.111129030585289, -0.15114648640155792, -0.14573653042316437, -0.13724936544895172, -0.13247768580913544, -0.12139689177274704, -0.11452875286340714, -0.13461674749851227, -0.12646961212158203, -0.13368618488311768, -0.12412161380052567, -0.14872217178344727, -0.14622414112091064, -0.14033102989196777, -0.14743436872959137, -0.13279397785663605, -0.1312566101551056, -0.13588197529315948, -0.11240188777446747, -0.1670561283826828, -0.13894255459308624, -0.13891419768333435, -0.15084786713123322, -0.12194941937923431, -0.11733663082122803, -0.1494598537683487, -0.1339818239212036, -0.13200616836547852, -0.13686667382717133, -0.1193409115076065, -0.13030491769313812, -0.12166941910982132, -0.1318109929561615, -0.14199109375476837, -0.12349393963813782, -0.13255034387111664, -0.14446468651294708, -0.13906235992908478, -0.12511777877807617, -0.10985121876001358, -0.14822177588939667, -0.14731605350971222, -0.14755533635616302, -0.13187986612319946, -0.14266212284564972, -0.14815866947174072, -0.1373608261346817, -0.13198135793209076, -0.11168119311332703, -0.13520672917366028, -0.14448949694633484, -0.1394863873720169, -0.11853708326816559, -0.1540795862674713, -0.13067381083965302, -0.12451932579278946, -0.15858645737171173, -0.13852344453334808, -0.1399480700492859, -0.11072728037834167, -0.13293763995170593, -0.12863528728485107, -0.13079406321048737, -0.1556374579668045, -0.11358941346406937, -0.1387403905391693, -0.1452859342098236, -0.14197701215744019, -0.138178750872612, -0.13554267585277557, -0.14404745399951935, -0.10855072736740112, -0.12589271366596222, -0.13447190821170807, -0.12577056884765625, -0.11899303644895554, -0.12901200354099274, -0.13969090580940247, -0.14326538145542145, -0.12186812609434128, -0.13852934539318085, -0.12893757224082947, -0.12850522994995117, -0.12763135135173798, -0.12325646728277206, -0.11679825186729431, -0.12656500935554504, -0.10742295533418655, -0.12567941844463348, -0.11578229069709778, -0.12431559711694717, -0.10148899257183075, -0.10058179497718811, -0.088229700922966, -0.07731803506612778, -0.07244451344013214, -0.02601209282875061, 0.014800113625824451, 0.07322998344898224, 0.12210951745510101, 0.1529310792684555, 0.14868108928203583, 0.1691018044948578, 0.15988747775554657, 0.16658367216587067, 0.14365078508853912, 0.14553825557231903, 0.1388377994298935, 0.16743196547031403, 0.12845098972320557, 0.15406306087970734, 0.15654797852039337, 0.12834860384464264, 0.12507012486457825, 0.1478625386953354, 0.1539040505886078, 0.136226087808609, 0.14185819029808044, 0.12921421229839325, 0.13538871705532074, 0.1237301304936409, 0.16207575798034668, 0.14456677436828613, 0.13053812086582184, 0.13816480338573456, 0.14247511327266693, 0.1350661665201187, 0.12889103591442108, 0.13725222647190094, 0.13832032680511475, 0.11122554540634155, 0.12051905691623688] 
 , Step size: 
 [-0.12240638583898544, -0.12530234456062317, -0.14262345433235168, -0.14529821276664734, -0.11230362206697464, -0.13050717115402222, -0.14117391407489777, -0.1218801885843277, -0.13403022289276123, -0.12285919487476349, -0.12013787776231766, -0.13648861646652222, -0.12783372402191162, -0.12611712515354156, -0.12426232546567917, -0.1234850287437439, -0.11542539298534393, -0.12191226333379745, -0.1208522692322731, -0.09706813842058182, -0.13770394027233124, -0.12504908442497253, -0.10706546157598495, -0.13394339382648468, -0.13810612261295319, -0.12676803767681122, -0.13790015876293182, -0.1438027173280716, -0.11985510587692261, -0.12606604397296906, -0.1123964861035347, -0.10970553755760193, -0.11776082962751389, -0.12178197503089905, -0.12587928771972656, -0.10571341961622238, -0.10603832453489304, -0.12327901273965836, -0.12443261593580246, -0.11568399518728256, -0.11413489282131195, -0.1345655769109726, -0.09846089035272598, -0.11349007487297058, -0.1141631156206131, -0.10594262182712555, -0.10609191656112671, -0.11525364965200424, -0.11143223941326141, -0.11504089087247849, -0.1302199810743332, -0.10782935470342636, -0.11863990873098373, -0.12205400317907333, -0.11550501734018326, -0.1283932328224182, -0.10000789165496826, -0.11920386552810669, -0.11988759785890579, -0.1282019019126892, -0.11802820861339569, -0.12091663479804993, -0.11292698234319687, -0.10736555606126785, -0.12644706666469574, -0.11655302345752716, -0.12167473882436752, -0.12938012182712555, -0.11042293161153793, -0.12722226977348328, -0.09707054495811462, -0.10723553597927094, -0.12110800296068192, -0.11862997710704803, -0.11429944634437561, -0.11180424690246582, -0.10936085134744644, -0.09779341518878937, -0.1179848164319992, -0.1321975290775299, -0.11385156214237213, -0.1178833469748497, -0.10447309166193008, -0.11258921772241592, -0.12632641196250916, -0.10464615374803543, -0.10545418411493301, -0.08782508969306946, -0.08518549799919128, -0.09442594647407532, -0.07991297543048859, -0.09966406971216202, -0.09122294932603836, -0.07268483191728592, -0.0618964247405529, -0.05921301990747452, -0.05873159319162369, -0.04693973809480667, -0.03826102614402771, -0.032226983457803726, -0.020464863628149033, -0.022279802709817886, -0.018458234146237373, -0.022817257791757584, -0.00416201539337635, -0.0014948596945032477, -0.01292659342288971, -0.015414572320878506, 0.003951608669012785, 0.007678784430027008, 0.010655641555786133, 0.03356011584401131, 0.013385300524532795, 0.03370998054742813, 0.023126965388655663, 0.029147490859031677, 0.03149181976914406, 0.03890901431441307, 0.033060185611248016, 0.04031902551651001, 0.050891488790512085, 0.06531927734613419, 0.060987021774053574, 0.0652383491396904, 0.04835682362318039, 0.04983876273036003, 0.042956214398145676, 0.03543846681714058, 0.046729475259780884, 0.04474550113081932, 0.05377938225865364, 0.04021698608994484, 0.055474989116191864, 0.04241358861327171, 0.04464595392346382, 0.04856262356042862, 0.05104993283748627, 0.04825333505868912, 0.05661400780081749, 0.041081503033638, 0.04663187637925148, 0.031172266229987144, 0.02673635073006153, 0.046949855983257294, 0.04872985929250717, 0.04691043123602867, 0.042672865092754364, 0.03479244187474251, 0.04205798730254173, 0.03923652693629265, 0.05629514902830124, 0.035719819366931915, 0.039789360016584396, 0.046823713928461075, 0.033559560775756836, 0.018092341721057892, 0.041632816195487976, 0.044482916593551636, 0.03059895895421505, 0.023501906543970108, 0.021824892610311508, 0.0163384098559618, 0.03263295441865921, 0.0180104598402977, 0.02713736891746521, 0.012497314251959324, 0.01225307583808899, 0.01119240466505289, 0.023734470829367638, 0.0031924124341458082, -0.005200829356908798, 0.016908105462789536, 0.015232311561703682, 0.0024756155908107758, -0.0023513531778007746, -0.0033379083033651114, -0.0017804298549890518, -0.004612927790731192, 0.00023205738398246467, -0.012638759799301624, -0.003121397690847516, 0.000874257879331708, -0.014166307635605335, -0.00026501782122068107, -0.011013330891728401, -0.0054366374388337135, -0.016679970547556877, -0.034687139093875885, -0.008328386582434177, -0.026635892689228058, -0.019442182034254074, -0.00915731955319643, -0.029528306797146797, -0.030005287379026413, -0.0403396300971508, -0.057302407920360565, -0.019184302538633347, -0.01255826000124216, -0.01938486099243164, -0.029859689995646477, -0.019923780113458633, -0.023359060287475586, -0.012958519160747528, -0.023600948974490166, -0.03517572581768036, -0.03692001476883888, -0.03832235559821129, -0.049699146300554276, -0.03819746896624565, -0.04674350470304489, -0.04385504126548767, -0.05557622015476227, -0.032784219831228256, -0.03940991684794426, -0.054355740547180176, -0.039195917546749115, -0.07521326094865799, -0.05768987536430359, -0.054493602365255356, -0.028442583978176117, -0.04199831187725067, -0.03781062737107277, -0.029815878719091415, -0.05877576395869255, -0.05721797049045563, -0.05408092588186264, -0.046523574739694595, -0.05231873691082001, -0.07505585998296738, -0.06433732062578201, -0.06551923602819443, -0.05887741595506668, -0.06384005397558212, -0.07224956899881363, -0.06616886705160141, -0.0638481006026268, -0.07084643095731735, -0.0764429047703743, -0.07575999200344086, -0.07591218501329422, -0.07414786517620087, -0.07401830703020096, -0.0680566355586052, -0.07746294885873795, -0.08431516587734222, -0.09539330005645752, -0.07401584088802338, -0.07724235951900482, -0.10994230955839157, -0.09274689108133316, -0.09236305207014084, -0.09732584655284882, -0.08408065140247345, -0.10724562406539917, -0.08521971851587296, -0.0953274518251419, -0.08883119374513626, -0.10972888022661209, -0.11605001986026764, -0.11010800302028656, -0.09965656697750092, -0.10658115148544312, -0.11422479897737503, -0.11052896827459335, -0.11366754025220871, -0.11524191498756409, -0.11497778445482254, -0.10512124001979828, -0.11552577465772629, -0.1308072954416275, -0.1084524393081665, -0.12452354282140732, -0.12707675993442535, -0.13007137179374695, -0.12961697578430176, -0.15219692885875702, -0.13579264283180237, -0.15361924469470978, -0.15141315758228302, -0.1403876394033432, -0.14117524027824402, -0.1345747858285904, -0.1312776356935501, -0.14261694252490997, -0.15211911499500275, -0.16428036987781525, -0.1439746618270874, -0.13788753747940063, -0.13783957064151764, -0.15617945790290833, -0.1509515345096588, -0.14728538691997528, -0.15856187045574188, -0.17054598033428192, -0.16125252842903137, -0.14262090623378754, -0.14503060281276703, -0.14596952497959137, -0.15760371088981628, -0.1524728685617447, -0.14549827575683594, -0.16359280049800873, -0.14388935267925262, -0.13038145005702972, -0.16223950684070587, -0.14608676731586456, -0.14912819862365723, -0.14843511581420898, -0.13547533750534058, -0.15046902000904083, -0.1415390521287918, -0.151349738240242, -0.12295177578926086, -0.12814436852931976, -0.146001935005188, -0.12520727515220642, -0.14121295511722565, -0.13125120103359222, -0.1285587102174759, -0.12999118864536285]