Epoch: 4-3, Loss: 10.142566680908203, Lr: 0.001 , 
 ,Threshold: 
[-0.17496255040168762, -0.18747982382774353, -0.20311877131462097, -0.19143684208393097, -0.2186339944601059, -0.1719084531068802, -0.19723686575889587, -0.18954558670520782, -0.18672960996627808, -0.1985444575548172, -0.17390790581703186, -0.18320652842521667, -0.1999201774597168, -0.20159393548965454, -0.17335546016693115, -0.16628918051719666, -0.19680435955524445, -0.17887011170387268, -0.1627625972032547, -0.16497504711151123, -0.14457577466964722, -0.11353334039449692, -0.10155996680259705, -0.037133246660232544, 0.016624094918370247, 0.07786508649587631, 0.17507487535476685, 0.24757473170757294, 0.30694857239723206, 0.29375705122947693, 0.2890264391899109, 0.2815891206264496, 0.26636454463005066, 0.26784345507621765, 0.2559663653373718, 0.24168835580348969, 0.23379886150360107, 0.2232198417186737, 0.2036217600107193, 0.21464161574840546] 
 , Step size: 
 [-0.17139318585395813, -0.178507000207901, -0.1824481189250946, -0.17781811952590942, -0.18869557976722717, -0.17147551476955414, -0.16750143468379974, -0.16756148636341095, -0.184224471449852, -0.1770009994506836, -0.17853516340255737, -0.16662181913852692, -0.19167713820934296, -0.1717885583639145, -0.22007684409618378, -0.19206015765666962, -0.2204258292913437, -0.23148712515830994, -0.2684342563152313, -0.28975552320480347, -0.30246618390083313, -0.3158210813999176, -0.3177754580974579, -0.3287283778190613, -0.33241093158721924, -0.33662116527557373, -0.33148348331451416, -0.3457445502281189, -0.32346048951148987, -0.3245948255062103, -0.31117501854896545, -0.3032275438308716, -0.30494341254234314, -0.2864181399345398, -0.274605393409729, -0.2853361666202545, -0.257323682308197, -0.24837277829647064, -0.22565318644046783, -0.22966894507408142]