Epoch: 25-3, Loss: 0.004983540624380112, Lr: 0.001 , 
 ,Threshold: 
[-0.1896873116493225, -0.20190978050231934, -0.21751302480697632, -0.20575807988643646, -0.23287154734134674, -0.18607710301876068, -0.211274191737175, -0.2033776044845581, -0.2002277821302414, -0.21154366433620453, -0.1861644983291626, -0.19438353180885315, -0.2095152586698532, -0.20879167318344116, -0.17735126614570618, -0.16561591625213623, -0.1898384541273117, -0.16332918405532837, -0.13631340861320496, -0.12462300807237625, -0.0869765654206276, -0.03623334318399429, -0.004404589533805847, 0.07503915578126907, 0.13649535179138184, 0.19766877591609955, 0.28922906517982483, 0.3533996641635895, 0.4032953977584839, 0.38048961758613586, 0.36573243141174316, 0.34844937920570374, 0.32417401671409607, 0.3183712065219879, 0.31149715185165405, 0.29362592101097107, 0.2997989356517792, 0.29540058970451355, 0.28612878918647766, 0.29256391525268555] 
 , Step size: 
 [-0.18452593684196472, -0.19198784232139587, -0.1960359513759613, -0.1915576159954071, -0.20273399353027344, -0.18578124046325684, -0.18236303329467773, -0.18331663310527802, -0.20152001082897186, -0.19697275757789612, -0.2026977241039276, -0.19689702987670898, -0.23033341765403748, -0.22247423231601715, -0.284534752368927, -0.2740238606929779, -0.3189067542552948, -0.3436010181903839, -0.3901962637901306, -0.41713109612464905, -0.43230894207954407, -0.44585278630256653, -0.44608378410339355, -0.4540916383266449, -0.45422694087028503, -0.4543856680393219, -0.44466280937194824, -0.4535788893699646, -0.42488613724708557, -0.4188811779022217, -0.397487610578537, -0.3811244070529938, -0.3745613098144531, -0.3493049740791321, -0.3467836380004883, -0.35495927929878235, -0.3505590856075287, -0.35255077481269836, -0.34755709767341614, -0.34470510482788086]