Epoch: 20-3, Loss: 0.005545451305806637, Lr: 0.001 , 
 ,Threshold: 
[-0.18970058858394623, -0.2019222229719162, -0.21752524375915527, -0.2057703286409378, -0.23288339376449585, -0.18608848750591278, -0.21128500998020172, -0.2033877968788147, -0.20023703575134277, -0.2115515172481537, -0.18617033958435059, -0.19438661634922028, -0.2095152586698532, -0.20878656208515167, -0.17733962833881378, -0.1655951887369156, -0.18980619311332703, -0.1632823348045349, -0.13624899089336395, -0.12453974783420563, -0.08687733858823776, -0.03611978143453598, -0.0042810761369764805, 0.07516589760780334, 0.136620432138443, 0.19778907299041748, 0.2893338203430176, 0.35349029302597046, 0.40337345004081726, 0.3805573880672455, 0.365787148475647, 0.3484932482242584, 0.32420891523361206, 0.31839895248413086, 0.31151866912841797, 0.2936427593231201, 0.2998119592666626, 0.29541027545928955, 0.28556114435195923, 0.2920837998390198] 
 , Step size: 
 [-0.18453672528266907, -0.19199974834918976, -0.1960485577583313, -0.1915701925754547, -0.2027478814125061, -0.18579699099063873, -0.1823813021183014, -0.18333794176578522, -0.20154598355293274, -0.19700658321380615, -0.20274293422698975, -0.19695793092250824, -0.2304132878780365, -0.22257938981056213, -0.2846658527851105, -0.27418482303619385, -0.31909143924713135, -0.34380045533180237, -0.39040330052375793, -0.4173351228237152, -0.4324971139431, -0.446025013923645, -0.4462417960166931, -0.45423781871795654, -0.45436447858810425, -0.45451676845550537, -0.4447786509990692, -0.45368003845214844, -0.42497509717941284, -0.4189605414867401, -0.3975534737110138, -0.3811788856983185, -0.3746063709259033, -0.34934186935424805, -0.34681323170661926, -0.3549830913543701, -0.3505781292915344, -0.3525656461715698, -0.34670913219451904, -0.3439679443836212]