Epoch: 18-3, Loss: 0.0058198049664497375, Lr: 0.001 , 
 ,Threshold: 
[-0.1897028088569641, -0.20192432403564453, -0.21752724051475525, -0.20577235519886017, -0.23288537561893463, -0.1860903799533844, -0.2112867534160614, -0.2033894956111908, -0.20023857057094574, -0.21155279874801636, -0.1861712783575058, -0.19438710808753967, -0.2095152586698532, -0.20878565311431885, -0.1773376613855362, -0.16559159755706787, -0.1898006945848465, -0.16327427327632904, -0.13623793423175812, -0.12452573329210281, -0.08686061948537827, -0.03610062599182129, -0.004260241985321045, 0.07518728077411652, 0.1366414725780487, 0.1978093832731247, 0.2893516719341278, 0.3535054326057434, 0.403386652469635, 0.38056880235671997, 0.3657963275909424, 0.34850063920021057, 0.3242148160934448, 0.3184036612510681, 0.31152215600013733, 0.2936455309391022, 0.2998141348361969, 0.2954119145870209, 0.2849162817001343, 0.29155534505844116] 
 , Step size: 
 [-0.18453848361968994, -0.19200173020362854, -0.1960507035255432, -0.19157233834266663, -0.20275025069713593, -0.18579964339733124, -0.1823844015598297, -0.1833415925502777, -0.2015504240989685, -0.19701237976551056, -0.2027505487203598, -0.19696830213069916, -0.23042689263820648, -0.2225971519947052, -0.2846880853176117, -0.27421221137046814, -0.31912288069725037, -0.34383425116539, -0.390438437461853, -0.4173694849014282, -0.4325288236141205, -0.44605404138565063, -0.44626855850219727, -0.45426246523857117, -0.4543876051902771, -0.45453891158103943, -0.4447982609272003, -0.45369699597358704, -0.42499005794525146, -0.4189739227294922, -0.39756447076797485, -0.3811880052089691, -0.37461408972740173, -0.3493480682373047, -0.3468181788921356, -0.3549870252609253, -0.3505812883377075, -0.3525681495666504, -0.3457322120666504, -0.3431478440761566]