Epoch: 19-3, Loss: 0.005807015113532543, Lr: 0.001 , 
 ,Threshold: 
[-0.18970197439193726, -0.20192350447177887, -0.21752648055553436, -0.2057715654373169, -0.23288461565971375, -0.1860896348953247, -0.21128609776496887, -0.20338882505893707, -0.2002379596233368, -0.21155227720737457, -0.18617086112499237, -0.19438691437244415, -0.2095152586698532, -0.20878605544567108, -0.1773384064435959, -0.16559304296970367, -0.1898028552532196, -0.16327746212482452, -0.13624230027198792, -0.12453116476535797, -0.08686713874340057, -0.03610808774828911, -0.004268365446478128, 0.07517895102500916, 0.1366332620382309, 0.19780145585536957, 0.2893446087837219, 0.35349956154823303, 0.40338143706321716, 0.38056421279907227, 0.3657926917076111, 0.3484976589679718, 0.3242124319076538, 0.31840184330940247, 0.31152084469795227, 0.29364439845085144, 0.2998131513595581, 0.29541119933128357, 0.2852940559387207, 0.2918652892112732] 
 , Step size: 
 [-0.1845378279685974, -0.19200097024440765, -0.19604986906051636, -0.19157150387763977, -0.2027493268251419, -0.18579858541488647, -0.182383194565773, -0.18334011733531952, -0.20154865086078644, -0.1970100849866867, -0.20274756848812103, -0.19696426391601562, -0.2304215431213379, -0.22259020805358887, -0.2846793234348297, -0.2742014229297638, -0.319110631942749, -0.3438210189342499, -0.39042481780052185, -0.41735604405403137, -0.432516485452652, -0.4460426867008209, -0.4462580680847168, -0.4542527496814728, -0.4543786346912384, -0.45453017950057983, -0.4447905123233795, -0.4536903500556946, -0.42498424649238586, -0.41896867752075195, -0.39756014943122864, -0.3811843693256378, -0.3746110200881958, -0.3493456542491913, -0.3468163013458252, -0.3549855351448059, -0.3505800664424896, -0.35256707668304443, -0.3463050425052643, -0.3436291217803955]