Epoch: 24-50, Loss: 0.00380697101354599, Lr: 0.001 , 
 ,Threshold: 
[-0.18968822062015533, -0.20191062986850739, -0.21751387417316437, -0.2057589292526245, -0.2328723818063736, -0.18607789278030396, -0.21127493679523468, -0.20337828993797302, -0.20022842288017273, -0.2115442007780075, -0.18616490066051483, -0.19438377022743225, -0.2095152586698532, -0.20879130065441132, -0.17735043168067932, -0.16561444103717804, -0.18983612954616547, -0.16332583129405975, -0.13630875945091248, -0.12461704760789871, -0.08696945011615753, -0.036225199699401855, -0.0043957349844276905, 0.07504824548959732, 0.13650432229042053, 0.19767743349075317, 0.28923654556274414, 0.3534061312675476, 0.4033009707927704, 0.3804943859577179, 0.3657362461090088, 0.34845244884490967, 0.3241764307022095, 0.3183731138706207, 0.31149864196777344, 0.29362714290618896, 0.2997998297214508, 0.29540130496025085, 0.28610363602638245, 0.29254215955734253] 
 , Step size: 
 [-0.18452668190002441, -0.19198867678642273, -0.19603681564331055, -0.19155848026275635, -0.20273494720458984, -0.185782328248024, -0.1823642998933792, -0.1833181381225586, -0.2015218883752823, -0.19697517156600952, -0.20270097255706787, -0.19690141081809998, -0.2303391844034195, -0.2224818617105484, -0.2845442593097687, -0.2740354835987091, -0.3189200758934021, -0.34361550211906433, -0.39021119475364685, -0.4171457290649414, -0.43232250213623047, -0.4458651840686798, -0.4460951089859009, -0.45410215854644775, -0.45423680543899536, -0.4543951153755188, -0.4446711540222168, -0.4535861313343048, -0.4248925447463989, -0.41888687014579773, -0.39749225974082947, -0.3811282217502594, -0.3745644688606262, -0.3493075966835022, -0.34678566455841064, -0.35496094822883606, -0.3505604565143585, -0.3525518476963043, -0.3475203216075897, -0.3446723520755768]