Epoch: 7-3, Loss: 0.06961891800165176, Lr: 0.001 , 
 ,Threshold: 
[-0.1896461844444275, -0.2018709033727646, -0.21747487783432007, -0.20571987330913544, -0.23283471167087555, -0.18604163825511932, -0.2112402617931366, -0.20334580540657043, -0.20019905269145966, -0.21151922643184662, -0.18614624440670013, -0.1943735033273697, -0.20951609313488007, -0.20880845189094543, -0.17738834023475647, -0.16568104922771454, -0.18993856012821198, -0.16347485780715942, -0.1365133821964264, -0.12487812340259552, -0.08728089183568954, -0.036581628024578094, -0.0047835009172558784, 0.07465062290430069, 0.13611111044883728, 0.1973002701997757, 0.28890717029571533, 0.3531213104724884, 0.40305501222610474, 0.38028043508529663, 0.36556264758110046, 0.34831294417381287, 0.3240649104118347, 0.3182847797870636, 0.3114292621612549, 0.29357293248176575, 0.29334190487861633, 0.2780543267726898, 0.25322723388671875, 0.26359403133392334] 
 , Step size: 
 [-0.1844925433397293, -0.19195100665092468, -0.19599688053131104, -0.19151848554611206, -0.20269103348255157, -0.1857323795557022, -0.18230709433555603, -0.18325112760066986, -0.20144003629684448, -0.1968686282634735, -0.2025587260723114, -0.19671016931533813, -0.2300873100757599, -0.2221507877111435, -0.2841299772262573, -0.27352792024612427, -0.3183383345603943, -0.3429853022098541, -0.38955777883529663, -0.41650548577308655, -0.4317323565483093, -0.4453240931034088, -0.4455997347831726, -0.4536421000957489, -0.45380499958992004, -0.4539838135242462, -0.4443083107471466, -0.4532676637172699, -0.4246129095554352, -0.41863664984703064, -0.39728453755378723, -0.38095569610595703, -0.37442246079444885, -0.34919092059135437, -0.3466918170452118, -0.35488465428352356, -0.34124040603637695, -0.3268788754940033, -0.29764503240585327, -0.30014166235923767]