Epoch: 5-3, Loss: 0.9632332921028137, Lr: 0.001 , 
 ,Threshold: 
[-0.18872904777526855, -0.2009815126657486, -0.21659308671951294, -0.20484691858291626, -0.23197312653064728, -0.1851956993341446, -0.2104179710149765, -0.20255663990974426, -0.19946111738681793, -0.2108575999736786, -0.1855948269367218, -0.1939833015203476, -0.20935238897800446, -0.2089662253856659, -0.17795270681381226, -0.16680918633937836, -0.19177983701229095, -0.16623520851135254, -0.140383780002594, -0.13005897402763367, -0.09386836737394333, -0.04444529861211777, -0.01350916363298893, 0.06562889367341995, 0.12716548144817352, 0.18870759010314941, 0.2810264825820923, 0.3462093472480774, 0.39708656072616577, 0.3750948905944824, 0.3612033724784851, 0.34477171301841736, 0.3212113082408905, 0.3159516453742981, 0.30029770731925964, 0.28067705035209656, 0.26303356885910034, 0.2500852048397064, 0.2281562089920044, 0.23898150026798248] 
 , Step size: 
 [-0.1837054193019867, -0.1911287158727646, -0.19515495002269745, -0.19065311551094055, -0.20178544521331787, -0.184766486287117, -0.18123969435691833, -0.18203499913215637, -0.19997963309288025, -0.19499552249908447, -0.20006048679351807, -0.19329985976219177, -0.22548598051071167, -0.21597063541412354, -0.2762928605079651, -0.26381027698516846, -0.30713358521461487, -0.33081555366516113, -0.3768804669380188, -0.40373027324676514, -0.4192400872707367, -0.4334031641483307, -0.4344871938228607, -0.44330665469169617, -0.4440908432006836, -0.4447612464427948, -0.4357251524925232, -0.4455941319465637, -0.41786178946495056, -0.41262543201446533, -0.392073392868042, -0.37659043073654175, -0.37078988552093506, -0.3461238443851471, -0.33163684606552124, -0.33688032627105713, -0.2976223826408386, -0.2858496308326721, -0.2602439522743225, -0.2636827826499939]