Epoch: 0-3, Loss: 79.07524871826172, Lr: 0.001 , 
 ,Threshold: 
[-0.009633868932723999, -0.001031431253068149, 0.006824139971286058, -0.01640167087316513, -0.008310403674840927, -0.028013156726956367, 0.019366659224033356, -0.013964575715363026, 0.003964564763009548, -0.021452000364661217, -0.011302494443953037, -0.0014538635732606053, -0.007726759184151888, -0.0013338741846382618, 0.009621216915547848, -0.013920003548264503, -0.0035226009786128998, 0.005506669171154499, -0.018625279888510704, -0.01587802544236183, 0.01952998712658882, -0.010830501094460487, 0.007976199500262737, 0.01742999628186226, -0.013362335041165352, 0.0028825169429183006, -0.013628065586090088, -0.0008005991112440825, -0.016253463923931122, -0.010057867504656315, 0.005791841074824333, -0.005381688941270113, -0.011066285893321037, 0.011610596440732479, -0.004331660456955433, 0.0077301147393882275, -0.005403959192335606, 0.0035057300701737404, 0.0036509446799755096, 0.006500744726508856, 0.006203743163496256, 0.008924846537411213, 0.008973345160484314, 0.006479849573224783, -0.00425428431481123, 0.006992671638727188, -0.008433127775788307, -0.01132906973361969, -0.004635659046471119, -0.022434372454881668, 0.00934624020010233, -0.0037866109050810337, 0.002512781647965312, 0.017210185527801514, 0.002913806587457657, 0.012057004496455193, -0.016237078234553337, -0.006825840100646019, -0.013055541552603245, 0.005668156780302525, -0.002794648753479123, -0.0003324071876704693, -0.023794395849108696, -0.011922989040613174, 0.0076284948736429214, -0.01824483461678028, -0.024475686252117157, -0.018298830837011337, -0.010164203122258186, -0.0155140096321702, 0.0015639744233340025, -0.007077495101839304, -0.008542877621948719, 0.0014414172619581223, 0.005193593446165323, 0.004567742347717285, -0.02155953459441662, -0.011348691768944263, -0.018147466704249382, 0.000559660024009645, -0.008737553842365742, -0.00415181927382946, 0.000512005586642772, 0.0023135452065616846, 0.002602477790787816, 0.005769413895905018, -0.01512883510440588, -0.004781628958880901, 0.00015564588829874992, -0.01350667979568243, -0.0009627988911233842, 0.004257483873516321, -0.018996071070432663, 0.0035774053540080786, -0.015012969262897968, -0.0026608614716678858, 0.011817360296845436, -0.005248178727924824, 0.00987925287336111, -0.007534864824265242, -0.006215882487595081, -0.015069788321852684, -0.018827086314558983, 0.002969517605379224, -0.004976566880941391, 0.004304762929677963, -0.019887348636984825, 0.003264858853071928, -0.0069127632305026054, -0.003108791308477521, -0.002212367719039321, -0.012573961168527603, 0.0030246139504015446, 0.004675079137086868, -0.0020288401283323765, -0.003376401262357831, 0.00884383637458086, 0.0025583808310329914, -0.00866776518523693, 0.0027179084718227386, -0.00046047085197642446, 0.002335025928914547, -0.0025558755733072758, -0.0013989023864269257, -0.001911225263029337, -0.008773979730904102, 0.008038816973567009, -0.013482454232871532, -0.008941655978560448, 0.006678023375570774, -0.0005127430777065456, -0.010515142232179642, -0.004077345598489046, 0.00363221880979836, -0.007177861873060465, -0.002439606934785843, 0.009614716283977032, 0.0065769655629992485, -0.012433379888534546, 0.014418590813875198, 0.00837676227092743, 0.007206716574728489, 0.006235194858163595, 0.006805229466408491, 0.010143337771296501, 0.010679424740374088, -0.010278953239321709, 0.01386207528412342, 0.008878483437001705, 0.010641582310199738, 0.007054422982037067, -0.004050872288644314, 0.008318902924656868, 0.016908202320337296, -0.01718123070895672, 0.0053746141493320465, 0.002453997265547514, 0.014028174802660942, 0.018299683928489685, -0.017498336732387543] 
 , Step size: 
 [-0.008932564407587051, -0.01074312999844551, 0.0032653152011334896, -0.014101899228990078, 0.0051001692190766335, -0.0020128004252910614, -0.008108759298920631, 0.0020132288336753845, 0.009054804220795631, 0.01457120943814516, -0.010305140167474747, -0.008270739577710629, -0.00018878892296925187, 0.012790463864803314, -0.020979158580303192, -0.016620635986328125, -0.022560974583029747, -0.007411837112158537, 0.012871856801211834, -0.012856126762926579, -0.004950591828674078, -0.001724685076624155, 0.006619423162192106, 0.009448363445699215, -0.0029486275743693113, -0.0059630172327160835, -0.0007499323110096157, -0.012714946642518044, -0.02353322133421898, -0.01179006788879633, 0.007547921501100063, -0.005703013390302658, -0.004832882434129715, -0.010230856947600842, -0.03543703258037567, -0.016563378274440765, -0.0011681357864290476, 0.0003779034595936537, 0.0059562255628407, -0.0022237864322960377, -0.00784609466791153, -0.007312561385333538, 0.005397539120167494, 0.010475549846887589, 0.014748315326869488, -0.00522560765966773, 0.004756920505315065, -0.008197483606636524, -0.0030617706943303347, 0.013145680539309978, -0.004809558857232332, -0.013348724693059921, -0.0012747568544000387, 0.00029699417063966393, 0.01655646413564682, -0.0011320749763399363, 0.003112998092547059, -0.0029977294616401196, -0.004166745580732822, -0.015186270698904991, 0.00505951140075922, -0.000305228924844414, 0.0044009326957166195, -0.002362081315368414, -0.008769763633608818, -0.0036984127946197987, 0.010441052727401257, 0.002394121838733554, 0.012498903088271618, 0.002362057799473405, -0.0008722406346350908, -0.00010024273069575429, 0.013947911560535431, -0.0017673901747912169, 0.007660532835870981, -0.009107759222388268, 0.0006106293294578791, -0.005726903676986694, 0.002395048039034009, 0.006155058741569519, -0.0017220939043909311, -0.011654981411993504, -0.0033938789274543524, -0.012479188852012157, 0.011774363927543163, -0.016883783042430878, 0.0038014377932995558, -0.009069778025150299, 0.004716699011623859, 0.0011990703642368317, -0.014615972526371479, -0.0005098638357594609, 0.01717287302017212, -0.00019417126895859838, 0.01816515251994133, -0.003338226582854986, -0.013513658195734024, 0.008826961740851402, -0.00045460392720997334, 0.000944868428632617, -0.0007613698253408074, 0.0029558909591287374, -0.0033020128030329943, -0.005421885754913092, 0.0021929258946329355, 0.008573522791266441, -0.008154254406690598, 0.0072294678539037704, 0.0006870586075820029, -0.00791995320469141, 0.006197269540280104, -0.0023721749894320965, -0.01738733984529972, -0.006816932000219822, -0.002527416218072176, -0.0017609992064535618, -0.007982657290995121, 0.005935085006058216, 0.008620388805866241, 0.0012460863217711449, -0.0010009503457695246, 0.00029499991796910763, -0.019959868863224983, 0.003937555942684412, -0.005265642423182726, -0.0037518946919590235, -0.00011571467621251941, -0.011434098705649376, -0.00013518432388082147, -0.017923498526215553, -0.0003832883667200804, 0.003952187020331621, -0.006660115905106068, 0.018239052966237068, 0.025027861818671227, -0.002308313036337495, -0.0043337116949260235, -0.0022741856519132853, -0.005941040348261595, 0.01292983628809452, -0.016278479248285294, -0.023062067106366158, -0.0026391746941953897, 0.020479412749409676, 0.009123465046286583, -0.027385925874114037, -0.007904361933469772, -0.0035042266827076674, 0.0004859322216361761, -0.009148679673671722, 0.017790766432881355, -0.004693486727774143, 0.00692584877833724, -0.008484926074743271, -0.005312080029398203, 0.0061505078338086605, -0.003373273415490985, 0.00047433323925361037, -0.005415637977421284, -0.021600650623440742]