Epoch: 2-3, Loss: 27.205110549926758, Lr: 0.001 , 
 ,Threshold: 
[-0.10315676778554916, -0.09431726485490799, -0.08621582388877869, -0.10913153737783432, -0.10130532830953598, -0.12120242416858673, -0.0736437737941742, -0.10657612979412079, -0.08875184506177902, -0.11453410238027573, -0.10459936410188675, -0.09480547159910202, -0.10112886875867844, -0.09481185674667358, -0.08409468084573746, -0.10724449157714844, -0.096136674284935, -0.08720415830612183, -0.11136812716722488, -0.10835974663496017, -0.0729890763759613, -0.10339642316102982, -0.08467164635658264, -0.075476735830307, -0.10635139793157578, -0.09020917117595673, -0.10688021034002304, -0.0942407101392746, -0.10980945080518723, -0.10370352119207382, -0.08796927332878113, -0.09929990023374557, -0.10516924411058426, -0.08278229087591171, -0.09916265308856964, -0.08783899992704391, -0.10087469220161438, -0.09185998886823654, -0.09159290790557861, -0.08854755759239197, -0.08859629184007645, -0.08556564152240753, -0.08514165133237839, -0.08698587119579315, -0.09675059467554092, -0.08530106395483017, -0.10062583535909653, -0.10343045741319656, -0.09656894952058792, -0.11418652534484863, -0.08215878158807755, -0.0949784368276596, -0.08813299983739853, -0.0734204649925232, -0.08763227611780167, -0.0783633440732956, -0.1066407784819603, -0.09732747822999954, -0.103678397834301, -0.08508215099573135, -0.09359398484230042, -0.09108739346265793, -0.1146451011300087, -0.10290461033582687, -0.08351203054189682, -0.10947078466415405, -0.11582880467176437, -0.10982134193181992, -0.10188888013362885, -0.10738386958837509, -0.09050057083368301, -0.09923048317432404, -0.10079027712345123, -0.09088804572820663, -0.08718270063400269, -0.08785651624202728, -0.11402278393507004, -0.10386516153812408, -0.11072713881731033, -0.09210330992937088, -0.10148586332798004, -0.09697384387254715, -0.09239470213651657, -0.09070096909999847, -0.09055053442716599, -0.0875784382224083, -0.10852421820163727, -0.09822793304920197, -0.09337292611598969, -0.10712048411369324, -0.094683438539505, -0.08951976895332336, -0.11255406588315964, -0.0902547612786293, -0.10890466719865799, -0.09666293859481812, -0.0823197141289711, -0.09948046505451202, -0.08443251997232437, -0.10192593187093735, -0.10068842768669128, -0.10964212566614151, -0.11348658800125122, -0.09178216010332108, -0.0998002216219902, -0.09057879447937012, -0.1148170456290245, -0.09168916195631027, -0.10184181481599808, -0.09797587990760803, -0.0970124751329422, -0.10732730478048325, -0.09165023267269135, -0.08980865031480789, -0.09625983238220215, -0.097282774746418, -0.084650419652462, -0.09048958867788315, -0.10112474858760834, -0.08906155079603195, -0.0914783626794815, -0.08797063678503036, -0.09205223619937897, -0.08707571774721146, -0.0825842022895813, -0.08285477757453918, -0.05725295841693878, -0.0673535019159317, -0.04759800061583519, -0.013341536745429039, 0.001646212418563664, 0.016149312257766724, 0.046918682754039764, 0.07712341099977493, 0.08431601524353027, 0.10191570222377777, 0.12300445884466171, 0.12626075744628906, 0.11129165440797806, 0.1405765414237976, 0.13594000041484833, 0.1355031132698059, 0.13499556481838226, 0.13578946888446808, 0.13918188214302063, 0.13956713676452637, 0.11847491562366486, 0.14240296185016632, 0.1371092051267624, 0.13850116729736328, 0.13430805504322052, 0.12275071442127228, 0.13447989523410797, 0.14233671128749847, 0.10736430436372757, 0.1290123015642166, 0.125052809715271, 0.1354641318321228, 0.13841518759727478, 0.10120848566293716] 
 , Step size: 
 [-0.09886142611503601, -0.1003919243812561, -0.08674214035272598, -0.10492382943630219, -0.08478203415870667, -0.09055311977863312, -0.09732507914304733, -0.08916318416595459, -0.08146404474973679, -0.0736939013004303, -0.09641192108392715, -0.09376087039709091, -0.08497823029756546, -0.07124194502830505, -0.10295963287353516, -0.1011994332075119, -0.11281858384609222, -0.0968882218003273, -0.07636361569166183, -0.10456032305955887, -0.09681514650583267, -0.0930863618850708, -0.0823129191994667, -0.07561011612415314, -0.08618765324354172, -0.08697406947612762, -0.07878095656633377, -0.08730177581310272, -0.09576989710330963, -0.08231771737337112, -0.061447713524103165, -0.07290305942296982, -0.0700824186205864, -0.0726647824048996, -0.09356441348791122, -0.06821779161691666, -0.05405775085091591, -0.05403248965740204, -0.050291307270526886, -0.06129556894302368, -0.07057145982980728, -0.07455850392580032, -0.06648563593626022, -0.06719103455543518, -0.0644417256116867, -0.08493401855230331, -0.0749792605638504, -0.08833994716405869, -0.0845550000667572, -0.06999002397060394, -0.08956997096538544, -0.09998805820941925, -0.08695921301841736, -0.08252022415399551, -0.06545980274677277, -0.07835939526557922, -0.07127347588539124, -0.07526665180921555, -0.07226269692182541, -0.07659146189689636, -0.05024496093392372, -0.04941137135028839, -0.04209411144256592, -0.043931979686021805, -0.040353793650865555, -0.03262175992131233, -0.015204165130853653, -0.017718801274895668, 0.0018728425493463874, -0.002122017089277506, 0.0028609144501388073, 0.007286998443305492, 0.024847127497196198, 0.012344485148787498, 0.02377399057149887, 0.007718948647379875, 0.018247075378894806, 0.013585559092462063, 0.023593246936798096, 0.029619518667459488, 0.02370326779782772, 0.01565854623913765, 0.025838105008006096, 0.018685413524508476, 0.04485807195305824, 0.01772945560514927, 0.04030789062380791, 0.02919001504778862, 0.04624566063284874, 0.045941438525915146, 0.03373100236058235, 0.04966072738170624, 0.06636690348386765, 0.05168454349040985, 0.06869099289178848, 0.0469851940870285, 0.03486987575888634, 0.05873413383960724, 0.049835193902254105, 0.05031783506274223, 0.050480715930461884, 0.05604817345738411, 0.05098997801542282, 0.049635425209999084, 0.05744301155209541, 0.06379754841327667, 0.046012554317712784, 0.05999606475234032, 0.050796132534742355, 0.037800487130880356, 0.045782677829265594, 0.03165411949157715, 0.008806679397821426, 0.007377510890364647, -0.002624369226396084, -0.017433742061257362, -0.03855329751968384, -0.037580009549856186, -0.045856673270463943, -0.06175121292471886, -0.07015920430421829, -0.0720803365111351, -0.09358658641576767, -0.08007807284593582, -0.09850858896970749, -0.10505148768424988, -0.10813165456056595, -0.12474679946899414, -0.11787375807762146, -0.1391710638999939, -0.12479450553655624, -0.1230158731341362, -0.13583512604236603, -0.1130177304148674, -0.1078168973326683, -0.13622739911079407, -0.1390339732170105, -0.13746406137943268, -0.14147885143756866, -0.12287148088216782, -0.15218529105186462, -0.15898114442825317, -0.13852505385875702, -0.11529888212680817, -0.12649765610694885, -0.1627545803785324, -0.14309246838092804, -0.13847976922988892, -0.13418281078338623, -0.14347098767757416, -0.11595124751329422, -0.13801974058151245, -0.12580794095993042, -0.14051322638988495, -0.1364656537771225, -0.12414485961198807, -0.13263171911239624, -0.1276092380285263, -0.13213379681110382, -0.1468392312526703]