Epoch: 1-3, Loss: 175.5817413330078, Lr: 0.001 , 
 ,Threshold: 
[-0.058702874928712845, -0.050130318850278854, -0.04222193360328674, -0.06525503098964691, -0.05736693739891052, -0.07714055478572845, -0.029684750363230705, -0.06274642050266266, -0.044917285442352295, -0.07052044570446014, -0.06048288941383362, -0.05067438632249832, -0.0569598414003849, -0.05060433968901634, -0.03982339799404144, -0.06308981776237488, -0.052199836820364, -0.04327297583222389, -0.0674690455198288, -0.0646822452545166, -0.02934510074555874, -0.05976882204413414, -0.04098919406533241, -0.03158770501613617, -0.062421225011348724, -0.0462200790643692, -0.0627799928188324, -0.05003221333026886, -0.06550370901823044, -0.059323977679014206, -0.04350769892334938, -0.05475929006934166, -0.06053835526108742, -0.03805282711982727, -0.054292161017656326, -0.04275471717119217, -0.05582182854413986, -0.046823855489492416, -0.046574778854846954, -0.04358520358800888, -0.0437067374587059, -0.040783029049634933, -0.040450844913721085, -0.04248417541384697, -0.052488237619400024, -0.04120476916432381, -0.056672193109989166, -0.05960601195693016, -0.05293687805533409, -0.07073245942592621, -0.03893151879310608, -0.05201045423746109, -0.04551965370774269, -0.03082365170121193, -0.0451262891292572, -0.03598279505968094, -0.06425920128822327, -0.05491695553064346, -0.06123961880803108, -0.04260488227009773, -0.05110624432563782, -0.04861941561102867, -0.07211920619010925, -0.06030814349651337, -0.0408211350440979, -0.06671789288520813, -0.07297543436288834, -0.06683661788702011, -0.05876176059246063, -0.06415201723575592, -0.047101810574531555, -0.05577082931995392, -0.05726584792137146, -0.04731632396578789, -0.043600887060165405, -0.044240131974220276, -0.07037508487701416, -0.0601787343621254, -0.06699316203594208, -0.048305097967386246, -0.05760946497321129, -0.053050629794597626, -0.04842577502131462, -0.0466841422021389, -0.046480413526296616, -0.043434128165245056, -0.06435137242078781, -0.05402625352144241, -0.049114007502794266, -0.06280336529016495, -0.05028612166643143, -0.0450998991727829, -0.06826712936162949, -0.045826468616724014, -0.0644577369093895, -0.05214831605553627, -0.037719838321208954, -0.05480919033288956, -0.0397031344473362, -0.05712989345192909, -0.05584844946861267, -0.06474568694829941, -0.0685521811246872, -0.046800173819065094, -0.05473924055695534, -0.045438699424266815, -0.06959762424230576, -0.04640115797519684, -0.056506820023059845, -0.052604299038648605, -0.05162698030471802, -0.06190870329737663, -0.046221498399972916, -0.044454097747802734, -0.05104153975844383, -0.05225216969847679, -0.03988143801689148, -0.046053141355514526, -0.05718788877129555, -0.04582648351788521, -0.04914415627717972, -0.04672575369477272, -0.05224798619747162, -0.04980084300041199, -0.0486164353787899, -0.05319422483444214, -0.03320937231183052, -0.05056268349289894, -0.04032575711607933, -0.01736917905509472, -0.015309670008718967, -0.014172388240695, 0.004284029360860586, 0.023945627734065056, 0.02374427579343319, 0.036845676600933075, 0.05535808950662613, 0.05727097764611244, 0.04160279780626297, 0.07057569921016693, 0.06592755764722824, 0.06565944850444794, 0.06544682383537292, 0.06658993661403656, 0.07040628790855408, 0.07125795632600784, 0.05059196054935455, 0.07497353106737137, 0.07019197195768356, 0.07210040092468262, 0.06858640164136887, 0.057576823979616165, 0.06997916102409363, 0.07856143265962601, 0.044362954795360565, 0.06678274273872375, 0.06368450075387955, 0.0750388577580452, 0.07902252674102783, 0.04289797693490982] 
 , Step size: 
 [-0.05719054490327835, -0.05866970121860504, -0.04466800391674042, -0.06252877414226532, -0.04259518161416054, -0.0491943396627903, -0.05550244823098183, -0.046719081699848175, -0.03908652812242508, -0.032410167157649994, -0.05632730573415756, -0.05384035408496857, -0.045501403510570526, -0.032176826149225235, -0.06454137712717056, -0.06198366358876228, -0.07204227149486542, -0.055949755012989044, -0.03492644429206848, -0.06086326017975807, -0.05229867622256279, -0.048281148076057434, -0.03916412964463234, -0.035424258559942245, -0.04692158102989197, -0.0489475391805172, -0.04278790205717087, -0.05336416885256767, -0.06372909247875214, -0.051640722900629044, -0.03204147890210152, -0.044540032744407654, -0.042846616357564926, -0.046475380659103394, -0.06905221194028854, -0.04626964405179024, -0.03151819854974747, -0.030945174396038055, -0.026512110605835915, -0.036182742565870285, -0.04370511323213577, -0.04529094696044922, -0.0351058728992939, -0.03366130590438843, -0.03145308792591095, -0.05036037787795067, -0.03965369611978531, -0.0519358292222023, -0.04625643789768219, -0.02978549525141716, -0.0471617616713047, -0.05520994961261749, -0.040423355996608734, -0.035601165145635605, -0.017712393775582314, -0.033533401787281036, -0.026821652427315712, -0.03098672814667225, -0.028492223471403122, -0.034090202301740646, -0.008718777447938919, -0.008440854959189892, -0.0014492202317342162, -0.004915600176900625, -0.007921135984361172, -0.0015825510490685701, 0.013816877268254757, 0.007400895468890667, 0.01981777884066105, 0.011476661078631878, 0.009674674831330776, 0.01176735945045948, 0.026978330686688423, 0.012639311142265797, 0.023106912150979042, 0.0061806682497262955, 0.015779128298163414, 0.00998031347990036, 0.018621888011693954, 0.02292228490114212, 0.015135936439037323, 0.005777692887932062, 0.014744395390152931, 0.006486424710601568, 0.03162350878119469, 0.0032981832046061754, 0.024841003119945526, 0.012811202555894852, 0.028069281950592995, 0.02596534974873066, 0.011490792967379093, 0.026745541021227837, 0.045302614569664, 0.028395874425768852, 0.045532193034887314, 0.02294299565255642, 0.0103430962190032, 0.03292205184698105, 0.02339434064924717, 0.023752162232995033, 0.022864172235131264, 0.027334757149219513, 0.02167295292019844, 0.019683029502630234, 0.026311060413718224, 0.031359463930130005, 0.01252641249448061, 0.025801701471209526, 0.01652408204972744, 0.004352278541773558, 0.013968395069241524, 0.0006700056255795062, -0.020078126341104507, -0.016490478068590164, -0.01907983049750328, -0.0247182697057724, -0.03608562424778938, -0.026232799515128136, -0.026192447170615196, -0.03456562012434006, -0.03693196177482605, -0.03452472761273384, -0.053155142813920975, -0.03300968185067177, -0.045764610171318054, -0.04756874591112137, -0.046946652233600616, -0.060607392340898514, -0.05126143619418144, -0.07065678387880325, -0.05464363098144531, -0.051585398614406586, -0.06328798085451126, -0.03937842696905136, -0.03349218890070915, -0.06156826764345169, -0.06419592350721359, -0.06254162639379501, -0.06657972186803818, -0.0480579175055027, -0.07754620164632797, -0.08453238755464554, -0.06434744596481323, -0.041419219225645065, -0.05297241732478142, -0.08961375057697296, -0.07029701769351959, -0.06604404747486115, -0.062191858887672424, -0.07193192839622498, -0.04504319280385971, -0.06760689616203308, -0.056020691990852356, -0.07142844796180725, -0.06815572828054428, -0.05657517537474632, -0.06593430787324905, -0.06187929958105087, -0.06748833507299423, -0.0833490863442421]