Epoch: 0-3, Loss: 109.92562103271484, Lr: 0.001 , 
 ,Threshold: 
[-0.01646476984024048, -0.006805117707699537, 0.004533390048891306, -0.006909715943038464, -0.012555748224258423, -0.009002838283777237, 0.006780903320759535, -0.0027378317900002003, 0.0022875384893268347, 0.03285938873887062, -0.0050002941861748695, 0.00012102903565391898, 0.012252550572156906, -0.015322276391088963, -0.005121749825775623, -0.01943533681333065, -0.00945719052106142, 0.0009739372762851417, 0.0018134014680981636, -0.0043525416404008865, -0.002833300270140171, -0.01766766980290413, -0.0017237714491784573, -0.010393580421805382, 0.007204834371805191, 0.006151492707431316, 0.007704518735408783, -0.010637267492711544, -0.00749598816037178, -0.010511715896427631, 0.009809140115976334, -0.006473474204540253, -0.003979738801717758, -0.009029509499669075, -0.002683988306671381, 0.003908821381628513, 0.0011265263892710209, -0.004131836351007223, 0.010548388585448265, -0.009231533855199814, -0.0007251660572364926, -0.009183700196444988, -0.008368106558918953, -0.010500919073820114, -0.007500919047743082, 0.007009940221905708, -0.007192282937467098, -0.004230600316077471, -0.008870028890669346, -0.00371358310803771, -0.003891496919095516, 0.00477496488019824, -0.0021298073697835207, -0.0035575770307332277, 0.0004760774318128824, 0.01470599789172411, -0.0006535457214340568, -0.01397290825843811, 0.004183792509138584, -0.007461813278496265, 0.009186691604554653, -0.0026255198754370213, 0.01030056457966566, -0.00021664414089173079, 0.005453015677630901, 0.006225755903869867, -0.006174597889184952, 0.006645302753895521, 0.0014934370992705226, 0.007824230939149857, -0.009673290885984898, 0.00034963194048032165, 0.004687649197876453, -0.017960572615265846, 0.0008368015987798572, 0.005783327855169773, 0.01356830820441246, -0.007766505237668753, 0.024434592574834824, 0.01826048083603382] 
 , Step size: 
 [-0.0010261982679367065, -0.0007503081578761339, -0.0031319856643676758, -0.016489243134856224, 0.0050271302461624146, 0.0031962180510163307, 0.001640968956053257, 0.0027390131726861, -0.013557640835642815, -0.009633575566112995, -0.0006816164823248982, -0.005080376751720905, 0.004989185370504856, -0.0010290706995874643, -0.018129322677850723, -0.014262006618082523, 0.009720047935843468, -0.011077696457505226, -0.008612999692559242, 0.00035720429150387645, -0.010200177319347858, -0.0087130730971694, -0.021087175235152245, -0.004423845559358597, -0.003323246957734227, -0.007177893538028002, 0.00048039143439382315, -0.003942966461181641, 0.004967105574905872, -0.007442522328346968, -0.0018499970901757479, 0.0008675546268932521, -0.0034390492364764214, -0.016610966995358467, -0.0017987507162615657, 0.0021475711837410927, -0.011656176298856735, 0.008702284656465054, -0.009154167957603931, 0.008373133838176727, 0.003887234954163432, -0.01202361099421978, 0.004257809836417437, 0.0030799589585512877, -0.015806473791599274, -0.003957277163863182, -0.0030644673388451338, 0.0010932692093774676, 0.0054430291056632996, 0.019308658316731453, 0.008481963537633419, -0.014268657192587852, -0.005050700157880783, 0.0035732006654143333, 0.0017619607970118523, -0.00014109263429418206, -0.023224182426929474, 0.0046346248127520084, 0.01101189386099577, -0.0010606222786009312, -0.0009853141382336617, -0.00765153206884861, 0.02345903031527996, 0.005347912665456533, -0.007541172206401825, -0.0040806615725159645, -0.003775035496801138, 0.004161841701716185, -0.0027410569600760937, 0.011051006615161896, -0.01035306416451931, 0.01137813925743103, -0.0066255684942007065, -0.00996626727283001, -0.02045101672410965, 0.017565255984663963, 0.0092584528028965, 0.005701368674635887, -0.0014211530797183514, -0.013729878701269627]