Epoch: 0-3, Loss: 170.58804321289062, Lr: 0.001 , 
 ,Threshold: 
[0.010601751506328583, 0.023691702634096146, 5.025230348110199e-05, 0.009773111902177334, 0.0005112788639962673, 0.0005037838709540665, -0.00793200172483921, 0.007697106339037418, 0.0029558546375483274, -0.01572636142373085, 0.003333491738885641, -0.000914332689717412, -0.014982670545578003, 0.00025907077360898256, 0.004979408346116543, -0.0004194615758024156, 0.0003945933422073722, 0.008176776580512524, -0.010906176641583443, -0.0014240299351513386, -0.003656317014247179, 0.0030941013246774673, -0.014203887432813644, -0.012104658409953117, -0.0017598581034690142, -0.03137185797095299, -0.020860832184553146, 0.007704292889684439, 0.005221785046160221, -0.005665571428835392, -0.009091176092624664, -0.011834250763058662, -0.0019727940671145916, -0.0023400201462209225, -0.005041895434260368, 0.011350068263709545, -0.009467379190027714, -0.005157348234206438, -0.015557069331407547, 0.005405087489634752, 0.013806631788611412, -0.0016216456424444914, -0.0049622249789536, 0.0030100822914391756, -0.000593675475101918, -0.001235800446011126, -0.009886541403830051, 0.013754035346210003, 0.015228271484375, -0.0010206506121903658, 0.007719878572970629, -0.002482901094481349, 0.021419448778033257, -0.01913341134786606, -0.006950133480131626, 0.010538287460803986, 0.0027293995954096317, 0.012059993110597134, 0.001966828480362892, -0.006192135624587536, 0.007421355228871107, -0.011013376526534557, -0.007046580780297518, -0.0009541335166431963, -0.011158300563693047, -0.001024413388222456, -0.013194664381444454, 0.01366284117102623, 0.0020398818887770176, -0.0018863668665289879, 0.003019611118361354, -0.008255436085164547, -0.01018153689801693, -0.0018872832879424095, -0.012590802274644375, 0.0009141757618635893, 0.01994922384619713, -0.007357119582593441, 0.0072435238398611546, 0.0008697478915564716] 
 , Step size: 
 [0.009366740472614765, -8.224596967920661e-05, -0.008974907919764519, 0.0007729044300504029, 0.0019102566875517368, -0.018214065581560135, -0.004434292204678059, 0.0022871324326843023, -0.020562078803777695, -1.1466559953987598e-05, -0.019345484673976898, -0.005531892646104097, 0.002493138425052166, -0.0016580418450757861, 0.0004291033837944269, -0.007687602657824755, -0.018525483086705208, -0.0035707922652363777, -0.0027421610429883003, -0.006597413681447506, -0.016875440254807472, -0.008468082174658775, -0.007862313650548458, -0.004876803606748581, -0.0038871627766638994, 0.004624752327799797, -0.007770421449095011, -0.009766696020960808, 0.0008639206062071025, -0.005521336104720831, 0.0051125697791576385, -0.009113946929574013, 0.00453117024153471, -0.01092417910695076, -0.018488695845007896, -0.0030059581622481346, -0.02293495461344719, -0.013456509448587894, 0.006251094397157431, -0.010772296227514744, -0.0014126206515356898, 0.005133314989507198, -0.0009401518036611378, 0.0030112736858427525, -0.0182038526982069, -0.002192830201238394, 0.013893296010792255, 0.02073175646364689, 0.015137940645217896, -0.003256849944591522, -0.006318483501672745, 0.0053166588768363, 0.002112435642629862, -0.005808487068861723, -0.023670652881264687, -0.016132615506649017, -0.014331089332699776, -0.002289706142619252, 0.004209274426102638, 0.0028532256837934256, -0.0006536068394780159, -0.0063148438930511475, -0.004065033979713917, -0.0002691928530111909, -0.0018769004382193089, -0.019017642363905907, 0.007679969538003206, -0.014926140196621418, -0.011034493334591389, -0.0032705864869058132, 0.008057622238993645, 0.0078105921857059, -0.010571765713393688, 0.006422899197787046, -0.010835418477654457, 0.010260675102472305, -0.0017840550281107426, -0.0017963300924748182, -0.004275968763977289, -0.005974867381155491]