Epoch: 3-3, Loss: 18.442129135131836, Lr: 0.001 , 
 ,Threshold: 
[-0.11986785382032394, -0.12385429441928864, -0.13639236986637115, -0.1323821097612381, -0.13490307331085205, -0.13532012701034546, -0.14788052439689636, -0.14174754917621613, -0.12299686670303345, -0.12305717915296555, -0.12849989533424377, -0.12989459931850433, -0.1337766796350479, -0.14897865056991577, -0.12369924038648605, -0.12738274037837982, -0.1493901014328003, -0.13886815309524536, -0.14100897312164307, -0.13816022872924805, -0.13204893469810486, -0.12722890079021454, -0.12633775174617767, -0.1309126913547516, -0.13859258592128754, -0.1326163411140442, -0.11816218495368958, -0.14245282113552094, -0.12918655574321747, -0.13502608239650726, -0.12357595562934875, -0.13633382320404053, -0.1359458863735199, -0.12824229896068573, -0.1397080272436142, -0.1339602768421173, -0.1403493583202362, -0.11395628750324249, -0.14551344513893127, -0.14760422706604004, -0.14257244765758514, -0.13026557862758636, -0.12052689492702484, -0.1426105499267578, -0.11724504083395004, -0.15175829827785492, -0.12489315122365952, -0.12848739326000214, -0.13249987363815308, -0.13845506310462952, -0.136644646525383, -0.1508329063653946, -0.11788168549537659, -0.14739534258842468, -0.12699878215789795, -0.12890611588954926, -0.12747043371200562, -0.1331714540719986, -0.12762674689292908, -0.1210339367389679, -0.15699729323387146, -0.1290929913520813, -0.12052043527364731, -0.12132750451564789, -0.14373524487018585, -0.13962505757808685, -0.11324311792850494, -0.12118196487426758, -0.12465492635965347, -0.13224804401397705, -0.1327945590019226, -0.1393807977437973, -0.13357603549957275, -0.13530626893043518, -0.13754041492938995, -0.12151437252759933, -0.11376622319221497, -0.11647481471300125, -0.1351679265499115, -0.1298375427722931, -0.1424107551574707, -0.12554669380187988, -0.1347866654396057, -0.14264030754566193, -0.1472502201795578, -0.12568716704845428, -0.14611902832984924, -0.11611028760671616, -0.12304013222455978, -0.12061306089162827, -0.13512833416461945, -0.13465984165668488, -0.12588272988796234, -0.13780614733695984, -0.12658770382404327, -0.1395455151796341, -0.13128086924552917, -0.12833204865455627, -0.1312602162361145, -0.12139587104320526, -0.1439327746629715, -0.13850386440753937, -0.1369544267654419, -0.11722382158041, -0.13425412774085999, -0.12612676620483398, -0.11385621130466461, -0.13445265591144562, -0.14422044157981873, -0.1318930685520172, -0.1373334527015686, -0.12890803813934326, -0.14061090350151062, -0.13417620956897736, -0.10960954427719116, -0.1180482879281044, -0.12783733010292053, -0.13066425919532776, -0.12701590359210968, -0.13694463670253754, -0.12879785895347595, -0.12540899217128754, -0.1068493127822876, -0.09909622371196747, -0.08404640108346939, -0.07382313907146454, -0.028127823024988174, -0.01447161752730608, 0.03801780566573143, 0.04621240124106407, 0.09349875152111053, 0.1125829666852951, 0.15775929391384125, 0.1447991579771042, 0.17006251215934753, 0.18710604310035706, 0.18716350197792053, 0.21420854330062866, 0.2132512629032135, 0.21054914593696594, 0.19372911751270294, 0.2130308449268341, 0.1916363388299942, 0.20187756419181824, 0.19881269335746765, 0.201653391122818, 0.20639625191688538, 0.18597346544265747, 0.19869570434093475, 0.1923801600933075, 0.20274482667446136, 0.19268229603767395, 0.19038145244121552, 0.1859569102525711, 0.17754870653152466, 0.17271260917186737, 0.17728742957115173, 0.18091163039207458, 0.18093545734882355, 0.18731680512428284] 
 , Step size: 
 [-0.12319247424602509, -0.13387201726436615, -0.12768685817718506, -0.11432109028100967, -0.1425202637910843, -0.11613158136606216, -0.11781924217939377, -0.1296592503786087, -0.12869660556316376, -0.12188760936260223, -0.12007832527160645, -0.11580818891525269, -0.13331103324890137, -0.13663344085216522, -0.11983093619346619, -0.11647386848926544, -0.09975765645503998, -0.13099859654903412, -0.1350400596857071, -0.1261877566576004, -0.13289803266525269, -0.12683191895484924, -0.14955897629261017, -0.12950395047664642, -0.117160864174366, -0.11318744719028473, -0.10973741859197617, -0.12322878837585449, -0.11107272654771805, -0.12314926087856293, -0.11060373485088348, -0.09773366898298264, -0.10231975466012955, -0.09485878050327301, -0.10949355363845825, -0.10506073385477066, -0.07998533546924591, -0.08185195177793503, -0.07907039672136307, -0.08477672189474106, -0.07472555339336395, -0.08763425797224045, -0.07043192535638809, -0.08489307016134262, -0.08118357509374619, -0.11294116824865341, -0.11027399450540543, -0.08558531105518341, -0.11321462690830231, -0.09883395582437515, -0.09568958729505539, -0.12669512629508972, -0.13055849075317383, -0.11166191101074219, -0.12373712658882141, -0.11234036087989807, -0.1163637787103653, -0.11983870714902878, -0.10128079354763031, -0.10993316769599915, -0.11503682285547256, -0.1001068577170372, -0.092538982629776, -0.08431646972894669, -0.06898027658462524, -0.07798060774803162, -0.0632312223315239, -0.06791490316390991, -0.05544296279549599, -0.040731050074100494, -0.03854525089263916, -0.03925245627760887, -0.03589419275522232, -0.011307308450341225, -0.03581049665808678, -0.003575071692466736, 0.00941272173076868, 0.00468194205313921, -0.014824869111180305, 0.0007785225170664489, 0.012793131172657013, 0.004989085253328085, 0.0031618548091500998, 0.0036709937267005444, 0.003371916711330414, 0.0196104533970356, 0.013868074864149094, 0.02177235297858715, 0.027280796319246292, 0.03160731494426727, 0.04237671568989754, 0.04716196283698082, 0.042559076100587845, 0.012779229320585728, 0.03936014324426651, 0.04068870097398758, 0.06060505658388138, 0.033385131508111954, 0.054616399109363556, 0.05154386907815933, 0.07581200450658798, 0.05851827934384346, 0.066497802734375, 0.05558975040912628, 0.03629659116268158, 0.06970736384391785, 0.0696294903755188, 0.06677607446908951, 0.060208510607481, 0.06291582435369492, 0.05786222591996193, 0.05600834637880325, 0.03671768680214882, 0.03052045963704586, -0.019726678729057312, -0.034099604934453964, -0.045043688267469406, -0.0874452292919159, -0.12436642497777939, -0.11627712845802307, -0.14611172676086426, -0.16996870934963226, -0.18603427708148956, -0.19014546275138855, -0.18357327580451965, -0.185133695602417, -0.21524333953857422, -0.20705251395702362, -0.2295912355184555, -0.2154056578874588, -0.19614574313163757, -0.2228870987892151, -0.23127664625644684, -0.2315494269132614, -0.22595037519931793, -0.2523697316646576, -0.2099498063325882, -0.2265973687171936, -0.2270868867635727, -0.2096944898366928, -0.2282293438911438, -0.20846334099769592, -0.21693609654903412, -0.20618028938770294, -0.21008536219596863, -0.2160273641347885, -0.22728881239891052, -0.22559663653373718, -0.21237227320671082, -0.20234449207782745, -0.20724354684352875, -0.21182850003242493, -0.20312708616256714, -0.1893511265516281, -0.2267533838748932, -0.18382170796394348, -0.19682677090168, -0.19950546324253082, -0.17751620709896088, -0.20568498969078064]