Epoch: 1-3, Loss: 61.347801208496094, Lr: 0.001 , 
 ,Threshold: 
[-0.04013228043913841, -0.044449739158153534, -0.057296428829431534, -0.05350660905241966, -0.05582737922668457, -0.05594659224152565, -0.06864982843399048, -0.06276722252368927, -0.043990131467580795, -0.043920595198869705, -0.04929129779338837, -0.05035584792494774, -0.054110877215862274, -0.0692218765616417, -0.04390394687652588, -0.04764913395047188, -0.06986109912395477, -0.05962555482983589, -0.06177116930484772, -0.05923634395003319, -0.05332748219370842, -0.04867294803261757, -0.04785146936774254, -0.05221023038029671, -0.05973200127482414, -0.05358262360095978, -0.03895081207156181, -0.06303495913743973, -0.04949229583144188, -0.05512258782982826, -0.04352410510182381, -0.056122809648513794, -0.05552826449275017, -0.04761475324630737, -0.0588655062019825, -0.05292470380663872, -0.059043049812316895, -0.03224034607410431, -0.06369233876466751, -0.065590500831604, -0.06063058599829674, -0.048434559255838394, -0.03882940486073494, -0.06091685593128204, -0.03591656684875488, -0.07094615697860718, -0.04489922150969505, -0.048828061670064926, -0.053201474249362946, -0.05947018042206764, -0.058031417429447174, -0.0727183073759079, -0.040432848036289215, -0.0699760913848877, -0.04965472221374512, -0.05171864107251167, -0.05041394755244255, -0.05623175576329231, -0.050710905343294144, -0.04417042434215546, -0.08036229759454727, -0.05279909446835518, -0.0443594790995121, -0.04531168192625046, -0.06728032231330872, -0.06341739743947983, -0.036940738558769226, -0.04471719264984131, -0.04806102067232132, -0.05556166172027588, -0.0560017004609108, -0.062467072159051895, -0.05648282170295715, -0.05808381736278534, -0.06019014120101929, -0.04401004686951637, -0.036053579300642014, -0.03867071121931076, -0.05729174613952637, -0.05194615572690964, -0.06451522558927536, -0.04765762388706207, -0.05685381591320038, -0.0646667629480362, -0.06920000165700912, -0.04757695272564888, -0.0679466724395752, -0.03786461427807808, -0.044748567044734955, -0.04225189983844757, -0.05673425644636154, -0.05621286481618881, -0.04736625403165817, -0.05922429636120796, -0.047922439873218536, -0.06076887249946594, -0.05233300104737282, -0.049201905727386475, -0.05207645148038864, -0.04214150086045265, -0.06476626545190811, -0.059021927416324615, -0.05732165649533272, -0.03743230178952217, -0.05429961159825325, -0.046042654663324356, -0.03361692652106285, -0.054092876613140106, -0.06376190483570099, -0.05132512003183365, -0.05665380135178566, -0.048196204006671906, -0.05992831662297249, -0.05361926928162575, -0.029301632195711136, -0.03833887726068497, -0.0491846464574337, -0.05349988862872124, -0.05190293863415718, -0.06470008194446564, -0.0602460615336895, -0.061617497354745865, -0.049284253269433975, -0.04971589893102646, -0.04546916484832764, -0.050157103687524796, -0.02282572165131569, -0.031885694712400436, -0.004690537694841623, -0.023054301738739014, -0.0018911605002358556, -0.004390014335513115, 0.025078313425183296, 0.0021282508969306946, 0.021690653637051582, 0.03636770695447922, 0.035815443843603134, 0.06314484030008316, 0.06341453641653061, 0.06205248087644577, 0.046815574169158936, 0.06782405823469162, 0.04810714349150658, 0.06017149239778519, 0.05897996947169304, 0.06368443369865417, 0.07014520466327667, 0.05137402564287186, 0.06574197113513947, 0.0611371248960495, 0.07325416058301926, 0.06497882306575775, 0.0645952895283699, 0.06265029311180115, 0.05586332455277443, 0.05540560558438301, 0.06101406365633011, 0.0666799321770668, 0.06949110329151154, 0.07796871662139893] 
 , Step size: 
 [-0.04738182947039604, -0.05774000659584999, -0.05073413997888565, -0.03667639568448067, -0.06533413380384445, -0.040330637246370316, -0.04146592691540718, -0.05216765031218529, -0.05132485181093216, -0.04517814889550209, -0.04366568103432655, -0.041612330824136734, -0.06044657528400421, -0.06469376385211945, -0.048468369990587234, -0.04503365978598595, -0.026569515466690063, -0.05580240860581398, -0.059762150049209595, -0.04839248210191727, -0.05182791128754616, -0.04293731972575188, -0.0647471472620964, -0.04674653336405754, -0.036568835377693176, -0.03527921438217163, -0.034694649279117584, -0.051651909947395325, -0.04417618736624718, -0.06002868339419365, -0.050096817314624786, -0.039826348423957825, -0.04732012376189232, -0.04249660670757294, -0.0597701370716095, -0.0574236661195755, -0.03522996976971626, -0.0412449836730957, -0.03832133114337921, -0.044530510902404785, -0.03291700407862663, -0.04384716600179672, -0.024460522457957268, -0.038354385644197464, -0.030070655047893524, -0.057785823941230774, -0.050975438207387924, -0.022916104644536972, -0.048038408160209656, -0.03040550835430622, -0.023960717022418976, -0.049893204122781754, -0.04995398223400116, -0.03069685958325863, -0.04272499307990074, -0.032024167478084564, -0.0347173698246479, -0.03954398259520531, -0.020598771050572395, -0.029171917587518692, -0.03185523301362991, -0.01612190529704094, -0.008296421729028225, -0.0032284713815897703, 0.017076294869184494, 0.004494029562920332, 0.01729007624089718, 0.009074129164218903, 0.01676775887608528, 0.025638623163104057, 0.024676740169525146, 0.02029339224100113, 0.015361389145255089, 0.0359305702149868, 0.006519980262964964, 0.03374943137168884, 0.039002593606710434, 0.031410325318574905, 0.009689291007816792, 0.02413235232234001, 0.03529166430234909, 0.026552001014351845, 0.02319316565990448, 0.022484388202428818, 0.020334165543317795, 0.03485623374581337, 0.027313610538840294, 0.033276498317718506, 0.03710970655083656, 0.039033763110637665, 0.0481434240937233, 0.050769295543432236, 0.043564870953559875, 0.011310357600450516, 0.03576839342713356, 0.03441312909126282, 0.05055548995733261, 0.0194979477673769, 0.03848196193575859, 0.03260026499629021, 0.059305958449840546, 0.03513054922223091, 0.04059368371963501, 0.02790054678916931, 0.005391886457800865, 0.0364081971347332, 0.03364298492670059, 0.029225358739495277, 0.021909523755311966, 0.02432907558977604, 0.019214894622564316, 0.020523564890027046, 0.007817581295967102, 0.01229865476489067, -0.024580232799053192, -0.022519154474139214, -0.013713519088923931, -0.03544212877750397, -0.05223548039793968, -0.025218674913048744, -0.04126860201358795, -0.05435723438858986, -0.06245477870106697, -0.06101993843913078, -0.05039382725954056, -0.044605620205402374, -0.06902042776346207, -0.05611276999115944, -0.07516453415155411, -0.057864539325237274, -0.036285750567913055, -0.06121455878019333, -0.06846620887517929, -0.06831423938274384, -0.0626571923494339, -0.08929107338190079, -0.04704268276691437, -0.0645550936460495, -0.06615078449249268, -0.049828678369522095, -0.06957566738128662, -0.051099468022584915, -0.06091184914112091, -0.05163002386689186, -0.05710843577980995, -0.06465493887662888, -0.07739412784576416, -0.07716333866119385, -0.06538821756839752, -0.05691847577691078, -0.06343445181846619, -0.06973620504140854, -0.06289304792881012, -0.05161449313163757, -0.09059074521064758, -0.05225139856338501, -0.06627663969993591, -0.07104872912168503, -0.052042122930288315, -0.08242927491664886]