Epoch: 2-3, Loss: 57.63530349731445, Lr: 0.001 , 
 ,Threshold: 
[-0.0870487242937088, -0.09117830544710159, -0.10382718592882156, -0.09983091056346893, -0.10226336866617203, -0.10254570096731186, -0.11506985127925873, -0.1089959442615509, -0.09028319269418716, -0.0903235450387001, -0.09574270993471146, -0.09688342362642288, -0.10068199038505554, -0.11579722911119461, -0.09048210084438324, -0.09416897594928741, -0.1162463054060936, -0.10580206662416458, -0.10795800387859344, -0.1052243784070015, -0.09923582524061203, -0.09457753598690033, -0.09373188763856888, -0.0982930064201355, -0.10592388361692429, -0.09983732551336288, -0.08530700206756592, -0.10950986295938492, -0.09610942006111145, -0.10183922201395035, -0.09028773009777069, -0.10295271128416061, -0.10244236886501312, -0.09460984915494919, -0.1059526801109314, -0.10009600222110748, -0.10635392367839813, -0.07977092266082764, -0.11125612258911133, -0.1132289245724678, -0.10817964375019073, -0.09586886316537857, -0.08615411072969437, -0.10819661617279053, -0.08288533240556717, -0.11751694977283478, -0.09091892838478088, -0.09459159523248672, -0.0986674353480339, -0.1047862321138382, -0.10317009687423706, -0.11762149631977081, -0.08499377965927124, -0.11457700282335281, -0.09425751864910126, -0.09624174237251282, -0.09499594569206238, -0.10091845691204071, -0.0954190194606781, -0.08889593929052353, -0.12498646974563599, -0.0972709208726883, -0.0888352319598198, -0.0897851437330246, -0.11200156807899475, -0.1081627681851387, -0.08176666498184204, -0.08967350423336029, -0.09314686059951782, -0.10079625248908997, -0.10137450695037842, -0.10797009617090225, -0.1021399274468422, -0.10379904508590698, -0.10599067807197571, -0.08988218009471893, -0.0819835439324379, -0.08463791757822037, -0.10330431163311005, -0.09798956662416458, -0.11059539765119553, -0.0937880277633667, -0.10303205251693726, -0.11088313907384872, -0.11546017974615097, -0.09386005252599716, -0.11424832046031952, -0.08417969197034836, -0.09104662388563156, -0.08855770528316498, -0.10304462164640427, -0.10253357887268066, -0.09369431436061859, -0.10556257516145706, -0.09427705407142639, -0.10715337097644806, -0.09876906871795654, -0.09569673985242844, -0.09859120100736618, -0.08868258446455002, -0.11129794269800186, -0.10566416382789612, -0.10403965413570404, -0.08424568921327591, -0.10120637714862823, -0.09301073104143143, -0.08065849542617798, -0.10119149088859558, -0.11092863231897354, -0.09857217967510223, -0.10401914268732071, -0.09561632573604584, -0.10736408829689026, -0.10103289037942886, -0.07663720846176147, -0.08546611666679382, -0.09594538807868958, -0.09971920400857925, -0.09742537140846252, -0.10928469896316528, -0.10365109890699387, -0.10350851714611053, -0.08922235667705536, -0.08703875541687012, -0.07948029786348343, -0.07911805808544159, -0.04515855014324188, -0.045447852462530136, -0.007433213293552399, -0.012936820276081562, 0.02298635244369507, 0.03446439281105995, 0.07561463117599487, 0.061060670763254166, 0.08620931953191757, 0.10402873903512955, 0.10535209625959396, 0.13385872542858124, 0.13451729714870453, 0.13326936960220337, 0.117928646504879, 0.13871024549007416, 0.11878620088100433, 0.13057133555412292, 0.128980815410614, 0.13326728343963623, 0.1392599642276764, 0.1200513243675232, 0.13397949934005737, 0.12891361117362976, 0.1405211091041565, 0.13172432780265808, 0.13075320422649384, 0.12817436456680298, 0.12072796374559402, 0.11929699033498764, 0.12430962920188904, 0.12910965085029602, 0.13100692629814148, 0.13851496577262878] 
 , Step size: 
 [-0.09011320024728775, -0.10024198144674301, -0.09336752444505692, -0.07961257547140121, -0.10774151235818863, -0.08171069622039795, -0.0834074541926384, -0.09479366987943649, -0.0934106856584549, -0.08641164004802704, -0.08430872112512589, -0.08165531605482101, -0.09990996867418289, -0.1039312407374382, -0.08747290074825287, -0.08418875187635422, -0.06677919626235962, -0.0974157452583313, -0.10128318518400192, -0.09144214540719986, -0.09637846052646637, -0.0878383070230484, -0.10957801342010498, -0.08886732161045074, -0.07680699229240417, -0.07425335794687271, -0.07182984054088593, -0.08664524555206299, -0.07668151706457138, -0.09074503183364868, -0.07999566197395325, -0.06875346601009369, -0.0752873569726944, -0.06976617127656937, -0.08622131496667862, -0.08326113224029541, -0.05990561097860336, -0.06407924741506577, -0.061676379293203354, -0.06814318895339966, -0.057949405163526535, -0.07053910195827484, -0.05269654840230942, -0.06721977144479752, -0.06242959946393967, -0.09320337325334549, -0.08920884132385254, -0.06368742883205414, -0.09122702479362488, -0.07544669508934021, -0.07089768350124359, -0.09975683689117432, -0.10172390937805176, -0.08184957504272461, -0.09326538443565369, -0.08196717500686646, -0.08396386355161667, -0.08611802011728287, -0.066824771463871, -0.07454874366521835, -0.07810846716165543, -0.06160544231534004, -0.051999665796756744, -0.04269911348819733, -0.02534264326095581, -0.03168551251292229, -0.016537170857191086, -0.021217938512563705, -0.008886845782399178, 0.006058678030967712, 0.009176253341138363, 0.008776875212788582, 0.008784201927483082, 0.03160838410258293, 0.005290420725941658, 0.03479571267962456, 0.04213053733110428, 0.03569220378994942, 0.015202979557216167, 0.030744541436433792, 0.0430627204477787, 0.03576614707708359, 0.0337524451315403, 0.034018948674201965, 0.032952915877103806, 0.048211872577667236, 0.041366446763277054, 0.04780149832367897, 0.05158541351556778, 0.05423548072576523, 0.06403111666440964, 0.06742405146360397, 0.06076305732131004, 0.028899623081088066, 0.05394498258829117, 0.05348307266831398, 0.07079767435789108, 0.04081127047538757, 0.06095882132649422, 0.05652228742837906, 0.08288238197565079, 0.06088161841034889, 0.06719429045915604, 0.0549018420279026, 0.03395070135593414, 0.06606459617614746, 0.06448975950479507, 0.06069635599851608, 0.0539170578122139, 0.05657793954014778, 0.05217287689447403, 0.051966261118650436, 0.03533586487174034, 0.033318717032670975, -0.011900275945663452, -0.0184987410902977, -0.019151512533426285, -0.05127767473459244, -0.07807424664497375, -0.06073577329516411, -0.08427917957305908, -0.10337714850902557, -0.11596769094467163, -0.11754264682531357, -0.10853993892669678, -0.10678248107433319, -0.13441042602062225, -0.12416992336511612, -0.14522190392017365, -0.1297263205051422, -0.10964571684598923, -0.1357928365468979, -0.14393652975559235, -0.1442582905292511, -0.13882501423358917, -0.1655770242214203, -0.12360712885856628, -0.14103540778160095, -0.14244170486927032, -0.12589100003242493, -0.1453647017478943, -0.1265941560268402, -0.1361701786518097, -0.12663456797599792, -0.13176508247852325, -0.13896138966083527, -0.15131665766239166, -0.1507280319929123, -0.138600155711174, -0.1297416090965271, -0.13581861555576324, -0.14165465533733368, -0.13428153097629547, -0.12242013961076736, -0.16077986359596252, -0.12151714414358139, -0.1349693387746811, -0.1388876885175705, -0.11895774304866791, -0.1483561396598816]